-0.0475105,0.007835883,-0.013183355,0.07595123,0.050750446,0.0017486556,0.093548626,-0.018809624,0.0071664997,0.044013765,-0.0360888,0.0022782397,0.11201584,-0.00037536467,0.023963662,0.05601099,-0.022889102,0.08001352,0.023866313,-0.08382882,0.033966273,0.033011228,-0.09924771,0.0037364194,0.0109947985,-0.04594783,0.020503543,0.014812132,0.07519804,0.1983571,0.050226483,-0.0014289917,0.06647138,-0.06629761,-0.01942852,0.020249985,0.03652327,-0.01260091,-0.01508003,-0.02783116,-0.09720216,0.017477144,0.036915645,-0.10299652,0.05586861,-0.083442405,-6.2417384e-05,0.10401422,-0.17485923,-0.14376508,0.037864942,-0.14662725,-0.17270839,0.032009114,0.13089502,0.052969597,0.0036979374,-0.12049977,-0.27214512,-0.2175202,0.051038686,-0.1957853,-0.07083385,-0.16556463,-0.17898144,-0.102577224,-0.30511078,-0.36428773,-0.35691893,-0.25490806,-0.22929592,-0.19205272,-0.023540998,-0.08394302,-0.04396497,-0.03435541,-0.1174631,-0.049084067,-0.04877378,-0.03526547,0.08122032,0.07538127,-0.026666721,-0.051790707,0.051440224,-0.030845493,-0.08253828,0.17593639,-0.02671542,0.047891513,-0.022136552,-0.0792263,0.031594574,-0.007540931,0.16975361,0.16847757,0.07571885,0.09061412,0.10859892,0.10380805,0.22838914,0.14574583,0.0880967,0.11221426,0.12020377,0.13016984,0.08669006,0.093595095,-0.0050889873,-0.022368114,0.04034458,-0.025365565,-0.054826643,-0.012098546,-0.035646953,-0.053310238,0.00043580984,-0.005854034,-0.056878936,-0.031342715,-0.042242143,-0.056122012,0.017620841,0.01974382,-0.054119837,0.07208333,0.030193407,-0.03303473,-0.02819995,0.065450445,-0.016593317,0.0050674984,0.0138020115,-0.06784505,-0.007225542,-0.09995096,-0.12795158,0.02219784,0.109743856,0.13247722,0.08693935,0.12583308,0.10931262,0.07900204,0.06392343,-0.19958153,-0.13794984,-0.003265491,-0.21690147,0.043074317,0.14921013,-0.026509449,-0.060223714,0.1740921,-0.092680976,-0.13238575,-0.0054409076,-0.07081797,-0.14759089,0.025329832,-0.26513577,0.056031197,-0.042974398,0.09170522,0.21677971,0.027328618,-0.1950473,0.34872672,-0.033355862,-0.18269938,-0.12816888,-0.038287632,-0.06448054,0.11871568,0.054182444,-0.15742925,0.033195943,0.04393324,0.03354499,-0.007927674,-0.10891037,0.18398206,0.02308456,-0.24646829,-0.07616389,0.38159683,-0.015250606,-0.43198794,0.20731147,-0.049346562,0.3456447,-0.25336242,-0.22944574,0.16637006,0.021972504,0.0523341,-0.2609115,0.14169963,0.032081764,0.2342766,0.09145091,-0.1347582,0.3268889,0.21395032,-0.11071932,0.008140731,0.12817012,0.023586063,-0.2340146,-0.077159725,-0.03426261,0.018183885,-0.17556565,0.004777126,0.015236117,0.08276914,-0.015286075,0.17102,-0.19042075,-0.14873637,0.23633002,0.1889417,-0.08805896,-0.06328459,0.23894735,-0.06805404,-0.16070405,-0.03918298,0.04308431,0.066016816,-0.058966126,0.10853962,0.050713405,0.13780761,-0.0110573005,-0.18329106,-0.059057105,0.23243426,-0.13468009,-0.29281065,0.041352805,0.03309726,-0.20059992,-0.044433497,0.098406,0.06464747,-0.057725143,0.12363735,0.10234797,-0.060104102,0.017623262,0.1648663,-0.057671547,-0.05478024,0.17217869,-0.020423386,-0.05330303,0.11463436,-0.06946745,-0.039918464,0.037104417,0.36467445,0.12594076,-0.3291346,-0.6625909,0.7223571,-0.035348307,-0.37078094,-0.13136521,0.5155286,0.21474293,-0.3577215,-0.018190637,0.42360923,-0.029794037,-0.47877496,0.31870764,0.23506878,-0.30270228,0.013868018,-0.12784986,0.01296596,-0.06238829,-0.011240856,0.110632524,-0.0150553,0.15950373,0.025915772,-0.022283398,-0.007074117,0.05003863,0.051653426,0.20584668,0.093949206,0.0734089,0.1356502,0.023352966,0.006845944,0.059017252,-0.026960203,-0.072783664,0.028881412,0.020396959,-0.011985707,0.0034016527,-0.016865391,-0.07073209,-0.060181424,-0.053393282,-0.00040304937,0.031066014,0.015549183,0.047426444,0.08395232,0.02287927,-0.048413407,-0.06437453,0.0052911285,-0.13075364,-0.018687127,0.05559095,-0.0807347,0.031228857,0.008386773,0.018257422,0.04263301,0.14567128,-0.028348843,-0.04687934,-0.010861536,-0.0023507243,-0.017572481,0.027291253,0.07228719,0.04264329,-0.042775966,-0.014570058,0.08373721,0.054310538,-0.013181563,-0.022890734,-0.059052266,0.019101573,-0.00284918,-0.01813818,0.039460883,0.04393888,-0.017666165,-0.054087162,-0.056636725,-0.06639968,0.0026345765,0.0037808043,-0.019284626,0.0040296377,-0.027017415,-0.035128012,0.09455845,0.072615236,0.03712556,0.09855766,0.17213325,0.105296455,0.14396279,0.30400348,0.19980955,0.017036054,0.10403553,0.05289518,0.045817256,0.04216719,-0.054543547,-0.006636596,-0.05424017,-0.049956013,0.0393608,0.009676517,0.014352009,0.006636747,0.0803285,-0.019194292,-0.017048357,0.056593243,-0.010960244,-0.056072522,-0.0025726897,0.054711983,0.00092154887,-0.047014438,-0.021181265,-0.0055532088,-0.08310107,-0.014394058,0.061405014,-0.04674373,0.001637766,0.0045957593,0.007361977,0.007858513,-0.04557945,-0.041005217,-0.054783985,-0.041873433,-0.03513432,-0.032055516,0.02839793,-0.06336833,-0.07875767,-0.056220464,0.061757617,0.05757758,-0.03638263,0.010257824,0.01603871,0.06866946,0.10694246,0.057975896,0.00443535,0.08603972,0.028217582,-0.0071791597,0.060043953,0.02410675,-0.06547373,-0.06990034,-0.053641837,0.003249691,0.005907775,0.05914611,0.046834555,-0.007026291,0.059861045,0.08165687,0.06378151,0.039828144,0.10437577,0.11898118,0.08192389,0.04089826,0.045855943,0.004273235,-0.002370285,-0.03163272,-0.017907223,-0.0424379,-0.038916834,-0.024993123,-0.031989116,-0.013430156,-0.024247998,0.0011279382,-0.030820895,0.03600787,-0.03931547,-0.04221874,0.004100038,-0.0117877135,-0.03091742,-0.030657828,0.01533959,-0.010429028,0.0047759353,0.024333775,-0.020437816,-0.030775933,-0.042482637,-0.081267886,-0.07326344,-0.01706114,-0.029037086,0.011671707,-0.09971753,-0.07308144,0.012547827,-0.0021833505,0.027996326,0.12313535,-0.005348756,-0.024806038,0.071417846,0.011537344,0.0058098184,0.02427403,-0.048506763,0.009760362,0.026107386,-0.2071327,-0.120117,-0.03018183,-0.09878916,-0.11839951,-0.028843312,0.016213818,0.021303527,0.039469086,-0.022665916,-0.06443668,-0.15022422,-0.04581758,-0.08855107,-0.15262707,0.05785696,-0.008151785,-0.028691767,-0.0667503,-0.026254151,-0.040101275,-0.041866157,0.011652917,0.00767718,-0.058950216,0.032183837,0.022633372,-0.024805443,-0.03207822,-0.038849983,-0.051044904,-0.035216704,-0.054948483,0.08600106,0.002074121,0.0036350251,-0.010412457,-0.019870594,-0.069310084,-0.02158959,0.027120218,-0.0378299,-0.039564464,-0.010386382,0.0011924293,-0.061654475,-0.06996787,-0.056365654,0.06776255,0.0071980115,0.0109533565,0.09382558,0.12922911,0.14412934,-0.03297856,-0.03525804,-0.024304442,-0.006504519,-0.026318084,-0.024866061,0.019898264,-0.017064871,-0.0048476364,-0.10165436,-0.042671867,0.07823944,-0.08781443,-0.052857526,0.009593088,-0.05864429,-0.024373764,0.005424196,-0.0073154103,0.028288411,0.0031144165,-0.11230805,-0.09573834,-0.11874974,-0.007809898,0.010532382,0.017000254,0.0937842,-0.004921387,0.007153204,-0.010279062,-0.042480897,-0.0609544,-0.056249168,-0.07633393,-0.054853193,-0.04334679,-0.11826084,0.24576057,-0.48617482,-0.1025055,0.45030338,-0.47688368,0.038351852,0.43312946,-0.045515556,-0.10671866,0.15170485,-0.66197747,-0.18144877,0.44876432,-0.6052842,-0.10730283,0.3964267,-0.09934145,-0.0063112807,0.060998615,-0.15982975,-0.011768267,0.21531063,-0.14106214,-0.048692733,0.22578055,-0.11703104,0.10514038,-0.08178386,0.23145828,0.21513666,-0.20742819,0.07945386,0.08926921,-0.25960514,0.08997363,-0.034190252,-0.01364733,0.10462995,0.033266097,-0.05638834,0.057046805,0.03513625,-0.2060517,-0.049494173,-0.11328447,0.17245834,-0.036908004,-0.3103284,0.3228202,0.049911276,-0.32004836,0.1546816,0.0053548724,-0.15405561,-0.17798012,-0.12980804,-0.23132615,0.01348734,-0.13984285,-0.115616836,0.33237386,-0.11491544,-0.0344027,0.0030128814,0.32539463,0.120557934,-0.2908727,0.24493533,0.14055021,-0.26952156,-0.018969018,0.046810135,0.2949924,-0.26936045,-0.1290478,0.19798346,-0.19775803,-0.0984277,0.037880085,-0.15151069,-0.17358765,0.013420393,0.33419526,0.035572603,-0.09738306,0.17006715,0.14840627,-0.02154838,0.07117765,-0.06373556,0.18034175,-0.28288105,0.09101975,0.40689805,-0.39653662,0.028327536,0.1991242,0.141617,0.15218635,-0.15091781,-0.036675192,-0.06552795,-0.112587295,-0.17708866,-0.10527945,-0.07933875,0.0756493,-0.024835702,-0.15487438,0.0069000674,-0.010379158,-0.074458994,-0.09701274,0.005194618,0.05196658,0.023171084,-0.20107691,0.15896225,-0.0887404,-0.2882953,0.19794676,-0.15253954,-0.11994462,0.034309547,-0.004064114,-0.13415624,-0.023935083,0.017702334,-0.17603457,0.024428122,0.17246899,-0.080655485,0.13186067,0.09107207,0.247613,0.0015611821,-0.09520099,0.085358374,-0.00267906,-0.070910715,-0.0036293322,-0.009467416,-0.055817675,-0.04711837,0.027192699,-0.08346855,-0.07253034,0.04953021,0.024466455,0.005860186,0.045245808,-0.22011389,-0.14682284,-0.042750183,-0.15299778,-0.11683881,-0.050301198,0.04036193,-0.013515119,0.010707056,-0.109199464,-0.09903579,0.0015562908,-0.09023283,-0.12925774,-0.09542909,-0.027001074,-0.10231232,-0.11873234,-0.070147485,-0.006141888,0.107519306,-0.047968455,-0.026853802,0.043319818,0.03764986,0.045458212,-0.045149155,0.0037356473,-0.07452037,0.01185233,-0.010869716,-0.07180831,-0.020412704,0.05170121,-0.02313881,-0.009629973,-0.0021155325,-0.010410096,0.002950326,0.027060632,-0.04892706,-0.055944346,0.053601533,-0.0106767835,-0.07527176,0.0081125675,0.13715297,0.093846515,0.05576724,0.0717525,0.010014347,0.0090604415,0.05982605,0.01793462,0.07937813,-0.0016681672,-0.051873997,0.01468739,0.022877052,-0.009872839,-0.023339916,0.06385713,0.037958175,-0.07134079,-0.062153418,-0.005844017,0.028765375,-0.00051130727,-0.024390947,0.009612985,-0.0047926344,-0.056996353,0.121908635,0.009401695,-0.12644431,0.048470102,0.043060206,0.013786482,-0.059127558,-0.009410146,0.11353438,-0.16022563,-0.17033651,-0.026027735,-0.13112375,-0.14060938,0.008231041,-0.062082507,-0.08766777,0.031303097,0.1088484,0.014646964,0.06863431,-0.0022381654,0.064152785,0.08686456,0.044833284,0.04955003,0.1482205,0.0408368,0.03481453,0.07078995,-0.008890252,-0.005477495,0.05654364,-0.025830477,-0.020124966,0.045770984,0.04392653,-0.011404657,0.005737265,0.07322858,-0.026286913,-0.04955547,0.07786414,-0.009674384,-0.04901424,0.014899213,-0.18577373,-0.05501937,-0.0010786185,-0.23235118,-0.14489524,0.092613414,-0.07533017,-0.012701621,-0.074481726,-0.15207066,-0.061916143,-0.060254216,-0.18233255,-0.11610582,0.08018115,-0.05711373,-0.07805718,0.07992443,-0.12242912,-0.036505602,0.10229839,-0.06450921,-0.108503975,-0.0584029,0.001997396,-0.004009913,0.0016272962,-0.07080307,0.082576364,0.028676264,-0.10688181,0.07625072,0.061248574,0.08863934,-0.00228192,-0.15532385,-0.018235624,-0.012490829,-0.040533002,0.04449601,0.15590136,-0.050345697,-0.07912498,0.084199525,0.102276996,0.2444926,0.23852363,-0.18692587,0.26631263,0.2208203,-0.096469514,0.028839909,0.16370387,-0.009980745,-0.087512255,-0.1890528,0.08181796,0.100327455,-0.16397323,0.119748436,0.118086256,-0.037612204,-0.096956335,0.050073754,0.013711031,-0.18592294,0.11531235,0.036689736,-0.02015469,-0.0827196,-0.03952477,0.19161348,-0.0758829,0.009028932,0.13578136,0.12965538,-0.14380288,-0.027600318,0.14434937,-0.0743714,-0.08914739,-0.11436015,-0.14606524,-0.25472853,-0.13867831,-0.30580917,-0.055797555,-0.19343787,-0.08022342,0.008712111,-0.019616313,0.102539666,0.008701672,0.07227354,0.054612618,-0.021222249,-0.13358772,0.01944664,0.18105455,0.11526882,0.11865614,0.42787173,-0.10497442,-0.12882878,0.07632957,-0.0705254,-0.2279367,-0.08169142,0.110528015,-0.021245807,-0.025480935,0.020329518,-0.048946947,0.031898852,-0.045114316,0.029423427,-0.08942965,-0.025412548,0.004393491,0.054829378,0.07089131,-0.11626982,0.06485586,0.10188457,-0.107861415,-0.038421612,-0.021636426,0.00047609454,-0.060112253,-0.059863944,-0.014458302,0.013386223,-0.013898263,-0.0046125054,-0.03456745,-0.06781688,0.006438413,0.14331114,0.028118115,-0.03580581,0.061907668,0.10953939,-0.10664856,-0.029510492,-0.11147627,0.107124865,-0.053563368,-0.16291666,0.15418886,-0.0012671248,-0.20133057,0.05192103,0.051709797,0.0042252378,-0.17127196,0.028288038,-0.029281437,-0.09512875,0.07598313,-0.07845658,-0.010766285,0.1017304,0.2837958,-0.00731626,-0.04461204,-0.06579212,-0.17791958,-0.18792717,-0.16524029,-0.20904057,-0.00024042181,0.06883891,-0.036636304,-0.051010236,0.09164797,-0.09024153,-0.12853758,0.023601975,-0.14871438,0.010384822,0.18458742,0.15208694,-0.10673644,0.17479402,0.082822256,-0.16941541,-0.0008462592,-0.021042062,0.043487035,-0.13747633,-0.08397521,-0.049370017,-0.21271084,-0.1692597,-0.018070197,0.013667038,0.23882747,-0.2219384,-0.36208674,-0.3288513,-0.092662014,0.1423718,-0.15328902,0.14802007,0.53921413,0.17290762,-0.007286244,0.15383887,0.19303085,-0.045838125,0.01702117,0.12353534,0.12358604,-0.04163858,-0.1482853,-0.18100588,-0.12623772,0.095958106,-0.4191874,-0.19449137,0.0796752,-0.12803344,0.10632376,0.06791531,-0.06952073,-0.25320667,-0.25487974,0.06230906,-0.2292107,-0.120227955,0.21156572,0.37394696,0.36376092,0.041450094,-0.038541928,0.025397813,-0.0028920467,0.10084499,0.076698706,-0.02241827,-0.03866538,-0.08110878,-0.046413857,-0.09187334,0.020397918,-0.11113639,-0.15941313,-0.11449291,0.22142181,0.25067902,0.12534787,-0.016116297,0.02038627,0.0061500794,0.1925446,0.053236976,-0.18536405,0.052184947,-0.0063864705,-0.13240632,0.08853474,0.040252414,0.062149186,-0.1081893,-0.02362877,0.042813018,-0.036169756,0.007636602,0.012641216,-0.052174605,-0.007081468,-0.07622911,0.03698166,0.09278394,-0.021502081,-0.17682216,-0.14313744,-0.15557945,-0.114300504,-0.092532374,0.093541436,-0.077941135,0.04964511,0.11448378,0.02285121,0.18133448,-0.0073987073,0.13957019,0.16287819,0.23936339,0.01236475,-0.041685823,0.021126991,-0.10261143,-0.23073064,-0.19500066,-0.006119662,-0.047773674,-0.1501012,0.22816072,0.1314328,-0.22663188,0.07699504,0.16135032,-0.0017710461,-0.109355345,-0.07430215,-0.009794028,0.10050672,0.07768204,0.023053758,0.10328486,0.0035618392,0.053492025,0.06355893,0.017593212,-0.097110085,0.00074587297,-0.0026864368,-0.04789627,0.13614957,-0.17033388,-0.055211455,-0.004001912,-0.08444394,-0.007519334,0.01651653,0.045854755,0.20290077,0.07112719,0.041734274,0.13207723,0.013158849,0.07184253,0.083622135,-0.06437192,0.004324131,-0.02068848,-0.17642796,0.12528239,0.14843401,-0.010074867,0.023762967,0.011294054,-0.06435086,-0.08958814,0.036012106,-0.032262277,0.029681623,0.043646578,0.010530159,-0.07621504,0.12776607,0.08489768,-0.006869799,0.08142598,0.07818618,-0.001523068,0.055541497,0.15955496,0.038881585,-0.039679695,0.023507673,-0.12940668,-0.12497054,0.0068919184,-0.10896424,-0.06849828,0.18687877,0.17314096,0.04418358,-0.46327916,-0.667863,-0.6561494,-0.83199364,-0.883041,-0.7346388,0.04535472,0.20333675,0.17170961,0.13045903,0.013344854,-0.06559424,0.15479398,-0.120474644,-0.14493077,0.031880476,-0.040193923,-0.012628035,0.056389127,-0.013754871,-0.049740214,0.16686648,0.065624446,-0.015160997,-0.0008168424,-0.12241874,-0.03800803,0.06319585,0.028413495,-0.03211656,-0.1684641,0.032520723,0.0720649,0.029638527,0.16647485,0.1815697,-0.011827571,0.018433316,-0.007184443,0.04912833,0.104833946,0.11747183,0.13407746,0.07722278,0.03193016,0.09461586,0.025275167,-0.03476373,0.030918576,0.017689427,-0.009324334,0.08951208,0.07017721,-0.11096507,-0.03692065,-0.015215675,0.04056034,0.111569166,-0.02923855,-0.076426394,-0.070165314,-0.060140762,-0.15068103,0.09417742,0.09290693,-0.012751499,-0.014558177,0.044510256,0.019462638,-0.033441726,0.024437571,0.14619704,0.039969,-0.06665519,-0.043841038,-0.02126057,-0.081119664,-0.04493031,-0.00013218653,0.09153672,0.023762504,-0.09489831,0.03171174,0.07696679,-0.036123626,-0.095899224,-0.049027096,0.010701296,0.012351845,0.055036433,-0.0063382746,0.020450586,0.04181734,0.042775758,0.042819228,-0.044118978,-0.071638696,-0.0740531,0.083539434,0.0071480363,0.08310688,0.17914718,0.021756236,0.034228835,0.07216356,-0.42466697,-0.39418924,-0.13626425,-0.42007405,-0.41688552,-0.23332892,0.113158606,-0.100806706,0.0215487,-0.027537344,0.022522777,-0.07385956,0.05813215,0.038299818,-0.15132512,0.10830806,0.12947665,-0.10819617,0.1145998,0.059344746,-0.08090125,0.17987648,0.12837096,0.01811286,-0.021829996,0.08884422,0.15008585,0.13345699,0.22910343,0.1144607,0.202871,0.3791582,0.4318805,0.17611194,0.33897984,0.20042822,-0.060223743,0.019471146,0.13190807,-0.14938018,-0.4934582,-0.15462062,0.10021821,-0.07720797,-0.0097852405,-0.27085507,0.010289269,0.16938695,-0.13613455,-0.12704946,0.0020074367,0.1470966,0.019779718,-0.06590447,-0.10895876,0.018353576,0.21508752,-0.15649346,-0.27051425,-0.0029345378,0.030529447,-0.25033557,-0.18774916,-0.05319551,-0.1291892,-0.04351983,-0.23366132,-0.29474235,-0.31169727,-0.08028483,-0.18590166,-0.2672748,0.022474717,-0.12360912,-0.03784119,0.010600855,-0.20106421,-0.12848172,0.04270682,0.08590387,-0.07564022,0.092122495,0.062041923,-0.074219435,-0.07109366,-0.024501015,-0.07915523,-0.07482473,-0.08044032,-0.11718596,-0.017113501,0.07518406,0.069753505,0.21626833,0.15432449,0.08532716,0.0104183545,0.14134991,0.075463265,0.063600846,0.06660284,-0.21737166,-0.003690857,0.1284183,-0.083742484,-0.15847386,0.14169227,0.10414208,-0.17333673,-0.027399909,-0.02138469,-0.17759235,-0.1300036,-0.061814744,-7.688043e-05,-0.16412419,-0.105288796,-0.09042089,-0.042066347,-0.0068242447,-0.115683265,-0.14424711,-0.0016948922,-0.09040302,0.006819937,0.14325777,0.02975757,0.027846131,0.14707333,-0.04460158,-0.013354958,-0.010481454,-0.11343026,-0.022861669,0.029508254,-0.13168481,-0.09927972,-0.11963317,-0.04626382,0.042428844,0.082453296,-0.16818485,-0.07297809,0.026099162,0.11914741,0.13545789,-0.023203952,0.024666382,-0.11453483,-0.10565241,-0.14189143,0.06686111,0.1111456,0.013530603,0.0006328776,0.008737062,0.14068697,0.108408034,0.02688473,-0.0031804093,-0.051009372,-0.12819852,-0.026454277,0.072341986,0.04691313,0.026530704,0.14854829,0.062416647,0.12989609,0.14168535,0.12827761,-0.10028699,-0.009996898,-0.045708604,-0.038236413,0.10897232,0.18226811,-0.09715541,0.06994614,0.23949885,-0.25087288,-0.3786941,-0.12047982,-0.24848789,-0.35959306,-0.27165094,0.08195849,0.014052438,0.076819874,-0.107812,-0.11570637,-0.025170896,-0.17789882,-0.11065972,0.020408789,-0.054015785,0.03099276,0.17715727,0.0778536,0.057742137,-0.05111378,0.25445664,0.18181756,0.13246794,0.1811549,0.17121664,0.1828818,0.12633933,0.00963144,0.05598627,0.00951731,-0.21666034,-0.15710163,-0.070970386,-0.1448232,-0.06764936,-0.10940819,0.015026314,0.0059816823,0.049159054,-0.024340011,0.1379059,0.11184922,0.067007996,0.099587314,0.0035174126,0.045015376,0.0654059,-0.0460009,-0.0699961,-0.07076651,-0.039611798,-0.09272106,-0.11241353,0.07164627,0.09960018,-0.02221444,0.10310878,0.0032652537,0.04352331,-0.10943147,-0.18551493,-0.15401243,0.014188627,0.03335736,-0.07391759,0.2922501,0.2796416,0.109757885,-0.006228032,-0.11456002,-0.3243426,-0.116423406,-0.14501545,-0.06392042,0.028207801,-0.07249488,0.070864365,-0.1095779,-0.11855945,0.021607425,0.05662929,-0.040016007,-0.03193306,-0.0048216814,-0.21291539,-0.03746817,-0.034865264,-0.29164153,-0.049241163,-0.020075984,0.07808983,0.032432616,0.04052827,-0.013263291,-0.03453472,-0.020580506,-0.118916675,-0.035935536,-0.09580415,-0.036306214,0.0853253,0.05247488,-0.049792923,0.006578993,0.26435655,-0.02632424,-0.024775403,0.044915646,-0.0697598,-0.14117688,0.03480668,0.0325003,0.0110244565,-0.08070306,0.11005406,0.21263447,-0.2752314,0.0045033325,0.7446041,-0.3838862,-0.5424613,0.10567528,0.22751005,-0.27553672,-0.04460478,0.008463813,-0.042980738,-0.09987475,0.09256721,0.053200595,-0.016726194,-0.055255152,0.047228515,0.07297454,-0.030870648,0.18946134,0.08858324,0.055573713,0.22448899,0.18108927,-0.0253071,0.079967104,0.07391044,-0.10257178,-0.12543462,-0.12187804,0.053851135,0.030610906,-0.06495245,-0.02634597,0.14422366,0.0140249925,0.0710219,-0.02780108,-0.016359033,0.04412351,-0.086287804,-0.046568774,0.038031597,-0.10312612,-0.16654925,-0.030776808,0.1456935,0.05506678,-0.014336163,-0.00905525,0.009118127,0.08025139,-0.06320921,0.012266735,0.0024194326,0.011913522,-0.019630313,0.121207885,0.099892795,-0.05442104,0.10999917,-0.035557006,-8.7791566e-05,0.07830884,0.02825303,-0.06202082,0.15060228,-0.042398937,-0.1384299,0.11161827,-0.029432947,-0.16776776,-0.057927165,-0.08083324,-0.041636664,-0.035743654,-0.10728812,-0.045979284,0.12441372,0.03336015,0.014066065,-0.19383396,-0.13407044,-0.081930645,-0.13627663,-0.26060858,0.044019002,-0.06899526,-0.16599068,-0.013534024,0.14992863,-0.06468609,-0.22822851,0.27950543,0.09897435,-0.19319257,0.10763917,0.07253092,-0.1848901,-0.14674915,-0.16356216,-0.052904725,-0.10877415,-0.3274473,-0.22095329,-0.023730831,-0.30005088,-0.16915447,-0.100886986,0.2300075,-0.107277915,-0.05651846,0.28287122,0.030477772,-0.049222488,0.06587808,0.09183547,-0.047399707,0.14948782,0.06871267,0.03859247,0.09585427,-0.12456357,-0.122432195,0.15322615,0.036534965,-0.11672715,-0.30321807,-0.024007484,-0.12850656,-0.32796314,-0.12086176,-0.05503072,-0.21090452,0.046021417,-0.011824185,-0.013541973,-0.005852135,0.021598492,0.015315318,-0.041657403,-0.049289133,-0.20485185,0.037159782,0.672515,-0.79599947,-0.411543,0.2570978,-1.2044736,-0.75773317,0.35913157,0.311083,0.87188494,-0.03313282,-0.13548869,-0.038207397,-0.13023977,-0.20429137,-0.19215596,-0.1054204,-0.11571944,0.046717644,-0.109272785,0.012083855,0.15865438,-0.03725965,-0.016622536,0.0074441917,-0.0637848,-0.001308228,0.116671234,-0.09699968,-0.062446404,0.14676812,0.14459772,0.035045832,-0.11381141,0.051803663,0.095926985,-0.16254821,-0.15093394,-0.05126714,0.08835007,-0.08648415,0.12579466,0.32769415,-0.14470398,0.01349569,0.13111065,-0.0027961682,-0.045054574,0.13191998,0.0903256,-0.3123449,-0.20216365,0.07693231,-0.069926105,-0.0546183,0.0070572505,0.045165367,0.055680957,-0.28374243,0.073758826,0.28196144,-0.1315697,-0.015132966,-0.085887305,0.010215487,0.034744553,-0.0028476864,0.104350954,0.23775016,-0.17440277,0.070195474,0.2733701,0.0100161685,-0.012697775,-0.07629635,-0.011058977,-0.07198317,-0.04647833,0.025743822,-0.04972399,0.093540065,0.18371603,0.1513835,-0.06568999,-0.08937451,0.053831127,0.1857871,-0.21197133,-0.09288981,0.082503684,-0.03709792,0.4973181,-0.3612979,-0.3791984,0.18065682,-0.4948817,-0.3403466,-0.011259739,-0.02000452,0.48362678,0.030744977,0.07211865,0.25252867,0.0025089579,-0.17433926,-0.040026374,-0.08945053,-0.33630675,-0.06215048,-0.15201639,0.012459511,-0.07769837,0.20237944,-0.13521342,-0.20389625,0.19267792,-0.13755564,-0.016818479,-0.20760511,0.08989682,0.06269225,-0.06959731,-0.047625177,-0.012480653,0.0660253,-0.090277955,-0.11244235,-0.015274508,-0.11687466,-0.21900569,-0.18418236,-0.3550012,-0.2542068,-0.09397326,-0.13609862,-0.07552899,-0.20738266,-0.091367096,-0.27553403,-0.1402201,0.09216749,-0.16112402,0.0048907846,0.023382876,0.25044876,0.19851905,0.41744655,0.058760405,0.32354113,-0.11524698,-0.21170194,0.069906555,-0.32486287,-0.040553056,-0.14214574,-0.17031524,0.16824847,-0.3445594,-0.4769191,0.23624398,-0.07100666,-0.15386179,-0.0854227,0.015778286,-0.21896835,0.1507218,-0.18433976,-0.30951867,0.36592066,-0.02587324,0.10210533,0.22072867,-0.025464553,-0.10401318,-0.119303435,-0.080436885,0.0040996955,0.038460772,0.019495877,0.039292235,0.013634673,-0.2736575,0.00799291,-0.0071782707,0.17215149,0.27608404,-0.0718283,0.21405981,0.051780593,-0.2663615,-0.09131003,-0.17312402,-0.030368006,-0.03435275,-0.22508706,-0.13906278,-0.06441415,-0.08185826,-0.11838635,-0.24490777,0.3440343,-0.08193087,0.22646686,0.41724595,-0.43385357,0.19810803,-0.15412742,-0.23960663,0.0047630006,0.059657127,0.1721882,0.16740906,0.3796553,0.2573331,0.06315155,0.186423,0.07454232,0.13493347,0.11230551,0.1282027,-0.045547698,-0.22806412,-0.15750736,-0.093384564,-0.20357586,-0.05017449,-0.16162997,-0.06284404,0.13448557,0.1322572,-0.22925507,-0.056737516,-0.022479398,-0.30292016,-0.040110413,0.19214496,0.12308988,0.25968003,-0.13530155,-0.13903405,-0.0038549732,0.016590433,-0.06874062,0.013109298,0.16208722,0.08380307,-0.08374803,0.08264055,0.27326483,-0.013807278,0.056068555,0.010233024,-0.045277547,0.14930318,-0.13730177,-0.13978389,0.2540975,-0.024506826,-0.28433463,0.13679416,0.10830068,-0.15729837,0.3572933,-0.08929618,-0.14480916,0.45115906,-0.10358526,-0.4151029,0.27708498,-0.10735094,-0.16005293,0.040179662,-0.08632501,-0.20376311,0.1331781,0.052218556,-0.17441523,-0.009295263,-0.037936434,-0.22755003,0.023433078,-0.31865606,0.06968443,-0.05185721,-0.031609207,0.20550735,-0.02985786,0.09429415,0.1622774,0.029844591,-0.07600816,0.060934838,-0.021782741,-0.13335255,-0.0032961054,0.06267455,0.055435877,0.16905722,0.14250511,0.01637756,-0.19532478,0.21895802,0.14474979,-0.26628405,-0.04889593,0.026920909,-0.14761446,0.098062724,0.29374093,0.014095982,-0.07739728,0.13163316,-0.12919654,-0.09560695,0.04487277,0.058494724,-0.060325686,-0.12769519,-0.12363131,-0.13386445,0.03132305,0.22133291,-0.14979866,0.029443726,0.12678955,0.0051178844,0.09130188,-0.039237197,0.02635767,0.07826795,-0.03311382,-0.056026544,0.028547358,-0.0016291793,0.17137314,0.2142765,-0.028472712,-0.021831576,0.061484423,-0.021147577,-0.024864433,0.025629595,0.03500229,0.014338281,-0.20075,-0.077161156,0.111772485,-0.17220354,-0.14514825,0.08618869,0.03722516,0.04466644,-0.04276069,-0.03190972,0.10739679,-0.17302045,-0.12486458,0.14125171,-0.2596642,-0.09536291,0.17635247,-0.043387435,-0.06411156,-0.011145929,0.021098088,-0.02817552,-0.021079518,0.044303514,-0.041109573,0.010674924,0.05227313,0.15934463,-0.1926667,0.112620436,0.12498739,-0.19461413,0.16187549,-0.020643126,-0.23326218,0.0047727698,-0.14808095,0.15903696,-0.08137699,-0.19110909,0.116710916,-0.03336328,-0.11728907,0.16461597,0.084570244,0.01924689,-0.010093419,0.11436815,-0.03373409,-0.22139344,-0.0714282,-0.22510323,-0.15554649,-0.18808377,-0.32724714,-0.23563857,-0.15049379,-0.38842574,-0.21372724,-0.18600065,-0.32559687,-0.09423406,0.0288434,-0.081124984,-0.017847717,0.117580995,-0.15597767,-0.011758105,0.18078554,-0.06271349,0.055258155,-0.0036504585,0.0366105,-0.05235674,-0.00467462,0.058567468,0.06628006,-0.010070185,0.054734953,0.099408284,0.02311468,0.031678952,0.046862327,-0.025245348,0.02748791,-0.0696764,0.01771591,0.042122144,-0.025185868,0.27682978,0.12529205,-0.17883897,0.21931821,0.034422018,-0.17724189,-0.0022183985,-0.12038812,-0.14647539,-0.08760593,-0.14528932,0.055214252,-0.1440085,-0.18809062,-0.09652117,-0.08841753,-0.16274428,-0.09561807,-0.13110647,-0.07142397,0.075059034,-0.17110468,-0.13791212,0.024345342,0.10328537,-0.09825553,0.08986367,0.015784467,0.09780971,0.062231235,-0.010401677,0.11808943,0.040550932,0.030250613,0.10687897,0.07130752,0.034431964,-0.08352473,-0.060346402,0.044126764,-0.056549072,0.03333414,0.053671993,-0.09066438,-0.018168563,-0.025517244,0.0008641778,-0.065396145,-0.047391996,0.009329404,0.055641804,-0.004402996,0.1292442,0.05680716,-0.116519414,-0.03387624,-0.10391742,-0.07491577,-0.07204626,-0.1276212,0.011772291,-0.06304084,-0.15169626,0.05806801,0.07863953,0.21185601,0.17123,0.04913586,0.16013084,0.07564647,-0.014110566,0.0059076617,-0.036221776,-0.01941026,-0.051709406,-0.037298992,-0.036137916,-0.046391062,0.03729159,0.04779998,0.065994,-0.058342677,-0.09341379,0.10342647,0.040893268,-0.24424562,0.17920233,0.088278554,-0.111778446,0.11530541,-0.14691241,-0.04888442,0.015425556,-0.09853301,0.086200014,0.066708244,-0.12751377,0.07755659,0.04897865,0.12548068,-0.016252222,-0.0014172607,0.04455764,-0.069817804,0.09772237,-0.018698966,0.13311763,0.1785389,-0.0026229885,-0.06898967,0.113183014,0.070142545,0.1278162,0.08767742,0.03306937,0.05014057,0.02314991,0.088139296,-0.13563702,0.033823147,0.082589075,-0.10230772,0.055267364,-0.102642305,0.12914045,0.07422771,0.08610489,0.034027603,0.028997043,0.10859624,0.11510798,0.04513044,0.049664147,0.13291614,0.017420707,-0.00911536,-0.11219957,0.027669461,-0.0686267,0.039909452,0.11268765,0.06851361,0.16047262,-0.15554735,0.0027917032,0.11201331,0.10039427,-0.08246275,0.09478142,-0.033658046,-0.119722515,-0.1410242,-0.06723937,0.032260686,-0.09971946,-0.0048476956,-0.10657938,-0.26179942,-0.20760068,-0.11544738,-0.118263766,0.111949235,0.009974539,-0.027654361,-0.13911688,-0.029966904,-0.0009145513,-0.033715937,-0.12316608,0.10274977,0.16792244,-0.10452598,-0.1700502,-0.103329115,-0.038107093,0.008093936,-0.06194228,0.1185894,0.20825255,0.26010454,-0.040616956,-0.17608064,-0.19112399,0.014857893,0.004799167,0.05894751,0.014207907,0.0038325237,0.065847345,0.14213093,0.006197672,-0.18482709,0.028548712,-0.101881586,-0.16109541,-0.12360652,0.1636844,0.1270067,0.047908884,-0.009836825,-0.02236729,-0.01966038,-0.15837657,-0.11196086,-0.026371118,-0.05178247,-0.13410705,-0.16658215,-0.12981503,-0.062265527,-0.02509132,0.14742948,0.17205667,0.067933396,0.26160806,0.20918418,0.019808508,-0.022663217,-0.052740227,0.020350585,-0.017141828,-0.058181424,-0.017059397,-0.017886166,-0.041459925,-0.0012895041,-0.2391663,-0.08831027,0.033489358,0.084692925,0.061018415,0.05818744,0.09925637,0.07185451,0.015537737,0.03669444,-0.009111873,0.00097617693,-0.0014220108,-0.023254275,0.027058046,0.026567746,0.021381557,-0.10199042,-0.06927174,-0.07518487,-0.037428137,-0.104138486,-0.08162483,-0.005364087,0.11977371,0.08602086,0.13030727,-0.043486897,-0.08781825,0.109396525,0.028513547,-0.09728678,0.018677255,0.02578994,-0.06843018,0.05102407,-0.014107158,-0.109381124,-0.01259215,0.1042955,-0.07171738,-0.1586216,-0.053380996,-0.06964485,0.093524806,0.062337626,0.14002666,0.056630246,-0.096070595,-0.016378429,0.05383464,0.018828986,-0.09075659,0.120410115,0.10324582,-0.09621894,0.0645844,0.013093506,-0.049372334,-0.1125057,-0.13191625,0.062659934,-0.09278737,-0.045927577,0.12339628,-0.034772605,-0.050061498,0.11586233,0.07400412,-0.037758213,0.09087139,0.1234626,0.14655435,0.13204445,-0.14223866,0.21015865,0.23692976,-0.14925064,-0.03142868,0.10129836,-0.064499006,-0.10647739,0.07545015,-0.111158624,0.075465605,0.16309378,-0.1342376,0.08521995,0.007258483,-0.018882202,0.026122002,-0.08312157,0.09704728,0.117194295,0.095121846,-0.07194124,-0.10207303,0.03170353,0.029359408,0.06342339,0.078211464,0.041698985,0.040512264,0.12036214,-0.038886614,-0.02728783,0.0680775,-0.12800682,-0.09135554,0.093306854,0.08289773,0.13129015,0.0028168145,0.040087055,0.086375736,-0.16059986,0.009780201,-0.03918232,-0.08063184,0.0995552,0.1737883,-0.17266098,-0.027938576,0.13998629,-0.05161935,0.10022199,0.0867654,0.06240148,0.14882532,0.22551881,0.28685704,0.20312402,0.17947133,0.036478117,0.07823079,0.06584286,0.015627526,0.013545246,-0.043158006,-0.10529183,0.00575482,-0.07384726,-0.07377684,-0.09765122,-0.09121845,-0.16493142,-0.068309866,0.04532793,0.06633866,-0.084006704,0.078644544,0.079076625,-0.07396751,-0.12352892,-0.14452311,-0.094330385,-0.16243964,-0.15546113,0.011737455,-0.07934165,-0.06847434,0.051534716,-0.06302298,-0.12006644,-0.08683572,-0.09284503,-0.16350722,-0.10411423,-0.034933046,0.010690081,-0.00055465597,-0.036352977,-0.04822013,-0.041667324,-0.025850352,-0.07238233,0.08529887,0.024021104,-0.112674095,0.045331467,-0.016233658,-0.14794064,-0.22132729,0.056105584,0.19922914,-0.073612384,0.075807095,0.10340201,0.049438365,0.03888313,0.049326703,-0.061366916,0.064069755,0.11111858,-0.011687039,-0.04073596,-0.0098427,-0.034208637,0.026377745,0.1583007,0.00533469,0.24489045,0.40063855,0.12101746,0.017223226,0.03209626,0.021799223,-0.06529022,0.016987223,0.072244234,-0.013140155,-0.10482466,0.09225032,0.07913542,-0.007813954,0.09397317,0.046221804,-0.11098646,-0.01121601,0.025620526,0.07870721,-0.09595772,-0.05140107,0.10196317,0.062979765,-0.011982824,-0.0938762,0.005623242,0.050625507,0.07992482,-0.02363718,-0.04830252,0.035581335,-0.025482891,-0.008015158,-0.033402625,-0.18491217,-0.09086245,-0.00095125067,-0.03751892,-0.018194,-0.07576009,-0.10300775,-0.0065390724,-0.07316499,0.028715007,0.054486122,-0.0049796454,0.018493244,0.037614122,-0.046039864,-0.07519663,-0.14096065,0.026309596,-0.3843458,-0.41646707,-0.09910327,-0.21278803,-0.24427727,-0.05659805,0.1288082,-0.09415957,-0.12221559,0.03008705,-0.017770559,-0.077217884,-0.056049097,-0.021152021,-0.015065446,-0.014558265,0.06956162,0.066465825,-0.07116074,0.045879096,0.15694697,-0.0041680154,0.0007786693,-0.0328148,-0.011022239,-0.03321861,-0.009001846,-0.08260413,-0.056823313,-0.00027008672,-0.06530263,-0.029257922,0.01726039,-0.02906542,0.09401896,0.01459482,-0.15193252,-0.0768839,0.11627392,0.09711619,0.016081361,-0.114247516,0.03726574,-0.03896646,-0.09550129,-0.06910301,-0.012287093,0.12498194,0.002452985,0.02735655,0.10648507,0.059549198,0.0035076088,-0.012067629,-0.019561257,-0.031210823,0.006857117,-0.01945164,0.10976096,0.112658076,0.052193012,0.11711455,-0.08317852,-0.05951352,0.089972414,0.027713403,-0.02615342,0.14115906,0.053177316,-0.09254213,0.16544212,-0.04475651,-0.059474524,0.16283418,-0.046238538,-0.07431362,0.26492476,0.03748692,-0.016925171,-0.009091855,0.010401111,-0.11322216,0.02086614,-0.032635447,-0.039820798,0.05472597,-0.05394589,0.12539943,0.058847673,-0.005442651,0.12305134,0.09116714,0.14939551,-0.0829011,0.024037868,0.063705005,-0.07197065,0.03245554,-0.099279776,0.040479805,0.1632863,0.055475187,-0.07932667,0.07825889,-0.06452911,-0.009159611,0.05457279,-0.06507124,0.1414481,0.07029566,-0.18969019,-0.0807639,0.0747545,-0.018469121,-0.089335054,-0.08355853,-0.04813106,-0.074726,-0.20745733,-0.12587343,0.0818693,-0.11734828,-0.033660136,0.04409116,0.18513362,0.18475677,0.1222786,0.106292345,0.17729653,-0.07101758,-0.27802023,-0.09464283,-0.03148103,-0.122185506,0.01415556,-0.08148878,-0.18268809,-0.03509726,0.088841334,-0.06830216,0.0731049,0.034708153,0.16386825,0.08703695,0.13135877,0.11884538,0.161622,-0.07125427,-0.16611734,-0.17515464,0.017937459,0.14769457,-0.015471287,0.013346027,-0.082794026,-0.20555799,-0.024369838,-0.032262016,-0.004890422,-0.07340852,-0.27011877,-0.17443807,-0.4031589,-0.8325491,-0.69857395,0.028927837,-0.46140248,-0.15738554,-0.12655565,0.044522244,-0.07133892,-0.032301933,0.037271157,-0.018242706,-0.014611226,0.042303324,-0.016412199,0.047332436,0.10546351,-0.06546507,-0.03424366,0.022857206,-0.10958958,0.08279578,0.027146386,0.06316865,-0.052065335,0.08529896,0.003295798,-0.054415278,0.05654005,-0.07937129,-0.0943807,0.031801563,-0.11078633,0.05041835,0.07479144,-0.050622948,0.030630954,-0.009318114,-0.035347987,0.060737032,0.1356249,0.09521605,0.009635328,-0.031331558,0.040741224,-0.19933832,-0.25169733,0.15172061,-0.14528467,-0.18687813,0.12181434,-0.114229985,-0.033800274,0.12110647,-0.15973246,-0.1655935,0.090452075,-0.12135512,-0.2998752,-0.09951281,0.077422515,-0.020244101,-0.18209626,0.08384609,0.08499897,-0.045236688,0.07931781,0.14501579,0.10778039,0.00050997053,0.020929338,0.052065495,0.024145314,-0.078218564,-0.07531785,-0.00092969555,-0.009183196,-0.061959554,-0.13135506,-0.11613048,-0.23121092,0.1639901,0.15288326,-0.08585943,0.02909185,0.2079699,0.14732197,0.0370824,0.03779624,-0.045857903,0.02412227,0.07758433,-0.08156231,0.0012616963,0.06781482,0.017895058,0.090146564,0.11062765,0.016127696,0.20736496,0.23482935,0.024520658,0.15893506,0.18890062,0.03743444,-0.004507825,-0.041405473,-0.0884482,-0.012178508,0.022928726,-0.062547565,-0.011941709,0.07101614,0.014091325,0.10628346,0.21785752,0.22752157,-0.14480507,-0.06546253,-0.09305994,-0.14087538,-0.10328462,-0.14921223,0.079859786,0.13469262,-0.06804411,0.044674262,0.08776063,-0.057224657,-0.1282633,-0.10701299,-0.06738993,0.039979625,-0.032368656,-0.050653588,-0.13271298,-0.46207112,-0.17931418,-0.22711617,-0.54384816,-0.2602633,-0.05949397,0.049139198,-0.038299788,-0.06550135,-0.01763268,0.07375926,-0.044091716,0.09665259,0.1143383,-0.12372133,0.043049205,-0.052431308,0.019801507,0.08013251,-0.023002096,0.06558992,0.0913605,0.033628322,-0.07510564,0.104237415,0.02528587,0.1388472,0.13564554,0.0080458885,0.05429444,0.095533006,0.0782566,-0.19277495,0.0936515,-0.021187894,0.017032195,0.24214536,0.025989303,-0.032868356,0.1271503,-0.024035573,0.11731627,-0.07056786,0.024747591,-0.07431774,-0.21951674,-0.074469805,0.01654903,-0.09236671,-0.18674745,0.09045358,0.15355226,0.040140223,0.07623938,0.05411249,-0.04045743,0.018104356,0.042405516,0.034432627,-0.1237472,0.035542846,-0.01756177,-0.18432413,0.13104923,0.020577474,0.019864298,0.043887906,-0.02084333,0.018153455,0.06878399,0.003419275,-0.0027983158,-0.24947266,-0.033801936,-0.114399634,-0.17437407,-0.05325111,0.089291595,0.08740964,-0.04711727,0.08629481,0.08010902,-0.11639925,-0.021548163,-0.13683864,-0.051648904,0.035366964,0.21196051,0.03788337,0.30298707,-0.05931949,-0.25405577,0.19687986,-0.32668206,-0.1560704,0.17179489,0.015204062,-0.0018642341,-0.17169787,0.15423372,0.26627383,-0.13713846,0.0011061326,0.02352373,-0.064901926,-0.06682162,-0.0013089826,-0.27782765,-0.19615854,0.058633815,-0.061075993,-0.032849696,-0.10059424,0.1188742,-0.011556117,0.027123235,-0.0622327,-0.05282034,-0.014562131,0.03751947,-0.0031899326,0.09743031,0.04826402,0.1553352,0.037484057,-0.0017692714,-0.022520797,-0.11522691,-0.13461405,-0.10468841,-0.056527853,-0.023041168,0.061454557,0.08230979,-0.06731805,-0.03127748,-0.034209188,0.10776243,0.044788793,-0.018689793,-0.16514035,-0.24604848,0.08119945,-0.28110886,0.31720218,0.035382982,0.09268269,0.3074235,-0.15248922,0.035975743,-0.095808804,-0.09924899,0.12439125,0.17276053,0.12853251,0.08446371,0.04016912,-0.00647081,-0.110241465,-0.08418867,-0.11906613,-0.08408373,-0.100463085,-0.09107347,-0.024973879,-0.04138282,-0.035713144,-0.014579769,0.10268745,-0.003900094,-0.08065807,0.2634551,-0.050606776,0.06658571,0.04034012,-0.014679643,-0.19926737,-0.36480296,-0.23305722,-0.33070874,0.014740815,0.17887904,-0.056301937,0.7161763,0.61273575,0.21093613,0.16774449,-0.2790562,0.20175622,-0.3662273,-0.17365807,-0.19769134,-0.20081897,0.07627152,0.26420987,-0.18997677,-0.32045966,0.102656834,-0.10497816,0.030491872,-0.118610315,-0.021804674,0.23634116,0.07768701,-0.048983525,-0.2790936,0.13373208,-0.42466167,0.1516405,-0.05662765,-0.25705504,0.12655064,0.24880852,-0.011958546,-0.13909648,-0.051727463,-0.3949091,-0.1300691,-0.16443814,-0.15777585,0.2694602,-0.13764772,0.43055046,0.22195393,0.08390726,0.17642953,-0.26960117,-0.1397173,-0.3367447,-0.12204962,0.20387839,0.15599127,-0.33670515,-0.0015370105,-0.11302338,0.0020857893,-0.2876681,0.0037651702,0.25530976,0.094162,0.28752953,-0.26747805,0.08113919,-0.59441143,-0.19397981,0.26859173,-0.29582104,0.28518045,0.10068395,0.14694044,0.0046451427,0.0660469,-0.27340695,-0.06014156,0.085148714,0.040549174,0.07741367,-0.00918449,0.11793537,0.13812165,0.014514751,-0.12924598,-0.014835544,-0.053902302,0.0033113966,-0.046933167,0.31807688,0.26265702,-0.2200943,0.041374724,-0.2887401,-0.20694956,-0.22272278,-0.140292,0.29519325,0.021098003,-0.3002697,-0.26809877,-0.16985382,-0.4120635,0.17529988,-0.010246152,0.59068626,0.19768251,-0.1062594,0.20509925,-0.2052795,0.1235255,-0.029699892,0.05262151,-0.097131684,-0.19646701,-0.089507915,0.071296714,0.38657424,0.14056994,0.0025978703,0.0034519455,-0.25838378,-0.11051847,-0.081492975,0.008608383,-0.109922245,-0.11897157,0.07934543,0.0036325755,0.010641978,0.049437165,0.069350034,-0.08318893,-0.111423045,0.09168346,0.1615136,-0.17650203,0.16852137,-0.2621272,-0.27021208,0.050234668,-0.18939053,0.2599943,-0.39232114,-0.12791654,0.15887451,-0.2782726,0.17073078,0.13199173,0.19962095,0.27890277,-0.12025279,0.12419176,-0.011997412,-0.25532418,-0.3453799,0.08171013,0.10357358,-0.2593587,0.16850977,0.27605253,0.028297855,0.15234806,-0.045913722,-0.068068616,-0.26989836,-0.13968757,-0.06508048,0.007841946,0.15490551,-0.008405176,0.14892869,-0.021225171,0.11239432,-0.1674738,-0.2553913,-0.041340265,-0.51983345,-0.19953424,0.12239892,0.028092593,0.06254715,0.2638357,0.20612165,0.1446495,-0.016884642,-0.25002247,-0.31752715,0.20095906,-0.0011729071,-0.3647367,0.20980076,-0.07619533,-0.03085915,-0.43716696,-0.16006376,0.20368911,0.12315906,-0.051046707,-0.042879116,-0.0021876225,-0.08539144,0.11452383,-0.09748202,-0.0048413095,-0.0017332383,-0.32035428,0.0071325568,0.26189956,-0.050706793,0.21841867,0.23799278,0.34687942,0.27957526,-0.07910948,-0.287565,-0.20242764,0.22604105,-0.25002345,-0.35335565,0.29592714,-0.0034885919,-0.2361568,-0.21847592,-0.08087577,-0.10456634,-0.11013659,0.206375,-0.13369083,0.053713936,0.10018799,0.2647348,0.13844298,0.035381313,0.08027068,-0.17891525,-0.07735164,0.03804844,-0.023193618,-0.15711536,0.18085292,0.191879,-0.35407597,-0.3697082,-0.01809119,-0.085056506,-0.05686398,0.18018079,0.37240595,0.13336308,-0.077394515,0.20007701,0.07526212,-0.29964083,0.10451024,-0.1729446,-0.36548355,-0.19617963,-0.41482273,0.029185742,0.291754,0.0795899,0.09791885,0.39076245,-0.024735535,-0.037393626,0.15865232,-0.14534803,-0.17591324,-0.22028461,-0.052466556,0.026502207,-0.029158058,0.17656901,0.16591558,0.04101722,0.10546173,0.04809115,0.05296126,0.054087587,0.08432174,0.063180186,-0.13470559,0.042917777,0.03671677,-0.2195159,-0.035967994,0.18578582,0.10583142,-0.034596685,0.27381587,0.03703419,-0.17167197,-0.016777622,-0.12763031,-0.29426655,0.06708982,0.29793137,0.04304545,0.1716059,-0.16819496,-0.18842068,-0.04701999,-0.1148684,-0.027719619,0.10815549,0.022819603,-0.023316786,-0.06486081,0.05675345,0.21056107,-0.08496647,0.024518287,0.11166067,-0.02760481,-0.042647276,-0.085968524,0.13544384,0.00060953846,-0.13251503,0.08452055,0.06519833,-0.10533343,0.109771065,-0.070804216,-0.17184584,0.1420641,0.011700295,-0.09402242,0.01109192,0.059253994,0.036921296,0.11529415,-0.14406237,-0.20685947,-0.060951676,-0.28158072,-0.13788708,-0.08852035,-0.10640103,0.007908842,-0.07526365,-0.03817204,0.012248655,0.07372373,0.009299167,0.07589134,0.054311067,-0.05349334,-0.03560502,-0.12786141,-0.10239471,-0.09949596,0.12303814,-0.04417309,-0.14216055,0.13057058,0.064992055,-0.13513517,-0.023980059,-0.08474658,-0.0914407,0.11715308,-0.024635855,-0.048746355,0.008005916,0.078795545,-0.041177727,-0.05320322,-0.02473392,-0.05211624,0.043068662,-0.06836423,-0.119176865,-0.056928426,-0.031019779,-0.07797748,-0.12998708,0.0104798,-0.011299639,-0.043621868,0.059726324,0.020569216,-0.043331057,0.020233788,-0.034045897,0.23463582,0.11882995,0.06343127,0.38299578,0.30314815,0.08175642,-0.0041621467,-0.023071367,-0.1161403,-0.050512142,0.15940899,0.06780835,-0.11776448,-0.06521258,-0.09174918,-0.037045404,-0.061026946,-0.08455703,0.14132828,0.04812151,-0.09172826,0.19051144,0.1013041,-0.106197566,0.05575512,0.03955883,-0.015979104,0.083786644,-0.010343454,-0.07591361,0.0022265278,-0.0046211737,-0.053477693,0.04008371,0.06487328,-0.009818546,0.07877876,-0.040590495,-0.0926983,0.07594631,0.030566383,0.017235523,0.076652065,0.051831312,-0.03528361,-0.16494884,0.010812038,-0.009677498,-0.05545959,0.12532306,0.09519455,-0.112416476,0.08497546,0.11842433,0.003935743,0.049096607,0.03430599,0.071118,-0.022733962,-0.018535966,0.040364686,-0.031792466,-0.024675196,-0.025125043,0.10694106,0.065527804,0.07967209,0.105534755,0.019349515,0.10115543,0.06533651,0.0013800517,-0.059810568,0.059693232,-0.05420148,0.022405379,0.027170142,-0.085323565,0.034373973,0.021164559,-0.028054254,-0.06697449,0.01275722,-0.022027586,-0.04885761,0.041306928,0.06341201,-0.040997762,0.014562652,0.0002549881,-0.06976446,-0.048126686,-0.063126,0.11496041,0.029979445,-0.07215852,0.08365853,-0.0060380246,-0.052779388,-0.009495293,-0.10686054,-0.099991806,0.041867457,-0.013679013,0.0565008,0.024190899,0.04511027,0.08692952,-0.0041775634,0.05630946,-0.010280399,-0.06210503,-0.041251183,-0.15385176,-0.026354013,-0.036838755,-0.105639584,0.013785749,0.15621254,0.006807099,0.108952284,0.061584875,-0.09533523,-0.07097327,-0.07321177,-0.04867074,0.068544105,0.08657928,0.1300398,0.0710592,0.02836729,-0.0031764542,-0.09866541,-0.119660534,-0.026992023,-0.032882188,-0.097744815,-0.030741861,-0.05416192,-0.11021813,-0.041665655,0.01820253,-0.053917762,0.045162383,-0.028312204,-0.024008611,-0.11548959,0.06902324,-0.01398478,-0.019984502,0.0614778,-0.03765375,-0.010580808,-0.057067804,0.00011977499,0.07966895,-0.07367495,-0.06354999,-0.11782975,-0.060098957,-0.055261806,-0.056851372,0.03887154,0.1013622,0.093915984,0.02578034,0.059531245,0.009600521,0.05286411,0.03802226,0.08281235,0.026323995,0.03689533,0.05300914,-0.019095046,-0.06492511,-0.053129885,-0.07283042,-0.09745875,-0.07820883,-0.10859508,-0.14572535,-0.120220415,-0.112824,-0.18901528,-0.18013722,0.056303825,0.005879131,-0.010990295,0.020107182,0.042010434,0.13616486,-0.10087769,-0.19134858,-0.14789863,-0.027876994,-0.13988774,-0.08543281,0.00999011,0.078956895,0.16331518,-0.052851357,0.027513962,0.07537326,0.02825389,-0.026034854,-0.05707435,-0.35923558,-0.2846399,-0.008898899,-0.18770477,-0.10832597,-0.34704673,-0.059425004,-0.01070543,0.038389802,-0.16811968,-0.10098462,-0.010597164,-0.02271508,0.31453702,-0.24867097,-0.039225124,0.14802505,-0.12275136,0.053147707,0.074324176,0.05595257,0.1348431,0.05041941,-0.16814111,-0.017693987,0.0014104412,-0.0706682,0.006801905,-0.054737974,0.01698044,-0.11482389,-0.0154567575,0.15561196,-0.22603756,-0.16320816,0.044603836,0.09359828,0.017819894,0.2044297,-0.12621014,-0.2655966,-0.02118534,0.1663529,0.02958689,-0.15707554,-0.2832749,-0.26785702,-0.007860442,0.06448494,0.14454672,0.087779686,0.012074004,0.25621954,0.11433566,-0.2430012,-0.26250166,-0.09275307,0.31054443,-0.21653615,-0.5207858,0.21715331,-0.01833566,-0.25617945,0.1765136,0.3446315,0.16330574,0.14974976,0.16589196,0.21109965,-0.1486407,-0.25636742,-0.077822894,-0.08799901,-0.099707216,0.04350669,-0.05607961,-0.06954308,0.029695693,-0.08013403,-0.1395147,-0.071128786,0.15011132,0.10224532,0.147823,0.013676648,-0.024645368,0.019014949,-0.2537862,-0.32416245,-0.11338111,-0.057431366,-0.22957192,-0.012032045,-0.23878896,0.19850697,0.21088767,0.010554732,0.17756173,0.06387221,0.038848687,-0.16852379,-0.245001,0.092006065,0.06626185,0.047540747,0.0029026794,0.02120719,0.092247754,0.062336214,0.023458585,-0.0011092008,-0.04080263,-0.05436852,-0.0511914,-0.061722178,-0.04026964,-0.023837874,-0.018373974,-0.08374463,0.05078505,0.16464728,0.12978642,-0.1616717,0.16137381,0.078180924,-0.06429816,0.06052237,0.15350664,0.05702988,-0.052996166,0.12370194,0.15739112,-0.2214697,-0.09703932,-0.021173729,-0.20864931,-0.20048913,-0.093862735,-0.083041176,0.32824004,0.12686323,-0.004434221,0.14176314,0.07110995,-0.21053289,-0.22898223,-0.061253656,-0.14236905,-0.16263661,0.14326589,0.04527714,0.09362629,0.016050689,-0.622123,-0.24383564,-0.015197846,-0.5035117,-0.5960883,-0.11083325,-0.23490395,-0.3770212,-0.1530932,0.020038327,0.10039518,0.099205956,-0.0030089489,-0.13437895,-0.004486728,0.12360895,-0.027880313,-0.1768534,-0.011236748,0.076131046,-0.010907104,-0.029938027,0.00296878,0.113153175,-0.17576295,-0.08634955,-0.09092357,-0.05148496,0.004264868,0.19393784,-0.09596904,-0.1259012,0.05348536,-0.02476635,0.0375986,-0.018431291,0.053703845,0.038334776,0.13239184,0.30953887,0.14142461,0.080325715,0.22838861,0.08269597,0.043310978,-0.20670344,0.025533468,0.23228368,0.112158895,-0.09452556,-0.19127655,0.11647716,0.120085955,-0.13685206,0.06441984,0.023637285,-0.03144827,0.0773417,0.05210605,0.068408825,0.09549524,0.07908147,-0.020008942,-0.15378284,-0.16914466,-0.16878843,-0.021053601,-0.0599452,-0.05592592,0.21886261,0.21179582,0.17494786,0.017639305,0.12559532,0.1339137,-0.0050759357,-0.0609635,-0.055179954,0.03337727,-0.06840944,-0.03009881,-0.1660113,-0.039981797,-0.061451875,-0.20016257,-0.24199998,0.12002141,-0.057559468,-0.07199674,0.13949661,0.07254439,0.101711184,0.13443118,0.0864017,-0.124607064,-0.05479746,0.110366635,0.16584304,0.014066567,-0.041817956,-0.015956338,0.013680335,-0.003644927,-0.045733728,0.04424135,-0.090398096,-0.10138487,0.031723436,-0.046252344,0.036590908,-0.022044737,0.027185839,-0.107079916,-0.100976184,0.23366109,0.004298759,-0.09054771,0.0343618,0.047335047,0.13565464,-0.1220564,-0.0015418644,0.11906901,-0.17936812,-0.0663209,0.15037541,-0.094138816,-0.15628207,0.024068557,-0.22674955,-0.22599435,0.1553252,0.0051075825,0.022903515,0.15395139,0.06233938,-0.02249479,-0.18752635,0.25755125,0.031391647,-0.04105953,0.17659669,-0.19110546,-0.06464459,0.14894432,-0.15797062,-0.051536854,-0.090517215,-0.5228052,-0.4402623,-0.32617396,-0.5993767,-0.0852767,0.025945669,-0.005259594,0.09638628,-0.023162266,-0.13591227,-0.14293297,0.008918676,-0.047674205,0.04647652,-0.012275274,0.18455298,0.15522881,0.044455778,0.16337325,0.21976033,0.03051314,0.116099514,-0.0070134164,0.025332969,-0.06188514,-0.011342716,-0.13990039,0.03181077,0.16502129,-0.17268465,0.042411547,0.13704255,0.008404296,-0.05224517,-0.16167644,-0.03628843,-0.2935885,-0.20103723,-0.09226525,-0.2542155,0.064303994,0.05719716,-0.12634435,-0.120998695,-0.11712815,-0.43151164,-0.321976,-0.13081557,-0.3763671,-0.16989751,-0.04381067,0.101343006,0.03163338,-0.014559491,0.17936356,0.095637,-0.0112702185,0.070336044,-0.039783176,0.07391037,0.09274063,-0.019597702,0.029260043,0.015422044,0.064254805,-0.13203534,-0.07178817,0.09130679,-0.037696514,-0.16001002,-0.021210972,-0.10055419,0.0073660454,-0.047433138,0.13483913,0.019405495,0.10199423,0.19893803,0.05454836,0.08435972,0.102120355,0.16835661,0.1639051,0.14621367,0.32192692,0.24872187,-0.031791933,0.0027577118,-0.025166271,0.0059158704,0.081866674,0.12342971,-0.0014538817,0.060790904,0.078211494,0.028418727,0.009816232,0.06426898,0.020528547,-0.034702457,0.07401247,0.08227555,-0.00019833172,0.08497159,0.103186816,-0.03142324,-0.18004829,-0.0037857643,-0.19322719,-0.23531826,-0.14704075,-0.1829791,-0.06819924,0.13271543,-0.07155823,-0.21608384,0.07509412,-0.119533695,-0.054850224,0.033087578,-0.028479155,0.09166328,-0.064339764,0.12189624,0.05911077,0.08260423,0.20042345,-0.057865087,0.06113137,0.093091704,0.042562917,0.047707375,0.05600213,0.024435276,0.11213961,0.15859632,-0.06578863,0.14527658,0.06702719,-0.06653039,0.052777506,-0.039734554,-0.012109972,-0.00069652067,-0.060576834,-0.059280206,0.08721642,-0.057324715,-0.038239475,-0.30032825,-0.15795486,-0.005525319,-0.07307375,0.023338204,-0.058428943,0.10039254,0.13378221,-0.16172615,-0.053506095,0.04115265,0.19579908,-0.07862645,0.13712026,0.031592757,-0.07963312,-0.07569839,-0.15091126,-0.3574167,-0.34997964,0.23165578,-0.54783577,-0.6266296,0.05925365,0.035116814,0.12670554,0.45895228,0.1309458,0.019053448,0.026150903,0.04933746,-0.027587539,-0.03800012,0.07900325,-0.14216422,-0.05710342,0.061690927,0.054115135,-0.013949252,-0.028062018,0.01689047,-0.083283275,-0.022584815,-0.10640747,-0.16931787,0.054537363,0.016684169,-0.094170816,0.029653361,0.073365554,0.14037338,-0.021607311,-0.067618445,-0.0063077393,-0.12086699,-0.0031162268,-0.081598155,-0.031479217,-0.023737064,-0.11249943,0.15245236,0.06785958,-0.025145646,0.061551947,0.03458628,-0.07867672,-0.12997898,-0.04849801,0.0126630105,-0.13476701,-0.040222477,0.014313294,-0.12197955,-0.016971428,-0.028910354,-0.14415927,0.051757403,0.056879543,-0.0765429,0.05465759,0.12356346,-0.07617686,-0.07487141,0.04499506,-0.007948871,-0.077708356,0.18934835,0.06601844,0.050457325,0.08247566,-0.13944598,-0.0887535,-0.12696017,-0.025033038,0.014055617,-0.06990581,-0.0022813948,0.07318678,0.11141776,-0.045971557,0.0721457,0.12278463,-0.0090985475,-0.063590035,0.021548469,-0.013728906,-0.20929573,-0.14695233,0.065113686,0.088732794,0.018739264,0.12805757,0.20249687,0.07138568,-0.12760173,-0.15106475,-0.14856748,-0.13463616,-0.06589639,0.13547054,-0.29713246,0.041412342,0.22873735,-0.1142193,0.17680602,0.07552837,0.15312706,-0.025686946,-0.32666185,-0.04234186,0.030614294,-0.20629336,-0.19466007,0.12154998,0.15012464,-0.07044826,0.14030187,0.055357333,-0.21302995,0.12990353,-0.03646101,-0.09719165,0.094678946,0.14119382,0.09473593,-0.33298206,-0.46086296,0.24735118,0.14721042,-0.52503026,-0.2480617,0.31339756,0.1372604,0.041694265,-0.040173303,-0.04609899,-0.13144992,0.08948792,0.21712463,0.055345744,0.066336386,0.16197014,-0.0008580853,-0.10449771,0.13925716,0.05779415,-0.023686068,-0.24666916,0.15229735,0.23966132,-0.024560045,-0.11639583,-0.012031009,-0.012604822,-0.23588984,-0.13991068,0.23800747,0.1313099,-0.21583454,-0.08048853,0.10096256,-0.13083741,0.01547953,0.25108123,0.38154778,-0.018678296,-0.20674057,0.21736903,0.17342155,0.077993646,-0.080246575,-0.05266289,-0.069409356,0.109674856,0.14714335,-0.40449855,-0.5291064,-0.32316878,0.20170058,-0.0002411684,-0.25960863,-0.20287111,-0.006888025,-0.17719512,-0.18391131,0.061646175,0.24011801,0.12307562,-0.33561268,-0.2275893,0.31205106,0.47712892,0.12411498,-0.1826829,-0.04266147,0.14253572,-0.08063997,0.00039336103,0.11787152,-0.078239955,0.028011173,0.037917204,-0.06748147,-0.111614466,0.018909171,-0.04651469,0.15173347,0.2176639,-0.041230675,0.108402126,0.34700513,-0.18963537,-0.18060714,0.045065355,0.02777914,-0.14756943,-0.13857238,-0.021303406,-0.2848276,-0.15487479,0.050527338,-0.11301222,-0.072114706,-0.07087259,0.16012219,-0.023131097,-0.11877719,-0.08415267,0.23321483,-0.07357447,-0.2966462,0.0205044,0.11265923,0.16805032,0.25595516,-0.3890907,-0.07343957,0.37009218,-0.17719392,-0.28906083,0.2603707,0.13426976,0.1807467,-0.102262765,-0.30661675,-0.10922516,0.013112841,-0.35071954,-0.083439715,0.05714742,0.040323623,0.0534163,0.08747559,-0.037143517,0.22651711,-0.025084086,0.073972635,0.13972387,-0.25595596,-0.013042691,0.17254137,0.04008594,0.048233405,0.06711871,-0.017157752,0.094543934,0.023734482,-0.06513067,-0.053413786,-0.27511227,-0.0761744,-0.07752178,-0.12386311,0.019938996,0.090773456,0.07429024,-0.068183765,0.010107693,-0.6172691,-0.2113208,-0.24132766,-0.5228941,0.19437285,0.13882533,0.11200898,0.12066593,0.10004365,0.27962542,0.06790516,0.030707639,0.13349846,-0.050758157,-0.23720655,-0.045728758,-0.08605192,0.004835978,-0.16995226,0.14397036,0.1771257,-0.23368336,-0.050292585,0.088982604,-0.23180665,0.011386407,-0.13934451,-0.12944108,0.0788928,-0.24628901,-0.50257486,-0.22412516,-0.115986474,-0.26850525,-0.08409698,0.24651097,-0.0710764,-0.098564506,-0.16364351,-0.4866288,0.036835723,0.10121717,0.119741134,0.1667462,-0.091816485,0.019392211,-0.09172209,-0.124173045,-0.041201442,-0.10066098,-0.06492365,-0.0077238358,0.01982043,-0.054821175,-0.117988214,-0.11118346,-0.16641465,-0.5627406,-0.09291362,0.032240666,-0.14159796,0.18879262,0.10549125,0.17422554,0.045383018,0.30399624,0.26301375,0.1578205,0.085980915,0.23456293,0.18014771,0.042539876,-0.11359177,-0.028377527,-0.1708685,-0.69633436,-0.14544731,0.033628162,-0.028869707,0.09862272,0.06527167,0.12198872,0.06433225,0.13495596,0.19236271,0.08967427,0.06470992,0.0901477,0.0040011914,-0.18906777,-0.055759106,-0.020488689,-0.10437675,-0.020366084,0.031315036,-0.033248678,-0.075158544,-0.13978364,-0.14329568,-0.08080009,-0.06858528,-0.13465697,0.015296438,0.1275534,-0.14078365,0.11602805,0.11695792,0.14674167,0.10018481,0.06138589,0.08510795,-0.067496195,0.12889403,-0.12780504,0.032255657,0.10313059
