0.026695672,0.030600348,-0.06986393,-0.026845537,0.07965401,0.049350895,-0.070879795,0.055577803,-0.03644983,0.014983238,-0.04256504,0.11786814,-0.034071077,0.045290235,-0.0594499,-0.0829188,-0.0071300734,0.06482459,0.020904213,0.040761285,0.051734615,-0.061820585,-0.071140744,-0.087477,-0.092147864,0.03709199,0.08288994,-0.07437049,-0.03929265,-0.0892537,-0.026623642,-0.10240584,0.067488134,0.111557,-0.10522716,0.05310794,-0.07010492,-0.083855584,0.018747265,0.111641906,-0.084867924,0.020174261,0.057196435,0.016405646,0.07127553,-0.014415404,0.033853885,-0.008761754,-0.08553687,0.0048301155,0.072626844,-0.054175127,-0.05413551,0.10364673,-0.008953858,-0.09137817,0.0562619,-0.018808821,-0.0617351,-0.039625112,-0.04596937,-0.024271889,0.09474176,-0.054092776,-0.05437329,0.089942895,0.10591839,0.13906904,0.09104642,0.02813903,0.056922417,0.01107467,-0.024660962,-0.060760822,0.07991288,-0.026003415,-0.054865174,-0.011253917,0.08347148,0.13507782,-0.061920892,0.02661544,0.06073481,-0.06399041,-0.041578777,0.046193883,0.046815068,-0.10210826,-0.025772525,0.064533584,0.04595094,-0.12313625,-0.0013935347,0.040098492,-0.07265014,-0.009726113,0.041614067,0.14570537,0.046424434,0.033275273,0.049621817,-0.008991358,0.067678474,-0.05326349,0.03596136,0.20533037,-0.067652866,-0.0217838,0.18784398,0.06606452,-0.02731009,0.07618289,-0.045264445,0.017029209,-0.15150881,0.029941289,0.063630916,0.05579462,-0.13259749,0.03752427,-0.02275403,-0.10377057,-0.095236264,-0.0726276,0.04415686,0.01026429,0.01212218,-0.15064065,0.048051476,-0.06386366,-0.15567933,-0.00074727373,-0.0014533121,0.09061975,0.022685913,-0.026675574,-0.043364357,-0.09444459,0.21308888,-0.032703873,-0.100740425,0.17289206,0.037193954,-0.08809982,0.07056077,0.075417675,0.05090159,-0.020234896,-0.093593396,0.115364835,-0.03655501,0.0020434877,-0.042183056,0.011507906,-0.05373382,-0.12244618,-0.08348119,0.04304389,-0.04234239,-0.07665791,0.015463485,-0.029076371,-0.062103167,-0.092908025,-0.0037754353,-0.054973986,0.0062177144,-0.044014886,0.005444628,-0.059631955,-0.054549307,-0.09128105,-0.024232317,-0.03383236,0.12311426,-0.001625373,-0.052685514,0.15496278,0.027947744,-0.12717855,0.15038952,0.018124001,-0.018684493,0.118187055,0.10108189,-0.0045318888,0.09023589,0.05871454,0.049742863,-0.07614605,0.104771554,-0.049019556,-0.05063998,0.073994495,0.049080152,-0.08027029,-0.0007467593,0.120922424,-0.025310244,-0.005627028,-0.21448034,0.059237603,-0.07793857,-0.0024967755,0.1276364,-0.12436683,-0.10616141,-0.017229674,0.028249957,0.11452954,0.0010988959,-0.0685867,-0.034090597,0.083306685,-0.028857216,-0.079038,-0.073359236,-0.056059066,-0.070289224,-0.0226238,-0.23999408,-0.0008572609,0.1859001,-0.016643722,0.033285435,0.10305281,0.021745792,0.19103944,0.07954695,-0.08637817,0.1570317,0.10482844,0.015897678,0.06502533,-0.025296409,0.053712178,0.010624095,-0.06617499,-0.07476159,-0.04474629,-0.037546705,0.020718893,-0.007071661,0.071671836,0.00024240698,-0.04203525,0.01963506,-0.050190672,0.040749278,-0.07933203,0.032993715,0.028671512,0.07490116,0.026984897,-0.0058153034,0.037682436,0.08151547,0.056088477,0.018466294,0.11599361,0.08236318,-0.015103726,0.09591934,-0.0433694,0.107762605,-0.036447346,-0.092069305,-0.026632722,-0.063168325,-0.12568349,-0.012067915,0.00939387,0.009512115,-0.04115709,-0.00859854,-0.10219545,-0.054859124,-0.02639689,0.08747745,0.009492185,0.020781644,-0.0070175566,-0.06260514,0.027124377,0.030784894,-0.01674264,-0.036697682,0.05454806,0.16122337,-0.050624926,-0.08514889,0.07941219,0.03249025,0.07525464,0.054930832,0.03661035,0.01988828,0.046643678,0.022248479,0.038760554,-0.11390633,0.050345685,-0.00073428085,-0.24951261,-0.042749196,-0.05503044,-0.058180157,-0.13778816,0.0013523891,0.01560041,-0.02550427,-0.07572236,0.08258101,-0.018749477,-0.015738415,0.11633097,-0.0608237,-0.10742496,0.098688,0.022637248,-0.08331894,0.057903755,0.07148784,-0.14033076,-0.026381414,-0.04812691,-0.14862198,0.0510424,0.16676451,0.121773705,-0.10579195,0.026660921,0.07032187,0.015752498,-0.037461035,-0.04238752,0.14719361,-0.017552866,-0.015388624,0.102345705,0.0071698404,-0.016912377,0.07653676,0.1263591,0.11382676,-0.028804854,0.0056897677,-0.032502633,0.04153093,-0.0135506205,-0.0012933257,-0.070817076,-0.06460588,-0.0468857,0.0023457685,0.020006787,0.101813674,0.003586315,-0.009656246,0.03988773,0.009695365,0.13806616,0.020741604,-0.008949901,0.031155428,0.058724668,-0.11474313,0.017953217,-0.008725639,0.02875915,0.0749329,0.027350582,-0.061820954,0.041146033,0.032726165,-0.027684359,0.068969816,0.15754497,-0.0505526,-0.029323978,-0.067147166,-0.08246908,-0.09776507,-0.034600276,-0.0021357322,-0.017307935,-0.013117232,-0.08995835,0.16045123,0.12257892,-0.0645242,-0.09825075,0.0339417,0.032473113,-0.012809065,-0.02493664,-0.05492456,-0.010941936,-0.01680561,-0.13713881,-0.04648884,0.047419347,-0.13543728,-0.103949815,-0.02170116,-0.05477016,-0.09578799,-0.045295462,0.075116836,-0.018316932,0.021280685,0.124792844,0.0017096438,-0.046500716,-0.0762145,0.02730904,-0.08257304,0.04051351,-0.06857159,0.08091722,0.07974557,-0.096844256,0.12031409,-0.02853376,0.0067845727,-0.12740703,0.037780154,0.016973855,-0.047315188,-0.039557375,-0.0514628,-0.051410228,-0.025020827,0.2073638,0.07516548,-0.04403669,0.012560981,0.043103486,-0.05351631,-0.06835583,0.023874851,-0.07970139,0.02690712,0.015065872,-0.13134329,-0.02669965,-0.013717308,-0.027809964,-0.008522033,0.017972702,0.02893084,0.008562536,0.09567984,-0.03141585,-0.15014236,0.049238957,0.05466339,-0.1292153,0.04552091,0.054709062,0.06122189,-0.07287702,-0.17510319,-0.034284536,0.024667356,-0.1267029,-0.08038235,0.08224542,-0.058343355,-0.09128362,-0.06173077,-0.093920015,-0.051488444,-0.012594757,-0.0114663495,0.13700837,0.07653699,-0.057760358,0.0484868,-0.024376674,-0.13078807,0.07491522,-0.03409367,-0.09847819,0.08359171,0.09682372,-0.07429766,0.05329933,0.09689267,0.061378717,-0.065630324,-0.051164508,-0.052555252,0.011664442,-0.058601428,-0.1588714,-0.10028439,0.058483165,-0.015864953,0.04053295,-0.020960445,0.0038468367,-0.022078294,0.09810222,-0.013095653,0.020266417,-0.093684055,0.1603673,0.23518759,0.017655883,0.11413447,0.12201875,-0.05100937,0.10690184,-0.12576959,0.0060975817,0.06286128,-0.0021632689,-0.05977867,0.020909999,-0.045669764,-0.084472656,-0.027740248,-0.023216572,0.061864547,0.091576144,0.009017083,-0.03171266,0.034835834,0.035082545,-0.027351351,0.04488583,0.012154113,-0.030531008,-0.0034692304,-0.06493067,-0.07945298,-0.11476587,-0.10045597,-0.004525442,-0.07719916,0.017845104,-0.040201113,-0.018049264,-0.14757013,-0.016493317,0.19524334,-0.051989466,-0.0322631,0.0023483157,0.06954717,0.022499152,-0.12191678,0.059190303,0.18352285,-0.16742161,-0.052834045,-0.025610968,0.12772022,-0.061044782,-0.06610591,-0.17920078,0.018942118,-0.011177458,-0.17727444,0.007332373,0.051100954,-0.11574202,0.029912418,-0.022266507,-0.003856081,-0.070686266,-0.030730005,-0.028419528,-0.03329531,0.034706164,0.01351353,-0.101550445,-0.061212786,0.05220118,-0.045701623,-0.1392226,-0.043628376,-0.035173774,-0.0147716785,0.09743365,0.0037859078,-0.01644517,0.028063376,-0.07889108,-0.06800012,-0.07309099,0.18603031,-0.002435111,0.020224389,-0.067294955,0.06933771,0.0069025178,-0.030629773,0.039907943,0.17004147,-0.023938892,0.058939878,-0.016299,-0.11447225,-0.050306045,-0.03637318,0.1116423,0.15785602,-0.0049067936,0.24648218,0.18152396,-0.075032346,-0.024291076,0.032632887,-0.034892034,0.12374378,0.05111404,0.038164873,-0.026003938,-0.032115392,0.07228354,0.091712594,-0.13005953,0.024280146,0.12734498,0.01517628,-0.076637514,-0.013684392,-0.038034074,-0.09180355,-0.055845626,-0.089931615,-0.02603651,0.015697418,-0.029587243,0.004144739,0.07859282,-0.00102178,0.10249223,0.024333641,0.00086820003,-0.09757084,-0.040870033,-0.0075383224,-0.020789264,0.007449155,0.06889793,-0.0864604,-0.0170767,0.029124029,-0.03356387,0.09771296,0.061375532,0.04079547,0.058455355,0.05423714,0.030819487,-0.058779746,0.055783212,-0.02808744,-0.04840771,-0.0283533,-0.061887722,-0.048874002,-0.057436664,-0.035776775,0.05310796,0.061210405,0.23357815,0.057482675,-0.060816012,0.039183754,-0.032047894,0.04053568,0.019958125,0.059443347,0.053060383,0.0935263,-0.020594914,-0.013467654,-0.11094388,-0.07340765,-0.030478649,0.026348908,-0.0860434,-0.063358836,0.094554216,-0.18794471,0.01313264,0.10351555,0.032336928,0.036742754,-0.017838525,0.0908728,0.06290492,0.15647791,0.21570659,-0.00016155171,-0.032317482,-0.017939612,0.0095536485,0.108291656,0.20370772,-0.047875427,0.12424814,0.007859573,-0.106035605,0.048983622,-0.1258822,-0.030163841,0.09817761,-0.12902997,0.0035839002,-0.02583512,0.014337504,0.04243113,-0.016976634,0.18120101,-0.020904362,-0.030196989,0.016593993,-0.035458118,-0.101445384,0.054535467,0.057997126,-0.14513294,0.081961215,0.059545916,-0.013727583,-0.023843648,-0.023926206,0.021329112,0.008135024,-0.14675905,0.11885161,0.03394065,-0.045340445,-0.017302884,-0.038227957,-0.02864745,-0.013906062,-0.08163501,0.017281678,-0.12109024,0.047932178,-0.098855175,0.1160756,-0.071922205,-0.033537563,0.026534438,-0.1584824,0.007736899,0.02357406,-0.103529215,0.045076285,0.014734857,-0.011970511,0.032839578,0.012345325,-0.06450143,0.08446366,0.070093535,-0.089561276,0.07944067,-0.009173399,0.08093493,0.121643424,0.049870305,0.012166349,0.08708182,0.09545221,0.09747715,-0.0035825577,-0.083882675,0.0016239429,0.078342065,-0.15770616,-0.053236242,0.049995556,-0.037651468,-0.031105556,-0.038728096,-0.047140367,-0.008750139,0.0814587,-0.12335445,-0.010059596,0.0498008,-0.10046067,0.016383134,-0.024706777,0.045292042,-0.09898077,0.03268151,0.073225774,-0.025636064,0.0023315342,-0.004755492,0.0006153591,0.015844066,0.012778018,0.08913918,0.034261204,0.012774186,0.056684878,-0.07974773,0.030209359,-0.020651959,-0.018652111,0.045264274,0.09402539,-0.053101003,0.0657444,0.085358076,-0.023957001,-0.023205753,-0.05468274,-0.07601096,-0.039056435,0.08739225,-0.09921677,0.044391435,-0.022632679,-0.14905201,0.07856139,-0.20168072,-0.18398997,-0.003525348,-0.09090385,-0.010503251,-0.0030671298,0.0049166167,0.064776465,-0.014199685,0.1267784,0.13729747,-0.09073604,-0.031466924,-0.14932033,0.050209153,-0.11625088,-0.17518048,0.004338942,-0.071305215,0.08300336,-0.025620315,-0.014214429,0.054870456,0.0008947124,-0.04551223,-0.10439755,-0.051314924,-0.046211567,-0.074886754,-0.07347055,0.048389073,-0.07674459,-0.027846461,0.0011452871,-0.044475727,-0.10521176,-0.09661671,-0.05829062,-0.0138500305,0.07286294,0.024191583,-0.14382072,-0.09904039,-0.07557942,0.069342054,0.033979844,-0.037294064,-0.07498591,0.046381045,-0.03130523,-0.034510467,0.046345096,-0.06947798,-0.05768343,-0.106107496,-0.11227487,0.04590923,0.028477376,-0.041587636,0.024529964,-0.013833843,-0.014107562,0.024281159,-0.051520027,0.09032109,0.045230787,-0.16849609,0.14247447,0.003330453,-0.17595515,0.010060973,-0.00971972,-0.08018997,-0.009617491,-0.08459491,0.030076005,0.04378919,0.006709039,0.07205834,0.03015957,-0.13498807,-0.06113416,0.0882235,-0.014075639,-0.05435191,-0.096154414,-0.0013479744,0.0314179,0.024372658,0.029304694,-0.019982854,-0.05957042,0.047492556,-0.036125764,0.07487082,0.019377451,-0.18797031,-0.041440483,-0.0051784148,-0.02898979,-0.09639583,-0.14247492,-0.08009914,0.033920486,-0.07121245,-0.052449297,0.036123466,-0.008405045,0.03717555,-0.022398882,-0.022153929,0.0030826393,0.037774485,-0.051492684,-0.08117065,0.094163775,0.012408938,-0.04930622,0.0336827,-0.024475131,-0.0020763273,0.049196094,-0.12427084,-0.057004485,-0.055180673,-0.08617499,0.055275537,-0.016082926,0.08144209,-0.07487526,-0.0465815,-0.10454243,-0.111321636,-0.029748494,0.049932294,-0.08246256,-0.15716258,0.023929166,0.00058591826,0.0059875664,0.052428313,-0.025579214,-0.047995143,0.011654618,0.0613773,-0.008968489,-0.073201194,-0.0010961919,0.011906464,-0.068641886,-0.1906531,0.03329606,-0.047455803,-0.072482064,-0.0736047,-0.05463452,-0.06556861,-0.022449518,0.062109627,0.19906616,0.15185656,0.07261854,0.055533618,-0.014633067,0.052193772,0.0136074005,0.027411778,0.1078942,-0.020719687,0.025526127,-0.027773503,0.008719304,-0.038060356,0.03392523,-0.030917086,0.075907566,-0.09156684,-0.10647063,-0.064748205,-0.05162281,-0.04992577,-0.07685587,-0.010951569,-0.07584245,-0.021923155,0.014344258,-0.0042378763,-0.006031792,-0.10446494,-0.13832074,-0.016101848,0.07657678,0.07271969,-0.095221095,0.023462888,-0.14357969,-0.082624175,-0.030620147,-0.12469293,0.09012671,-0.071249776,-0.059644077,-0.07273535,0.05801158,-0.051403724,0.013744466,0.02964502,-0.059519686,0.14829682,-0.08575409,-0.10437523,0.015603593,0.062015966,0.081210844,-0.018474936,0.023378123,-0.016875409,0.014834127,-0.028763168,0.022582015,0.024766501,0.073196344,0.045560576,0.06137007,-0.14983816,-0.16080298,-0.018196573,0.049642205,0.124068454,0.1196551,0.03232358,0.020396648,0.012288961,0.022420151,0.023035353,-0.09810317,0.034509867,0.07730161,-0.019900758,0.09527737,0.022741426,-0.009003018,0.02184149,-0.09850251,-0.022016278,0.0041654217,0.09377915,-0.062220562,-0.0035422775,0.13536009,0.07125544,0.025260873,0.08952653,-0.015184376,0.078453615,-0.15205795,0.11130062,0.09921505,-0.1962661,0.106811516,-0.043778542,-0.049771413,0.1178948,0.080920056,-0.009918252,0.059598718,-0.06941831,0.04147202,0.07917088,0.044225544,0.115376696,0.004561447,0.0008577166,-0.014367352,-0.049813252,-0.029830221,0.06695296,0.04822029,0.08556459,0.10407397,-0.061190225,-0.053513523,0.020847838,0.010955793,0.041681483,0.14393249,0.007121402,0.14414555,0.061519798,-0.14384915,-0.020690506,-0.08313199,-0.084704585,0.1408797,-0.015081666,0.010316508,0.17790204,-0.018449733,-0.03149008,0.02277544,-0.050273754,0.052355003,-0.059880618,0.060181428,0.028481022,-0.021214964,0.049798924,-0.03923378,0.05733677,-0.0069737807,0.0041589,0.07999031,0.010617359,-0.09549865,0.046310876,0.12368847,0.02822892,-0.04008648,-0.022117337,-0.030164838,-0.086938076,0.061612662,0.052702937,-0.04505426,-0.018542113,0.06839579,0.015522265,0.012278385,-0.053733665,0.016445434,0.052837055,-0.01233982,-0.09037003,-0.0086971475,0.016436594,-0.07232621,-0.028162735,-0.012586156,-0.0006439892,-0.029945962,-0.058912694,0.015519954,-0.05163741,0.008151173,0.077714846,0.07278359,0.026613377,0.0033920563,0.035131473,-0.0044203564,0.008461345,-0.027281936,0.0062303934,-0.049537223,0.06456346,0.05592537,-0.016350247,0.046719085,0.026950888,-0.07165311,-0.017315004,0.011747235,0.05858872,-0.012735547,-0.0071020727,-0.01460872,-0.02356379,0.00052611786,-0.08316512,-0.07320387,-0.012046379,-0.059168614,-0.06138953,-0.012258026,-0.0822583,-0.06236231,-0.046334494,-0.012036911,-0.018231696,-0.025430672,-0.02187382,-0.013801563,-0.03499489,0.033467375,0.02449467,-0.032193415,-0.048671108,-0.085998766,-0.11457569,-0.06617141,-0.0049553276,-0.03626498,-0.05056678,-0.017544122,0.00012575333,0.016284302,0.019198949,0.0005787333,0.029376253,-0.021033915,0.06672802,0.04712919,-0.020292558,0.03437517,-0.0045023933,-0.07854169,-0.044377863,-0.12614249,-0.028810253,-0.07522691,-0.04007987,-0.045334384,-0.06444806,-0.09196812,-0.10592051,-0.05310041,0.0299891,0.04351281,0.02336332,0.025789373,0.0056735124,-0.08310743,0.011407068,-0.016443647,0.004928461,-0.03650296,-0.040514268,-0.068409555,-0.062453456,-0.023324188,-0.077266075,-0.038093645,-0.032039303,-0.051969178,0.045842253,0.0029642563,-0.041811682,0.0018232071,0.008099105,-0.061870504,-0.025225567,-0.041608337,-0.00908334,-0.031188391,-0.095884874,0.01888179,0.05431461,0.037544243,-0.01500794,0.06059399,0.05433108,0.015164878,0.030934459,-0.03633145,-0.07049233,0.03455446,0.019597841,-0.031378966,0.054708816,0.00058117096,-0.04659572,-0.047186267,-0.028635865,-0.015997369,0.004232177,0.021960247,-0.0010432043,0.01751311,-0.017524453,-0.00057282683,0.02765308,0.021601843,0.00031047416,0.056816608,0.035987794,-0.050281607,0.010182293,-0.010747843,-0.08770845,0.030407857,-0.022884736,-0.01543184,0.0018626689,0.0043132133,0.004666292,0.033857375,0.026159266,0.004889067,-0.0062191957,0.016150918,-0.004933083,0.04433893,0.0044461866,-0.0060700197,0.011310587,0.00063647545,-0.048274264,-0.01522983,-0.0078076194,0.010892108,-0.048543107,-0.097590506,-0.039532978,-0.04143773,-0.06614373,-0.015404365,0.041164648,0.074967735,0.055182878,0.053567383,0.030991416,0.0033556437,-0.023163872,-0.029147299,-0.021915404,-0.011639563,0.10196601,0.019604906,-0.033200584,0.06606752,-0.032985598,0.024100376,0.03941288,0.0070895464,0.0043684533,-0.04412406,-0.04336244,0.024074076,0.0013432174,-0.05073781,0.041687157,0.035851132,0.012376635,0.0006186643,0.018086236,0.02250443,-0.010637202,-0.008445411,-0.014288614,0.030504623,0.0032502618,-0.02662846,-0.03405076,-0.008015882,0.030854343,-9.819119e-06,-0.11609757,-0.049993932,-0.031234734,-0.07672608,-0.0039668973,-0.05715918,-0.005255891,0.004439861,-0.036681347,-0.023340428,-0.051760674,-0.01282987,-0.03717853,-0.04836595,0.022969777,-0.062283453,-0.02516666,0.03891897,0.019761527,-0.021556552,0.04006182,0.027317135,-0.031040024,0.02913465,-0.00037227018,-0.07208799,-0.03767907,-0.027763637,-0.088610165,-0.016287122,-0.032370843,-0.088024594,-0.0034673233,0.015887858,0.036050305,-0.048548907,-0.09701389,-0.07138273,0.043120068,-0.0037863601,-0.0820779,0.010698384,-0.003073272,-0.00629761,-0.042586863,0.036607496,0.07330731,-0.06811232,0.01654971,0.1208294,-0.03623701,-0.07936685,-0.029992737,-0.032848306,0.021270858,0.09668669,-0.055492613,0.008025367,0.027166937,-0.042563867,-0.003969311,0.008698057,0.0072777118,0.013456204,-0.01811735,0.008244066,0.032708284,-0.035686687,-0.09836144,-0.08730853,-0.080912866,-0.01838772,-0.052795243,-0.012538927,0.05835053,0.064176075,0.079029255,-0.045890927,-0.04774932,-0.013601666,0.022424191,-0.01686249,-0.04641215,-0.059199024,-0.042842302,-0.051407438,0.023345498,-0.019716298,0.03813194,0.072404906,0.0049762316,0.03780333,0.025500303,-0.0056708753,0.042412307,-0.04716545,-0.019141631,-0.031505052,-0.056315742,0.012114657,-0.06311887,-0.05165315,0.0613614,0.030837975,0.013737626,0.0028286283,-0.023379516,0.04982406,-0.028703224,0.010504208,-0.001601029,-0.07305472,0.049815785,-0.040653158,-0.031017587,0.047730967,-0.0009156365,-0.029892398,0.02324252,0.048104104,0.00676672,-0.019792194,-0.07706954,-0.038706567,0.0032671238,0.042168234,0.0012303984,0.07005466,-0.0046265638,-0.00064000394,0.03253728,-0.023466995,0.012376708,-0.030617487,0.03499183,0.021368518,-0.017227923,0.0588917,-0.021595972,-0.06978348,0.097842135,0.08478031,0.06021668,0.06954124,0.042972337,0.042064488,0.009896328,0.025164591,-0.0037117861,-0.020012887,-0.027450433,-0.048948348,-0.03415353,-0.091711745,-0.09113282,0.046790134,0.0150783835,0.018146668,0.021884685,0.1053112,0.051848613,-0.008273033,0.028696781,0.0029514316,0.021227892,-0.008712616,0.048539743,-0.055308573,0.04442258,0.01821004,-0.053464286,0.0073028496,0.008788109,-0.016538631,0.058333807,0.035963684,0.014839033,-0.005620717,0.070209794,0.028921476,-0.067411914,0.026480276,0.05562417,-0.015745297,-0.0011556975,-0.04038094,-0.060907006,-0.053415008,-0.060482945,-0.049707834,-0.029781424,-0.014605069,-0.062054295,-0.019964203,0.01949279,0.03779846,0.012365218,-0.030738162,-0.03714349,0.014897718,-0.020692836,-0.035328075,-0.038190525,0.0424229,-0.01716378,0.0032153076,0.018215086,-0.0044948817,0.011488925,0.049795568,-0.0042460696,-0.039622188,-0.103444755,-0.0725142,0.016301872,-0.011634593,-0.015289547,-0.0007738645,0.038090624,0.017134605,-0.03391996,0.0045958445,0.014644844,-0.02134133,0.04646485,-0.013611147,-0.042972926,0.070169404,-0.07457813,-0.004707824,0.043731328,-0.06278332,-0.009996598,0.014443405,-0.054144435,0.035240084,-0.013961995,0.0019747238,0.03175062,-0.015888803,0.06423816,0.03845351,-0.049596623,0.06767547,0.06382527,-0.03675422,0.017433971,0.014383207,0.057682782,0.07980488,-0.014424429,0.0062003676,0.029130114,-0.020134158,-0.055156764,0.019459756,0.051494252,-0.011320825,0.019834958,-0.006985709,0.09771444,0.09994498,0.024994582,0.06830025,0.07196571,-0.021589462,-0.0048331083,-0.004745592,-0.0054311217,0.020104762,0.0065109525,0.04601398,0.030566642,0.053351004,0.028167082,-0.057444513,-0.09256137,-0.05912712,-0.05803533,-0.042512875,-0.014665449,-0.015890261,0.033531483,-0.034854166,-0.1002913,-0.045269657,0.0007742662,-0.037875246,-0.056224696,-0.053592224,0.009782816,0.013507993,-0.031387165,0.025878444,0.04552994,0.033094846,0.026448913,0.06113242,-0.067649364,0.04114965,0.034385398,-0.09158279,-0.032299485,-0.004759426,0.031058744,-0.03190939,-0.03348775,-0.044398237,-0.010938816,-0.0191606,-0.056351736,6.282936e-05,-0.024101289,-0.0125156995,-0.0013061523,0.015880344,-0.0210761,0.0009041455,0.030459434,-0.023599794,-0.016089173,-0.0027626539,-0.006232482,-0.00485364,0.0029879198,0.014547519,0.0042498773,0.018064274,-0.009247548,-0.032290515,0.113167755,0.17771697,8.01002e-05,0.12518546,0.10926322,-0.001725423,0.05779685,0.049691573,-0.003108159,0.02994767,0.06084186,0.03347108,0.041545793,0.05428417,0.0498548,0.08357324,0.007125286,-0.011507101,0.039506882,0.0075329132,-0.08566776,0.0362943,-0.014864013,-0.03648492,-0.005212905,-0.02588811,-0.024075909,-0.07040511,-0.0677872,-0.048742738,-0.04638472,-0.027692555,0.01474819,-0.012060541,0.08996753,-0.021261955,-0.022576585,-0.03323398,0.03914529,-0.0074203215,0.007386672,0.08260288,-0.02064444,0.0013715817,-0.043832257,-0.06709524,-0.032695502,-0.017597673,-0.08480916,-0.07053072,0.016739693,-0.07590868,-0.037417218,0.029731363,0.042494465,0.070274845,0.059704162,-0.00246928,0.003673449,0.016145833,0.020342883,-0.06563454,-0.09092654,-0.029376116,-0.05796999,-0.014555244,0.0029936228,0.07867784,0.05453845,0.0016424,0.05303537,0.02508541,0.11086077,0.021037642,0.04020033,0.08550566,0.022364032,0.052378945,-0.098557144,0.036242332,0.0055534346,0.016699493,-0.006760346,0.025659619,0.081385314,-0.018324638,0.02679522,-0.0031948176,-0.05216415,0.069517106,0.009007321,-0.0379309,0.07234492,0.03139562,-0.004973574,0.051492706,0.07740351,-0.0014161521,1.5014743e-05,-0.042049494,0.016167121,-0.018088225,0.012608696,0.044314794,-0.005672256,0.012216619,0.014492599,0.0077790525,0.017844098,0.0008963567,-0.04277264,-0.020754104,-0.0474506,-0.030761955,-0.018798282,-0.059607588,0.03361076,0.077312864,-0.019288797,0.012485464,0.16940367,-0.05713373,-0.0117007,0.032853737,0.0023992846,-0.060764793,0.04938649,0.043302666,-0.018407721,-0.0061835316,-0.013965538,0.007159491,-0.08429165,-0.024567565,0.0016323596,-0.07955966,-0.08826197,0.035830677,-0.10209681,-0.08251285,0.042535275,0.029571299,-0.02046123,0.0035085378,0.04431791,-0.056999613,0.0074698147,0.056115407,-0.02349791,0.014608375,0.012277922,0.02515719,0.010743981,-0.1112095,-0.091206335,0.01727422,0.036981616,-0.044697702,0.01754918,0.10131533,0.071146116,0.064429514,-0.075941116,-0.054936517,0.051556703,-0.0033586256,-0.07273402,0.04204044,0.063513555,0.0533784,-0.06742462,0.0043655867,-0.020343047,-0.052006092,-0.015331679,0.0411314,0.07689228,0.030518265,0.0029557087,0.0076102884,0.0072532725,0.0056761354,-0.0061194603,0.013056539,-0.008462493,-0.013537893,-0.026967745,-0.06215006,0.011937496,-0.0055259257,-0.039924953,-0.066031836,-0.090594456,0.029703,0.034025457,-0.0071859793,-0.02713427,0.029747263,-0.0017569993,-0.019689882,0.051414255,-0.019566765,-0.0019511151,0.008965142,0.01649737,0.025600674,0.07065986,0.056602344,0.022264715,0.08284956,0.0866158,-0.007936145,-0.09138739,0.07485831,0.04537521,0.034457944,0.07849469,0.024434658,-0.003757513,-0.035204012,-0.006124049,0.0005473642,0.015560697,0.036820583,-0.0012963293,-0.06534602,-0.049284462,0.021001162,-0.08753953,-0.025343316,0.09164344,-0.05569472,0.021735318,0.0030136246,0.14189084,0.06578742,-0.0338254,0.044183835,-0.020832397,-0.0063860626,-0.09487889,0.01971024,-0.063940436,-0.07110615,0.052867312,0.094506085,-0.0014929558,0.034057733,0.029050833,0.061996665,0.026962081,-0.045730207,-0.017455991,0.07409812,-0.0792801,0.10875737,0.012790098,0.008479086,-0.0047570285,0.010325435,0.056360487,0.06659507,0.094621405,0.05498158,0.21409161,-0.047263462,-0.074987926,0.16015363,-0.006443621,-0.0105041,-0.08196988,0.018390689,-0.03866071,0.053179156,0.079718456,0.05114249,0.10351955,-0.00047980796,-0.016469315,0.019948483,0.029377826,-0.01359947,-0.060854778,-0.0751831,-0.09446263,-0.040128924,-0.03987031,-0.013346127,-0.0908296,0.019596245,0.020985236,0.056186914,0.063925676,-0.02687776,0.13278024,0.023395741,0.04211163,-0.00053398556,0.0047730557,0.04304496,0.0470915,0.0026391463,-0.019154595,-0.0030899586,0.06951677,0.06868332,0.108716674,0.07675403,0.13019371,-0.014103443,-0.0040421262,0.07492614,0.017133815,-0.019985039,0.0054927985,-0.03606076,-0.027596105,-0.053877573,-0.006031884,0.006814977,-0.044938236,-0.030558506,-0.010479128,-0.023211034,0.0086862715,-0.0005717572,0.121916875,0.034772124,-0.09010625,-0.020600393,0.11612797,-0.028836807,0.027488574,-0.008507787,0.025850995,-0.003973156,0.04542157,0.0066121183,0.045023948,0.026556157,0.04513675,0.018317996,-0.056452528,-0.085728854,-0.036432125,-0.017645184,0.021483451,-0.10783389,0.073006496,0.0058411136,0.028876748,0.060060203,0.035716474,-0.01090416,-0.021241816,0.048736595,-0.009024686,-0.05566668,0.04917022,-0.028797148,0.0050476957,0.006056135,0.06314469,-0.0024308476,-0.00033082612,0.10644973,0.0095073925,0.008555185,-0.054729946,-0.045794044,0.039699614,0.006284636,-0.08188897,0.0815033,0.11478387,0.010062156,0.09836612,-0.013764993,-0.094387524,0.03459741,0.0726829,0.020201279,-0.026417594,-0.04122483,0.031705804,0.025308318,0.010189155,-0.0089926915,-0.016110618,0.059219617,0.03431278,0.016321274,0.06355355,-0.016174199,0.045750402,0.05755992,0.08266049,-0.004595463,0.014376771,-0.06756957,-0.043292467,0.02356905,0.015150295,0.00059180154,0.0069728377,0.06326315,-0.038237896,-0.08101606,0.055182792,0.106429875,-0.046594653,-0.047805674,0.038774855,-0.03402621,-0.023650443,0.016353577,-0.05351004,0.001675006,-0.023376463,0.040594485,0.018564928,-0.082659185,0.007534562,0.07375217,-0.051012058,-0.0316232,-0.09228614,0.022852149,0.0094211,-0.06240546,0.026203144,0.009792495,0.008383671,-0.051062185,0.061161548,-0.016812908,-0.05203723,0.038057126,-0.09820436,-0.0407362,0.047666814,-0.0015502556,-0.023662496,-0.058080133,0.03493259,-0.0061865393,0.024977671,-0.0060281693,-0.005083106,0.005307926,-0.033229016,0.0054424345,-0.016058771,-0.057792455,-0.048205566,-0.08682799,-0.062928386,-0.10423377,-0.07226384,-0.024766402,-0.03323006,-0.067858405,-0.019601531,0.03403885,-0.09036078,-0.057656005,-0.09525569,-0.0048157545,0.058288246,0.044868883,-0.02419025,-0.020818772,0.04781307,-0.041715536,-0.049734347,0.04424662,-0.039186332,-0.08448225,0.019748373,-0.062466826,-0.03111175,-0.03295493,-0.02231394,-0.045499843,-0.041121606,-0.06359043,-0.06734757,-0.13390233,-0.027619824,-0.061902992,-0.05058081,0.08846437,-0.033624988,0.021537011,0.03585945,0.050630365,0.005219861,-0.009847517,-0.004276987,-0.027586458,-0.048592642,0.018291295,0.039605226,-0.10185105,-0.1000474,0.04264383,-0.14941713,-0.2705991,0.03492828,-0.07809323,-0.18478203,-0.09929343,0.013750635,0.0030006336,0.027883835,-0.025344202,-0.0016802433,0.06793037,-0.046584535,0.027144587,0.11033791,0.04157266,0.038279288,-0.020502271,-0.07128703,0.04519751,0.038189203,-0.0063722227,0.17654438,0.06968471,-0.057214815,0.016733512,0.043843795,-0.064291105,-0.04974473,-0.00056220085,-0.052837003,-0.010818623,-0.018727157,-0.06723635,0.05211692,0.051415127,-0.0833145,0.0026996727,0.006823949,-0.0044898167,0.0220208,-0.062002208,0.03819079,0.052464914,-0.060927328,0.057729065,-0.094344735,-0.012887323,0.001364631,-0.073730834,0.029130239,0.0040299296,0.084170684,-0.03130797,-0.028204978,0.066527545,0.07443565,0.0134584075,0.16817927,0.11453103,0.004492026,-0.056416653,0.029856417,-0.014006047,-0.0347571,-0.0701899,-0.03373695,-0.03962635,-0.08808069,-0.038572155,-0.028139217,0.015739484,-0.061661433,-0.014751521,-0.028000113,-0.039636407,0.02595663,-0.0075358977,-0.04861541,0.006986292,0.024827287,0.028761359,-0.10627604,-0.01672994,0.02714332,-0.08429421,0.028460316,-0.028654905,-0.06149654,0.09231913,-0.08693918,0.0767609,0.050344184,-0.079340376,0.027096076,-0.031840898,0.07755249,0.013744826,-0.012750687,-0.040887594,0.071822956,0.090967596,-0.104546115,0.11840973,0.1445432,-0.13876961,-0.029614499,-0.0011431031,-0.014025836,0.008424737,0.0129689025,0.03120887,-0.022223692,-0.02118195,-0.07970733,-0.15448,-0.18056901,-0.1328029,-0.08722343,0.0732276,-0.135147,0.00768187,0.067156695,0.12242757,0.058481693,-0.037443914,0.112616725,0.062899046,-0.088477574,0.0069859265,-0.023551768,-0.07457382,0.07324374,-0.07595879,-0.11691652,0.04049153,0.042630076,-0.103395954,0.054434735,0.045288052,-0.063561104,0.011434841,0.025323637,0.06818027,0.021296037,-0.0089308135,-0.05496863,-0.02922419,0.03141419,-0.022790084,-0.0349753,0.013457538,0.03583165,-0.042518236,-0.0006605033,-0.08242372,-0.053594347,-0.044819403,-0.066619486,0.07831791,0.049546115,0.0052441033,0.013500512,-0.0037317683,-0.048707213,-0.14290652,0.026972307,-0.048010934,-0.022201858,-0.01227057,-0.016219182,-0.0012403558,-0.07641364,0.033542033,-0.016496394,-0.050360605,-0.004064488,-0.031409893,0.07308002,-0.037888873,-0.029299999,0.11890121,-0.031198177,0.035078518,0.06112398,-0.001134445,0.0028967003,-0.04561084,0.038540203,-0.03878621,-0.156253,0.059927635,0.1449351,0.04988907,-0.02035918,0.09460094,0.08013756,0.036793716,0.18317722,0.019112628,-0.01340036,0.0018679536,0.002060977,-0.012979296,-0.08631457,0.0639163,0.097750574,-0.07039726,0.08157822,0.046204332,-0.07323692,-0.09283498,-0.13545777,-0.025040459,-0.017002052,0.047502734,0.062102452,-0.07891513,0.031838458,-0.014622877,-0.0210638,-0.024065323,-0.070279635,0.030523105,-0.012190525,-0.049090166,0.043694157,0.04897423,0.016715145,0.02672183,0.20373589,0.06868191,-0.026488187,0.10667476,0.009765206,-0.017367585,0.105957344,-0.09495141,-0.03698991,-0.065455236,0.06738124,0.08772217,-0.005497234,-0.03174087,0.07507945,0.025271997,-0.018740477,-0.098881535,-0.035471328,0.021029565,-0.05880731,-0.00076098624,-0.009323833,-0.0063607744,-0.04518816,0.07534039,0.112881705,-0.021875,-0.060304135,-0.06662449,-0.00019776406,-0.099217236,-0.042629506,0.01893229,0.080113456,0.012109046,0.016833436,0.041359022,0.0906941,0.15796997,-0.07562998,0.029797267,0.010070556,-0.03709507,-0.09236808,-0.07993539,-0.06321277,-0.00055096904,0.14087385,0.046948314,-0.029085018,-0.043250024,0.10502067,-0.0351819,-0.118393034,0.025154214,0.021664964,0.02584512,0.041641876,-0.0029158548,0.0041241543,-0.018375022,-0.031318907,0.043335464,0.005125186,0.0010569735,0.012279129,-0.068379834,-0.04812878,-0.07908835,-0.050293215,-0.12750185,-0.051301334,0.000103525286,0.024151778,0.03489388,0.03748578,-0.028948726,0.007700837,-0.011074175,-0.0024567018,-0.07696775,0.01924699,0.037674893,0.050484072,-0.036653627,-0.067201294,-0.07962536,0.010380624,-0.018192763,0.041901533,0.05636562,0.09639475,0.09922915,0.055498768,0.0016748903,0.06360417,0.029900573,-0.02623883,0.087161995,0.0688661,0.08582944,0.06759473,0.016081791,-0.02922808,0.0908387,0.21768576,0.08327574,0.11120854,-0.013246997,-0.002699893,-0.14757982,-0.027026093,0.036126878,0.028366918,0.060094547,0.009785951,0.08834258,-0.037325103,0.014915522,-0.002215213,-0.09741798,-0.0152081335,0.02023653,-0.019838933,0.09846877,-0.014041834,-0.018244922,0.040613268,0.031845074,0.038405433,0.028047217,-0.03750552,0.011777968,-0.075812556,-0.06842318,0.044858884,-0.054974884,-0.13287944,0.019891966,-0.041886274,0.0040926835,-0.0031533246,-0.059900038,-0.092159525,-0.05598697,-0.080951944,-0.0070240325,-0.05312278,-0.07458033,-0.014402308,-0.06870566,-0.035221312,0.016646834,-0.06711377,-0.0035333526,0.030399049,-0.045063227,0.025947785,-0.08643391,0.055585876,-0.044168763,-0.01777715,-0.1625604,0.076485,0.052312292,-0.12707241,0.07951276,0.11655225,0.037369806,0.10344905,0.07379059,-0.01327407,0.046114285,-0.033796173,0.02895623,-0.026946377,-0.043268397,-0.046065845,-0.00701992,-0.035754733,0.06708193,0.067249686,-0.066267185,0.110895075,-0.005803435,-0.13402618,0.0130553525,-0.033331234,-0.034356676,-0.07114938,0.006828307,0.01750857,-0.06958788,-0.034602884,-0.07610693,-0.044542857,-0.117397904,-0.14300585,0.067098126,0.062088933,0.061644148,0.15282014,-0.0102022905,-0.050707296,-0.015246246,-0.060562767,-0.04991942,-0.07231292,-0.055845123,-0.044267576,-0.008265767,0.0022502786,0.07047448,-0.0179658,0.067848995,0.11437234,-0.027990745,0.033813667,0.020358054,-0.010185374,0.03942359,0.12532045,0.03953324,-0.02829181,0.040643655,-0.010885426,0.035032496,0.020254232,0.036197957,0.025735792,0.02930852,0.10715532,-0.0116760535,-0.09613352,-0.025134103,0.018770529,-0.010712581,-0.029794091,0.0065692817,-0.0020868469,-0.0318221,-0.11826743,0.069494545,0.0045218174,-0.047847718,0.005882917,-0.07652264,0.0043772715,-0.15095292,0.003638792,0.05124695,0.012160675,0.012746821,-0.050518304,0.07832023,0.048672,0.26161912,0.11927265,0.004955621,0.08859224,-0.037169367,0.0069023,-0.0702967,-0.07351735,0.014177305,-0.15765867,0.007600105,0.0030891404,-0.09362027,-0.005064123,-0.0010072367,0.043079607,-0.024154719,-0.026981032,0.017414615,0.050408315,-0.0334855,0.045635134,0.020332046,-0.057100046,0.030194834,0.08427211,-0.014934893,0.03261756,0.02668927,-0.02212944,-0.056022618,-0.04819813,0.051681202,-0.025383765,0.021136953,0.13509905,0.11793195,0.082393,0.014266254,0.05570765,0.023142818,-0.11566633,-0.08308599,0.03365415,-0.13695128,-0.075172044,0.027303644,-0.044499412,-0.029235566,0.0054612416,-0.033680655,-2.8124696e-05,-0.06643941,-0.115077265,-0.005280772,-0.02431578,0.08107598,-0.0105938595,-0.1045856,-0.05122315,0.045440532,0.031594962,-0.00052122184,-0.014397061,-0.08257028,-0.017062042,-0.041041538,0.030552924,-0.06337052,-0.089948654,-0.05415467,-0.10408953,-0.040877882,0.05860903,0.065178044,0.058143858,-0.011084497,0.032799307,0.06341486,0.0090683205,-0.076694116,-0.120929256,-0.02657997,-0.0021185507,-0.047708232,-0.057571024,-0.02870241,-0.030175839,0.016104147,-0.12075848,-0.052778278,-0.05663405,0.02704417,0.010675806,-0.031324748,-0.015156129,-0.07387227,0.0043515535,0.1161541,0.036568243,0.04926459,0.016966937,-0.09505708,-0.015317092,0.064689934,0.011225368,0.0024768296,-0.08310215,-0.114715114,-0.07578435,-0.07562549,-0.068256125,0.060354456,0.03573129,-0.025162319,-0.08748502,0.06485135,-0.05182128,-0.11223797,0.031177659,0.0030945064,0.015387351,0.067547455,0.060674675,0.09499311,0.018822875,-0.026683634,0.030562937,-0.090588704,-0.07429011,0.017968891,-0.027792437,0.015932556,0.06608085,-0.010212888,0.08417087,0.07878185,-0.060359363,0.057095874,0.090084955,-0.019040849,0.0001258361,-0.08237172,-0.0069377013,-0.023459371,-0.06901998,-0.11010095,-0.0010688398,0.07049347,0.040660426,0.0062108147,0.11487899,-0.08413035,-0.095751666,-0.06967471,-0.035272755,-0.11100544,-0.104431525,0.024888026,0.005475942,-0.02993427,-0.0308847,0.017428651,-0.007729964,0.030678794,0.04189863,0.05073319,0.06026269,-0.068725035,-0.05976817,0.051267903,-0.0418699,-0.030836333,-0.014794213,-0.061364263,-0.074754305,-0.03147478,0.054015797,-0.057048135,0.09162142,0.108383924,-0.004635744,0.024834234,0.05726004,0.047544062,0.0057679326,-0.10026566,-0.03716237,-0.1670949,-0.06579368,-0.06343486,-0.020441676,-0.049777146,0.01878303,0.005045584,0.04452538,0.142621,0.030057656,-0.0024031254,0.038675573,-0.115562096,-0.073498905,0.016767135,-0.05493685,-0.109252304,0.04676948,-0.061968885,-0.082271576,0.06670444,-0.06710288,0.010889888,-0.0026217417,0.036558267,0.005485943,-0.1136984,0.044412773,0.019983107,0.1522487,-0.046758763,-0.034936745,0.15696764,0.044745106,-0.0032220175,0.021224456,0.116855085,0.085125506,0.08603087,-0.034490246,0.003662551,0.0139406305,0.037685495,0.029113708,0.003206544,0.012297153,-0.017390294,-0.042268243,-0.1122199,0.059255883,0.114420526,0.00030918876,-0.01688222,-0.036160797,0.17177661,0.043358494,-0.10220082,0.08709268,-0.037094537,0.027941583,0.025399024,-0.029872099,0.060522668,-0.08410771,-0.037865978,-0.009516822,-0.047480784,0.072850645,0.011865532,-0.05846249,0.005700398,0.0029676117,0.08224119,0.0004576339,-0.0038663081,-0.026970286,0.08425618,-0.04099829,-0.002694198,-0.013445431,-0.08145436,-0.037914388,-0.061051466,-0.09528208,-0.058122225,-0.0092410445,-0.09742787,-0.09753696,-0.014000588,0.07607928,-0.06521204,-0.009619064,0.023901869,0.0037537648,0.061210472,-0.009335883,0.097935915,0.0348727,-0.06951681,0.03511441,0.024567466,0.0239597,0.020775685,-0.003778819,0.1647207,0.0021268828,0.07366826,0.09137199,-0.05889266,0.047950365,0.019283079,-0.08004926,0.010283483,-0.034914352,0.022731606,-0.050832044,0.124708705,0.033950377,-0.045792874,-0.05773532,0.0847824,-0.011736632,-0.040757176,-0.0008932529,-0.11422965,0.18806498,0.1734524,-0.073045775,-0.029595973,0.1142508,-0.02973646,-0.011577851,-0.04988242,-0.120589755,-0.06590503,0.00053890946,-0.08232726,0.03522711,0.040666383,-0.0027670665,-0.02413028,0.038107686,-0.05086224,-0.048599567,0.021421704,0.041016117,0.066229455,-0.050309222,0.054512672,0.09292881,-0.0615273,0.09205536,-0.03058883,0.028375374,0.061109,-0.037866972,0.025939602,-3.3510994e-05,-0.04837942,0.085232876,0.09483555,-0.06041443,0.0048573767,-0.07405334,-0.055202406,-0.08157678,-0.028134592,-0.010891023,0.09909758,0.038704563,0.023761814,0.04200302,0.012346067,-0.05987221,-0.01842417,-0.004240478,-0.07619484,0.18072884,0.11388013,0.18000163,-0.044679556,-0.06099682,-0.03885184,0.09100635,-0.068814,-0.18371254,0.0053601265,0.12260894,0.0014503963,-0.053301208,0.043329515,-0.03399091,0.033035737,0.00876032,-0.042422444,0.07240998,-0.13559677,-0.083612576,0.024158863,-0.15594801,-0.0022309707,-0.038686424,-0.056380995,0.07767048,-0.060288116,-0.048689827,0.00036453622,-0.017061442,-0.0015848314,0.0046188007,0.016360722,0.059615586,0.07320685,-0.10869699,-0.0148323905,0.14821291,0.1115378,0.04525897,0.0560004,0.14159304,0.011463489,-0.07985502,0.05966432,-0.06337931,-0.07256711,-0.08524471,-0.09467289,-0.106136926,-0.035339255,0.0702043,-0.05249335,0.022183776,-0.015701234,-0.009640937,0.09173142,-0.047153037,-0.010966292,0.052794244,-0.04599897,-0.0057857195,-0.1459011,-0.13359693,-0.007640912,-0.093639575,-0.012578728,-0.101321355,0.061991338,0.13692597,-0.078175224,-0.0030447515,-0.064179696,0.064757526,0.013836813,-0.17417115,-0.105741374,0.0038171655,-0.071003355,0.06127472,-0.01582235,-0.11821408,-0.1926138,-0.069092445,-0.120309904,-0.11504709,-0.07490923,-0.016158592,0.001018046,0.0870493,-0.06699462,-0.0023775015,0.041232318,-0.003336805,-0.04623539,0.1093992,0.05278135,-0.08878409,0.01907957,0.048151113,-0.011911778,0.021648683,-0.004488047,-0.0007135863,0.05323551,-0.058998562,0.04994417,0.01519176,0.0947657,0.10982173,-0.03804896,-0.022284728,0.097551964,-0.022218099,-0.09835488,-0.026806312,0.015812064,-0.01097145,-0.0025783642,-0.09942541,-0.05322236,0.07201926,-0.05211695,-0.04713923,-0.03582992,-0.07811567,-0.057657294,-0.03153875,0.09725784,0.11374488,0.14862643,0.09166751,0.068112224,0.102174014,0.0400713,-0.031857457,-0.033694383,0.05939055,0.042188723,-0.10187775,0.07120402,-0.022221692,-0.024134953,-0.10111498,-0.13502437,-0.14259446,-0.009040611,-0.0112396525,0.015238138,-0.07050141,0.053947266,0.017799659,0.023078348,0.11892259,0.032144025,-0.052423727,-0.023184577,0.03926881,0.095256634,0.027327217,0.10838219,0.09591587,0.12830363,-0.10263403,-0.027599081,-0.057348203,-0.09074064,0.08871473,0.034862358,0.04381688,0.15457767,0.07395358,-0.13059969,0.09744377,0.0111182425,0.0050999126,-0.068579674,-0.007591171,-0.0119286785,0.04093257,-0.027026616,0.031598926,0.010136032,0.045300536,-0.037241165,0.024353355,0.009344955,-0.08944826,-0.018214563,-0.052938674,-0.063949004,-0.045520857,-0.08885377,-0.07539923,0.047212735,0.043040346,0.07053388,-0.06473684,-0.101452656,-0.13983148,-0.006767562,-0.06757977,-0.088364236,-0.06415131,-0.0753865,-0.07293346,0.012487304,-0.024638094,-0.2199542,0.06466177,0.03935904,-0.059642952,0.049964245,0.19826059,0.07415558,-0.032890853,0.0146890655,0.035765175,0.00011824918,-0.04374768,-0.07074324,-0.10761727,-0.09679321,-0.095220625,-0.014287261,0.08198131,-0.018923018,0.0055421134,0.14999615,0.0039454466,-0.059184484,0.15981977,0.05188236,-0.03312409,-0.099296995,-0.11268241,0.08227092,0.0042466363,0.010797947,0.07111609,-0.058598235,0.058552086,-0.019203406,0.08393962,0.09718368,-0.04976899,-0.0073398803,0.0807013,0.022104096,-0.06898198,0.0111545995,0.027739136,0.053097468,0.101358,-0.04938466,-0.090052925,-0.0010609055,-0.12738807,-0.042441245,0.036248248,-0.09264646,-0.041724514,-0.011862494,0.0091686435,0.04439703,-0.0033078822,0.048272602,0.050745554,0.06329379,0.012584272,-0.043980695,-0.03815595,-0.00398407,-0.07745149,0.08166368,-0.06485413,-0.030630099,0.1502783,-0.08405626,-0.12661329,-0.07464998,0.026713414,0.06778768,0.013751977,0.17484936,0.02274665,-0.10784179,-0.05912094,-0.030037573,-0.031732827,-0.06580105,-0.080433294,-0.05743032,-0.026239265,-0.011471196,-0.09302487,0.00647279,-0.042911552,-0.14558454,-0.029257119,0.0077708885,0.03274435,-0.013150295,0.031762674,0.11344434,-0.07794991,-0.010163402,-0.034502342,-0.02640528,-0.0713142,-0.022060316,0.047732778,0.11827403,0.09846378,-0.12892969,-0.09395418,0.005002126,-0.07437599,-0.024865635,0.082644954,0.09292795,0.0031423576,-0.060812645,-0.11382588,-0.007880947,-0.09736629,-0.028809296,-0.060505833,-0.054326322,0.09521796,-0.057317983,-0.029334377,-0.006858022,-0.050190933,0.0052755717,-0.19552454,-0.060420122,-0.04101253,-0.06114173,0.002721214,-0.12915957,-0.014260797,-0.0821764,0.014762665,-0.04960632,-0.023634749,-0.01667482,-0.034340706,0.009684741,0.011316926,-0.06722474,-0.1444557,0.021126218,-0.08975803,-0.058761705,-0.02698936,0.028087921,0.029123487,-0.11201497,-0.079728976,0.0349341,-0.039017912,-0.069000736,-0.027784854,0.023524145,0.11566021,-0.05228345,-0.029159991,0.017039655,0.061444055,0.02351755,-0.011917045,-0.06037802,0.01522585,-0.038555298,-0.098481946,-0.019432934,0.072806336,0.0697602,0.009831024,-0.090644404,0.05439955,-0.003267437,-0.05491311,0.0027395051,0.051948644,0.03438745,-0.04104867,0.025432914,-0.06556464,-0.06924193,-0.046947427,-0.052926853,0.055944007,0.1215872,-0.122592755,-0.060479205,-0.077935286,-0.016174776,-0.10569924,-0.0024325992,-0.08585064,-0.07582825,-0.007933932,0.01635213,-0.042997934,0.02410984,0.0023557623,-0.05719331,0.040230345,-0.021377156,0.06625235,0.1410445,0.09363332,0.054928735,-0.08017383,-0.018711643,0.0036158953,-0.107810296,0.13560145,-0.035958406,-0.07655109,0.09858597,-0.025787586,-0.13594733,-0.012775562,-0.059296854,-0.022828305,-0.018514011,-0.108629584,-0.09784302,-0.0031172617,-0.050789632,0.017338792,-0.068953186,-0.040313303,0.08172011,-0.1350459,0.05707873,0.16833112,0.09171444,-0.0878196,0.06588637,-0.062142313,0.06143041,0.11833258,0.00014738752,0.2018652,0.039391268,6.771813e-05,-0.003124287,-0.05748491,0.019079067,0.02208326,0.025031261,-0.037158277,0.01546754,-0.062927336,-0.0115271825,-0.07253239,-0.032248657,0.019906463,0.044257704,-0.047962945,-0.004042981,0.07000795,-0.013673829,-0.025289495,0.15809903,0.075943634,-0.13732281,-0.03381834,0.045342144,-0.15187427,-0.08212207,-0.03457537,-0.025564846,-0.07374048,0.150714,-0.013554267,0.05313739,0.09908429,0.14529365,0.057904765,-0.16743918,-0.019555666,0.13097009,0.0053473385,-0.044283554,0.010811246,-0.04143479,0.09540039,0.09811467,0.0020425252,0.004880524,0.023988524,0.009685557,-0.07860395,-0.14129128,-0.16984107,-0.08236546,-0.043785684,-0.0035143846,-0.14919147,-0.15811186,0.037683755,0.041999575,0.03714954,0.016671376,-0.032828487,0.015384967,0.1025815,0.113548025,0.010134653,-0.013926244,-0.06378707,0.09119012,0.0019265441,-0.0902655,-0.076984204,-0.029077064,0.2159388,-0.0057375394,-0.1180424,0.050154172,-0.03221647,0.031146163,-0.30451778,-0.1069475,0.055558152,-0.094623215,-0.1343893,0.10871023,-0.098922096,0.028445337,0.17287879,-0.038638286,-0.06925817,0.08439853,0.03265691,-0.10657274,0.050371278,0.009158406,-0.13460462,-0.06660319,-0.041901134,-0.19422998,-0.04416596,0.13839592,-0.019248024,-0.031076064,0.069070354,-0.027190685,-0.103323564,-0.0629266,-0.043515414,-0.06265287,0.10573052,0.088647686,0.06277865,0.06445548,0.02859412,0.07575729,-0.008614604,-0.07083481,-0.07669737,-0.04283576,0.04083005,-0.014393312,-0.02845529,-0.14562093,0.014973203,0.013976744,-0.063645884,-0.042642158,-0.007875116,-0.07723745,-0.057906624,-0.047997143,-0.102082275,-0.053888183,0.06826055,-0.037317175,0.020967932,0.11529422,-0.059111632,0.018305665,0.0264515,-0.013356269,0.015961241,-0.038654417,-0.0012053872,0.072032824,-0.20338255,-0.03449074,-0.027736053,-0.0028954414,-0.10526135,-0.20766228,0.15578914,0.015465263,-0.0752329,-0.02969005,0.04648346,0.14599317,-0.004636653,0.1315483,0.16497903,-0.047204487,0.08167211,-0.013006552,0.05441936,0.10036677,0.111002326,0.003731196,-0.09796433,-0.032342765,-0.07651441,0.026420377,0.19886975,0.00016215524,-0.044739112,0.00088107167,0.010838825,-0.2034293,0.054310802,-0.08763956,-0.009414732,0.16834617,0.12534256,0.1612743,0.03933134,-0.032908536,-0.14051399,0.057672076,-0.03439333,-0.20917116,0.027959958,-0.10149294,-0.22820045,-0.102293305,0.042285547,-0.23078279,-0.09969345,0.11586959,-0.19433674,-0.101129785,-0.012883656,-0.050443105,0.04329248,-0.1437302,-0.017614651,0.020113215,0.1230995,-0.09152986,-0.07942256,0.0021492783,0.05339368,-0.011186956,0.09413798,0.011977373,0.048590183,0.058294434,-0.058222566,-0.027048554,0.33070624,0.2643652,0.011753788,-0.13724735,-0.06885414,0.009988043,-0.07282041,-0.015630376,0.035942018,0.1020652,-0.013093458,-0.10356731,0.134874,0.09402626,0.019371241,0.12625498,0.092097014,0.027074602,-0.04665992,-0.0704466,0.050196134,0.0119571965,0.07732771,0.089283474,0.0033173119,0.06631497,0.09402713,-0.01067299,-0.0020428752,-0.041427914,-0.017134255,-0.03200095,-0.088666715,-0.0058069676,-0.09598269,-0.008862695,0.14382042,0.11919864,-0.07918021,-0.0015986385,0.032101195,0.14422302,-0.044867292,-0.1723653,0.04411592,0.13635018,-0.07975151,-0.013499082,0.17685351,0.13278964,-0.0048006116,0.02010459,-0.07306742,-0.016837414,0.020642746,0.004795809,0.0051398794,-0.0021705173,0.038062215,-0.005368694,-0.030740285,0.08389017,-0.010754343,0.029130204,-0.02077873,-0.023651376,0.01275478,-0.023985188,0.016452793,-0.0924119,-0.112425126,0.16843577,0.061421283,0.2122776,0.10627172,-0.03500127,0.10039967,0.036920957,0.014612557,-0.17496711,-0.1417241,0.10337544,0.008568531,-0.028034149,0.11066602,0.030553496,-0.083813764,0.016573464,0.11979157,0.0065029482,-0.17548104,-0.099623434,-0.05015173,0.06900821,-0.025710715,0.030665122,-0.02384182,-0.06752581,0.0562884,-0.08516221,-0.10360051,0.0030989437,0.020263001,-0.03685958,0.021678183,-0.016544761,-0.05978909,0.099356055,-0.04186436,0.10427683,0.009771751,-0.08365021,-0.09530368,-0.038907412,-0.054122824,-0.14184894,0.13410081,-0.1443256,-0.15919606,0.042851076,-0.16270408,0.13646817,0.14950883,-0.02598726,0.08283887,-0.028169628,-0.08150245,-0.0809915,0.034094144,-0.10504041,-0.0989424,0.043891218,-0.06504262,-0.094469205,-0.0638706,-0.026746375,-0.06032642,0.09206684,-0.0429363,-0.051555797,0.009436432,0.011172215,-0.057924133,0.041870903,-0.0023867856,0.03153682,-0.0011875466,0.0037190923,0.049202245,0.055207524,-0.0724312,0.13609114,0.0031298634,0.1010187,-0.01647856,-0.037035488,0.06839114,0.0622273,-0.031163182,-0.0451716,-0.06309218,0.031731185,0.0238468,-0.14940853,0.030356718,-0.037183072,-0.0758491,0.08007507,0.06465444,-0.010865636,0.028107801,-0.059389375,-0.08783802,-0.020010265,-0.012713234,0.008992273,-0.0961755,0.025199544,0.035431992,-0.042919703,-0.009329263,0.06501003,0.07290364,0.045816272,-0.01725982,-0.041012626,-0.052549805,-0.069570035,0.038606778,0.06469101,-0.07440163,-0.106253915,0.017665405,-0.024666779,-4.2622578e-05,-0.08093988,0.11765499,-0.00052969356,0.12342751,0.03630315,-0.08836892,0.026029585,-0.038977772,-0.059698783,0.051084306,-0.04709297,-0.036387615,-0.096750565,-0.102053076,0.060935326,-0.08576603,-0.10093759,-0.030405488,-0.010315248,0.032997265,-0.034814905,-0.02118647,0.013612557,-0.1059465,0.10291089,-0.027613133,-0.06955495,0.19509622,0.025270287,0.0107315015,-0.001907704,-0.04623955,-0.13135989,0.10351068,0.19959255,-0.11431669,0.22418761,0.06221019,-0.11020298,-0.067529485,-0.1260028,-0.040518697,-0.10491904,-0.13831729,-0.013201122,0.05472737,-0.1158498,0.005048637,-0.06966955,0.003548264,-0.06726774,0.103397265,-0.0075001754,-0.033481054,0.07568925,0.08170694,-0.016909067,0.020485448,-0.0024336465,0.046563674,0.01841402,-0.014496078,0.05327636,0.20380607,0.06209869,-0.08469836,-0.0032662717,-0.09890537,0.0070807133,0.053538132,0.0017452672,0.06343834,-0.08460608,0.040062666,0.045505118,-0.14028747,-0.03560747,0.06148897,0.05778265,0.021289844,-0.007825068,0.19875303,-0.041394766,-0.101165734,0.05937201,-0.016836489,0.08244972,0.076379605,0.012251397,-0.04076406,-0.06527459,-0.102434434,-0.04744285,0.038145375,-0.047303226,-0.055460006,-0.06106597,-0.10680562,0.020123715,0.046077713,0.026954016,0.08804124,-0.07425636,0.11791437,-0.028871585,0.011404633,-0.011100501,0.025448294,-0.042414427,0.07753687,0.12897219,-0.062220655,0.09862663,0.050090384,-0.20479831,-0.060254414,-0.064409554,-0.12537192,-0.13093582,-0.06663213,-0.12247781,-0.06657336,0.013594398,-0.12461322,-0.0585003,0.07758719,0.1162146,0.1466572,0.08388781,-0.15223756,-0.11931287,0.05037635,-0.078538306,-0.09959459,0.16800192,-0.15212026,0.021567784,0.07096985,-0.040441863,-0.12417655,0.020381099,-0.029065082,-0.16368172,-0.0055440953,-0.027674653,-0.062429514,-0.08244667,0.078859754,0.19561397,-0.18850741,0.07915551,0.12676936,-0.11615895,-0.017274382,-0.05633927,-0.08031655,0.039423905,0.12547939,0.04097672,0.045326617,0.0757747,0.058296163,0.032375805,-0.0150087,0.039365623,-0.075247176,0.042036314,0.044276442,-0.04389469,-0.10281752,-0.02657698,-0.08299709,-0.11429857,-0.030291637,-0.06023561,0.08057282,-0.072983734,-0.011507712,0.05211392,0.06449779,-0.0014302109,0.029534448,0.17103632,-0.08481589,-0.10589548,-0.19867396,-0.07718595,-0.03967713,-0.1989668,0.02252102,0.088169076,-0.020463372,0.021795366,0.06848718,0.0122072315,0.038330372,0.016876858,-0.09219256,-0.18596277,-0.02162803,0.06492831,-0.014820416,-0.2196065,-0.08510171,0.15881476,0.006509842,-0.02746159,0.24944939,0.15748659,-0.032354962,-0.066988856,-0.17984529,0.020641137,0.024908535,0.006382984,0.21084939,0.07431522,-0.07052149,0.27430496,0.1510306,0.29165676,-0.13632844,-0.09135682,0.12025852,-0.071242414,-0.13864231,-0.18056352,0.013987857,0.104273535,0.15048891,0.103697725,-0.011883219,-0.0127026215,0.0014001967,-0.1433398,0.011865281,0.026052661,-0.15373912,0.09555264,0.1622135,-0.15510802,-0.0125198085,0.04180031,-0.0390892,-0.06504992,-0.07821621,-0.0821781,0.19566067,0.10380702,-0.0889798,-0.047008954,-0.010962689,-0.111115605,-0.059858557,-0.06404103,0.05563226,0.12202897,-0.030646352,-0.07610746,0.116609074,-0.11496101,-0.116887495,-0.05426636,-0.06418533,0.13155963,0.09986631,0.02641583,0.032989837,-0.089338906,-0.024586229,-0.045968186,-0.1397234,-0.054055344,0.21655504,0.0756943,-0.028736608,0.25861537,0.024432924,-0.087381884,-0.025431704,-0.072665244,0.12879017,0.017127661,0.014674594,0.119971186,-0.08056369,-0.11386395,0.019218544,-0.043253306,-0.12295031,0.07203594,-0.046183664,0.08195435,0.23210882,-0.18526216,-0.07312722,0.15449573,-0.06475773,0.012092483,0.039758034,-0.058925062,-0.057633746,-0.043534476,-0.015639354,0.015405846,-0.0066035944,-0.0030134483,-0.07279406,0.075319484,-0.10604377,-0.007448587,-0.051352378,-0.033529803,-0.16828088,-0.08261075,0.25126237,0.020836422,-0.088663734,0.20790865,-0.023410806,-0.01597813,0.25619814,0.01051682,-0.06083147,-0.056222696,0.05664655,-0.13770583,0.12884091,-0.08193244,-0.063833416,0.2070166,0.06606717,-0.10430927,-0.15417665,-0.1008397,0.055580515,-0.00030836536,-0.033332027,0.16758947,0.074777655,-0.11470704,0.034419972,-0.048525415,-0.1033713,-0.03209747,-0.11194014,-0.17798914,0.003230709,-0.12018859,-0.08519059,-0.04022279,-0.10597132,-0.09523853,0.024587953,0.061740164,0.09003613,0.019048829,-0.047261115,0.02246884,0.08705934,-0.035192415,0.022587854,-0.0010646245,-0.08774762,-0.056543794,0.008074204,-0.04037307,-0.15578915,-0.112763464,-0.1346099,0.0034467513,0.094779275,0.009201095,-0.20849787,-0.12307982,-0.0047720694,-0.0041699987,-0.024299406,-0.011578916,-0.03641979,-0.016112264,0.004563092,0.005206047,0.11525377,-0.0099723395,-0.07148076,0.022342734,0.032557763,-0.052269854,0.03495417,0.023971263,0.009435297,-0.053865068,0.17161922,-0.010498674,0.048589125,0.032193266,-0.031155683,0.06115431,0.15399934,0.14570993,-0.07461134,-0.021523261,-0.052420218,-0.08699788,0.02541825,-0.033616144,-0.090285175,-0.007187506,-0.009124555,-0.027358443,-0.1379712,-0.033158585,0.10943433,-0.0989268,0.08815195,0.16309486,0.14571,-0.16071361,-0.19649523,0.046683554,0.05081323,0.021647798,-0.021540634,0.100570746,0.15297312,-0.07855207,0.022183867,-0.04814316,-0.068963766,-0.0023442504,-0.04989123,-0.1275342,-0.08417202,0.023735749,0.120967224,-0.2085176,-0.20209588,0.12042895,0.07109393,0.0020214578,-0.1108342,0.054211635,0.016129386,0.020660471,-0.04666648,-0.028011717,0.032714363,-0.14550155,-0.09260844,0.07646851,-0.007107405,0.015667144,-0.04253047,-0.007252651,-0.07063647,0.07665418,-0.011571478,-0.024099072,-0.027990604,0.0043372004,-0.0043430645,0.033079974,-0.008013913,0.09613676,-0.011663355,0.06383759,0.06289756,-0.12037287,0.0031553989,0.15123913,0.09648306,0.07431291,0.06023836,0.10403484,0.15162534,-0.036000162,0.0022996988,0.01708992,-0.052325696,0.027622223,-0.029121561,-0.05181562,0.08140424,-0.062015615,0.011117744,0.08500791,0.12733209,0.006414392,0.09691431,0.02981901,0.01449884,-0.02812131,-0.031041231,0.07918428,0.035945278,0.052160613,-0.065905534,0.14226387,0.17455348,-0.08673089,0.13543761,0.102169745,-0.13153116,-0.21051995,-0.056997437,-0.1399558,-0.08702921,-0.21311165,-0.08753249,0.059676405,-0.03354108,-0.14830448,0.003563844,0.004263497,-0.042999763,-0.16725822,0.056393083,-0.009970686,-0.13483942,0.040341347,-0.00045084013,0.08754728,0.13032152,0.06745998,0.03183153,-0.12810028,-0.06799948,0.05317867,0.055574227,0.11727757,0.03187759,0.1414858,0.043178882,0.059038207,-0.102792546,-0.029637083,0.21115364,-0.00082525075,0.056279626,-0.101175725,-0.1320441,-0.0067148414,-0.043627273,0.03689915,0.1956632,-0.0708771,-0.003815841,0.063101895,-0.034531392,0.094463125,0.18066227,-0.13161232,-0.100152865,0.04594444,-0.008444831,-0.002194642,-0.15183973,0.10931143,-0.038683083,-0.03888803,0.018966371,0.008733348,0.017838987,-0.1251987,-0.1759903,-0.06366865,0.024151396,-0.09130384,0.08873278,-0.24213709,-0.06624783,0.06478855,-0.07668392,-0.07044894,0.030207088,-0.16201463,-0.04267454,0.051173158,0.23187986,0.08448865,-0.028613389,0.07807988,0.03967301,-0.062209576,-0.17367001,0.007857305,-0.024747081,-0.15207702,0.03045209,0.004420668,-0.11020162,-0.000112848196,-0.12189147,-0.06139097,0.0582605,-0.04232989,-0.05186204,-0.088331796,-0.039283354,0.04033136,0.12485817,0.017029328,-0.054875076,0.034931015,-0.013964638,-0.060907196,-0.09344441,0.10188502,-0.11843204,-0.13004838,0.0046592774,0.11056682,0.062344346,-0.12488609,-0.14903252,-0.16622683,0.06508192,-0.0285491,-0.020018287,0.13144451,0.07898248,0.16068707,0.038028065,-0.054219943,0.08783471,0.050610494,0.05313011,-0.008188847,-0.03469903,-0.034243193,0.094638586,-0.014029325,-0.001924558,-0.035616994,0.013716342,-0.023880063,0.101704,-0.13888504,-0.07829549,-0.008530645,0.0027280818,-0.08688415,-0.102193505,-0.015197948,-0.0156079,0.045205034,-0.07872603,0.0040953495,-0.0028709657,0.06314451,0.1304171,0.18019208,-0.10464696,-0.13042063,0.05542802,0.1566228,-0.0379096,0.07506291,0.10169919,-0.04766997,-0.098348595,-0.03745791,0.052937713,-0.052598666,0.10041485,-0.12048566,-0.11742648,0.09274955,-0.017050996,-0.046025213,0.04097064,-0.033007227,0.047741782,0.009098471,-0.03274699,-0.003508674,-0.0441339,0.06508707,-0.05351978,-0.07053256,0.021672439,0.033807945,-0.10507462,-0.04249389,-0.033161532,-0.029017223,-0.13562152,-0.054203127,0.046179183,-0.12979604,0.036548328,0.0793719,-0.02225439,0.02531765,0.07146216,-0.051716764,-0.03571706,0.06051093,0.0024517805,-0.03602628,-0.0707318,-0.0024074093,-0.012868595,0.115423955,0.0036699595,-0.01703948,-0.008764353,0.046742514,-0.011282232,0.0722665,-0.041716713,-0.022537619,0.06900882,0.018077921,-0.07643758,-0.053195342,-0.019042598,0.020897636,-0.028738491,-0.1302462,0.020323802,-0.005545577,0.0956675,0.033386193,-0.04610407,0.03148544,-0.038134884,-0.09956489,-0.06820283,-0.016286148,-0.022816932,0.010131259,0.017632613,-0.03498669,0.051105082,0.05924271,0.13444512,-0.012640992,-0.0069424408,0.09469696,0.06349168,0.014886169,0.0996009,-0.0034231807,-0.05981042,0.030934744,-0.054962274,-0.12046577,-0.04930538,-0.08099374,0.12154949,0.10116307,0.006624052,0.016775463,0.10703516,0.12521145,-0.051881548,-0.0108712,-0.015526367,-0.033880662,0.081529625,0.09417163,0.07018641,0.0064008515,0.08334523,0.01428017,0.00067481265,0.030153302,0.01093686,0.0718566,0.08613134,0.061820067,0.06790692,-0.004870992,-0.035630018,-0.021153567,0.03878114,0.023928318,-0.041860875,-0.074120425,-0.03832385,0.09673346,0.0011286066,0.035055775,0.108135134,-0.018239003,-0.11084028,-0.06731519,-0.043586183,-0.057807796,0.012198925,-0.013079492,-0.044407662,0.035473004,0.06486576,-0.0028961734,-0.052117158,0.037357323,0.030070063,-0.026149638,-0.05806055,-0.03620828,-0.006897894,-0.03817796,-0.029210176,-0.062339205,-0.14421219,0.005098002,0.16892247,-0.067524195,0.00064770767,0.08652101,0.0585873,0.012069303,0.025254223,0.0036646952,0.12502046,0.06272238,0.00040958336,0.054654617,-0.037892006,0.017540192,0.014257963,-0.020529581,-0.011256746,0.0337852,0.064004466,-0.0068377117,-0.065987736,0.048793063,0.071544684,-0.08058093,-0.050358605,0.0712211,-0.011847586,-0.058457974,0.021727934,0.037442468,-0.0332424,-0.014552224,-0.017069353,0.01929349,0.050617997,-0.04804453,-0.018823393,0.014615564,0.032396078,-0.035787113,0.031159557,-0.101308055,-0.07988534,0.06265338,-0.028032122,-0.005168513,-0.11216701,-0.026811907,0.046701163,0.0499732,0.032120973,0.0026408946,0.04080077,0.024620635,-0.02226289,-0.049929548,-0.0045616883,-0.033813436,0.050383296,0.10763689,0.024737688,0.13347834,0.1545077,0.12509502,0.20620053,0.04702141,-0.13513966,0.010592685,-0.008810873,0.0097505925,5.5738088e-05,-0.06862961,-0.08057371,0.026050493,-0.023732947,-0.044851966,-0.018512512,-0.073012844,0.018751737,-0.0075541297,-0.015147201,0.015959406,-0.059699487,-0.013868201,-0.07931392,-0.06769,-0.051139742,-0.0042973896,0.039367218,0.03224649,0.02584769,-0.018998573,0.031800803,0.029286874,-0.14744332,-0.03795398,-0.0209553,0.026914863,-0.12572242,-0.054345306,0.15468197,0.05633992,-0.06657951,0.057574406,0.091188386,0.04226213,-0.094118014,-0.03731521,-0.014123214,0.08208388,0.06911601,0.031689133,-0.05452282,0.020710478,0.009055711,0.11609248,-0.026259873,0.0037130867,-0.031498156,-0.0088474285,0.065647304,0.08014642,0.05891338,-0.026049072,-0.11580917,-0.047953736,-0.014184987,-0.21953571,-0.097905576,0.12660356,0.045784693,-0.06868359,-0.0735209,-0.018595058,-0.056111913,-0.084383406,0.0161823,-0.024936501,0.11188928,0.06878873,0.053340618,0.07885815,-0.035217173,-0.029676262,0.09654798,-0.13121675,-0.03817401,0.03821524,0.041548226,-0.023172356,-0.016705588,-0.01774555,-0.07480893,0.02452571,-0.0591378,0.034076724,0.07835843,-0.06641601,-0.03590015,0.01065801,0.07474257,-0.0031787762,0.04053669,-0.0320168,-0.042036023,-0.04394949,0.020635555,-0.06314485,-0.060343437,-0.035423677,-0.03623181,-0.051961455,0.11699942,-0.017781895,-0.04126495,-0.012841765,-0.049399484,0.099751845,-0.024547687,-0.082279466,-0.020893369,0.05345187,-0.029553683,-0.0089070685,0.04538167,0.062718675,0.009304895,-0.038537208,-0.09760837,-0.09535439,0.03371453,-0.076762624,-0.037177764,-0.008128557,-0.049652006,-0.038463112,0.011876853,-0.04368664,0.08370853,-0.04195715,0.018058272,0.024177795,0.039019756,-0.09439375,0.017232325,0.08861828,0.06590119,0.019822659,-0.05487548,-0.028423864,-0.040422693,0.06264663,-0.042949125,-0.039089262,0.056509797,0.08105426,-0.029217163,-0.014330145,0.077777,0.04700372,-0.04391678,0.055943754,-0.020554828,-0.08477947,0.040110234,0.060915664,-0.0498485,-0.13367864,-0.034194168,0.044275973,-0.055915095,-0.06819574,0.07647288,-0.078536615,-0.10470896,0.11382775,0.07691504,-0.10302166,0.04804885,-0.048264425,-0.05311121,-0.0285272,-0.08336969,-0.020054696,0.04924809,-0.0643318,-0.031437766,-0.043290224,-0.03660179,0.004687065,-0.071219854,-0.1230046,-0.05478668,-0.13314255,-0.07222662,0.049972095,0.05619126,0.087400965,-0.07506703,0.004565098,-0.015825681,0.018035108,0.022041004,-0.06056343,0.00046169298,-0.015478474,-0.08062112,-0.07578912,0.14102462,0.13106617,0.03227099,-0.040366683,0.06250134,0.04920199,-0.09240552,-0.08606315,-0.07202519,-0.1277433,-0.116730794,-0.08546338,-0.023038624,-0.08729208,0.05321076,-0.07396724,-0.047146875,-0.001432762,0.025351958,-0.015133752,0.047647893,0.00809825,0.04743578,0.09802312,0.13387558,-0.11138537,0.06498714,0.105543494,0.076318525,0.021927923,-0.112249665,0.033016928,0.03576058,-0.02272576,0.051513594,-0.013594591,-0.018370062,-0.03350333,-0.0588818,0.04626853,-0.008394434,0.0336425,-0.011735736,-0.051983364,-0.021859922,-0.05771764,0.024607258,-0.05440762,-0.06959732,-0.05560844,-0.010025745,-0.078534804,-0.102600545,-0.044024803,0.043725282,0.04575665,0.1652603,0.067047134,0.06532283,0.121259004,0.035777505,-0.058993723,0.05514176,-0.046310887,-0.032833714,-0.03609221,-0.030254232,-0.0059212344,-0.0127515495,-0.07918616,-0.06047823,0.05557065,-0.034185752,-0.06229375,-0.03743899,-0.05268776,0.080037914,0.0653173,0.044815887,-0.049538158,-0.10978637,-0.0727559,-0.011869934,-0.09310197,-0.055155255,-0.044294544,-0.076044396,-0.030496322,0.048853498,0.11748295,-0.13963227,-0.014312193,-0.00012527319,-0.12098257,-0.08394234,-0.0500022,-0.04236217,-0.06519129,-0.05968406,0.087423325,0.06097487,0.031196732,0.043731406,0.0668414,0.0439252,0.0030533534,0.08789222,-0.033562407,-0.0687064,-0.08246966,-0.08241019,-0.032528497,-0.06627306,-0.07497238,0.02737544,0.013722359,0.06252043,-0.059846915,-0.024254678,-0.06022097,0.009221248,-0.043579843,-0.026173819,-0.055897325,0.07946798,0.026609633,-0.078329325,0.096562654,0.073477134,-0.06063342,0.015615095,0.07687059,-0.015735341,-0.013774603,-0.04462786,-0.07682357,0.0681457,0.000473536,0.051373195,0.03433631,-0.020299701,0.092164055,-0.031481087,-0.090118445,0.08117049,-0.09841104,-0.09448708,-0.0014908124,0.009091815,-0.026431222,0.12046869,-0.08491573,-0.051288135,0.07468925,0.0601244,-0.002006717,-0.125134,-0.020077458,0.015135424,-0.032755923,0.05377333,0.04264529,-0.041184705,0.028136322,0.14224903,-0.03719213,-0.12218595,0.06451842,-0.009838906,-0.03378984,0.0861652,-0.022682078,-0.029363012,0.13514124,-0.06016987,-0.021355864,-0.00023772304,-0.09230003,-0.012923073,-0.008509378,-0.05030802,-0.018970273,-0.04579759,-0.029613577,0.07116757,-0.01805878,-0.029685315,-0.0740305,-0.07688587,0.16526869,-0.048247047,-0.18041974,-0.040050637,0.09114204,-0.1271107,0.01610361,-0.03682816,-0.04431926,-0.023427108,0.16057575,0.009875628,-0.029840149,0.08592767,0.02263019,0.097316325,0.048158854,0.051923413,0.0008634757,0.056839842,0.0027062,0.030982051,-0.03527158,-0.021855792,-0.13288607,-0.08672763,-0.0052428767,-0.10901972,0.02817066,0.11749924,0.023980463,-0.004660867,0.016333565,0.11433627,-0.02188558,-0.013543901,0.11217394,-0.0036256516,0.000103792074,0.056471456,0.029828709,-0.011091681,0.036301926,-0.004417584,0.011060511,0.033882238,-0.092429645,-0.0647705,-0.020176297,0.042290572,0.096436605,-0.08029913,0.0031228596,-0.08178543,-0.15136541,-0.08068425,-0.11865585,-0.017669426,-0.034510273,-0.039944984,0.06781288,-0.02597458,0.10041344,-0.0035278392,-0.09691108,0.04016233,-0.102860376,0.017084429,0.040236134,-0.020567933,0.075344995,-0.055963203,0.038180776,0.14659281,-0.0408853,0.0799021,0.09104606,0.093482435,0.092407085,0.0041963463,-0.019504743,-0.042306066,-0.07415477,-0.04906079,-0.018637046,-0.103960454,-0.025433036,-0.10595391,0.12528451,0.1580613,-0.057749297,-0.10098949,0.14597592,0.017344525,-0.100958005,0.09899978,0.039081633,0.027265476,0.060459062,0.0382109,0.011802765,0.010546856,-0.0038390753,-0.10409013,0.06483314,0.05493557,-0.0038695105,0.009786581,0.008510232,0.15436909,0.18070616,0.009674453,0.028741188,0.09920402,-0.013385516,-0.08305266,-0.11702957,0.009049104,0.022170097,-0.050019365,-0.09676004,-0.08383144,-0.063476995,-0.07219865,-0.13040449,0.039525203,0.13545592,-0.043186687,-0.062623054,0.1120326,0.11692979,0.08572026,0.008709048,0.039449576,0.063001275,-0.030588945,0.021799287,0.090075515,0.033902377,-0.020940816,-0.083122015,0.046957675,0.026684167,0.0692534,-0.053186573,-0.0057602706,0.041487947,-0.0709945,-0.044805136,-0.071909554,0.09780697,0.07385813,0.049670383,0.09129369,-0.012011161,0.05360357,0.023896273,0.00869263,-0.04416931,0.06813888,0.0076787854,0.10909538,0.0353602,-0.011416907,0.058461577,-0.022355426,-0.039742045,-0.001856824,-0.12025303,-0.025095714,-0.061112512,-0.04157005,-0.09591157,-0.09148978,0.18994476,-0.03819591,-0.055011928,-0.05212981,0.062944494,0.0041839103,-0.014290967,0.0004968931,0.017256897,0.06470563,0.07099384,0.04095014,0.03621091,-0.030174697,0.04801702,-0.059416525,-0.04132561,0.08793322,-0.036891337,0.045887325,0.10067833,0.07445462,-0.12597096,0.007916987,0.08291948,-0.015730292,0.023165803,0.044891857,-0.068990976,-0.012625612,-0.009955844,-0.049889464,-0.12889513,-0.16966338,-0.08472622,-0.011598256,-0.097250395,-0.13016886,-0.066484004,-0.15180838,0.07540169,0.068855576,-0.12559019,-0.015803888,0.119532935,0.06495359,0.04367745,0.001278355,0.22366093,0.07096978,-0.07237984,0.017758269,-0.017476669,-0.14629248,-0.0103548635,-0.02611076,0.06824855,-0.09485913,0.15793398,0.031877954,0.008874398,-0.0121264905,0.08422711,-0.06491988,-0.047284264,0.16533339,-0.14624068,0.0014042101,0.024394961,0.04166919,0.37041557,-0.014601344,0.19896667,0.27919543,-0.22934799,0.10074122,0.025877107,0.054475106,0.059470758,-0.03712156,0.10672952,-0.021889908,0.06780483,-0.09050344,0.008557597,0.0031615135,-0.044189934,0.17996325,0.10713752,0.0017202232,0.031536054,-0.06497779,-0.096669175,-0.03865776,-0.022374755,0.066958025,-0.041131493,-0.031352427,-0.06980856,0.011992784,0.028628346,-0.017827807,0.0026998667,0.0146631235,0.110726364,-0.044073883,-0.010524237,0.11299429,0.007258601,-0.039074674,0.073708996,0.0865065,0.038054008,0.05039209,0.018988399,-0.0144313965,0.17803717,0.089642,0.09933102,-0.062679954,-0.0159504,-0.10754094,-0.116587624,0.047744703,0.16629088,-0.12470131,0.048765,0.18829483,-0.017818911,-0.16873255,-0.04323384,-0.033306647,-0.004118589,-0.008616905,0.1108745,0.07306528,-0.0019898235,0.06987687,0.079593815,-0.017519066,-0.09918745,0.12388172,-0.07400183,-0.060787562,0.09986432,-0.07767104,-0.008636924,-0.054777406,-0.100860365,0.01305521,0.08342804,-0.0690476,-0.038183834,0.07634561,-0.07181382,-0.06132697,-0.0304297,-0.07949262,-0.050226215,-0.006945806,-0.04793082,-0.010301975,0.043298353,-0.031928763,0.07985958,-0.044783656,0.067647636,0.08669879,0.027423883,-0.055080995,0.09762459,-0.075210266,0.0053911856,0.038462598,0.04988253,0.07252902,-0.10185365,-0.01067286,0.10719098,0.16956793,0.041374944,-0.01718389,0.12666728,0.09024436,-0.008344918,-0.08860706,0.015702752,-0.12332105,0.04051839,0.019561633,-0.015981533,0.00946936,0.08302814,0.11513989,0.10277585,0.001176132,-0.021990212,-0.02075117,-0.055392798,-0.057382643,0.013088315,-0.1350713,-0.10411464,-0.0018480457,0.10077595,-0.088095844,-0.06096318,0.0006692464,-0.082476065,-0.061849702,-0.039320186,-0.0017825365,0.020185271,-0.117416106,-0.005738369,0.1600918,-0.19302234,-0.11504364,-0.08010951,-0.008819503,-0.074257836,0.06747447,-0.10038251,-0.12785622,-0.060496505,-0.032300446,-0.023841169,-0.024566628,0.025229802,-0.101749144,0.024442382,-0.13330993,-0.078082316,0.012494641,-0.14297104,-0.024609007,0.039585065,0.056497876,0.0487206,0.0045306566,-0.026961826,-0.06199962,0.008160704,-0.09184221,-0.082890145,0.07552767,0.0810397,0.033893388,0.042805523,-0.1141755,-0.17137778,-0.042516887,0.030557679,-0.08066095,0.03420738,0.03238411,-0.032400943,-0.09801339,0.00018853783,0.17354448,-0.15016295,0.02940195,0.19585924,-0.016253864,0.09594623,0.015799837,-0.020035986,0.022734188,-0.06903956,0.073126726,0.04717418,-0.0853095,0.024343997,0.024510108,-0.05067695,-0.07215872,0.058205955,0.090425044,-0.020090487,-0.006422504,0.17234881,0.074317016,0.038546193,-0.04804582,-0.09182021,-0.042571247,0.06018225,0.02618413,-0.02418388,0.11234563,0.11581651,-0.12308713,0.016568972,-0.11709427,-0.13535611,-0.1898388,-0.11404213,-0.06663148,-0.19919647,0.019028453,0.0883386,0.120785594,0.059502825,0.031909067,0.13000906,-0.0125432955,-0.026017472,-0.07809018,-0.14311418,0.010293248,-0.023322603,-0.06909797,0.033939034,-0.03129773,-0.13555035,0.010182248,0.0064303824,-0.02972726,0.0018158257,0.0044463295,0.0360363,0.042783987,0.024066897,0.037223242,-0.056974523,0.094390586,-0.052126613,0.15424679,0.023502765,-0.10675004,0.1218422,-0.042593896,-0.1401325,-0.04540664,-0.018079918,-0.0005073846,-0.1372852,-0.050527357,0.04754576,-0.10320199,-0.01254943,0.075103626,-0.05264413,0.09085047,-0.054394804,0.034282304,0.055685967,0.0054749907,-0.024062157,-0.11276937,-0.017504921,-0.04861535,-0.007948051,-0.05183531,-0.061427467,-0.08417006,0.031031147,0.053495426,0.096776456,0.07966323,0.18703513,0.18158716,0.12884322,0.048669115,0.06915422,0.0020570008,-0.05464037,-0.021079803,-0.0471842,-0.060140092,-0.038098805,0.03952928,-0.04496264,0.052956518,-0.0382091,-0.025691058,-0.08554809,-0.07341243,0.09957392,-0.04645634,-0.08999897,-0.0015512282,0.071155,-0.06855533,0.029811619,0.13642599,0.03036722,0.10527012,-0.008264359,-0.06477785,0.058004092,0.055928845,-0.09508573,0.032773692,-0.004679271,-0.07960744,0.013648393,0.038253136,-0.06705045,0.0074666943,0.098114066,0.07717035,-0.050239176,-0.08353096,-0.0183179,-0.060019508,-0.028798942,-0.040210713,0.016020223,0.108784735,0.25554517,-0.0742765,-0.113888055,0.09622242,-0.037946712,0.005922473,0.00082174985,-0.0887663,-0.040370252,-0.031765785,-0.14760183,-0.06462108,-0.11312712,0.1814601,-0.00050922617,0.030068524,-0.042900976,0.0828527,0.08240303,0.15507239,0.061832134,-0.021548301,-0.005885549,-0.016568888,-0.024030289,0.042855877,0.19734424,0.20326516,0.032003134,0.031155199,-0.006301344,-0.1408494,-0.18644091,-0.10803298,0.16054013,-0.0029788706,-0.025432138,0.018591866,-0.09362447,-0.032227058,-0.049397275,-0.08280685,-0.07328973,0.016772138,-0.28063208,-0.22831158,-0.024200117,0.16612288,0.21490522,-0.00073865266,-0.05538374,0.04462234,0.019719137,0.02554787,0.01810126,0.008094742,-0.08915309,-0.20624885,0.148834,0.0359859,-0.08698121,0.03963989,-0.09186529,-0.14180753,0.063238665,0.094632,0.025203988,0.040941115,0.05580037,-0.077221885,-0.07803046,-0.021050915,0.10265214,-0.062013008,0.06582862,0.020308841,-0.047286343,0.13501132,0.097973496,-0.06589237,0.013025063,0.0024723927,-0.013456942,-0.10310074,-0.08253218,0.107077144,0.047373194,-0.018800737,0.013576934,-0.02588339,0.044044644,-0.019849118,0.0011889566,0.10750684,-0.14963451,-0.0117180515,-0.03094225,0.034346964,-0.051613152,-0.03700019,0.02083436,-0.0048791985,0.17893942,-0.045705106,0.10623661,0.06070699,-0.16906899,-0.027936151,0.025375772,-0.08509405,0.049563583,-0.039909013,0.027828246,0.054837793,0.032685123,-0.009584513,-0.00071089633,0.18176773,0.07614347,0.009662478,-0.0035154012,-0.047018997,-0.1492694,-0.1572857,-0.12624027,-0.18035392,0.066392764,-0.07341851,-0.049967237,-0.06574183,0.035477057,-0.07317549,0.051751185,-0.06999388,0.043055926,0.07776903,0.036255345,0.005809712,-0.043462843,-0.00093592244,-0.10841647,0.04900129,-0.016318852,0.14878571,0.13298067,-0.016840475,-0.024719816,0.04431789,-0.08170044,-0.17234449,-0.05302067,-0.054468248,0.07371986,-0.026782867,0.08008935,0.0783336,0.062155917,0.12250746,0.115854144,0.14915572,0.07644922,-0.18137275,-0.014301883,-0.07438883,-0.15053783,0.020962955,0.061569147,-0.03569138,0.20450947,0.114907324,0.034639888,0.04669775,-0.13551459,-0.048532587,0.07871837,-0.03441584,0.032720227,0.08679832,-0.013408814,-0.009931632,0.067652166,0.024755642,-0.15593424,-0.019341936,0.04725803,0.10821897,0.025310827,-0.09743458,0.020336278,0.06208472,-0.029121853,-0.075638056,-0.029949652,0.14144726,0.09526988,0.06953438,0.011982305,0.08460114,0.104516655,0.032737624,0.10134719,0.06535226,-0.08468289,-0.06257429,-0.14564525,0.08805971,0.03695687,0.034538954,-0.079183914,0.10739825,0.057352852,-0.0735271,-0.09796999,-0.20882863,0.10995527,0.040080037,0.085846856,-0.014409656,-0.17303862,-0.060039517,0.0025184134,-0.058352713,0.06760897,-0.04405325,-0.05313118,-0.15278685,-0.01664867,0.030900035,0.03326018,0.044185545,-0.049377635,-0.007487749,0.039857503,0.037924565,0.06817662,0.011031023,-0.16023389,-0.016464954,0.026780657,0.005347623,0.13344386,-0.20713061,0.13488254,0.12951815,-0.21296221,0.14711893,0.20416519,0.08499495,-0.050865877,-0.019787379,0.042928305,0.019123442,-0.005038217,0.099086195,0.029904407,-0.006885481,0.08182022,0.060194977,-0.005220695,-0.035341006,0.005417182,0.18492539,0.008673721,-0.089577384,-0.059757955,0.10516439,-0.05176773,-0.11422474,-0.085836716,-0.054099455,-0.011291059,-0.13705032,-0.2049899,-0.10131185,0.03809582,-0.051986963,0.0051724035,-0.017063713,-0.08074818,-0.020424355,-0.009509432,-0.09897818,-0.1641792,0.06312857,-0.077434264,0.014516142,-0.064836,0.022210145,0.1313702,-0.09358939,-0.18014735,-0.09593509,0.098230265,0.034749404,0.122139536,-0.009459579,0.043184,-0.123945564,-0.027499275,-0.06843174,0.055639043,0.014492107,-0.13754411,-0.026995713,0.009852623,-0.06169929,-0.09824002,0.024511194,-0.035029367,0.03803486,-0.05279476,-0.040216725,-0.044516616,-0.15126128,-0.013360731,-0.01538951,-0.026814882,-0.022130782,-0.1157685,-0.01508981,0.03736773,0.06578256,0.17886256,0.060143724,-0.04246311,0.13873576,0.020169575,-0.10370089,0.06663758,0.04441863,-0.0734814,0.117001824,0.11235237,0.01913282,0.18735196,0.21261322,0.09282309,-0.068639226,-0.010631098,-0.067334585,0.11567994,0.16796921,0.006452075,0.076666914,0.056494832,0.020650709,0.07468891,-0.06721082,-0.025151994,-0.0076137437,-0.007864806,0.05181841,0.010352883,-0.05864999,0.11517808,0.05470159,-0.030176103,0.047163412,-0.107899085,-0.026930308,0.059372827,-0.16705647,0.066492036,0.14578809,-0.010207352,0.021789338,0.040803954,0.031130888,0.0250397,-0.053532932,0.013067497,0.03463992,0.008909904,0.031149942,-0.04110435,-0.10630528,0.2090204,0.06740022,0.018840633,0.15833263,-0.06968647,-0.06746446,0.118310295,-0.1150337,0.013473878,-0.0030692054,-0.10528802,-0.0787635,0.13392802,0.06309629,-0.04573065,-0.17924468,-0.12482394,0.0038495169,0.04159398,0.015585345,0.2251151,-0.036683433,-0.0996694,-0.08284991,-0.048451625,0.05047135,-0.055352174,0.018051142,-0.048974313,0.030337721,-0.06989867,-0.088778995,-0.12675233,-0.057571936,-0.11647459,-0.03091286,-0.0055624503,-0.11567706,-0.054784108,0.08527381,0.005042196,0.085022554,0.023782855,-0.09579397,-0.014828193,-0.10302433,-0.048933584,0.06982652,-0.005331638,-0.12210941,-0.10216517,-0.030606741,-0.14543778,-0.10806165,-0.05429364,-0.09239307,-0.061820187,-0.031211382,-0.09656323,-0.14989567,0.02103795,-0.07511769,-0.017197287,-0.1137025,0.0037523597,0.14765118,0.014736425,-0.07758951,0.050128397,-0.028688088,-0.007688649,-0.048331417,0.021279797,0.10612892,-0.025430579,0.056426093,-0.09254266,-0.06946714,0.13856527,-0.022954648,0.031826373,-0.047275778,-0.027304979,0.0055331266,-0.038823977,-0.09655646,-0.107806176,0.020602958,-0.12513502,-0.014692002,-0.06907747,-0.15783456,-0.071141325,0.038054064,-0.037626095,-0.0708314,0.011265153,0.1031996,0.060545266,0.01797896,-0.12350499,-0.09546452,0.031683028,-0.1671914,-0.105649896,0.11955722,-0.0027268466,0.041270666,0.07242246,0.20883009,0.09991757,-0.00812297,-0.10688939,0.01690402,-0.2060987,-0.17764878,-0.08862956,-0.0420193,-0.06601303,-0.07171395,0.0046177274,-0.1652941,-0.15886682,-0.005337638,0.052172616,-0.009794832,0.15528595,-0.07416095,-0.02178851,-0.021845615,-0.040603388,0.019472586,0.0091150785,-0.03354689,-0.002482985,0.061876968,0.021563169,0.0578998,-0.054120228,0.15203844,0.23231997,0.05914801,0.025327308,-0.13925272,0.013381738,0.12777893,0.117438994,0.084241204,-0.0017725107,-0.05075732,-0.035743818,-0.11653413,-0.010302281,0.0409626,-0.073937364,-0.11153736,0.016316291,0.026732646,-0.00015239355,-0.009218069,-0.06444629,-0.03207595,-0.0023002168,-0.0495067,-0.18898147,-0.019972242,-0.06853576,-0.08383452,-0.082958974,-0.0076804594,-0.074392915,-0.1587323,-0.06104034,-0.015662089,0.08336465,0.047383834,0.039528135,-0.029417872,-0.026413325,0.022883337,0.22702867,0.102004625,0.039019052,-0.048577093,-0.10918614,-0.25074553,-0.016165206,-0.1768802,-0.0102954395,0.1728577,0.03300626,0.053136475,0.025821567,-0.069489904,-0.04430252,-0.083735354,-0.02673287,-0.064004466,-0.074062064,0.07846989,0.014936249,-0.04986897,0.018707272,0.03017366,-0.03118458,-0.08914208,0.015410546,-0.038527388,0.0052606645,0.074230954,-0.02591121,0.06138815,-0.00943175,0.022213481,0.11015516,-0.0703021,-0.019118449,-0.015745606,0.10279053,0.05308262,-0.12000032,-0.10709569,-0.03296145,0.09210674,0.14413267,0.039998807,0.0010461621,0.026496656,0.008520499,0.027431685,0.16936268,0.02927184,-0.013285264,-0.06292875,-0.0049524195,-0.088873744,-0.036007624,0.065321185,0.13435857,-0.06673375,-0.0012126837,0.07622659,0.058271304,0.018985756,0.0808735,-0.07430973,-0.06454096,-0.033389345,-0.012177923,0.002063448,0.012235454,-0.023866398,0.06259328,0.018308416,-0.012719526,0.051968344,-0.04068667,-0.050793838,0.060364857,0.025083711,-0.08753306,-0.008655565,0.05015763,0.094979405,-0.061745595,-0.11650515,-0.02086205,-0.032190327,-0.120683596,-0.112429254,0.0982715,0.07486194,0.11219951,0.015533999,0.022958528,0.01599985,-0.0022454394,-0.14413434,-0.09988175,0.15920152,-0.040775076,-0.027389955,-0.103683926,-0.00942208,-0.011790897,-0.049264472,0.024426868,-0.0737404,0.023915565,-0.0638903,-0.05042625,-0.03488099,0.03627695,-0.044256903,0.03333808,-0.027663345,-0.05543035,-0.03624356,-0.026490107,0.03468435,-0.09598626,-0.08081823,-0.04431442,-0.108992435,-0.0044458876,0.107364714,-0.01844457,0.05856592,-0.04252108,-0.15126204,-0.104577914,0.00044798586,-0.041950703,-0.06629081,-0.04819331,-0.0014550318,0.04446879,-0.09104935,-0.06818572,0.048274375,0.032886155,-0.06569313,0.0052297367,0.12286872,-0.09536655,0.015464537,-0.036322944,0.08170626,0.10442611,0.06216351,-0.040098246,-0.06372073,0.036567193,-0.043106973,-0.0018229937,-0.04498489,-0.05334644,0.015020688,0.032321796,0.022937533,-0.081449755,0.023381034,-0.011729761,0.016013654,-0.006810987,-0.015374416,-0.037442587,0.036876258,-0.1463984,-0.044458635,0.010822088,-0.08941002,-0.086960986,-0.033436812,0.07989332,0.048095156,-0.063253455,0.08305838,0.07559803,-0.023448048,0.021215452,-0.017126495,-0.043830395,-0.053266853,0.015714414,-0.026902113,0.033088222,0.023161815,0.16813451,0.18387039,0.07393376,0.004191562,-0.050335664,0.0040041795,0.030822795,-0.09305878,-0.029033834,-0.03983898,0.0024949738,-0.032358956,-0.051641446,0.21281862,0.009980374,-0.03333598,0.115046576,0.15500838,0.11433829,-0.013812001,-0.12402401,-0.078193635,-0.049513575,-0.017653024,0.020524481,0.055792917,-0.10114438,0.007849541,0.077412136,-0.004519861,-0.031907443,0.07989932,0.085357346,-0.027205601,0.012996179,0.06141316,0.01129526,-0.021182403,-0.062939145,-0.007614326,0.23469579,0.07639538,-0.040934972,-0.15183826,0.06758141,0.19697651,0.11190792,0.011791203,0.028961904,-0.02447162,-0.0016184177,0.065431975,-0.0018974674,-0.065731645,-0.017169332,-0.009918464,-0.042508017,-0.07899714,0.13989347,0.078454845,-0.040715285,0.06430419,0.009853339,-0.047536597,0.054354984,0.063626945,-0.048439566,-0.21777421,0.030924113,0.25010332,0.058649693,0.1206725,0.12307042,0.022334516,-0.034323063,-0.002769133,-0.04285619,-0.060043886,-0.0027443615,0.038570616,0.11036838,0.013837526,0.10009447,-0.01625783,0.03270712,-0.0640114,-0.11921093,-0.05103618,-0.046125423,-0.033780247,-0.015248284,-0.07240235,-0.020797646,0.11943925,0.055386834,-0.045886766,-0.01110887,-0.023696097,-0.020985443,-0.047883496,-0.085415155,-0.03170995,0.07918648,0.16198131,0.20314068,0.06138019,-0.21570142,0.09121009,0.026816767,0.00065285154,-0.075136155,0.06989415,-0.06363528,-0.18736598,-0.060470983,-0.08571381,-0.1142582,0.052642256,-0.0875495,-0.02889088,0.028231341,0.099208295,-0.09039371,-0.10721031,0.024225645,0.17166886,0.14701016,-0.17056035,-0.04327796,0.0852799,-0.032572772,0.078932144,0.029910723,-0.15609697,-0.14826797,-0.02900462,0.019568628,-0.034317568,-0.04002691,0.020938035,0.04642672,0.018457895,-0.01577975,-0.0018081068,0.05835792,-0.006543378,0.00965576,0.006606745,-0.04264516,-0.037000287,-0.006561616,-0.16764896,-0.13909553,-0.04174111,0.08926965,0.054772425,0.015590475,-0.018287925,-0.087020546,0.044458967,0.012867765,-0.019735094,0.046359178,-0.07937126,0.02069815,-0.03033037,0.07621568,0.07114378,0.030740999,0.13962914,0.031332742,-0.045494784,0.013520765,0.06570647,0.033416737,0.089131296,-0.061597124,-0.040472634,0.082911566,0.011960409,0.0861548,-0.06813825,-0.015156752,-0.005681771,-0.12228152,-0.043647993,0.039633214,-0.114449926,-0.16305436,-0.04178749,-0.049699686,-0.0040106922,-0.015040413,-0.0049930546,0.1117777,0.10653005,-0.1004053,0.13249917,0.01123193,-0.02706072,-0.035867333,-0.09617979,-0.101941645,-0.03188704,0.21776451,0.02879302,-0.026934434,0.07798961,0.015829757,0.04169132,0.084848724,0.05755999,0.07062196,-0.057818487,-0.13640325,-0.2442756,-0.08012515,-0.010711875,-0.039202664,-0.07149212,0.022179136,-0.011348498,-0.020573974,0.084216766,0.15025441,-0.10664462,0.040849924,0.019649621,0.009571961,-0.078398645,-0.14509434,-0.08772957,-0.06006679,-0.15396129,-0.13502662,-0.018742537,0.02873906,-0.07141061,0.029084606,0.16120486,-0.03780324,-0.0015414068,-0.045789108,-0.00029528321,0.06606922,0.045441587,-0.016466059,0.1043491,0.11471985,-0.0220773,-0.028646318,-0.07061243,-0.040251315,0.066153094,0.12991346,0.10878938,0.044476967,0.028660364,-0.100286424,0.040695522,-0.09107791,0.05621351,-0.06884531,0.051154118,-0.016383033,-0.16920313,0.13006133,0.092318766,0.037736457,-0.06637454,-0.091247484,-0.059290014,-0.016420972,0.06815449,-0.05357076,0.036801405,0.05225242,0.09661159,0.013653356,-0.049497947,-0.008757096,-0.08871959,0.1566489,-0.03052823,-0.0732795,-0.017159894,0.031436667,-0.04487221,-0.00037032526,-0.09062686,-0.03162561,-0.034848735,0.050236635,0.050553467,-0.016065411,0.0061845644,-0.038850646,-0.035026412,-0.10018157,-0.11450038,-0.06591753,-0.08610462,-0.08732556,-0.086962655,0.10999533,0.009354568,-0.0014811553,0.015789004,-0.061521832,-0.03285584,0.06491271,0.047339216,0.0649603,-0.016685952,-0.04321416,-0.06512147,0.13456532,0.01929984,-0.0044311564,-0.04778542,-0.058094185,-0.022965163,-0.062248558,-0.055550285,0.08931349,-0.16785468,-0.053523403,0.0043831887,-0.08361797,-0.16720697,-0.07402459,0.103211045,0.034623712,0.023812886,0.076523095,-0.0029021127,-0.0022168644,0.0066457777,-0.022935556,0.04745483,-0.093702495,0.02004782,0.0011766218,0.09834979,0.0824683,0.034956425,0.08441441,0.2133925,0.024306234,0.019360073,0.0260538,-0.01166371,0.005005062,-0.004182437,-0.006679681,0.094360285,0.006952186,-0.016004808,-0.017870868,0.0029898933,-0.0806775,0.16629846,0.1838149,0.06290747,-0.0056660566,0.11911688,-0.017460821,0.032042693,-0.051889632,-0.041706752,0.023360051,0.048748557,-0.022740023,0.009875426,-0.11266348,-0.14872772,-0.058265604,0.028845796,0.026254192,-0.030267136,0.049540535,-0.094614066,-0.09604086,0.096625164,0.0053805,-0.078827925,0.06391977,-0.06177226,-0.031523146,-0.018310178,0.016537452,0.06615183,0.01705454,-0.03772626,-0.02516113,0.028643707,-0.0048313295,0.033165507,0.031210246,-0.028887006,-0.007594514,0.069039375,-0.07307707,0.025211995,0.09126641,-0.0738096,0.033179726,-0.02931551,-0.012298345,-0.06927925,0.006208748,0.04458095,-0.015367681,-0.025026489,0.057713464,-0.069468975,-0.048587505,-0.04024586,0.009665986,0.0234749,0.056818105,-0.050463296,-0.058761317,0.05036038,0.061082274,-0.021679051,-0.001374259,-0.01750694,-0.025740232,0.031632286,-0.037315384,-0.04600622,0.0363449,0.05578292,0.082157865,0.019212404,-0.04296109,-0.09142205,-0.03324889,-0.12459326,-0.043508295,-0.032661915,-0.10189742,-0.0009634892,-0.046052903,-0.016493324,0.024517307,-0.05310578,-0.042376995,-0.08029478,-0.029368842,-0.017983561,0.12576914,0.118295744,-0.026370391,0.12787949,0.107940614,0.073590435,-0.063561454,-0.045512203,-0.002627156,-0.063015155,-0.02040721,-0.06387303,-0.09923776,0.04440418,-0.15043236,-0.17222886,-0.012721184,0.0038921086,-0.026095388,-0.1274719,0.011216011,0.03903505,0.07912907,-0.05483322,-0.09270527,-0.022256035,-0.06066275,-0.049461972,0.03892015,-0.015162113,0.006559487,0.04949286,-0.10839764,-0.07925355,-0.08112818,-0.02540909,-0.014301777,0.073502205,0.15318158,-0.037698586,0.04104708,0.03863225,-0.06287439,0.03176633,-0.0012033485,-0.0032759132,-0.047696237,-0.058717135,-0.0032686493,0.008670041,-0.12346438,-0.09083805,0.041443735,0.016351668,-0.029865973,0.020449394,-0.004953935,-0.17091271,-0.18779373,-0.08886341,-0.10441104,0.017712956,0.088568635,0.013518128,0.041245375,-0.02401235,0.09276011,-0.026131274,-0.034344945,0.053310692,-0.05997386,0.07548978,-0.014955265,-0.035269484,0.017553087,-0.061031464,-0.065812565,-0.005732527,-0.056981817,0.081989475,-0.031621974,0.014198327,0.071973115,-0.003792882,0.030264525,0.045448907,0.013364486,-0.059535727,0.0017889879,0.0071308846,0.0047594886,-0.020526828,0.07226327,-0.0028611547,-0.0005911116,0.017646838,0.028825928,0.09251522,-0.084168114,-0.01809511,-0.034351587,-0.03840147,0.051836364,-0.013149282,0.0049203997,0.09683396,0.06825631,0.023366014,-0.004641702,-0.075836726,0.09316586,-0.006127821,0.031862892,0.046533693,-0.011035812,0.023877699,-0.05232585,-0.038624767,0.03564722,-0.029320477,-0.10202816,-0.059548542,-0.04060011,-0.014513058,-0.03869785,-0.018508425,-0.070337184,-0.006333826,-0.0018524833,-0.080842406,-0.006062293,-0.005530115,-0.05247314,0.02391451,0.10456526,0.030283416,0.1174783,-0.07312043,-0.040242217,-0.034159116,0.07884884,0.08640703,-0.018143952,0.0186142,0.052632276,-0.013720357,0.023207305,0.0015104045,0.018499795,0.063631475,0.12368568,0.057749413,-0.07330726,-0.0038861393,-0.030537564,0.049202353,0.024979029,0.025925992,0.053113703,0.005956182,0.040995635,-0.027794199,-0.033074632,-0.032697562,0.032590702,-0.04233931,0.05262483,0.04113879,-0.09154319,-0.04506409,0.013579097,-0.0592717,-0.021288821,0.004076523,-0.027123429,-0.014395757,0.063893296,-0.0081635965,0.075307496,-0.055678893,-0.05080485,-0.038446274,-0.046891738,-0.051653966,-0.014426831,-0.019355748,-0.01899928,-0.02139751,-0.017928407,-0.046993457,-0.12034242,-0.04318739,-0.037550326,-0.057776872,0.022183333,-0.0045484668,0.034292165,0.0058675217,0.15135787,-0.032198917,-0.008633496,0.15436585,0.048064295,0.043745976,-0.034410775,0.05811592,0.024076786,0.03968698,-0.04619726,0.10271653,0.016218603,-0.08441624,0.03344376,0.07137788,0.06661297,0.050362956,0.064757854,0.070802666,0.0887312,-0.0058239996,-0.03103707,-0.038777344,-0.05227401,-0.083175234,0.015358266,-0.022844052,0.027078707,-0.016622206,0.10224105,0.116777085,-0.015577498,-0.054478846,-0.01024717,0.0028321901,0.026029168,-0.033476785,-0.046041586,0.008790395,-0.041715853,0.020610657,0.05750978,-0.0729522,-0.035903454,-0.06938942,-0.022135025,-0.09004413,-0.05425859,-0.07818182,0.04159084,-0.036553677,0.07680286,-0.01588602,-0.1503885,-0.14542754,0.10198498,-0.06335161,-0.10770575,0.04121576,-0.0011171321,0.05807316,0.11534143,-0.040559497,0.044604972,0.05724696,0.029341709,-0.0015485631,-0.07254591,-0.052603483,-0.022305984,0.065067105,0.08190493,0.003790514,-0.052705664,-0.059611004,-0.02899256,0.019893048,-0.11582986,-0.03651857,-0.073729664,-0.029478258,-0.061062925,0.038338277,0.019935066,-0.022941051,0.08501835,0.0073053692,0.095628984,0.009995209,0.028337268,-0.034203347,-0.023124706,-0.00026280066,-0.019355593,-0.019738626,0.040726874,0.065565795,-0.0312574,0.0002157274,-0.094336204,-0.0591015,0.06817139,0.029826604,-0.02343942,0.04513441,0.11561942,0.055926897,-0.03671696,0.03609231,0.06350849,0.0013423613,0.06864149,-0.029747434,-0.0026502663,0.046238963,-0.08503336,-0.05542335,-0.009942862,-0.056329723,-0.02970568,-0.026818492,-0.06193752,0.0028017992,0.098142624,0.11302813,0.052923117,0.032783452,0.029347949,0.010091781,-0.091702744,0.04532319,0.027415516,-0.044331964,-0.076138645,0.013691194,-0.028313572,0.040088546,0.07550145,0.11357598,-0.006788587,0.029044004,-0.010007414,-0.027210956,-0.106482536,0.016503133,0.029685646,-0.080666564,-0.017604094,-0.00052066275,-0.051270563,-0.028059388,-0.04304569,-0.050194368,-0.0024491616,0.034561034,-0.018299146,0.07315271,-0.061896432,-0.06268302,-0.039158024,0.07543975,0.03066202,-0.030048441,0.03168844,0.051478487,-0.05522783,-0.07726146,-0.025399856,-0.045768153,-0.023727205,-0.02707699,-0.032831885,-0.05443493,-0.032356307,-0.110784456,-0.07151906,0.067998804,-0.021595938,-0.12795004,-0.03808811,0.07113905,-0.055825803,-0.08879017,-0.10113166,0.015424147,0.049282268,0.1097635,0.015356516,0.029441377,-0.15733798,0.0043118214,0.07016549,-0.029016918,0.05172932,0.035446186,0.03639629,-0.13784666,-0.08906656,0.077992775,0.014469501,-0.051443763,0.027535524,0.18034615,0.06092592,0.009444561,-0.1424667,-0.037043657,-0.059661586,-0.09574283,-0.08855103,-0.0983162,-0.03241136,0.023244468,0.036123283,-0.0073940153,-0.031591352,-0.06599089,-0.07902474,-0.0077216127,-0.0045576524,-0.097927816,-0.036464915,-0.026037427,-0.08963986,-0.0981396,-0.10562019,-0.0057600653,0.09843108,-0.043527186,0.09229021,0.09731082,-0.03753551,0.05320162,0.036112636,0.05372551,0.08644667,0.046162337,-0.010598366,0.005063805,-0.029626673,-0.021348212,0.013102877,-0.030885579,0.017317414,-0.043790773,0.02345553,-0.016026229,-0.041228365,0.029317962,-0.013388334,0.06410719,0.018012168,0.0350627,-0.020018946,-0.049663603,0.03466815,-0.04587533,-0.06274247,-0.049916342,0.04762879,0.026624525,0.020928418,-0.032763314,-0.025069127,-0.003154186,0.007332488,0.037520133,-0.0815263,0.063301735,0.14266822,0.0139499875,0.21256866,0.23575741,0.110424496,-0.03686836,-0.106557384,0.026379388,0.008467125,-0.06500216,-0.064479426,-0.09826042,-0.11365212,-0.11064799,0.003521888,0.03794486,-0.021068715,0.0506732,-0.05408944,-0.111388795,0.0966756,0.052069917,0.10366095,-0.03546726,-0.057824943,0.03205207,-0.035081197,-0.05349,-0.079351924,0.019410973,-0.037718218,0.0145230545,0.010621197,-0.009411564,0.051980857,0.027146408,0.023300268,-0.06088538,-0.07212831,0.100666806,-0.123004295,-0.023645353,0.080471784,0.00549612,0.09676838,0.064039566,0.056757476,0.0679215,-0.014588178,-0.07870297,0.036044706,0.06937462,-0.06269009,-0.05582158,0.02049174,-0.009639943,-0.0544016,-0.0020469413,-0.06287425,-0.050508004,0.016836101,-0.017313054,-0.04282747,-0.011080255,0.03077275,-0.09347462,-0.14771771,-0.04999389,-0.015294318,-0.007810924,0.0014190318,0.005684582,-0.1001045,0.03039548,0.03340254,-0.011633618,0.029781658,-0.013608224,-0.029010586,0.05396608,-0.0068724276,-0.02907282,-0.02120211,-0.0547623,-0.026792929,0.011602781,0.05791465,0.06281586,0.083427414,0.03475695,-0.027980946,0.027573625,0.036995195,-0.025718765,0.005097373,0.0009754964,0.08187515,0.0612807,-0.023511253,-0.0076030907,0.014426285,-0.020745406,0.010713735,-0.07288299,-0.03434872,0.10353672,-0.06408917,-0.038427215,-0.057654146,-0.007280418,-0.0062820283,0.010339881,-0.0035608278,0.035551045,0.09491723,0.051152714,0.03563463,0.006604657,0.018590638,0.0019515207,-0.035849426,0.06600205,0.04700112,-0.014944245,-0.053476322,3.4381505e-05,-0.09854631,0.05535357,0.022191321,-0.018895159,0.066615775,0.061748203,0.01639784,0.0899638,0.0139599955,-0.033328757,-0.044069786,0.04322725,0.07066728,0.024742588,-0.008919162,-0.007066338,0.051963143,0.005978823,-0.051389243,0.059834585,-0.053183693,-0.070716456,-0.027044386,-0.012964781,-0.06460866,-0.058022745,0.03084101,0.06709875,0.13657881,0.0019969027,-0.07635663,-0.018211039,-0.031980105,-0.064216234,-0.0396509,-0.020868449,0.074082084,0.013864968,0.035252802,0.1167195,0.04942151,-0.032556467,-0.055425208,-0.061887,0.008028292,0.02368661,0.030225977,0.030130237,-0.06084937,-0.020565938,0.040456437,-0.03432577,-0.03629227,0.035688397,0.05832337,0.0049513765,-0.016101481,-0.045161214,-0.03889594,-0.05116962,-0.02770533,0.026368791,-0.07256197,-0.13883497,0.061193887,0.031468287,-0.040930588,0.034640368,-0.0066647823,-0.024653023,-0.06342333,-0.007923479,-0.043659106,0.043340825,-0.015890645,0.10763831,-0.0020963072,-0.018027332,0.051594645,-0.030831553,-0.019978046,0.021834223,-0.020140946,0.0206528,-0.074872,-0.07588998,0.016489064,-0.017592026,-0.05299536,-0.04007391,-0.116708994,-0.07052831,0.02699556,-0.085862294,-0.060092166,0.08329279,0.041680023,-0.077830076,0.042521406,0.02181184,0.0712604,0.033150505,-0.0018247803,0.07947662,0.016407982,0.02378163,0.014304191,-0.036897607,-0.0025352582,0.09311989,-0.030628877,0.025799505,0.09273296,-0.018922769,0.002303098,0.012541223,-0.0004231519,-0.030299053,-0.034497835,-0.069187835,-0.087640375,-0.057797134,-0.04646057,-0.026126992,-0.049243897,0.0027096102,-0.10504386,-0.0044492316,-0.042233177,0.12344206,-0.015212077,-0.104667015,-0.011176532,-0.062737726,-0.017408,0.012920503,0.012661512,0.088298045,0.06900991,0.01235832,0.014522838,-0.005294843,-0.022401916,-0.04576509,-0.083146185,-0.028700614,-0.021008255,-0.14517629,-0.06317482,0.09186904,-0.07354157,-0.054095857,0.0023782712,-0.049255643,0.02644765,-0.09720936,-0.00093718874,0.056481104,-0.06495976,-0.015284458,0.08657442,-0.024514794,-0.08169084,-0.014879372,-0.04271019,-0.013440286,-0.13657723,-0.01674359,0.044004146,-0.026604725,0.046532713,0.035594042,-0.024736814,-0.032849632,-0.0616218,-0.09122884,-0.07481973,-0.01582894,-0.07375457,-0.055126686,-0.07128372,-0.024940798,0.032410506,-0.03034419,-0.087639034,0.06117319,0.15026022,0.12236748,0.04321672,0.027782947,0.0055912067,0.042177517,-0.02849208,0.039622832,-0.0024787968,-0.016561886,0.08844405,0.096086785,-0.13362285,-0.0063310037,-0.0036227896,-0.072409995,0.03454034,0.029500462,-0.041049145,0.045335747,0.0124269985,-0.044302374,0.012000954,0.02762681,-0.07821182,-0.005757463,0.054979086,0.019454777,0.005386012,0.040893834,0.020862099,0.008324775,0.02623589,-0.05788374,-0.061678965,-0.031962797,-0.09917859,0.0036071152,0.0018891445,-0.065640785,0.102244295,-0.09259713,-0.11708868,0.028082477,-0.06678476,-0.073896706,-0.021357542,-0.02279502,-0.09532485,-0.033384614,0.032171216,-0.048882842,-0.0028182673,0.012473637,0.006149018,0.014894525,-0.02422026,0.085077815,0.026329672,0.010957786,0.0770373,0.025575047,0.034229454,0.045656074,-0.013862405,0.058112394,0.046427555,-0.09522703,0.066481344,0.036017098,-0.051530324,-0.023487817,-0.070700794,-0.013703512,0.0061340607,-0.036402717,-0.03679806,0.03712597,-0.008460401,-0.07762808,-0.10700122,0.011288094,0.014565106,0.051074576,-0.050059453,-0.04099065,-0.016259506,-0.021763142,0.030743329,0.022825599,-0.007531442,0.0040233443,-0.03270329,0.023839058,0.062779374,-0.058882307,-0.10126894,-0.09608887,-0.016984161,0.019364187,0.039146986,0.053714592,-0.035197146,-0.029794494,0.060263157,0.02350976,-0.013915737,-0.04004214,-0.0023801748,-0.02554194,-0.011793719,-0.013933777,0.015858661,-0.052506085,-0.09695784,-0.019071091,0.0017807727,0.00705958,0.033300143,-0.03205378,-0.045424644,-0.03674163,-0.018072007,-0.17236392,-0.09176801,0.037534133,-0.018776271,-0.011042923,-0.03655062,-0.050238606,0.08538507,0.08152665,0.0636905,0.044833854,0.009394904,0.012417366,-0.029382544,-0.1456713,-0.11450101,-0.061140534,-0.06285397,-0.05032866,-0.045241628,-0.0035701247,-0.041325673,-0.059337698,0.0074708373,0.03385816,-0.015150103,-0.012436428,0.049847182,0.030900232,-0.05708764,-0.025196526,-0.02072887,0.003812499,-0.021445049,0.0060124993,-0.05775489,-0.06413406,-0.014526243,0.012629581,0.017200526,0.034706596,-0.009404673,-0.029941464,-0.009303563,0.10600817,0.12865949,0.06026063,-0.07190754,-0.037081454,-0.0031656986,-0.0072266827,-0.04934773,0.05798133,0.04106079,0.03822635,0.052650083,-0.1305474,-0.08041564,0.0009343157,-0.07978408,-0.0782748,-0.02628407,-0.002811895,-0.024670618,0.10816463,0.09019171,0.029071227,0.07098035,-0.06214664,0.00080125727,0.008985873,-0.035650056,-0.022017336,-0.010394865,-0.07668223,-0.06595187,0.03470266,0.050283216,0.014266807,0.038798727,-0.05179944,-0.11490403,-0.033463486,-0.06738068,-0.12867564,-0.059134323,-0.002542271,-0.02017346,-0.10127154,0.041165985,-0.097710066,-0.113605544,0.045986693,0.0017333254,0.01995963,0.10910081,0.019172683,-0.0018150004,-0.12238082,-0.12071439,-0.03792754,-0.027469449,-0.03398108,0.045726407,0.019227084,-0.045060296,-0.08584933,-0.030080536,-0.09202036,-0.06803574,-0.021734377,-0.041426953,-0.086025886,-0.006482272,-0.041345246,-0.099296935,0.022838892,0.018904813,-0.04298895,-0.10262137,-0.086942576,-0.012339961,0.061989233,0.039378878,0.03655631,-0.022261651,-0.019620234,-0.024111709,0.011677463,0.03701748,-0.014023408,0.01035454,0.051063586,-0.0050271787,-0.03234221,-0.013749569,-0.08295772,-0.077691406,-0.046160888,-0.041008685,0.04904838,-0.16739047,-0.055607066,0.08794963,0.008678333,0.030819649,0.036304127,0.053805705,0.06605334,-0.038927842,-0.0013353528,0.002677707,-0.019646136,-0.0045828153,-0.032653943,0.019414803,0.0067161396,-0.05185426,0.057230275,-0.06615643,0.046628904,0.12543422,-0.031641413,-0.0066514164,-0.011957803,0.057849985,-0.030015346,0.051647685,-0.013211636,-0.009964759,0.090317085,-0.0024135564,-0.066757895,-0.025575232,-0.03489677,-0.040121775,-0.03587299,0.056531835,-0.025121782,0.012119711,0.002479056,-0.062098026,-0.0009912677,-0.058692187,-0.094948165,0.04565972,0.05790648,0.042402975,-0.03717528,-0.0038433126,0.021747358,-0.024427235,-0.03768832,0.00633507,0.012805069,-0.018563813,0.020364435,0.037029926,0.023003018,0.040967222,0.031056406,0.048090644,-0.031256806,-0.015188198,0.07682302,0.01673709,0.03403189,0.15195633,-0.050361235,-0.076481126,0.12867972,0.06387039,0.028542709,-0.16555047,-0.047822785,0.04280979,-0.110116675,0.03680172,0.041702557,-0.018925913,0.13456057,0.06834182,0.06986981,0.033945482,-0.013627775,0.052522004,0.04516675,0.03622751,-0.10104675,0.013079452,0.008883699,0.040067427,-0.017788835,-0.02661381,-0.15530668,-0.0596354,-0.07137416,-0.099821016,-0.023259023,0.040046193,0.08196332,0.030751795,0.10959139,0.14630249,0.056671906,0.06381743,-0.03977259,-0.105887376,0.021631977,-0.056981534,0.05573527,0.0931257,-0.03782108,0.010303194,0.020437902,0.047175314,0.12501693,0.05755663,-0.04207525,0.017872376,-0.034702405,-0.033662032,-0.0045359586,-0.16693044,-0.06350151,-0.053515587,0.055395868,0.05273127,0.12339272,-0.015435375,0.034082644,0.018397395,0.16142587,0.10171023,-0.061396677,0.025187908,-0.0007005882,0.09926129,-0.0015747934,-0.02566398,0.08653786,0.0069109052,-0.11678388,0.12504555,0.07672318,-0.016354796,0.026504822,-0.048220795,0.018764358,0.07856657,0.011650862,0.07221279,0.07183813,-0.025713034,-0.09088232,-0.014076507,0.01660663,-0.011586077,-0.04565775,0.042229358,-0.08013752,0.0823859,-0.12984125,0.07268961,0.14679961,0.06007202,0.07173198,0.053433903,0.11157525,0.03388511,0.084004015,-0.048949048,-0.13960958,0.026756007,0.009865455,0.022013746,-0.031208279,-0.01633259,0.07999774,0.044823114,-0.082631886,-0.05913752,0.03749964,-0.117599785,-0.100749575,-0.052221674,0.057360254,0.008339365,-0.024718571,-0.05751165,0.035798118,0.05944431,-0.14391485,-0.14376427,-0.09590395,-0.026347872,0.11475331,0.054282624,0.00074537203,-0.08021586,-0.06838279,0.009333032,-0.09437308,-0.09538783,-0.07057149,0.046390105,-0.059509616,0.00762004,-0.19970547,0.034450598,-0.054563753,-0.028304828,0.03458244,-0.0008455174,0.0250551,-0.045557592,0.026758192,0.17275824,-0.060357466,0.050606824,0.0693805,-0.11982272,0.005104437,0.021977821,-0.08579056,-0.049737386,0.055698704,0.038098477,-0.060901325,0.055180136,0.07196782,0.0643138,0.013994326,0.16768847,-0.076136984,-0.09828002,0.034501195,