0.0,-0.0,-0.0,0.0,-0.0,0.0,-0.0,0.0,0.0,-0.0,-0.0,0.0,-0.0,0.0,0.0,0.0,0.0,0.0,-0.0,-0.0,-0.0,-0.0,-0.0,-0.0,-0.0,0.0,-0.0,0.0,-0.0,0.0,0.0,0.0,-0.0,0.0,-0.0,-0.0,0.0,0.0,0.0,-0.0,-0.0,-0.0,0.0,0.0,0.0,0.0,-0.0,0.0,-0.0,-0.0,-0.0,0.0,-0.0,0.0,0.0,-0.0,0.0,0.0,0.0,-0.0,-0.0,-0.0,0.0,0.0,0.0,0.0,0.0,0.0,0.0,-0.0,-0.0,-0.0,0.0,0.0,-0.0,0.0,-0.0,-0.0,0.0,-0.0,-0.0,0.0,-0.0,0.0,-0.0,0.0,-0.0,-0.0,-0.0,-0.0,0.0,-0.0,-0.0,-0.0,-0.0,-0.0,0.0,-0.0,0.0,0.0,-0.0,-0.0,0.0,-0.0,0.0,0.0,0.0,-0.0,0.0,-0.0,0.0,0.0,0.0,-0.0,-0.0,-0.0,0.0,-0.0,0.0,-0.0,-0.0,-0.0,-0.0,-0.0,0.0,-0.0,-0.0,0.0,0.0,-0.0,0.0,0.0,-0.0,-0.0,-0.0,-0.0,0.0,-0.0,-0.0,0.0,0.0,-0.0,0.0,-0.0,-0.0,0.0,0.0,-0.0,-0.0,0.0,-0.0,0.0,0.0,-0.0,0.0,0.0,-0.0,-0.0,-0.0,-0.0,-0.0,-0.0,-0.0,-0.0,0.0,0.0,0.0,-0.0,-0.0,0.0,0.0,-0.0,-0.0,0.0,-0.0,0.0,-0.0,0.0,0.0,-0.0,0.0,-0.0,0.0,-0.0,0.0,-0.0,-0.0,-0.0,0.0,-0.0,-0.0,0.0,-0.0,-0.0,-0.0,-0.0,0.0,-0.0,-0.0,0.0,-0.0,-0.0,0.0,0.0,-0.0,0.0,0.0,0.0,-0.0,-0.0,0.0,0.0,0.0,0.0,-0.0,0.0,0.0,0.0,0.0,0.0,0.0,0.0,-0.0,0.0,0.0,-0.0,0.0,-0.0,-0.0,-0.0,-0.0,-0.0,0.0,0.0,0.0,0.0,0.0,0.0,0.0,0.0,-0.0,0.0,0.0,-0.0,0.0,-0.0,-0.0,-0.0,-0.0,0.0,0.0,0.0,0.0,-0.0,0.0,0.0,-0.0,0.0,-0.0,0.0,-0.0,-0.0,0.0,0.0,-0.0,-0.0,0.0,-0.0,0.0,0.0,0.0,-0.0,0.0,0.0,0.0,0.0,-0.0,-0.0,0.0,0.0,0.0,0.0,0.0,-0.0,0.0,0.0,0.0,-0.0,0.0,0.0,0.0,-0.0,-0.0,0.0,-0.0,0.0,0.0,0.0,-0.0,0.0,0.0,-0.0,-0.0,0.0,-0.0,0.0,0.0,0.0,0.0,-0.0,0.0,-0.0,0.0,0.0,0.0,0.0,0.0,-0.0,-0.0,-0.0,0.0,0.0,0.0,0.0,-0.0,0.0,0.0,-0.0,-0.0,0.0,-0.0,-0.0,-0.0,0.0,-0.0,0.0,-0.0,-0.0,0.0,-0.0,-0.0,0.0,-0.0,0.0,0.0,-0.0,0.0,0.0,0.0,-0.0,0.0,0.0,-0.0,0.0,0.0,0.0,-0.0,0.0,-0.0,-0.0,0.0,-0.0,-0.0,0.0,-0.0,0.0,0.0,0.0,0.0,-0.0,-0.0,-0.0,-0.0,-0.0,-0.0,0.0,-0.0,0.0,0.0,-0.0,-0.0,-0.0,-0.0,-0.0,0.0,-0.0,-0.0,-0.0,0.0,-0.0,-0.0,-0.0,0.0,-0.0,-0.0,0.0,-0.0,-0.0,0.0,-0.0,0.0,0.0,0.0,-0.0,0.0,-0.0,0.0,-0.0,-0.0,0.0,-0.0,0.0,0.0,0.0,0.0,-0.0,0.0,0.0,0.0,0.0,-0.0,-0.0,0.0,0.0,-0.0,0.0,0.0,0.0,0.0,0.0,0.0,0.0,-0.0,-0.0,-0.0,0.0,-0.0,0.0,0.0,-0.0,0.0,0.0,-0.0,0.0,0.0,-0.0,0.0,-0.0,0.0,-0.0,0.0,-0.0,0.0,0.0,0.0,0.0,-0.0,0.0,0.0,-0.0,0.0,0.0,-0.0,-0.0,0.0,0.0,-0.0,0.0,0.0,-0.0,-0.0,0.0,0.0,-0.0,0.0,0.0,0.0,-0.0,-0.0,0.0,0.0,0.0,0.0,-0.0,-0.0,-0.0,0.0,0.0,0.0,-0.0,-0.0,0.0,0.0,0.0,0.0,0.0,0.0,-0.0,-0.0,-0.0,-0.0,0.0,-0.0,-0.0,0.0,0.0,-0.0,0.0,0.0,0.0,0.0,0.0,0.0,0.0,-0.0,-0.0,-0.0,-0.0,-0.0,0.0,0.0,-0.0,0.0,0.0,0.0,-0.0,-0.0,0.0,-0.0,-0.0,-0.0,-0.0,0.0,0.0,0.0,0.0,-0.0,-0.0,0.0,0.0,0.0,-0.0,-0.0,-0.0,-0.0,-0.0,-0.0,-0.0,0.0,0.0,-0.0,0.0,-0.0,-0.0,0.0,-0.0,-0.0,-0.0,0.0,0.0,0.0,0.0,0.0,0.0,-0.0,-0.0,0.0,-0.0,0.0,-0.0,0.0,0.0,0.0,0.0,-0.0,0.0,0.0,0.0,-0.0,0.0,0.0,0.0,0.0,-0.0,-0.0,0.0,0.0,-0.0,0.0,-0.0,-0.0,-0.0,-0.0,-0.0,-0.0,0.0,-0.0,0.0,0.0,-0.0,0.0,0.0,-0.0,-0.0,0.0,0.0,-0.0,-0.0,-0.0,0.0,-0.0,0.0,0.0,0.0,0.0,-0.0,0.0,0.0,-0.0,0.0,0.0,0.0,0.0,0.0,0.0,-0.0,0.0,0.0,0.0,0.0,0.0,0.0,0.0,0.0,0.0,-0.0,0.0,0.0,-0.0,-0.0,-0.0,0.0,-0.0,0.0,-0.0,-0.0,0.0,0.0,-0.0,0.0,-0.0,-0.0,-0.0,-0.0,-0.0,-0.0,0.0,-0.0,0.0,0.0,0.0,-0.0,0.0,-0.0,-0.0,0.0,-0.0,0.0,0.0,0.0,0.0,-0.0,0.0,0.0,-0.0,0.0,-0.0,-0.0,0.0,0.0,0.0,0.0,0.0,0.0,0.0,-0.0,0.0,0.0,-0.0,0.0,0.0,0.0,0.0,-0.0,-0.0,0.0,-0.0,-0.0,0.0,-0.0,-0.0,0.0,-0.0,0.0,-0.0,-0.0,0.0,0.0,0.0,-0.0,-0.0,-0.0,0.0,0.0,0.0,-0.0,0.0,-0.0,-0.0,0.0,-0.0,0.0,0.0,-0.0,0.0,-0.0,0.0,0.0,-0.0,-0.0,-0.0,-0.0,-0.0,-0.0,-0.0,0.0,-0.0,-0.0,-0.0,-0.0,0.0,-0.0,-0.0,0.0,0.0,0.0,0.0,0.0,0.0,-0.0,-0.0,-0.0,-0.0,-0.0,0.0,0.0,-0.0,0.0,-0.0,0.0,0.0,0.0,0.0,0.0,0.0,-0.0,0.0,0.0,-0.0,-0.0,0.0,-0.0,0.0,0.0,-0.0,-0.0,0.0,0.0,0.0,-0.0,0.0,0.0,-0.0,-0.0,0.0,0.0,-0.0,-0.0,0.0,-0.0,0.0,0.0,-0.0,0.0,-0.0,-0.0,0.0,0.0,0.0,-0.0,-0.0,-0.0,0.0,0.0,-0.0,0.0,-0.0,0.0,0.0,0.0,0.0,0.0,-0.0,0.0,0.0,0.0,0.0,-0.0,-0.0,0.0,-0.0,0.0,-0.0,0.0,0.0,0.0,0.0,0.0,-0.0,-0.0,0.0,0.0,0.0,-0.0,0.0,0.0,0.0,-0.0,-0.0,-0.0,-0.0,-0.0,0.0,-0.0,-0.0,0.0,0.0,0.0,0.0,-0.0,0.0,-0.0,0.0,-0.0,0.0,0.0,-0.0,0.0,0.0,-0.0,-0.0,0.0,-0.0,-0.0,0.0,-0.0,-0.0,0.0,0.0,0.0,-0.0,0.0,-0.0,0.0,0.0,0.0,0.0,-0.0,0.0,0.0,0.0,0.0,0.0,0.0,0.0,-0.0,-0.0,-0.0,0.0,0.0,0.0,0.0,-0.0,0.0,0.0,-0.0,0.0,-0.0,-0.0,-0.0,-0.0,-0.0,0.0,-0.0,0.0,0.0,-0.0,-0.0,-0.0,0.0,-0.0,-0.0,0.0,0.0,-0.0,0.0,-0.0,0.0,0.0,0.0,0.0,0.0,0.0,-0.0,0.0,0.0,-0.0,-0.0,-0.0,0.0,-0.0,0.0,0.0,-0.0,-0.0,0.0,-0.0,-0.0,0.0,-0.0,-0.0,-0.0,0.0,0.0,0.0,-0.0,0.0,-0.0,0.0,-0.0,-0.0,-0.0,-0.0,0.0,-0.0,-0.0,-0.0,0.0,-0.0,0.0,-0.0,0.0,-0.0,-0.0,0.0,-0.0,0.0,0.0,0.0,-0.0,0.0,0.0,0.0,0.0,0.0,0.0,0.0,0.0,0.0,0.0,0.0,-0.0,-0.0,0.0,0.0,-0.0,0.0,-0.0,-0.0,0.0,0.0,-0.0,0.0,0.0,-0.0,0.0,0.0,0.0,-0.0,0.0,0.0,-0.0,0.0,-0.0,-0.0,0.0,0.0,0.0,-0.0,0.0,-0.0,-0.0,0.0,0.0,0.0,0.0,-0.0,-0.0,0.0,0.0,-0.0,0.0,0.0,-0.0,-0.0,0.0,-0.0,0.0,-0.0,-0.0,0.0,0.0,-0.0,0.0,0.0,-0.0,0.0,0.0,0.0,-0.0,0.0,0.0,0.0,-0.0,-0.0,-0.0,0.0,0.0,0.0,-0.0,-0.0,-0.0,-0.0,0.0,0.0,-0.0,0.0,0.0,0.0,0.0,0.0,-0.0,0.0,0.0,-0.0,0.0,0.0,-0.0,0.0,-0.0,-0.0,0.0,0.0,-0.0,0.0,0.0,-0.0,0.0,0.0,0.0,-0.0,-0.0,0.0,0.0,-0.0,0.0,-0.0,0.0,0.0,-0.0,-0.0,-0.0,-0.0,-0.0,-0.0,0.0,0.0,-0.0,0.0,0.0,0.0,-0.0,-0.0,0.0,-0.0,-0.0,-0.0,-0.0,-0.0,0.0,0.0,-0.0,0.0,-0.0,-0.0,0.0,-0.0,0.0,-0.0,-0.0,0.0,0.0,-0.0,0.0,-0.0,-0.0,-0.0,-0.0,-0.0,0.0,0.0,0.0,0.0,0.0,0.0,-0.0,0.0,0.0,-0.0,-0.0,0.0,-0.0,0.0,-0.0,-0.0,0.0,-0.0,-0.0,-0.0,0.0,0.0,0.0,-0.0,0.0,-0.0,0.0,0.0,-0.0,0.0,-0.0,-0.0,0.0,0.0,0.0,-0.0,0.0,-0.0,-0.0,-0.0,0.0,0.0,0.0,0.0,-0.0,0.0,0.0,0.0,0.0,0.0,-0.0,0.0,0.0,0.0,-0.0,0.0,0.0,-0.0,0.0,0.0,0.0,-0.0,0.0,0.0,-0.0,0.0,-0.0,-0.0,0.0,0.0,0.0,0.0,-0.0,0.0,0.0,-0.0,0.0,0.0,-0.0,0.0,-0.0,-0.0,0.0,-0.0,0.0,-0.0,0.0,0.0,0.0,0.0,0.0,0.0,-0.0,0.0,-0.0,0.0,0.0,0.0,0.0,-0.0,-0.0,0.0,0.0,0.0,-0.0,-0.0,0.0,0.0,0.0,0.0,0.0,-0.0,0.0,-0.0,0.0,-0.0,0.0,0.0,-0.0,0.0,0.0,0.0,-0.0,-0.0,-0.0,0.0,-0.0,-0.0,-0.0,-0.0,-0.0,0.0,0.0,-0.0,0.0,0.0,0.0,-0.0,-0.0,0.0,-0.0,-0.0,0.0,-0.0,-0.0,-0.0,0.0,0.0,0.0,0.0,0.0,0.0,0.0,-0.0,-0.0,0.0,0.0,-0.0,0.0,0.0,0.0,0.0,-0.0,0.0,-0.0,0.0,0.0,-0.0,-0.0,0.0,0.0,0.0,-0.0,-0.0,-0.0,-0.0,0.0,-0.0,0.0,-0.0,0.0,-0.0,-0.0,-0.0,-0.0,-0.0,-0.0,0.0,0.0,-0.0,-0.0,0.0,-0.0,-0.0,0.0,0.0,0.0,0.0,0.0,-0.0,-0.0,-0.0,-0.0,0.0,0.0,0.0,-0.0,-0.0,0.0,-0.0,0.0,-0.0,-0.0,-0.0,0.0,0.0,-0.0,-0.0,-0.0,-0.0,-0.0,-0.0,0.0,0.0,-0.0,-0.0,-0.0,0.0,0.0,0.0,-0.0,0.0,0.0,-0.0,0.0,0.0,-0.0,0.0,-0.0,-0.0,-0.0,-0.0,-0.0,-0.0,0.0,-0.0,0.0,0.0,-0.0,-0.0,0.0,-0.0,-0.0,-0.0,0.0,0.0,-0.0,0.0,-0.0,0.0,0.0,0.0,0.0,-0.0,-0.0,0.0,-0.0,-0.0,-0.0,0.0,0.0,0.0,-0.0,-0.0,0.0,0.0,0.0,0.0,-0.0,-0.0,0.0,0.0,0.0,-0.0,0.0,0.0,-0.0,0.0,0.0,-0.0,0.0,-0.0,-0.0,0.0,0.0,0.0,0.0,0.0,-0.0,0.0,0.0,0.0,0.0,-0.0,-0.0,0.0,0.0,-0.0,0.0,0.0,-0.0,-0.0,-0.0,0.0,0.0,0.0,0.0,0.0,0.0,0.0,0.0,0.0,0.0,0.0,-0.0,0.0,0.0,0.0,0.0,0.0,-0.0,0.0,0.0,0.0,-0.0,-0.0,-0.0,0.0,-0.0,-0.0,0.0,0.0,0.0,0.0,0.0,0.0,0.0,0.0,0.0,0.0,0.0,0.0,-0.0,-0.0,0.0,-0.0,-0.0,0.0,0.0,0.0,-0.0,0.0,0.0,0.0,-0.0,-0.0,-0.0,0.0,0.0,0.0,0.0,0.0,0.0,0.0,0.0,-0.0,0.0,0.0,-0.0,-0.0,-0.0,0.0,0.0,0.0,-0.0,0.0,-0.0,-0.0,-0.0,0.0,0.0,-0.0,-0.0,-0.0,0.0,0.0,0.0,-0.0,0.0,-0.0,0.0,0.0,0.0,0.0,-0.0,0.0,0.0,0.0,-0.0,0.0,-0.0,0.0,-0.0,0.0,0.0,0.0,-0.0,0.0,-0.0,-0.0,-0.0,-0.0,0.0,-0.0,-0.0,-0.0,-0.0,-0.0,-0.0,0.0,0.0,0.0,-0.0,-0.0,-0.0,-0.0,0.0,-0.0,-0.0,-0.0,-0.0,0.0,-0.0,-0.0,-0.0,0.0,0.0,-0.0,-0.0,0.0,-0.0,-0.0,0.0,-0.0,0.0,-0.0,0.0,0.0,0.0,-0.0,0.0,-0.0,0.0,-0.0,-0.0,-0.0,0.0,0.0,0.0,-0.0,0.0,-0.0,0.0,0.0,0.0,-0.0,0.0,0.0,-0.0,0.0,0.0,-0.0,-0.0,0.0,0.0,-0.0,0.0,0.0,-0.0,-0.0,0.0,-0.0,0.0,-0.0,0.0,-0.0,-0.0,0.0,-0.0,0.0,-0.0,-0.0,0.0,0.0,0.0,0.0,0.0,0.0,-0.0,0.0,0.0,0.0,-0.0,-0.0,-0.0,-0.0,-0.0,-0.0,0.0,0.0,0.0,0.0,0.0,0.0,0.0,0.0,0.0,-0.0,0.0,0.0,0.0,-0.0,-0.0,0.0,-0.0,0.0,0.0,-0.0,-0.0,-0.0,-0.0,0.0,0.0,0.0,0.0,0.0,-0.0,-0.0,-0.0,-0.0,-0.0,-0.0,0.0,-0.0,-0.0,0.0,-0.0,-0.0,-0.0,-0.0,0.0,-0.0,-0.0,0.0,0.0,-0.0,-0.0,0.0,-0.0,-0.0,-0.0,0.0,0.0,0.0,-0.0,-0.0,0.0,-0.0,0.0,0.0,-0.0,-0.0,-0.0,0.0,0.0,0.0,-0.0,0.0,0.0,-0.0,0.0,0.0,-0.0,0.0,0.0,0.0,0.0,0.0,0.0,0.21543284,0.072172746,0.39154223,0.16394405,0.012602514,0.13632734,-0.13403106,-0.05533084,-0.25785035,-0.122226976,-0.211067,-0.29425925,-0.18152432,-0.18810193,-0.22308213,-0.10944093,0.015129682,-0.08818884,0.14903395,-0.107740775,0.6285073,-0.05591668,-0.082302645,0.1308705,-0.10403678,0.23794872,0.16408528,0.07490669,0.24892928,0.2776259,0.11835309,-0.029317364,0.2019033,-0.1748345,-0.05442661,-0.07268346,-0.44832197,-0.48497248,-0.027000723,0.03743138,-0.111075416,-0.072618656,0.39776886,0.2719834,-0.011935567,-0.048284274,0.06352468,-0.07553133,0.06589935,0.42675745,-0.012991214,-0.13289978,0.15511326,0.11314733,-0.1507918,-0.12543404,-0.23992433,0.090356395,-0.080740005,-0.25980714,-0.025206674,-0.17770597,-0.2861608,-0.15501644,0.15647705,0.21105152,-0.27537313,-0.1751626,-0.10033082,-0.2866646,0.0004273319,-0.13748536,-0.3444452,0.17082708,0.08222887,-0.08139489,0.13842091,-0.13573211,0.42489898,0.14592731,-0.20741108,0.16842145,0.37708643,-0.01663346,-0.28751558,0.3647092,-0.145998,-0.35732073,-0.055833794,-0.2983097,0.15362498,0.07901674,-0.33675712,-0.06481279,-0.031659923,-0.09904399,0.04234876,-0.08458164,0.014387053,-0.27475414,0.023189742,-0.2148968,-0.22354604,-0.06508834,-0.008848311,-0.14091511,0.10346113,-0.13598074,0.08675004,0.5149353,-0.11757274,0.33530176,0.27012786,-0.12537602,-0.1158401,-0.17852737,-0.18765625,-0.22650008,-0.20587896,-0.14885786,-0.14943895,0.105286576,0.20087829,0.023326382,0.109876595,-0.22838624,-0.008902865,-0.20174366,-0.20870312,-0.22528566,-0.35380092,-0.31821626,-0.0650434,-0.12853688,-0.09931316,-0.1401041,0.2368792,-0.2089307,-0.04888478,0.07021885,0.0041140346,0.29490462,0.03434314,0.22262754,0.05531289,-0.22823076,-0.014892278,0.16149083,-0.08993873,0.18137589,0.11848125,0.24229655,0.21176855,0.19029304,0.15065007,0.037233196,0.048964895,-0.27672446,-0.042148225,-0.13156505,-0.28108156,0.024049507,-0.035834745,0.0023646064,-0.0657035,0.21432361,-0.21621154,0.09536875,0.052680556,-0.109380364,-0.13826099,0.0766756,0.11186886,-0.27694783,0.102671504,-0.11952815,-0.22632322,-0.19680071,-0.15640004,0.14562978,0.29334936,0.29026547,0.22496144,-0.11334075,0.05204779,-0.20846981,0.20620495,0.20424521,0.05666367,-0.20831217,-0.106636696,0.20733212,-0.27901414,-0.20402491,-0.18502489,-0.05312329,0.027649548,0.1658965,0.2215041,0.2027601,0.2693837,-0.0053188847,-0.026998911,0.023116697,-0.19286683,-0.29040667,-0.102980494,0.09825702,-0.1328864,-0.016947273,0.2907282,-0.05519344,0.1476773,-0.03859587,0.037103485,0.026410721,-0.17785624,-0.08984346,-0.19016814,0.056012355,0.25271115,-0.14077562,-0.0817924,0.15929535,-0.21858576,-0.011341971,0.15675996,0.23225674,0.08052781,0.17557822,-0.009693334,-0.083968826,-0.43453205,-0.24128804,-0.20673607,-0.24641801,-0.062644094,0.0059865355,-0.23013069,-0.05870018,-0.19768964,-0.10956022,-0.02596689,0.10076475,0.19057989,-0.0041980348,0.17848594,0.37017113,-0.17346038,-0.03664443,-0.06164547,-0.16256271,-0.34432027,-0.22353742,-0.4674801,0.060408425,-0.17427099,-0.30475846,0.24255323,0.107335754,-0.3586796,-0.30100468,-0.39718112,-0.12979575,0.045625377,-0.25621405,0.04629571,-0.052788477,-0.019121151,-0.12503968,-0.2863282,-0.23979682,-0.09160007,-0.16144255,-0.23930022,-0.023819774,-0.18059573,-0.032452986,-0.11594953,0.021782845,-0.03461236,0.056711696,-0.006336055,-0.39215523,0.13536632,-0.23203649,-0.17387734,0.12698577,-0.14976855,-0.116140865,-0.011310211,-0.2209615,-0.20787491,0.026152292,0.06343149,-0.05948369,-0.086797625,0.07566569,-0.15066758,0.037443545,-0.0077680894,0.25795275,0.0760718,0.10061465,0.6646741,0.5169698,-0.08238075,-0.091213204,0.053444635,0.033146173,-0.11157511,0.104517974,0.035823874,0.024331892,-0.05167866,-0.08871013,0.032409016,0.08880289,-0.13516876,-0.29559037,-0.02747878,-0.29056916,-0.31389552,-0.2625387,-0.1333776,0.296467,0.2789476,-0.120539196,0.24348515,0.11281372,0.0155537715,-0.18981774,-0.12458218,0.18207514,-0.04708638,-0.09369195,0.23588711,0.1295474,-0.1427262,0.0808591,-0.040121485,-0.060861897,-0.055613253,0.036077064,0.01965754,-0.2548708,-0.084238805,0.04122915,-0.2802833,-0.06625551,-0.12288636,-0.13489464,-0.060077284,-0.030014327,0.34789762,0.10071497,0.111203074,0.27136284,-0.014629197,-0.097695984,0.14051345,0.28883755,0.0088967215,-0.10948082,0.18513778,-0.13220847,-0.03996252,0.16254278,0.21824637,0.029126331,-0.12431817,-0.3450602,-0.16105251,0.05007629,-0.4522349,-0.06867885,0.2182099,-0.25433373,0.018069971,0.21376488,0.050263427,0.10907855,0.3026214,-0.053514652,0.14940374,0.20217313,-0.12189908,-0.18189493,-0.15623042,0.20429847,0.019665996,0.21682718,-0.11893068,0.2228742,0.3046162,0.1900699,0.06706656,0.12415853,0.18223386,-0.1281202,-0.19308783,0.12965597,0.30947503,0.15373601,0.22324717,-0.08277698,0.40519077,0.08771333,0.017171055,0.22851051,0.16225791,-0.0840365,-0.16488105,-0.12872285,-0.27601987,0.09521061,0.047344856,-0.13201526,-0.25029057,0.04428542,-0.54615235,-0.10682603,-0.109250925,-0.06426459,-0.03240709,0.015867054,0.021860503,-0.1483744,-0.035910886,0.3831417,-0.08237974,-0.054858822,0.36768213,-0.20282972,0.028433198,-0.004223175,-0.19860363,-0.17891024,0.055447295,-0.03879836,-0.19972308,-0.11134095,0.16799602,0.14920218,-0.1998265,0.13431892,-0.10537987,-0.22695416,-0.32332915,0.07571249,0.09822434,-0.06980973,-0.14975871,0.12534997,0.16083376,0.09035382,0.22203827,0.101455696,0.07609576,0.007604357,-0.19100337,-0.0054001836,-0.11885389,-0.13809538,-0.32464796,-0.22580111,-0.19472034,-0.008041179,0.057256393,-0.2685907,-0.033706892,-0.14043577,-0.1009234,0.16586542,-0.046896964,0.4111482,0.043134697,-0.19099101,-0.24639219,-0.14284846,0.007530368,0.27260745,-0.06315079,0.09330908,-0.041832108,-0.15221938,0.10496098,-0.045216553,-0.19933715,-0.10961333,-0.0076180566,-0.2709874,-0.35389552,0.22297016,0.030331243,-0.1060091,-0.13954136,-0.41947463,-0.38333502,0.19992301,-0.24455933,0.22471827,0.30119875,0.047616635,0.21310242,0.05860675,-0.16144623,0.06529554,-0.06173631,-0.0038637382,0.03045589,0.25569424,0.008015176,0.05628931,0.07205993,-0.09357982,-0.17426,0.23829313,-0.28664267,-0.110107854,0.48982027,-0.10456168,-0.047387186,-0.08866607,-0.11579556,-0.050008334,-0.048144955,-0.313124,0.13023695,0.16699857,0.03928037,0.18459725,-0.2368785,-0.061385922,0.18251069,-0.34007397,0.035878126,-0.12377177,-0.41387838,-0.18245512,0.0077844737,0.07337999,0.184162,0.21546093,0.31196696,0.3454595,-0.037196204,-0.0134740705,0.1950236,-0.16159257,-0.11530916,-0.13154836,0.09128422,0.059836265,-0.040855307,-0.37561783,-0.22164787,-0.019833121,0.17647852,0.27333772,0.1926691,0.14469115,0.007056489,0.04666292,0.10232361,0.16946155,0.17255583,-0.1381977,-0.08743586,-0.12968382,-0.3759405,-0.12677501,-0.30837023,-0.0357314,-0.20554386,-0.1560779,-0.00784503,0.19250096,0.10048633,-0.19757052,-0.21933973,-0.0451463,-0.02997103,0.0056853397,0.29850775,-0.001764667,-0.13258229,0.092016086,0.0435394,-0.097138226,0.097231634,-0.060757086,0.18151984,0.33211556,0.10034944,-0.12892187,0.22470866,0.25832424,0.3106667,0.17042871,0.0706721,0.049880475,-0.024785,-0.087781444,0.16383661,0.12982027,-0.062411956,0.27817264,0.050620995,-0.15298685,-0.33139873,-0.48318082,-0.20198406,-0.14597023,0.052301604,0.15937456,0.13760744,0.122926,0.31721556,0.28562972,0.06069116,-0.089308634,0.21950829,-0.024634082,-0.07639067,-0.08110903,0.11858106,-0.12503259,-0.4338603,0.048812833,-0.026300631,-0.20573582,-0.056217503,0.25158504,-0.06836928,-0.23967461,0.19143885,0.03437629,-0.1592409,-0.106126264,0.110525176,0.061468627,0.2067509,-0.06542603,0.007142568,0.3103043,0.17846993,-0.06236019,-0.044773456,0.1177152,-0.14167172,-0.022614742,0.04350319,-0.2296793,0.06273755,0.006460245,0.15185222,-0.120784745,-0.10016437,0.07050974,0.08016354,-0.090955466,-0.046499286,0.20848759,0.10773967,-0.1204274,-0.05752417,-0.027089829,-0.041190982,-0.14664142,-0.06307338,0.080220364,-0.17536974,-0.16764294,0.2557732,0.0525567,-0.035932276,0.039564144,-0.084828265,-0.3841497,0.15477416,-0.26438454,-0.6030383,-0.080979794,0.19559333,0.13833898,0.23524345,0.34136355,0.14877746,0.2030952,0.069253065,0.5383404,0.0012522306,0.02847259,0.11918286,-0.07905171,-0.010407926,0.05164334,-0.2777113,-0.41612786,-0.6744074,-0.5204538,0.14037687,-0.027096517,-0.04619166,-0.08739939,-0.10982453,-0.20177886,0.07018044,-0.015637798,-0.03640469,0.032560423,-0.060025163,-0.18459126,-0.056709807,0.07583117,0.15663089,0.06381404,-0.09521489,0.34022585,-0.045251995,-0.0013846643,-0.0158317,0.06063811,-0.014693045,0.24647492,0.1720964,-0.16372693,0.022043074,0.08964315,0.16589722,0.23323949,0.02410741,0.05639773,-0.067870066,0.22996475,-0.025049834,0.10951229,-0.008518793,-0.023393009,-0.22639371,-0.10792763,-0.08649111,-0.1349393,-0.04739195,-0.039330497,0.045355823,0.15303044,-0.079785764,-0.020516062,-0.14301923,-0.09845013,-0.027221417,-0.118441924,-0.09779938,-0.1808572,0.21369833,0.06274037,0.11776339,-0.14863856,0.06647922,0.16093244,-0.2275897,-0.090805955,0.0069855265,0.056615587,-0.17361623,0.023031423,0.05166729,-0.09820727,-0.040129744,0.07341924,-0.07381544,-0.30734634,-0.17264827,-0.2141855,-0.117019154,0.09138104,-0.12457658,0.10688406,-0.10986807,-0.25571048,-0.17366004,0.15906134,-0.049396165,-0.054469794,-0.1913057,-0.02134454,-0.033980694,-0.18383688,-0.11673232,0.0015612079,0.18444866,0.08556442,-0.013021307,0.013769115,-0.016874623,-0.27675298,-0.24095978,-0.051177528,0.03971458,0.122409195,-0.15502715,0.04294964,0.010197816,-0.023235347,0.07743731,-0.018928476,0.104158126,-0.048741635,-0.18156785,0.077574514,0.12048555,-0.16504422,-0.18720648,-0.037061807,-0.06360979,-0.05780666,-0.011546979,0.0761714,-0.14779872,0.13224848,0.23973696,-0.033086777,0.3246018,-0.038428083,-0.024398832,0.13710923,0.13106039,-0.12933974,-0.5050907,0.16302967,-0.29793325,-0.25157377,0.04135795,-0.2638412,-0.06574462,0.10050477,0.077849984,-0.07361522,-0.06013049,-0.26257828,-0.2876763,-0.048566673,-0.21744823,-0.12499347,-0.19961599,-0.069169916,0.17948297,0.024258323,-0.122476384,0.03438597,-0.09652518,0.018802386,-0.1866971,-0.084725656,0.04218609,-0.0270175,-0.44430846,-0.030348636,0.090172276,-0.31080624,-0.06265903,0.02324763,-0.34486422,-0.18527044,-0.11156867,-0.2531288,-0.15070318,-0.36528233,-0.013847198,-0.006307558,-0.31843272,0.029984321,0.1779742,0.03229494,-0.11122837,3.579451e-05,-0.110562764,-0.08710405,0.13206413,0.008099372,-0.09869232,-0.051298577,-0.23337592,0.08281523,0.2476323,0.25683007,0.4398363,0.32905802,0.20543057,-0.049986757,0.24408561,0.20230986,-0.037072524,-0.028098026,0.1394812,0.016119352,0.03725415,-0.005252015,0.01965024,-0.039862797,-0.04191932,-0.26567093,-0.09374105,-0.06071612,0.2331413,-0.12128613,-0.071065865,-0.036573067,-0.0900744,0.16606085,-0.16653128,0.051603872,0.20920701,-0.17381737,0.11761022,0.0064617847,-0.17472611,-0.1091227,0.11097055,0.0681603,-0.08086066,-0.046894852,-0.12584332,0.04286317,0.070625946,0.1596126,0.08429749,-0.08101392,0.10565155,-0.20061928,0.19291918,0.4054493,0.30834302,0.22015035,0.14446373,0.12810345,0.0962491,-0.031514987,-0.033368316,-0.15691647,-0.2970398,-0.24120648,-0.34815365,-0.0582366,-0.22518708,-0.46152398,-0.037803695,-0.13404195,-0.38450423,0.12486647,-0.044247374,-0.124743484,0.052126907,-0.05464972,-0.039452646,0.11242134,0.08281475,0.060184754,0.049391065,0.012009126,0.007351828,0.07800885,-0.14402828,-0.014839422,-0.10758865,-0.27610737,-0.1382863,0.1727829,-0.2683963,0.11786941,-0.08014974,0.05045762,-0.05279769,-0.097623885,0.2158665,-0.06915781,0.15452603,0.24830624,0.20630904,0.11958161,-0.028488763,0.12994914,-0.010308098,-0.075292245,0.15971264,0.018756723,0.2672519,0.11502106,-0.103406616,0.035060488,-0.041849155,-0.047359336,-0.17357673,0.2909392,-0.10267735,-0.0092960065,0.094653636,-0.13874555,-0.061308015,-0.050635006,-0.22203158,0.015427745,-0.024207355,-0.4879622,-0.17698711,0.095940985,-0.04364685,-0.119136035,-0.002895037,0.073384866,0.06508425,0.122356996,-0.031043477,-0.0009332367,0.025733197,-0.32565168,-0.27817285,-0.0060879104,-0.32629767,-0.28838262,0.119820476,0.101467706,0.06995217,0.3213169,-0.18769833,0.017662285,0.18414675,0.09443689,-0.055575237,0.17195672,0.17241137,0.15447208,-0.08228364,-0.002441021,-0.13879803,0.052977514,-0.15746479,-0.2725322,-0.18570642,0.19751924,-0.22141027,-0.005716596,-0.020261498,-0.04457025,-0.05679392,-0.14650464,-0.079732426,0.028400242,-0.028955128,-0.059156284,0.14180593,0.06815525,-0.06928224,-0.10190323,-0.028638573,-0.27216396,-0.24907157,-0.2811109,-0.11561901,-0.03724988,0.12755974,-0.13361396,-0.025045622,0.16819453,0.04218793,0.29004425,-0.21308881,0.06938021,0.44358632,-0.20164138,-0.22903101,-0.4631125,0.1039393,0.0710193,-0.06517387,0.27750975,-0.066903755,-0.19287398,0.098102905,-0.19057168,-0.18199606,-0.18841663,0.004307073,-0.0662625,-0.014807123,0.04945073,0.20764509,-0.11546419,-0.17012359,-0.10810678,-0.17925037,-0.18469864,-0.054184757,0.22352742,0.25761032,0.15681969,0.09736471,-0.025342887,0.1330779,0.2922239,-0.04501373,0.31751075,0.34239763,0.12006633,0.15191016,0.021339802,-0.17530228,0.054609,-0.032118406,-0.10068251,-0.13997628,-0.09663069,-0.31630588,-0.1850025,0.2549602,0.23697154,0.20727412,-0.023247147,0.08082722,-0.041745093,-0.14446174,-0.05838031,-0.0035437988,-0.098604426,0.15449768,0.18704434,0.11187153,0.20173512,-0.16928253,0.19327775,-0.062335555,-0.1278272,-0.1937091,-0.17250542,-0.21398875,-0.019494954,0.116680086,0.091462545,0.12851533,0.08920104,0.15630342,-0.04348507,-0.007329795,0.0374331,-0.26202926,-0.1918971,-0.089501604,-0.1326542,-0.20509641,0.03392039,-0.0965949,-0.12813908,0.30858147,0.0975037,0.15582697,0.043474037,0.080684006,0.107586704,-0.01919018,0.4852929,0.089770995,0.2636156,0.16773008,0.32385418,0.16451195,0.20248407,0.28531197,0.08336633,-0.3124884,-0.1873905,0.01296147,0.07222794,-0.14574334,-0.13534252,0.21505792,0.212656,0.21943168,-0.17650883,-0.236882,-0.071632154,-0.3432669,-0.25172588,0.25886077,-0.023408886,-0.087457925,-0.10572821,0.021108177,-0.13505453,-0.083337635,-0.24587877,-0.21120171,0.06694095,0.006397582,-0.25640833,-0.10923931,-0.23159361,0.16499986,0.072882205,-0.4480235,0.04555722,-0.0106819635,-0.18220226,-0.4734082,-0.552911,-0.15773591,-0.32888424,-0.1958813,0.16753352,-0.16481699,-0.1250968,0.10088107,-0.16499878,-0.21297947,-0.15800345,-0.15536371,0.07287282,-0.17826253,-0.35286847,-0.37476394,-0.0018026851,-0.18706645,-0.12331344,-0.3472289,-0.53158325,-0.15692675,0.14248015,0.06185961,-0.13649411,0.6219427,0.096735105,-0.31481722,-0.06824375,0.05391054,-0.0860915,-0.028513046,0.26390544,0.14416999,-0.1180386,8.313366e-05,-0.0673967,-0.01920329,-0.15420373,-0.12991497,0.1791235,0.016805103,0.16891856,-0.02012029,0.303777,0.3920804,0.13547206,-0.36951616,-0.07183081,-0.06518992,-0.119463176,-0.5599206,0.055954717,-0.12095163,-0.21112595,-0.004639823,0.22698262,-0.104313955,0.28467757,0.0029943488,0.2713672,0.006950157,-0.40773785,-0.114848964,0.10341014,0.20226687,-0.19723019,0.06638483,-0.064167045,-0.08405164,0.19920143,0.12653255,0.07879742,-0.040632922,0.059438273,0.20477128,-0.12646875,-0.1587054,0.05225892,-0.10291481,-0.12535302,0.10649446,0.20701097,-0.32302094,-0.22901383,0.3350307,0.16120556,-0.0016510907,0.1498597,-0.14604278,-0.18661492,0.10475179,-0.19224684,-0.08310963,-0.035309464,0.02447761,0.087562546,0.057737067,0.36485872,0.07916598,-0.06202268,-0.07513939,-0.2892967,0.12973775,-0.2582376,0.04807865,-0.19818297,-0.119172536,-0.098157406,-0.22775394,0.095111094,0.15437454,0.035552282,0.1740469,0.12894554,0.12319819,-0.27504516,-0.30236632,0.18357374,0.5045078,-0.17335457,0.3715842,0.6146524,-0.10266793,-0.04523633,-0.097549446,-0.14226255,-0.019155724,-0.38490626,-0.23826037,-0.12092714,-0.1247158,-0.08967224,0.10599763,-0.073774174,-0.35815609,-0.19150184,0.3380029,0.6409282,-0.05673789,-0.094797835,-0.13897131,-0.11596492,-0.18063359,-0.04814528,-0.20318806,-0.12813774,-0.0155917015,-0.14942005,-0.075762294,0.031850982,-0.005100716,0.06908708,-0.46087196,-0.11988431,0.24841917,-0.1864605,0.09249891,0.19066778,-0.034649756,-0.0008740603,-0.1554888,0.021111008,-0.24768466,0.08237449,-0.1541677,-0.36994004,-0.3172673,-0.41072196,-0.42466056,-0.26439708,-0.1691705,-0.078932576,0.37704217,0.08766417,0.009467567,0.44224527,0.046896216,-0.052249122,0.029207036,-0.29898745,-0.32382503,0.06440442,0.34283447,-0.13486636,0.010776492,0.51892185,0.25695866,0.15492675,0.46940523,-0.49329606,-0.02531884,0.041672852,-0.5589514,0.3315568,0.25560865,-0.0029031897,-0.29966816,-0.22592252,-0.00048085616,-0.11625007,-0.16931531,0.27254274,0.0024535803,-0.037271827,-0.029554153,-0.1965484,0.0027079973,-0.15133592,-0.33546695,-0.16735494,-0.23917846,-0.12645198,0.2268218,-0.44920883,0.019573612,0.09989994,0.063977435,-0.041659623,-0.18772727,0.057325166,-0.0012288842,-0.2770594,0.05139784,-0.05958373,-0.14231288,0.05562502,-0.29783455,-0.0935068,-0.1055416,-0.13037732,0.10654035,-0.11550291,-0.23937796,-0.17978494,0.17192595,-0.0004125493,-0.1761497,0.13872842,-0.3851305,-0.15260991,-0.1770884,-0.1574381,-0.1843631,0.1850435,0.13365176,-0.13713163,0.041262444,0.042430654,0.40678963,-0.01657184,0.29232562,0.3043648,-0.22243966,-0.08394586,-0.38317147,-0.09673776,-0.08251818,-0.1479883,0.027291046,-0.29680243,-0.23181406,0.17211169,0.31902298,-0.20580591,0.117531225,0.091297604,-0.15485618,-0.07278147,-0.35305628,-0.059207406,-0.07243515,0.042241745,0.44981027,-0.18802898,0.2363416,0.36144537,0.059697352,0.048647873,0.18684822,0.049650583,-0.66516864,0.07302688,-0.14793007,-0.3129781,0.07956129,0.0010955401,-0.06744106,-0.118554056,0.078305535,0.19596012,-0.29596716,-0.3832516,-0.045317166,-0.15328124,-0.158164,-0.21001992,0.18892129,-0.16145796,-0.08933239,0.12736453,0.37707826,0.37401474,0.10457991,0.15906279,0.2115571,-0.2512734,-0.188573,-0.14116587,-0.19522427,0.053720444,-0.42613205,-0.31110424,-0.12162688,-0.36083966,0.0772379,-0.26163232,-0.061246205,-0.06539544,-0.2855313,-0.33639666,-0.21606892,0.15702766,-0.15750138,-0.22106197,-0.116794415,0.1615627,0.16577202,-0.2339891,0.09431724,0.3013291,-0.0802857,-0.06997724,0.089164235,0.052791446,-0.14277698,-0.06885614,-0.01791068,0.007114351,-0.31563044,0.047982994,-0.11219849,-0.407051,-0.07789636,-0.14088878,-0.08148482,0.17198698,0.07813059,-0.23307666,-0.075396925,0.2770836,0.3404941,-0.21215568,-0.19832295,0.20463863,-0.38952,0.15648717,0.26411632,0.049184617,-0.12585977,-0.2624986,-0.023641324,0.11220913,0.073273346,0.005931752,-0.16934943,-0.09940339,-0.17173734,-0.11833742,-0.176057,0.16517422,-0.3088361,-0.29774672,0.37328023,0.31563967,0.27542016,-0.099895656,0.02696882,0.02502139,-0.13719222,0.124364644,0.007799066,0.00856487,-0.038615957,0.0060398434,0.10328349,-0.13849299,0.019794589,0.0055020936,0.12954527,0.067162015,-0.03351022,0.18180452,0.09345045,0.01959918,0.06566797,0.07541249,0.10445381,0.18205586,0.070913985,-0.32557186,0.34067863,0.120477006,-0.17888403,-0.23839524,0.1387193,0.30485547,-0.13938002,-0.23314588,0.04486403,0.083435476,0.015248876,0.12565444,0.19593322,-0.02722377,-0.08679732,-0.15420341,0.048986908,-0.11057209,-0.2611235,-0.17968024,0.25362238,-0.21409404,-0.34284616,0.043576386,0.26674578,0.35991052,0.12338398,0.004484564,0.35000393,-0.07113741,-0.06936553,-0.16188918,-0.097170465,0.29628113,0.3351985,0.1049792,0.24412572,0.5662151,-0.14411686,0.036213953,0.1018129,-0.20093118,-0.2365699,-0.10858948,-0.21616347,-0.29020366,0.17484684,0.14070491,-0.12030389,-0.024172748,-0.3205715,0.12437277,-0.15842792,0.12332484,0.21683875,-0.1043187,-0.113380276,0.20391883,0.15872373,-0.038374964,-0.011474256,-0.23458928,-0.20809044,-0.07867684,0.39341286,-0.18252479,-0.09995994,0.17288,-0.15411577,0.00089310214,0.24794891,-0.043125626,0.029283423,0.2472162,0.2952963,-0.1063037,-0.2011706,0.09889786,-0.13152899,-0.4332923,-0.1573406,0.19683604,-0.09811747,-0.092548475,0.05315137,-0.45318967,0.15195888,-0.17856114,0.18469244,0.37220532,0.19421898,0.054318577,0.22614573,-0.073793285,-0.065954864,0.09208439,0.44211128,-0.10176156,0.21422243,0.33284244,0.14079465,0.11548749,-0.27104187,-0.14776374,0.0462188,0.4508209,-0.012146295,-0.16325404,0.04230386,-0.182207,-0.24135995,0.053278394,0.05886887,-0.27035642,0.27775812,0.23106219,-0.25713027,0.3561916,0.23354891,-0.19985127,0.4172562,0.48135385,-0.07258199,-0.24456269,-0.045283172,-0.23974031,-0.13341342,-0.14216709,0.028185427,-0.169766,-0.107809454,-0.07757296,-0.01263965,-0.2763428,-0.16065224,0.040446334,-0.06089999,-0.09554596,-0.07493755,0.06852877,0.09208872,0.03422619,0.22006246,0.0865434,0.056902368,-0.05465854,0.062474877,0.019838987,0.007860948,0.029082764,-0.32262743,-0.105895855,0.03884872,0.01875755,-0.18870695,-0.100322545,-0.15895145,0.08926352,0.02646975,-0.060270134,0.13285573,0.077759355,-0.07742728,0.043190412,-0.09036132,-0.11509528,-0.0319423,0.18564524,0.06913417,0.089592345,0.050917007,0.28176862,-0.03249302,0.13280694,0.10248731,-0.089740306,-0.009118645,0.16711472,0.09365756,0.11278666,0.0016719325,-0.26641846,0.04509543,-0.05395829,-0.1466547,0.10161754,0.009314339,-0.01745324,-0.013164836,0.02960662,-0.13089451,-0.019388827,-0.1011669,-0.19519208,0.3571391,0.1947721,-0.13022698,0.22066547,0.2811699,0.004310877,-0.090518996,-0.11196452,0.1969743,-0.03399574,-0.07491838,0.03745382,0.06300123,-0.29108605,-0.022479625,-0.1278,-0.018966123,0.012072126,-0.08240256,-0.30494317,-0.11481089,0.059824064,0.018528232,0.13883504,-0.053484835,-0.022547305,0.13699023,0.1975587,-0.23949343,-0.1338112,0.004443888,-0.23719217,-0.34391877,-0.2230217,0.0858178,0.03912115,-0.033480283,0.023825435,-0.06334173,0.15856925,-0.033419035,0.036062323,0.22859961,-0.06794329,0.1535023,0.039083086,-0.1217426,-0.19308937,0.004975319,-0.26518735,-0.30273864,0.19252057,0.11651527,0.06990536,-0.028065043,0.3874154,-0.06128034,-0.28409937,-0.102722876,-0.15740216,0.061172318,-0.3102981,-0.0027614683,0.06030978,0.01194914,-0.059286315,0.14626697,0.1462083,-0.15632522,-0.021448359,-0.0014526877,-0.09042315,0.06502974,0.13226011,0.1611031,-0.13388239,-0.010981671,-0.015289852,-0.07679207,0.18462615,0.19989358,-0.12696545,-0.09693581,0.17607245,-0.0017127999,-0.044268396,-0.078042336,0.09684288,0.082701884,-0.017195778,-0.14884184,-0.37256256,-0.16434725,0.015330116,0.009838551,-0.08434129,-0.15054762,0.2392313,0.20758887,0.037170555,0.10607812,0.21372753,0.008980721,-0.25419053,0.14048305,0.019804714,-0.31394836,0.06033461,0.11338603,0.2831499,0.09926367,0.009682016,0.37485602,0.5206167,-0.19043906,-0.1444978,-0.12989895,-0.075916916,0.33022675,0.1783096,-0.14087875,-0.15534525,0.10972559,-0.111039326,-0.026115356,0.31715685,0.0099661,-0.009235419,0.09527095,-0.08865563,-0.27158576,-0.15661511,0.065062,-0.21142858,0.10574147,0.1522219,0.046172682,-0.02908034,-0.32411513,-0.44069174,-0.54376376,-0.24986988,-0.17780498,-0.10040164,0.017095573,-0.10560241,-0.079744674,-0.05319908,-0.31987318,-0.07122691,-0.0749191,0.07735745,0.118983716,-0.14243001,0.033317667,-0.060298484,-0.013268149,0.051514655,-0.1912808,-0.056484517,-0.004716991,-0.13138469,-0.06093521,-0.17628027,0.08499823,-0.050463457,0.039125443,-0.23455401,-0.055256642,0.23977892,0.008493518,-0.08971438,-0.046872545,-0.07688328,-0.18852223,0.23554967,0.023759007,0.17112689,0.25434726,-0.03834201,-0.16934004,0.1052141,0.24195845,-0.256824,0.036430597,0.1434608,0.16856636,0.07488463,0.027967658,-0.10064577,0.027351426,-0.0628541,-0.08431349,-0.29406017,-0.10272466,-0.10629518,-0.15078396,-0.013078651,-0.11288432,0.11478019,0.20159125,-0.25709262,-0.04532864,-0.07674469,-0.1285898,0.10293053,-0.20519468,-0.2757674,-0.16919817,-0.0827094,-0.00939639,-0.06341439,0.14309195,0.050702266,-0.03626018,0.19291529,-0.0476254,0.2974403,0.16432346,0.0030316464,-0.12287638,-0.34669945,0.08586861,0.008854227,-0.21338634,0.019226862,-0.04489708,-0.07129605,0.15237059,-0.00488104,-0.029498294,0.052827332,-0.022643935,-0.18010864,-0.08532004,-0.09938181,-0.086701766,-0.14219269,-0.085550584,-0.059609603,-0.3133384,-0.05248503,-0.13302703,0.23746932,-0.18992881,0.07057271,-0.15200374,-0.18129425,-0.15468869,-0.2184295,-0.3134638,-0.21045808,0.055358656,-0.10152875,-0.15484852,0.011125421,-0.25638902,-0.16522662,0.08231266,0.020949678,-0.05074288,-0.05709547,0.20798129,-0.0020175113,-0.2419403,0.17162153,-0.08738144,-0.07614265,0.31034115,0.06262668,0.2511605,0.2718748,0.16982499,0.035489663,0.20096706,-0.005954013,0.121383145,0.036693495,-0.10387958,0.08955843,0.0013982002,-0.038760293,0.036564715,0.09500874,-0.10703814,-0.15258627,0.21664548,-0.033406265,0.03517076,0.20158099,0.06896676,0.07922899,0.26789728,-0.05137108,-0.100098066,0.35078147,-0.049488217,-0.2192435,0.039656695,-0.20995472,0.066529885,-0.16011712,-0.028129907,-0.1340826,-0.15327783,-0.1017276,-0.15375407,0.038254224,0.14217168,0.017157352,-0.18244083,-0.0663933,-0.112071924,-0.24948068,-0.014385813,0.15281177,-0.17463139,-0.11071546,0.33204642,-0.092603065,-0.08248624,-0.008679156,0.05343201,-0.12869014,-0.25325117,-0.033740733,0.025072983,-0.3005719,-0.1880215,-0.048074942,-0.011349985,0.043456364,0.008494877,0.1603966,0.16422409,0.16238017,0.0009709951,0.036390238,0.041656826,-0.08720654,0.15999126,0.11235867,-0.015976973,-0.1726517,0.093776755,-0.12634532,0.28758505,0.6190865,0.24203223,0.31409788,0.4176643,0.21337394,0.18553708,-0.14810033,-0.08648998,0.0643378,-0.13112569,0.05727558,0.22628903,0.038187295,-0.12138824,-0.17095372,-0.22555971,-0.23230113,-0.2308675,-0.18999307,-0.023402706,-0.10557846,0.11896919,-0.10349736,-0.17296636,-0.13707463,-0.030850466,-0.0312493,-0.1308695,-0.12142861,0.21262372,0.101418674,0.10921886,0.12697345,-0.15353744,0.04879114,-0.061496288,-0.07302146,0.051151548,-0.17354137,0.030621445,-0.22022314,0.032883447,-0.06855327,-0.051834125,-0.11572266,0.013524208,-0.18314968,-0.24309248,0.06259704,0.19792879,-0.014516741,0.010377693,0.11412716,-0.17418185,-0.22392058,-0.089964814,-0.051962018,-0.18464686,0.027321316,0.10963786,0.077473916,0.059987627,-0.08659363,0.084802225,-0.051318776,-0.13403875,0.048409346,0.04868958,-0.05574757,-0.14705104,-0.043765016,-0.21897393,-0.11748824,-0.40274146,-0.07447202,-0.2199035,0.0834877,-0.017420031,0.103524946,-0.031432785,-0.09972477,-0.022583878,-0.094717555,-0.22410083,-0.039079405,0.16148329,-0.05289697,0.122955196,0.036008764,-0.11619467,0.20214804,-0.12669222,0.006735621,0.14915313,0.31054732,-0.0976796,0.15396975,-0.29111716,-0.100465484,-0.08831384,-0.0740549,0.20896874,0.008884778,-0.2767982,-0.3578583,0.15699165,-0.06536514,-0.080819264,-0.12137964,0.007410343,-0.09957301,-0.06015585,0.018917754,0.06995859,0.08175528,-0.07637038,-0.10663098,0.021226307,-0.20836553,0.22133124,0.08753549,0.0059191277,0.071326606,0.032786954,-0.17583933,-0.23521419,-0.036672324,-0.15600426,-0.33623895,-0.23744187,-0.09622883,0.12862426,0.11399219,-0.26278916,0.009730205,-0.024572428,-0.026363585,0.1583394,-0.21607107,-0.12202171,0.014423224,-0.04831323,0.024091575,0.34739342,0.36210907,-0.36568248,0.27946022,0.21466044,0.058154084,-0.0024581521,-0.24516961,-0.1460349,0.08085314,-0.30858457,0.06011874,0.22095482,-0.05908638,-0.0,-0.0,0.0,0.0,-0.0,0.0,0.0,0.0,-0.0,-0.0,-0.0,0.0,-0.0,0.0,-0.0,0.0,-0.0,-0.0,0.0,0.0,0.0,0.0,-0.0,-0.0,-0.0,-0.0,-0.0,0.0,0.0,0.0,0.0,-0.0,-0.0,0.0,0.0,-0.0,0.0,-0.0,-0.0,-0.0,-0.0,0.0,-0.0,0.0,0.0,0.0,0.0,-0.0,0.0,0.0,0.0,0.0,0.0,0.0,0.0,0.0,-0.0,-0.0,-0.0,0.0,0.0,0.0,0.0,-0.0,-0.0,-0.0,0.0,-0.0,-0.0,-0.0,0.0,0.0,0.0,0.0,-0.0,0.0,0.0,0.0,0.0,0.0,0.0,0.0,-0.0,-0.0,0.0,-0.0,-0.0,-0.0,0.0,-0.0,0.0,-0.0,-0.0,-0.0,0.0,0.0,-0.0,0.0,0.0,-0.0,0.0,0.0,0.0,0.0,-0.0,0.0,-0.0,-0.0,0.0,0.0,0.0,0.0,0.0,0.0,-0.0,0.0,0.0,0.0,-0.0,-0.0,0.0,-0.0,-0.0,0.0,0.0,0.0,0.0,0.0,-0.0,-0.0,-0.0,0.0,-0.0,0.0,-0.0,0.0,0.0,0.0,0.0,0.0,-0.0,0.0,0.0,-0.0,-0.0,0.0,0.0,0.0,0.0,0.0,-0.0,-0.0,0.0,0.0,0.0,0.0,0.0,-0.0,-0.0,0.0,-0.0,-0.0,0.0,-0.0,-0.0,0.0,-0.0,0.0,-0.0,0.0,0.0,0.0,-0.0,-0.0,0.0,0.0,0.0,-0.0,0.0,0.0,-0.0,-0.0,0.0,-0.0,0.0,0.0,0.0,0.0,0.0,-0.0,-0.0,-0.0,-0.0,0.0,0.0,0.0,0.0,0.0,0.0,-0.0,0.0,0.0,0.0,0.0,0.0,0.0,-0.0,-0.0,-0.0,-0.0,-0.0,0.0,0.0,0.0,0.0,0.0,-0.0,-0.0,0.0,-0.0,0.0,0.0,0.0,-0.0,0.0,0.0,0.0,0.0,0.0,0.0,0.0,0.0,-0.0,-0.0,-0.0,-0.0,0.0,0.0,0.0,-0.0,-0.0,-0.0,-0.0,-0.0,-0.0,0.0,0.0,0.0,0.0,0.0,0.0,0.0,-0.0,0.0,-0.0,-0.0,0.0,0.0,-0.0,0.0,0.0,0.0,0.0,0.0,-0.0,-0.0,0.0,0.0,-0.0,0.0,0.0,0.0,0.0,0.0,0.0,0.0,-0.0,0.0,0.0,0.0,0.0,0.0,0.0,0.0,-0.0,0.0,-0.0,-0.0,-0.0,0.0,0.0,-0.0,-0.0,-0.0,0.0,-0.0,-0.0,0.0,-0.0,-0.0,-0.0,-0.0,0.0,0.0,-0.0,-0.0,-0.0,-0.0,-0.0,0.0,0.0,0.0,0.0,-0.0,-0.0,0.0,0.0,0.0,0.0,-0.0,-0.0,0.0,-0.0,-0.0,0.0,-0.0,0.0,0.0,0.0,-0.0,-0.0,-0.0,-0.0,0.0,-0.0,0.0,-0.0,0.0,-0.0,-0.0,-0.0,-0.0,0.0,-0.0,0.0,-0.0,-0.0,-0.0,0.0,0.0,-0.0,0.0,-0.0,-0.0,0.0,-0.0,0.0,-0.0,0.0,0.0,0.0,-0.0,0.0,-0.0,0.0,0.0,0.0,-0.0,0.0,0.0,0.0,0.0,0.0,0.0,-0.0,0.0,0.0,-0.0,0.0,0.0,-0.0,0.0,0.0,0.0,0.0,0.0,0.0,0.0,0.0,0.0,-0.0,0.0,0.0,0.0,0.0,0.0,-0.0,0.0,0.0,0.0,-0.0,0.0,0.0,0.0,-0.0,0.0,-0.0,0.0,0.0,0.0,0.0,-0.0,0.0,0.0,-0.0,0.0,0.0,0.0,0.0,-0.0,0.0,-0.0,-0.0,0.0,0.0,-0.0,0.0,-0.0,-0.0,-0.0,-0.0,-0.0,-0.0,0.0,0.0,0.0,0.0,-0.0,0.0,-0.0,0.0,0.0,-0.0,-0.0,0.0,-0.0,-0.0,0.0,0.0,0.0,-0.0,0.0,0.0,-0.0,-0.0,-0.0,0.0,0.0,-0.0,0.0,-0.0,-0.0,-0.0,-0.0,-0.0,0.0,0.0,-0.0,0.0,-0.0,0.0,-0.0,-0.0,0.0,0.0,-0.0,0.0,0.0,-0.0,-0.0,0.0,0.0,0.0,0.0,0.0,0.0,-0.0,0.0,-0.0,0.0,-0.0,0.0,-0.0,-0.0,-0.0,0.0,0.0,0.0,0.0,0.0,0.0,-0.0,0.0,0.0,-0.0,-0.0,-0.0,0.0,-0.0,-0.0,-0.0,-0.0,0.0,0.0,0.0,0.0,-0.0,0.0,0.0,-0.0,0.0,0.0,-0.0,-0.0,0.0,-0.0,-0.0,-0.0,-0.0,0.0,-0.0,0.0,0.0,-0.0,0.0,0.0,-0.0,-0.0,0.0,0.0,0.0,0.0,0.0,0.0,-0.0,-0.0,0.0,0.0,-0.0,0.0,0.0,-0.0,0.0,0.0,0.0,0.0,-0.0,0.0,0.0,-0.0,0.0,0.0,-0.0,0.0,-0.0,0.0,0.0,-0.0,0.0,-0.0,-0.0,0.0,-0.0,-0.0,0.0,0.0,0.0555994,0.13555473,0.10475296,-0.02285086,0.06895546,0.18979692,-0.004362704,-0.31042796,-0.022992184,-0.22262786,0.04779422,0.25526544,0.0058764536,0.054910637,-0.006812261,0.13246799,0.107545145,-0.052951753,-0.2314715,-0.34599534,-0.39514104,0.006554034,-0.1200391,-0.028079178,0.3234396,0.2560534,0.0032582048,0.05412827,0.061429903,0.045848515,0.074587025,-0.24970332,-0.019964831,0.21774901,-0.077317044,0.17744954,-0.056890257,-0.23515913,-0.0002236758,0.109197065,-0.05551403,-0.10945016,0.068024896,-0.005029467,-0.23671761,-0.14261636,0.1465193,0.21522912,0.16935343,-0.0324909,0.08336182,-0.061398845,-0.14775333,-0.11838174,0.13815904,0.3938014,0.40379506,-0.13610516,0.35526046,0.17324004,-0.35694736,-0.31349123,-0.08774534,0.088619426,-0.06321887,0.032847587,-0.07072875,-0.036849435,0.045021623,-0.037472166,0.030866807,0.06616785,0.06435308,-0.011364874,-0.1601389,0.22597378,-0.021837678,-0.4291012,-0.06222103,-0.37766027,-0.29277325,-0.39752996,-0.17340304,-0.21038368,-0.28684154,-0.22595362,-0.29938617,-0.17845555,-0.08981785,-0.17543177,0.07431594,-0.16978425,-0.12935448,0.0007042493,0.071007095,-0.07377523,0.082015306,0.028244484,-0.15056168,0.021025134,0.029330743,-0.014589725,0.17190665,0.43009323,0.11767388,0.022318257,0.045876354,-0.119123645,0.26369005,0.13378826,0.029514667,-0.07678795,0.081965245,0.07488394,-0.034612827,0.10634712,-0.11230715,-0.33247745,-0.07970996,-0.32361084,0.05023522,0.12241476,-0.06281084,0.0773226,-0.18067707,0.059955988,0.051364016,0.047562156,0.13430744,-0.03253818,-0.17722295,-0.023490176,-0.27298003,-0.067224495,-0.023518577,0.21594413,-0.19193354,-0.14180462,0.14396504,0.23508474,0.1660366,0.024986004,-0.12566814,0.22187263,0.0465007,-0.056451835,-0.050275788,0.015976703,-0.065965295,-0.14217491,-0.019690637,-0.27903852,-0.3984677,0.084334984,-0.10597927,0.042526726,-0.1434845,-0.046589155,-0.12834993,-0.21417348,-0.0422468,-0.12555225,-0.026701765,-0.084134094,0.123242676,0.1121278,-0.19409725,0.15948658,-0.15363492,-0.25496718,-0.09619256,0.30179727,0.31916383,0.15132046,0.028937375,0.23617278,0.16295698,-0.018673109,-0.31986928,-0.07007572,0.04968375,0.23615192,0.029359147,-0.012430217,0.41484562,-0.17893627,-0.13113709,0.045026224,-0.0659288,-0.17785208,-0.025798522,-0.09102861,0.0613433,-0.05968388,0.09896956,-0.17035703,-0.1637444,0.1095601,-0.1036536,0.017982807,-0.17138001,-0.339115,-0.287552,-0.08607682,0.018183133,-0.014178319,0.30316752,-0.08096699,0.07899804,-0.061062768,0.018978035,0.28967795,0.03043337,-0.1774501,-0.020268269,-0.20000166,0.15901403,0.13055322,-0.1910224,0.14730324,0.3339475,-0.12643091,-0.014085088,-0.053381953,-0.15502118,0.020128496,0.0030485534,0.20202114,-0.10441436,0.23658007,0.22696316,-0.03801116,-0.01198967,0.0069213957,-0.2734483,-0.21060877,0.13653246,0.19298126,0.10331534,0.12723483,-0.076800205,0.098077066,0.039283216,-0.07568221,0.23685898,-0.2471393,-0.019838657,-0.10332348,0.006816442,0.09817175,-0.11049507,0.33260393,0.06203089,-0.19204383,-0.12648003,-0.11395431,-0.027499832,0.25514016,0.039918963,0.013832498,-0.04093867,-0.044275757,-0.14732304,-0.063038714,0.05551367,-0.12441951,-0.26398826,-0.024217866,-0.23892541,-0.048908703,-0.122329734,-0.18884602,0.0832965,0.062198192,0.18351665,0.20832181,0.034868687,0.1075217,-0.0508363,0.11681474,0.16776778,-0.31134814,-0.12404308,-0.06354287,0.092891715,-0.109415695,-0.021214018,0.038774613,0.21611635,0.031202814,0.034134883,0.009039952,-0.15419039,0.017599225,-0.052745327,-0.17801532,0.1275151,-0.13145675,-0.17892429,0.07203147,0.03809797,0.19886188,0.17493877,-0.1432255,-0.2857796,-0.026268354,-0.09292462,0.28388077,-0.06352488,0.25406787,0.05096814,-0.07494124,-0.07704692,-0.22931199,-0.17164174,-0.19637927,-0.18067218,-0.3669883,-0.18705061,-0.3149697,-0.2235089,-0.034334533,0.25814313,-0.04224037,-0.15118994,0.058083612,0.25115147,-0.29726797,-0.08829596,0.014948731,-0.06694526,-0.16161062,-0.084609464,-0.07202669,-0.06318323,-0.14220299,-0.22591193,0.25282395,0.2263331,-0.14176072,-0.016338667,0.15799181,-0.37000793,0.030258087,-0.05860658,-0.17744806,0.02932639,0.11508087,0.05222839,-0.055881016,0.14754055,-0.018622197,0.12801993,-0.08948178,0.024894858,0.31958726,0.28687114,-0.21455756,-0.2761686,-0.1791984,-0.036299367,-0.2451819,0.12795489,0.074012294,0.34598258,0.26818433,0.2848485,0.15241101,0.2480525,-0.09053924,0.08259733,-0.37349978,-0.32790926,-0.10407464,-0.06294926,-0.14197831,-0.14657435,-0.053511366,0.13253255,0.064673096,0.1706997,0.14494997,-0.15222147,0.15416306,0.15535559,-0.009034718,0.0037374075,-0.13184485,0.15413639,-0.11300211,-0.20079118,-0.21306524,0.11232126,0.03401516,-0.0047335853,-0.18462676,0.12791884,0.09365936,0.029688673,-0.0029338805,0.08137706,0.049865432,0.04938215,-0.0581226,0.17622511,0.17369705,0.23496942,0.2777338,0.3252785,-0.058710698,0.020517534,-0.21459155,-0.30170256,-0.20244806,0.12064828,0.22304392,-0.010419247,0.17013283,0.2198444,-0.028136546,0.12794358,0.11552234,-0.07886754,0.24944404,0.09861853,0.0035873326,0.08342347,-0.024238523,0.06727065,0.102373645,-0.051610425,-0.042115126,0.018082196,0.12595731,0.011199732,0.0665937,0.46935707,-0.08683849,-0.06774573,0.053872455,0.14062925,-0.17088892,0.4412912,0.09489812,0.17242509,0.046017047,0.13933961,-0.10639933,-0.26229554,-0.2971673,-0.061390515,0.20812011,-0.039909568,-0.062239587,-0.13302742,-0.18736912,-0.043674096,-0.17109762,0.004838006,0.10853351,0.098239,-0.045434717,0.07799708,0.22141136,-0.076002665,-0.15567592,0.04729294,-0.031966735,0.08681989,-0.041973602,0.10845445,0.3006721,0.17776415,0.101951376,0.041875623,-0.021271827,0.16465907,-0.23034914,0.0008744678,0.11306465,0.045411937,-0.03881122,0.12754065,0.16275802,0.124495134,0.1541834,-0.015529435,0.13397233,0.27214384,0.12194423,-0.1221466,0.048716694,0.09253527,-0.3745748,-0.21423776,-0.07897255,-0.17389327,0.03816186,0.18595427,-0.07262432,-0.1827308,0.06888498,-0.013206539,-0.21387808,0.17397334,-0.0729617,0.2556042,0.0398695,-0.057148412,0.3264109,0.0031797255,0.2698908,-0.076576315,-0.119796336,-0.096006125,-0.32741076,0.2621487,-0.233959,-0.15782225,0.00463175,0.18760435,0.044635434,0.14350043,0.28305924,-0.10608803,0.04909381,-0.20989594,-0.27564833,0.02514506,-0.100583136,-0.09415503,-0.18518487,-0.37066394,-0.10837022,-0.13332371,-0.18590991,0.13640931,-0.1643535,0.19382195,0.150857,0.01231268,-0.15931644,0.046897814,0.0052155564,-0.056737497,0.019818809,0.06830364,0.0061336774,0.13169168,0.08014683,0.13161407,0.17907423,0.22746798,0.20848769,0.10581934,-0.14682831,0.109013066,0.07121443,0.18481095,-0.049790725,-0.026085455,-0.17613427,0.0049719885,-0.11247004,-0.12455808,-0.28704298,-0.1666051,-0.028146498,0.016057733,0.0036660063,0.011173324,-0.11246079,0.21078019,0.13124304,0.2946122,0.3078953,0.08378589,0.078210615,-0.022153921,0.18060134,0.053170316,-0.04421669,0.04267867,0.052647468,-0.15020718,0.03004673,-0.02251902,-0.12177181,0.12505606,-0.20068264,-0.23755828,-0.022571836,-0.1114527,-0.2038685,0.30293146,0.17214514,0.17319387,0.16271739,-0.22341,0.038346685,0.08434525,0.118724585,-0.2474456,-0.035731547,0.046051398,0.1539767,0.03858207,0.050161928,0.08791681,0.3278977,0.1254281,0.1945817,-0.1961239,-0.05654726,0.16489018,-0.042812895,0.054128047,0.15760042,0.16117743,0.056561936,0.039286487,-0.016110698,0.12582101,-0.14939682,0.09154968,0.13444722,-0.05480966,0.15541436,0.105820626,0.15736702,-0.0081108855,-0.042173218,0.0112666255,0.014024163,0.19546705,-0.14393032,0.11497275,-0.057048146,-0.33582196,-0.078273,0.07608306,-0.0066754157,0.085298955,0.15420382,0.22544284,-0.013015661,-0.072597936,0.043161113,-0.16496788,-0.15235877,-0.14546847,-0.15546662,0.07624683,-0.027712576,-0.06438476,0.32548317,0.10953742,0.01606907,-0.111741744,-0.034542844,-0.029245837,-0.05299047,-0.033799414,0.15172243,0.14804578,0.24370311,-0.13811222,-0.18606803,-0.2653597,-0.096046664,-0.1158156,-0.24769126,-0.12945744,-0.09119291,-0.06819785,-0.056809966,-0.09884596,-0.029157257,0.17138806,-0.05200516,-0.14121832,0.023099458,-0.13383831,0.12905258,0.08631692,-0.038293544,0.067297235,0.0012074921,0.0021453449,-0.0066528744,-0.25057766,-0.2088008,-0.022620497,-0.003919278,-0.12120485,0.005418945,-0.41195315,-0.22969824,-0.027395979,0.024908429,-0.29038242,-0.040101282,-0.015494307,-0.21755868,-0.07447399,-0.0068412917,-0.006265234,-0.028573152,-0.30120522,-0.03892808,0.11163871,-0.018590929,0.0883108,0.16480546,-0.028168902,0.34989324,0.26382858,0.21493761,0.23221083,0.20449314,-0.0015145695,0.06493653,0.084804654,0.028949779,0.019687532,-0.09708158,-0.11001376,-0.071339145,-0.038462672,0.013255916,0.052247714,0.0069751753,-0.1187186,-0.058376,-0.11596396,-0.07122192,-0.16756076,-0.12566735,-0.15594205,-0.1507729,-0.06086972,-0.029971931,-0.04924338,0.16691701,-0.055215213,0.12047537,0.14129923,-0.18458734,0.07107264,-0.065898366,0.068962045,0.09728285,0.17595288,-0.019736642,0.10341116,0.11057009,0.01292736,0.010456944,-0.10005947,-0.056734435,0.011707774,0.06899687,-0.014123659,0.15709293,0.21749832,-0.2345021,0.02619331,0.04311514,-0.17375761,0.1804305,-0.03094106,-0.074121386,0.12460166,0.08944946,0.14034785,-0.06622975,0.032018222,0.02494062,-0.020499976,-0.2650889,0.010273497,-0.072883934,-0.18606448,-0.023731466,-0.14535442,-0.29716337,0.23465504,-0.17128792,-0.13184601,0.15815382,-0.03243744,0.0067892564,-0.12200995,-0.048588444,-0.17302118,-0.13367689,0.15575324,-0.093101785,-0.18543726,-0.023102572,0.17588355,-0.090859465,0.1134259,0.02664113,-0.08719566,0.3286403,0.22322369,0.12987831,0.15729634,0.017089201,-0.090732045,0.013060824,-0.041476496,0.15681408,-0.024442675,0.03703969,0.12607735,-0.23604472,0.06651385,-0.13099392,-0.14547078,-0.057789516,0.15138945,0.027145226,-0.074219234,-0.10814029,-0.0005671662,-0.2713862,-0.046563376,-0.028774504,-0.12731469,0.020773003,0.22450739,-0.06279338,0.07758436,0.06981401,-0.31656745,-0.1094572,0.20435065,-0.020192092,-0.15543891,0.23657674,0.36487523,-0.02901679,0.17708288,0.27274552,-0.029789966,0.119299814,-0.15183736,-0.17010485,-0.02693087,-0.14608991,-0.03864874,-0.005475593,-0.08636333,0.17539014,0.17885879,0.17195755,0.054200448,-0.059290364,0.024734914,-0.01085568,-0.16061452,0.112721354,-0.060345836,-0.25084642,-0.3490796,-0.18898316,-0.2898309,-0.26301017,-0.118838176,-0.28119016,0.0074930442,-0.09648069,0.056047175,0.029995428,-0.24321829,0.17094377,0.14010055,0.08716903,0.16445658,0.13820252,0.10076578,-0.00081437355,0.0025125335,0.20674323,0.2183327,0.030081192,0.053741947,0.16506466,0.06323913,0.046103258,0.2833109,0.23711056,0.21384001,0.16322203,0.1167237,-0.033433184,-0.08926956,0.012658897,0.22892252,0.10028231,-0.021428833,-0.11400004,0.055265006,-0.1329274,-0.020307755,-0.028499888,-0.18564884,-0.028430734,0.0041258093,-0.06367725,0.13538279,0.018251117,0.16330022,0.15541212,0.12339549,0.026064878,0.08492898,0.1156559,0.1509332,0.07165643,0.23949105,-0.018359216,-0.09757521,-0.07885528,-0.1907879,-0.015126794,-0.10744109,-0.2773772,0.16595231,0.10282408,0.0012474197,0.11529603,0.27589273,0.23756614,-0.114525765,-0.072531745,-0.109742664,-0.15340608,-0.10026011,-0.07758514,-0.3063118,-0.08221771,-0.053183075,0.05982038,-0.042017642,0.32300138,-0.03796329,0.044973657,0.12700282,-0.04318881,-0.18202688,-0.18784459,0.011433321,0.06478876,0.02933291,-0.031646587,0.19713728,0.030631224,-0.2451646,0.39775097,0.12486299,-0.27122363,-0.17496438,-0.030041428,-0.036485374,-0.10701466,-0.15326889,-0.1567052,0.054721724,0.036757883,0.036556486,-0.101293564,-0.26902482,-0.2541642,-0.046523806,-0.047557287,-0.13300927,-0.066357784,0.14424098,-0.11794849,-0.0020066693,-0.046215642,-0.042309947,-0.14889932,0.008371823,0.24764213,0.17665629,0.14778353,-0.02978204,-0.010060088,-0.17723793,-0.02110983,-0.16643672,-0.1495126,-0.3632954,-0.24842143,0.029152716,0.18351604,0.10930873,0.043017615,0.055367436,-0.025639571,-0.12888458,-0.15216154,-3.7080303e-05,-0.07417789,0.032144308,0.12746309,0.2419437,0.00606589,-0.07340463,-3.492924e-05,-0.23208924,-0.073421784,0.2770047,0.024862742,0.20629112,0.09739894,0.04821769,-0.037181925,-0.04166631,-0.121849865,-0.06824072,-0.051825102,0.048083298,0.04770035,-0.083207056,0.13140732,-0.15295435,0.03228307,-0.1222119,-0.25758588,-0.087192975,-0.04397454,-0.17619641,0.05600277,-0.18777655,-0.23581971,0.011106191,-0.036866963,-0.111948825,-0.053125415,-0.0069275787,0.047367547,0.047933064,0.10506777,0.01198942,-0.18074423,0.048517507,-0.10955096,-0.107573666,-0.06917626,0.052294496,-0.027709048,-0.12928115,0.15053144,0.13615239,-0.054128032,-0.16137598,0.033471506,0.082874976,0.08331755,0.03497613,0.08584899,0.025262054,0.07502784,-0.0062850323,-0.06253755,0.19352733,-0.057526607,-0.002312526,0.009363632,-0.05414035,-0.06427598,-0.05797595,0.014976656,0.10925438,0.1245783,-0.06322126,-0.01570852,-0.031204816,-0.18828644,-0.11898061,-0.16766477,-0.2390453,-0.041634895,-0.2588946,0.08699929,-0.027045406,-0.11314929,-0.01976232,-0.25095177,-0.33929545,-0.13512559,0.15671319,-0.04718181,0.011024191,0.02380752,0.12584162,-0.11022688,0.0017109737,0.04321304,-0.0905476,0.1262155,0.104298465,-0.23224644,-0.31427026,-0.034674454,-0.007863051,-0.08697375,0.03066193,0.16783184,-0.118879244,-0.25116056,0.041218277,0.20673108,0.053764652,-0.081536,0.059655283,-0.08291048,-0.18384801,-0.10333187,-0.15709002,-0.10130892,-0.2735922,-0.18257251,-0.0886694,0.0017856166,0.06721101,0.19236583,0.18657008,0.33156404,-0.11761708,-0.09087929,-0.0113675045,-0.08586869,0.110606305,0.023974529,-0.010247002,-0.023427734,-0.15463069,-0.0120983245,0.06556893,-0.07658845,0.28502357,0.37614307,0.24969213,0.15261492,0.13095288,0.0748679,-0.0,-0.0,-0.0,0.0,0.0,-0.0,0.0,0.0,0.0,-0.0,0.0,-0.0,-0.0,0.0,-0.0,0.0,0.0,-0.0,0.0,-0.0,0.0,0.0,-0.0,0.0,0.0,-0.0,-0.0,0.0,-0.0,-0.0,-0.0,-0.0,0.0,0.0,0.0,-0.0,-0.0,-0.0,-0.0,-0.0,-0.0,0.0,0.0,0.0,-0.0,0.0,-0.0,-0.0,0.0,-0.0,0.0,0.0,-0.0,-0.0,-0.0,-0.0,-0.0,0.0,0.0,-0.0,0.0,0.0,-0.0,0.0,0.0,0.0,-0.0,-0.0,-0.0,0.0,-0.0,-0.0,-0.0,0.0,-0.0,-0.0,-0.0,-0.0,-0.0,0.0,-0.0,-0.0,0.0,0.0,0.0,-0.0,0.0,-0.0,0.0,0.0,-0.0,0.0,0.0,-0.0,0.0,0.0,-0.0,0.0,0.0,0.0,0.0,0.0,-0.0,-0.0,0.0,-0.0,0.0,-0.0,0.0,0.0,0.0,-0.0,0.0,0.0,-0.0,0.0,0.0,-0.0,-0.0,-0.0,-0.0,-0.0,0.0,-0.0,0.0,0.0,-0.0,-0.0,-0.0,-0.0,0.0,-0.0,0.0,-0.0,-0.0,-0.0,-0.0,-0.0,-0.0,-0.0,0.0,0.0,0.0,-0.0,-0.0,-0.0,-0.0,-0.0,0.0,0.0,0.0,0.0,0.0,0.0,-0.0,-0.0,-0.0,-0.0,0.0,-0.0,-0.0,0.0,-0.0,-0.0,-0.0,-0.0,0.0,0.0,0.0,0.0,-0.0,0.0,-0.0,0.0,-0.0,-0.0,0.0,0.0,0.0,-0.0,-0.0,-0.0,-0.0,0.0,0.0,-0.0,-0.0,-0.0,0.0,0.0,0.0,-0.0,0.0,-0.0,-0.0,0.0,-0.0,0.0,-0.0,-0.0,-0.0,0.0,0.0,0.0,-0.0,0.0,-0.0,-0.0,-0.0,0.0,-0.0,-0.0,0.0,-0.0,0.0,0.0,-0.0,0.0,0.0,-0.0,-0.0,0.0,-0.0,-0.0,0.0,-0.0,-0.0,0.0,-0.0,0.0,0.0,0.0,0.0,0.0,-0.0,0.0,-0.0,-0.0,-0.0,-0.0,-0.0,-0.0,-0.0,0.0,0.0,-0.0,-0.0,-0.0,0.0,-0.0,0.0,0.0,0.0,-0.0,-0.0,-0.0,-0.0,-0.0,-0.0,0.0,0.0,0.0,0.0,0.0,-0.0,-0.0,0.0,0.0,0.0,-0.0,-0.0,-0.0,-0.0,-0.0,-0.0,0.0,0.0,0.0,0.0,-0.0,-0.0,-0.0,0.0,0.0,-0.0,0.0,0.0,0.0,-0.0,0.0,0.0,0.0,0.0,0.0,0.0,0.0,0.0,-0.0,0.0,-0.0,0.0,0.0,0.0,0.0,0.0,-0.0,-0.0,-0.0,0.0,-0.0,0.0,-0.0,-0.0,0.0,-0.0,-0.0,0.0,0.0,0.0,0.0,0.0,0.0,0.0,0.0,0.0,0.0,0.0,-0.0,0.0,0.0,-0.0,-0.0,-0.0,-0.0,0.0,-0.0,-0.0,-0.0,-0.0,0.0,-0.0,-0.0,-0.0,0.0,-0.0,-0.0,-0.0,0.0,0.0,0.0,0.0,-0.0,0.0,0.0,-0.0,0.0,0.0,0.0,0.0,-0.0,-0.0,-0.0,0.0,-0.0,-0.0,-0.0,0.0,0.0,0.0,0.0,-0.0,-0.0,-0.0,-0.0,-0.0,0.0,0.0,-0.0,-0.0,-0.0,-0.0,0.0,0.0,-0.0,-0.0,0.0,-0.0,0.0,0.0,0.0,-0.0,-0.0,-0.0,-0.0,-0.0,-0.0,-0.0,-0.0,0.0,-0.0,0.0,-0.0,0.0,-0.0,-0.0,0.0,0.0,0.0,-0.0,-0.0,-0.0,-0.0,-0.0,-0.0,-0.0,0.0,0.0,0.0,0.0,0.0,0.0,0.0,0.0,-0.0,-0.0,-0.0,-0.0,0.0,0.0,0.0,0.0,0.0,-0.0,0.0,0.0,-0.0,-0.0,0.0,-0.0,-0.0,-0.0,-0.0,-0.0,-0.0,-0.0,0.0,-0.0,0.0,-0.0,-0.0,-0.0,0.0,-0.0,-0.0,-0.0,-0.0,0.0,-0.0,-0.0,-0.0,0.0,-0.0,-0.0,-0.0,-0.0,0.0,-0.0,0.0,-0.0,0.0,0.0,-0.0,0.0,0.0,0.0,0.0,-0.0,0.0,-0.0,-0.0,0.0,-0.0,0.0,-0.0,-0.0,-0.0,0.0,-0.0,0.0,0.0,-0.0,0.0,0.0,0.0,0.0,-0.0,-0.0,-0.0,0.0,0.0,-0.0,-0.0,-0.0,0.0,-0.0,-0.0,-0.0,-0.0,-0.0,-0.0,-0.0,-0.0,0.0,0.0,-0.0,-0.0,-0.0,0.0,0.0,-0.0,-0.0,-0.0,0.0,0.0,-0.0,0.0,0.0,-0.0,-0.0,0.0,-0.0,-0.0,-0.0,-0.0,-0.0,0.0,-0.0,0.0,-0.0,-0.0,-0.0,-0.0,-0.0,-0.0,0.0,0.0,-0.0,0.0,0.0,-0.0,-0.0,-0.0,0.0,0.0,-0.0,0.0,-0.0,-0.0,-0.0,-0.0,-0.0,-0.0,0.0,0.0,-0.0,0.0,0.0,0.0,0.0,-0.0,0.0,-0.0,0.0,-0.0,0.0,0.0,0.0,0.0,0.0,0.0,0.0,0.0,0.0,0.0,-0.0,-0.0,-0.0,-0.0,0.0,0.0,-0.0,0.0,-0.0,0.0,0.0,0.0,0.0,-0.0,0.0,-0.0,-0.0,0.0,-0.0,0.0,0.0,0.0,-0.0,0.0,-0.0,-0.0,-0.0,0.0,0.0,0.0,0.0,0.0,0.0,0.0,0.0,0.0,0.0,-0.0,-0.0,-0.0,0.0,0.0,-0.0,0.0,-0.0,-0.0,-0.0,0.0,-0.0,-0.0,0.0,0.0,-0.0,0.0,0.0,-0.0,0.0,-0.0,0.0,-0.0,-0.0,0.0,-0.0,-0.0,0.0,-0.0,-0.0,0.0,-0.0,-0.0,-0.0,-0.0,0.0,-0.0,0.0,-0.0,-0.0,0.0,0.0,0.0,-0.0,-0.0,0.0,0.0,-0.0,0.0,-0.0,0.0,-0.0,-0.0,-0.0,0.0,0.0,-0.0,0.0,0.0,0.0,0.0,0.0,-0.0,0.0,-0.0,-0.0,0.0,0.0,0.0,0.0,0.0,0.0,0.0,-0.0,0.0,-0.0,0.0,-0.0,-0.0,-0.0,-0.0,0.0,-0.0,0.0,0.0,-0.0,-0.0,0.0,0.0,-0.0,-0.0,-0.0,-0.0,-0.0,-0.0,-0.0,-0.0,-0.0,0.0,-0.0,0.0,-0.0,-0.0,-0.0,-0.0,0.0,0.0,0.0,0.0,-0.0,0.0,-0.0,0.0,-0.0,-0.0,-0.0,-0.0,0.0,-0.0,-0.0,-0.0,0.0,0.0,0.0,-0.0,0.0,-0.0,0.0,-0.0,-0.0,0.0,-0.0,0.0,-0.0,0.0,-0.0,-0.0,-0.0,-0.0,0.0,0.0,0.0,0.0,-0.0,-0.0,-0.0,0.0,0.0,0.0,-0.0,0.0,-0.0,-0.0,-0.0,0.0,0.0,0.0,-0.0,0.0,-0.0,0.0,0.0,-0.0,0.0,-0.0,-0.0,-0.0,0.0,0.0,-0.0,-0.0,-0.0,-0.0,-0.0,0.0,-0.0,-0.0,-0.0,0.0,0.0,-0.0,-0.0,0.0,-0.0,-0.0,0.0,0.0,-0.0,0.0,-0.0,0.0,-0.0,-0.0,0.0,-0.0,-0.0,-0.0,-0.0,-0.0,0.0,0.0,-0.0,0.0,0.0,0.0,0.0,0.0,0.0,-0.0,-0.0,0.0,-0.0,-0.0,0.0,-0.0,-0.0,0.0,0.0,0.0,0.0,0.0,-0.0,0.0,0.0,0.0,-0.0,-0.0,0.0,-0.0,-0.0,-0.0,-0.0,0.0,0.0,0.0,-0.0,0.0,0.0,0.0,0.0,-0.0,-0.0,0.0,0.0,0.0,-0.0,0.0,-0.0,0.0,-0.0,-0.0,-0.0,0.0,-0.0,-0.0,0.0,-0.0,0.0,0.0,-0.0,-0.0,0.0,-0.0,0.0,0.0,0.0,0.0,0.0,-0.0,0.0,-0.0,-0.0,0.0,0.0,0.0,0.0,0.0,0.0,0.0,0.0,-0.0,-0.0,-0.0,0.0,-0.0,0.0,0.0,-0.0,-0.0,0.0,0.0,0.0,-0.0,0.0,0.0,0.0,0.0,-0.0,-0.0,0.0,-0.0,0.0,0.0,-0.0,-0.0,-0.0,-0.0,-0.0,-0.0,-0.0,-0.0,-0.0,-0.0,0.0,0.0,0.0,0.0,-0.0,0.0,-0.0,-0.0,-0.0,-0.0,0.0,-0.0,-0.0,-0.0,-0.0,-0.0,-0.0,-0.0,-0.0,0.0,-0.0,-0.0,-0.0,-0.0,0.0,-0.0,-0.0,0.0,0.0,0.0,-0.0,-0.0,-0.0,0.0,-0.0,-0.0,0.0,0.0,-0.0,-0.0,0.0,-0.0,0.0,-0.0,0.0,-0.0,-0.0,-0.0,0.0,0.0,0.0,-0.0,0.0,-0.0,0.0,-0.0,0.0,0.0,-0.0,-0.0,-0.0,0.0,-0.0,0.0,-0.0,0.0,-0.0,-0.0,-0.0,-0.0,0.0,0.0,0.0,-0.0,-0.0,0.0,-0.0,-0.0,-0.0,-0.0,0.0,-0.0,-0.0,-0.0,-0.0,0.0,-0.0,0.0,-0.0,-0.0,0.0,0.0,0.0,0.0,0.0,0.0,0.0,0.0,-0.0,-0.0,-0.0,-0.0,0.0,0.0,-0.0,0.0,0.0,0.0,0.0,0.0,0.0,-0.0,-0.0,0.0,-0.0,0.0,-0.0,0.0,-0.0,-0.0,0.0,0.0,0.0,-0.0,-0.0,0.0,-0.0,-0.0,-0.0,-0.0,0.0,-0.0,0.0,0.0,-0.0,-0.0,0.0,0.0,-0.0,0.0,-0.0,-0.0,-0.0,-0.0,-0.0,0.0,-0.0,-0.0,-0.0,-0.0,-0.0,-0.0,-0.0,0.0,0.0,-0.0,0.0,-0.0,0.0,-0.0,-0.0,0.0,0.0,-0.0,0.0,0.0,0.0,0.0,-0.0,0.0,-0.0,0.0,0.0,-0.0,0.0,-0.0,0.0,0.0,0.0,0.0,-0.0,0.0,0.0,0.0,0.0,-0.0,0.0,-0.0,0.0,-0.0,0.0,-0.0,0.0,0.0,0.0,-0.0,0.0,-0.0,-0.0,0.0,0.0,-0.0,-0.0,-0.0,-0.0,-0.0,0.0,-0.0,0.0,0.0,-0.0,-0.0,0.0,-0.0,0.0,0.0,-0.0,-0.0,0.0,0.0,0.0,0.0,0.0,-0.0,0.0,0.0,-0.0,-0.0,-0.0,-0.0,0.0,-0.0,-0.0,0.0,-0.0,-0.0,0.0,0.0,0.0,0.0,-0.0,0.0,-0.0,-0.0,-0.0,0.0,0.0,0.0,0.0,0.0,-0.0,0.0,-0.0,0.0,0.0,0.0,-0.0,-0.0,-0.0,0.0,0.0,0.0,0.0,-0.0,-0.0,-0.0,-0.0,0.0,0.0,-0.0,-0.0,0.0,0.0,0.0,0.0,0.0,0.0,0.0,-0.0,0.0,-0.0,0.0,0.0,-0.0,0.0,-0.0,-0.0,-0.0,0.0,-0.0,-0.0,0.0,0.0,0.0,-0.0,0.0,0.0,0.0,-0.0,0.0,0.0,0.0,0.0,-0.0,0.0,0.0,0.0,0.0,0.0,-0.0,-0.0,0.0,0.0,-0.0,0.0,0.0,0.0,-0.0,-0.0,-0.0,-0.0,-0.0,-0.0,0.0,0.0,-0.0,-0.0,-0.0,-0.0,-0.0,0.0,0.0,-0.0,0.0,0.0,-0.0,-0.0,-0.0,0.0,-0.0,-0.0,0.0,0.0,-0.0,-0.0,-0.0,0.0,0.0,-0.0,0.0,0.0,0.0,-0.0,0.0,0.0,0.0,0.0,-0.0,-0.0,0.0,-0.0,0.0,0.0,0.0,0.0,0.0,0.0,-0.0,0.0,-0.0,-0.0,0.0,0.0,0.0,0.0,0.0,-0.0,0.0,-0.0,0.0,0.0,-0.0,-0.0,0.0,-0.0,-0.0,0.0,0.0,-0.0,-0.0,0.0,-0.0,0.0,-0.0,-0.0,-0.0,-0.0,0.0,-0.0,0.0,-0.0,0.0,-0.0,-0.0,0.0,0.0,-0.0,0.0,-0.0,-0.0,0.0,0.0,-0.0,0.0,-0.0,-0.0,-0.0,0.0,0.0,0.0,-0.0,-0.0,-0.0,0.0,-0.0,0.0,0.0,-0.0,-0.0,0.0,-0.0,-0.0,0.0,-0.0,0.0,-0.0,-0.0,0.0,0.0,0.0,-0.0,-0.0,0.0,0.0,0.0,0.0,0.0,-0.0,0.0,-0.0,0.0,-0.0,0.0,0.0,-0.0,-0.0,-0.0,-0.0,0.0,0.0,-0.0,0.0,-0.0,0.0,0.0,0.0,0.0,0.0,0.0,0.0,-0.0,-0.0,-0.0,0.0,0.0,-0.0,0.0,0.0,-0.0,0.0,0.0,0.0,0.0,0.0,-0.0,0.0,-0.0,0.0,0.0,0.0,-0.0,0.0,0.0,0.0,0.0,0.0,0.0,-0.0,-0.0,0.0,-0.0,-0.0,-0.0,-0.0,0.0,0.0,-0.0,-0.0,0.0,0.0,0.0,0.0,-0.0,-0.0,-0.0,-0.0,0.0,-0.0,0.0,0.0,-0.0,0.0,-0.0,0.0,0.0,0.0,-0.0,0.0,-0.0,-0.0,0.0,0.0,-0.0,-0.0,-0.0,-0.0,0.0,0.0,0.0,0.0,-0.0,0.0,0.0,0.0,0.0,0.0,-0.0,-0.0,0.0,0.0,0.0,0.0,0.0,0.0,0.0,-0.0,0.0,-0.0,-0.0,-0.0,-0.0,-0.0,-0.0,0.0,0.0,-0.0,0.0,0.0,0.0,0.0,-0.0,0.0,0.0,0.0,-0.0,0.0,0.0,-0.0,0.0,0.0,-0.0,0.0,0.0,0.0,-0.0,-0.0,-0.0,0.0,0.0,-0.0,0.0,-0.0,0.0,0.0,0.0,-0.0,0.0,0.0,0.0,0.0,-0.0,-0.0,-0.0,-0.0,-0.0,-0.0,0.0,-0.0,0.0,-0.0,0.0,-0.0,0.0,0.0,0.0,0.0,0.0,0.0,-0.0,-0.0,0.0,0.0,-0.0,0.0,0.0,-0.0,-0.0,-0.0,-0.0,0.0,0.0,0.0,0.0,0.0,0.0,-0.0,-0.0,-0.0,0.0,-0.0,0.0,-0.0,0.0,-0.0,0.0,-0.0,0.0,0.0,0.0,-0.0,0.0,-0.0,-0.0,0.0,-0.0,-0.0,0.0,-0.0,-0.0,0.0,0.0,0.0,-0.0,-0.0,-0.0,-0.0,-0.0,-0.0,0.0,0.0,-0.0,0.0,0.0,-0.0,-0.0,0.0,0.0,-0.0,-0.0,-0.0,-0.0,0.0,0.0,-0.0,0.0,0.0,-0.0,-0.0,0.0,-0.0,0.0,-0.0,-0.0,0.0,-0.0,-0.0,0.0,-0.0,-0.0,-0.0,-0.0,0.0,0.0,0.0,0.0,0.0,-0.0,-0.0,-0.0,-0.0,-0.0,0.0,0.0,-0.0,0.0,-0.0,-0.0,-0.0,-0.0,-0.0,0.0,0.0,-0.0,-0.0,-0.0,-0.0,-0.0,0.0,0.0,0.0,-0.0,-0.0,-0.0,0.0,0.0,-0.0,0.0,0.0,0.0,0.0,-0.0,0.0,-0.0,0.0,0.0,0.0,0.0,-0.0,0.0,0.0,-0.0,0.0,0.0,-0.0,-0.0,0.0,0.0,0.0,0.0,0.0,-0.0,-0.0,-0.0,-0.0,-0.0,-0.0,-0.0,-0.0,-0.0,0.0,-0.0,0.0,0.0,-0.0,0.0,0.0,0.0,-0.0,0.0,-0.0,-0.0,-0.0,0.0,-0.0,-0.0,0.0,0.0,0.0,0.0,-0.0,0.0,-0.0,0.0,-0.0,-0.4936433,-0.16408092,-0.0043394975,-0.17806102,-0.19035687,-0.09625166,-0.20964402,0.14509755,-0.49646842,0.21403548,-0.09427888,0.42085162,0.17712602,0.1444266,0.21068028,-0.113029085,0.11772622,-0.12371124,-0.21581928,0.15071088,0.15423284,-0.052776553,0.14442149,0.26305574,-0.26911858,-0.30897355,0.014813624,0.115662195,0.111309975,-0.2130603,0.1673497,0.39188695,-0.15311877,-0.0055560004,0.06784,0.12224498,-0.32507333,-0.15255721,0.11324988,-0.08286934,-0.010506168,0.08103324,0.44659436,0.1648849,0.068116516,0.15371339,0.022904508,-0.05257448,0.10123303,0.20128115,-0.075542115,0.092757635,0.17742337,-0.061444882,-0.19589607,-0.106800586,0.40940082,-0.31518364,-0.05163569,0.40086395,-0.07095533,-0.06827103,-0.116897695,0.54414207,0.37853917,-0.19562149,0.47020397,0.40966633,-0.040924385,-0.03671803,0.19319765,-0.12325319,0.18256834,0.17058083,-0.06801125,0.29590204,-0.03221076,0.003698664,-0.3243096,-0.3256409,-0.3846147,-0.3651343,-0.23210989,0.2079844,-0.3922475,-0.18006735,-0.22749649,-0.00019582314,-0.020216035,-0.21954997,0.014587715,0.08791253,0.18892643,-0.10333401,-0.011396353,0.2075557,-0.0025142138,-0.0248882,-0.030057082,-0.06447138,-0.11971543,-0.07312866,-0.064276524,-0.3932545,0.07311469,-0.4006701,-0.07322162,-0.09998835,-0.1343886,-0.076790795,-0.087401256,-0.04851424,0.26651436,-0.05938471,0.12751915,0.3385258,-0.013181891,0.13904661,-0.081312746,-0.29258075,-0.010936077,0.23762828,-0.00029910466,-0.16838023,0.25255197,0.1757177,-0.12822823,0.038744252,0.15944745,-0.109963864,-0.1426218,-0.099065006,-0.33336928,-0.07726751,0.19897333,-0.60927117,0.05175478,0.30003515,-0.16567993,-0.024195962,-0.18913217,0.032067496,0.40331012,-0.03428048,-0.026469057,-0.02485928,-0.17164019,0.18280974,0.28644603,0.20547673,0.001575085,0.16589294,-0.03792813,-0.10387021,-0.016344767,-0.019550376,0.12242752,-0.051159292,0.052117404,0.0658585,-0.7222995,-0.6754018,-0.0021181363,-0.0017226464,0.056061734,0.3636579,0.16599086,-0.08610375,-0.07399323,-0.23060651,-0.23360637,-0.022722112,-0.22638614,-0.2999115,-0.044980526,-0.4017361,-0.31908086,-0.33613563,0.23210981,0.033958167,-0.12870173,-0.2540381,-0.15985073,0.28691205,0.17822985,-0.045107458,-0.106224686,-0.008009858,-0.053433895,0.3133774,0.28743997,0.08848519,0.3665946,0.25704932,-0.038791813,0.46398947,0.0034365617,-0.1009891,-0.045895867,-0.178171,0.10977315,-0.15554875,-0.15779032,-0.003080966,-0.11189555,0.11327895,-0.12757203,0.102387324,-0.10862533,0.039423216,-0.2578923,0.057039786,0.06696125,-0.16941765,-0.12551463,-0.2403578,-0.48813623,-0.16196138,-0.025462544,-0.22722694,0.08595705,-0.106005825,0.033474796,0.11818065,-0.20985205,0.20083554,-0.086099975,-0.01732439,0.091304734,-0.13736318,-0.37499133,-0.18417688,-0.024600986,-0.17687404,-0.16327988,0.1982326,0.19130042,-0.28672653,0.42047542,0.28259316,0.4852463,0.086562544,0.060990624,0.17605944,0.014814896,0.02847799,0.060095772,-0.20151538,-0.2048495,0.0017888703,-0.30958635,-0.34766543,-0.38877764,-0.42608282,0.5517946,-0.38384777,0.1268366,-0.17819561,0.4905586,-0.1284075,-0.25594404,0.06131414,-0.13467684,-0.19206555,-0.07924477,-0.34622607,-0.103506565,0.074663155,-0.29315722,-0.058656495,0.078127846,0.13907094,0.13304815,0.24767758,0.2444893,0.15810293,0.21270473,0.11242554,0.009521276,-0.40335616,0.5770705,0.18259022,-0.04224215,0.004838317,0.006364058,-0.272593,0.11864859,0.41671705,-0.0037596934,0.0072866576,-0.031637724,0.08257924,-0.008264474,-0.046497557,-0.12498973,-0.23873316,-0.28041044,-0.040779777,-0.48927987,-0.13969074,0.20912303,0.06432312,0.044986356,0.1807083,0.03819095,-0.07488973,0.009103307,0.03926805,-0.12779237,0.20405093,-0.033343803,-0.038740933,-0.12509586,-0.23914596,-0.10601074,0.13005666,-0.110761955,-0.14539285,-0.322695,0.105244935,-0.12947261,-0.09811264,0.123803444,-0.28578916,-0.059501223,-0.16026244,-0.18313074,0.03404339,-0.24580583,0.180031,-0.00432263,-0.0005387697,0.22635898,-0.02012708,0.13973774,0.09499782,0.13528483,0.1670579,0.10215953,0.07017907,0.1137049,0.5084384,-0.47852173,-0.40274924,0.117711954,-0.0022239347,0.16185708,0.046167072,0.00019061675,0.44061545,-0.39785323,-0.06862456,-0.09531581,-0.16049927,-0.06657692,0.34126005,0.33330497,-0.43612942,0.41020802,0.55281246,0.08495282,-0.017403657,0.40785724,-0.0058316286,0.28296986,0.35495842,0.16192843,0.032965776,0.29635873,0.17049068,-0.22402625,-0.04228088,-0.20566957,0.009365253,-0.01355489,-0.029127743,0.0037092739,-0.24701391,0.23347238,0.1601694,0.059679944,0.20172925,0.073448144,-0.17013548,-0.017243851,0.11847616,0.06823787,0.08348858,-0.18783027,0.008818137,0.10832726,0.018121433,0.100609615,-0.11100441,-0.15734813,-0.11187808,0.17862032,0.18264034,0.18247138,0.17303327,0.06456,0.18129782,0.13025007,-0.07237454,-0.25467905,0.34284613,0.14655164,0.20035769,0.13996729,-0.20664558,-0.09826533,-0.09762714,-0.17638439,-0.06338694,-0.048521522,0.01626981,-0.056855824,-0.082382664,-0.111426465,-0.031698987,0.30139968,-0.24648185,-0.21601522,0.2102652,0.23863308,0.3319466,-0.24172716,0.10117323,0.064697236,-0.5214879,-0.20284247,0.0040567187,0.15947565,0.22677182,0.26673746,-0.011071336,0.31954488,0.3668468,-0.014259372,0.66827345,0.33433798,0.23448442,0.2347713,-0.24962296,0.18924452,-0.5800707,-0.33450925,0.032520484,-0.45991966,-0.38336828,-0.20334564,0.039446503,-0.17908403,0.13655427,0.36195463,0.28709024,0.062828206,0.57653236,0.2577123,0.13704653,-0.009155136,0.03762426,-0.1198154,0.28062633,0.15293922,0.34252727,0.29875603,0.3956496,-0.30343306,-0.081308894,-0.09692305,0.25550267,-0.20909989,-0.347723,0.022789532,-0.2589964,0.013741051,-0.1685098,0.23654711,-0.11427973,0.27903962,0.31617364,-0.00029886924,0.47334632,0.47518548,0.07359,0.12429638,-0.14616361,-0.10632777,-0.0683169,-0.3134212,0.11551721,-0.10793846,-0.3789781,-0.23806272,-0.120395906,0.115402,0.14747025,-0.13453627,-0.24969667,0.27127004,-0.19644658,-0.57815963,-0.070258275,0.26340437,-0.007963988,0.047720145,-0.19207746,-0.17700954,-0.38816214,-0.19885154,-0.18403563,-0.012391167,-0.044662256,-0.084874526,0.17272362,-0.0026972487,-0.07410059,0.36060283,0.20280327,0.33085662,0.3236817,0.15853527,-0.10614762,0.2379142,-0.24212502,-0.06211788,-0.3313932,-0.05482578,-0.1147657,-0.30885667,-0.14093986,0.069963016,0.016076216,-0.04803885,0.05039651,-0.04485016,-0.0101404935,0.20766169,0.08279496,0.09540574,0.037341125,-0.1556352,0.1912815,0.28686807,0.031094044,0.03928811,-0.2576748,-0.1402062,0.19432136,0.33742476,0.080684,-0.12535982,0.33269766,0.22237739,-0.35281828,0.23364624,-0.13426052,0.1701408,0.23844287,-0.14258887,-0.081132725,0.027452072,0.01954703,0.22996062,0.075626746,-0.23771186,-0.080071926,-0.30636367,-0.2650057,-0.7771928,-0.29395714,0.3100266,-0.35396713,0.1602505,0.3874991,0.0,-0.0,-0.0,0.0,0.0,-0.0,0.0,-0.0,0.0,-0.0,0.0,-0.0,0.0,-0.0,-0.0,-0.0,0.0,-0.0,-0.0,-0.0,-0.0,-0.0,-0.0,0.0,0.0,-0.0,0.0,-0.0,0.0,-0.0,0.0,-0.0,0.0,-0.0,-0.0,-0.0,-0.0,0.0,0.0,0.0,-0.0,-0.0,0.0,-0.0,-0.0,0.0,-0.0,-0.0,-0.0,-0.0,0.0,-0.0,0.0,0.0,-0.0,0.0,-0.0,0.0,0.0,-0.0,-0.0,0.0,-0.0,0.0,0.0,0.0,-0.0,-0.0,-0.0,0.0,0.0,0.0,0.0,-0.0,-0.0,0.0,-0.0,-0.0,-0.0,0.0,0.0,-0.0,0.0,-0.0,-0.0,-0.0,-0.0,-0.0,0.0,-0.0,0.0,0.0,-0.0,-0.0,-0.0,0.0,-0.0,-0.0,-0.0,-0.0,-0.0,0.0,0.0,-0.0,0.0,0.0,-0.0,-0.0,0.0,-0.0,0.0,-0.0,-0.0,-0.0,0.0,0.0,0.0,-0.0,0.0,0.0,-0.0,0.0,-0.0,-0.0,0.0,-0.0,-0.0,0.0,0.0,0.0,-0.0,0.0,-0.0,0.0,0.0,0.0,-0.0,0.0,-0.0,0.0,0.0,-0.0,0.0,0.0,0.0,0.0,-0.0,0.0,0.0,0.0,0.0,0.0,0.0,0.0,0.0,0.0,-0.0,-0.0,0.0,0.0,-0.0,0.0,-0.0,-0.0,0.0,0.0,0.0,0.0,0.0,-0.0,-0.0,-0.0,-0.0,-0.0,-0.0,0.0,-0.0,0.0,0.0,0.0,-0.0,-0.0,0.0,0.0,-0.0,-0.0,0.0,0.0,-0.0,0.0,0.0,-0.0,-0.0,-0.0,-0.0,-0.0,-0.0,0.0,-0.0,0.0,0.0,0.0,-0.0,-0.0,-0.0,-0.0,-0.0,-0.0,0.0,0.0,0.0,0.0,0.0,0.0,0.0,-0.0,-0.0,0.0,-0.0,0.0,-0.0,0.0,0.0,0.0,0.0,0.0,0.0,0.0,0.0,0.0,-0.0,0.0,-0.0,-0.0,-0.0,0.0,-0.0,0.0,-0.0,-0.0,-0.0,0.0,0.0,0.0,-0.0,0.0,-0.0,-0.0,-0.0,0.0,0.0,-0.0,0.0,0.0,-0.0,-0.0,0.0,0.0,-0.0,0.0,-0.0,-0.0,-0.0,-0.0,0.0,-0.0,-0.0,-0.0,0.0,-0.0,0.0,0.0,0.0,-0.0,0.0,-0.0,-0.0,0.0,0.0,-0.0,-0.0,0.0,-0.0,0.0,-0.0,-0.0,0.0,0.0,0.0,0.0,0.0,0.0,0.0,0.0,0.0,-0.0,0.0,-0.0,0.0,0.0,0.0,0.0,0.0,-0.0,-0.0,0.0,0.0,0.0,0.0,-0.0,0.0,0.0,-0.0,0.0,-0.0,-0.0,-0.0,-0.0,0.0,0.0,-0.0,-0.0,0.0,0.0,-0.0,0.0,0.0,0.0,-0.0,0.0,-0.0,-0.0,0.0,0.0,0.0,-0.0,0.0,0.0,0.0,-0.0,-0.0,-0.0,0.0,-0.0,0.0,0.0,-0.0,-0.0,-0.0,-0.0,0.0,0.0,-0.0,-0.0,0.0,0.0,-0.0,0.0,-0.0,-0.0,0.0,-0.0,-0.0,-0.0,-0.0,-0.0,-0.0,0.0,0.0,0.0,-0.0,0.0,-0.0,0.0,-0.0,0.0,0.0,0.0,0.0,-0.0,0.0,0.0,-0.0,-0.0,0.0,-0.0,0.0,-0.0,-0.0,-0.0,0.0,-0.0,0.0,0.0,-0.0,0.0,0.0,0.0,-0.0,0.0,0.0,-0.0,0.0,0.0,-0.0,-0.0,-0.0,-0.0,0.0,0.0,0.0,0.0,0.0,0.0,-0.0,-0.0,-0.0,-0.0,0.0,0.0,-0.0,0.0,-0.0,0.0,0.0,-0.0,-0.0,-0.0,0.0,-0.0,-0.0,0.0,-0.0,0.0,-0.0,-0.0,0.0,-0.0,0.0,-0.0,-0.0,0.0,0.0,-0.0,0.0,-0.0,-0.0,-0.0,0.0,0.0,-0.0,-0.0,-0.0,-0.0,-0.0,-0.0,0.0,-0.0,0.0,-0.0,-0.0,-0.0,0.0,-0.0,0.0,0.0,-0.0,-0.0,0.0,-0.0,-0.0,-0.0,0.0,-0.0,-0.0,-0.0,-0.0,-0.0,-0.0,-0.0,-0.0,0.0,0.0,0.0,-0.0,-0.0,0.0,0.0,0.0,-0.0,0.0,0.0,-0.0,-0.0,-0.0,-0.0,0.0,-0.0,0.0,-0.0,-0.0,-0.0,-0.0,-0.0,-0.0,0.0,0.0,-0.0,0.0,-0.0,0.0,0.0,0.0,-0.0,0.0,0.0,0.0,-0.0,-0.0,0.0,-0.0,0.0,-0.0,0.0,-0.0,-0.0,-0.0,-0.0,-0.0,-0.0,0.0,-0.0,-0.0,-0.0,-0.0,0.0,-0.0,0.0,0.0,0.0,0.0,-0.0,0.0,0.0,0.0,-0.0,-0.0,-0.0,0.0,0.0,-0.0,-0.0,-0.0,0.0,-0.0,-0.0,0.0,0.0,-0.0,0.0,0.0,-0.0,-0.0,-0.0,-0.0,0.0,-0.0,0.0,-0.0,-0.0,0.0,-0.0,0.0,0.0,-0.0,0.0,0.0,-0.0,-0.0,0.0,-0.0,-0.0,-0.0,0.0,-0.0,-0.0,-0.0,-0.0,-0.0,0.0,0.0,0.0,-0.0,-0.0,0.0,-0.0,0.0,-0.0,-0.0,0.0,-0.0,-0.0,0.0,0.0,-0.0,-0.0,-0.0,0.0,0.0,-0.0,-0.0,-0.0,-0.0,0.0,0.0,-0.0,0.0,-0.0,-0.0,-0.0,0.0,0.0,0.0,-0.0,0.0,-0.0,0.0,-0.0,0.0,0.0,0.0,-0.0,-0.0,0.0,-0.0,0.0,-0.0,-0.0,-0.0,0.0,0.0,-0.0,0.0,0.0,-0.0,-0.0,-0.0,-0.0,0.0,-0.0,-0.0,-0.0,-0.0,0.0,0.0,0.0,0.0,-0.0,0.0,0.0,-0.0,0.0,0.0,-0.0,0.0,0.0,-0.0,-0.0,-0.0,-0.0,-0.0,0.0,0.0,0.0,-0.0,-0.0,0.0,0.0,-0.0,-0.0,0.0,0.0,-0.0,-0.0,-0.0,0.0,-0.0,-0.0,-0.0,-0.0,0.0,-0.0,0.0,0.0,0.0,-0.0,-0.0,-0.0,0.0,0.0,0.0,-0.0,0.0,0.0,-0.0,-0.0,0.0,0.0,0.0,-0.0,-0.0,-0.0,-0.0,0.0,-0.0,0.0,0.0,-0.0,-0.0,0.0,0.0,-0.0,-0.0,-0.0,-0.0,-0.0,0.0,-0.0,-0.0,-0.0,-0.0,0.0,-0.0,0.0,-0.0,-0.0,-0.0,-0.0,0.0,-0.0,0.0,-0.0,-0.0,-0.0,-0.0,-0.0,0.0,0.0,0.0,0.0,-0.0,0.0,-0.0,0.0,0.0,-0.0,-0.0,-0.0,0.0,-0.0,0.0,-0.0,-0.0,0.0,-0.0,0.0,-0.0,-0.0,-0.0,-0.0,0.0,0.0,0.0,-0.0,0.0,-0.0,0.0,0.0,-0.0,-0.0,0.0,-0.0,-0.0,0.0,0.0,0.0,-0.0,0.0,-0.0,-0.0,-0.0,0.0,0.0,0.0,-0.0,-0.0,0.0,-0.0,-0.0,0.0,0.0,0.0,0.0,0.0,0.0,-0.0,-0.0,0.0,0.0,-0.0,-0.0,0.0,-0.0,-0.0,0.0,0.0,-0.0,0.0,0.0,0.0,0.0,-0.0,0.0,-0.0,0.0,-0.0,-0.0,0.0,-0.0,0.0,-0.0,0.0,-0.0,0.0,-0.0,-0.0,-0.0,-0.0,-0.0,0.0,-0.0,-0.0,-0.0,0.0,0.0,0.0,0.0,0.0,0.0,-0.0,0.0,0.0,-0.0,-0.0,-0.0,0.0,0.0,0.0,-0.0,-0.0,-0.0,-0.0,-0.0,-0.0,0.0,-0.0,0.0,0.0,-0.0,0.0,-0.0,0.0,-0.0,-0.0,0.0,-0.0,0.0,0.0,0.0,-0.0,0.0,-0.0,-0.0,0.0,-0.0,-0.0,-0.0,0.0,-0.0,0.0,-0.0,-0.0,-0.0,0.0,-0.0,-0.0,-0.0,0.0,-0.0,0.0,-0.0,-0.0,0.0,-0.0,-0.0,-0.0,-0.0,0.0,-0.0,-0.0,-0.0,-0.0,-0.0,0.0,-0.0,0.0,0.0,0.0,-0.0,-0.0,0.0,0.0,0.0,-0.0,-0.0,-0.0,0.0,-0.0,0.0,-0.0,0.0,0.0,-0.0,-0.0,0.0,0.0,0.0,0.0,-0.0,-0.0,-0.0,-0.0,0.0,0.0,-0.0,-0.0,0.0,-0.0,-0.0,0.0,-0.0,-0.0,-0.0,0.0,-0.0,-0.0,-0.0,0.0,0.0,0.0,-0.0,-0.0,0.0,-0.0,0.0,-0.0,0.0,-0.0,0.0,0.0,0.0,-0.0,-0.0,0.0,-0.0,0.0,-0.0,0.0,-0.0,-0.0,-0.0,0.0,0.0,-0.0,0.0,0.0,0.0,-0.0,-0.0,-0.0,-0.0,-0.0,0.0,-0.0,-0.0,0.0,0.0,-0.0,0.0,0.0,0.0,0.0,0.0,0.0,0.0,-0.0,0.0,-0.0,0.0,-0.0,-0.0,-0.0,0.0,0.0,-0.0,-0.0,-0.0,0.0,-0.0,0.0,-0.0,0.0,0.0,-0.0,-0.0,0.0,-0.0,0.0,-0.0,0.0,-0.0,-0.0,0.0,0.0,-0.0,-0.0,-0.0,0.0,-0.0,0.0,0.0,0.0,-0.0,-0.0,-0.0,0.0,-0.0,0.0,-0.0,0.0,0.0,0.0,0.0,-0.0,0.0,-0.0,0.0,0.0,0.0,-0.0,0.0,0.0,0.0,-0.0,0.0,0.0,-0.0,-0.0,-0.0,0.0,-0.0,0.0,0.0,-0.0,0.0,0.0,0.0,0.0,0.0,0.0,0.0,0.0,-0.0,-0.0,-0.0,-0.0,0.0,-0.0,-0.0,-0.0,-0.0,-0.0,0.0,-0.0,0.0,0.0,-0.0,0.0,0.0,0.0,0.0,-0.0,-0.0,0.0,0.0,0.0,0.0,0.0,0.0,0.0,-0.0,0.0,0.0,-0.0,0.0,0.0,-0.0,0.0,0.0,-0.0,-0.0,-0.0,0.0,0.0,-0.0,0.0,-0.0,0.0,-0.0,0.0,-0.0,0.0,-0.0,0.0,0.0,0.0,-0.0,0.0,0.0,-0.0,0.0,-0.0,0.0,0.0,0.0,0.0,0.0,0.0,-0.0,0.0,-0.0,0.0,-0.0,0.0,0.0,0.0,0.0,-0.0,0.0,0.0,0.0,0.0,0.0,-0.0,-0.0,-0.0,-0.0,-0.0,-0.0,0.0,-0.0,0.0,0.0,0.0,-0.0,0.0,0.0,-0.0,-0.0,-0.0,-0.0,-0.0,0.0,-0.0,0.0,0.0,-0.0,-0.0,-0.0,-0.0,0.0,-0.0,-0.0,0.0,-0.0,-0.0,0.0,0.0,-0.0,0.0,-0.0,-0.0,-0.0,0.0,-0.0,0.0,0.0,-0.0,0.0,0.0,0.0,0.0,0.0,-0.0,0.0,0.0,-0.0,0.0,0.0,-0.0,0.0,0.0,0.0,-0.0,0.0,0.0,-0.0,0.0,-0.0,0.0,0.0,0.0,-0.0,0.0,0.0,-0.0,-0.0,-0.0,0.0,0.0,-0.0,-0.0,0.0,-0.0,0.0,0.0,0.0,-0.0,0.0,0.0,0.0,0.0,0.0,0.0,0.0,0.0,0.0,-0.0,0.0,0.0,0.0,0.0,-0.0,-0.0,-0.0,0.0,-0.0,0.0,0.0,0.0,0.0,-0.0,-0.0,0.0,0.0,0.0,0.0,0.0,-0.0,-0.0,-0.0,-0.0,-0.0,-0.0,0.0,0.0,-0.0,0.0,0.0,0.0,0.0,-0.0,0.0,-0.0,0.0,-0.0,-0.0,0.0,-0.0,0.0,0.0,-0.0,0.0,0.0,0.0,-0.0,-0.0,-0.0,-0.0,0.0,-0.0,0.0,0.0,0.0,0.0,-0.0,0.0,-0.0,0.0,-0.0,0.0,0.0,0.0,-0.0,0.0,0.0,-0.0,0.0,0.0,0.0,-0.0,0.0,0.0,0.0,-0.0,-0.0,0.0,-0.0,-0.0,0.0,0.0,0.0,0.0,0.0,0.0,0.0,0.0,0.0,0.0,0.0,0.0,0.0,0.0,-0.0,0.0,-0.0,-0.0,0.0,0.0,0.0,0.0,-0.0,-0.0,-0.0,-0.0,-0.0,-0.0,-0.0,0.0,0.0,0.0,-0.0,-0.0,-0.0,0.0,-0.0,0.0,0.0,0.0,0.0,-0.0,0.0,-0.0,-0.0,0.0,0.0,-0.0,-0.0,-0.0,0.0,-0.0,-0.0,0.0,0.0,0.0,-0.0,0.0,-0.0,0.0,0.0,-0.0,0.0,0.0,-0.0,-0.0,0.0,-0.0,-0.0,-0.0,-0.0,-0.0,0.0,0.0,-0.0,-0.0,0.0,0.0,0.0,0.0,0.0,-0.0,-0.0,0.0,0.0,0.0,-0.0,-0.0,-0.0,0.0,0.0,0.0,-0.0,0.0,0.0,-0.0,0.0,-0.0,-0.0,0.0,-0.0,0.0,-0.0,0.0,-0.0,0.0,0.0,0.0,0.0,-0.0,-0.0,-0.0,0.0,0.0,-0.0,0.0,0.0,0.0,-0.0,-0.0,0.0,0.0,0.0,0.0,-0.0,-0.0,-0.0,-0.0,-0.0,0.0,0.0,-0.0,0.0,-0.0,-0.0,-0.0,0.0,0.0,-0.0,-0.0,0.0,-0.0,-0.0,0.0,0.0,-0.0,0.0,0.0,-0.0,0.0,-0.0,-0.0,0.0,0.0,0.0,-0.0,-0.0,-0.0,-0.0,0.0,0.0,0.0,0.0,0.0,-0.0,-0.0,-0.0,0.0,0.0,-0.0,0.0,-0.0,-0.0,-0.0,-0.0,-0.0,0.0,-0.0,-0.0,0.0,0.0,0.0,0.0,-0.0,0.0,-0.0,-0.0,-0.0,0.0,0.0,0.0,0.0,-0.0,-0.0,-0.0,0.0,-0.0,-0.0,-0.0,0.0,-0.0,0.0,0.0,0.0,-0.0,-0.0,-0.0,-0.0,-0.0,0.0,-0.0,-0.0,-0.0,0.0,0.0,0.0,0.0,-0.0,0.0,-0.0,0.0,-0.0,0.0,-0.0,-0.0,-0.0,0.0,-0.0,-0.0,-0.0,0.0,0.0,0.0,0.0,-0.0,-0.0,-0.0,0.0,-0.0,0.0,0.0,-0.0,0.0,-0.0,0.0,-0.0,-0.0,0.0,0.0,0.0,-0.0,-0.0,0.0,-0.0,0.0,0.0,0.0,0.0,0.0,0.0,0.0,0.0,-0.0,-0.0,0.0,-0.0,0.0,0.0,0.0,0.0,0.0,-0.0,0.0,0.0,0.0,0.0,-0.0,-0.0,-0.0,-0.0,-0.0,0.0,-0.0,0.0,-0.0,0.0,-0.0,-0.0,-0.0,-0.0,-0.0,-0.0,-0.0,-0.0,0.0,0.0,0.0,0.0,-0.0,-0.0,-0.0,0.0,-0.0,-0.0,0.0,-0.0,-0.0,0.0,-0.0,0.0,0.0,0.0,0.0,0.0,0.0,0.0,-0.0,0.0,-0.0,0.0,-0.0,-0.0,-0.0,-0.0,-0.0,0.0,0.0,-0.0,-0.0,-0.0,0.0,-0.0,-0.0,0.0,-0.0,0.0,0.0,0.0,0.0,-0.0,0.0,0.0,0.0,-0.0,0.0,0.0,-0.0,0.0,0.0,-0.0,0.0,0.0,-0.0,-0.0,0.0,-0.0,0.0,-0.0,-0.0,-0.0,0.0,0.0,0.0,-0.0,-0.0,-0.0,-0.0,-0.0,0.0,-0.0,-0.0,0.0,-0.0,0.0,-0.0,0.0,0.0,0.0,0.0,-0.0,-0.0,0.0,0.0,0.0,-0.0,-0.0,0.0,0.0,0.0,0.20128149,0.046884373,-0.15427972,-0.12398279,-0.06767016,-0.075922,0.039055496,0.073928416,0.15435882,0.07217337,0.32296258,0.1309326,0.16022684,-0.10758855,0.28243053,-0.08329404,0.09451605,-0.13983725,-0.11427702,-0.15514536,-0.09465558,-0.047457814,-0.2004444,-0.013615563,-0.04511071,-0.21598631,0.31823078,-0.14321202,-0.31282926,0.052783743,0.015727788,0.054067936,0.06774605,0.103642695,0.21259724,0.0372493,0.32195675,-0.111680776,-0.14479356,0.26678237,-0.043610886,0.051597003,0.2472394,0.08233624,0.20740584,-0.16027589,-0.08446283,0.019040367,-0.10006228,-0.12731251,-0.12628882,-0.04193225,-0.03615402,-0.059883498,0.052163854,0.2294161,-0.081962384,0.059446346,0.2563881,-0.024443543,-0.12019001,-0.0792146,-0.024580535,-0.22433984,0.16796754,0.080787085,-0.00059566816,0.36143923,-0.024768965,-0.22527112,0.11643692,-0.05736846,0.1411385,-0.0726724,-0.06491178,-0.36138448,-0.3196513,-0.18344134,-0.11220706,-0.052608285,0.12114476,0.23450482,-0.0060730283,0.0004969159,-0.055860016,-0.034342565,-0.123666726,-0.082407065,-0.03697105,-0.14225285,0.03406994,0.1317854,0.06506403,-0.03940787,0.07619413,0.28730977,0.091302484,0.154294,0.07249112,-0.20215523,-0.056066614,-0.05960267,-0.013034941,-0.12233259,-0.0842897,-0.028774582,-0.15167928,-0.07953484,-0.12984337,-0.33629003,-0.14148957,-0.07012564,0.026320798,0.006899742,0.11753222,0.31564683,-0.046220805,0.26106146,0.2237489,-0.094781384,-0.12289605,0.057077177,-0.4371246,-0.15941915,-0.09535989,-0.1658202,0.13383012,0.27753308,0.043384627,0.10349955,0.3704452,-0.16494496,-0.043386407,0.090867646,-0.021013021,-0.15575033,-0.5762728,-0.36406013,0.06572111,-0.060597863,0.084739685,0.15743364,0.27353117,0.06020157,-0.19387205,0.24386741,-0.019778945,-0.13747683,-0.044902194,-0.1831192,0.23146857,-0.13109173,0.18137322,-0.17778686,0.02738987,-0.063206375,-0.07023862,-0.16985807,-0.2634733,-0.062136482,-0.110092804,0.08658492,0.031295612,0.23874897,0.01381229,0.048938267,0.20090134,-0.08046826,0.0076108715,0.023543285,-0.09569107,-0.18849617,-0.02786788,-0.07503691,0.06255988,-0.069946885,0.09905368,0.12878816,0.14962272,-0.15400925,0.24960952,0.38662034,0.2006685,-0.1778963,-0.034259375,0.21448964,-0.0404817,-0.28190947,-0.13362655,-0.26156968,0.239522,0.36967897,0.006698535,-0.039706115,0.008543452,-0.044578377,0.025915876,-0.0779656,0.015532219,-0.009023921,-0.12123068,-0.060865648,-0.057766587,-0.14449713,0.11783534,0.10738492,0.04727269,-0.040257063,0.1755777,0.07870395,0.0055981227,-0.03225957,0.10393254,0.22193873,-0.12886797,0.08862352,-0.13998744,-0.20108426,-0.0762175,-0.0003406829,0.102774,0.01649851,0.08060084,0.03169018,-0.10199346,0.027708165,-0.029600367,-0.011488199,0.059834696,0.1162516,-0.22977012,0.10737893,0.10705058,-0.08694177,0.15180705,0.13641289,-0.06094299,0.16683045,0.002929734,0.08678337,0.044162422,0.0890988,-0.04776752,0.1578053,-0.20407186,0.10688327,-0.087640055,-0.1828263,-0.11644229,-0.13395067,0.21560588,0.05739998,0.04907799,0.19777335,0.24914142,-0.15949415,-0.027687265,0.11645532,0.02241111,0.017966371,-0.09363082,-0.1346838,0.15282564,0.01566336,0.0071723387,0.0047479267,-0.021473372,0.0259624,-0.17978254,-0.0033525387,0.15837714,0.52099913,0.120392196,0.016195333,-0.02462336,-0.08273463,-0.0346815,-0.08711807,0.042348266,0.103099495,0.20102745,0.1674458,0.17916426,0.2656708,0.11391301,0.05914906,0.12983829,0.06631787,-0.17163713,-0.30792055,-0.20213804,-0.075319804,-0.0024740442,0.07227528,-0.08406433,0.04119459,-0.12872648,0.03747529,0.08155215,0.13575463,-0.028781064,-0.057121314,-0.17944339,0.068626985,-0.07746601,-0.2364701,-0.026241777,-0.0715777,-0.22763816,-0.074161775,0.06953998,0.008450237,-0.119018815,-0.024678255,-0.059668276,0.18773948,0.16005954,-0.13158858,-0.13395186,-0.3546113,-0.25526848,-0.067641295,0.09126774,-0.25216278,-0.09555621,-0.49904078,-0.23439342,-0.2037691,-0.23148014,-0.2299867,-0.1535884,-0.05621741,-0.02292621,0.25773612,0.06956592,0.023727562,0.124174625,0.02117522,-0.11825167,0.25461665,0.3658265,-0.1900068,-0.08324365,-0.24006839,-0.24533562,-0.17676674,-0.20367181,-0.12479687,-0.287308,-0.21540903,0.040604338,0.076405026,0.20632733,-0.15941489,0.025819689,-0.044691965,0.120601885,0.02334334,0.12175369,0.062432926,0.13296083,-0.19394645,0.24610934,0.2238399,-0.060256504,-0.033230167,0.31809002,0.10478285,0.21015105,-0.2216592,-0.26334044,-0.0072415657,0.11310273,0.18619977,0.13630547,0.053002693,0.071950875,0.022949236,-0.08347833,-0.0063008103,-0.1653638,-0.1326034,0.06269862,0.091772035,-0.17402056,-0.055025678,0.10603158,-0.06431695,0.055052575,0.11195801,-0.030719664,-0.15553737,-0.25567317,0.12041012,-0.15281503,-0.13426133,0.0023141762,-0.03259864,0.16290987,-0.008247774,0.061246686,0.085431345,-0.14168505,-0.24374986,-0.17904828,0.011549493,0.31957805,0.26845047,0.19026944,0.20696925,0.100586645,0.00334343,0.0176195,-0.027554564,-0.079545796,-0.06456147,0.049527273,-0.07117946,0.167932,0.19604817,-0.02522554,0.23705503,0.10755852,0.0062170187,0.09165848,-0.18258487,-0.1070917,-0.0864807,-0.09086308,-0.13223714,0.018026372,-0.033675343,-0.22173464,-0.19563226,-0.20132728,0.004654853,-0.20551394,0.02256768,0.19638132,-0.004372269,0.0012097716,0.0234111,-0.09848296,-0.03371257,0.18829857,0.13656536,0.028909633,0.18267214,0.19684727,-0.043340392,0.12709999,-0.08942861,-0.21528679,-0.17930889,-0.10136552,0.07733144,0.028929342,0.0453934,0.09409954,0.08626001,-0.34802788,-0.21690322,-0.003634287,-0.03910932,0.011083053,0.13732514,0.12968113,0.083741315,0.05499351,-0.09827726,0.17912537,-0.04989939,-0.071496114,0.11453149,0.049616218,0.10511716,0.13661976,0.20182317,0.22853032,0.19867067,0.038067326,0.10795798,0.033896603,0.13047464,0.07207818,0.025521891,-0.090818875,-0.004179584,-0.009054534,-0.09129027,-0.08950959,-0.085499026,-0.14371349,-0.11935188,-0.007336199,-0.16497602,0.025510766,0.048103966,-0.27002937,-0.19516271,-0.07951308,-0.17387326,-0.02035907,-0.261496,0.27317667,0.2969016,-0.160819,0.1683572,0.04079811,-0.07531307,0.25233003,-0.053147618,0.003706831,0.18242803,-0.091799624,0.2248502,0.2973442,-0.16220857,0.4693179,0.21852939,0.31152204,0.31860057,-0.007065824,-0.16932327,0.10453157,-0.04025053,-0.26208833,0.18364105,0.2076497,-0.16277692,-0.08256797,0.082180545,0.51501346,0.15366264,-0.073203035,-0.03122862,-0.02138181,-0.25315794,-0.2372425,-0.25437889,-0.098905325,-0.155816,-0.14638636,0.05545191,0.073884316,-0.12101241,0.030387219,0.04248348,0.15358098,-0.013077257,0.07375468,0.2282302,-0.12763956,-0.00014408109,0.028771333,-0.08103431,0.04140664,0.06800537,-0.033189833,0.23349972,0.27027413,-0.16494875,0.22094074,0.17457052,-0.08959863,-0.07372841,-0.27831593,0.065194644,0.026863689,-0.03794019,0.022738695,-0.07948115,0.12225041,-0.11790416,-0.02427644,0.040641878,0.0,-0.0,0.0,-0.0,0.0,-0.0,-0.0,-0.0,-0.0,0.0,-0.0,0.0,0.0,-0.0,-0.0,-0.0,-0.0,-0.0,0.0,-0.0,0.0,-0.0,-0.0,-0.0,0.0,0.0,0.0,0.0,0.0,0.0,0.0,0.0,-0.0,-0.0,0.0,-0.0,0.0,0.0,0.0,-0.0,-0.0,0.0,0.0,0.0,0.0,-0.0,-0.0,0.0,0.0,0.0,0.0,0.0,-0.0,0.0,0.0,-0.0,0.0,0.0,-0.0,-0.0,-0.0,0.0,0.0,-0.0,0.0,-0.0,-0.0,0.0,0.0,0.0,0.0,-0.0,-0.0,0.0,-0.0,-0.0,0.0,0.0,0.0,-0.0,-0.0,-0.0,-0.0,0.0,-0.0,0.0,0.0,-0.0,0.0,-0.0,-0.0,0.0,0.0,-0.0,0.0,-0.0,0.0,0.0,-0.0,-0.0,-0.0,0.0,-0.0,-0.0,-0.0,-0.0,0.0,0.0,-0.0,-0.0,-0.0,0.0,-0.0,-0.0,-0.0,0.0,-0.0,-0.0,0.0,-0.0,-0.0,-0.0,0.0,0.0,-0.0,0.0,-0.0,0.0,0.0,0.0,-0.0,0.0,0.0,0.0,0.0,0.0,-0.0,-0.0,-0.0,-0.0,-0.0,-0.0,-0.0,-0.0,-0.0,0.0,0.0,0.0,-0.0,0.0,-0.0,0.0,0.0,0.0,0.0,0.0,-0.0,-0.0,-0.0,0.0,-0.0,0.0,-0.0,-0.0,0.0,-0.0,-0.0,0.0,-0.0,-0.0,-0.0,-0.0,-0.0,0.0,0.0,0.0,0.0,-0.0,0.0,-0.0,0.0,0.0,0.0,-0.0,0.0,0.0,0.0,0.0,-0.0,-0.0,-0.0,0.0,-0.0,0.0,-0.0,-0.0,-0.0,0.0,-0.0,-0.0,0.0,0.0,0.0,0.0,0.0,0.0,0.0,0.0,-0.0,0.0,0.0,-0.0,0.0,0.0,0.0,-0.0,-0.0,0.0,0.0,0.0,0.0,-0.0,0.0,-0.0,-0.0,-0.0,-0.0,0.0,0.0,0.0,0.0,0.0,-0.0,-0.0,0.0,-0.0,0.0,0.0,0.0,0.0,-0.0,-0.0,-0.0,-0.0,0.0,0.0,-0.0,0.0,0.0,0.0,-0.0,-0.0,0.0,-0.0,-0.0,0.0,0.0,0.0,0.0,0.0,0.0,-0.0,-0.0,0.0,-0.0,0.0,0.0,0.0,-0.0,-0.0,0.0,-0.0,-0.0,-0.0,0.0,0.0,0.0,-0.0,0.0,-0.0,-0.0,0.0,-0.0,0.0,0.0,0.0,0.0,0.0,0.0,-0.0,-0.0,0.0,0.0,0.0,0.0,-0.0,-0.0,0.0,-0.0,-0.0,-0.0,0.0,-0.0,0.0,0.0,-0.0,-0.0,-0.0,-0.0,0.0,0.0,0.0,0.0,0.0,-0.0,-0.0,0.0,-0.0,-0.0,0.0,-0.0,-0.0,-0.0,0.0,0.0,-0.0,0.0,0.0,-0.0,0.0,-0.0,0.0,0.0,0.0,-0.0,0.0,0.0,0.0,0.0,0.0,-0.0,-0.0,-0.0,0.0,-0.0,-0.0,-0.0,-0.0,0.0,0.0,-0.0,-0.0,-0.0,0.0,0.0,0.0,0.0,-0.0,0.0,-0.0,-0.0,0.0,-0.0,0.0,0.0,-0.0,0.0,0.0,-0.0,-0.0,0.0,0.0,-0.0,-0.0,-0.0,-0.0,-0.0,0.0,0.0,-0.0,-0.0,-0.0,-0.0,-0.0,-0.0,-0.0,-0.0,-0.0,0.0,0.0,-0.0,0.0,-0.0,0.0,-0.0,0.0,-0.0,-0.0,0.0,-0.0,0.0,0.0,-0.0,-0.0,-0.0,0.0,0.0,0.0,0.0,0.0,0.0,0.0,0.0,0.0,0.0,0.0,0.0,0.0,0.0,-0.0,-0.0,-0.0,0.0,-0.0,0.0,-0.0,0.0,0.0,-0.0,0.0,-0.0,0.0,0.0,-0.0,0.0,-0.0,0.0,0.0,0.0,-0.0,0.0,0.0,-0.0,0.0,0.0,-0.0,0.0,-0.0,0.0,-0.0,0.0,0.0,0.0,-0.0,0.0,-0.0,0.0,-0.0,0.0,-0.0,-0.0,0.0,-0.0,-0.0,0.0,0.0,-0.0,-0.0,-0.0,-0.0,0.0,-0.0,0.0,0.0,-0.0,-0.0,-0.0,-0.0,0.0,0.0,-0.0,0.0,-0.0,0.0,-0.0,0.0,-0.0,-0.0,0.0,0.0,-0.0,0.0,0.0,-0.0,-0.0,-0.0,0.0,-0.0,-0.0,-0.0,-0.0,-0.0,-0.0,-0.0,-0.0,-0.0,0.0,-0.0,0.0,0.0,-0.0,-0.0,0.0,0.0,-0.0,0.0,-0.0,0.0,-0.0,-0.0,0.0,-0.0,-0.0,-0.0,0.0,0.0,-0.0,0.0,0.0,0.0,-0.0,-0.0,0.0,-0.0,0.0,-0.0,0.0,0.0,-0.0,0.0,0.0,0.0,-0.0,0.0,0.0,-0.0,-0.0,-0.0,-0.0,-0.0,0.0,-0.0,0.0,0.0,-0.0,0.0,0.0,0.0,-0.0,0.0,-0.0,-0.0,-0.0,-0.0,0.0,0.0,-0.0,0.0,-0.0,0.0,-0.0,-0.0,-0.0,0.0,-0.0,0.0,0.14035605,-0.121157594,0.11496015,0.04381312,-0.14049864,-0.05055482,-0.13613655,-0.27551296,-0.19416924,0.07323869,-0.07194457,-0.054726016,0.09194023,-0.16022606,0.050511062,0.08539822,0.061037887,0.042756815,0.28629273,0.11218753,-0.15289362,-0.03157708,-0.13280602,-0.10961244,-0.29015625,-0.12919873,-0.13000906,-0.29756105,0.01856635,-0.036314208,-0.37074926,-0.26123953,-0.4959211,-0.16353554,-0.16541925,-0.27889737,-0.10020479,0.104670756,-0.29487774,-0.083861865,-0.16695917,-0.14688316,0.31235358,0.37781423,-0.18271779,-0.23611152,-0.11150663,0.13596602,-0.1449973,0.13267547,-0.11027492,-0.14100409,-0.19740419,-0.08540505,-0.37333143,0.0617537,-0.21024704,0.15577115,0.19184451,-0.19183558,0.49248046,0.47288942,-0.13495605,-0.113332056,-0.15198286,-0.21614927,-0.21488728,0.09752322,0.18769656,-0.21855281,0.45305938,0.5372364,-0.10797087,0.11348583,-0.005338432,-0.08763792,-0.03265664,-0.1467789,-0.35993108,-0.09153033,-0.013456057,0.06016504,0.0013477744,-0.016153565,-0.053189725,-0.016172348,-0.017768763,-0.030419806,0.22167136,0.024488844,-0.014891316,-0.18288465,0.10035845,0.066010855,0.13481836,-0.22233437,0.13641176,0.11722258,-0.08751444,0.16613626,0.3488802,0.13310355,0.15125932,-0.036754858,0.20652464,0.11211918,-0.20014545,-0.26857975,0.15881391,0.19646248,0.3972359,-0.12479996,-0.10590236,0.23349291,-0.17193648,0.4105499,0.0047708224,0.06487587,-0.014130763,0.09722733,-0.025741076,0.17623857,0.23645048,-0.18950456,-0.02065187,-0.25801867,-0.22846799,-0.22124657,-0.15732127,-0.12477064,-0.49937078,-0.26421782,-0.03540841,0.14658587,0.2626587,0.34054458,-0.086752415,-0.32206964,-0.117555685,0.074631095,0.30500385,-0.14643678,0.043782324,0.1868443,-0.15836951,-0.111057244,-0.12333719,-0.49313247,-0.42222866,-0.2627837,-0.19111186,-0.015350134,-0.18414643,0.027360061,0.10577969,0.11717474,0.094202325,-0.008050755,0.1987238,-0.27646345,-0.0409019,0.0029296349,-0.051528342,-0.17444581,-0.33332187,-0.09767444,-0.2486142,-0.23329267,-0.14442745,0.38275895,-0.11604392,-0.3300354,-0.14630026,0.07395815,0.20861934,-0.054032855,-0.25472698,0.0016672679,-0.24802116,-0.22994225,0.25770995,-0.1603675,-0.13426392,0.17132352,0.4440104,-0.18633106,-0.12098064,0.12629564,-0.089375295,-0.03232734,0.09476769,-0.11409844,-0.0723361,0.072198,0.043246172,-0.03181779,-0.1406226,0.021380616,0.11231059,0.22634219,0.06729673,-0.06373781,0.06671573,0.19428727,0.017458377,0.025572423,-0.0956205,0.13399424,0.17128953,0.19970009,0.18908194,0.05680823,-0.073890045,0.17013247,-0.12165709,-0.035249006,-0.114540115,-0.045534212,0.16163373,0.050522357,0.23800202,-0.050419684,-0.12121276,0.08979527,-0.11980457,-0.29290617,-0.10077308,0.05210958,0.20507076,0.5526918,-0.16846974,0.16188027,0.40104786,0.12696746,-0.12648837,-0.13440284,-0.10711781,0.08084914,0.06640588,0.19908868,-0.00892903,-0.3325593,-0.20641123,0.033520766,-0.10624063,0.033357896,0.06400234,0.4011819,0.31300074,-0.111987196,-0.1878394,0.115294255,-0.1654815,0.041152317,-0.002587277,-0.24496397,-0.118461646,0.1763654,-0.09496409,0.0501068,-0.037795264,-0.31922242,0.04010503,0.01729257,-0.017297689,0.5335719,0.2949513,0.25304046,0.47898933,0.13097136,0.083370015,-0.044709507,-0.33164486,-0.10518061,0.20382307,-0.24910043,-0.2008498,0.095263265,0.26188365,-0.0008246508,0.271679,-0.016510747,-0.061553914,0.123775356,0.076299824,-0.11216672,-0.27190262,-0.12275335,0.18740353,0.19386059,-0.05590367,0.17055951,0.19774327,0.056549378,0.040095437,-0.114175886,-0.18440558,-0.024512762,-0.030215984,0.053947046,0.37958956,0.11537026,0.052237455,0.3012035,0.14705643,-0.07848054,-0.20773068,-0.050752,0.1280709,-0.027909918,-0.097322196,-0.012761066,-0.24395578,-0.22811455,-0.19896047,-0.10099422,-0.3782889,-0.08850469,-0.009931253,-0.13542303,-0.18329787,0.10720832,-0.17520997,0.20555332,0.22650555,0.4351473,0.085850544,-0.18251319,0.1771271,-0.11254813,-0.32463336,-0.0013561638,-0.19943254,-0.0018380645,-0.027648775,0.018924922,0.4365545,0.1891509,-0.0045077247,-0.03507837,0.2120072,0.13403027,-0.20049755,0.09522431,0.09304848,-0.13938054,0.10779346,0.25136778,-0.12589194,-0.23477198,0.12330643,0.31835842,0.07436154,-0.08568766,0.1621951,0.14576294,0.060134914,-0.06717476,0.13036488,-0.2263222,0.14264955,-0.0268622,0.11005097,-0.08835925,-0.26306853,-0.13928047,0.16309522,0.09908788,0.13054611,-0.13883294,-0.1507086,0.1206335,0.12959635,-0.31325683,-0.047423553,-0.21917549,-0.5078255,-0.10100169,0.09947835,0.25118408,0.24602956,-0.05035784,0.040563278,0.109801605,0.1630659,0.21662426,0.15111344,0.067797706,0.21526298,0.31252548,-0.21821626,-0.24702151,-0.13460414,-0.18944009,-0.37797767,-0.29119626,0.013360046,0.03231115,0.05354525,-0.02907057,0.10661437,0.14076895,0.03195835,0.0673177,-0.1137117,-0.08508355,-0.17694749,0.12963742,-0.20296776,-0.083439365,-0.15121195,-0.15104073,-0.20153524,-0.17888914,0.079351135,0.20145588,0.04673457,0.27183747,0.11667138,-0.15325859,-0.10430851,0.14548427,0.15012705,-0.2390224,0.13938919,-0.1958077,0.12625898,0.32511485,-0.24702093,-0.04055542,-0.24660957,-0.17890258,-0.09324218,-0.01857353,0.053388827,0.051620234,-0.23242171,0.07570954,0.057675213,-0.23379791,0.09687147,0.040951766,0.18435375,0.010055771,0.069697976,0.14874509,0.28306335,0.15043549,-0.009165518,-0.071218126,-0.12104723,0.009066544,-0.22416115,-0.23262481,-0.1902014,-0.3454757,-0.19154005,-0.117862925,-0.033019785,-0.24484597,-0.4274964,-0.08023516,-0.31749955,-0.29638413,-0.07564486,-0.26990044,-0.3767521,-0.09900159,0.08751482,-0.00033714648,-0.22383915,0.08890783,0.18011488,-0.18616737,-0.001988025,-0.25367588,-0.28120574,-0.17382418,-0.07001685,0.07843577,0.15466036,0.1956929,-0.16616647,-0.08123865,0.14607677,0.15304868,-0.24829863,-0.26890218,-0.22886382,-0.12648286,-0.07418129,-0.13471597,0.1096577,0.03523094,0.046131942,-0.037050497,0.083629355,0.15219437,0.008270419,-0.074575715,0.020889606,-0.053835724,-0.15752669,-0.21158734,-0.066112585,-0.22126631,-0.13382153,-0.0143641485,-0.15788585,-0.058728263,-0.11577668,-0.31800276,-0.084020235,0.09561387,-0.1575912,-0.07905506,0.1664534,0.018694866,-0.27199647,0.08433145,0.14894725,0.12108736,-0.12144468,0.011061854,-0.070577845,-0.21072389,-0.043067522,-0.033916134,-0.2185628,-0.4883633,0.08844809,-0.12986653,-0.40936074,-0.090857156,0.03434275,-0.46674842,-0.1481236,0.0029973213,-0.065769225,0.07241804,0.057811856,0.088191204,0.19421059,0.17909199,-0.009430673,0.35641712,-0.014895975,-0.015604634,0.063840844,-0.09833962,0.20807675,0.035756193,-0.12571624,0.23483469,0.2279033,-0.2239621,0.13625409,0.1952423,-0.059340544,-0.20283695,-0.0815271,-0.4307088,0.2006229,-0.027903996,-0.0065403325,0.11184785,0.36485994,-0.1446368,-0.17786746,-0.17686918,0.17707089,-0.04372649,0.023560654,0.07016823,-0.19378312,-0.4160459,-0.14812359,-0.2166964,-0.019537423,0.010812072,-0.2940262,-0.027558342,0.15908675,0.04553371,-0.084046975,0.076809645,0.12011539,0.03450682,0.24439369,0.31082946,-0.077574536,-0.02875544,-0.08160978,-0.181504,0.007735431,-0.042780075,-0.10827953,0.25500196,-0.05443698,-0.23508878,-0.08755367,-0.14880182,-0.15109217,-0.099631436,0.12362414,0.2529061,-0.14712384,0.038419332,0.1659246,-0.010037688,0.03552752,-0.009871394,-0.12737569,-0.30755997,-0.06151244,-0.17604546,-0.013073357,0.084403396,0.038622092,-0.19945352,0.06852241,0.061622333,0.34296453,-0.07925987,0.12501928,0.16434787,0.13031565,0.06399162,0.05614991,-0.04775672,0.041769065,-0.046637725,0.012823654,-0.09717834,0.010634796,0.13388601,-0.19623174,0.21562293,0.14432502,-0.05346449,0.11297634,0.24007824,0.04443406,-0.08396249,0.053434126,0.090656556,0.033339668,0.0887823,0.061408795,-0.14991531,-0.020542597,-0.101865046,-0.15079875,-0.14057612,0.21469362,0.022598939,-0.121730305,0.0846214,-0.16757302,-0.15034196,0.034917016,-0.13816236,-0.19006748,-0.20280743,-0.1434715,-0.22044991,-0.087270044,-0.024338912,0.048689816,-0.00031990354,-0.023501584,0.019474184,0.0015032588,-0.009020708,0.0048626377,-0.14999688,-0.08189285,0.1127877,0.1647975,0.14507574,0.19941908,0.24578701,0.1656139,0.16339344,0.15462652,0.15757002,0.15403141,0.20172177,-0.0036065232,-0.06879308,0.031522937,0.015020437,-0.26095468,-0.17218876,-0.1549879,-0.09269819,-0.19618893,0.12708572,0.115737215,-0.033420667,0.15913138,0.030302554,0.12302075,0.11468265,-0.10656943,0.054343797,-0.055470645,-0.09951094,-0.081746094,-0.052789822,0.21051058,0.083585195,-0.07978715,-0.29530817,-0.051122855,0.1683421,0.049128987,-0.06006679,0.118584804,0.057682574,0.18073303,0.027449924,0.23977047,-0.03921961,-0.06787201,0.2526706,-0.034716368,0.016166518,-0.024677172,-0.045833763,-0.07875741,0.12765561,0.20159163,-0.09703608,-0.12835094,0.04670991,-0.18870842,-0.115786344,0.014270342,0.018744437,0.08278343,0.015660387,0.15323505,0.22076893,0.085510045,0.11343235,0.14719597,-0.15635392,-0.13289043,0.03469328,0.055397697,0.09591942,0.12995449,-0.10396938,0.09826138,-0.071825676,0.10740809,-0.13330856,0.08892992,0.11442243,-0.09314374,0.18468997,0.10503595,0.06257353,0.21705595,0.18759643,0.232371,-0.20340814,0.20186995,-0.0139834285,-0.12050004,0.124334246,-0.05488716,0.012530812,-0.1668533,0.051833604,-0.0048350305,-0.07375131,0.032048702,0.06586308,0.08787986,-0.08475927,-0.1099634,0.05416048,-0.042566776,-0.10739193,-0.033948563,-0.024834992,-0.10437607,0.0010973475,-0.10042628,-0.1677689,0.040806152,-0.020247327,0.09864237,0.17247461,0.16830769,0.14536406,0.21825898,0.37054384,-0.004495725,-0.09772518,-0.08444156,0.09843306,-0.047722578,-0.15260199,0.005865934,-0.17814271,-0.041829757,0.21586627,0.07284375,0.02363217,-0.096366584,-0.13905473,0.04193748,0.018534701,-0.23832679,-0.23273672,-0.0514173,0.20481977,0.074463055,-0.07584499,0.12040348,0.06633467,-0.102338925,-0.058364164,-0.06004832,-0.16900201,0.22571008,0.11113153,0.08086703,0.068016134,0.021444265,0.15150578,0.01699848,0.07973682,-0.060219202,-0.2735092,-0.20686318,0.09530551,-0.50580025,-0.18041597,0.33495066,-0.22424424,-0.0223904,0.18219739,0.046112802,0.03509982,-0.11817461,-0.10645215,-0.013584078,-0.12530062,0.10961367,-0.030184517,-0.13367407,0.023602884,-0.12210885,0.12216947,0.0992681,-0.07776675,-0.13855575,-0.31208605,-0.021679983,-0.21093728,0.14124465,0.14130536,-0.055215564,0.053064257,0.13886878,0.18682933,-0.0014742544,-0.10537429,0.03264222,0.082611516,0.0046201614,-0.06217145,-0.19313464,0.024586733,0.040426847,-0.1029502,0.18415546,0.059855018,-0.08929631,0.04442704,-0.0075075333,0.07991486,-0.12321935,-0.017969491,-0.06069757,0.016500082,0.2910882,0.08709406,0.10331337,0.13496473,0.1259449,0.13126306,-0.0016011794,-0.01856306,0.0074336836,-0.16887377,-0.25134453,-0.1846456,-0.21475805,-0.26291054,-0.020417724,-0.01256744,-0.0013434158,0.016104098,0.03582016,-0.14850332,-0.09497504,-0.0820175,-0.11862152,0.07803905,-0.021216152,-0.16827562,0.0071791126,-0.0736271,-0.010261446,-0.19531932,-0.17098503,0.12431243,-0.0123211285,-0.00020859086,0.15075065,-0.049897548,-0.19835639,-0.010622655,0.14830439,-0.018551605,-0.0190992,0.14860834,-0.033250257,-0.07300632,-0.1375419,0.002114255,0.029493038,0.26172358,-0.07128321,-0.40165836,-0.28597963,-0.09493263,-0.19041477,-0.24274987,-0.068601824,0.23412457,0.266208,-0.12177583,0.09293355,0.0013539048,-0.12596631,0.020597126,0.09191956,-0.065963194,-0.069530115,-0.20022054,-0.101458274,0.036875743,-0.0662351,-0.03686788,-0.10788579,0.06809259,0.16335724,-0.030590005,0.13652167,0.25135526,0.061857786,0.01781354,0.30832496,-0.20971386,-0.1398172,-0.16821109,-0.011818064,-0.011416299,-0.16795415,-0.22184202,-0.16089459,-0.097045735,-0.13521536,-0.013381678,0.3159995,0.056325767,-0.0110030295,0.025260674,-0.0048477245,-0.02579134,0.0056793815,-0.19449735,-0.12176308,0.056751095,-0.032820877,0.072722085,0.016798504,-0.018301612,-0.035163846,-0.11199617,0.13034342,-0.030488752,-0.027873117,-0.24100503,0.02478117,-0.018119683,-0.31876734,0.002960612,0.21967284,0.22722796,0.195082,-0.0031772796,-0.012762095,-0.09602147,-0.1919827,-0.0059307544,0.18277265,-0.031347707,0.14579669,0.050401725,-0.12541759,-0.18302408,0.2712566,0.01162803,0.09577312,0.25051242,0.081521474,0.10917502,0.31611603,0.1475347,-0.32005498,-0.16572776,-0.027281787,-0.18601586,-0.06439961,0.0107607,0.10794819,0.05588099,0.14900516,0.190364,-0.0518237,-0.034949925,-0.17471115,0.008508635,0.3039266,-0.096515335,-0.038383912,0.10457412,-0.13133678,-0.040242437,-0.086781956,-0.1758846,-0.06627055,-0.123018056,-0.07425543,-0.101779796,-0.10251506,0.05164079,0.097638465,0.104318865,0.05671853,0.20222917,0.1308087,-0.16511558,0.054813378,0.123489104,0.0032624637,0.18104813,0.23266442,0.08032681,0.10230437,-0.14834802,-0.17204614,-0.079983905,-0.07446098,0.061520096,0.09528047,-0.0132248085,0.2593972,0.026700485,-0.30045617,-0.13062215,0.23215345,-0.12365403,0.025079982,0.069748335,-0.019791849,-0.14746816,-0.03175755,0.070439875,-0.1333179,0.012713272,-0.08836431,-0.04500873,0.09247781,-0.079271756,0.04941617,0.22756371,0.013181119,0.08044313,0.0781213,-0.054211073,0.2854094,-0.12292267,-0.18373951,0.028354976,0.010561554,0.047419112,-0.018558102,0.014903912,0.15139215,-0.10183937,-0.13230151,0.06861289,-0.1437511,-0.09760327,-0.06074648,-0.11875116,-0.12775435,-0.044090908,-0.12568036,-0.035647586,-0.12114603,0.13449909,-0.068822294,-0.18302584,-0.040175043,-0.12482686,-0.05211669,0.024335539,0.16800892,0.14927186,-0.06711987,0.16449437,0.12249904,-0.05213513,0.17442955,-0.05871473,0.01580781,0.006220502,-0.2665577,0.079527766,-0.09875039,0.006992868,-0.14335522,-0.02774745,-0.014462815,-0.07249907,0.16614908,0.03532206,0.2108326,0.19778621,-0.18421881,0.20689897,0.17686804,-0.04520071,0.0,0.0,0.0,-0.0,-0.0,0.0,-0.0,0.0,-0.0,-0.0,0.0,0.0,0.0,-0.0,-0.0,0.0,-0.0,0.0,-0.0,-0.0,0.0,-0.0,0.0,0.0,-0.0,0.0,0.0,-0.0,0.0,-0.0,0.0,-0.0,0.0,0.0,0.0,-0.0,-0.0,-0.0,0.0,0.0,-0.0,0.0,0.0,0.0,-0.0,-0.0,0.0,0.0,-0.0,0.0,0.0,-0.0,-0.0,-0.0,-0.0,-0.0,-0.0,-0.0,0.0,0.0,-0.0,0.0,0.0,0.0,-0.0,0.0,0.0,0.0,-0.0,-0.0,0.0,-0.0,0.0,0.0,-0.0,0.0,-0.0,-0.0,-0.0,0.0,-0.0,0.0,-0.0,-0.0,0.0,-0.0,-0.0,0.0,0.0,-0.0,0.0,-0.0,-0.0,-0.0,0.0,0.0,0.0,0.0,-0.0,0.0,-0.0,-0.0,-0.0,-0.0,-0.0,0.0,0.0,0.0,0.0,-0.0,-0.0,0.0,-0.0,-0.0,0.0,-0.0,0.0,0.0,0.0,-0.0,-0.0,-0.0,-0.0,0.0,-0.0,-0.0,0.0,0.0,0.0,0.0,-0.0,0.0,0.0,0.0,0.0,0.0,-0.0,-0.0,0.0,0.0,0.0,0.0,0.0,0.0,-0.0,0.0,-0.0,-0.0,0.0,-0.0,-0.0,0.0,-0.0,-0.0,0.0,-0.0,0.0,0.0,0.0,0.0,0.0,0.0,0.0,0.0,-0.0,-0.0,-0.0,-0.0,0.0,-0.0,-0.0,0.0,0.0,-0.0,0.0,-0.0,-0.0,-0.0,0.0,-0.0,-0.0,-0.0,0.0,0.0,0.0,-0.0,-0.0,0.0,0.0,-0.0,0.0,-0.0,0.0,0.0,0.0,-0.0,-0.0,-0.0,-0.0,0.0,0.0,-0.0,0.0,0.0,-0.0,-0.0,-0.0,-0.0,-0.0,-0.0,-0.0,0.0,0.0,0.0,-0.0,-0.0,0.0,-0.0,0.0,-0.0,-0.0,0.0,-0.0,0.0,0.0,0.0,-0.0,0.0,0.0,-0.0,0.0,0.0,-0.0,0.0,0.0,0.0,0.0,0.0,-0.0,0.0,0.0,0.0,-0.0,0.0,-0.0,-0.0,0.0,0.0,0.0,-0.0,0.0,0.0,-0.0,0.0,-0.0,0.0,-0.0,-0.0,-0.0,0.0,-0.0,-0.0,-0.0,0.0,-0.0,-0.0,0.0,0.0,0.0,0.0,-0.0,0.0,0.0,-0.0,0.0,0.0,0.0,-0.0,0.0,-0.0,0.0,0.0,0.0,0.0,0.0,-0.0,-0.0,0.0,0.0,0.0,0.0,0.0,0.0,0.0,-0.0,-0.0,0.0,0.0,0.0,-0.0,0.0,-0.0,-0.0,0.0,-0.0,0.0,0.0,-0.0,-0.0,0.0,0.0,-0.0,-0.0,0.0,-0.0,0.0,0.0,-0.0,0.0,0.0,-0.0,0.0,0.0,-0.0,0.0,0.0,-0.0,0.0,0.0,-0.0,0.0,0.0,0.0,-0.0,0.0,-0.0,-0.0,0.0,0.0,-0.0,-0.0,0.0,-0.0,0.0,0.0,-0.0,-0.0,-0.0,-0.0,0.0,-0.0,0.0,-0.0,-0.0,0.0,-0.0,-0.0,-0.0,0.0,0.0,0.0,0.0,0.0,0.0,0.0,0.0,-0.0,0.0,-0.0,-0.0,-0.0,-0.0,0.0,0.0,-0.0,0.0,-0.0,0.0,0.0,0.0,-0.0,-0.0,-0.0,-0.0,0.0,-0.0,0.0,-0.0,0.0,0.0,-0.0,0.0,0.0,0.0,0.0,-0.0,0.0,0.0,-0.0,-0.0,0.0,0.0,0.0,0.0,0.0,0.0,-0.0,0.0,0.0,0.0,-0.0,-0.0,0.0,-0.0,0.0,0.0,0.0,-0.0,-0.0,0.0,0.0,0.0,0.0,0.0,-0.0,-0.0,0.0,-0.0,-0.0,0.0,-0.0,0.0,-0.0,0.0,0.0,0.0,0.0,0.0,-0.0,0.0,0.0,-0.0,0.0,0.0,0.0,0.0,0.0,0.0,-0.0,-0.0,0.0,-0.0,0.0,0.0,0.0,-0.0,-0.0,0.0,0.0,0.0,-0.0,0.0,0.0,-0.0,-0.0,-0.0,-0.0,-0.0,0.0,0.0,-0.0,-0.0,0.0,0.0,0.0,0.0,0.0,-0.0,0.0,0.0,-0.0,0.0,0.0,0.0,0.0,0.0,0.0,-0.0,0.0,-0.0,0.0,-0.0,-0.0,0.0,0.0,0.0,-0.0,0.0,0.0,-0.0,-0.0,0.0,0.0,-0.0,0.0,-0.0,0.0,0.0,0.0,0.0,-0.0,-0.0,0.0,0.0,-0.0,-0.0,-0.0,0.0,0.0,0.0,0.0,0.0,-0.0,0.0,0.0,0.0,0.0,0.0,0.0,-0.0,-0.0,-0.0,-0.0,-0.0,-0.0,-0.0,-0.0,0.0,-0.0,-0.0,0.0,0.0,0.0,0.0,0.0,-0.0,-0.0,-0.0,0.0,0.0,0.0,0.0,0.0,0.0,0.0,-0.0,-0.0,-0.0,0.0,0.0,0.0,-0.0,0.0,0.0,-0.0,0.0,0.0,0.0,0.0,0.0,0.0,-0.0,-0.0,-0.0,0.0,0.0,0.20874271,-0.0068911263,0.20157492,-0.22867015,-0.026385559,0.011062768,-0.13269676,0.15243639,0.039291415,0.045415852,0.4149202,0.3183997,0.108296596,-0.3495246,-0.17879629,-0.51111096,-0.21567471,-0.30244255,0.027966166,-0.11709967,-0.21577428,0.080987155,-0.11323387,-0.029658811,-0.10099823,-0.1862454,-0.11742918,-0.09081039,-0.27403226,0.24079303,-0.25373352,-0.3089806,0.15516163,0.08613302,0.0453982,-0.023923486,0.07528128,-0.13297598,0.30953386,-0.18635234,-0.32854715,0.07144835,-0.022764446,-0.2452086,-0.12710288,0.2663545,0.148413,-0.025828786,-0.024946654,0.030748647,-0.21529569,0.36853147,0.2111901,0.0824808,0.07781919,-0.35229653,-0.58624023,0.19690283,0.12676474,-0.028397592,0.24840182,0.0869279,-0.0720063,-0.14392711,-0.21260636,-0.0888501,-0.30130318,0.028493784,0.031229204,-0.23153153,-0.37019902,-0.14257607,0.17246862,0.02546325,0.3301429,0.1390366,0.0014518193,-0.045777123,0.0055137817,-0.03136435,0.0056344667,-0.19845155,-0.19736691,0.04812743,-0.24519557,-0.1333087,-0.15709294,-0.045500282,-0.12576203,-0.050140243,-0.14788847,-0.15053359,-0.00074543594,-0.016741643,-0.0521831,0.052757975,-0.13640667,0.05863858,-0.13038224,-0.036603134,-0.060741223,0.04375811,0.23420307,0.03641826,-0.040386256,-0.085663855,0.14945015,-0.062451363,-0.085900724,-0.23222278,-0.18226747,-0.16030377,-0.18762602,-0.48849332,-0.21834236,-0.059631366,0.097522706,0.042962756,0.07314671,0.006571527,0.061579954,-0.080359004,-0.19517273,0.11316381,0.14280477,0.2699685,-0.05914518,-0.11270291,-0.10018937,0.062102444,0.538449,0.09656355,0.12900177,0.43882775,0.16132644,0.31345576,-0.014540391,