-0.0062566544,0.055442896,-0.008614412,0.022515504,0.11352891,-0.04027996,0.035456248,-0.026323631,-0.08619669,-0.0353834,-0.02211366,-0.04627815,0.004006709,0.0003408644,-0.09196781,-0.023877276,-0.060973886,-0.11252799,-0.041538563,0.05064035,0.019733004,0.0031252916,0.071868174,-0.04282677,0.026020693,-0.02324406,-0.10597102,-0.066082925,0.14219803,0.028441103,0.030598613,-0.13094254,-0.002897096,0.030466756,-0.041398667,0.03048692,0.28100285,0.24386054,-0.07129516,0.046001107,-0.24374896,-0.15843225,0.0035169793,-0.06016772,-0.056031212,-0.16353513,-0.02160226,0.016410433,-0.119290076,-0.015688127,0.17345203,-0.01038312,0.06946282,0.04582418,0.048461623,-0.03400381,-0.028519021,0.07539559,-0.017006822,-0.023661848,0.019620856,-0.02655631,-0.033407364,0.024610713,-0.030023435,-0.008145771,0.07306655,-0.0020902576,0.006855284,0.069652855,0.01437549,0.020081285,0.00840041,0.018788546,-0.00023002378,-0.018269572,-0.054191604,-0.027565248,-0.004695226,-0.046717443,-0.00021938507,0.09603745,0.013235418,0.08308455,0.0964148,-0.13823938,-0.07358568,0.0011488869,0.188687,-0.07726602,-0.09822632,-0.19835758,-0.10350979,-0.0625544,-0.28980887,-0.13122375,-0.10334246,0.038425956,-0.09272466,0.07542641,0.026025822,0.062138736,0.09484856,-0.04091668,0.009963897,-0.02063939,0.11674956,-0.0057705888,-0.035973575,0.005639206,0.010317143,-0.026562002,-0.021261629,0.030496676,-0.012597346,-0.0033453428,0.0058083883,0.009402541,0.047391284,-0.014062145,0.031970847,0.18812305,0.088801816,0.002983434,-9.563991e-05,0.044387333,0.0026486248,-0.009295248,-0.018607063,-0.018759744,-0.062368214,-0.017167045,-0.009062545,-0.009312076,0.032037698,0.038422078,-0.0065908763,0.021346975,0.065497965,-0.017529756,-0.16249117,0.077826336,-0.025203208,-0.07943263,-0.043480366,0.04317685,0.09880621,-0.21417215,0.15971224,0.34857863,-0.18469821,-0.12955047,-0.018109083,0.056823242,-0.16997062,-0.20547558,0.04620206,-0.04640206,-0.036957283,0.070929654,0.23935145,0.07121383,-0.05457623,0.041456964,-0.051270086,-0.08676751,0.84496504,0.09976755,-0.023525441,-0.055649355,-0.06926954,0.005558729,-0.03578635,0.050044272,-0.18368573,-0.11205713,-0.07925681,0.018934345,-0.08902838,0.04700918,0.031934258,-0.027361903,0.030576361,0.14231762,-0.17242874,-0.09363237,0.051712282,0.01287755,0.05771539,-0.0009607224,-0.033334423,-0.0042847833,-0.035452213,-0.33683422,0.021220544,-0.011802974,-0.042863805,0.032763466,0.028893318,-0.04450604,-0.007549613,-0.0052944757,-0.32214493,-0.025410973,-0.0016447293,-0.039265864,0.0038310387,0.042851068,0.046714466,0.041785955,0.048301116,-0.25155473,0.033684503,0.022618119,-0.0016777915,0.008930467,0.006004872,-0.032082982,-0.03181508,0.010627088,0.012082129,-0.015905129,0.03234784,0.049932685,0.019912554,-0.0835929,-0.08044832,-0.039868154,-0.009100857,-0.024363596,0.012212364,0.07264205,0.059267323,0.069109924,-0.0104025835,-0.013940269,-0.029673573,0.026286602,0.00285817,-0.006244494,0.023526363,-0.013862481,0.026975887,-0.023354914,-0.008206626,0.012263416,-0.035337653,0.068535574,-0.013372828,-0.03260464,0.037032675,0.033677556,0.03722161,0.05023812,-0.047934078,0.114532605,0.24698725,-0.2328402,0.011798801,-0.021190837,-0.13192289,-0.0014348452,-0.045665827,-0.0075009204,-0.0034387046,0.055521846,-0.08231733,0.020985061,0.05433041,0.016616335,0.0109610995,0.022394473,0.0150647005,0.08549519,0.03060211,-0.040600635,0.023350498,-0.042863052,-0.003919806,-0.026828248,-0.13920267,-0.038713366,-0.09059157,0.51125515,-0.15448485,-0.047930736,-0.03821206,0.038000457,-0.027807977,0.04112927,0.027459038,-0.045931842,0.41578475,0.063344374,-0.035479523,-0.0488171,-0.0594159,0.0069465213,0.0026691945,0.006022733,0.047184613,0.027677232,-0.10273127,0.019127598,0.0485527,-0.039270688,-0.0023618534,0.08971256,0.062955536,0.055115864,0.012905771,-0.090017974,0.06364718,0.04426106,-0.068145394,-0.038125195,-0.06595889,-0.058249403,-0.047245305,-0.11609286,-0.09419343,-0.055226807,-0.101817556,-0.06579685,0.0076349997,-0.09544435,-0.03998225,-0.09331438,-0.23452915,-0.11722219,-0.037199922,-0.035647925,-0.047715012,0.03442598,0.0017917063,0.08626681,0.036100697,-0.11004058,0.038229514,0.068881035,0.10190225,0.04693362,-0.0052241166,-0.07200208,0.024298547,-0.033166856,-0.13827851,-0.017354991,0.014282655,0.02374726,-0.020031868,-0.020094806,-0.0440702,-0.015513108,-0.03960738,-0.12949039,-0.06779706,-0.004354329,-0.06427593,-0.042001393,-7.43451e-05,0.008659523,0.02530752,0.01187875,0.030658087,0.04546639,0.01846494,0.03501709,0.053779043,0.006762111,0.057216935,-0.0057277665,0.03925646,0.068645775,0.023251906,0.0025761346,0.023739614,-0.0043602283,0.008113086,0.05170217,0.011308183,-0.12915939,-0.10549839,0.018747699,0.038849026,0.064762555,0.016086342,-0.016434805,0.03385872,0.018160887,-0.09965441,-0.14499716,0.049512416,0.028020972,0.024114974,0.034084372,-0.037094634,-0.029326234,-0.0626089,-0.060601022,-0.112081386,-0.030281825,-0.053770956,-0.06578137,-0.093183994,0.037904058,0.0039279237,-0.020446043,0.008147483,0.034740537,-0.0037383004,0.0017090332,0.016816182,0.011748033,0.029780917,-0.04408231,0.047380768,0.027517699,-0.021512572,-0.031897143,0.021079583,0.015226874,0.02589446,-0.024635993,-0.0050469735,0.032553036,-0.0473638,-0.11300422,-0.038689166,-0.05012464,-0.06902735,0.020408228
