-0.0041828994,0.021201555,-0.06748407,-0.012476887,0.1287753,-0.07588661,-0.019891083,0.11902822,-0.05238011,-0.026816256,0.05181157,-0.047338445,-0.18452094,0.051916398,-0.08787064,-0.009285253,0.016756104,0.29027364,-0.0029952126,0.020997593,-0.00075660105,-0.043510202,0.016905058,-0.010451216,0.12049999,-0.06847873,-0.00320174,0.09127225,-0.037800767,0.017118871,0.048140712,-0.033274125,0.14563549,0.26659068,-0.049741663,0.19972451,0.022908721,0.015300823,0.046317905,-0.032487985,0.060906667,0.007084726,0.20535177,0.12535623,0.118194096,-0.2031175,-0.037890807,0.09543827,-0.009844359,0.08986217,-0.058415424,-0.01759713,0.052190855,0.055147927,0.16974826,-0.013563529,-0.054903,-0.01592001,0.010571024,0.103607,0.12040724,-0.07965917,0.01866558,-0.09269612,0.5811639,-0.06231757,-0.021051371,0.17322034,0.020725278,-0.029723622,0.24964534,0.039711714,-0.12372261,0.12038795,-0.16672556,-0.014679371,0.012072622,-0.051816013,-2.166397,0.45624396,0.16008078,0.043067135,-0.1661809,-0.21599174,-0.09102085,-0.022491688,-0.17938499,-0.0375484,0.12030124,-0.0028110049,0.027487077,-0.09102706,-0.036466867,-0.067443214,0.012586897,0.23392226,0.16819912,-0.19459291,0.013950302,0.024616895,0.0187527,0.08492711,-0.19624898,0.0009893465,-0.010971254,0.03381946,0.068333715,-0.05093122,0.05454212,0.06530115,2.180036,-0.46290165,-0.027130667,0.13519725,-0.042308785,0.048260782,0.07758168,0.037361085,0.06656325,-0.13165516,0.026972031,-0.015721133,-0.07104197,0.07069449,-0.040396832,-0.017527964,0.008381274,0.0663187,0.02517668,-0.006562946,-0.01626402,0.24084227,-0.019126654,0.18206958,0.09222077,0.1656856,-0.08799973,0.005928838,0.10873101,0.031096248,0.24925354,-0.03784983,-0.09592186,0.05526882,-0.05633015,-0.024694253,0.02516532,-0.13873194,0.035798818,-0.013347174,-0.03633764,0.13516617,-0.170178,0.017049164,0.022771467,0.05138042,0.15764688,-0.14424074,0.006829339,-0.015622407,0.23574297,0.033379387,0.045736775,-0.21424384,-0.0010102049,-0.020936789,-0.6408111,0.061066683,-0.16334374,-0.01605146,0.15713911,-0.14897776,0.14030974,0.6369135,-0.00878021,-0.5950771,0.06966307,-0.14840148,-0.1473503,-0.074169494,-0.0041916836,0.06348095,-0.06515078,-0.119868316,-0.1268905,-0.013671431,0.06092602,-0.19188426,0.07439658,-0.18758906,0.085131355,0.11224431,-0.276544,-0.019717298,-0.009102914,0.32463285,0.105318375,0.06002502,-0.34338602,0.051637676,-0.16162907,0.07795628,-0.02733243,-0.0376904,0.14807925,-0.08270602,-0.17256555,-0.37445512,-0.011025638,-0.06849445,-0.0294164,0.021264456,-0.03018542,0.027029933,0.03379897,0.07252098,-0.015383283,0.022085538,0.050807387,-0.029652538,-0.10203862,0.15302044,0.020192267,-0.047849555,0.0752759,-0.11206248,-0.07328466,-0.10986213,0.12886707,0.29098058,0.04445965,-0.020689223,-0.116270795,-0.16601153,0.06341746,-0.028864477,-0.05631856,-0.04048606,-0.014909,0.016351657,-0.05276608,-0.03166269,0.047068957,0.14644812,0.028933678,-0.19200374,0.026932068,-0.048187472,-0.044150658,0.12988989,-0.15405913,-0.008967625,0.022382222,0.19052859,0.005620455,-0.008000667,-0.18250223,-0.13186562,0.061760724,0.40918806,0.044481788,0.12554502,-0.13988765,0.008572937,0.3526819,0.06297394,-0.033043418,0.095353365,-0.20475674,0.2178066,-0.04813388,0.24940792,0.046379093,-0.36608395,-0.01688266,0.13110669,-0.008185486,-0.01145974,0.2601565,-0.0495638,-0.076368324,-0.003642434,0.038067028,0.06168898,-0.07371601,0.10537075,0.2184801,0.43900916,-0.018651465,0.029020622,-0.03311149,-0.110987715,0.11589123,-0.022929052,-0.42147952,0.01113459,-0.31569368,0.054545846,0.019841986,0.015098159,-0.1119167,0.03645199,0.86174196,-0.35630986,-0.08012202,-0.13073792,-0.07450601,0.027763367,0.08505431,0.24404319,0.07394088,-0.06760592,0.057922386,-0.18874279,-0.004194975,-0.06427305,-0.023659717,-0.04815123,0.019277468,-0.014691574,-0.20649825,-0.1637644,-0.002647385,0.15771376,0.057852123,0.013679621,0.57706505,0.007480845,0.15383327,0.076469354,-0.110203676,0.15625845,0.09099121,-0.25909308,0.104001045,0.5566511,-0.026872981,0.0023131275,0.057124555,-0.17955184,-0.022508511,-0.035354033,-0.039701514,0.05199504,-0.061197918,-0.03541465,-0.08176913,-0.032630198,0.020510202,-0.12287512,-0.012656948,0.07100719,0.0671643,0.055556048,0.19645752,0.10125016,-0.04626016,0.002340597,0.014033644,-0.033732753,0.17580721,0.07960994,-0.027820628,0.11241049,-0.09767685,0.061323,0.026444348,0.12800166,-0.04287005,-0.05222195,0.39201653,-0.087695315,-0.00045838085,-0.07707584,-0.02888894,-0.0932205,0.00080236443,-0.034263812,-0.03720946,-0.053084258,0.12914993,0.1650953,-0.014774051,0.004497028,-0.043547567,-0.20968726,-0.060370937,0.2332469,0.042275857,0.011987843,-0.094814025,-0.19961227,0.032285895,0.043389793,-0.09156794,-0.029904382,0.14272036,0.30865854,0.060276598,0.16998059,-0.19169915,-0.19100189,0.104947284,0.03194925,-0.032417115,0.2893745,-0.2063214,0.13310274,0.065755,0.09773005,0.09940043,-0.13581602,0.16894151,-0.33017305,-0.084530964,0.1720602,0.030199429,0.035568725,0.029648038,0.14085463,0.041281376,0.081489034,0.025389489,0.15389727,0.068587564,0.010108369,0.043748144,0.026556455,0.020703979,-0.03711263,0.03838971,0.11110225,-0.03191006,-0.05583612,0.05357238,0.059172083,-0.01923711,0.0152586885,-0.026703542,0.026064215,-0.12060895,0.023135044,-0.06411849,-0.10108633,0.147621,0.099444844,-0.009971288,-0.019829271,0.05915404,-0.1147329,-0.21897128,-0.07015012,0.030989494,-0.15098618,0.08508123,0.114697754,-0.046195664,0.06884449,-0.038463924,-0.09319866,-0.20517719,-0.030127676,0.0708489,0.050295778,-0.017171916,-0.32421649,-0.052847207,0.48267606,0.07599318,0.011900577,-0.05622016,-0.08064016,-0.43308005,0.0934619,-0.08679326,-0.07152308,-0.030501766,-0.101007424,-0.048578117,-0.042230967,0.0054364786,0.31728935,0.23229022,0.014107517,0.081711695,0.11098954,0.0040949224,-0.009768766,0.13369909,-0.042966425,0.0695486,0.0802661,0.2948261,0.2981609,-0.048657294,-0.08559293,-0.0140733905,-0.22267586,-0.03951043,-0.13939287,-0.01430532,-0.1986773,-0.011078611,-0.05404521,-0.20468475,-0.0016117719,-0.092818394,-0.12629601,-0.059069272,0.029027678,-0.060915783,0.16924869
