0.23954996,0.15226196,0.019476237,0.006967207,0.040907573,0.11934803,0.038868986,-0.090281576,0.014380274,-0.09773889,0.047351073,-0.017835855,-0.081892215,-0.041169934,0.011191708,-0.0012214063,0.0032704228,-0.008162552,0.062397096,-0.063916855,-0.056124207,0.024392076,-0.021947064,0.08987272,0.25213066,-0.10939523,0.06602742,0.06399512,0.030373229,-0.004420276,-0.118758,-0.061566923,-0.09568729,-0.15660512,0.11091867,0.058381498,-0.11725185,0.044148833,-0.12255793,-0.012915468,-0.086441614,-0.0685802,-0.06010176,0.059264094,0.07736974,-0.054561432,0.02355306,-0.055663094,0.13530059,0.014571304,-0.05513579,-0.09884958,0.18427314,-0.037954677,-0.013786583,0.10294331,0.03530797,-0.029682746,0.12114788,-0.26668975,0.061542273,0.006613986,-0.0024094987,-0.047638733,-0.04879428,-0.0040936847,-0.035080053,-0.1259579,0.043687183,0.0068590697,-0.09558142,-0.07502187,0.049127925,0.13649711,0.087047756,0.09415261,-0.022158967,0.052316885,-0.1778534,-0.026089704,-0.026818145,0.1682071,-0.07556317,-0.15541965,-0.13797529,0.070443384,0.06511281,-0.081673004,-0.014025762,-0.023990711,0.0029665611,0.06950578,-0.12906873,0.08737925,-0.011968026,0.004202326,-0.17275572,0.048206996,-0.027191032,0.06025201
