0.0022264745,0.005464889,0.020160252,0.011617938,0.035034314,0.023718266,-0.0044332757,-0.037358493,-0.024527648,-0.040342167,-0.06887377,-0.050181184,-0.008242901,-0.04808527,0.014402107,0.07779061,0.085020766,0.06434369,-0.0041199713,-0.019274572,0.00036725766,0.0025295184,-0.02720729,-0.0016739648,0.041073505,0.06411169,0.059616342,0.028119147,0.03870975,0.07372072,-0.010298798,-0.015756419,0.037633274,-0.041816305,0.019461414,0.039080765,0.001937197,-0.019684726,-0.00902812,0.010762148,0.013485595,0.014994405,0.023614068,0.034052245,-0.009055602,0.030096436,-0.0099117,-0.036560014,0.01981263,0.010950926,-0.0245442,-0.013544127,-0.030959575,-0.040886175,0.039789684,0.03820989,0.07380081,0.021885844,0.03526001,0.060665056,-0.12415777,-0.16894874,-0.09237127,0.00021762942,-0.025208997,-0.056614034,0.033021994,-0.0155091435,-0.02699745,-0.00024123513,-0.052728698,-0.060384545,-0.0091403825,-0.007987637,0.00375388,0.032746248,-0.020294074,-0.00069029373,-0.011919708,-0.027278036,-0.017208453,0.009181243,-0.011101825,-0.019727366,0.018844076,0.008768482,-0.008129293,-0.015292772,-0.06673857,-0.048564676,-0.018800559,-0.0072181444,-0.029272312,0.006319565,0.009195229,0.012103396,0.020969048,-0.0028574455,-0.018861733,0.021050874,0.031456895,0.010771568,0.0071920897,-0.030568859,-0.009801282,-0.012795429,0.0007953967,0.002116726,-0.010458019,-0.050880793,-0.021661656,0.06402795,-0.028157005,0.021320239,0.06078305,-0.007679448,0.02853406,-0.031478975,-0.0047289706,0.00113341,-0.04995164,-0.058567107,0.014665455,-0.02662935,-0.0020521842,0.008355603,0.037449684,0.04426618,0.04995956,0.019468728,0.018343348,0.034463573,-0.073059335,-0.07449283,-0.055268027,0.020920789,0.02887717,0.017433878,0.019741815,0.050302368,0.031141117,-0.0685365,-0.077115074,-0.08968891,0.00505775,-0.010363909,0.015614428,0.02979736,0.032393627,0.038321223,0.031342383,0.027681217,0.024724174,0.043307412,0.01589104,0.0041696006,0.04364187,-0.0058487323,0.012628865,0.004931016,0.008476309,0.0051723784,0.011567062,0.008408967,0.0014931887,0.027279794,0.017006,0.030837538,0.017145092,0.0074759736,0.007878671,-0.06796556,-0.063869335,-0.05155953,-0.04951816,0.0024954223,-0.05716172,-0.059564542,-0.057624802,-0.036402524,-0.01416717,-0.012613829,-0.0014363694,-0.012873692,0.021583004,0.004742741,-0.0058309333,0.0002557815,0.012046564,0.014760458,-0.008160479,-0.012352785,0.01031257,-0.0070219655,-0.005278198,0.0023449564,0.0420792,0.0285379,-0.036834966,-0.039995417,-0.006451219,-0.05647238,-0.042700477,-0.07149165,-0.050044175,-0.05381257,-0.077069335,0.0011361163,0.026564399,0.026191171,0.054907516,0.079577826,0.047599345,0.04298573,0.06800794,0.015576534,0.033651695,0.03073568,0.019969355,0.0391398,-0.01095824,0.031777177,0.058268692,0.07375385,0.04956951,0.003393158,-0.0025905198,-0.004412315,0.0023119145,-0.017150968,-0.028716011,-0.020855239,-0.033837356,-0.012276137,0.014659783,0.015685355,0.013111069,0.014923186,-0.044605114,-0.005068315,-0.013599849,-0.015861252,-0.0106618535,-0.0007743558,0.030793108,0.031233711,-0.008527329,0.024857182,0.04013368,-0.019203039,-0.022328015,0.0074479617,0.012820191,0.004244297,-0.032095205,0.04381445,-0.01843755,-0.011887429,0.025898099,0.026372977,-0.012024411,-0.007325959,-0.0066014095,-0.0035067566,-0.031771284,-0.0074176933,-0.014630222,-0.062553205,-0.033092886,0.010351265,0.024020825,0.013278914,0.020999704,0.002376807,0.0036212169,0.018910812,-0.0063791974,0.0025540423,0.0116218245,0.04949389,0.05672803,0.040249094,0.07782254,0.053188942,0.077294886,0.12121201,0.13963422,0.1014729,-0.04012249,-0.032222908,-0.050495498,-0.03344935,-0.027204184,-0.042500652,-0.020217616,-0.023513502,-0.035522845,-0.021519888,-0.04614467,-0.04272072,0.028802896,0.0031553535,-0.013202197,0.011885736,0.027047407,0.04085881,-0.034489747,-0.021960959,0.02692838,-0.03415203,-0.053513154,-0.050159276,-0.008988407,-0.04670416,-0.06571199,-0.018404365,0.047759734,0.07908175,-0.038354784,0.024179542,0.06501388,-0.04377068,0.024648078,0.04198447,-0.0061981766,-0.010789169,-0.021050617,0.04170199,0.0067612017,-8.600995e-05,0.042550486,0.06990296,0.03649764,-0.028042667,-0.05335626,-0.0127457855,-0.009076286,-0.038962264,-0.033498388,0.030692736,0.0118141,0.0008199733,-0.0013990451,-0.010844773,-0.042130027,0.018830502,0.04648611,0.027035547,0.006410902,0.030769026,-0.009201454,0.01976328,-0.002304388,-0.0014818884,0.016259676,-0.007348296,-0.0075329156,0.011544902,0.0029310791,0.015283782,0.028793659,0.045877293,0.0630394,-0.006383259,0.013147639,0.03253391,0.008242122,0.0055724643,0.040348135,0.051415402,0.07468392,0.05461262,0.038822684,0.09671189,0.0707694,-0.041933727,0.024490168,0.011510845,-0.0051937564,0.013231834,0.012512207,-0.003179379,0.019490985,0.041954327,0.0066449083,0.05636896,0.031742875,-0.008282447,-0.008174459,0.016821822,-0.00014566936,-0.040247813,-0.018387763,-0.014266383,-0.016452795,-0.012543616,-0.047344297,-0.08502245,-0.080438316,0.010703245,-0.029478353,-0.05855325,0.045622446,-0.0135578755,-0.050565567,0.00023351348,0.026779706,0.0318924,-0.018812506,-0.026285337,-0.002014472,-0.021608695,-0.006002649,0.0063488954,-0.015210215,0.0006789405,0.025690697,-0.0137578,-0.028787749,0.0077092014,0.036367983,0.0006974042,2.2314021e-05,0.013038689,0.058404036,0.09125425,-0.019013243,-0.011555331,0.054699145,-0.03055685,-0.044524185,0.0006772812,-0.011057569,-0.0010611932,-0.007481963,-0.026306553,-0.011829407,-0.025193034,-0.039556347,-0.0043610656,-0.013854501,-0.026603479,-0.052088782,-0.06115979,-0.051153384,-0.07241699,-0.08908346,-0.037650716,-0.07659765,-0.049838863,0.019328289,0.008059996,-0.026818939,-0.0051624426,0.06115131,0.007109057,-0.038424276,0.016420642,0.020284813,0.0022056627,0.050424132,-0.092830956,0.017339543,0.07292354,-0.073681064,-0.043884102,0.010127305,-0.103011444,0.010933687,0.0033100317,-0.011453656,0.034358297,0.05135159,0.14878213,0.07420915,0.10612716,0.117663704,-0.002665868,-0.025377115,-0.019057715,0.03606127,0.041745193,0.10745898,-0.00048844604,0.07187278,0.11138647,-0.013276968,-0.047265165,-0.024447005,-0.007146346,-0.05029846,0.03903129,0.049352244,-0.011275514,0.0065901144,0.0010945429,0.020352948,0.0074898656,-0.0028005382,0.07577961,0.02736686,0.020489966,0.022623148,0.014811027,-0.00856466,-0.008594003,0.020712499,-0.057009015,-0.06792588,-0.023831895,-0.029230535,-0.07202777,-0.023287954,0.023431372,-0.024622578,-0.02895246,-0.072105855,-0.13864274,-0.12158833,-0.044231102,-0.13975899,-0.098175324,-0.03069682,-0.012292799,0.0049607526,-0.069365874,-0.043299887,-0.037338614,-0.04243636,-0.04508359,-0.027576895,0.03744464,-0.0047293175,0.033627402,0.043124504,0.015155695,0.0018958763,0.048192386,0.02080851,0.01943587,-0.010100364,0.03187019,0.004264111,-0.04014182,0.0017735257,0.012426209,0.002845926,-0.014394763,-0.04497269,0.11165992,0.063639246,-0.01070264,0.11210128,0.10071338,0.016827062,0.05034219,0.047473907,0.019553442,-0.017537387,0.008629236,-0.009277698,0.0014757944,0.021265902,-0.059183426,-0.0063466653,0.01851035,-0.039783668,-0.0050438745,0.041701138,0.0010702021,-0.017314825,0.04550582,-0.0027402814,-0.03474107,0.046926837,0.022072833,-0.0075910795,0.055715825,-0.008950612,0.0059226905,0.036545906,-0.041955404,0.013076078,0.01812855,-0.025165167,-0.06825336,-0.097317666,0.0044438257,-0.13334113,0.04025012,0.07280371,-0.048409976,0.1008724,0.02412591,-0.057766255,-0.027600134,0.044834644,-0.06153033,0.024556128,0.03768713,-0.04088448,0.023784017,0.011620155,-0.028173579,-0.0062472546,0.009429005,-0.031640947,0.028248671,0.008461623,-0.042027865,0.03994875,-0.0007997614,-0.05030166,-0.062010854,-0.027860938,-0.0414583,-0.03074899,0.044286646,-0.031803526,0.014496882,0.029786622,0.018865738,0.012441554,0.0051892754,0.014051651,-0.030357543,0.0037835282,-0.03265003,-0.01887977,0.021542706,0.12015936,0.14122336,-0.060056474,0.2367248,-0.052743685,-0.20434338,0.04499565,-0.20467296,-0.013830495,-0.022167154,0.0065461253,0.014748053,-0.028086437,0.023352081,0.03330359,-0.011346292,0.027780093,0.01866806,-0.01641567,0.011809258,-0.017290166,-0.026525196,-0.02017769,-0.0026338,-0.06458656,-0.009460373,0.0077094533,0.0093156705,0.0139665175,-0.029631792,0.04378595,0.019273944,-0.02661431,0.018500676,-0.011138366,-0.029378617,-0.02259217,-0.044714704,0.0151400175,-0.061412644,-0.020718869,0.05832222,-0.012674749,0.06557147,0.04887204,-0.0014109592,0.024343826,-0.027937898,0.012019472,-0.008180975,-0.032869004,-0.028539216,0.014099234,-0.015653847,-0.013261156,0.0185036,0.025688075,0.01057965,0.031348933,0.0747787,-0.01163219,0.04567675,-0.002225278,-0.07623929,0.016409487,0.06503432,-0.06636309,0.060605094,0.05291093,-0.0036803794,0.04679719,-0.029456573,0.088729426,0.06675969,-0.10415364,0.12372271,-0.011516589,-0.10822109,-0.011116235,-0.096030414,-0.04745114,0.029311975,0.12984124,-0.010174238,0.142467,0.007126852,-0.13424085,0.06689348,-0.09075476,-0.031018723,-0.014155357,-0.00551701,-0.0042597298,-0.02227137,-0.009769464,-0.007541886,-0.026374687,-0.028930612,-0.007815361,-0.007817447,0.016547779,-0.036615808,0.019738423,0.008635465,-0.00468029,-0.0048477463,0.014821867,-0.01329256,-0.00049357436,0.0135471225,-0.007176946,0.003091885,0.01205897,-0.019379286,0.0022146774,0.028599368,-0.01555831,-0.016653832,0.047314767,-0.06885182,-0.011229356,0.036472935,-0.03973431,-0.016380383,-0.0039306763,-0.015395778,0.052445427,-0.0984287,0.075665005,0.057152662,-0.12888578,0.08970938,0.0062832567,-0.012736959,0.010347754,-0.045784865,0.085015394,-0.041174598,-0.03972266,0.034113243,-0.0330928,-0.011349119,0.0043579172,0.011099515,0.014216249,-0.06626261,0.057234194,0.024727605,-0.04990986,0.050836604,-0.009614637,-0.00405499,0.038593482,-0.01548514,0.002186623,-0.0003430985,-0.050564855,0.044967733,-0.036584638,-0.010441488,0.0260248,0.0018190122,0.007372508,0.015399934,-0.015675554,-0.017886873,-0.00526154,-0.017208265,-0.0012458881,0.020855932,0.014492188,0.06493826,-0.091209896,0.07101265,0.056004707,-0.103086784,0.064010754,-0.0062150625,0.027388316,-0.0012486441,0.045901764,-0.0728539,0.033378504,0.034279667,-0.13495491,0.06678673,0.0010951678,-0.017886039,0.014823664,-0.0136077395,0.024453042,-0.0473151,-0.03759042,0.02502472,-0.028869687,0.012866898,-0.0029452122,-0.01333315,0.004403066,-0.06269018,0.034080308,0.021376587,-0.05078507,0.010480325,0.0016133308,0.003841107,-0.001446536,0.0142973885,-0.0048983046,-0.016570201,0.018891092,0.044327408,0.009199492,-0.002676758,0.0032371983,0.004731751,-0.015922697,-0.0078008655,0.011030708,0.0005104452,0.006584978,0.012745835,-0.008070378,-0.0103368405,-0.0036395923,-0.008939479,0.003565556,0.016670004,0.005486257,-0.0031471658,0.0129201645,-0.01986192,-0.00019464841,0.024860557,0.035401322,0.050360113,0.056078915,0.04719407,0.043954924,0.06156336,0.054715566,0.08268433,0.060657248,-0.06765565,-0.037760403,-0.03587788,-0.041147,-0.09861039,0.009029913,0.05944679,0.09562001,0.09229058,0.0020085857,-0.014120033,-0.03199645,0.023958389,-0.01818405,0.017734142,0.039550804,0.04792628,0.012428998,0.0059117936,0.031261187,0.045369253,0.0042935545,0.024880135,0.03043704,0.010854716,0.018233415,0.012395273,-0.010375166,-0.0062708366,-0.011133551,-0.0153265055,-0.035371337,-0.04052911,0.009896971,-0.012075527,0.011516241,-0.11092837,-0.07295635,-0.0098185465,-0.006688425,0.0073600174,-0.010479405,0.05757278,0.08974432,0.080699995,0.031954236,0.02091161,0.012014473,-0.025864922,-0.039431583,-0.014275231,-0.030171392,-0.057679713,0.0036765337,-0.04441117,-0.05367778,-0.01276586,-0.03208111,-0.0029807896,0.02186786,0.02499271,0.079140946,0.053312242,0.012418277,0.008071204,0.009259374,0.027396722,-0.037468854,0.037685197,0.05902907,0.07448169,0.10210417,0.008407498,0.02073707,0.03825546,-0.048756093,-0.013895223,0.024535418,-0.0265618,-0.002778833,-0.0036854981,-0.070050396,-0.09312468,-0.057215765,-0.0090271905,-0.07156499,-0.008071835,0.055523537,0.11273718,0.06893264,-0.016892713,0.005037767,0.008829606,0.0027205448,-0.016341317,0.010579838,0.032054227,0.016510088,-0.007351278,-0.041602686,-0.05280528,-0.010301509,-0.021215819,0.033605013,-0.00018661872,0.11333226,0.15269898,0.005392354,0.07425204,0.032467127,0.0011654996,0.10940658,0.0083089555,0.025729604,0.042949695,-0.010572478,-0.044505414,0.061153926,0.024680384,-0.024862748,0.02275006,0.024675664,-0.0123079,-0.012157724,0.0010725264,0.005358757,-0.027237063,-0.023573596,0.02772829,-0.056594968,-0.03312005,0.017974183,0.010463415,0.014365076,0.071738616,-0.014351607,-0.015396689,-0.010723622,-0.009811096,0.0069381534,-0.015955333,-0.0012141081,-0.0010302975,0.016820015,-0.02860309,-0.019350706,0.02835373,0.0072551607,-0.057842474,-0.019258944,0.0261456,0.036280118,-0.0096355025,-0.0042317035,-0.011414444,-0.013347079,0.009859153,0.009605449,-0.06422769,-0.028926386,0.04326296,0.026139762,-0.02223643,0.002595968,-0.0026052434,0.006211828,0.029218994,-0.053753544,0.01113896,0.07863114,-0.014262635,0.013786521,0.06280651,0.05462734,-0.0033633718,-0.025959304,0.13660024,-0.0013276058,-0.057076458,-0.06890385,-0.01787815,-0.041105047,0.012821318,-0.02318999,-0.084937364,-0.002486044,0.042689458,0.000102410704,-0.06934441,-0.026664674,0.009292774,0.0467762,-0.0026508374,-0.06514826,0.060149685,0.03993068,-0.019330725,-0.07200027,0.017868651,0.023347568,-0.040053643,0.027541095,0.064233474,0.010084709,-0.027214075,0.040673796,0.09727971,0.017638307,-0.011252141,-0.0085159615,0.022109311,-0.037984956,-0.03324459,0.012109304,0.019924881,-0.018744789,-0.03529961,-0.06827919,0.018596333,0.045496747,-0.040022455,-0.13358997,0.039930753,0.14160582,0.021241043,0.004671028,-0.024427086,0.037433535,0.0142206205,-0.04964275,-0.060692113,0.03005962,0.13740289,-0.06297124,0.0064940643,-0.0046503306,-0.031691596,-0.0086960755,0.003980034,-0.035406314,-0.048229653,0.019084813,0.040346663,-0.034344986,0.018000249,-0.006554541,-0.0103482865,-0.014371702,0.020266263,-0.024430448,-0.07324653,-0.03436427,0.0059376652,-0.0048021646,0.01533964,0.012436061,0.013844648,-0.041539293,0.014093454,0.028437179,-0.10643438,-0.00069166045,0.013232415,-0.01571369,0.010296666,0.038055133,0.00013276005,-0.01452986,0.012878141,0.0011144963,0.023857232,0.014850148,-0.012199233,0.019933226,0.048296023,-0.024744792,-0.049372356,0.03260951,0.026680637,-0.020209929,0.0024825777,-0.0075881444,-0.0074661835,-0.0136319455,-0.025307728,0.014449814,0.019465504,0.009925995,-0.008528536,0.0040698494,-0.0014717972,-0.0140576335,-0.013256904,-0.004901014,-0.020856855,-0.026270386,-0.01152773,0.029722154,0.07349872,0.03196363,0.06032506,-0.03645585,0.0039616697,0.08260808,0.06934957,0.014452799,0.050086755,0.04508239,0.024413295,0.018391032,0.0301093,0.023220362,-0.019839587,-0.028788993,-0.04778872,-0.01696967,-0.037177086,-0.0154939005,0.014660958,0.05447958,0.019787945,-0.005830134,0.008656806,0.023930563,-0.005293423,-0.006810202,0.001479951,-0.02401529,-0.012935252,-0.00023479902,0.0059750685,-0.017573502,-0.010565825,-0.003442393,-0.019885438,-0.021043297,0.00860524,0.05181729,0.011953831,-0.030907415,-0.027624102,0.015920827,-0.0028752661,0.027370593,-0.004368025,-0.029224863,-0.05566221,-0.006025155,-0.015885169,-0.0074771824,-0.023543864,0.085197605,0.04447745,0.020756267,0.042111322,0.015027628,0.021222476,-0.024852972,-0.050209578,-0.023222568,0.032443427,0.027867703,0.014710342,-0.0148402415,-0.014060987,-0.019839684,-0.020543374,-0.016673958,-0.0037175652,0.03692242,-0.022747127,-0.04578705,0.03311072,0.113407046,0.050521288,-0.056244723,-0.073756404,0.009064195,0.0021764792,0.052188203,0.0097681675,-0.025363833,-0.07949892,0.0027758447,0.01984204,0.027318956,-0.01304084,-0.027778871,-0.014275065,-3.7619906e-05,0.016523499,0.025813606,-0.006493594,-0.028813725,0.008316335,0.008997979,0.03907484,0.021452539,0.02332865,-0.017909095,-0.027915563,0.021815296,-0.019691445,-0.06606195,-0.034654833,-0.01261538,0.0013874174,0.008321233,-0.008925414,-0.008295446,0.005985876,0.009042867,-0.006515287,-0.00058936817,0.025210587,0.03808592,0.009163975,-0.033681843,-0.04313652,-0.01407196,0.012994395,0.0029237953,-0.016750192,0.003243977,-0.026139947,0.02641785,-0.0045008245,-0.04147573,0.021808533,0.0019516324,-0.022653168,0.015756592,0.021760568,-0.017398637,-0.036580015,0.02531678,-0.0034134237,-0.042434067,0.01803159,0.015945844,-0.011900782,0.0006079648,0.009400208,-0.005216433,-0.014831917,0.021483243,0.008521538,0.006776627,0.013784479,0.013024879,0.021386188,-0.016426336,0.0016189966,0.03497212,-0.0052430634,-0.022299847,0.03661413,-0.009857381,-0.023811324,0.023429379,-0.0024965466,-0.015904918,0.033091336,0.014673145,-0.056993697,0.03422527,-0.008190847,-0.012882328,0.038598873,-0.0536664,0.09087125,0.014251294,-0.14071213,0.080355115,0.010304785,-0.06565895,0.0154056875,-0.008656601,-0.010858473,0.00058206526,0.006287568,0.02153871,-0.022350904,-0.007090296,0.0068077715,0.011649998,-0.015149887,-0.0040422,-0.029045412,-0.008832402,-0.018749287,0.008354693,-0.013717713,-0.019043235,0.0027760079,-0.02685147,0.0131919095,0.006847874,-0.04230132,-0.021423861,0.006095726,-0.014658989,-0.011846996,0.022236496,0.0020528103,0.09173212,-0.102077134,-0.009205096,0.13033567,-0.12737988,-0.008967001,0.06584806,-0.08974009,0.008830358,0.05567316,-0.024676198,-0.004941242,0.062408485,-0.09829554,-0.013274587,0.08917151,-0.0639335,0.009666005,-0.0123379305,0.025027186,0.023921546,-0.023223218,0.02653393,0.02273913,0.0012803604,0.01757547,0.01448768,0.0070684524,-0.045739766,0.015135201,0.01717358,-0.04417194,-0.014056465,0.013586167,0.0022369206,-0.020616647,-0.04067848,0.029120138,0.004935792,0.008920153,0.006118112,0.0011282952,-0.033053063,-0.0005017263,0.00091114023,-0.01908701,0.014765771,0.011685954,-0.01612476,0.018316574,0.005936974,-0.022891197,0.022370297,-0.0075938697,0.019410186,0.020187203,-0.01960799,-0.0105670225,0.040250394,-0.0011203495,0.0013783106,0.008677491,-0.021256512,-0.023909023,-0.024533816,-0.013024296,-0.0097756125,-0.0005395824,-0.037634958,0.0021624647,0.020604158,-0.057280295,-0.064956605,-0.027959377,-0.056937434,0.011156891,0.022628738,0.012122154,0.03584819,0.0062288204,0.07643996,0.027339164,-0.0047723535,0.055948053,-0.030736838,-0.023488833,0.01872843,-0.035560824,-0.06901105,-0.051650316,0.009576618,0.02549504,-0.032691307,0.040945865,0.048637256,-0.0053299777,0.06979914,0.033204027,-0.06942018,-0.036281824,0.009548547,-0.01555079,0.05748301,0.051881764,-0.030125631,0.018122755,0.011042542,0.104353435,0.0862788,0.011461039,0.11115701,0.028214552,-0.002333129,0.0061684735,-0.008193424,-0.02874696,-0.025924778,-0.0275471,0.021158429,-0.0079148,-0.060968336,0.0026944866,-0.0002083753,-0.006389625,0.03401376,0.031210434,0.035755463,-0.02000169,0.049212135,0.034517523,-0.029733814,-0.009975155,-0.020156471,-0.023406962,-0.0034555711,0.03763856,0.0033725423,0.017767536,0.0028966912,-0.003931292,0.02283293,0.008348917,0.00070891134,0.0033587646,-0.015863739,0.0020537607,-0.061669856,-0.062520005,-0.018801803,-0.02136819,-0.021491343,0.02160674,-0.0026890952,-0.005306027,-0.020198569,-0.016993739,0.005839767,-0.02115014,0.011612164,0.064475246,0.018670833,-0.035741817,-0.0045347936,0.027833855,-0.0075584184,0.0042717117,0.0013158028,0.010073684,0.015470493,0.033666644,0.059114207,-0.007094604,-0.025015756,0.020667797,-0.042167444,-0.0688268,-0.012089295,-0.05783762,-0.0025562898,-0.054316264,0.043745253,-0.0050229635,0.04059236,0.039973482,0.0034100402,0.037423637,0.019452402,-0.03231471,0.048354957,0.0001866017,-0.015036188,0.019469457,-0.057484392,-0.036376204,-0.05290709,-0.04343493,0.008536581,0.03990941,0.075175546,0.023509152,0.07877568,0.028747782,-0.011600748,-0.0036204283,-0.026590178,-0.024459507,-0.014226616,-0.026131656,-0.048433647,-0.0023377466,-0.024239546,-0.025192346,-0.010626802,-0.008894226,0.019910429,0.032879315,0.040305194,0.11887297,0.030167794,0.036926765,0.13178259,0.03649177,0.035588827,0.12139391,-0.017532429,-0.04868886,-0.00087261404,-0.047436163,-0.07378532,-0.06411211,-0.0062441863,-0.027822664,-0.02229443,0.007488906,0.04488904,0.04642508,-0.022464644,0.02209862,0.008693241,-0.0659553,0.045292307,0.058578636,-0.046859365,-0.08336092,0.0077432394,-0.04212877,-0.03315141,0.030279769,-0.042158213,-0.057502396,-0.0024208303,0.019128213,-0.084293276,-0.06516688,0.0069013266,-0.11241556,-0.07710483,-0.042429022,-0.12089254,-0.11653362,0.008963064,0.021433027,0.09000397,0.0018432629,0.048021078,0.095249,-0.05638998,0.009727186,0.067142755,0.032124802,-0.056996983,-0.0047111795,-0.041298103,-0.06499119,-0.040323857,-0.09124974,-0.08421608,-0.009321196,-0.041549597,0.04619042,0.06172664,-0.01298014,0.090554446,0.0617408,0.026622169,0.1511433,0.10612757,-0.05349054,-0.07177521,-0.12876609,-0.054111935,-0.019366538,-0.11375872,-0.08617194,-0.013388096,-0.08016331,0.05802368,-0.021891799,0.034861647,-0.0027115282,-0.034057148,0.009193189,0.019994803,0.029864488,0.043419283,0.11756199,-0.006016505,-0.17857078,0.08236367,-0.058984257,-0.17038485,0.107703745,0.00182579,-0.10004367,0.038591582,0.021608705,-0.023795579,-0.04426096,-0.070284486,-0.079976626,-0.08824666,-0.06821301,-0.032860417,-0.11098951,-0.05039987,-0.03750429,0.01820703,0.055240404,0.034878716,0.0043296423,0.013091194,-0.019184241,-0.019744895,-0.015694331,0.007271241,0.012128889,-0.007644678,0.058650862,0.03018572,-0.004853458,0.08448657,-0.033832334,-0.046491653,-0.12076098,0.005143311,0.013893596,-0.06331552,-0.028890405,-0.010807329,-0.07946841,-0.023938058,0.008690654,-0.016380347,-0.015367708,0.009894298,-0.024764566,-0.033381697,-0.029596925,-0.045541257,-0.05006694,-0.07800603,-0.03179046,-0.07233929,-0.07291387,-0.04305578,0.0004768094,-0.0067058606,0.042726655,-0.02578866,-0.025166646,-0.0084684305,0.0048224716,-0.0057344926,0.04539211,0.023242908,0.04200467,0.023584405,-0.0071517904,-0.016663574,-0.029858213,-0.011458978,0.0053789625,-0.011963027,0.008121071,0.0074681793,-0.01920261,-0.045918196,-0.026184468,0.0122093605,-0.025992906,-0.035365988,-0.05981921,-0.028399108,-0.047901392,-0.02612889,-0.05341326,-0.031970076,-0.017386267,-0.037743088,0.021508578,-0.0065509845,0.0017377827,0.015235481,0.01801931,0.03603238,0.0026183242,-0.016251806,0.029814232,0.012778595,-0.012913259,-0.022326438,-0.025862645,-0.014453024,-0.029857414,-0.06918776,-0.03780742,-0.016129013,-0.013913552,-0.027999982,0.02708879,0.0025299601,-0.0018656412,-0.02108008,-0.03373889,-0.023167247,-0.03533008,-0.031776346,-0.02868572,0.003112414,-0.0019277409,0.0014366859,0.031277396,0.005000219,-0.033505525,-0.0024222103,-0.049890324,-0.044178784,0.02862369,0.007860935,-0.0058290297,-0.028710548,-0.04661489,-0.012188949,-0.041240156,0.004068345,-0.0052057323,0.03496005,-0.0016034463,0.025499385,-0.049798608,-0.026508287,-0.03083622,-0.045829307,-0.0052016466,-0.02411226,-0.032963,-0.010596923,-0.01148638,-0.015425383,-0.051311795,-0.015924139,-0.053798884,-0.028544916,-0.022588816,-0.039269462,-0.021275625,-0.008307047,-0.061284985,-0.042972058,-0.042003963,-0.03037264,-0.00029492113,0.016821172,-0.013252917,0.019691722,0.019010035,-0.002176302,0.022979217,0.008761857,-0.0180069,0.008220661,-0.0021449167,-0.030569261,0.0022023544,-0.012036693,0.0075366683,0.022076016,0.0032121746,0.015941683,0.012872682,0.028265554,0.012464417,0.021291777,0.018038828,-0.022951541,0.0042929663,-0.009636288,-0.0033315113,0.004195681,-0.0019976953,0.009099848,0.0024039845,0.024112353,-7.655398e-05,0.02618733,-0.012101173,-0.019939484,-0.042124525,0.026163006,-0.0017880203,-0.012297015,-0.000796461,-0.0142612485,-0.005489135,0.03499171,-0.017487915,-0.020858409,0.03683858,-0.006108825,0.014931801,-0.008232118,-0.024399271,-0.008683935,-0.019403426,0.015295496,0.006564987,0.009110396,0.041872285,-0.0044139363,-0.021635348,0.0038014334,0.0898189,-0.040582255,-0.05947796,0.0723422,0.084994145,0.0004288839,-0.09370568,0.06487099,-0.040027894,0.0041321833,-0.02974252,-0.056081403,-0.03674079,0.027116101,-0.0049447417,-0.06099587,0.007330151,-0.028393852,0.049363203,-0.010199858,-0.05243612,-0.011793497,0.07622895,0.033982772,-0.05267064,0.005497854,0.029890208,0.0029404603,0.0313141,0.04924924,0.018098759,-0.035686154,-0.0048744106,0.06818098,-0.022209618,0.008273544,-0.0057223635,-0.017302921,0.029223591,-0.019125007,0.012966,0.045133397,0.0002481236,0.013701673,-0.053705208,0.01623899,0.03964103,0.013253099,-0.09525151,0.032669075,0.075700045,-0.0002200269,-0.07287949,-0.035867482,0.020378955,0.06005818,-0.017322402,-0.11091551,0.09711099,0.07989546,-0.007992073,-0.02381197,-0.008072058,-0.04565134,0.022404566,0.025391296,-0.03198845,-0.02736846,0.0021266094,0.030992143,-0.015066686,-0.031238386,0.019963741,-0.003864773,-0.059985965,0.04253171,-0.010783297,-0.0476163,-0.02405984,0.009493767,-0.0006339278,0.0054158736,0.0049254363,-0.0054919487,-0.021242145,0.025769288,0.026456323,-0.04958768,-0.025384374,0.011018413,7.351216e-05,0.012848127,0.0062651928,-0.0047234353,-0.0007320033,0.010289141,-0.0137079805,-0.010406074,0.020907946,0.00088742585,-0.01331559,0.029439587,-0.019542232,0.003661167,-0.0025999912,-0.0027802882,-0.022225635,0.02290241,0.002536473,0.00047203343,0.041581303,0.015448632,0.0044390773,0.06451974,0.03737862,0.016690494,0.063010395,0.05824874,0.015084193,0.14566821,0.02988435,0.067913435,0.12849058,0.10249789,0.056539923,0.010715595,0.026207408,-0.0052930303,-0.0054478087,-0.029572597,0.0007426609,-0.029736238,-0.018596219,0.010644125,0.008696092,0.033754688,-0.0064924518,0.019233417,0.10151022,0.025819456,0.01843283,0.08168375,0.022803161,0.008525345,0.038272288,0.024911826,0.027586902,0.021023968,0.018457187,-0.015632607,0.030232675,0.02025225,-0.0043822103,-0.030501612,-0.06308681,0.031633772,-0.03598977,-0.039144162,0.020495176,0.0044924985,-0.017580846,0.0057533565,0.039842397,0.037915133,0.0045508984,0.018933114,0.03239465,0.025625033,0.067809075,0.041465025,0.012073722,-0.009310317,-0.021875847,0.04247847,0.01852645,0.004801576,0.0077858213,0.0411345,0.024048997,-0.0035525365,0.00216163,0.003852475,0.0065024397,-0.051540438,0.004446335,0.0040233517,-0.0008614214,-0.0075920257,-0.01531881,-0.04661432,-0.056623004,-0.06862493,-0.047878705,-0.06467546,-0.04729163,-0.0771723,-0.046953138,0.028115284,0.044632625,-0.0048047276,0.10886263,0.048345484,0.049886752,0.051409885,0.12494474,0.049971763,-0.03736706,0.012627766,-0.03472326,0.0013799662,-0.005110737,-0.0037107763,0.06482254,0.056379292,0.04343297,0.016759196,0.008958251,-0.015879506,0.09473127,-0.0059077945,0.009669248,0.05099632,0.0015417493,-0.030464396,-0.014806982,-0.011830686,-0.005715608,-0.037130203,-0.04853313,0.02960241,-0.041042026,-0.011068776,0.06758458,-0.024843328,0.015459473,0.018636003,-0.05286943,0.020636268,0.02854851,-0.015539081,0.056168497,0.06683455,-0.009752095,0.009810763,0.017387724,-0.015036652,0.011966147,-0.0047370186,0.018920368,0.012971509,-0.010316874,0.017713444,-0.03733363,0.0031412719,-0.003125244,-0.02635065,-0.018258262,0.0024033296,0.016930342,-0.009425123,-0.03768433,0.0335217,0.008790082,0.021658175,-0.002591529,-0.05490625,-0.01923667,-0.03258765,-0.0023330876,0.009504156,0.0057365242,0.010481735,-0.021632144,0.01697732,0.004006574,0.036082752,0.029746158,-0.06578231,-0.008813795,0.029250981,-6.2392945e-05,0.016088568,0.033461712,-0.012004567,-0.05549577,-0.010815332,0.030191312,0.05804723,0.052379362,-0.03138977,0.033637427,-0.07425511,-0.08876648,-0.039017465,-0.06322757,0.0121031385,0.012300453,-0.021170937,-0.019689182,-0.037895065,-0.07796215,0.10638418,-0.0020283333,0.19103539,0.045837976,0.0012044744,0.050156888,-0.039601382,-0.0056294696,0.003952027,-0.031807557,0.02057537,-0.0028519453,0.015883474,0.0152321225,0.017767383,-0.0142323775,0.023281733,-0.014680456,0.02798294,-0.020635344,0.016175985,0.047824737,0.044397596,-0.010632467,-0.031905875,0.020338282,-0.05324006,-0.008720652,0.02557229,-0.037277587,-0.02777272,-0.025795097,0.035248388,0.050245363,0.07827958,0.09804048,-0.036062893,0.046247054,-0.079775795,-0.05788106,0.026730243,-0.008018039,-0.028105583,0.003637649,-0.09632878,-0.022734623,-0.04170832,-0.047635317,0.013315913,0.037280172,-0.023827186,-0.060431145,0.003908886,-0.11124228,-0.05354148,-0.06561038,-0.04302102,0.034061007,-0.06786167,0.08511465,0.008270491,0.039428946,0.0736803,-0.041941617,0.06772921,-0.025195286,-0.047146767,0.019792452,-0.039538737,-0.011425705,-0.015418961,-0.015756408,0.05424114,-0.03719659,0.07464399,0.062486988,-0.038880676,-0.0026090557,-0.0044651697,-0.0035463402,0.03924847,-0.0040803123,-0.010607111,-0.0006715797,0.0125576155,-0.014032413,-0.038067907,-0.0031047845,-0.022625107,-0.028967563,0.003091425,0.006319027,0.014731365,0.026181996,-0.0016812145,-0.029196113,-0.04241271,-0.016992144,-0.0369171,-0.016761485,-0.02559715,-0.022838837,0.014178127,-0.066013925,-0.00889804,0.0096159,0.016383212,0.06045609,0.037580766,0.035266947,0.008111941,-0.04018462,0.0052305516,0.00024060806,0.010196553,-0.03497635,-0.068527386,-0.0055808993,-0.033513274,-0.020620186,0.01069255,0.007875492,0.063725,0.018188793,0.029440649,0.061623827,0.009953784,0.022238998,-0.013502363,-0.05609189,0.019705396,0.04950688,0.018255353,0.037457116,0.018463627,-0.03358764,-0.0074878465,-0.054325927,-0.04962162,0.08010842,0.08814973,0.008614528,0.051963937,-0.0179199,-0.01964382,-0.0126616135,-0.03949497,-0.027607676,-0.020644335,-0.030399328,0.0074392166,-0.04084348,-0.004230264,0.01923544,-0.0035647424,0.059821427,0.014875397,0.03227937,0.022502057,0.008693291,0.018758405,0.012107794,0.0042435206,-0.013052703,0.004123633,-0.016176417,-0.0040831137,0.0061715688,-0.008853895,0.0009240655,0.002176522,0.007736554,0.023604892,0.008955284,0.006897399,-0.06893472,-0.077332206,-0.05233732,-0.05102707,0.025366876,0.034009073,0.050936095,0.08640143,0.067662165,0.030491978,0.011127371,-0.016797068,0.0026827923,-0.04985155,-0.05932593,-0.027544675,-0.06461062,-0.056605276,-0.006366023,0.029471891,0.023155015,-0.0012819312,0.030160464,-0.042251512,-0.0023101512,-0.02290037,-0.044159636,-0.05919472,-0.013480683,0.026169922,0.02109953,0.031622358,0.024162259,0.05459824,0.05608634,0.03725985,0.069723964,0.06309276,-0.014443399,0.03672254,0.0074184104,-0.043544192,-0.021236353,-0.043411218,-0.03007363,0.0052603483,-0.04601213,-0.025666477,-0.05948064,-0.032841276,0.027245933,-0.016713662,0.050215527,0.056471188,0.020483393,-0.00028738758,-0.024600545,-0.021511985,-0.033735186,-0.015350748,-0.028113168,0.0072129522,0.024212532,0.001500433,0.008429208,0.017731098,0.00031010844,0.014936289,0.019721242,0.0011958535,0.009718168,0.0008568543,0.0072421157,-0.0021734983,-0.020110719,-0.013590075,0.010382436,-0.05287166,-0.007513403,-0.01031832,-0.032796737,-0.018448843,-0.0025217822,0.017898405,-0.0065010474,-0.0104050245,0.0012965923,-0.0074543497,-0.016331092,-0.00054190884,0.01638761,0.010990181,-0.05704278,-0.005719298,-0.006625616,-0.019528694,0.017903682,-0.0120525705,-0.015123022,-0.026352657,-0.0014973703,0.022594584,-0.018369306,0.072067894,-0.048563067,0.014097236,0.02267479,-0.047698922,0.005972881,0.06478872,-0.07101668,0.100493275,-0.09770933,0.02329227,0.053310186,-0.084580876,0.115540154,-0.018148188,0.024717528,-0.02321791,-0.012200074,0.08525645,-0.046942886,6.292985e-06,0.018649122,-0.051228628,-0.0057990393,0.025057083,0.0021341692,0.01898399,-0.0016176002,-0.027538333,0.030994486,-0.03478046,0.013245451,0.01177957,-0.0073236595,0.011263603,-0.0067298594,-0.027871601,0.022128563,-0.002325817,-0.016953543,0.017127072,0.015443527,-0.046809833,0.061192404,-0.05085706,0.063122965,0.02185284,-0.0387347,0.07678792,-0.05854085,0.000484518,0.019031616,0.0005645051,0.013150983,-0.04161799,-0.010479894,0.0558055,-0.031057468,-0.008509699,-0.020846859,0.030468186,-0.023113083,0.024761925,0.04188744,-0.03482567,0.057648692,-0.012853777,-0.0119257,0.003050127,-0.015281546,0.049274374,-0.04104308,0.014826829,0.015921228,-0.006075334,0.05969476,-0.010245629,-0.00953601,-0.019778568,-0.018682085,0.017742435,0.02745035,-0.0055647623,0.027282579,-0.03022667,0.012557321,-0.024672506,-0.0021318302,0.0052340995,-0.015144994,0.024734855,-0.008192505,-0.008378836,0.024184171,-0.0016436696,-0.0010711432,0.0057671214,-0.009333565,-0.019297805,0.0004867445,-0.016191393,0.02732661,0.010689225,-0.02059073,0.019244159,-0.003947087,-0.008128846,0.04151989,0.0036932442,-0.029718118,0.07692981,0.05282285,0.054780446,0.016059253,0.07146454,0.026535707,-0.11045006,-0.031087523,0.07408347,-0.06963137,-0.12167373,-0.0069807265,-0.0055525787,0.0021251019,0.010784321,-0.0051236716,0.018519195,-0.0072054747,-0.01303886,0.0010093015,-0.01751731,0.004776491,0.010289118,-0.006375047,-0.014174923,0.024075666,0.0020841332,-0.033571072,-0.009853078,0.007903311,0.001938076,0.031260308,0.015542984,-0.022382922,-0.026749125,-0.016282896,0.027833076,0.01923764,-0.0017856482,-0.03580724,0.020664211,0.013073616,-0.04450569,-0.01991508,-0.012631229,-0.01789602,-0.03168441,-0.030297361,-0.048154112,-0.14966775,-0.06831701,0.15759811,-0.11508709,-0.18144752,0.17553498,0.22415712,0.089167446,-0.013134631,-0.021618798,-0.020721482,-0.0024585458,0.0075130686,-0.0044956133,0.017767038,0.0016802211,-0.008795237,0.0068053557,0.0038834135,-0.024458842,0.0069595915,-0.014393709,-0.016422981,0.0068602404,0.04483851,0.011111617,-0.023683116,-0.02819121,-0.0033925634,-0.0020654108,-0.00963712,-0.009933128,0.034335583,0.034246117,0.010867009,0.012429888,0.038295265,-0.022531392,-0.021381218,0.038908288,0.03191914,-0.05068853,-0.049306836,-0.01812653,0.04376095,0.0142429955,-0.052501477,0.045246787,-0.0060522887,-0.024628708,0.036286715,0.041917093,0.029057747,0.002040229,-0.031344928,-0.0115887625,0.006959321,0.005077463,-0.023053462,0.016294189,0.02727233,-0.009336266,0.021610849,0.056758624,0.012997262,-0.046895005,0.02466908,0.042888634,-0.049655758,-0.052213904,-0.0128089525,0.017137771,-0.0078544235,0.016139617,0.035942238,0.014796056,-0.01899942,-0.016097944,0.030898837,0.04101184,-0.061471805,-0.14110005,-0.033004593,0.13672203,-0.072541595,-0.07179064,0.17049374,0.1401466,0.046574946,-0.008379161,-0.008603067,-0.02117109,-0.014993727,0.014514533,-0.025072152,-0.026034713,-0.0069922223,-0.023034131,0.006669641,-0.0018898739,-0.00031138133,0.0076232767,-0.03258717,0.012604277,-0.023860808,-0.021057412,0.0068069533,0.014624735,-0.026170818,-0.000298288,0.057416808,-0.03164299,0.10876599,0.0631164,0.19097371,0.122104876,0.011356511,0.02635379,0.0022204919,0.032189373,0.02930567,0.0063791927,-0.060410485,-0.080619045,-0.04147225,-0.011922615,-0.005608829,0.0060909837,-0.004371597,-0.009703288,0.0142315,-0.0031878971,-0.005444776,-0.021237802,0.0048424755,-0.0034857611,0.0067278007,-0.0030736898,-0.020972384,-0.028887002,-0.008561518,-0.0016470783,-0.023828179,0.007879822,0.023149021,0.03138953,0.014848777,0.03260138,0.014783059,-0.017932866,-0.07420928,-0.07029621,-0.0028204191,-0.0061209504,-0.003793218,-0.00046959653,-0.008283789,-0.011480333,-0.007581307,-0.0041725007,0.0061425343,0.018891493,0.0032921822,0.012329746,0.014543751,-0.028434603,0.0055712326,1.7179373e-05,-0.030692268,-0.022452233,0.008143744,0.004627634,-0.0073990244,0.018057937,0.013845295,0.000938128,-0.008764983,-0.009933578,0.005239027,0.018178854,0.04540629,0.03477175,-0.014626483,-0.033873647,-0.029488467,-0.01630924,-0.026754636,-0.013787089,-0.0061937002,0.04660315,0.024310233,0.019543668,-0.030906422,-0.0095071355,-0.030378353,-0.02719394,-0.01162777,0.008413961,0.023974672,0.018862387,0.051189706,0.011231211,0.020699807,0.047381014,0.0110111805,0.012538071,-0.026517592,-0.017554281,-0.039638072,0.011674658,-0.025580944,0.0094948085,0.043493304,0.0550338,0.009044823,-0.029828994,-0.03247088,-0.016992975,0.019852312,0.029664274,0.024802556,-0.010850557,-0.0036841703,0.0024149325,-0.005711367,-0.021514488,-0.021740368,0.025969014,0.010597579,-0.012643145,-0.021297762,0.02731843,-0.00056197896,0.01901356,0.014244043,0.025773115,0.007370849,0.010145206,0.036392752,0.005695722,0.01707771,0.0035654195,0.016470177,0.019109717,0.0027850766,0.0023022075,-0.023706421,0.0056595057,0.015830146,0.016377872,0.017966427,0.03403851,0.007198621,-0.021904942,0.035907224,0.003314572,-0.045235693,0.0021601592,-0.015917704,-0.015898434,0.009241031,0.0022380936,-0.013469447,-0.027214535,0.0032942558,-0.011527321,-0.007829073,-0.0045755617,-0.015624892,0.0047630076,0.000431925,0.0062029567,0.009980289,0.027326839,0.033068545,-0.00079621625,0.037592936,0.031157507,0.019393308,0.01054506,-0.004128794,0.01867845,-0.010665218,-0.0041516633,0.022062004,0.007209784,-0.009574603,-0.088552505,-0.106133796,-0.04590732,-0.1077218,0.039104924,-0.122007385,-0.11586203,-0.124116614,-0.11949358,0.016383579,0.002924123,-0.002556983,0.014112525,-0.027100483,-0.0093419915,-0.0033733523,-0.011652181,-0.010969784,0.026390517,-0.0024005307,-0.053541128,0.02297681,0.020822315,-0.046894286,-0.0019210015,-0.025332881,-0.04437966,-0.0034640287,-0.0042301742,-0.013587768,-0.0033044463,-0.0014175028,-0.009733223,-0.0012118148,0.010563003,-0.008035168,0.06576936,0.06902281,0.008483863,0.049037505,0.05159957,0.04238941,0.031312738,0.025985833,0.025837196,0.017143968,-0.022970574,-0.057837836,-0.0062307087,0.033888374,-0.041121412,-0.015652992,-0.0033759014,0.006187969,0.03290536,0.00829657,0.004807425,0.043295626,0.0037769135,0.014168429,0.02358001,0.019798925,-0.006866534,0.029596481,0.036939226,0.021651953,0.024860267,-0.0024784256,0.033237014,-0.0017505155,0.015316811,0.026366202,-0.021149226,-0.053996123,-0.040511638,-0.089133784,-0.077390134,-0.072734,-0.103409424,-0.09173652,-0.07383188,-0.06936078,-0.08787483,-0.109373584,-0.063483916,0.023562772,-0.119450755,-0.06717845,-0.106191635,-0.16033265,-0.019584073,-0.002625571,-0.026428757,-0.0037117063,0.010128386,-0.004909247,0.00016247193,-0.0064676367,0.007645658,-0.021761958,-0.018637849,-0.010997014,0.007136484,-0.012584961,0.004178579,-0.044059478,-0.0051070843,0.009480653,-0.0050763,-0.01019798,0.0015889397,0.13237996,0.04545429,0.048692625,-0.017483085,0.009157919,-0.024891188,0.06607999,0.056404185,0.036157716,-0.029418718,-0.023570165,-0.023506198,-0.02529026,-0.020543722,-0.016240072,0.0030130926,0.023270812,0.024799969,-0.0454013,-0.018784821,-0.011144765,0.02362926,0.00552252,-0.023032041,-0.02922076,-0.044376526,-0.026081607,0.02090217,0.0155826295,0.004612807,-0.013796344,0.010577327,-0.001998982,0.05591634,0.1186966,0.030861247,-0.1098717,-0.1155204,-0.048012305,0.0077617615,0.010274827,0.028804,0.013607708,-0.03606646,-0.030937063,-0.032964386,0.0053242766,0.0011263341,-0.020410676,-0.034609247,-0.025893815,0.07553971,0.06856871,0.021966182,-0.021106241,-0.028599456,0.012804855,-0.04406792,-0.04219075,-0.017606061,0.026229303,0.0032837137,-0.020423466,-0.05086632,-0.01570992,-0.015770277,-0.0003874016,0.030247023,0.016554326,0.12412461,0.15762448,0.029498365,-0.110362925,-0.1230114,-0.01726721,0.027941246,0.0034126767,-0.004826303,-0.040154602,-0.055109303,-0.00673592,0.041581962,0.05976244,0.026175283,-0.03349988,-0.03142544,-0.01871171,0.047763556,0.05207543,0.023968777,-0.027790522,-0.06102014,-0.007849433,-0.017819852,-0.00016596922,0.0040390887,0.061410937,0.039978743,0.017098589,-0.01988026,-0.053876407,-0.022330943,-0.027173122,-0.01763987,-0.014729888,-0.011788856,0.005702253,0.025020866,-0.025972933,-0.025948152,0.0003580146,0.03270524,-0.0025546036,0.008882735,-0.00463453,-0.008254101,0.004994442,0.016878836,0.009708943,-0.0061833477,0.021048294,-0.0035581784,-0.017047158,-0.013122934,0.00592416,-0.00067022507,-0.014096772,-0.0055931103,-0.0038533378,0.010589691,0.0072810086,0.013942935,0.01982706,-0.005959615,-0.0060786046,-0.00026718632,-0.03385391,0.017680906,-0.015451954,-0.025006436,0.017549833,-0.015343927,-0.014654179,-0.043240145,-0.030924939,-0.03173422,-0.03421816,-0.022061888,0.0010039839,-0.009155696,-0.0339029,-0.0040271366,-0.01631925,-0.040505406,-0.041688964,-0.07164353,-0.027718283,-0.08831578,-0.10612974,-0.010409178,0.017976254,0.025301883,0.05052281,0.049094424,0.07740368,-0.0012003902,0.06857252,0.08222067,0.004058821,-0.004232095,0.016134452,0.00037650383,0.011229985,0.036046434,0.007444255,-0.03020692,2.2066475e-05,-0.00084227015,0.026293863,0.05241836,-0.029913729,0.028711872,0.073188275,-0.0650639,-0.06909605,0.02735019,0.013717185,0.007545426,-0.02228295,-0.0087978905,0.0020273814,-0.01030663,0.0027979875,0.0017317215,0.007777358,-0.034023903,-0.06142347,-0.069472745,-0.053083275,-0.062712684,-0.07137054,-0.023464547,-0.040670063,-0.023189457,0.0028886436,-0.01622945,-0.005152998,-0.051426534,-0.051274076,-0.037279062,-0.0446189,-0.07327526,-0.030276064,-0.004108007,0.007874845,0.022632806,-0.0079142405,-0.028683944,-0.0052283104,-0.009099865,-0.038970694,-0.026520573,0.024262402,0.0034260203,0.012447788,0.004888924,0.0050079687,0.013574278,-0.0022138238,0.003081318,0.014747606,0.030849699,0.0700332,-0.0068011545,0.026326755,0.0659659,0.007261816,0.029273808,0.057616822,0.049587134,-0.020435812,-0.028762111,-0.0239855,0.0066638147,-0.020450102,-0.034364525,0.019850822,-0.03769218,-0.056224536,0.00559445,-0.047383588,-0.03682103,0.04316412,0.006116315,-0.029573405,0.030819489,0.029662913,0.009968231,0.00904383,-0.025384938,-0.049924467,0.030389681,0.028885378,-0.024661401,-0.009507104,0.043840818,0.009228713,-0.02276847,0.007748113,0.04553138,-0.0071974336,-0.0011035451,0.030378139,0.018625941,0.024742225,-0.006314153,0.008339368,-0.024529528,-0.0043330793,-0.008988636,-0.052024458,0.022434304,-0.035472114,-0.036266968,0.05817252,-0.01345851,-0.011700856,0.02228442,-0.009374101,0.025363352,0.060188398,0.0008578913,0.05475087,0.044589616,0.043938972,0.010983339,-0.01634473,0.072882436,0.03053166,0.007569218,0.020109346,0.004537592,-0.024747005,0.014519548,-0.041739807,-0.043585617,0.0262363,-0.020674665,-0.012925426,0.027880458,0.0339377,0.05752779,0.030933395,0.04574919,0.0029873305,0.0021593487,0.014003715,0.01563634,-0.039384317,0.0032085304,0.023980504,-0.028436555,0.010521272,0.024923947,-0.04390686,-0.00039604833,-0.0551635,-0.020813877,-0.07809585,-0.13096997,-0.026845157,-0.008330555,-0.0001119332,-0.0063589956,0.04221559,0.042117827,0.012239564,0.017858323,0.01583919,-0.037930608,0.0012519406,0.054458108,-0.0270736,-0.01646224,0.03175168,-0.046956144,-0.05906483,0.0025457263,-0.016316386,0.0004893233,0.010882196,0.01131059,0.0146315815,-0.003448005,0.022679655,-0.0010009249,-0.01598863,-0.0038305304,0.0317942,0.03814706,0.0048015644,0.00064251473,0.026910545,0.021230683,0.06056867,0.056552645,-0.0209591,-0.062936,-0.022574384,-0.024846178,-0.040130373,0.010092666,-0.022302873,-0.028011179,0.032335643,-0.037150532,-0.0061698486,-0.008563237,-0.053981077,-0.024258554,-0.01646753,-0.05788862,-0.020489534,-0.008758775,-0.025216248,-0.071614206,-0.024938999,0.006352814,-0.03911295,0.045441896,0.017464327,0.025608335,0.028807722,-0.016581396,-0.058765907,-0.025145639,-0.012963579,-0.040390592,-0.013303176,0.031473685,0.00037278928,-0.0075784265,-0.0044375723,0.063891605,0.10151127,-0.053724065,0.010959127,0.032722432,-0.055295408,-0.08127693,-0.09167068,-0.006698792,-0.002526952,-0.020333417,-0.0055319127,0.0057776733,0.0069856886,-0.015054616,-0.0066654324,-0.0074730506,0.039176237,0.040044073,0.022244025,-0.010321913,-0.041856658,-0.0030689568,-0.020176604,-0.0064007053,0.0070506525,0.041423306,0.08066289,0.037269596,0.030432751,-0.119876474,0.027833788,-0.002818638,0.016690783,0.051550355,-0.0072604395,-0.0069004837,0.017442044,-0.011241116,-0.00291212,0.0238893,-0.018455656,-0.038327724,-0.008567092,-0.020087315,-0.017447244,0.0064768493,-0.0046643005,-0.0107434485,-0.014673873,-0.017848866,-0.02213844,-0.034690514,0.012320549,0.023633914,0.040921334,0.026953971,-0.021288605,-0.028190037,-0.0115408655,0.013398338,0.00833445,0.015853742,-0.017631372,-0.037293304,-0.02054789,0.013186276,0.07002496,0.01518498,-0.00735709,-0.05544606,0.021715397,0.032842822,0.074477874,0.008772194,0.047894143,-0.03281831,-0.019887855,-0.04452895,0.016424704,0.007046181,0.014694775,0.015475809,-0.0255609,-0.032399252,-0.0008556407,7.504931e-05,-0.010309622,-0.014749959,-0.012182185,-0.0019503213,-0.012016968,-0.018311633,-0.0056845807,0.014721133,0.019568764,0.024172198,-0.0020270513,0.00072742254,-0.027585333,-0.03121001,-0.03303152,0.010465333,0.06206066,0.0019436469,-0.0064059356,-0.045774616,-0.0047552795,0.060425438,0.10212779,0.050276726,0.003969559,-0.060668807,-0.02920059,-0.011667208,0.038933773,0.035467073,0.013924688,-0.041082725,-0.0236854,-0.028585963,0.043933894,-0.015737118,-0.008983841,-0.03355006,0.0017138892,-0.0051836455,0.034418553,0.011788212,-0.026331196,-0.009834953,-0.004423161,-0.012577349,-0.00827084,-0.02120176,-0.023593888,-0.015649738,0.009847878,0.030672496,0.035146873,0.0053445925,-0.018605215,-0.0045777266,-0.013916515,-0.0066003976,0.024102032,0.020485187,0.023796028,0.0062513356,-0.010411788,-0.030983383,-0.02823771,-0.028058939,-0.032416433,-0.023011874,-0.021170335,0.002856353,-0.005424246,-0.0008208031,-0.027572516,-0.018300591,-0.004149438,-0.022491913,-0.003536432,0.003774117,-0.029359266,-0.00015444278,-0.009596864,-0.01828656,0.011266013,-0.0027450218,-0.0057898746,0.0010769877,-0.033927318,-0.013798793,0.029840665,-0.0040971073,-0.015135492,0.009609436,-0.021375544,-0.021031095,0.005163899,-0.00094360416,-0.005869363,-0.0021632642,-0.024457084,-0.031969197,0.029325744,0.027257796,-0.0061579663,-0.027236825,0.025725981,0.054203585,-0.051769044,-0.0057356358,0.008846158,0.081459485,-0.026599277,0.0036532788,-0.008607934,-0.020448977,-0.08719431,-0.006034876,-0.0021062118,0.020794718,0.01564946,0.011461227,0.020505544,-0.034420624,-0.011127075,0.040144123,-0.03829623,-0.020463029,-0.08351583,0.06587586,0.061279785,0.13754965,0.06217201,0.14245492,0.045741446,0.16799247,0.10940591,0.15301096,0.08285231,0.009621779,-0.0014924246,0.023268418,0.0112744095,-0.05226222,0.00901467,-0.017388951,-0.01937455,0.0029267813,0.0003089669,0.042929478,-0.010675007,-0.030581733,0.026282866,0.014674979,0.013601302,-0.055662025,0.01291236,-0.0051941304,0.04034602,-0.004771612,0.0018597438,-0.021156467,0.030263446,0.0100002615,0.0056618215,0.041889746,-0.011944624,0.018721832,0.03392441,0.0512134,-0.01025924,0.03332524,0.021261102,0.010145754,-0.0034021554,-0.0013567229,-0.0131928995,-0.009561316,0.014074986,-0.015520645,-0.012103338,-0.00881136,-0.0033354461,0.0034564135,-0.028389944,-0.009342459,-0.016517898,0.0027511192,0.010435394,0.014345807,-0.019761005,-0.052765317,0.020829238,-0.0039130757,-0.005317258,-0.013114607,0.015608287,0.014302958,-0.018837968,-0.0035509407,-0.015620548,0.029916206,-0.017574893,-0.006175083,0.0020022274,0.016787533,0.0015994088,0.010250911,0.0090504605,0.0054339864,0.013164448,0.025621284,-0.013392674,-0.012321758,0.02677322,-0.0206439,-0.007033609,0.027356789,0.002226138,-0.009650036,0.0006640208,0.044600543,0.0069838525,-0.028573332,0.04274101,0.040644456,-0.024917992,0.022469826,0.028084356,0.017085066,-0.03544287,-0.008471737,0.0352739,-0.021250408,-0.019912358,0.034985147,-0.0004987295,0.0055197957,0.016628077,-0.02079962,0.0023896003,0.004787808,-0.025300516,0.029504659,0.013321738,-0.042886294,0.03274195,0.055448007,0.036717616,-0.01829943,0.0021240718,0.040986706,-0.001463133,-0.0040141707,0.058227353,0.020544063,0.03552397,0.011222008,-0.061256256,0.06721254,-0.017915454,-0.054812536,0.024757033,0.0692188,0.012202979,-0.015705142,0.0013219195,-0.011008584,-0.029049799,0.03156315,-0.004991253,-0.029459197,0.026209192,-0.010155515,-0.0022259909,-0.045659136,-0.01072169,0.0027895374,-0.03942182,-0.008906968,0.001697546,-0.023896456,-0.01976962,-0.047318954,0.0033765172,0.028000114,-0.044884108,-0.007442321,0.03880908,-0.018231928,-0.01464678,0.030219786,-0.054408588,0.037324775,0.033174463,-0.14618817,0.058606792,0.082011126,-0.053248275,-0.044698644,0.059941817,-0.012385502,0.015995266,0.033140764,-0.04359717,-0.04007339,0.09220735,-0.026637195,-0.035218,0.063275956,0.018343465,0.006975801,-0.0034155564,0.016264172,0.016386073,-0.015653988,-0.01144678,0.005935205,-0.018411305,0.006421294,-0.040508192,-0.016536936,-0.0080820555,-0.027807742,-0.042268477,0.03164571,-0.01794558,-0.04267939,0.016688116,-0.052389268,-0.045159742,0.029322544,-0.0059763226,-0.06362016,0.014363484,-0.02796658,-0.010446128,0.019545158,-0.024823163,0.049374305,0.026543409,-0.03526646,0.019398205,0.029435268,-0.013705319,-0.004536781,0.01179,-0.03859544,0.04935625,0.027103955,-0.044768263,0.026116122,0.037747122,-0.008101338,-0.005447854,0.012156411,-0.01661729,-0.02035577,-0.013326305,-0.017695086,-0.00541915,0.0006816336,0.006335973,0.019596422,0.022169376,0.004395478,-0.005983541,-0.008172061,-0.050296146,0.002903073,-0.0023159003,0.007797271,-0.000924736,-0.050051913,0.025108827,0.026749093,0.064355105,0.01867322,-0.049013294,0.018537546,-0.0861886,-0.0009121725,0.03011834,0.018895734,0.007670299,0.011550961,-0.010961849,-0.00063394604,-0.042383123,0.014993314,0.033646706,0.03011302,-0.09582707,-0.0715451,-0.08635051,-0.08366652,0.023957103,-0.019664224,0.028484523,-0.016054023,-0.010267679,-0.01005582,0.04032364,0.023640988,0.10080148,0.035240747,0.096992575,0.0121991215,-0.07327974,0.023581617,-0.02142868,-0.039606854,-0.019683847,-0.05316688,0.029112795,0.01128217,0.02766235,0.015510275,0.028802006,0.017977258,0.019990271,0.010816726,0.017421434,0.031722438,0.026479531,0.044650458,-0.013375434,0.0083165355,-0.046262853,-0.0024190603,-0.0063040666,-0.05078041,0.004040565,-0.009317054,-0.004977327,-0.0043256236,0.03218149,0.07565995,-0.010928121,0.031318035,-0.0944587,-0.04174387,-0.07538843,-0.013846577,0.019730443,0.0028788517,-0.06099635,-0.035259657,-0.029862156,-0.07049773,0.00032979008,-0.034027807,0.013572789,-0.021083137,-0.04838853,-0.06947387,-0.013926477,-0.06792885,0.017571865,0.04985624,0.053391833,0.03340377,-0.029992865,0.038677465,0.11242892,-0.019429693,0.09076502,-0.058573574,-0.035387207,0.014103211,-0.0013226354,0.018242186,-0.012025951,-0.061250277,0.032683592,-0.024852222,0.050683454,0.05735295,0.04387352,0.022611136,-0.06386516,-0.009990396,-0.013202671,0.00014728631,-0.0029143693,-0.003445757,0.008676235,-0.008848714,0.021650793,0.031325303,-0.0131714875,-0.05049375,-0.0023861683,-0.030421402,0.015294276,0.008055607,0.008343106,0.0386236,0.022670278,-0.0025303173,0.016747689,-0.0046570306,-0.008819951,0.026637314,-0.0073155896,-0.0015390712,0.037047822,-0.0015546541,-0.020429453,-0.019795997,0.014816794,-0.020107273,-0.020995287,0.03534732,0.009242319,-0.009118233,0.03876831,-0.006693952,0.014482146,-0.019382631,0.011703472,0.028359849,-0.027051382,0.022640485,0.004355346,0.008148936,0.007291026,0.021297717,0.010333008,0.0038984343,0.024815751,-0.0029286875,0.0099773295,-0.014001817,-0.026812438,-0.022492295,-0.023389598,0.044694997,-0.05010299,-0.08361732,0.08225373,-0.015602999,-0.070038706,0.088125095,-0.006122586,0.03435035,0.011097016,-0.054573797,0.009504511,0.04509707,-0.068973705,0.062390037,0.034990888,-0.012304993,-0.033424232,0.042268015,-0.014780827,-0.02371618,0.0495684,-0.018293045,-0.024107013,0.012081596,-0.0002738059,-0.036782704,-0.016548837,-0.0032240928,-0.04628198,-0.034927133,0.008374848,-0.027371205,-0.03293238,0.020645972,0.01643283,-0.018184558,0.019767743,-0.002792467,-0.024738705,0.021847466,0.019369982,-0.029346213,0.039831292,-0.01783124,-0.026169665,0.09329957,-0.08508347,-0.03481702,0.096339144,-0.09648971,-0.013224354,0.024387421,-0.009983809,-0.010748253,0.06847914,-0.109423555,0.018080754,0.06446228,-0.07560451,0.032416083,-0.013905765,0.017638572,0.029859174,-0.029297179,0.031666182,0.01608632,0.0026944068,-0.009556774,0.014461619,0.018460818,-0.032996934,-0.012529308,0.052736554,-0.07342895,-0.027865075,0.053611342,-0.010873713,-0.043461885,-0.05267046,0.015341534,-0.015688404,-0.05487509,0.08897574,-0.007967683,-0.072887264,-0.008293968,-0.0071706586,-0.02734153,-0.0057630897,0.024180392,-0.017064717,0.0117884865,0.0173143,-0.010942356,0.0076132477,-0.0012544986,0.011247074,0.014371412,-0.015614985,0.008330114,0.026017344,-0.029900003,0.0040210388,0.030852117,-0.018776948,-0.026075631,-0.00604758,-0.026090378,-0.015935214,-0.0005715166,-0.0076991213,-0.022862462,-0.034339543,-0.042681575,-0.0058439216,-0.036698733,-0.0050617126,0.018281719,-0.010892791,-0.038551338,0.0052317367,0.017635271,0.025536215,-0.0052581895,0.034115136,0.007915217,-0.025362186,-0.0122660585,0.07326637,-0.025999434,-0.040590186,0.01242437,0.023373583,-0.026755936,-0.055246297,0.0036406845,0.013802211,-0.024133163,-0.012258322,0.023450254,0.025264407,-0.024863472,0.034826107,0.11471468,-0.015907574,-0.07792495,-0.029755764,0.015942745,0.028088313,-0.033867724,-0.0020997073,-0.022202091,0.0057385038,0.012178774,-0.031969115,-0.027955474,-0.017076625,0.010278757,0.006350732,-0.019953422,-0.028381402,0.035504214,0.017054947,-0.042568356,-0.06634292,0.0066527217,0.050090794,0.0063232942,0.03447899,0.05544999,0.016782722,-0.01416276,0.016277796,0.054778136,-0.009455791,-0.042273175,-0.0135934865,0.0076465663,-0.05091152,-0.046701137,0.009973448,0.009308441,0.0022890207,-0.004991709,0.030290177,0.05865242,0.008357422,-0.08486889,-0.09157759,0.07276995,0.09344028,0.013159452,-0.01769621,0.00030771559,0.03563428,-0.011047523,-0.087799884,-0.05646826,0.043233603,0.033375047,-0.04841764,-0.0011228564,0.074045315,0.06643023,0.04547418,0.04513055,0.0060132947,-0.007696537,0.008174561,0.044158686,0.011634045,-0.044656154,-0.022498926,-0.02111615,0.022795819,0.02557622,-0.05065982,-0.06653003,-0.032762796,0.0073536285,-6.808636e-05,-0.026843341,0.012333247,-0.025359249,-0.03903854,0.02602058,0.0028360675,-0.068047754,-0.014478607,0.014966937,0.014320976,-0.0033215196,0.023945376,0.013471012,-0.02894974,0.007906112,0.01752699,-0.018264418,-0.024737818,-0.030249795,0.039640754,0.034253974,0.00021996505,-0.010270073,0.019611456,0.023955597,-0.045491777,-0.05214617,-0.025506858,-0.027286991,-0.021466391,0.0012821835,-0.007254916,0.0039098756,0.000582446,-0.015027179,-0.010585871,-0.016921194,0.014770159,-0.029767154,0.01064959,0.013747672,-0.014213155,0.041131593,0.021043727,-0.027212812,0.014716373,0.017321587,-0.0032835419,-0.0012498678,-0.007242442,0.018739363,-0.007076938,0.0017961342,0.014555047,-0.0048708487,0.009914128,-0.02733568,0.010990064,0.05064299,-0.04857983,0.037646104,0.0031866988,-0.08781247,0.057476223,0.0056982418,0.023624789,0.020320212,-0.101659164,0.12464098,0.0059094266,-0.18491231,0.18825746,-0.027378395,-0.020473571,-0.021466985,-0.0033527603,0.014745815,-0.05029815,-0.005986641,0.07821042,0.018755857,-0.014944775,-0.050581295,0.04919945,0.01172067,-0.117105536,0.1151198,-0.0009391602,-0.12103776,0.10828427,0.01505741,0.010471341,-0.019806534,0.0061395303,-0.008063039,-0.024841465,-0.02876439,0.012587099,-0.04077622,-0.024553472,0.042049866,-0.0057977755,-0.03180998,0.05023989,-0.0017492493,-0.03648579,0.045014195,-0.03257536,-0.033155374,0.061191592,-0.012296963,0.0046412055,-0.030436892,0.005821149,0.0041130865,-0.042549554,0.019346455,0.015792437,0.0012709065,-0.010486759,0.00084669795,-0.08933324,0.04070422,-0.008318251,-0.06458853,0.111154094,-0.04133814,0.012477983,-0.010194008,0.017322063,-0.008023939,-0.03009408,0.017562065,-0.041188873,-0.030888123,0.017893245,0.0057403133,-0.015747312,-0.004419785,-0.021261647,-0.0062098876,0.027924366,-0.02533304,-0.019732865,0.011617034,0.01635743,-0.016794875,0.008519336,0.007720719,0.034142487,0.017988205,-0.049775712,0.005811645,0.0036071795,-0.028890327,0.006932226,0.011543908,-0.018534927,0.003349154,0.019153658,-0.046903733,-0.0012100464,0.022484662,0.011217229,-0.010428148,0.01234124,0.028726216,-0.029179666,-0.0050367517,0.03528759,-0.0006464749,-0.022892447,0.0045994194,-0.007547329,-0.010686587,0.00020892524,-0.014899908,0.0013074775,0.0025296519,0.0016646372,-0.000540624,-0.011293461,-0.0007369046,-0.027592096,0.020477345,-0.004417347,-0.034909368,0.039126072,0.0065840064,-0.004971228,-0.014589249,0.0023803846,-0.0016786975,0.003959722,0.0006648963,-0.010039999,0.0055529657,-0.0135336155,-0.0036469223,-0.019246364,0.0019122377,0.006310537,0.015444416,0.0034318152,-0.00024600848,0.005587717,-0.007818332,-0.021528993,0.008409958,-0.03083757,-0.03428701,-0.0035577854,-0.05795383,-0.103916034,-0.03715657,-0.056456633,-0.08127478,-0.0009251786,-0.014352551,-0.019856477,-0.030606614,-0.05979861,-0.05146746,-0.032684915,-0.028461045,-0.008868001,-0.0023590066,0.013771575,-0.0017690669,0.0157496,0.026703693,-0.03491303,-0.012371973,-0.026527181,-0.014549824,-0.0019008301,-0.0043959273,-0.0084998105,0.026320076,0.020762144,-0.0030935258,0.01273785,0.026266329,0.010469864,0.041356962,0.005271116,0.0075301416,0.026138056,-0.006100108,0.003571709,-0.001031258,0.008699531,0.03842104,0.046049137,0.06857971,0.037315648,0.1285458,0.16130412,0.07820123,0.113276735,0.13529809,0.043433547,0.000887527,0.0115027465,-0.016766103,0.06115337,-0.0056895693,-0.038623467,0.044615384,0.026615057,0.008722797,0.010336792,0.007396132,0.012931086,0.012017814,0.028357968,0.008938027,-0.002589614,-0.0012487187,-0.0051705637,0.01785997,0.037525743,-0.0126059875,0.041109063,0.02050522,-0.008925072,-0.025956415,-0.006624652,0.0065977313,-0.055576533,-0.055741422,0.019061115,-0.09856345,-0.012091459,-0.008393669,-0.08145432,-0.0831321,-0.034019627,-0.03697217,0.0010097635,0.033872627,-0.038178228,0.028481975,0.038025867,-0.022588009,0.020474082,0.018791594,0.0033345132,-0.0030114998,0.016859876,-0.022726875,-0.030694919,0.007242615,-0.0124522,-0.021457903,-0.0075292224
