-0.15850987,-0.11571856,-0.01831992,-0.20846455,-0.19266626,0.16380706,-0.23354857,-0.14768577,0.19213343,0.0174128,-0.12143827,0.09877297,0.23766221,-0.06519836,0.122268386,0.13822447,0.35089985,0.025331024,0.006898325,-0.09823529,0.09301056,0.036890842,-0.1467451,-0.09508827,0.10199827,0.06361931,-0.05394277,0.0147854565,-0.021806413,0.033308484,0.19413508,0.58186525,-0.10440114,0.43334502,0.5255109,-0.013020429,-0.082248956,-0.010990164,0.10973329,-0.041623518,-0.2547855,-0.12453732,-0.05106145,-0.13411932,-0.026927281,0.040225513,-0.06481306,-0.15538388,0.0056187706,-0.088309295,-0.11858759,0.011463849,-0.14806522,-0.0016747572,0.03629088,0.21533373,0.1660724,0.0035797397,0.0067454968,0.10729065,0.08352048,-0.11340098,0.0313807,-0.013623809,0.13117243,-0.09484248,-0.06974547,0.3371027,0.13047381,0.034514975,0.08552573,0.0822672,-0.22159031,-0.1591899,-0.1408055,-0.044492442,-0.15959665,-0.10434029,-0.110326774,-0.20270248,-0.16701944,0.2982198,0.254456,0.056696143,0.28651193,0.26879987,-0.088607945,-0.17704883,0.13470891,0.10392147,-0.041870248,-0.046631902,-0.028004007,0.19485734,-0.008179024,-0.2655126,0.05128155,0.0010528497,0.04568391,0.058494993,-0.105096504,0.056829885,-0.05524532,-0.13210027,0.15325238,0.06716181,-0.15586184,0.018373905,-0.061741445,0.027105432,0.13063337,-0.16276437,-0.054613575,-0.0046381657,0.022327004,0.026990602,-0.13150547,0.08868845,0.20386773,0.1811592,-0.38320103,-0.060519576,0.29383436,0.14713591,-0.14470036,-0.09498517,0.11825162,-0.09204905,0.0088520525,0.13545749,0.20992759,-0.027234813,-0.022235483,0.23113354,0.16687529,0.047455158,-0.24823388,-0.07009569,0.2737492,0.30727053,-0.031019617,-0.25764203,0.15058683,0.35396436,0.10010533,-0.055676952,-0.027742663,0.06044223,0.0184899,0.017052034,0.0390471,0.18370412,0.37698346,0.07970635,-0.16861421,0.07505753,0.06058823,-0.13799073,-0.1550686,0.0214021,0.17382035,-0.11585395,-0.039131735,-0.07831478,-0.17996185,-0.060599603,-0.043604657,0.103649445,-0.04512348,-0.09258613,-0.006994435,0.07537596,-0.13788529,-0.060829185,0.33819574,0.041705772,-0.21999028,0.088267975,0.28286904,-0.18947755,0.055892706,0.11611817,-0.033250168,-0.035251256,0.03569641,0.09755573,-0.22893365,-0.11979446,0.018158432,-0.008871969,0.1220458,-0.13539307,0.020250041,0.1450549,0.0579187,-0.079837374,0.00091467105,-0.03061923,0.05709254,-0.076056994,0.17822047,0.14129953,-0.24362408,0.09734543,0.09612476,-0.0343703,0.030573467,0.012992416,-0.05794934,0.19853583,0.1102059,-0.1078225,0.09340904,0.030345356,-0.15609613,0.14036235,0.023538075,-0.046498243,0.018269792,0.06509533,0.13089061,-0.09820917,0.07932013,0.41772136,-0.04151549,0.028497817,-0.003969117,-0.06309358,-0.04292045,-0.11036592,-0.13188495,0.15684904,-0.16885883,-0.09279076,-0.0038353927,0.09820371,0.018577572,0.14508466,0.25811055,0.033367608,0.020313265,0.2705966,0.12281947,-0.13847665,-0.0843852,0.057751205,-0.12231978,-0.22447027,-0.09724647,-0.041413065,-0.2795176,-0.25234717,-0.121143214,-0.17641722,-0.20851567,-0.0030032247,0.24981098,0.19348119,0.048551805,0.14711915,0.25127345,0.02488779,0.18717048,0.078230225,-0.34790695,-0.21097493,-0.0622825,-0.22373725,-0.13711551,0.060669698,0.17703003,0.059345637,-0.17102006,0.24401824,0.41686904,-0.06263343,-0.071607925,0.45269558,0.09774877,-0.1663874,-0.051639374,-0.054551255,-0.093722425,-0.114288755,0.0068563484,-0.12975684,-0.07626656,0.11718324,-0.11750329,0.07178924,0.041401673,-0.28971118,-0.20185329,-0.13563773,-0.2498779,-0.05471259,-0.015055467,0.1496961,-0.09626477,-0.21742626,0.023027636,-0.21103984,-0.2440536,0.025282709,-0.0272323,0.005289677,0.014517047,-0.09638629,-0.04126768,0.036655925,-0.11096455,-0.09791823,0.092717566,0.02190552,0.07677539,-0.08798084,-0.13415156,-0.049641725,-0.031841874,-0.012667483,-0.1584361,-0.104463436,-0.088694684,-0.2983746,0.021717928,-0.10170905,-0.0054855663,0.023277568,-0.24065399,-0.039579302,-0.012108062,-0.22198398,-0.16875045,0.037366327,-0.07410885,-0.090247095,-0.14477713,-0.2880559,-0.12987791,-0.10137292,-0.24485731,-0.12602076,0.3262853,-0.059967536,-0.071810454,0.1508342,-0.20290981,0.008203522,-0.063308895,-0.056653842,0.031763352,-0.052007828,-0.30473074,-0.014587609,-0.06436469,-0.32618183,-0.14300618,0.123150185,-0.048860837,-0.16810419,0.09616546,0.058513906,0.02818443,0.14579698,-0.0141041335,-0.00950511,0.16381857,-0.0315479,0.06586751,0.010375044,-0.13428037,-0.26534235,0.020508893,-0.02936515,-0.0494641,0.13075611,-0.00963652,-0.046905577,-0.04045614,-0.02534958,-0.0002835076,0.08520234,0.029299343,-0.16542676,0.0627827,-0.051239263,0.05101063,0.1617478,0.16280586,0.0019001153,0.19170713,0.010110954,-0.25631756,0.03341349,-0.06739067,-0.057337053,-0.063806646,-0.09708575,-0.18060713,-0.20854528,-0.15797138,-0.28036338,-0.23589635,-0.28430414,-0.06289473,-0.17204265,-0.08476858,-0.08682187,0.1879867,0.17111209,0.08833319,0.27541488,0.23390111,0.13334002,-0.15443042,0.036364593,0.14177074,-0.023423437,-0.10626409,-0.04743465,0.04865299,0.0073824762,0.04501698,-0.098160736,0.15481852,0.12750909,0.0050200103,0.0055505917,-0.07477743,0.007987384,0.01743031,0.0736256,0.03189237,-0.028595721,0.12135253,-0.018036403,-0.106667936,-0.07403995,-0.09431777,-0.26233897,-0.23161657,-0.038097646,0.0039436077,-0.054412726,-0.026645908,-0.0442277,-0.033122085,0.16971846,-0.006985154,0.01856039,0.054782122,0.117258936,-0.065596014,0.15361735,0.2261732,0.18585606,-0.00035654486,0.12026006,-0.094040446,-0.0945529,-0.21140614,-0.15301509,0.00967426,-0.28044584,-0.33675548,0.10515113,-0.056875724,-0.07420617,-0.013817011,-0.16258368,-0.11947024,-0.027144942,0.020746537,0.10406856,0.05681857,-0.046061527,0.103821956,-0.0956149,-0.16581829,0.027098743,-0.025121968,-0.14416918,-0.025582595,0.10611378,-0.03903215,-0.063268386,-0.2696845,-0.026339468,0.0114377225,-0.106988214,-0.1341361,-0.18887496,0.005751885,-0.081269324,0.03687006,-0.074440196,0.030176235,0.23355629,0.005850358,0.07050417,0.19771849,0.079006456,0.11623785,0.28618383,-0.23877575,-0.13338713,-0.17361261,0.024939178,-0.027404763,-0.20353545,-0.02580956,-0.1910675,-0.19709007,0.16042806,0.0025066822,-0.18279962,0.093922906,-0.32935542,-0.46901903,0.0017760174,-0.31186396,-0.01298631,-0.100786276,-0.15562278,-0.029964292,-0.13688952,-0.1870752,-0.2231003,0.020022808,-0.09906413,-0.0728778,-0.018899016,-0.055631142,-0.13740574,-0.025179321,-0.11908673,-0.16576107,0.083708,-0.22989677,-0.2863267,0.040760133,-0.05794506,-0.1689465,-0.0025109646,-0.04029958,-0.19271986,0.057137493,0.175326,-0.0075691496,-0.23427977,-0.23837058,-0.5418879,0.018605547,0.1420167,-0.1266608,-0.22916692,-0.0872334,-0.4667245,-0.17488946,-0.16397823,-0.047245845,-0.22330487,-0.36457837,-0.21420817,0.028545631,-0.23403126,-0.15805866,-0.050336532,0.014525371,0.026907716,-0.050514832,0.07870916,0.016027216,-0.04901603,-0.045450985,0.10062434,0.04926416,-0.0057771485,-0.012540396,-0.08879869,-0.15061818,-0.06565191,-0.05740567,-0.15870047,-0.13308504,-0.00028330897,0.0039223614,0.040997967,0.06527449,0.097146064,0.13335751,0.047684614,0.019461298,0.061401293,0.07615353,0.06607192,-0.036135465,0.1035321,0.0646126,-0.035946306,0.011181697,0.03696698,0.009614933,0.02470159,-0.041221585,0.05141101,0.01171585,-0.038183622,0.047799334,-0.2071092,-0.075601764,-0.023391666,0.03393405,0.0801597,0.116394915,0.116083816,0.13578108,0.04043981,0.028456243,0.1233153,0.028516937,-0.05291299,-0.1420559,-0.08629362,0.14107667,0.045742363,-0.092268474,0.08389087,0.02042414,0.02556239,-0.105607465,-0.00365059,0.009690014,-0.13975829,0.07240589,0.034392517,-0.1414586,-0.01377735,0.0791475,0.20143405,0.18000157,-0.01278206,0.10780759,0.15756728,0.038119387,0.0068340176,0.05436272,-0.0119071435,-0.018853521,0.07681842,0.05504152,-0.032074247,0.1673958,0.060353395,-0.05182077,0.043772638,-0.0940236,-0.0107274465,-0.00064443424,-0.033871893,-0.011366286,0.059172783,-0.076028526,0.088603094,0.039568596,0.035365686,0.09309038,-0.010121009,-0.025372831,0.14962728,0.07496496,0.085949466,0.026177159,-0.03899626,0.032806735,-0.03345014,0.07548991,0.032045964,-0.016051084,0.07814387,0.022969598,0.022590118,-0.0012388543,-0.05081515,-0.082527384,-0.12043574,-0.07978494,-0.049368124,-0.023111548,-0.09432123,-0.07107474,-0.06227826,-0.13663405,-0.13403279,-0.10116814,-0.13911545,-0.17141679,-0.14312938,-0.19683601,0.049981527,0.027212324,-0.00040226066,0.034952305,-0.11942849,0.08764466,-0.02216724,-0.07514993,-0.022166846,-0.18041122,-0.1025198,-0.057794724,0.020359056,0.012907647,0.047788423,0.03786554,-0.15028381,-0.007640671,0.036155857,-0.10678004,-0.06363466,0.09162457,0.08730826,0.00021728752,0.004660365,-0.008121737,-0.002028164,-0.18332237,-0.15862274,-0.11279152,-0.06915402,-0.030193672,-0.038294915,0.025592081,0.08604453,0.015653402,-0.030790497,-0.016129429,-0.05119716,0.07891122,0.11293391,0.05239253,0.07899181,0.10876796,0.07201678,0.083173126,0.1320524,0.06738339,-0.14604548,-0.09903546,-0.012795242,0.034811314,-0.026392294,-0.017849993,0.036072284,0.021370398,0.0007257898,-0.030731894,-0.03938264,-0.10381293,-0.12909983,-0.063323684,-0.010017985,-0.090783685,-0.015294313,-0.037333462,0.06358544,0.1334454,0.06054799,0.10822772,0.08248308,-0.07156095,0.071376085,0.029507538,0.042633124,0.14275451,-0.06344418,-0.12542817,0.03351798,-0.12837955,-0.12214332,-0.07342649,-0.1389627,-0.10470712,0.007973493,-0.07793621,-0.015885526,0.015084263,-0.11622885,-0.0037811992,0.025806556,-0.06447904,0.0003404938,-0.111837335,0.021588517,-0.002514165,-0.124694884,0.0822488,0.030935057,0.009252962,0.1556652,0.06684903,0.050450783,0.037462298,0.035561576,0.10172862,0.13237298,0.021135323,-0.01837772,0.020663423,0.00084496284,0.00021871546,-0.0034630403,0.031187672,-0.06267265,-0.098845676,-0.028562346,0.022152234,0.021982193,0.02751435,0.016204754,-0.047577642,-0.0669337,0.057307348,0.028669158,-0.15057367,0.12333055,0.068503715,-0.14438446,-0.014419373,-0.08932553,-0.06056228,0.044336572,0.007559705,0.0973729,0.060436442,0.07431703,0.15866902,-0.0012841913,-0.08261393,-0.08884172,-0.062079914,-0.19853505,-0.2259952,-0.10462951,-0.16167043,-0.115598,0.022199236,0.0070262323,0.05132044,-0.015287968,0.037483193,-0.006085895,0.010719545,0.11154638,0.08679183,-0.0051204828,-0.03904078,0.08383696,-0.15099901,-0.10715549,0.038124423,-0.040703822,-0.054974508,0.011963832,-0.06299545,0.09006015,0.07396141,-0.015869327,0.12208288,0.07634676,0.1987688,0.18969662,0.09363535,0.1638418,0.2223076,0.16413023,0.14365686,0.11454264,0.17637865,-0.018610401,0.0352736,0.10700391,0.0859187,-0.062792465,-0.018016117,-0.09211777,-0.18684827,-0.19159983,-0.31402415,-0.22817211,-0.17532207,-0.13862784,-0.053955816,0.24225545,0.010963687,-0.25858477,-0.16389579,0.10812422,-0.081232235,-0.2426064,0.08775102,-0.0731494,0.037914414,-0.12922685,-0.118631974,-0.02495465,-0.2440382,-0.16122796,-0.0976561,-0.12303804,-0.13047503,-0.056671828,-0.059052933,0.03625819,0.03813937,0.11298453,0.13656154,0.1862905,-0.16272476,-0.057142135,-0.049282912,-0.20010433,0.09952697,0.19510822,-0.04188372,0.11250667,0.06971142,0.07063743,0.1902489,0.071749546,0.100365095,0.13631122,-0.06542299,-0.031869352,-0.014525979,-0.08310733,0.023980761,-0.052086532,0.15524516,-0.15283673,-0.153788,0.20988183,0.057770807,0.20583841,0.26143333,-0.124807775,-0.038801525,0.13317503,-0.17374162,-0.1740088,-0.08317413,-0.18002325,-0.22767344,-0.15325138,0.003301551,-0.03989707,-0.036015898,-0.007442886,-0.06775674,-0.05636627,-0.0045894664,0.014716348,-0.08996153,-0.0035861728,0.06420638,0.16338313,-0.050268423,0.04263838,0.14420542,-0.1440521,-0.090771124,0.015705941,0.07416054,0.18345611,-0.09981346,0.027692167,0.14521518,0.023153866,0.0059951334,0.036479723,0.0009223802,-0.0012408977,-0.041904613,0.047609303,0.13089688,0.051645905,0.032326598,0.039677903,-0.00025213356,-0.09608118,0.008758161,-0.0048108245,-0.01437867,0.1738192,0.20939328,0.074631706,0.16565055,0.18912707,0.007202876,-0.15033324,-0.12118609,-0.053919125,-0.07073586,-0.04010423,0.057891756,-0.044247735,-0.05776176,-0.034623608,0.09517587,0.06589217,0.029028181,0.15490806,0.19266568,0.23791277,0.31895614,0.3055879,0.23517816,0.12179107,0.047797024,-0.041260794,0.08827286,0.093774624,0.04090267,0.12157551,-0.12625857,0.04444086,0.0656272,0.076441914,0.067346126,0.08579994,0.08591257,-0.0014472244,0.014943647,0.12502891,-0.0009967029,-0.042123396,0.14894639,0.04000829,-0.01283182,0.026677277,-0.0037132348,0.036161963,-0.019620877,0.0076037482,0.083788395,0.012939638,0.09139005,-0.02774617,0.001718391,0.18935038,-0.10795826,-0.17992362,0.03483773,0.24278721,0.17966938,0.098202616,0.032571394,0.13681309,0.023324577,-0.047243167,0.22328381,0.097346276,0.032251365,-0.13136677,-0.06642042,0.07306928,-0.09773269,-0.059990548,-0.104126185,-0.052963983,0.038700376,-0.048727766,0.19192895,0.090478756,0.038923357,0.05516239,0.07322896,0.039740384,0.14357261,0.033288695,-0.019507816,-0.060628828,0.021410253,-0.020955669,-0.044800505,0.023234712,-0.18038407,-0.18765287,0.084679395,0.061195318,0.050161276,-0.08751481,-0.05414063,-0.13439228,-0.09806656,-0.064247705,-0.040607385,-0.044650763,-0.040945288,0.002100873,-0.06638117,0.037561975,0.027615184,0.002306434,-0.06195637,-0.14679241,-0.12027613,-0.14814235,-0.09646933,-0.12746496,-0.09033715,-0.008653758,-0.20344524,-0.050109506,0.00017828663,-0.2743379,-0.11859622,-0.10515052,-0.065830655,-0.0068625174,-0.013949712,-0.08324342,0.11283473,0.111932896,-0.00088729925,-0.057975158,0.06699061,-0.19289978,-0.020192908,0.072640926,-0.1535639,-0.056385364,0.055699613,-0.10914215,0.08705914,-0.09258842,-0.05611233,-0.05662192,-0.2379692,-0.17019261,-0.044519138,-0.22353241,-0.13053773,-0.06279023,0.00048542663,0.24211727,-0.02594851,0.067227416,0.20774217,0.061783317,0.2508342,0.23636192,-0.16997755,-0.20259765,-0.25601816,-0.054045223,-0.054306734,-0.05510382,0.020571373,0.09992505,0.008471247,0.0027528955,-0.13143663,-0.007020693,-0.07245632,-0.10824774,0.06232028,-0.13124155,0.015398005,0.086612746,-0.043920256,0.0035645892,-0.0016604011,-0.09517398,-0.021384517,-0.08170592,0.012900382,-0.051332507,-0.034250848,-0.04188385,0.045347355,0.007919558,0.036047798,0.05898974,-0.016805558,0.2254832,-0.1380206,-0.14726494,0.06876046,0.0621242,0.09745653,-0.0027478458,0.014401738,0.020562917,0.0016276865,-0.045969337,-0.046832345,0.0267655,-0.07711998,0.0085256,0.03194469,-0.025642958,-0.06045267,0.073772945,-0.011262148,-0.00023966632,0.23504244,-0.010121974,0.080811776,-0.09509198,-0.17135015,0.12062175,-0.11617447,0.12685163,0.22122055,-0.15454224,-0.056080386,0.0043742647,-0.024961665,-0.08773959,0.01921574,0.00890495,-0.043676108,-0.09020547,0.09844549,-0.09836814,0.049800694,-0.06453195,-0.025074217,0.0864046,-0.050029647,0.017231,-0.03459357,-0.05153655,-0.067879595,-0.07604655,-0.03912729,-0.041141566,-0.027723743,0.0914676,0.039169844,-0.06539335,0.10499728,0.029774984,-0.06541688,-0.12256115,0.05469804,0.21935497,0.051628217,-0.0026702143,0.07656943,-0.0109078875,-0.023570405,-0.07834567,0.14100173,-0.0860618,-0.06950952,-0.018761083,-0.06823235,-0.031182917,-0.0051848115,-0.11136593,-0.050753284,0.001993387,-0.118972614,-0.03675365,-0.09091804,-0.13030568,-0.079330474,-0.042210102,0.05706786,-0.04779742,0.050065123,0.053206995,0.020512523,0.13011277,0.14619316,0.120556824,-0.008345093,-0.21866319,-0.15464768,0.033356328,-0.053051345,-0.15009259,0.004644809,-0.16709185,-0.1020488,-0.106446825,0.022575492,-0.14736384,-0.02169236,0.041932333,-0.04318657,0.18539582,0.03844573,-0.03049737,0.0525272,0.07764364,0.109917104,-0.001449897,-0.037319254,0.042784203,0.06234326,0.047690663,0.027301416,-0.020401338,-0.0727003,0.0147945145,-0.05702386,-0.10584091,-0.037224412,0.045701843,0.022588575,-0.05972723,-0.06465256,0.02124461,-0.19081242,-0.018418228,0.14226289,-0.022459008,-0.12530689,0.037023846,-0.0889532,-0.06838449,-0.018487088,-0.10546388,0.012569347,-0.09241201,-0.049019113,0.046343207,-0.037823923,-0.0056097507,0.015426963,-0.011679,-0.11012469,0.1184422,0.14283726,0.012521969,-0.019923849,-0.0098205665,-0.008134491,-0.057863884,0.06178808,0.04562477,0.09702756,-0.009067164,-0.0675731,0.021144073,-0.004242103,-0.0696455,0.16616718,0.08252474,0.09555905,0.0697579,0.08279947,0.024250869,-0.027289374,-0.016929094,-0.027266415,-0.044728488,0.02254383,-0.12411079,-0.080543295,-0.0060384795,-0.0889512,-0.07188913,-0.042863548,-0.018998781,0.027247898,0.039045982,0.11750826,0.10061134,0.11899164,0.059700333,0.018182151,0.0957239,0.06949612,0.16913383,-0.06484971,-0.08206963,0.07647889,-0.109015346,-0.13376105,-0.046002373,-0.17111886,-0.0157889,0.051879518,0.12325215,0.15956903,0.024570622,0.041693002,0.05226387,0.079583555,0.026712097,0.05528394,-0.047218654,-0.044010915,0.073625594,-0.14642134,0.018546565,0.07491289,-0.047279786,-0.052794933,-0.037813786,0.07226778,-0.024236558,-0.05367504,0.11099932,0.08079364,0.05139039,0.053969406,0.041347507,0.08548903,0.030392881,-0.089548185,-0.035722617,-0.028175412,-0.15881309,-0.05369899,0.07688835,-0.03614631,0.03389499,-0.039175387,-0.13317303,-0.024409417,0.14959446,0.078247644,-0.10832579,0.17259015,0.12733065,0.066577576,0.28375947,0.18784717,-0.15224355,0.29660916,0.5112045,0.08510815,-0.04525692,0.13729666,0.18430857,-0.0041880147,-0.09522333,0.037967112,-0.006563585,-0.045947064,0.026540885,0.022299165,-0.06944205,0.0019374454,-0.012658173,-0.052382827,0.08052035,-0.084231175,0.023904104,0.19331314,-0.060664617,-0.10199817,0.07021391,0.009819011,0.01774958,0.008377702,0.10269704,0.050261922,0.09119288,0.07594217,0.08194591,0.1341446,0.018167337,-0.0017634014,-0.003010901,-0.008204869,-0.039689064,-7.35848e-05,-0.08646621,0.06363281,-0.014763324,0.003924665,0.18477398,0.038521763,-0.087443605,0.055643883,-0.15781964,-0.084737994,0.031839333,-0.14124368,0.050040435,-0.016926685,0.055376556,0.11951439,0.028253565,0.019390617,-0.0037386047,-0.008551406,0.014380225,0.086278275,-0.0012839385,-0.09161874,-0.011915431,0.06990967,-0.08042241,0.041705623,-0.010957951,-0.11205415,0.008263494,-0.042735655,-0.16212037,0.0072370623,0.036088485,-0.029820524,0.11400337,0.09804929,0.101659104,-0.17030688,-0.01183247,0.09352238,-0.121307656,0.15525691,0.036391146,0.0151341455,0.040206593,-0.097671755,-0.098998256,0.04948352,0.039502766,-0.109166704,0.10785977,0.011142411,0.001913963,0.05087933,-0.07399624,0.10324565,0.08239387,0.10431767,0.058433954,0.09828663,0.033060186,-0.064052954,-0.0055391705,-0.07137818,-0.019043254,-0.0783012,0.11305686,-0.16775647,-0.0048934156,0.07320137,-0.031492665,0.045327436,0.11096416,-0.12870814,0.14676666,0.1714828,-0.06345475,0.27311856,0.16861993,-0.13616027,0.20120393,0.031761177,-0.014821193,-0.021742843,-0.040369365,-0.06793056,-0.110111505,-0.19141722,-0.13837065,-0.08430112,-0.19095129,0.03040748,0.02477619,0.101813965,0.04420134,0.15906508,0.097743705,0.04504595,0.038534805,-0.03924046,-0.028313057,-0.078093246,0.087784454,0.12462808,0.066947706,0.0830335,-0.05419115,-0.019461041,-0.09802714,-0.0625699,-0.022049844,-0.007642417,0.031265397,0.110531084,0.100083955,0.018586976,0.14226723,0.10615155,0.021078149,-0.01467116,-0.07537534,0.016941372,0.08430901,-0.008287651,-0.052723367,0.028482607,-0.12492568,-0.14181937,0.00442228,-0.04214581,-0.059378922,0.13789943,0.08963435,-0.14908023,0.10419835,0.050611243,0.0014912849,0.065490946,-0.1119913,-0.10171915,0.07209668,-0.0025037096,-0.09505389,-0.11006118,0.059494417,-0.002778703,0.15533262,-0.00014134626,0.11100833,0.29110396,0.14739321,0.0987194,0.1691621,0.043469977,0.050168198,0.041452818,0.015318194,0.09698179,0.1548998,0.103290014,0.08364178,0.01137845,-0.060530044,0.06991532,0.040727366,-0.14775272,0.0472885,0.11433838,-0.06468436,0.01576131,0.11755363,-0.058984194,0.12832361,0.10686433,0.08341935,0.111408055,0.072127335,0.15244196,0.103606254,0.042142965,0.07509344,-0.15666632,0.019666828,-0.060826764,-0.19703288,0.1359961,-0.046604503,-0.167594,-0.066875204,-0.18423326,-0.008078423,0.037170727,0.054300275,-0.085315116,0.14589016,0.029355349,-0.10735117,-0.009671508,-0.19274813,-0.04076757,0.06901034,0.1653843,0.00797937,0.0605633,0.059872277,-0.0019810663,-0.026418118,-0.006755381,-0.032788746,0.024293315,0.010713766,-0.0784134,0.026529191,0.0013587803,-0.08065714,-0.0474415,-0.012727023,0.02703513,0.004835937,-0.044527404,0.037331972,-0.00020836871,-0.031474747,0.021373859,-0.0031694858,-0.012864879,0.027416596,-0.19524021,-0.1172992,-0.10678808,-0.33651453,-0.2705891,0.05289618,-0.09229977,-0.09033441,0.008511593,0.10183069,0.03133211,0.038978353,0.1451371,0.08620611,0.02863109,0.008794118,-0.10446207,-0.03399015,0.036196932,0.11352412,0.08634951,0.18480095,0.045265637,0.12957545,0.06657279,-0.08488129,0.016202979,-0.040608507,0.0056698,-0.03071181,-0.061265294,-0.051723566,-0.0088180965,0.03816395,-0.015734376,-0.019948721,-0.02331061,-0.03112574,-0.04073023,-0.041585993,0.026614562,0.089686155,0.08996783,-0.01407309,0.029413117,-0.020554243,-0.038783446,-0.06493438,-0.0020008383,-0.0183392,-0.06482118,-0.035839707,-0.010287868,-0.037589952,0.058277026,-0.09943477,0.06415486,-0.026828693,0.031269394,0.1477563,0.009620035,0.02981805,-0.027799312,-0.038688872,0.0320033,-0.058761086,0.067940585,0.07212604,0.052205432,0.10540092,0.08006573,0.021622894,0.009257838,0.04680658,0.036747128,-0.01392365,-0.0139942635,0.01737,-0.029403415,-0.041922357,0.03038748,-0.017061042,0.11682278,0.10505847,0.044005156,0.046472896,-0.0064250818,0.11020565,0.05519478,0.015309478,-0.05857286,0.12817807,-0.06285206,-0.12398872,-0.051445503,-0.05318651,-0.10005236,-0.08250615,0.048100144,-0.03547204,-0.011183664,0.07195586,0.03834109,-0.01052306,0.014600339,0.015351981,0.0067835385,-0.038285624,-0.07484039,0.035801366,-0.044746052,-0.006693159,0.021664914,-0.06157748,0.06166009,0.013639906,-0.03825016,-0.0006965724,0.01932851,-0.02041484,0.06178148,0.18946332,0.1382763,0.048417732,0.13660918,-0.04306097,0.0050687473,0.02619748,0.00015201623,0.034920227,-0.020974481,0.0061744726,0.031315878,-0.06829389,-0.027401663,-0.03535669,-0.05811745,-0.020011041,-0.052860267,-0.08602002,-0.04513609,-0.002975794,0.008124441,0.047006276,-0.042270567,0.001543574,-0.06298961,-0.049122922,-0.09654173,-0.1348329,-0.092541955,-0.047387928,-0.0778018,0.103148684,0.06944424,-0.0128398575,0.020931456,0.035518233,-0.07617814,-0.110652916,-0.04454436,0.03163272,0.06555629,0.007684767,0.033469573,0.044096943,0.011784637,0.06359353,-0.040824126,-0.071241334,0.022428324,-0.03332871,0.005909791,0.045653637,-0.037591763,-0.042610586,0.04415802,0.020653954,-0.054183654,0.0066861236,-0.057732206,-0.03458963,-0.07984281,-0.09143699,-0.062086556,-0.024941973,0.046415024,-0.0031253553,-0.025099723,-0.01576213,0.023998754,-0.08522766,-0.11227876,-0.07923451,-0.013425839,0.009700338,0.035083342,0.06635437,-0.01849055,0.107578695,2.3914077e-05,-0.13777174,0.013078571,-0.03194803,-0.17310688,-0.08080726,-0.03718641,0.10179771,0.08100458,-0.08174191,0.008095968,0.06745658,-0.012871753,-0.063685395,-0.0018049387,-0.0050973417,-0.0077451007,0.023072742,-0.034818217,0.060255203,0.09377308,-0.04139236,0.0047854045,-0.057326354,-0.07103679,-0.09702478,-0.1066216,-0.03760863,0.0009804022,-0.0157839,-0.0022087817,-0.025196867,0.07093717,0.025005143,0.014750077,-0.003802692,0.01790269,0.093486816,0.08109988,0.026592892,0.10989404,0.10953088,0.031209022,-0.011684068,-0.054725565,0.021161072,-0.13672298,-0.033515252,0.023216506,-0.17864141,-0.04457468,0.023886446,-0.08493504,-0.14310488,-0.04570279,-0.1302561,-0.1022847,-0.006939209,0.005778485,-0.046821643,-0.036231082,0.032692447,0.062705345,-0.07994457,-0.09151927,0.052002523,0.06080703,0.017542016,0.088771194,0.013416679,-0.06475649,-0.013764542,0.06422181,-0.03314823,0.03378416,0.0017600362,0.040891707,0.046254877,-0.042515688,0.00068625034,-0.020304415,0.002131583,-0.026702456,-0.021369398,-0.046959836,0.010175946,0.012623,-0.006994883,-0.04041312,0.002072725,-0.051714886,-0.08934437,-0.056632478,-0.02250971,-0.021911476,0.027883945,-0.057788443,0.028581316,0.0017573653,0.04606309,-0.036703486,0.03892814,0.039236214,-0.044625603,-0.14808095,-0.11898089,-0.07088538,-0.053306088,-0.054680005,-0.030443966,-0.09340872,0.08729794,0.033910077,-0.05421213,0.18729278,0.10097314,0.055003356,0.2391441,0.1493657,0.15860277,-0.11611917,-0.060204633,-0.0068387054,-0.1623281,0.06002582,0.29151195,-0.06289187,0.19679078,0.37819055,-0.11232184,-0.02746244,0.16762121,-0.08159276,-0.04493495,-0.13292673,0.14181316,0.020829923,-0.033762213,-0.018307453,0.0060849674,-0.042594146,-0.2442534,-0.078016326,-0.022298703,-0.08071779,0.12260174,-0.15962784,0.071239695,0.36209568,-0.022211984,0.103942834,0.22826426,0.18569598,0.14332823,0.2706397,0.038743038,0.19609329,0.06772816,-0.07249822,-0.010831007,0.14135204,0.047267195,0.20225126,0.27345535,0.10122839,0.22551082,0.17788976,-0.041955918,-0.0050747287,0.14579724,-0.10816033,0.10871174,0.4743619,0.17562157,0.064737104,0.30520746,0.29137963,0.025177129,0.38576606,0.19608045,0.06299856,0.13946928,0.13965574,0.00460958,-0.089417815,-0.1723771,-0.028761504,0.07803168,0.07265532,-0.039319273,0.050022192,-0.015028902,-0.08938995,-0.06696969,0.10511916,-0.015731793,-0.076704614,0.17042369,0.13544105,0.08992887,0.04146771,0.09985179,0.08090432,0.14008917,0.041833345,-0.042177945,-0.01813415,0.038955703,-0.014657415,-0.004651408,0.0036240688,-0.02506808,-0.07293042,-0.06614964,-0.05857582,0.061130363,-0.13113268,0.19467184,0.01725903,0.09476222,0.18886209,-0.0043909154,0.0327864,0.11930843,0.06952877,0.07194334,0.33854502,0.019387348,-0.041780934,0.18335396,-0.09001143,-0.28105652,-0.1712268,-0.1560985,-0.30606103,-0.015841149,-0.10957227,-0.38962987,-0.38863465,-0.41266128,0.14995965,0.15137783,0.12385262,-0.0137909185,0.15501526,-0.012353092,0.11264884,0.21524537,0.008259222,0.2398982,0.07228569,-0.06935864,-0.012497737,0.118560016,0.17660554,0.07145863,0.17415822,0.027343756,-0.067589365,0.15224324,0.12811299,-0.05479828,0.12526892,0.070003554,0.020355066,0.026226832,0.01589059,0.045481324,0.20009479,0.072999775,0.010696821,0.20092043,0.10630185,-0.012232279,0.09790712,0.11273921,0.058528714,0.2744274,0.14161327,0.57619345,0.4343604,0.80167174,0.29856426,0.20697592,0.47755736,-0.023382505,0.14371155,0.008365897,-0.07548632,-0.09364372,0.0041195913,0.0040811324,-0.10009158,0.06532582,-0.17298092,-0.14483543,-0.09127959,-0.2866244,0.064597726,0.11532601,-0.27482975,-0.40006396,-0.24952818,0.09057349,0.032856137,-0.38644204,-0.11250975,0.05059547,-0.14067447,-0.2091075,-0.03239442,-0.21205746,0.020171728,0.100819975,-0.052728936,0.07086438,0.051719964,-0.005507402,0.10940308,-0.11007465,0.010266115,-0.047644403,-0.2532963,-0.15157922,-0.04804968,-0.19680569,-0.06293534,-0.10762982,-0.11844787,0.023982469,0.10711954,0.13630168,0.03869535,0.16326514,0.18199481,0.10453031,0.2836623,0.22342883,-0.0003349624,0.038455464,0.17059657,0.044400927,-0.06012966,0.07596522,0.19425581,0.065835536,0.30277595,0.07640922,-0.027114306,0.14089997,0.09229551,-0.1419428,0.18901649,0.07784773,0.09056774,-0.02498374,-0.013728673,0.1994062,0.14207955,-0.10759068,-0.1436364,0.0770288,0.015745196,-0.1493813,0.052417595,-0.053325623,0.006634208,0.09569471,0.02760001,0.057951488,0.115357175,-0.033008195,0.19237013,-0.01921765,-0.19443424,-0.25217327,0.100189,0.116985194,-0.07862687,0.30652255,0.3769674,-0.00046604985,0.38772318,0.39080012,0.016055344,0.053588215,0.3321944,0.098536074,0.22826548,0.22043364,0.18798687,0.05161876,-0.12466043,0.13032943,0.085349336,0.051594652,0.03075877,0.06404926,-0.111081764,-0.003217467,0.07159438,-0.044485934,0.07001341,-0.036347188,-0.0070916195,-0.1069257,-0.098107114,-0.035805196,-0.12638521,-0.12643512,0.0093614375,0.022947358,-0.11992441,-0.08123404,0.0127724465,0.006710343,0.011623485,-0.016184477,-0.061935987,-0.024182897,0.013451216,0.032821864,0.06676051,-0.100346945,0.00602282,-0.00949792,-0.074731156,0.020249866,0.034167793,-0.02538594,0.03297347,0.05887424,0.055069324,-0.07935027,0.12307412,-0.04387986,-0.03503759,0.089045994,0.13207437,0.045712,-0.026117437,0.068168536,-0.034523174,0.001684992,0.11223269,0.00052130304,-0.033917986,-0.007892379,-0.03915979,-0.18256478,-0.052578133,-0.067102,-0.13087149,-0.038710974,-0.12723206,-0.13497308,-0.035808876,0.06186971,0.035511266,-0.022923306,0.06379862,-0.003492841,0.058837138,0.09798944,-0.019059798,0.014252289,-0.04265745,-0.047462225,0.008722316,-0.048006173,-0.045226816,0.040950496,0.04616246,-0.07825364,-0.02085924,0.05623196,0.17544216,-0.07672595,0.06558929,0.08933565,0.109560415,0.07186731,-0.024301631,0.08498765,0.029033553,-0.054179497,0.03347511,0.05837666,-0.05892463,0.11095621,0.12741464,-0.017271763,0.047920864,0.05026232,0.05280463,0.02255477,-0.020107156,-0.029910775,-0.014943027,0.052924618,-0.04262065,0.02645253,0.038472928,0.047171295,0.09144634,0.21135761,0.16576946,0.017501371,0.22860628,0.2743012,-0.008560844,0.020373415,0.07321659,0.01654786,0.110173486,0.20816787,-0.043985587,0.1334443,0.18452233,0.07181752,0.13493459,-0.12812997,-0.006044777,0.027174458,-0.19008486,0.05987838,0.08067507,-0.14227763,-0.111860454,-0.07265645,0.09838899,-0.004682254,-0.12714642,0.03477054,-0.027799236,-0.16786616,-0.035108663,0.028527262,-0.03909212,0.04830475,0.00945888,-0.103077285,-0.0665597,-0.16758111,-0.18037246,-0.09219734,0.02197331,-0.015312961,-0.023630511,-0.06298059,-0.09979807,-0.1542454,0.0149203455,-0.061034624,-0.025289934,0.018316748,-0.14327422,-0.01048567,-0.08497176,-0.11628943,-0.0069805784,0.055378083,-0.032435916,0.056459907,-0.092223324,0.0015219139,-0.089292414,-0.08719514,-0.054352418,-0.010463491,-0.07273774,0.015171306,0.038857765,0.035222065,-0.09917904,-0.01704794,-0.052500013,-0.150866,-0.06714017,0.010220986,-0.20376593,-0.08276684,-0.018762503,-0.05383548,-0.08646308,0.115663946,0.10930902,0.011428362,0.21989435,0.23944493,0.058563817,-0.06254686,-0.039947487,0.06224603,-0.012513007,0.08049289,0.15048605,-0.035039566,0.03651489,0.006759399,0.023890687,-0.07339163,-0.12634546,-0.06000356,0.04704784,0.0010253589,-0.083033755,0.054128487,0.06908023,0.13498722,0.04941629,0.032412756,0.07117689,-0.043149196,0.04921428,0.05730011,-0.061813343,-0.014961629,-0.038993653,0.025960632,0.17347829,-0.025831638,0.086343184,0.18767402,0.08558845,0.12963226,0.1935969,-0.0617984,-0.062044077,0.034220915,-0.10206457,-0.05045203,0.051387798,-0.053688504,0.023387311,-0.049558856,0.004291465,-0.13917713,-0.23329797,0.00094294443,-0.05481801,-0.10790654,-0.13186507,-0.10211744,-0.07069873,-0.0130061945,0.036686294,0.06332328,0.21057516,0.10522692,-0.063311756,0.18695801,0.08885531,-0.086569004,-0.12824805,-0.122097544,0.031730156,-0.11450583,-0.16879277,0.06010974,-0.1452313,-0.0424803,0.13049552,0.10050051,0.0128170075,0.15641318,0.028071634,-0.15513243,0.009158456,-0.0014711713,-0.2094277,-0.10424415,0.14874725,-0.0044509596,0.028250225,-0.07570582,-0.021660859,0.05823548,-0.14502846,-0.07016712,0.13222596,0.1403252,-0.022695566,0.08048854,-0.08992017,0.011905907,0.11505614,-0.013364744,0.011728458,0.06109994,-0.054902904,-0.09142287,-0.22063668,-0.27895966,-0.17483546,-0.21762623,-0.04103443,-0.030892234,-0.06077843,0.10133738,-0.06461702,-0.06382038,0.09975721,0.044393454,-0.015428872,-0.057779554,0.03801622,0.09651914,-0.042007167,0.058680676,-0.024079027,0.0043343604,-0.007371206,0.018799352,0.011604196,-0.123892434,-0.1508556,0.02346216,0.09082547,0.16061895,0.1105378,-0.031858265,-0.037356876,0.03072958,-0.025899036,-0.053360898,-0.2252209,-0.17062181,-0.17269969,-0.08598357,-0.06682465,-0.08998779,0.010720151,-0.09414352,0.011991588,-0.0014155066,0.15334463,0.044613685,-0.0163717,0.009805444,0.044728357,-0.045931533,0.0002685966,-0.018420992,-0.033483688,0.027204795,-0.043740634,-0.04133042,0.118915685,-0.004842574,-0.07794441,-0.019800745,0.12778282,-0.19867285,-0.15278073,0.15737912,0.018507514,-0.068648614,-0.0048994776,-0.11714233,-0.08657069,-0.047313996,-0.11604378,-0.098930724,-0.058440086,-0.10784872,0.014037511,-0.16919565,-0.0920275,0.022747487,-0.28440523,0.14722939,0.10871133,-0.0013830168,0.106467016,0.13042244,0.11334334,-0.010893331,-0.0028403453,-0.006871264,0.16344371,0.17911237,0.13542813,0.2480311,0.10952918,0.19880684,0.09839948,0.07666352,0.13358082,0.14645588,-0.0037050445,-0.08010687,-0.004915919,0.098830044,-0.07933644,0.08984153,0.102618575,-0.18258429,-0.035013966,-0.009190178,0.1741618,-0.026965264,0.047629446,0.15952893,-0.15059589,-0.086207606,0.07752971,-0.122226395,-0.12974991,-0.034335103,-0.1809309,-0.19396089,-0.22457798,-0.067446806,-0.124760196,-0.15945442,0.01699934,0.037229106,0.08417738,0.13954124,0.115294755,0.087341286,0.047288094,-0.008356078,0.063915074,-0.026695693,-0.027280217,-0.15116264,0.085544646,0.0058674114,-0.33439812,-0.09979863,-0.056223143,-0.17697869,0.041271083,0.01090289,0.14342734,-0.046871606,-0.11233224,-0.062250815,0.00174105,-0.09639486,-0.14645973,0.041401554,-0.079702996,0.054422997,0.046551634,-0.20291659,0.06816562,-0.11910255,-0.22272266,0.018426038,-0.12917669,-0.01517946,0.12931187,-0.26963484,-0.14201313,0.03248193,-0.16401368,0.05805049,0.0659772,-0.12286587,0.009130833,-0.06139721,-0.072913416,-0.16479532,-0.03610465,-0.047363162,-0.09058951,-0.07504516,0.045077227,0.15117432,0.18223733,0.07845816,0.15474217,0.18409641,0.016423821,-0.09291424,-0.07553968,-0.1271749,0.10610743,0.05479671,0.03914837,0.46639392,0.47155422,0.037540305,0.34890774,0.18404046,0.007884504,0.14787105,0.2676149,0.07153184,0.14243501,0.121265374,0.07054396,0.20877351,0.07760712,0.1975122,0.17625396,0.030220458,0.106204994,0.06208907,0.09354066,0.08153535,0.0073550576,0.057165034,-0.0084272865,-0.026495282,0.09673554,0.006272814,-0.05005081,0.13809176,-0.13966012,-0.17233154,-0.04961034,0.034621943,0.06281236,0.13938105,0.045802474,0.103888854,0.06375517,-0.07345438,-0.025977533,-0.23368376,-0.007777023,-0.044789128,0.021285921,-0.036594078,0.058741357,0.03621953,-0.07863698,0.010656031,0.1061492,0.08242433,-0.09448152,-0.027583497,0.100375004,-0.21973327,-0.249539,0.03681897,-0.15249074,-0.1239736,0.07774901,0.005126004,-0.09762049,0.18313548,0.05204852,-0.17434241,-0.00072269776,0.043592244,-0.10107438,-0.098451324,-0.21211477,-0.12740591,-0.22087598,-0.25082716,0.16623138,0.011528176,0.0043240557,0.2587034,-0.09321725,-0.05154674,0.122304425,0.021344379,-0.0038144859,0.051404495,-0.01658019,0.07483214,0.042850576,0.0530398,0.015323229,-0.09053453,-0.06865836,-0.14660661,-0.09394101,-0.14075123,-0.10334467,-0.071846984,-0.008729163,0.008349007,-0.038682044,-0.05324377,-0.09151991,-0.07276794,-0.0780312,-0.0099115735,-0.038911592,-0.08110134,-0.034699656,-0.019348884,0.021963116,0.012179488,0.019683797,0.08159428,0.037814874,-0.061734658,-0.026230527,-0.11052705,-0.19043094,-0.03677809,-0.10995923,-0.19751284,-0.06724731,-0.13290353,-0.16940922,-0.13695431,-0.027161859,0.050530884,-0.06325512,-0.10215256,0.08893278,-0.048616618,-0.09217571,-0.12452625,0.01528565,0.001846582,-0.09853473,0.024203984,-0.07406278,-0.06421086,-0.0466152,-0.14213541,-0.095321886,0.0023075726,-0.04494364,-0.026364528,0.003985351,0.021144582,-0.02182892,0.0152063705,0.11901833,0.08628034,0.027069602,-0.0763212,-0.05303023,0.029950362,-0.0542698,-0.099347286,-0.030909376,-0.09193253,-0.11833233,-0.001268148,0.014691161,0.1525314,0.038211685,0.06161204,0.07626984,0.106147215,0.08951158,0.10398849,-0.036662374,-0.11132436,-0.039626367,-0.10315169,-0.1384266,-0.1723664,-0.05831895,-0.08850942,-0.123089805,0.06261433,-0.00139093,-0.05481946,0.0545183,0.0050428766,-0.090232044,-0.07876218,-0.102787316,-0.081795804,-0.0021761067,-0.032941196,-0.015153001,-0.018579582,-0.081519715,-0.06919472,-0.05009308,0.0333834,0.06782927,-0.09269767,-0.07468066,0.054668397,-0.07681315,-0.07261353,-0.0092517575,-0.018471899,-0.027294818,0.07007625,0.10688087,-0.05307794,0.007885723,0.06725349,-0.023525441,-0.028786575,0.0853927,-0.03617534,-0.061968923,-0.10719525,-0.008862352,-0.042261593,-0.110235125,-0.017454209,-0.018529462,-0.03737177,0.05629381,-0.015254191,-0.09528203,-0.09959751,-0.0870993,-0.07881633,-0.097746596,0.0014096965,0.031911038,0.0077853072,0.024115326,0.03200181,-0.01322573,-0.14754218,-0.009509422,-0.046881057,-0.02242858,-0.10278432,-0.058985073,-0.075758375,-0.02987563,-0.012019111,-0.02107878,-0.07633524,-0.08841382,-0.06934966,0.016614802,-0.016251253,-0.018950015,-0.0426358,-0.089715846,-0.080554426,0.06461948,-0.06195333,-0.025004162,0.13709013,-0.038536884,0.03450375,-0.04069246,-0.013628215,-0.03731033,-0.023084182,-0.0140999295,-0.046999786,-0.09067652,-0.083702646,-0.023177627,-0.15527666,-0.13962859,-0.030033497,-0.09929611,-0.17024188,-0.078354016,-0.010273266,-0.113710836,-0.038164943,-0.07888297,-0.00013607649,0.0063989456,-0.011276861,-0.020663865,0.018400876,-0.08833254,-0.007589545,0.040536746,-0.0123107685,-0.0013976339,0.061298117,0.009111893,-0.032431457,-0.06370095,0.10356132,0.061982054,0.06885265,-0.033744458,-0.005124926,-0.04423772,-0.06825858,-0.0032271708,-0.04083709,-0.12221865,-0.12757345,-0.0029965555,-0.002090118,0.08201103,0.07319789,0.017504063,0.05995155,0.110948175,0.03925633,0.100909434,0.13968144,-0.08326082,-0.10379728,-0.05901807,-0.023579784,-0.053638443,0.015604022,-0.027243631,-0.04566886,0.0141276475,0.016029418,-0.1130589,-0.06436129,0.046261486,-0.15476963,-0.010859418,0.045163248,-0.13301003,-0.13419735,0.011051038,0.018624432,0.06529166,0.02370067,-0.056296136,-0.0065440657,-0.024656238,-0.037782583,-0.06846597,0.0052008866,-0.08509772,-0.116380684,-0.0040904125,-0.028636225,-0.13115968,-0.036997057,-0.02555452,-0.11262297,0.05586578,0.020580817,0.07364356,0.05220381,0.025801538,0.046895433,0.08491191,0.10133905,-0.0057537896,-0.03850506,0.06841685,-0.1145324,-0.017197015,0.091625296,-0.07689342,-0.011974597,0.08060365,-0.08309506,0.07370499,0.07292961,0.095731385,0.11271469,0.10145851,0.09849427,0.083618194,0.09280955,0.12611121,0.051641174,0.07950312,0.11692417,0.17490701,0.09800473,0.13460399,-0.033848047,-0.018459002,0.065892234,0.10704524,0.0067812265,-0.035039466,0.039812002,-0.089069955,-0.071633965,0.03311832,0.00065302424,0.014642247,0.018018398,-0.0064374777,0.013036647,0.12550081,-0.043552335,-0.059823193,0.06421783,-0.124973916,-0.12123048,0.058515113,0.004323421,-0.0561292,0.1531373,0.15755768,0.07873139,0.122739725,0.065981396,0.086858414,0.1260648,0.021880282,0.11787594,0.02173939,-0.058061045,0.1230444,0.105405785,0.07995019,0.07366592,0.034992103,0.012698159,0.019566383,0.04206367,-0.024204774,0.0298242,0.069089495,0.22263002,0.124856494,-0.037234902,-0.31471008,-0.14580014,0.07580456,-0.17703669,-0.07185694,0.057628606,-0.08039819,-0.013271743,-0.16741416,-0.045743134,-0.00030918143,-0.08114678,-0.13275996,-0.023148425,-0.061482683,-0.08469867,0.013973975,0.054669816,-0.03251473,-0.04707467,0.0063933725,-0.012738392,-0.07144583,0.003976012,-0.023364581,-0.09220431,0.068917066,-0.004261384,0.15958701,0.02123059,-0.06606897,0.036919717,0.0623943,0.0736577,0.104918115,-0.083124384,0.012326335,0.19681223,0.014681348,-0.059822984,0.06653789,-0.09107236,-0.07720508,0.12335384,0.039582938,0.074067034,0.06345855,0.06395606,0.043474283,0.06669145,-0.008799505,-0.044796646,-0.050668802,-0.013981415,0.027153656,0.107883304,0.03508289,-0.0013267597,0.04210219,0.013444573,-0.05285897,-0.103379406,-0.007905184,-0.12651587,0.008123182,-0.006266168,-0.105903536,0.12224714,-0.044985224,-0.017518645,0.20819013,0.05825639,0.043679554,0.09200489,-0.075483225,-0.0390098,-0.022053817,-0.020885088,-0.026802262,-0.020508198,0.07479698,-0.028749961,0.03790247,0.0642072,-0.02409362,0.04932654,0.04260059,-0.008505356,-0.0537197,-0.066215515,0.08451117,0.012437722,0.0036692892,0.005784609,0.026306225,0.08796316,-0.03084198,-0.05551564,-0.025928507,-0.047362976,-0.008277146,-0.05840376,-0.07964043,-0.04312512,-0.104167365,-0.09770723,-0.090589896,0.054345068,-0.042845458,0.074368335,0.08089882,0.042338785,0.11882331,0.037514128,0.023256652,0.013497917,-0.022678003,-0.13112982,-0.073888235,-0.15848193,-0.27995664,-0.18183199,-0.08018703,-0.09105228,-0.04898968,-0.037167512,0.039017566,0.051848046,-0.0965904,-0.046542794,0.0042272876,-0.025012081,-0.08678931,-0.013394019,0.03876186,0.12513417,0.092901185,-0.006510143,0.06446343,0.05998938,0.08595255,0.052709874,0.033553842,-0.12482837,-0.065981306,-0.08056635,0.05509887,-0.0018372061,0.021745088,0.028645491,-0.017846502,0.09150037,0.032932784,-0.009121195,0.0068583176,0.008733892,0.06719687,0.06711315,-0.043563336,0.025685621,-0.08896779,-0.048197243,0.012706886,-0.062132925,-0.08988585,-0.052608095,-0.11241426,-0.09753788,-0.14252114,-0.1265872,0.025292339,-0.08104112,-0.020311324,0.091208026,0.09292148,0.08219254,0.099706344,0.13230148,0.026776535,0.07244822,0.091911264,0.016631484,0.08086617,-0.03066863,-0.06910604,0.008488318,-0.0775377,-0.075579405,0.12570286,0.082670525,0.012991509,0.10689052,0.056979634,0.0026425244,0.07391384,0.023376903,-0.027952325,-2.0307129e-05,-0.06665909,0.0033332778,-0.045708243,-0.10701188,-0.011606528,-0.022236234,0.01909656,-0.01642975,-0.052311167,-0.165108,-0.14431217,-0.014637173,-0.13812193,-0.07514235,-0.04849299,0.0306416,0.09807472,0.11262416,-0.10449452,0.021006264,0.0071416274,-0.22101265,-0.05867772,-0.014526008,-0.23738591,-0.08912521,0.12844133,0.050704148,0.08423294,-0.004991721,0.105569676,0.06515262,-0.017555745,0.12766138,0.017290324,0.05836856,0.04381133,0.0018096316,0.0025350484,0.031760544,-0.023924103,-0.049250614,-0.041642223,-0.025129847,-0.011905215,-0.09752475,-0.079280816,0.025535552,-0.05956405,0.020764694,0.1477434,0.104518734,0.14010893,-0.01255011,0.021830717,0.15225962,0.009539581,-0.0061971806,0.070501216,-0.028500788,-0.086610265,-0.011610619,0.022098307,-0.039614987,0.07601661,-0.0069858893,0.031170798,0.071103156,0.0032841093,0.013672981,0.06795266,-0.0054583107,0.029228402,0.01104295,0.076253496,-0.111980475,0.055486348,0.2218597,0.04927541,0.023454342,-0.017022071,-0.04899547,0.020430533,-0.038486592,-0.045575432,0.00647813,0.06175514,0.001677869,0.025675401,-0.11139272,-0.118948676,-0.06004072,-0.11957085,-0.10404017,-0.08461733,-0.14471178,-0.13977903,-0.11655164,-0.091440134,0.007161476,0.118824266,0.012695071,0.17164172,0.12730142,0.032822985,0.028575124,0.17056146,0.007941196,0.04981865,0.024100231,-0.05312868,-0.035568807,-0.08716261,0.0053091776,0.03376069,-0.040296674,-0.055277884,0.05269122,0.11927504,0.10779548,0.10020353,0.07654545,0.075897135,0.027170312,0.0270497,-0.019975286,-0.016929198,-0.049823113,-0.048268326,0.059145655,-0.053687226,0.05741193,0.06609784,-0.02937172,0.007868244,0.057489786,0.090338774,0.041112088,0.078157105,0.16419758,0.009838815,-0.0069552995,0.0572738,0.04497145,0.02887949,-0.043091927,-0.026113786,-0.0010753756,0.018204246,0.029481433,-0.047109682,0.018819276,0.03505503,-0.032679938,-0.035851445,-0.022612983,-0.14790209,-0.08903418,-0.08573322,-0.10457279,0.04228731,-0.062261786,0.058057714,0.021437427,-0.11097747,-0.00873779,-0.035309684,-0.035194702,-0.046030343,-0.061505657,0.08804123,0.1558741,0.10172618,0.13809372,0.21343213,0.10713176,0.28691044,0.36874664,0.25481775,0.06823534,0.019157136,-0.08285044,-0.06336014,-0.115538515,-0.030357303,-0.027151158,-0.09781257,-0.03437304,0.03143811,0.09439656,0.11204884,0.05700115,0.06430275,0.1324499,-0.08354395,-0.08174147,-0.037376713,-0.10127534,-0.086657204,-0.06564972,-0.12591025,-0.048338655,-0.015304935,-0.008060395,0.049620945,0.0038819578,0.00021711698,-0.06119077,-0.02384726,-0.0249046,-0.10066828,-0.020312317,-0.058259815,-0.09915109,-0.07817866,-0.010382949,0.10853538,0.081821226,-0.07665332,0.024461456,0.07448943,-0.0012536419,-0.0639287,0.11995572,0.11460705,0.05161013,-0.00353729,0.015095558,-0.012764615,-0.0347593,0.01705365,-0.019171609,-0.03764553,-0.0010901787,0.06876569,0.06931813,0.001799747,0.08991466,0.0026762069,0.022361258,0.013163242,-0.02098967,0.0061978344,-0.07821343,-0.121161625,-0.05901717,-0.15154514,-0.09219314,-0.072342485,-0.089312196,0.02739095,-0.061357904,0.046069644,-0.025059704,-0.053109355,0.06067343,-0.03560444,-0.029641211,0.010063559,-0.07075833,-0.036497913,-0.015599186,-0.117063716,-0.0010591479,0.1027364,-0.06773974,-0.030624574,0.06589832,-0.056500394,-0.027477948,0.12813677,-0.0058194003,-0.16069978,-0.057166,0.026526244,-0.03886671,-0.013517613,0.09812675,0.032678448,-0.07756493,-0.07320723,0.038273275,-0.081489354,-0.09543093,0.082048625,-0.060127877,-0.0396273,0.097733006,0.033034947,0.07426206,0.12098045,-0.0055496125,-0.00645185,0.15337971,-0.03342404,-0.07728568,-0.12549381,-0.111706674,0.107573986,-0.04552167,-0.10303336,-0.01709047,0.06271793,-0.015384494,-0.1074975,-0.085467584,-0.10490224,-0.059734847,-0.020833222,-0.034322556,-0.016479963,0.10957768,0.13221708,0.0659085,0.06582132,0.052141383,0.11213355,0.06951546,0.09265096,0.13483486,-0.07807672,-0.028460683,0.11798033,0.02243535,0.122188725,0.05485091,-0.08251759,-0.04229819,0.039549388,-0.07294392,-0.00082781963,-0.021888772,-0.0040486045,0.11644778,0.010673757,0.059027113,-0.0512505,-0.08423759,0.0074660536,0.068121515,-0.012633972,0.060242582,-0.057824925,0.00048109505,0.033594612,-0.04766378,-0.031325944,-0.04058665,-0.073189914,-0.05054493,-0.003983068,0.013099021,-0.08727343,0.028497543,-0.09726076,-0.07159332,0.040512137,-0.13567135,0.15721577,0.020063112,0.10309265,0.14829922,-0.010944628,0.29503462,0.36744714,0.22200774,0.15599398,0.13306904,-0.1098559,0.0113649685,-0.10498659,-0.0440035,-0.088295095,-0.11205648,-0.083673656,-0.020222623,-0.07393409,0.0042394204,0.050021213,0.12549384,-0.06435511,0.080855235,0.057619516,-0.12330642,0.0010584928,-0.03903612,0.014152118,-0.055146098,0.007954894,0.0066542095,-0.14474924,0.105708644,-0.033248547,0.1415685,0.06321799,0.11972367,-0.008068804,-0.0790974,0.036876734,0.036527056,0.022680137,-0.028355507,-0.06306061,-0.0512378,0.013341508,-0.04965745,-0.007475258,-0.047978457,-0.039378308,0.096095696,-0.15408355,0.02808774,0.010172797,0.004117841,0.07719694,0.08119532,0.11037306,0.0318434,-0.11236462,0.07528454,-0.03929765,-0.11865568,-0.08963361,0.022677092,0.03094778,0.014698402,0.06395522,0.081970654,-0.107115634,-0.20446299,-0.09076763,-0.076771565,-0.13266376,-0.15435132,-0.10888434,-0.2051524,-0.045132406,-0.1456886,-0.026542237,-0.10578147,0.050574165,0.049163774,0.14646809,0.05546388,0.120658085,-0.062447514,0.017946528,0.06567205,0.054584593,-0.036409643,0.008472794,-0.015490017,-0.0007070645,0.051836234,-0.103566505,0.09267796,0.070514,-0.09188232,0.08469407,0.044492066,-0.044303782,0.109514065,0.05502404,-0.039275866,-0.047470737,-0.06830039,0.030603915,0.10396246,0.1510693,0.09806575,-0.090180926,0.108080424,-0.09446387,-0.113573894,0.07854116,-0.1316296,0.04499854,0.099518016,0.08537541,-0.048583668,-0.018824982,-0.08545434,-0.052239437,-0.12580067,-0.24711737,-0.04414079,-0.03329894,-0.08329256,0.029145304,-0.14390053,-0.06946913,0.11661187,-0.14726193,0.07004925,-0.028125172,0.0072521977,-0.06251198,0.06003811,-0.036661595,-0.086232275,0.09996415,0.046248514,-0.0022704434,0.06982668,0.029295817,0.021887952,0.18302917,0.13049032,0.11972536,0.23871046,0.23689173,0.21025765,0.10567855,-0.072440036,-0.060701206,0.0061974176,-0.1138871,-0.1476688,0.030869951,0.025680192,0.018387623,-0.12717935,-0.10305683,-0.02066566,-0.07371531,-0.012655225,0.038434155,-0.12880497,-0.030574396,-0.031229913,-0.01735166,0.08960369,-0.07680515,0.033303067,0.0587151,-0.020207947,-0.022055088,-0.09128906,0.015245076,0.02735208,-0.05243558,0.09018613,-0.035505053,0.04586308,0.021964194,-0.07331344,0.098524235,-0.012826395,-0.09350562,-0.09799819,-0.04936541,-0.15235843,-0.1562834,-0.12976703,0.0008062214,-0.031171469,-0.08616769,-0.022073183,-0.023515133,-0.07730032,0.012612623,-0.04952752,-0.013648479,0.050457697,0.022135345,-0.025989395,-0.048937477,0.09230234,0.10250285,-0.071222536,0.060713425,0.049920306,-0.08849233,0.010314685,-0.09493836,-0.022912376,-0.09390699,-0.13577978,0.046374157,-0.079303585,-0.12396304,-0.08324134,-0.060979277,0.04766041,-0.04865813,-0.1600306,-0.2620539,-0.09408611,-0.09623365,-0.10933212,-0.09341339,-0.044769768,-0.043636438,0.08821333,0.050561793,0.18709382,0.107101835,0.06977554,0.13996291,0.011778648,-0.046586357,-0.008832559,-0.15026069,-0.01868342,0.16865161,-0.04784615,-0.056994732,0.04239015,0.0046638316,-0.17815053,-0.16256915,-0.057256766,-0.009292742,-0.013174191,0.008801294,-0.030689256,-0.053841088,-0.098184906,-0.055819698,-0.15613265,0.0111049125,-0.0338338,-0.0006671978,-0.09740368,0.0053004012,-0.07137304,-0.06657211,-0.006436089,-0.118745975,0.07825657,-0.063119054,0.16825062,0.17196254,0.026401574,0.11625043,0.11273158,-0.0753859,0.044795718,-0.038094636,0.112016745,0.07792175,-0.1629057,0.21798311,-0.10057965,-0.08722867,0.1926775,-0.04481234,0.026832016,0.026585918,0.23924625,-0.025101475,0.08806396,0.14695644,0.13206656,0.06585855,0.11906487,0.025716528,0.106938675,0.0008472147,-0.061813574,-0.050926257,-0.09585453,-0.058141164,-0.08467305,-0.14484344,0.0028248748,-0.031153316,-0.06380463,-0.11483049,-0.18950333,-0.08046119,-0.027092377,-0.2553765,-0.12785059,-0.1069464,-0.16764715,0.21853483,-0.03954835,-0.18348944,0.18495561,0.056253627,-0.10356669,-0.04075226,-0.124809906,-0.030902788,0.2750999,-0.064903244,-0.19498718,-0.10177184,-0.18153134,-0.2629485,-0.24403594,-0.04544768,-0.1760733,-0.09790615,0.11064635,-0.04478592,-0.04698211,0.1535644,0.07670371,-0.02105983,-0.027622633,0.1262807,-0.096577704,0.07086693,0.0027204806,-0.033787172,0.03437648,0.036871117,-0.109430246,0.10365826,0.10869768,-0.00023368436,0.14124233,0.062426157,0.0053695384,0.18333931,0.10481646,0.0038266012,-0.052213814,-0.18810502,-0.012979362,-0.10408461,-0.13442959,0.30087143,-0.10057334,0.03966121,0.078479014,0.09721843,0.044730045,0.15959924,0.01631585,-0.030976363,0.21862833,-0.23005345,-0.15301408,-0.03461769,-0.08532844,-0.003861352,0.114187665,-0.21094537,-0.19925441,-0.059539083,-0.08025101,0.036150932,0.038517702,0.14297952,0.015317433,0.05533371,-0.04409912,-0.11412549,-0.040977586,-0.049886636,-0.111015275,0.020241898,0.017560571,-0.018019112,-0.087432,0.12309193,-0.13653916,-0.25680047,0.13767791,-0.023885425,-0.123510525,-0.0031859041,0.06444685,-8.500808e-05,0.037977263,0.014911758,-0.014726648,0.13793696,0.07029755,-0.11723283,0.036311626,-0.0006363094,0.08291338,0.0034100707,0.027377192,0.13929604,0.042827,0.022448497,0.022703001,-0.09050266,-0.06933135,-0.02488291,0.0051141037,-0.056552418,-0.07532124,0.018429212,0.052581917,-0.1198294,-0.09561955,0.008713937,-0.06779743,-0.1835083,0.087124266,0.074223466,-0.16989519,0.02113545,-0.024997812,-0.069739304,0.03373362,-0.04567416,-0.043039944,-0.0061736195,0.0014961151,0.1594473,0.07787378,0.10829188,0.13383366,0.048492882,0.087471694,0.0621638,0.0051060203,0.07585674,0.12518916,-0.09687977,0.12649971,0.052661516,-0.107797414,-0.069272816,0.13775556,-0.052672483,-0.07835431,0.19805172,-0.014720833,-0.15025792,-0.02503218,-0.039562006,0.06683855,-0.16152625,-0.12931062,-0.0051816436,0.01989851,-0.051678725,0.007978353,0.19222179,-0.048760034,0.055071026,0.17755711,-0.06113126,0.23031932,0.039137904,-0.048510686,0.28310984,-0.14588985,-0.022293052,-0.046391156,-0.1060143,-0.19547057,0.05258018,-0.05436338,-0.22822683,0.09368808,-0.057022683,-0.014851115,0.035250936,0.033114504,-0.13827047,-0.13637838,-0.089798845,0.06506715,-0.09891603,-0.008860882,0.0026273958,-0.05316619,0.032227043,-0.15822756,-0.20044014,0.005518127,-0.0026079013,-0.04420342,-0.11710813,-0.37952012,-0.2269032,0.058046475,-0.22420105,-0.26693466,0.08223746,-0.053944238,-0.17740153,0.04071016,-0.0913692,-0.121238515,-0.038845494,-0.24691592,-0.2610638,0.059717998,-0.12421424,-0.117852785,-0.16408029,0.13959515,0.066936605,-0.09237766,-0.13958474,0.05564777,-0.11242035,-0.11781275,-0.042143844,0.112112164,-0.19895282,0.11628191,-0.047733042,-0.12714797,0.090318605,-0.13671388,-0.09539231,0.118917346,0.07449272,0.034481455,-0.019517673,-0.0071488805,-0.055152986,-0.106534064,-0.15606295,-0.08760359,-0.06612595,-0.0593506,-0.029775217,-0.12940554,-0.041715108,-0.08176959,-0.07353711,0.092352346,-0.0936859,-0.04688763,-0.043195345,-0.031305563,-0.14042544,-0.06936586,-0.031108338,-0.12892509,-0.024098763,-0.015325875,-0.06266035,-0.14828621,0.06593033,0.071921855,-0.03546147,0.12810145,0.2126734,-0.03785748,0.11498657,0.18064506,-0.011342467,0.043737225,-0.050265826,-0.11428386,-0.044791713,-0.08394005,0.06179672,-0.027421547,-0.00963445,-0.042724818,0.02822166,0.03184725,-0.09996301,-0.037432536,-0.021474084,-0.0035092186,0.0151106175,-0.04072585,0.07051498,-0.068685256,-0.07873468,-0.13737826,-0.17723222,-0.017555846,-0.06036679,-0.012340376,0.00032252347,-0.041652143,-0.120759174,-0.056864616,0.042689547,-0.050845973,0.07499467,0.11462965,0.037772764,0.09038195,-0.121362686,0.01740187,0.15001844,-0.07144516,-0.05291004,0.07919237,-0.020328544,-0.0014358627,0.10605134,0.011954839,-0.06224125,-0.025853042,-0.02614289,-0.09458751,-0.012019735,0.052013844,0.11001811,0.050080717,-0.030222706,-0.010505014,-0.039883457,-0.005140571,-0.020894272,0.044905346,0.054900818,0.047921453,-0.010487661,0.046648655,-0.021230383,-0.024578352,-0.048083484,-0.07116747,-0.06155634,-0.04897028,-0.025765937,-0.019712847,0.091351405,0.018836923,-0.05703507,-0.092088796,-0.2136443,-0.072466746,-0.06883822,-0.09153508,-0.100255944,0.028414631,-0.038120594,0.07222087,0.1130319,0.0069981874,0.14869398,0.13817836,0.049699757,0.16656537,0.079745516,0.040284645,-0.03296995,0.09962019,0.05294079,0.049050972,0.04819332,-0.018379679,0.039597176,-0.018190699,-0.030188264,-0.027835794,-0.068518765,-0.059337776,0.005751427,0.10554855,0.03449378,0.045037977,0.04036587,0.020703346,0.03415412,0.056543674,-0.027554179,-0.051502526,0.13344397,0.04478004,-0.011135329,0.12067528,0.09294856,0.043036807,-0.031668086,0.08691904,0.07373472,0.08220575,0.07971029,0.06527892,0.0037109512,0.0027572385,0.025530409,0.007929102,-0.053341925,-0.042317614,0.024201188,-0.01186346,-0.034139622,-0.110747986,-0.010929768,0.121723674,-0.16081804,-0.15826513,0.04646052,-0.14300685,-0.09447386,0.0016453904,0.17650495,0.014184758,-0.02031442,0.09269164,-0.011293521,-0.08070311,-0.09258945,-0.14066453,-0.15365037,0.11004124,0.09906035,0.008135978,0.08905917,0.054022945,0.0026002398,-0.006808911,-0.0017313781,-0.13650234,-0.078663446,-0.04349811,-0.021665275,-0.07571867,-0.016868567,0.021192448,-0.12467672,-0.14154147,-0.026096277,0.0007945892,0.00090442033,-0.1113062,-0.029766636,0.010427781,-0.0455535,0.014726568,0.031929176,-0.044712435,-0.044263966,-0.12316869,-0.10270759,-0.06931356,-0.11477383,-0.075315334,0.047888156,-0.031516854,0.028702738,6.1538056e-05,-0.05248349,-0.17431363,0.072113894,0.025751898,-0.111799836,-0.08141986,-0.07208129,-0.036706086,0.045015346,0.06754034,0.10794394,0.04120209,0.1121844,0.19679065,0.0982673,0.14226128,0.19835691,-0.0021295887,-0.15450595,-0.11321614,0.022664214,-0.037238616,-0.051380504,-0.11216111,-0.014473889,-0.0479102,0.14902064,0.059182137,-0.14902547,0.022971056,-0.008437987,-0.1343892,-0.048753157,-0.017286288,-0.07947486,-0.039762713,0.07983333,-0.076268576,0.14228246,0.28675994,0.054545995,0.07997508,0.165803,-0.0013350372,-0.064722985,-0.035351083,0.099710114,-0.02627109,-0.007188338,0.15767837,0.031060701,-0.034532685,-0.014746241,0.008050035,-0.06236932,-0.035137244,-0.0064905337,-0.049448878,0.050886754,-0.032229792,-0.05934878,0.084569626,-0.07539597,-0.012855003,0.022602353,-0.061148968,0.055347156,0.12743148,0.016907535,0.034605924,0.041776553,-0.0060831015,0.013697883,0.0013435726,-0.0877849,-0.122043274,-0.024070397,0.043807376,-0.063399345,0.018757455,-0.028744537,0.044843037,-0.0011068874,-0.088157035,0.034539483,-0.057915784,-0.10651767,-0.122489035,-0.08216157,0.011227022,0.039660644,0.049218863,-0.018558048,-0.1408237,-0.05643682,-0.043943945,-0.18501519,-0.12961929,0.09594502,0.012482026,0.10111149,-0.018924922,-0.037457876,-0.021030797,-0.14092422,-0.0055793575,-0.060201477,0.04062261,-0.017105252,-0.040197972,-0.025409732,-0.124105476,-0.14477682,-0.0041965945,-0.064466886,-0.068220235,0.034926243,-0.009714873,-0.08170329,-0.12132779,-0.03472856,-0.09656074,-0.15299226,-0.13528936,-0.031010667,-0.18096219,-0.20282665,-0.15594085,0.09429505,0.12900968,0.06528234,0.09714015,0.11869183,0.059663985,0.058733206,0.052415516,0.05636577,-0.14296405,-0.015015061,0.078939855,0.045398254,0.074919984,0.1146139,-0.082670905,-0.05010935,0.031355076,-0.0341785,-0.036820214,-0.0016694381,-0.019968886,0.0639257,0.054535013,0.06535589,-0.011308222,-0.086114414,0.03664119,-0.01731281,-0.03452511,-0.00087796757,0.031906463,0.06335667,-0.07321344,-0.016625725,0.09421133,0.09151364,0.004695846,0.15830742,0.05474799,0.112282805,0.22330183,-0.04899027,-0.0113044875,-0.00503603,-0.05792852,-0.13228875,-0.040025435,-0.04967223,-0.14539018,0.051738072,-0.08884095,-0.07415859,-0.0397912,-0.07264443,-0.06459227,0.03920529,-0.044872675,-0.012890587,-0.014028584,-0.029485628,0.17138737,0.10227174,-0.03672962,0.09006754,0.17735742,-0.012852138,0.038329694,0.08614931,0.0009903099,-0.029243182,-0.050448436,-0.09456095,-0.23328441,-0.15061092,-0.21615453,-0.2744729,-0.07934389,0.0092083495,0.044984348,0.015313045,-0.0041282056,0.015664374,-0.05848721,-0.13457961,-0.14412092,-0.15286775,-0.070408866,-0.13274659,-0.11672588,-0.1053126,-0.15328887,-0.10030922,-0.15244827,-0.1672572,-0.18628365,-0.08571675,-0.040286943,-0.01932468,0.09373563,0.075634204,-0.012065156,-0.021573013,-0.029008225,-0.07646435,0.028875005,-0.013327368,-0.061218463,-0.074378505,-0.053173356,0.007656113,0.0238033,-0.10858754,-0.021830833,-0.13849513,-0.025596151,0.0007378577,-0.021774648,0.02099865,0.023618838,0.049695052,0.041730296,0.008309413,-0.011094532,0.0585269,-0.021160774,0.054372527,0.11927282,0.13413337,0.20329352,0.23560554,0.18562919,0.009424455,0.010923711,0.034230962,-0.09716013,-0.0792294,0.043763656,-0.009199258,-0.010196611,0.057442516,-0.12167511,-0.19914427,-0.1432299,-0.16322246,-0.16319922,-0.1746585,-0.17225605,-0.17704178,-0.17969388,0.10497107,0.008868968,-0.026319783,-0.006145935,-0.07569137,0.01998148,0.05276799,-0.055909198,-0.0071247397,0.16142687,0.08340791,-0.043086212,0.1537265,0.09681592,-0.052698374,-0.0145680085,-0.05237326,-0.13625306,0.04349134,-0.0060467147,0.0054868166,0.17810869,0.08259182,0.08764445,0.0964377,0.042930726,0.032283258,-0.04445616,0.059253503,0.13472536,-0.05359529,-0.15446253,0.016623054,0.07607279,-0.055455796,-0.024818748,-0.05583832,0.008094317,0.03746484,-0.02084528,-0.0806946,-0.07826751,-0.004194266,0.003186984,0.047965974,0.13049524,0.10808032,0.08063794,0.050195616,-0.01207418,-0.073168434,0.11664099,0.10228488,0.05058109,-0.020242443,-0.04311215,0.07489528,0.047413595,-0.13732487,-0.09726153,0.02813863,-0.07529723,-0.04615207,0.040895563,0.08683442,0.058407184,0.07414919,0.19518344,0.09835524,0.16856124,0.170841,0.10247194,-0.10054655,-0.060038354,-0.04211413,-0.075014055,-0.041731823,-0.048899826,-0.02831665,0.020723948,-0.029785993,0.056458153,0.010888794,-0.054493695,-0.006807326,-0.034837678,-0.035650626,0.008888357,-0.027236499,-0.0740855,0.008298713,0.008694068,-0.030113637,-0.0041045877,0.040854193,-0.033490404,0.03298692,0.06894946,0.03477724,-0.036599472,-0.065300874,0.042177174,-0.05093723,-0.055483144,-0.08052241,0.008109731,-0.0049991705,0.0523617,-0.04636418,-0.049793407,-0.043580074,-0.057015426,-0.05297112,-0.05467843,0.032952186,0.054259855,0.033455916,-0.12708928,-0.1009059,-0.08374731,-0.018098986,0.0204961,0.0061248485,0.021482373,0.02129799,0.017395329,0.0074451757,-0.09074601,-0.028658008,-0.057592813,-0.09481041,-0.0382792,-0.029401373,0.021264428,-0.048904277,-0.047795612,-0.0784914,-0.07107244,0.0679373,0.041554656,0.01662903,0.09257023,0.015361901,-0.010208762,0.0040739267,-0.046242315,-0.064244226,-0.042673368,-0.034304433,-0.08080611,-0.022513082,0.0037910081,-0.08645148,0.0068937475,-0.056457553,-0.0163585,-0.006774353,-0.04851925,-0.007287361,-0.0025261256,-0.06928305,-0.00578866,0.027660172,0.051197715,0.065301605,-0.013824339,0.015558171,0.06705462,-0.027574472,0.026522027,0.047420606,0.029689802,-0.08250345,-0.060446613,-0.010150849,-0.09448421,0.007919994,-0.061297867,0.0062893927,0.10807905,-0.04841423,-0.025485901,-0.07835171,-0.060528778,-0.0284381,-0.013985519,0.009600272,0.10575585,0.04086346,0.060972724,0.008666672,-0.04817808,0.13156156,0.039994445,-0.02267209,0.056916427,0.018244373,-0.064049855,0.062380973,0.035701636,0.012561022,0.113258764,0.11851953,0.056176763,0.09597827,0.064769186,-0.05234081,0.004098481,-0.029870776,-0.032293275,-0.0093593085,-0.035808194,-0.04173461,-0.041544557,-0.06598753,-0.122272216,0.054982815,0.05780924,0.08823461,0.023308652,0.02742846,0.014522497,-0.0035278148,-0.026065879,-0.0717647,-0.0058667148,-0.0039542285,-0.03278449,0.029313078,0.039990943,0.00947599,-0.027329544,-0.03937758,-0.053515818,-0.033143573,-0.028074088,-0.039452467,-0.017457824,0.0055960794,-0.046544943,-0.022488784,-0.013175052,-0.026865928,-0.031785272,-0.04196445,-0.0044582076,-0.029192867,-0.02446658,-0.021272948,0.061180275,0.060956914,0.029897781,-0.073349684,-0.040477715,-0.03330583,0.04627456,0.056023873,0.04114181,0.020110097,0.075880095,0.028602779,-0.0035505358,0.014005983,-0.016804906,0.033668026,-0.002869388,0.014783555,0.046912707,0.0019250514,-0.017622331,-0.0904519,-0.010837163,0.007725374,-0.07652266,0.037839703,0.059980568,-0.049891386,0.004764572,-0.020499647,-0.014971593,-0.030745061,-0.008526503,-0.027403487,-0.053999007,0.013014375,0.0037085942,-0.0033781668,0.01756335,-0.024549486,0.04202685,0.06733109,-0.013499977,0.00942302,0.048684403,0.033452813,0.0517854,0.06260089,-0.053226944,-0.087740935,-0.10847399,-0.05393402,-0.11728623,-0.1321903,-0.12467891,-0.13281742,-0.07297392,-0.068003766,-0.049914632,-0.05865235,-0.046966206,-0.052028075,-0.027392786,-0.012399667,-0.029074874,-0.073610365,-0.09487659,-0.049000565,0.10961539,-0.007962143,0.004446561,0.08284592,0.10835353,0.08926174,0.13880429,0.011810715,-0.0068198303,-0.057053532,0.013540283,-0.009918405,-0.052268535,-0.032413665,-0.08929095,-0.06654833,-0.03269088,0.01735007,0.05449537,-0.015328009,0.078507006,0.09258239,-0.01210589,0.07758065,0.079716966,0.05955481,0.0019953435,-0.06683668,0.097487725,0.083088845,0.031965446,0.08727445,0.10731894,0.082930736,-0.08052771,-0.14987765,-0.10839892,-0.05344578,-0.04337219,-0.06267808,0.009855688,0.0021495365,-0.05402277,-0.04669364,-0.101187915,0.030589636,-0.10137517,-0.16396956,-0.097404175,-0.004772169,-0.109747715,-0.0064853965,-0.00232075,0.07167672,0.057860702,-0.054862265,0.04664725,0.00206318,-0.1387738,-0.037949454,-0.030848125,0.05847486,0.044371866,0.043321878,0.04936857,0.0057071755,0.030860867,0.080627754,0.085750274,0.1494496,-0.03107175,-0.06936652,-0.09189837,0.11304075,0.028002782,-0.1337519,-0.04035401,0.018936453,-0.0069957417,0.033213682,0.05070411,0.057623707,-0.0738514,0.08410289,0.02700274,-0.012888689,0.05642774,0.029181851,-0.14361665,-0.020386476,-0.00658865,0.0078445785,0.05347223,0.05782694,0.06343522,0.09906317,0.111210145,0.15947458,-0.08125058,0.0038072888,0.012037583,-0.18164948,-0.06485087,-0.06487838,-0.1640942,-0.104119755,0.046564296,0.008047986,-0.005866241,0.01922484,-0.0030136849,-0.12675276,0.17897746,0.2872397,0.06978799,-0.046206553,-0.12568754,-0.00921859,-0.04980179,-0.059731383,0.03571765,0.015578265,-0.018593889,0.08966266,-0.024975102,0.036703844,-0.05126252,-0.007622526,0.108658195,-0.035018977,-0.05394042,-0.03654225,-0.09361647,0.09734876,0.07803053,0.0067600464,0.12886877,0.09406536,0.059097413,0.027358897,0.056561023,0.13284187,-0.06301336,-0.02930211,-0.094349355,-0.11404976,-0.07776669,0.0042567886,-0.13669537,-0.04245769,0.013562978,0.0147290025,0.048452355,0.0058275326,-0.029000605,-0.025941908,-0.047454823,0.0057913596,0.030502355,0.0118169645,0.07610282,0.1440688,-0.0062247147,-0.0774507,0.124777414,-0.2726643,-0.08768529,0.08931875,-0.27725226,-0.06768844,-0.16700186,-0.060928944,-0.0764329,-0.1342229,-0.09885234,-0.023449428,-0.016634742,-0.14243902,-0.018592201,-0.07294384,-0.055487167,-0.13014656,-0.2652806,-0.08324185,0.024617737,-0.1221243,0.0008368008,0.018226027,-0.03882262,-0.03337097,-0.06266809,-0.04684587,-0.019166367,-0.06493817,-0.006121933,0.007365389,-0.01060766,-0.002043,-0.07958864,-0.09536169,-0.022865267,-0.054380015,-0.10368051,0.0033213221,-0.031252198,-0.009582445,-0.035117727,-0.101330526,0.067144066,0.0030017516,0.0040758,-0.02028341,-0.010666479,-0.05327537,0.16827081,0.0395841,0.028662328,0.17887138,0.08718474,-0.020325618,0.11970672,0.16380799,0.0078046056,-0.18704812,0.047134984,-0.024676904,-0.06758868,0.1442467,0.13125159,-0.11163911,0.017572401,0.049527213,0.13964361,0.0647016,0.09109498,0.083081014,0.10053596,0.07024802,0.061523072,0.09203689,0.06173911,0.028826749,-0.017413089,-0.08137372,0.045480743,-0.043618783,-0.14189532,-0.01058752,-0.049810212,-0.040330645,0.015511939,-0.063768655,0.0063316333,0.028393893,-0.07285318,-0.05116224,0.07326759,0.15337537,0.022174308,0.15680234,0.20186126,0.0949925,0.13163431,0.13317974,0.037830893,0.10769464,0.03602163,0.024156319,0.0118567385,0.13219343,0.06889794,-0.08170592,-0.02401885,-0.02837375,-0.09515378,0.022130571,0.041105665,-0.059431925,-0.0562304,0.063363284,-0.027938187,-0.06689314,0.016052108,-0.11311294,-0.08424537,-0.081157446,0.21709017,-0.02801694,-0.050233662,0.2010015,-0.031145759,-0.01567416,0.09906022,0.03466975,-0.11256786,-0.020222608,0.090941034,0.05235407,-0.008672803,0.038638953,-0.02158691,-0.037238162,-0.06277658,-0.04360809,-0.16589749,-0.18533108,-0.16137333,-0.059880883,-0.10046952,-0.08386603,0.06597125,0.047041323,0.04994327,0.040221166,0.062224295,0.005156578,0.084695324,0.093045264,0.055369984,0.022574935,0.1432814,0.04880878,-0.16107559,0.039164636,0.19802919,0.011429516,0.167638,0.23221411,0.14339997,0.20224696,0.23158783,-0.20992303,0.05164623,0.07558384,-0.20587745,-0.023306632,0.19325718,-0.11404196,-0.051269367,0.20374128,-0.05702929,-0.16628022,-0.1972805,-0.002304632,-0.035197638,-0.21311869,0.030647274,-0.056733932,-0.13506435,-0.21104924,-0.07763859,-0.06408321,0.0416545,0.42659846,0.25650823,0.08390614,0.218656,-0.09125828,-0.14116985,-0.14223605,0.048646215,-0.1396314,-0.17860308,-0.1740638,0.007142364,0.052623533,-0.27665085,-0.124665074,0.082772784,0.036898423,0.16111727,0.033427324,0.1414815,0.32683057,0.088863656,0.09544269,0.029091442,-0.07180589,0.34087268,0.26403904,-0.04576244,0.03987683,0.32061216,0.12805022,-0.023921328,0.40593404,0.10073546,-0.08003065,0.14847046,-0.05381631,-0.005636515,-0.09716241,-0.036332693,-0.11300761,-0.11376338,-0.14905433,0.087751225,-0.06850191,0.05990589,0.14400059,-0.122679114,-0.06971207,-0.014089662,-0.2638586,0.048149098,0.14170969,-0.20412904,0.1542287,0.31094912,-0.117161,0.04341931,0.13619451,0.009743552,0.14434718,-0.0063068,0.3724697,0.4550979,0.24716763,0.01785955,0.2116718,0.10982254,-0.105171055,0.13062865,-0.08120717,-0.049406137,0.28633314,-0.0015962581,0.02836464,0.028247807,-0.05803149,-0.052919194,0.031739347,-0.08959302,0.05712461,-0.003148053,-0.062661834,-0.17281723,-0.08197385,-0.070653126,-0.100149296,-0.24359919,-0.11143221,0.15444623,-0.038939226,-0.018885847,-0.106467135,-0.21023296,-0.117734075,-0.068774104,-0.1701605,-0.16935931,-0.19674797,-0.27361065,-0.32556194,-0.016483674,0.042708524,-0.089232,-0.03658925,0.035296287,0.1138781,-0.06304021,-0.08312285,-0.1911296,0.07313619,0.07094388,-0.16201071,-0.02012739,0.37128264,0.11388969,-0.2166973,0.08252007,-0.07484617,-0.26518694,0.08425457,0.24716307,0.0036734547,-0.14648964,-0.1813045,0.030719016,-0.18852521,-0.22209586,-0.12430129,-0.113059975,-0.050315626,0.054760043,-0.1663915,0.22697817,0.23228143,-0.04331162,0.12006855,0.11296293,-0.1540882,-0.004790599,0.010588495,0.066526204,0.10771023,-0.20630296,-0.10431337,-0.01300409,-0.122387186,-0.13787356,-0.09460247,-0.13424297,-0.12872374,0.08253143,0.115351446,-0.115309395,0.02565212,0.32259536,-0.20385613,-0.09876196,-0.05994161,0.13536951,-0.072000995,-0.07746937,0.10965325,0.0142858345,0.050038468,0.20983535,0.24160233,0.09113682,-0.09387595,0.08946141,0.1969009,0.05082673,0.08728183,0.1820699,0.11763873,0.061654255,-0.27371645,-0.24263519,0.07166112,0.0011579029,-0.20703453,-0.119976096,-0.034605257,-0.3271303,-0.26455194,-0.22532497,-0.10879687,-0.04922522,-0.06577571,0.045472868,0.05392206,-0.18036613,0.058398705,0.18175617,0.0027372704,0.085447,0.060268465,0.16657224,0.13394913,-0.030221744,0.16349578,0.059906095,-0.007770304,0.54981846,0.11810429,-0.25838128,0.20647441,-0.31874746,-0.13370748,0.07617512,-0.1637482,-0.11742351,0.011759717,0.3167671,0.41263074,0.085114464,0.3118791,0.27422038,0.032608297,0.13022761,0.060853437,-0.041393097,-0.13365065,-0.14499567,0.13233674,-0.13908651,-0.125123,-0.15812077,-0.27300844,0.046118893,0.06922521,-0.049272176,-0.26589057,0.032079343,-0.05923153,-0.34470063,-0.11600613,0.11039436,-0.12506169,-0.21016096,-0.19142616,0.25439367,-0.2678545,-0.31075606,0.21329433,-0.12679546,-0.033287585,0.36872885,-0.11799681,-0.07395814,0.18939982,0.12173877,-0.07658212,-0.0067398977,0.2737517,0.030525146,-0.26156712,0.095781654,0.22415307,0.01189523,0.09320168,0.26596996,-0.10902717,-0.089580424,0.02265222,0.049548145,0.0026063828,-0.019271053,0.081753984,-0.075240105,-0.021475738,0.02538658,0.06366588,0.14323866,0.12472648,0.00924271,0.05833911,-0.031827815,0.028418325,0.04024675,-0.00029772997,0.011441782,-0.063917175,-0.07111663,-0.14678214,0.04100559,0.07758303,-0.07691449,-0.047042575,-0.056724533,-0.04972551,-0.093111776,-0.11344916,-0.055501435,-0.040120672,0.24809285,0.040085144,0.033695064,0.050185133,0.16564783,0.051266626,-0.051007237,0.040622428,0.09939554,0.097292624,-0.053616602,0.052745894,0.116425894,-0.016966773,0.10321694,0.16931464,-0.0051662987,-0.110469095,-0.013837858,-0.02292164,-0.14825909,-0.008621954,0.022663197,-0.095022224,-0.030400723,-0.04237492,-0.050515737,0.12187466,-0.04573534,-0.058385175,0.20567271,0.029573284,0.06118101,0.22534543,0.07655398,0.0996969,0.19229335,-0.11211415,-0.06950145,-0.0056926957,-0.28040037,-0.33083054,-0.30079812,-0.031869624,-0.10246487,0.028277649,-0.08551984,-0.03682187,0.015892703,-0.027601276,0.007990327,-0.042831723,0.013446868,-0.047686454,0.011414779,0.050003737,-0.06246163,-0.058130935,0.12735233,0.0008200116,-0.09797862,0.015929015,0.10320322,0.2370937,-0.046141155,0.106158994,0.18093792,0.035353612,0.015328393,0.08393439,0.11672208,-0.041586354,0.016778234,0.08941046,-0.04802103,-0.060149398,0.12077822,-0.024436342,-0.09682718,0.008474192,0.021920683,0.014511989,-0.017267501,0.011814553,0.052229814,0.008033109,-0.0532648,0.040765673,-0.023832161,0.024223829,-0.041881632,-0.056223687,0.090260684,-0.11909506,0.0023032082,0.15544924,-0.08045877,-0.055336803,0.0787068,0.019637266,-0.046656676,0.010790031,-0.08643059,-0.1112995,-0.16497204,-0.18626294,0.07450561,0.025973065,0.0108239,-0.0061427136,-0.015137435,-0.021921683,-0.021021128,0.13317868,-0.030428888,-0.05895442,-0.0819132,0.004533091,-0.041719723,0.004312106,0.016155407,-0.053295102,0.00091590045,-0.043791723,-0.10148931,-0.022521926,-0.029353725,0.026515521,0.072378114,0.04306408,0.011031513,0.0721875,0.007330969,-0.09193252,-0.08718559,-0.115051545,-0.10144521,-0.08840132,-0.10779523,-0.10638229,-0.06881251,-0.019916894,-0.027307032,0.05788893,0.041276604,0.13424993,-0.022505224,-0.0137272095,0.1443255,0.015320404,-0.044822644,-0.11692034,-0.029161753,-0.11711629,-0.026871905,0.23456155,0.1491758,0.010993339,0.08480366,0.05407241,-0.029659165,0.034140073,0.0037159557,0.13446477,0.14099461,0.14049627,0.03903614,0.084346935,0.04545947,-0.00085321226,-0.007530484,-0.037099693,-0.050458144,0.0031769963,0.03513654,-0.028417455,0.016250275,0.038119487,0.009430648,0.07353677,0.04218083,0.04538755,0.08327712,0.08005518,-0.027589975,0.11917799,0.012700432,-0.025708137,-0.045866523,0.08395336,0.079043016,-0.10638625,0.011023134,0.059866507,-0.1509037,-0.07244912,-0.019182991,0.00097037526,-0.12070953,0.10938852,-0.07770787,-0.17047477,-0.029300915,0.031512294,-0.0062950314,0.014928846,0.021846557,-0.029743692,0.06532901,0.10667802,0.11136345,-0.11550168,0.084424056,0.17928477,-0.1059825,-0.08428543,0.18119952,-0.03098205,-0.19867612,0.15260302,0.14537345,0.032882057,0.28483728,-0.022504166,-0.031002233,0.056322258,0.037607096,-0.07363391,0.015255392,-0.04241733,-0.077697076,0.008022972,0.064787924,-0.07670566,-0.018798377,0.054316167,-0.21977139,-0.076921165,0.15753724,-0.0953762,0.10630939,0.071832746,0.12513031,-0.1244654,0.25688064,0.11367115,0.004911931,0.35636955,0.20783955,-0.14597853,0.26686943,0.24529523,0.16587944,0.030985452,0.12824106,0.0022653,0.1565631,0.01872463,0.050473414,-0.06204782,-0.023219557,0.0945109,-0.0589405,0.023831846,0.08292815,-0.058612656,-0.04945345,0.07314296,-0.050227504,-0.15609385,-0.13478963,-0.11718718,-0.25063524,-0.18121287,0.04342861,-0.073198974,-0.06599497,0.084039,0.18759362,0.026825633,0.1937597,0.083778955,0.082155995,0.17098524,0.13998498,0.13622165,-0.14720881,0.0716684,0.19440055,-0.21603371,-0.27200222,0.22262207,0.050595462,-0.18343246,-0.10463902,-0.03562037,-0.17281789,-0.08658654,0.117003545,-0.14891718,-0.00043041,0.04835073,-0.1279797,0.03721216,-0.22034952,-0.28563875,-0.039781187,-0.2626138,-0.32248047,-0.036623824,-0.23934633,-0.23146163,-0.15180178,-0.0019001064,-0.12747991,-0.10674804,-0.26465067,-0.23193128,-0.21011697,-0.15948534,-0.22093193,-0.2048067,0.008552355,-0.017685797,0.07066653,0.20707428,0.20674819,0.16418064,0.18861656,0.0061156563,0.06086445,-0.34012783,-0.13016632,0.1475063,-0.158321,-0.23217173,-0.009828771,-0.06005883,-0.14268152,0.0015907366,-0.04148672,0.06778692,0.19629943,-0.12991759,-0.21834639,0.10049512,-0.067668885,-0.13166545,0.06367295,-0.0145447245,-0.14495099,-0.20270109,-0.09317825,-0.10164329,-0.08506151,0.08795894,-0.025050255,-0.034355305,-0.079185456,-0.052198023,0.07670765,-0.2190953,-0.13235287,-0.044725586,-0.14887768,-0.2052959,-0.04368321,0.039606474,-0.055002626,-0.0844732,-0.02786975,-0.0388546,-0.08722521,0.12987919,-0.04935197,0.09493817,0.075901024,-0.11691029,-0.15157834,0.09392411,-0.08262193,0.00050663087,-0.040294617,-0.094473146,0.09124117,0.17028779,0.113557585,-0.03128854,0.14315124,0.09583309,0.13432285,0.19713022,0.17447524,0.24362321,0.061260566,0.1605199,-0.065527305,-0.30950278,-0.1618141,-0.0741563,0.04082666,-0.052771285,-0.059505418,0.0372473,-0.09236707,-0.08860043,-0.03036786,-0.08009336,-0.0019689784,-0.073165976,-0.091981925,-0.12922415,-0.08206048,-0.23734167,-0.22077042,-0.11196422,-0.20600888,-0.05894277,-0.021898707,-0.2146044,-0.01818756,-0.07603793,-0.007739211,-0.06165524,0.014611457,0.09149145,-0.013573152,-0.045097277,0.13637446,-0.040561233,-0.063587844,0.12947169,0.21187554,-0.12301788,0.02801967,0.172529,0.054150447,0.021711504,0.14777601,0.091365024,0.071738176,0.16306773,0.21002734,0.16131084,0.24377668,-0.033858735,-0.06485981,-0.1177223,-0.17596339,0.040883042,0.05585498,0.004389844,0.12809476,0.15944345,0.057791047,0.19541956,0.123279944,-0.007901672,0.1408458,0.08555166,0.031625975,-0.06598049,-0.12251912,0.14528118,-0.031059707,-0.10945677,-0.0044038794,0.10388916,0.038136102,-0.09382944,0.050538957,-0.03500329,0.030032868,0.15886366,0.0059342603,-0.1476067,0.036873844,0.019405026,0.023911946,0.020940265,-0.013912749,0.01438734,-0.15351583,-0.0332831,0.2693229,-0.077883475,-0.03231697,-0.03355404,-0.43891132,-0.42364237,0.015596304,-0.25717756,-0.2651074,0.19617142,0.27842137,0.065244034,0.09738741,0.18792556,0.20793769,-0.24845825,-0.11054414,0.06668063,-0.16119644,-0.13811961,0.054252345,0.002693127,-0.1276977,-0.06812533,0.24430525,0.0843799,-0.19341528,-0.11847247,-0.08531685,-0.040423013,-0.024044193,-0.042573128,-0.078220926,-0.012544544,0.12369565,0.03871966,-0.13192631,-0.055388957,-0.24628724,-0.0861141,0.010763855,-0.10866928,-0.2315586,-0.09927942,-0.17770922,0.01551735,0.017651696,-0.1467304,0.06730597,-0.04706348,0.050230004,0.0757092,0.065067776,-0.0005758305,0.07952084,-0.09895597,-0.016385071,-0.10375205,-0.22356822,-0.041163564,-0.09226707,-0.14601465,-0.13669944,-0.089109674,0.016335597,-0.08589131,0.01705766,0.13691549,-0.09769797,0.03248263,0.17358801,0.011564887,0.07349789,0.20228826,0.16716091,0.09536871,0.2894473,0.33113396,0.15718949,0.20591938,0.2544101,0.026805414,0.06669687,-0.051240984,-0.010102524,0.10412782,0.028896488,0.010988036,0.06885732,0.012903868,0.0648987,0.07782627,0.06045364,-0.059677616,-0.11646536,-0.07682702,0.03815509,-0.05723228,-0.10677685,-0.21414399,-0.15210809,-0.029800333,-0.032198388,-0.09517285,0.03939677,0.0027942662,0.09542503,0.109629065,0.06729246,0.0704914,0.033710472,-0.0445545,-0.109213375,0.08887722,-0.0034975603,-0.097049475,0.16526753,0.009964309,-0.0011434281,0.16651456,-0.010900031,0.058262028,0.037516367,0.020586548,0.109157905,0.07415326,0.0075571253,-0.02349996,-0.01851133,0.16447413,-0.09435601,-0.094112664,0.18226248,-0.027857663,0.045698497,-0.22305198,-0.10170144,-0.008780717,-0.019714722,-0.056345165,-0.027853176,0.0014908148,-0.035220645,0.10496295,0.185964,0.019316426,0.0044670315,0.09451463,-0.061334383,-0.06040499,0.14018404,-0.07846371,-0.112453826,0.0012967392,-0.010517538,0.08592001,-0.045850802,0.031329054,0.08417771,-0.0023606513,-0.09456236,0.024996553,-0.120406024,-0.10748459,0.011197491,-0.19398536,-0.13621816,0.07968697,-0.1419232,0.013034513,0.112550534,0.043498028,-0.054913417,0.0207978,0.05951656,0.0048410324,0.11223432,-0.04332988,-0.12369462,-0.07767425,-0.037424803,0.08298924,-0.09599932,0.056734227,0.09795311,-0.069084,0.036784474,0.07722849,-0.10489093,0.008816444,0.026085967,-0.05157964,-0.030575227,-0.07226553,-0.04699982,0.06825999,-0.009877306,0.006125242,-0.09521958,0.04817874,0.06870799,0.048865903,0.16281974,0.12151189,0.18872939,0.23794797,0.089944705,-0.03286927,0.003304799,-0.005231064,0.002046884,0.050611354,-0.019855917,0.16435698,0.21762672,0.048696313,0.17526367,0.13152207,0.11633347,0.09839312,0.2488108,0.2826065,0.059093706,0.035354633,0.16052888,0.012968079,0.097864926,-0.016716402,0.043868124,0.13595541,-0.08315724,-0.09972164,0.094674625,-0.13580148,-0.023498982,0.018383807,-0.029386753,-0.009334758,0.08441372,0.10214805,-0.048400864,-0.04246568,0.012745277,0.1299116,0.0994995,0.044336654,0.1072514,0.018036315,0.069545224,0.003882274,-0.13552943,-0.14015904,0.10256601,0.03531313,-0.032090485,-0.057844914,0.064492784,-0.021632385,-0.031243313,0.03975178,-0.045005657,0.042273443,0.11447697,0.086475074,0.052078422,0.017959088,0.0061286334,0.08970179,0.007770848,-0.045779984,-0.019614013,0.05622516,-0.12970294,-0.0010166531,0.05180639,-0.097663276,0.047304224,0.109175354,-0.07297821,0.15682638,0.1757802,0.16679136,0.14516734,0.12061698,0.26257467,0.11572191,0.036453843,0.14022453,0.0140523445,0.0005451219,0.18834227,-0.06464739,-0.15607984,0.12350163,4.5220193e-05,-0.07041599,0.15158041,0.021797152,0.17630112,0.25874582,0.052302856,0.059823245,0.14674169,0.029002808,0.087326355,0.07975449,0.069041416,-0.06831529,-0.09355548,0.04489293,-0.07160772,0.048340432,0.026211385,-0.07157072,0.012858024,0.09181427,-0.03501354,-0.0069599804,0.09074128,0.014499478,0.1255854,-0.017583877,-0.014942084,0.06770704,-0.074971154,0.0017725623,-0.050076433,-0.08968391,0.073338106,-0.026405668,-0.10582835,0.13336357,0.049222462,0.06833104,0.14653799,0.33339283,0.14177585,-0.100698955,0.034339678,0.13032338,-0.20128012,-0.15507473,0.037037406,-0.059089154,-0.093249775,0.009828018,-0.022459393,-0.011121395,-0.028668558,-0.0008133181,0.15931536,-0.115325175,-0.020472754,-0.16870874,0.015664587,0.1332532,0.032944366,-0.013970516,0.096498705,0.09790898,0.044646632,-0.0134224575,-0.05950636,-0.009618112,-0.005521195,-0.04257952,0.018423107,0.07297802,-0.010630317,0.15306327,0.16876765,0.084001064,0.15402345,0.1627907,0.10737121,-0.001199075,0.074490204,0.10551383,0.057511345,0.053461835,0.01841579,-0.027622998,-0.06247933,-0.12948461,0.07862629,-0.080276415,-0.09663326,-0.021825906,-0.057060406,-0.063641965,0.15140726,0.061023954,0.20969437,-0.01589815,-0.053461894,0.07452676,0.0012269379,0.036179714,0.034295276,-0.053991724,-0.04451443,0.0036009627,-0.038282007,-0.09773074,-0.072974466,0.051192164,-0.0103799915,-0.05757911,-0.042292424,-0.030075785,-0.11326375,0.045798127,0.00047177402,-0.030726176,-0.15283084,-0.08581078,0.005706269,-0.030769978,0.028972868,0.1132164,-0.18570969,-0.052930243,0.021776108,-0.016389415,-0.048711587,-0.11955832,0.0332348,-0.0064799865,-0.07515616,-0.02199968,-0.119264044,-0.19352868,0.13788861,0.0769946,-0.0131603405,0.22966795,0.15162946,0.07115744,0.12671782,0.06751221,-0.10908179,-0.055367768,-0.027482757,0.034567393,-0.059523247,-0.043958705,0.01564889,0.10711508,0.07969763,0.07453162,0.031613294,-0.018035693,-0.060268953,-0.031702023,-0.07738727,-0.11108108,-0.0285793,0.004882737,-0.038678546,0.038931217,0.10979441,0.12666106,0.040346943,0.152458,-0.00255557,-0.012208735,0.055943143,0.10347553,-0.062506065,-0.062455807,0.009400062,-0.05734166,0.008094292,0.0046518305,-0.15563141,-0.10015846,-0.06082964,-0.107208155,-0.043807086,-0.16679609,-0.07231889,0.022698084,-0.07396979,-0.025835918,-0.060218018,-0.117848486,-0.09753659,-0.074708745,-0.054971717,-0.016925035,0.057762682,-0.026915245,-0.017433876,-0.05536528,-0.04561352,-0.004400663,-0.10973465,-0.04305144,-0.059737302,-0.050657358,0.02149159,-0.016003946,0.007652513,0.049054187,0.12585297,0.08127745,0.033321295,0.21842915,0.12576492,0.11523543,0.026873315,-0.013081181,-0.01947982,-0.04955684,-0.02528007,0.04058393,-0.006540914,0.09372932,0.08818911,-0.048278213,0.01974013,-0.021443859,0.032888364,0.1394365,0.08159931,0.0048142113,0.028396472,0.054890268,-0.05048175,-0.08069382,-0.045781553,0.093774654,0.06986457,-0.059214137,0.21853817,0.20270978,0.06119522,0.217447,0.17166828,0.012203521,0.018889016,0.042560056,-0.07050302,-0.011529636,0.082406096,0.03012849,0.08762521,0.14131907,0.0078762425,0.0017515771,0.009010162,0.065682925,-0.014130772,-0.03807632,-0.017937684,-0.081612945,-0.006517799,0.06966385,-0.017982082,-0.06797401,-0.09461114,-0.019311795,-0.039494254,-0.035577483,0.03016062,0.11148558,0.031721957,-0.021271337,-0.004040353,-0.02335656,-0.045142204,-0.09602351,-0.021448119,-0.020579027,-0.08219419,-0.043364894,-0.08367949,0.07660681,0.08299983,-0.20526254,0.065162875,0.118969634,-0.065352485,0.07572405,0.061521396,-0.10366252,0.0074246167,-0.04076722,-0.018612564,0.01945351,-0.029673854,0.017367922,-0.027651286,-0.023679372,0.015556654,0.005839497,0.020722147,-0.013029759,-0.015000514,-0.07598253,-0.057325643,0.005102992,0.05845571,0.05953024,0.07998301,-0.015205654,0.0021613962,0.031874686,0.009560281,-0.15001146,-0.09788237,-0.018585812,0.15354748,0.127686,0.10349263,0.09590466,0.055854633,0.07631596,-0.011408898,-0.028456137,0.042684402,-0.044891,-0.027386613,-0.099587426,0.021452008,0.028779022,-0.0032203477,0.017438214,0.028256776,0.0040591033,-0.033616487,-0.017601011,-0.11051017,0.024784915,0.09581899,-0.047268793,0.067002326,0.1191159,0.0034142395,-0.038507465,0.2737914,0.20893513,0.05465557,0.116093405,0.13152094,0.047416143,0.11807806,0.13809466,0.00066478486,0.044216286,0.05786017,-0.086559676,-0.056288864,-0.13084175,-0.00611315,0.059627477,0.002038654,-0.10599758,0.036457144,-0.023571098,-0.084707506,-0.047050104,-0.13047197,-0.1568612,-0.13675748,-0.23303817,0.12012135,0.19015037,0.27773848,-0.19397397,-0.087155275,0.3246223,-0.040532287,-0.13970657,-0.16090627,-0.19974941,-0.41294843,-0.1840394,-0.07503184,-0.30327454,-0.08294656,0.15991038,0.035273302,0.2763434,0.057152327,0.021060381,0.20006377,0.019795356,-0.022436667,-0.006356639,-0.111177154,0.031520892,0.028941348,-0.020113705,0.054759566,0.050223865,0.023881214,-0.1690418,-0.07620419,-0.10879843,-0.113484465,-0.046615686,-0.16507024,0.028818931,-0.06059108,-0.000666048,0.02496034,-0.010003004,0.011535131,-0.037682742,-0.16825302,-0.1673891,-0.042547774,0.19277512,-0.046746485,0.044103377,0.17070812,-0.1903972,-0.046607565,0.18857981,0.16922158,0.11707791,0.052886937,0.23732288,-0.033142198,-0.033390332,0.19933628,-0.06456274,-0.11600551,-0.13249514,-0.06606232,-0.043629713,-0.03861276,-0.08363996,-0.035757698,-0.1591816,-0.10758172,-0.1134556,-0.0096190395,0.06924307,0.11071233,0.0120319445,0.08053283,0.043469213,0.075900786,0.063717075,-0.014201264,0.08599879,-0.0038405473,-0.018002653,-0.17108533,-0.09806274,-0.25083986,-0.18509129,0.03198608,-0.1864077,-0.069413416,-0.20980267,0.018496625,-0.00031475385,-0.07017923,-0.05672419,-0.024986358,0.039199498,0.07390661,0.0087815225,0.10218047,0.039543424,0.009463996,0.09724527,0.00025454845,0.13536496,0.041145,-0.053747132,0.059741564,0.1520848,0.054096278,0.2570863,0.2102706,0.29826066,0.2687696,0.23986703,0.26918977,-0.07974031,-0.13694769,-0.122850694,0.115437225,0.07476353,0.0048453556,0.11710686,0.084233336,-0.025869202,-0.05978597,0.071886785,-0.031705927,0.033870425,0.051023044,-0.11612301,0.10487119,0.085018344,-0.0068417466,-0.113443345,-0.077652186,0.072974525,-0.23870017,-0.15958713,0.08265774,0.014004952,0.09988066,0.19770591,0.012793258,-0.056473732,0.08003889,-0.21911667,-0.088000864,-0.035954624,0.0013451795,-0.20822372,-0.081504665,0.044939503,0.13210998,-0.02141432,0.26279557,0.19608147,0.08057955,-0.0037201778,-0.08323043,-0.0859758,0.122053295,0.26032192,0.13606349,0.35232922,0.3798428,0.28326917,0.1402309,0.1775728,0.004174805,-0.03816915,0.005030627,0.01418983,0.015431012,-0.04244654,0.07921273,0.034519605,-0.1415268,-0.06874337,0.07302199,0.09820094,0.054114513,-0.009536099,0.06433139,-0.009170176,-0.021318242,0.022742152,-0.017065657,0.043768343,0.012399051,2.6047375e-05,-0.06973632,-0.13175887,-0.051579323,0.061440732,-0.023908982,-0.0017175447,0.05107194,-0.21222568,-0.31092405,-0.047498576,-0.2443256,-0.36807004,-0.14221074,-0.018039681,-0.024456507,-0.053326637,0.07481635,0.07573493,0.04293284,0.09147387,0.11809475,0.053720858,-0.07505252,0.02345679,0.029446367,-0.026408171,0.082414255,0.100931585,-0.03820848,-0.04951547,-0.07783173,-0.03743756,-0.010330608,0.014299419,0.043747224,0.059452333,0.07473036,0.11464874,0.12967338,-0.019296343,0.07308366,0.14031811,-0.1178686,-0.11487975,0.023964006,-0.026848907,-0.005793004,0.100398,0.17044473,0.22568244,0.15678409,0.19406074,0.23614153,0.2988353,0.10604399,0.20282629,0.3900963,0.1397741,0.06282079,0.067118704,0.17295675,0.13361722,0.15343869,0.20946856,-0.023205252,0.09999561,-0.07081036,-0.19828868,-0.05033178,-0.10583539,-0.030663937,-0.07423705,-0.13649288,-0.018689102,0.040849246,-0.025350695,0.0758829,-0.04772448,0.15725905,-0.056138825,-0.051350687,0.20051011,0.05539789,0.01668389,0.026444733,0.011963583,-0.04300595,-0.020667067,-0.08451247,-0.05463007,-0.054178275,-0.057300888,-0.059686266,-0.02481835,-0.24060388,-0.008570647,0.045310315,0.08399887,0.008933241,0.0014329386,-0.14911982,-0.041505475,0.19044185,-0.13159655,-0.108226046,-0.08345793,0.12424784,0.01722002,-0.03241476,0.075298615,0.06502166,-0.22967859,-0.048634805,-0.116722204,0.08105158,0.014630204,-0.0627821,0.06996115,0.026140701,-0.0109046595,-0.12346436,-0.1546915,-0.07189574,0.09630648,0.08691349,0.06109434,0.012605583,-0.008856137,-0.06469863,0.08248526,-0.03187192,-0.12844543,0.008293116,-0.22324444,0.028893402,0.011283239,-0.0141010145,-0.0045830165,0.01697008,0.027172973,0.11518821,-0.0994102,0.10581024,-0.072018325,0.061685715,0.22560129,0.010819615,0.019657698,-0.022068735,-0.09654824,-0.03682209,-0.14624128,-0.1486431,0.12496912,-0.029227097,-0.14736855,0.07202232,0.024884123,-0.07785799,0.1257965,-0.03745183,0.04285661,0.04356137,0.008512633,0.09019482,0.019435836,0.044852585,0.101120695,0.1504719,-0.11208131,-0.039806157,-0.0470702,-0.37024853,-0.05272696,-0.004454133,-0.036094148,0.08541525,0.10336264,-0.09224673,-0.059094355,-0.08520337,-0.0220944,0.11665629,-0.066672444,-0.17534773,0.05444617,-0.068161845,-0.028020147,-0.028772203,-0.046028964,-0.02301482,-0.14490354,-0.04640527,-0.07882695,-0.14624433,-0.0041447463,0.036574904,0.011786073,0.073002145,0.044719335,0.16541989,0.05974139,0.083814114,0.11226122,0.02425275,0.14626752,0.015613881,-0.03614192,-0.042723615,-0.11524179,-0.0968743,-0.13512187,-0.1119623,0.091887474,-0.014084609,-0.016641492,0.09522159,0.0009793487,0.011278666,-0.0826891,-0.08049961,-0.05005353,-0.056521267,-0.15850621,-0.08239227,0.06450199,-0.0031275838,0.051542144,-0.058512535,-0.09418785,-0.13258061,-0.094126604,-0.031033495,-0.028186433,0.09624301,0.04838846,0.05071448,-0.035706118,0.0020027012,-0.08464665,-0.035215136,-0.12666103,-0.020826008,0.09882018,-0.054272085,0.03253326,-0.019864868,-0.054197367,0.13418312,-0.27784956,-0.09127283,-0.22114356,-0.10877104,0.16218485,0.08903634,0.18199071,0.37877443,0.15441766,0.026278019,-0.059616156,0.0248186,0.0142224105,-0.053568438,0.03636777,0.11562274,0.04169316,0.056183815,-0.053618148,-0.086222894,-0.07213475,0.019212708,-0.110788316,-0.03494978,0.021991055,-0.1727709,-0.07948836,-0.015506306,0.044479672,0.1080538,-0.15875052,-0.037679873,-0.009333324,-0.116113745,-0.042917434,0.046578065,0.117229335,0.024339097,0.10637504,0.022839596,-0.08257858,0.007312412,-0.063912,-0.031571023,-0.0274185,-0.22082938,-0.015283666,-0.111655824,-0.13297044,-0.12617044,0.009900568,-0.2561683,-0.08664066,0.16050519,-0.09069604,0.021775447,0.10880702,-0.03462787,0.009553076,0.0879144,-0.029102098,-0.013752297,0.11296621,-0.04132915,-0.14162682,0.032272235,0.065236986,-0.21740976,-0.068315126,0.16348648,-0.06356399,-0.09536907,0.08888259,-0.07377723,-0.052816868,0.077567816,-0.12414238,-0.16511409,0.06218938,-0.02628584,-0.15457529,0.18797071,-0.018493157,0.13496625,0.08660178,-0.33360642,-0.15597305,0.08704633,-0.2594055,-0.09779919,-0.00038052633,-0.057691745,0.037126467,0.0240272,-0.059097614,-0.055681888,0.031216454,0.11007337,0.1711151,-0.0079026995,-0.029803405,-0.0122843655,-0.07439839,-0.0671398,0.046261713,-0.036685124,-0.013934003,0.16460997,0.08334688,0.1307116,0.09046021,0.16274947,0.19722956,0.24463558,0.21368581,0.1994377,0.21666433,-0.0011780636,0.043683942,0.021442814,-0.14244126,0.00073915144,-0.07825232,-0.064765304,-0.07304043,-0.1564779,-0.073734015,-0.19153439,-0.08548386,-0.12433769,-0.11595211,-0.18621866,-0.2275081,-0.22991627,-0.22635779,0.016856879,-0.041648753,-0.0013556115,-0.010875095,-0.0059093563,0.028975869,0.11414108,-0.020491783,-0.045161795,0.08147812,-0.13064642,0.04600384,0.21881291,-0.13396908,0.1976138,0.030791406,-0.07649276,0.027813435,-0.0894527,-0.050472043,-0.009907067,0.10818488,0.117921874,0.0026579415,0.054151084,0.13123292,-0.020351494,-0.014639854,-0.010396438,0.05356209,-0.091172524,-0.06902948,-8.334405e-05,-0.054516453,-0.10109959,-0.01854506,0.08016713,0.0016013941,0.08539184,0.122153886,0.017487522,-0.06513643,0.09037167,0.14306122,0.00465442,0.07939255,-0.04212101,-0.14228879,-0.03249401,-0.04008856,-0.20518166,-0.014409491,-0.09961969,-0.21903686,0.04828155,0.034853183,0.0682759,0.045108337,-0.068015955,0.035515748,0.12522224,0.017262014,0.0584681,0.11071788,0.037676845,0.037248172,0.0856268,0.12097614,0.041639604,-0.03847457,0.06138315,-0.0945601,0.025461135,-0.19969288,0.06987692,-0.18964517,-0.26637918,-0.09313486,-0.19212255,-0.10691482,-0.07096261,0.05275813,0.050740518,0.05235054,0.02540555,0.020166337,0.025846217,-0.042104516,-0.13075195,0.047416966,-0.053568527,-0.19466694,-0.14990263,-0.028976584,0.0023372753,-0.024450596,-0.024295984,0.08222916,0.1183742,0.10424555,0.036132134,0.0017868187,0.058565628,-0.010633852,0.041930474,-0.20979528,-0.20440486,-0.07317329,0.1263127,0.14502697,0.007699336,0.05084012,0.19188479,-0.018944914,0.09333802,0.08976327,-0.07583633,0.046666864,0.002113118,-0.026564568,-0.046527326,-0.12794076,-0.14065109,-0.08986798,-0.14382726,-0.16605146,0.043541975,-0.21068257,-0.014437449,0.007660769,-0.10519259,0.045044884,-0.106356055,-0.14448814,-0.007299125,0.08089937,0.0548484,0.07390791,0.03203426,-0.0016321242,0.2058965,-0.018064631,-0.06177916,0.10727262,-0.17471865,-0.012000854,0.12712164,-0.06980141,-0.03479732,-0.04031273,-0.1018879,-0.09094015,-0.051363386,-0.037169073,-0.024103185,0.001032396,0.026329925,-0.019113844,-0.029632954,0.11936251,0.063926205,0.012438721,-0.03145657,0.02233271,0.07733774,0.038347602,0.11914682,0.17659019,0.052606672,0.058859497,0.11901135,0.16026948,0.21838582,0.028326642,0.18560007,0.290004,0.20456745,-0.03676219,0.07082835,0.14680839,0.02562452,0.034731,-0.025702862,0.08389786,0.093826845,-0.04854713,0.13544995,0.13459975,-0.00057020126,-0.15312704,-0.029906569,0.025661696,-0.17937477,-0.13292477,-0.12198439,-0.08750225,-0.11028706,-0.29615414,-0.12875101,-0.020433908,0.1590604,-0.041884825,-0.058610287,-0.023308503,-0.032269347,-0.00220297,-0.06789622,-0.03491622,-0.0068930318,0.12166521,-0.005174175,-0.026299573,0.043715157,-0.11073524,-0.014435796,-0.03905159,-0.0080908295,-0.1041095,-0.018591812,0.11053057,-0.113349274,-0.21391255,0.2101435,-0.03009907,-0.1484034,-0.0690516,0.042144027,0.13037644,-0.06765609,0.029677544,0.11404096,0.01966515,0.054270975,-0.03260223,0.012755384,0.015457796,0.11890134,-0.19963236,-0.11374874,0.004899526,-0.24911706,-0.10873077,0.030859562,-0.03628761,0.039518673,0.09446687,0.00907981,-0.07723126,0.11868467,-0.022396436,-0.034080446,0.07107502,0.011090945,-0.039084494,0.010672102,0.017281534,-0.11833243,-0.029492369,-0.07059041,-0.16510291,-0.03618681,-0.12689054,-0.023082135,0.14730805,-0.022844985,0.041918363,0.12622514,-0.025887981,0.028906656,0.049467113,-0.013405522,-0.03201337,-0.043564327,0.009314166,0.030444637,0.048346385,-0.051738106,-0.07861983,0.03363962,0.12155577,0.046799786,0.051840108,0.060821258,0.009125033,0.10606382,0.03260677,0.003001009,-0.007883484,0.19119443,0.005967425,-0.055360164,0.17702313,-0.090992555,-0.0835552,0.00012670094,0.019533709,0.102280766,-0.04351851,-0.07994737,-0.0016181169,-0.008719772,-0.010200299,0.0060039647,-3.025086e-05,-0.019065382,0.02439495,0.054496467,0.013792207,-0.07400703,0.04665278,-0.029299635,-0.06964747,0.03345025,0.04234778,0.014022861,-0.15913454,0.008827735,-0.038272705,0.093617156,0.0554255,0.0015260641,0.03312681,0.030943539,0.042085286,0.056289807,0.1360448,0.05694324,-0.0061772796,0.023705034,0.015616753,0.12875383,0.082126185,0.023446728,-0.04261452,-0.022510106,0.09267586,0.021377472,-0.0056040613,0.06989645,0.0010094516,-0.062798925,0.060968287,0.10528087,0.018493928,0.0751859,0.08793587,0.032570835,0.059572328,0.08808561,0.04938592,0.1111695,-0.019722769,-0.012614184,0.047841985,-0.060925845,-0.011258152,0.0069382126,-0.057830587,0.037398584,0.07950031,-0.10750833,-0.07684959,-0.11822849,-0.027207704,0.06401217,-0.042354092,-0.017775754,0.054596443,0.04380957,-0.0046207444,0.052268807,0.005558972,0.06971247,0.10154265,0.03266763,0.07540114,0.051265914,0.02040903,0.013794848,-0.07497424,-0.072825134,0.032589473,-0.12002092,-0.11560871,0.08143573,-0.04340256,-0.03727143,0.07927679,-0.008481618,0.021477351,-0.02938803,-0.034486387,0.034092683,0.0014677717,0.004939199,0.1046349,0.086734824,-0.008606382,-0.008126914,0.004110865,0.023211285,0.04894762,0.036572352,0.024408903,0.00067957875,-0.084756,-0.08409026,-0.06805014,0.008328094,0.043817926,0.08437208,0.030721124,0.10802181,0.17643397,-0.046343654,-0.12205978,-0.056640483,-0.009140435,-0.09412618,-0.0065982444,0.07556392,-0.04055862,0.027623873,-0.0012238375,-0.035315976,-0.019878637,-0.04967393,-0.053863242,-0.027191598,0.0340227,0.029895736,0.07325729,-0.012966766,-0.12804256,-0.08094442,-0.10918815,-0.08185917,-0.056969076,-0.044604726,-0.025552308,-0.017217204,0.11226046,0.09861987,0.01448887,0.10073001,0.04078287,0.009146544,-0.05163664,-0.10100415,-0.04084683,-0.053919077,-0.039570708,0.04622684,-0.10703368,0.028628707,0.148719,-0.05747989,0.0012611586,0.087894596,-0.04343759,0.09870636,0.030985782,-0.050976437,0.17458436,0.14463511,-0.052862447,0.1343949,0.15444408,0.08087276,0.019009314,0.03361005,0.021926563,0.021848498,0.07613677,-0.039160557,0.011074423,0.0737164,0.066503055,-0.013433777,0.017300684,0.08937088,-0.0015928464,0.007551317,-0.02415449,-0.09145065,-0.025184229,-0.007614335,0.1147028,0.057527527,0.0027978474,0.14666213,0.10177999,0.0640873,0.09794169,-0.029468821,-0.031630952,0.0066173594,0.016706571,-0.09796307,-0.028056048,0.0016382226,-0.1773545,-0.10844001,-0.06480305,0.019292014,0.050317217,0.08072383,0.012975879,0.043413546,0.0296341,-0.12289231,-0.057398435,-0.014159352,0.19780232,0.17944577,0.13256794,0.16721892,0.16729712,0.14840762,0.009402037,0.06242292,0.099051826,-0.08087796,-0.07222952,-0.012572644,-0.12158492,-0.12683089,-0.07785535,-0.13612688,-0.15133299,-0.1883187,0.037236903,-0.040491745,0.00010581337,-0.12393419,-0.09714799,-0.078120045,-0.055861134,-0.0883677,-0.05254231,0.016045503,-0.013312914,-0.037603628,0.0033563245,0.1365234,0.015286082,0.052400522,0.026566254,-0.021335326,-0.05125398,-0.025610762,-0.09575273,-0.049684428,-0.11844133,-0.24315128,-0.05544175,-0.06832124,-0.036008928,-0.06606839,-0.093630336,-0.007817546,-0.13653447,-0.11788233,0.0018818411,-0.029477304,-0.0761832,0.06863287,0.0041734083,-0.079196304,-0.053857096,-0.1203545,-0.05330448,-0.09531355,-0.14579663,0.043005295,-0.11659599,0.012588572,-0.11199353,-0.0316453,-0.15493284,-0.122240774,0.03648817,-0.13039336,-0.14612833,-0.05732871,-0.103706755,0.09023608,0.0566817,-0.10490891,0.06048741,-0.022423465,0.011983216,0.11550108,0.05078789,-0.060419716,0.028695151,0.045371108,0.034127187,0.13186653,0.07964426,0.17990589,0.21393053,0.08230224,-0.019933775,0.007172713,-0.036405392,-0.07285763,-0.18804933,-0.042391393,-0.0989378,-0.07323998,0.10595969,0.028602747,-0.035415456,-0.09013198,-0.094652504,-0.03605668,-0.08067044,-0.037709877,0.056033045,-0.018792141,-0.10580432,-0.016627632,0.015415847,-0.20451863,-0.10613567,-0.03301497,-0.085844085,-0.016458675,0.027531432,0.04358543,0.15689598,0.16204788,-0.039336756,-0.038164537,0.15572228,-0.005024974,0.007936393,0.21297655,-0.0052627283,0.06682063,0.060816612,-0.0018773692,0.023896085,0.07634808,0.0482421,-0.018295066,0.08661587,0.010808054,0.06297363,0.053404555,0.058189925,-0.060690906,0.007842689,0.049417943,-0.039373364,-0.0015618097,0.061603636,0.15012582,0.023882056,0.030530442,-0.034601405,-0.037261605,0.024598887,0.008208311,0.099609725,0.09428573,0.12545809,0.1369976,0.058600616,0.055856176,0.13296162,0.13563184,0.0831724,0.09528083,-0.012339817,-0.10035675,0.008669555,-0.032939795,-0.08021536,0.0733746,0.013983536,0.09125959,0.16017339,-0.08232125,-0.086001225,0.038737122,-0.0412692,-0.10488224,-0.101875044,0.020488257,-0.048003733,-0.02459304,-0.07621741,-0.0033043947,0.08168681,-0.04662869,-0.066210225,0.0065234737,-0.013993217,0.0010491265,-0.0706944,0.0037709998,-0.045574415,-0.1549595,0.046526115,0.12704276,-0.015500295,-0.060921896,0.023772942,-0.06023937,0.068967015,-0.036625903,0.04744128,0.0953626,-0.041943464,0.03515723,-0.08514165,-0.098322324,-0.013535413,-0.033813387,-0.045342483,-0.08177076,-0.06337264,-0.050049964,-0.0018708386,-0.0060856454,-0.046771277,0.019923594,0.007843538,-0.036418173,-0.02848089,0.11712615,0.019160306,0.0385523,0.019582484,0.0813166,0.09765698,-0.00069891475,0.111481845,0.03767759,0.020508645,0.0055626254,-0.05499333,-0.06202716,-0.08132034,-0.13414809,0.14509073,0.13622782,0.121902,0.16773354,0.1509648,0.15112922,0.12747297,0.16553319,0.2626067,0.050676882,0.04820851,-0.008911713,0.14044192,0.007848053,-0.021837763,0.1066648,-0.056025933,-0.036514495,0.08033887,0.08675628,-0.032389008,0.09582255,0.06829576,0.017659323,0.019870177,0.056621417,0.016685477,0.0056680185,0.10365713,-0.009501261,0.030440975,0.047205485,0.035048928,0.045848865,-0.06009802,0.03907395,0.038657654,-0.017870402,-0.068334766,-0.054843217,0.069518395,0.08384639,-0.1255464,-0.04941436,-0.03300074,0.05651244,0.13157094,-0.09617425,-0.023709623,0.038720142,-0.017179921,0.006595783,0.11039573,0.129675,-0.03760414,-0.1797494,-0.17950667,-0.04621447,-0.1315807,-0.14576587,-0.038436405,-0.09489579,-0.15898956,-0.19191113,-0.08420883,-0.0039371243,-0.11977172,0.04152322,0.13305488,-0.15644394,-0.05369267,0.0018216117,0.024009865,-0.018594839,-0.038818225,-0.09516154,0.0076902476,-0.042294223,0.011590885,0.032087598,-0.070614375,0.018937543,0.04289739,-0.03451971,-0.0039775986,-0.027102424,0.01099502,-0.1364803,-0.11261767,0.0244791,0.018470827,-0.11953522,-0.06470344,-0.17781903,-0.20736934,-0.06285964,-0.07630236,-0.10941781,-0.031073077,0.086999886,0.10808553,