-0.21849936,-0.32651836,0.15034516,-0.2095962,-0.535541,-0.3660451,-0.15293294,-0.6319983,-0.16233867,-0.21981098,-0.28618765,-0.21105324,-0.2876414,-0.13743705,-0.24852262,-0.34008035,-0.26602688,-0.120735645,0.53864056,0.3576244,0.17673,0.25388506,0.619682,0.17670932,-0.05073243,0.039332025,0.10242653,0.027715513,-0.0004976392,0.19854325,-0.3179044,-0.48616663,-0.18918541,-0.2092097,-0.28568354,-0.07388773,-0.42103907,-0.23746544,-0.2913205,-0.015542874,0.30215824,-0.1389053,0.1077593,0.33198243,-0.08885991,-0.1420283,-0.16811672,-0.07575235,-0.052731447,0.10453992,-0.031294856,0.07778312,0.04483953,0.11062019,0.36986047,0.40758595,0.14538024,0.33306193,0.32380337,0.05452037,-0.06549473,-0.109727584,-0.2429008,-0.14282662,0.07143018,0.07935202,0.3137299,0.4675892,0.4739028,0.19482593,0.7263123,0.31913653,-0.27218089,-0.18908273,-0.21023588,-0.040420372,0.17552732,-0.023539705,0.29446217,0.5169449,0.36513582,0.18516311,0.027560055,0.08711517,-0.17466712,0.34257844,0.36294204,-0.17391564,0.34367704,0.18295613,-0.028241903,0.10082597,-0.0687448,-0.054556545,-0.10398097,-0.056800313,-0.2902065,-0.24646102,-0.39064005,-0.3610541,-0.27551055,-0.3640291,0.3316071,0.4289538,0.1197221,0.1546359,0.33730516,0.19963744,0.24599946,0.21785484,0.09921882,0.31961337,0.39588317,0.18601498,-0.0072061503,0.16655894,-0.113390364,-0.37751827,-0.38426813,-0.07072127,-0.57991296,-0.3894748,-0.25750592,-0.5956592,-0.5609033,-0.4105583,-2.233444e-39,-2.152724e-39,1.0594283e-38,-3.57322e-39,3.16282e-39,1.80621e-39,1.7338162e-38,2.347972e-39,4.653204e-39,-0.28689903,-0.05465336,-0.28687415,-0.2477761,-0.054060135,-0.342006,-0.04390416,0.1653972,-0.080221914,-0.07814907,0.05483178,-0.22455856,0.3644501,0.39532807,0.46103016,0.40396297,0.37526864,0.418607,0.13185413,0.37987038,0.26821014,0.0068618194,-0.2502322,-0.13545398,-0.2114222,-0.47291392,-0.26837,0.11738537,0.19784075,-0.08287008,0.18294358,0.42466018,0.22590548,0.4612368,0.6661907,0.26700398,-0.75914764,-0.86561304,-0.9686195,-0.6696554,-0.59627694,-0.79630286,-0.5046886,-0.3137084,-0.41819024,-0.06430958,-0.27032757,-0.24593456,-0.24962522,-0.16649029,-0.21043454,-0.14270969,-0.26369017,-0.2606799,-0.1179909,-0.26998308,-0.23410714,-0.13105415,-0.419914,-0.15591048,0.004122175,-0.21125084,-0.060345057,-0.07278661,-0.0751889,-0.05678939,-0.38820916,-0.59683686,-0.4923823,-0.5094877,-0.48358124,-0.5524893,0.23790738,0.81769484,0.41631773,0.7584739,1.3507024,0.8861039,0.14933367,0.50650245,0.040283695,-0.11931069,0.0662723,-0.015331934,-0.003599617,0.11093171,0.12469659,0.09724339,0.13667059,0.28527948,-0.019828029,-0.23486704,-0.16132127,-0.17989077,-0.12543839,-0.1855762,-0.013236152,0.03954243,0.055763755,0.27990863,0.16569301,0.2397134,0.41809466,0.287562,0.27481633,0.112401344,-0.113115564,0.13964428,7.585666e-39,-1.5061857e-38,9.908757e-39,6.634466e-39,-7.557448e-39,8.55378e-40,6.26719e-39,-3.89437e-39,-1.376985e-39,0.12335402,-0.076379776,-0.19232771,-0.6022017,-0.58606696,-0.63637614,-0.08857247,-0.450763,-0.14751367,-0.061390486,0.023677832,-0.049908794,-0.11741283,-0.18298213,-0.04148543,-0.27342817,-0.20992626,-0.10175931,-0.20808874,-0.29461488,-0.2590993,-0.37481207,-0.46983436,-0.29309648,-0.4351318,-0.64075464,-0.44384155,-0.32519385,-0.101198986,-0.408608,-0.29945445,-0.47149694,-0.58121884,-0.44828755,-0.40401167,-0.6401885,-0.1861243,-0.041531574,-0.014249012,-0.109077334,-0.09534427,0.049543623,0.26466325,0.26779738,0.42693257,0.2995645,0.17965484,0.27760595,-0.17006496,-0.34203833,-0.24766435,0.12343117,-0.22079441,-0.07472681,-0.16268334,-0.12407261,-0.059568003,-0.18068892,0.10286389,0.059057962,-0.17140564,0.21720587,-0.040951654,0.2699026,0.13599259,0.21947795,0.32760915,0.2265406,0.28594586,0.21535878,0.022259325,0.14335951,-0.038533203,-0.4059747,-0.47258586,-0.30779833,-0.336053,-0.08963733,-0.15714142,-0.14821498,-0.091940284,0.16170913,-0.008975753,0.16341603,0.22258839,0.060437735,0.06605355,0.31793448,0.043298125,-0.094416924,0.21451361,0.1735436,0.066495165,0.4868127,0.46596652,0.4795416,0.19727045,0.28958514,0.23742115,-0.21580103,-0.18898901,0.01438795,-0.1637136,-0.21655749,-0.08711049,-0.25101057,-0.26060072,0.17905049,0.19308704,0.49391457,0.15569732,0.06839358,0.69205886,0.06515236,-0.1885362,0.14381573,-0.02895146,0.26107365,0.3440217,0.4518925,-0.09053094,0.21313809,0.045225713,-0.64087754,-0.1174308,-0.21358797,0.010195822,-0.21499904,-0.16140145,0.1684415,0.02968709,0.12941639,0.12747592,-0.019619092,0.028237266,0.35075814,0.35360366,0.34928462,-0.24685603,-0.33458465,-0.32744497,-0.35999146,-0.41484165,-0.30161393,0.3618447,0.086169,-0.15922882,-0.018180126,-0.12271505,-0.15352242,-0.440154,-0.25847036,-0.47854307,-0.09149532,0.09614838,0.025793243,0.06699329,0.050921965,0.3286921,-0.2502562,-0.571348,-0.378164,-0.020841047,-0.20297532,0.2069982,-0.14881825,-0.017279979,0.12886102,-0.24229616,-0.0411437,0.005940561,0.4192581,0.21436812,0.094952345,0.14792028,-0.22391549,-0.25092125,-0.26987216,-0.50138956,-0.21566774,-0.21020031,-0.33462352,-0.3836606,-0.1617786,-0.13259186,-0.1408017,0.12194374,0.2563839,0.23930489,-0.2755044,-0.38416585,-0.013601166,-0.25831044,-0.51083326,-0.2703377,-0.08000982,-0.29963675,-0.19227505,-0.0024656428,0.17724986,0.2758269,0.07441581,0.2472478,0.28419894,-0.34191373,-0.46086374,-0.3737755,-0.037071873,-0.25513074,-0.06058358,0.054813024,-0.056347817,0.015007214,0.20439744,-0.005796915,0.082671896,-0.35175768,-0.2790931,-0.3157478,-0.024457548,-0.04593897,0.031285543,-0.25204903,0.15939991,-0.11500964,0.036457684,0.12694322,0.0009168563,0.044536784,0.29876116,-0.010329176,-0.016478077,0.31441993,-0.041684866,0.05915092,-0.10437527,0.07388111,-0.5162015,-0.6245113,-0.5639972,-0.27117407,-0.24383004,-0.39732403,0.0020937854,0.123436674,-0.04309399,-0.055633914,-0.26671115,-0.074751265,-0.24155052,-0.35522404,-0.17222294,0.1149814,-0.05197483,-0.059266016,0.14484532,0.2066235,0.09610826,0.104820736,0.061756697,0.06350464,0.59825593,0.41051808,0.7102068,0.55497473,0.15954074,0.34783685,0.20807666,0.06945972,0.28999677,0.7144457,0.73680156,0.253082,0.27009743,0.38902944,-0.040474974,-0.21271025,-0.21622343,-0.25347987,0.025121313,0.2717445,0.20303199,0.014021174,0.06438536,0.027529284,0.10603776,0.20506379,-0.0054238485,-0.0627081,-0.17908934,-0.086343616,0.18309104,0.094064794,0.2289888,0.29447168,0.14749578,0.022525685,0.2680032,0.15102567,0.29132897,0.24665067,0.47152236,0.5124272,0.2731701,0.3493172,0.59286666,4.511417e-39,4.402937e-39,-3.954567e-39,2.12782e-39,1.5237029e-38,1.4322697e-38,2.877446e-39,1.7779155e-38,-7.880795e-39,-0.23929928,-0.07734915,-0.20806432,0.027630886,0.16733082,0.17545797,0.41637734,0.5159682,0.3921183,-0.18975987,-0.40194607,-0.30012405,-0.22994208,-0.2777561,-0.12352316,0.12584622,-0.22651757,-0.34947777,0.087085225,0.14255945,0.13686812,0.32284993,0.23871052,0.4429382,0.2798991,0.2739196,0.33478978,-0.17020322,-0.027826192,-0.14529693,-0.28060362,-0.1085228,-0.36156473,-0.14309594,-0.08646826,-0.22605936,0.18645786,-0.25324723,-0.08942273,0.3791965,0.03419905,0.31292582,-0.062437765,-0.31435645,-0.11522067,1.2801318e-38,-7.402665e-39,3.81149e-40,-1.2456494e-38,9.353743e-39,-2.513138e-39,7.217867e-39,-1.3268274e-38,-9.534597e-39,0.63017637,0.5630052,0.41849062,0.77349764,0.76612777,0.6648102,0.46211433,0.3861552,0.3325322,-2.8726267e-37,1.2501271e-38,-9.766495e-39,4.135031e-39,1.1239791e-38,-3.552387e-39,-1.8676866e-37,-3.317271e-39,2.7873055e-37,0.03246394,0.21527304,0.08333649,-0.018488346,-0.014844523,0.0962828,-0.04729131,0.14333335,0.07871611,-0.048699815,-0.28591388,-0.2256911,-0.3332958,-0.47944126,-0.2944528,-0.06521296,-0.36269525,-0.07392615,-2.0609618e-38,-1.5230696e-38,-1.9887673e-38,1.8280055e-38,-1.719234e-38,-9.226169e-39,1.6050026e-38,1.160913e-38,-9.562843e-39,-0.14304422,-0.07112391,-0.15971968,-0.10402859,-0.076963976,-0.037715632,-0.0068057706,-0.030902624,-0.004700759,0.35992122,0.21595097,0.16083829,0.49783632,0.4631299,0.19712147,0.43390882,0.23960505,0.30790702,-0.10268714,-0.054644812,0.08521827,0.15481052,0.35296848,0.09241272,-0.06316065,0.013870027,-0.14042826,-1.5999241e-38,-4.082785e-39,9.137548e-39,7.960928e-39,-1.322844e-39,-1.5898345e-38,-2.18881e-40,7.423463e-39,-1.535288e-39,-4.235263e-39,-3.313179e-37,-9.247921e-39,1.0349578e-38,5.320499e-39,-3.196163e-39,-2.744387e-39,-1.232895e-39,5.873159e-39,0.01024931,0.20951101,0.16595213,0.364062,0.63582575,0.31198716,-0.064537585,0.065620184,-0.016471071,-0.024388058,-0.08561649,-0.041150596,-0.197793,-0.30057552,-0.23975524,-0.38437507,-0.033749696,0.014730159,-5.799229e-39,7.75664e-39,3.785339e-39,1.5331961e-38,1.8009541e-38,3.94714e-39,9.695245e-39,1.4942148e-38,1.7119627e-38,0.30565158,0.4772542,0.17068239,0.42254606,0.22135982,0.1642937,0.23139425,0.19685847,0.10556826,-0.03868897,-0.08855529,-0.20088506,0.12209464,0.10618248,-0.1751102,-0.14855172,-0.26952112,-0.21384713,-0.3122188,-0.06248133,-0.1590782,0.25418222,0.2576256,0.11531668,-0.39453876,-0.16569597,0.09498947,0.15424879,0.08568098,-0.0045284694,-0.17711562,-0.34334058,-0.21554129,-0.14291418,-0.18208766,-0.0005495813,-0.061071116,-0.2286164,0.07490468,-0.18524323,-0.19177313,0.20810398,-0.33964196,-0.4175512,-0.21042636,-0.03824759,0.09586304,-0.04493607,0.27152178,0.3511795,0.37967372,0.26435477,0.14670257,0.1959501,-0.22132017,-0.19280079,-0.1420001,-0.4132944,-0.34749115,-0.22495863,0.06329009,-0.098033786,0.103029504,0.03980632,-0.11043711,-0.081132516,0.1360911,0.15737973,0.30834413,-0.2676101,-0.34906998,-0.1636812,-4.369369e-39,4.458633e-39,-1.5541951e-38,1.6675164e-38,7.36352e-39,3.580238e-39,-1.990359e-38,-1.613001e-38,7.158137e-39,0.730479,0.5854083,0.61804867,0.598752,0.67672706,0.42846006,-0.26404765,-0.35971805,-0.3341693,-0.31777886,-0.2928113,-0.28163683,-0.6055924,-0.5715758,-0.53557295,-0.45705387,-0.3423197,-0.36739087,-0.4515077,-0.7523555,-0.58370936,-0.32896447,-0.60485804,-0.6073912,-0.3721481,-0.46237803,-0.34250736,0.100204274,0.021633182,-0.12400747,0.4369794,0.46839795,0.49601036,0.09205762,0.15204701,0.18562314,0.037078165,0.30312777,0.06944087,0.2145552,0.37217632,0.1653196,0.3161226,0.5093814,0.3469787,-0.11903326,0.13660192,-0.02857748,-0.0034751664,0.103563614,0.023649104,-0.13800113,-0.15973397,-0.07364014,0.24705404,0.28788108,0.04166755,-0.22514898,-0.35997215,-0.45121995,0.1391556,0.32171017,0.10815193,-0.030952126,-0.0034011605,0.17209437,-0.25086823,-0.20829932,0.07671024,0.16204143,0.15984778,0.12546457,-0.3430761,-0.30122685,-0.29124388,-0.39307183,-0.1881871,-0.46392706,-0.008596935,0.045464974,-0.17005749,0.08376048,-0.19961731,-0.09410812,0.42135572,0.39018452,0.3749481,-0.015525487,0.08831837,0.06649771,0.21879162,-0.04532785,0.36340952,0.3111412,0.51884156,0.26720318,0.09016401,0.39051166,0.04631178,-0.07689781,-0.17130661,-0.13273434,0.5553409,0.78253675,0.5461402,-0.038910057,0.32958987,0.27234873,-0.42537865,-0.47969922,-0.5427637,-0.27610755,-0.23746978,-0.58601236,-0.3738601,-0.2521749,-0.6483322,-0.32777223,-0.12732702,-0.16469164,0.03670418,-0.011947991,0.18446699,-0.31651092,-0.16517341,-0.028100269,0.37068444,0.3572602,0.2895396,0.2234927,0.10321446,0.22633122,0.10215646,-0.36915687,0.012812334,-0.32383928,-0.18071574,-0.21090095,-0.26054955,-0.17127258,-0.16256577,0.10673718,-0.1999777,-0.113175996,0.18526523,0.10319474,0.05841674,0.1514639,-0.03278509,-0.14479677,0.16184857,-0.12670137,-0.046353348,-0.34297308,-0.25080743,-0.5878415,0.18710487,0.22963624,0.17484127,0.056513254,0.2574681,0.116924785,-0.10716405,-0.3752371,-0.11324023,-0.32630545,-0.52633214,-0.2601858,-0.33381692,-0.4529503,-0.24345332,-0.24769185,-0.15207314,-0.21317162,-0.1848141,-0.11802736,-0.13630027,-0.26895025,-0.12809421,-0.1594781,0.3345065,0.12547246,0.18819591,0.70212877,0.62772024,0.5715478,0.48273706,0.3956869,0.19613947,-0.17572883,-0.15131545,-0.42427406,-0.046194058,0.09691571,-0.085711785,-0.18510175,0.017208396,0.1441485,0.089114755,0.23738378,0.12860988,0.07325953,0.14573286,0.02383755,-0.17595944,-0.01759504,0.17853877,4.33014e-40,-4.634702e-39,5.58268e-39,5.561606e-39,1.2069783e-38,1.7037571e-38,2.9844154e-38,-5.47769e-40,2.2343201e-38,0.08639442,0.23309994,0.054279473,0.076157965,0.012055942,-0.076574706,0.20829396,0.16801792,0.25015542,-0.0976252,-0.4040423,-0.2731737,0.059445273,-0.22815737,-0.14614752,-0.18544626,-0.32563385,-0.13165453,0.4682688,0.6552552,0.49132302,0.56061673,0.78724897,0.5807111,0.29013285,0.44763613,0.2576183,0.037832305,-0.15006165,-0.071717076,0.19998187,0.050441515,0.18370365,0.053666875,-0.017028872,0.16167076,-0.31179035,-0.2781443,-0.47621042,-0.12467668,-0.34807935,-0.22390576,-0.23381643,-0.26642287,-0.14961211,0.37860027,0.40412614,0.1641788,0.6534298,0.9671036,0.7007377,0.38604382,0.4225828,0.09144255,0.19039248,0.41965756,0.33196834,0.40818545,0.6520428,0.5652118,0.1555702,0.4498759,0.33226472,-6.698127e-39,1.5873602e-38,1.1465393e-38,1.0415896e-38,7.12897e-39,-7.414064e-39,9.450591e-39,-2.10495e-39,-1.6173134e-38,-0.26322687,-0.052945916,-0.35565478,-0.16109847,-0.3163121,-0.18965252,-0.19479512,0.013663913,-0.2865717,-0.10986827,-0.010701696,0.08958905,-0.16750973,0.03636492,0.10513587,-0.22888765,-0.1039512,-0.15267059,-0.017360363,-0.2292387,-0.1250018,-0.28392404,-0.22797342,-0.3575295,-0.34607515,-0.3043409,-0.28265437,-0.12595162,-0.30120647,-0.21667798,-0.17117293,-0.23161125,-0.061647788,-0.38390398,-0.3310911,-0.3287482,-0.13864776,-0.014400486,-0.20812766,-0.30729777,-0.25348476,-0.32366192,-0.2906339,-0.21392588,-0.26606643,0.33536234,0.4672734,0.44772205,0.5107139,0.7739228,0.4548269,-0.017897543,0.19878377,-0.06194592,-0.07581398,-0.017325103,0.18566756,0.16123228,0.26164696,0.0855984,0.09302398,0.165871,0.014284703,0.0071276384,0.11740072,-0.11477378,-0.11327135,-0.02682345,-0.075276844,0.21839398,0.46641502,0.2796357,0.21641003,0.18486832,0.3644634,0.24065375,0.22686228,0.21189076,0.23556873,0.25758696,0.124348335,0.32376626,0.1814442,0.06789167,0.012231772,-0.06578893,0.028073996,0.15305401,0.24691091,0.16464792,0.11059523,0.15610284,0.1942461,0.044649012,0.2937036,0.33499944,0.12228668,0.26132134,0.2363261,0.020131944,-0.3209484,0.082353294,-0.053486187,-0.07922706,-0.05573448,0.16764532,0.21737686,0.17569569,0.021573214,-0.14822882,-0.15877187,-0.04691557,-0.4266718,-0.1466142,-0.022531586,-0.17477497,-0.06861763,0.042043842,-0.05069792,0.079862975,-0.059730604,0.22205804,0.05285574,-0.042151462,0.14911887,-0.1577553,0.1874898,0.3835141,0.4088083,0.11602109,0.34838367,0.25881496,0.26662755,0.2728523,0.12997723,-0.07014659,-0.016100908,0.07031187,0.115501106,0.020916717,0.11916688,0.2689112,0.291486,0.15771267,0.24129562,0.51586837,0.34200633,0.1469375,0.3129198,0.35249728,0.17931831,0.46660355,0.24590275,0.12927,-0.26737446,0.026714042,0.091684155,-0.13299061,0.20905402,0.1553325,-0.51814824,0.19131458,-0.048397545,0.024519969,-0.0015865979,0.1630416,0.23903564,0.06767404,0.16406333,0.27095672,-0.09778226,-1.1503897e-38,7.93868e-39,-1.2802931e-38,-2.099762e-39,-6.825705e-39,1.0961122e-38,1.0310318e-38,3.533064e-39,5.93901e-39,0.3523179,0.25725284,0.23044364,0.27275023,0.48842025,0.33445907,0.22115535,0.40176228,0.22878878,-0.26462716,-0.3639775,-0.21316506,-0.38721302,0.024670294,-0.26555848,-0.32552543,-0.07521177,-0.2435052,-0.31595787,-0.43618628,-0.21100909,-0.006997607,-0.3162757,0.08535027,0.22930588,-0.077524304,0.28476083,0.10292264,0.17486095,-0.096799,-0.03755405,0.042557444,-0.23002249,-0.23482226,-0.16210003,-0.26147223,0.0790353,0.084054425,0.18333341,0.14765067,0.24397741,0.07973397,-0.13595335,-0.053173512,-0.15974148,-0.10016578,-0.2506135,-0.12357209,0.08426827,-0.1195588,0.003740224,-0.10083875,-0.36350858,-0.18934837,-0.10548185,0.29622594,0.28371057,0.28527212,0.61593443,0.47867993,0.12511909,0.39187828,0.30637684,0.17200541,-0.12205586,-0.11334969,0.010093322,0.14508648,-0.22555822,0.28625152,0.31708267,0.1047358,-0.041623008,-0.08585725,-0.04838145,0.102125235,-0.07053318,0.06551389,0.036247812,-0.1848278,0.048675444,0.058961015,0.07525775,-0.056508653,-0.102103256,-0.1320162,-0.18398266,0.06125242,0.09939954,0.0397446,-0.47563034,-0.42980248,-0.38521492,-0.64468354,-0.42010784,-0.49664283,-0.3669607,-0.17568931,-0.24630423,0.1749906,-0.13969298,0.084962234,-0.24864458,-0.48221573,-0.317533,-0.17913553,-0.26470736,-0.2998105,-3.074976e-39,-6.767746e-39,7.603272e-39,-6.66497e-39,-1.804889e-39,5.505507e-39,-4.692056e-39,1.8566651e-38,-3.645231e-39,-0.115477175,0.039065212,-0.08719652,0.17883384,0.12521096,0.122103855,-0.030022299,-0.034130055,-0.061023723,-0.076259226,0.116938345,-0.006808003,0.021640966,0.026902437,-0.20407273,0.0045129037,-0.01802616,-0.23040487,-0.21361776,-0.23987617,-0.10890673,-0.5008925,-0.3989468,-0.03703321,-0.18758959,-0.104904145,0.019671919,0.48055586,0.22344027,0.4469677,0.037253235,-0.23058668,0.016785337,-0.08920017,-0.36315355,-0.11525252,-0.06117682,-0.4723499,-0.07302939,0.069215275,-0.17218833,0.024044087,0.40780115,-0.05848438,0.16909747,0.12813245,0.38168418,0.2384895,0.6955535,0.80502725,0.8760337,0.14323649,0.28954312,0.18747376,-0.26487768,-0.36221546,-0.13688599,-0.25892434,-0.11327057,-0.095640674,-0.12848897,-0.057962205,-0.19552478,-0.13958953,-0.018253565,-0.11007756,-0.010575108,0.19164173,0.13089351,0.082621835,-0.020416094,-0.14950342,0.3785558,0.21123648,0.48069552,0.31821477,-0.0014927199,0.24882087,0.39520586,0.1670501,0.46097496,0.49732068,0.5415314,0.5094774,0.48356894,0.68861824,0.54540604,0.14799967,0.3962025,0.2595005,0.5337399,0.575942,0.04100797,0.40957782,0.22541219,0.11434547,-0.006885993,-0.06682707,-0.025182925,0.12376028,0.36045015,0.26160756,-0.17445973,0.07796297,-0.051561214,-0.59795237,-0.39655405,-0.427809,-0.39598215,-0.5794377,-0.255005,-0.25704,-0.02935387,-0.17905866,0.44510695,0.30185756,0.239716,-0.178974,-0.09236907,-0.1582095,-0.010810881,-0.022206694,-0.18061815,-0.03981023,0.00742088,-0.012947013,-0.10078431,-0.07294041,-0.060072027,-0.48672548,-0.5731312,-0.46385562,-0.72490525,-0.38744396,-0.38990274,0.17552225,0.31433752,0.27341065,0.14875518,0.24162303,0.17078619,-0.088948935,0.09185625,-0.040041275,-0.2840544,-0.14482448,-0.15814628,0.0696995,0.027619166,0.046548076,0.006959376,-0.40251687,-0.2661212,-0.18116653,-0.3350166,-0.39510646,-0.38222316,-0.6206672,-0.4421701,-0.39036238,-0.5202547,-0.46677697,-0.19125293,-0.27988958,-0.2685244,-0.34156868,-0.36114782,0.024076238,-0.22165138,-0.32291734,-0.22436571,-0.2799207,-0.28899518,-0.21485697,-0.21772316,-0.40915203,-0.41387033,-0.072592154,-0.14663373,-0.16398391,-0.2103613,-0.22343181,-0.11346526,-0.0785648,-0.024681088,-0.18000819,-0.08653088,-0.15358184,-0.063771196,0.25655648,0.1849484,0.16262305,0.45488378,0.35402355,0.3593039,0.217557,0.20305146,0.12368704,0.010023803,-0.01274977,-0.033706643,-0.19871049,-0.34466627,-0.23954281,0.005550254,-0.017109852,0.05118441,-0.38646743,-0.37598294,0.09251496,-0.29504347,-0.068285234,0.03511395,-0.08759451,0.08597125,0.12143808,-0.28789207,-0.4461952,-0.29386505,-0.27499136,-0.2847492,-0.09836496,-0.37350908,-0.48316714,-0.29154748,-0.08627301,-0.12565902,-0.121015266,-0.008099675,0.16020894,0.035359886,-0.059273854,0.26479107,0.015925065,0.0025615492,-0.0061522005,0.15674752,0.4428295,0.31272328,0.20177616,0.33794275,0.3168372,0.4669295,-0.0034376383,0.008966772,0.04956844,-0.3666306,-0.38491017,-0.14941669,-0.22803183,-0.3829803,-0.12397227,0.25114572,0.3791211,0.38358173,0.7043733,0.75925183,0.686146,0.4012219,0.3508827,0.25478375,-0.057553813,0.12829654,-0.22515833,-0.025565892,0.008889133,0.05247839,-0.59833634,-0.5336433,-0.44268614,-0.35286114,-0.37583962,-0.13792697,-0.15111202,-0.20966187,-0.031625103,0.016434068,-0.10252381,-0.07099468,0.38107628,0.36278138,0.2676315,0.10559704,0.093301766,-0.010050136,0.15047656,0.030656355,0.1109286,0.09275662,0.49833664,0.016244657,0.085635886,0.062496208,-0.011080957,-0.027899407,-0.010294276,-0.087194204,-0.07435585,-0.09084437,-0.06884685,-0.35065004,-0.1746093,-0.3332459,-0.2922201,0.07214928,-0.24116112,-1.1429144e-38,1.1609196e-38,1.613424e-38,-6.77358e-40,2.949646e-39,-1.1820863e-38,-1.060023e-38,-1.0161898e-38,-1.1056852e-38,-0.09807029,-0.43168616,-0.22186491,0.017415,-0.15925026,-0.12269491,0.10036361,0.027188595,0.07729132,0.08983177,0.16020198,0.0334897,0.21447675,0.64631003,0.2262978,0.027939957,0.35374838,0.18328688,-0.47807488,-0.36234933,-0.42436227,-0.1928123,0.1378097,0.058661122,-0.049656995,0.14496171,-0.090413734,-0.05170686,0.022261692,-0.02576473,-0.26825798,-0.21737033,-0.15642634,-0.13437453,0.028890578,0.0935196,0.011790873,0.11612339,0.07791263,-0.12079419,-0.15318282,-0.07710941,0.3247208,0.5631428,0.45263562,8.727037e-39,1.3888939e-38,9.229036e-39,1.2204344e-38,-2.785318e-39,-1.0252051e-38,1.486406e-39,1.1505899e-38,1.2760455e-38,0.028984124,0.19454503,0.077694036,0.27861795,0.4747239,0.26856384,0.39436805,0.6729669,0.26619944,1.4313943e-38,-5.631153e-39,-6.68151e-39,2.4964542e-37,8.799663e-39,-1.9310734e-37,-1.4107735e-38,-2.2902127e-37,1.8131591e-37,0.19003959,0.43186167,0.34142962,0.15843178,0.53738624,0.52317435,0.061236806,0.42886487,0.26827967,-0.1380618,-0.22101627,0.10309228,-0.19021034,-0.122180134,0.19034542,0.1722365,0.18404353,0.22885078,-1.9253558e-38,2.5945494e-37,2.63741e-37,2.0616569e-38,-2.05762e-40,-1.2240866e-38,-1.1072012e-38,2.821932e-37,-1.4135524e-38,0.4037704,0.66692686,0.33909115,0.30521467,0.45882162,0.4082265,-0.16682217,-0.05904441,0.054252695,-0.07821243,-0.33175415,0.14739996,-0.20098671,-0.46128947,0.20994025,0.23498625,-0.06968415,0.093667135,-0.21866252,-0.6328165,-0.33226535,0.035716914,-0.35691172,-0.019819185,-0.040212527,-0.33361927,-0.021475403,-1.226732e-39,-1.0239997e-38,-8.067542e-39,-2.738911e-39,3.904561e-39,-8.769315e-39,-1.1104466e-38,1.1684221e-38,1.2952799e-38,2.6308623e-37,1.7987842e-38,-3.3846174e-37,-1.3687801e-38,9.72825e-39,3.750406e-39,1.4768973e-38,1.3184203e-38,1.1572e-41,-0.014373136,0.020430643,-0.02832924,-0.11416096,-0.11771064,-0.015873361,-0.18476292,0.0218821,0.09117085,0.06015123,0.049594242,0.059014834,0.020084234,0.009357689,0.15503073,0.25204584,0.25489283,0.30928957,-6.906528e-39,-7.307e-40,5.469025e-39,8.254227e-39,6.813864e-39,-1.6761234e-38,-1.5849727e-38,-5.036861e-39,-7.207504e-39,0.24025643,0.4310504,-0.10962835,-0.09280033,0.17020316,-0.24394077,-0.048184752,0.05766997,0.007195492,-0.11575377,-0.16736785,-0.23813786,0.12815471,0.37621483,-0.09591996,-0.00699725,0.25761303,-0.4041251,0.24921767,0.20386067,0.20775735,0.2888686,0.031287253,0.092719756,0.2185748,0.03925621,0.08859878,0.012958264,0.006469415,0.0145804845,-0.2602069,-0.6714339,-0.3494113,-0.41840228,-0.4729028,-0.22834246,-0.047591027,0.01763673,-0.12891039,0.16917269,-0.03859929,-0.18944733,-0.033767913,0.030069776,-0.22935048,-0.028344844,0.009536767,0.08365576,0.3207231,0.17217763,0.05063122,0.3721848,0.21664596,0.17734781,0.006295275,-0.0017863704,0.037514895,-0.1568872,-0.4190622,-0.16685738,0.013701966,0.07463655,0.028018724,0.14846167,0.1723263,0.26348212,0.13221762,-0.052462865,0.22255403,0.025390908,-0.0009667437,0.14039816,-1.0075271e-38,1.519121e-39,-1.384077e-39,2.771178e-39,9.258109e-39,-3.724386e-39,-1.4912159e-38,1.3394253e-38,6.665601e-39,0.44317198,0.30914488,0.37552157,0.18370824,-0.011304021,0.15443338,0.052040394,0.14536893,0.0036151602,-0.10514122,-0.07744435,-0.20238884,-0.21421963,-0.19019201,-0.06788014,-0.12247881,-0.030478861,-0.06887609,-0.4039772,-0.35203433,-0.26518118,-0.07001153,0.055960573,-0.1268777,-0.36417383,-0.07186946,-0.26730135,-0.26691192,-0.26615956,-0.33623648,-0.29267296,-0.4945191,-0.18831812,-0.110221416,-0.30806443,-0.03382708,-0.00895614,0.15586264,-0.06376686,-0.17638439,0.005585015,-0.13619682,-0.2566574,-0.19705203,-0.34930024,-0.12467377,-0.26623014,-0.35508814,-0.31996945,0.070112824,-0.04771206,-0.099194564,0.14837803,0.28655165,0.07830287,-0.07765334,-0.04079998,-0.008023037,-0.34121394,0.17269471,-0.2178933,-0.11564684,-0.116854824,0.2688713,0.23462228,0.29879126,-0.012238598,-0.17906255,0.22429979,-0.18177852,-0.2851412,0.042625345,0.07921596,0.07362495,0.21903509,0.2473076,0.1402727,0.39730284,0.27320915,0.35811654,0.27169204,-0.34844154,-0.37699354,-0.24438502,-0.528809,-0.41042012,-0.4229443,-0.588611,-0.68840593,-0.7272979,0.35105544,0.08640762,0.26850224,-0.008407165,-0.044247787,-0.1162489,-0.10846187,-0.10489138,-0.22687086,-0.0005562536,0.27627772,-0.1400152,-0.024697036,0.258335,0.06767207,0.06250088,0.6096421,0.29526073,-0.3084823,-0.20487286,-0.3973938,-0.15151864,-0.4084758,-0.1955295,-0.15236968,-0.26567414,-0.13004416,0.2658034,0.43879,0.507254,0.23155314,0.26985922,0.44204932,0.049723517,0.043339215,0.117945716,0.21127379,0.24325566,0.06422253,0.40240437,0.70067877,0.3204423,0.0173145,0.26170185,0.033953737,0.34692764,0.12653728,0.25185338,0.5984025,0.49999762,0.55987436,0.45378652,0.5501597,0.5162201,-0.14317083,-0.023689147,-0.03296548,-0.096616626,0.12099415,0.02494123,-0.2072753,-0.11425735,-0.12088763,-0.05159256,-0.1922261,0.16490482,0.014908423,-0.100940354,0.16780089,-0.06409601,-0.10862935,-0.12529844,-0.39263126,-0.23474704,-0.23539038,-0.3487406,-0.3599773,-0.2639624,-0.19470319,-0.17247538,-0.22146405,0.5930106,0.3839624,0.6171366,0.59479463,0.41052967,0.6588472,0.45414498,0.20492338,0.5757622,-0.17970397,-0.03579353,-0.13012666,-0.28858218,-0.14006658,-0.22241476,-0.26833573,0.14626804,-0.17452127,-0.22227077,-0.35982734,-0.11803091,0.122316234,-0.034098595,0.088427514,0.2252201,0.10144687,0.15043919,-0.23450865,-0.20843251,-0.07960387,-0.040840976,-0.18169366,0.08740545,0.059558984,-0.03284493,-0.061735515,3.54332e-39,2.1524932e-38,1.3776684e-38,1.2675001e-38,5.788477e-39,3.249223e-39,1.272427e-38,8.535173e-39,3.623731e-39,-0.09869095,0.33557066,0.0797622,0.028421637,0.21189807,0.41764548,-0.060811773,-0.07698242,-0.102981344,-0.08126637,-0.34480613,-0.12559788,-0.005072808,-0.15471837,0.0099549545,-0.23226753,-0.19658981,-0.21148294,0.18997599,-0.15497382,0.13276914,-0.10887566,-0.31054893,-0.33874503,0.14556913,-0.015594314,-0.01902941,-0.038133897,-0.31105614,-0.44024122,-0.010636625,-0.32554755,-0.16627792,-0.18966646,-0.5061587,-0.19216539,-0.08668868,-0.031887308,-0.13549246,-0.44415897,-0.5787126,-0.5704067,-0.4778337,-0.47993833,-0.36795208,0.2335813,0.3032903,0.19894339,0.5317811,0.58849573,0.5749915,0.39673245,0.21091934,0.21420468,-0.16127226,-0.49203137,-0.23328212,-0.0022247138,-0.27136657,-0.16758241,-0.20627229,-0.40196648,-0.46201926,1.0216832e-38,1.2927993e-38,1.8727892e-38,1.0556958e-38,1.0089135e-38,-7.775476e-39,1.364422e-38,1.165988e-39,-2.292153e-39,-0.059590697,0.102356605,-0.12573503,-0.1885515,-0.18916054,-0.27667794,0.02483208,0.18037221,-0.039048005,-0.28934416,-0.16657752,-0.037985824,-0.019890852,-0.15057148,-0.047996905,-0.068004206,-0.11956521,-0.123991996,0.1045572,0.1092282,0.19005558,0.46284652,0.19314796,0.4281242,0.42069802,0.2447723,0.30509,-0.40869015,-0.25918028,-0.58794886,-0.14888959,-0.17439117,-0.098062105,-0.016388886,-0.28276137,-0.06312764,-0.29134303,-0.026774183,-0.17800523,-0.099974565,-0.035361618,-0.06368305,0.18290122,0.39243633,0.3188178,-0.16872498,0.007957697,-0.06571824,0.15938309,0.13087307,0.36428514,-0.19914404,-0.23385766,-0.47570553,0.062154993,0.120846376,0.37588534,0.13371494,0.41021088,0.08670976,0.021850413,0.35812837,0.04979266,-0.61810714,-0.5285688,-0.48048684,-0.31190902,-0.25551757,-0.15349193,-0.5871124,-0.3407177,-0.5096183,-0.58227825,-0.9185746,-0.68727523,-0.16374294,-0.50886077,-0.1985261,-0.27435088,-0.1841029,-0.10205709,0.15706421,0.21105711,-0.06733506,-0.06525092,-0.08427343,-0.09707587,-0.39651075,-0.42138204,-0.2657599,-0.10812187,0.07313744,-0.0477233,0.69164294,0.46711472,0.34987316,-0.13242419,-0.07075415,-0.35525745,-0.40448666,-0.43562993,-0.4384293,0.17922992,0.3823932,0.18052615,0.10375594,0.14607391,0.12159852,-0.10994254,-0.019637262,-0.0097006075,-0.067072116,-0.0041287295,0.14881779,-0.07102612,-0.104465984,-0.34347293,-0.19379717,-0.0748536,-0.14098823,-0.4680212,-0.060244735,-0.1297248,-0.15175983,-0.43249986,-0.11567998,-0.084018715,0.029806767,0.17132007,-0.23809971,0.37464082,0.15926549,-0.144061,0.2547812,0.30967098,0.20966806,0.16652116,-0.06574133,0.52251375,0.4560858,-0.3204448,-0.062415898,0.0017810278,-0.2700124,0.18142524,0.13921072,0.052432697,-0.18714961,-0.019168304,0.19170313,-0.21088383,-0.12368268,0.058879063,-0.13975741,-0.11807121,-0.20258719,0.0042476356,-0.057933327,-0.029297965,0.19775385,-0.06632301,0.1678356,0.13629805,0.0117863985,-0.19610977,0.19062436,0.27735102,0.40670094,0.13481532,0.25680584,0.11431658,6.418426e-39,1.403876e-38,-1.177538e-39,1.2504494e-38,-9.76565e-40,-1.0201915e-38,1.439466e-39,7.81763e-40,-1.208292e-38,0.35859406,0.3936378,0.2978843,-0.44633085,-0.45954525,-0.54969454,-0.44954032,-0.35644802,-0.48453328,-0.11300327,-0.21266967,-0.0138205895,-0.34970355,-0.48930553,-0.48500305,0.48889434,0.39701122,0.23347838,-0.39178476,-0.10940053,-0.2065727,0.22329533,0.07004156,0.45569918,0.2242955,0.35668433,0.18871018,0.2893164,0.11440465,-0.088169724,-0.24857765,-0.24878605,0.14241828,-0.6822159,-0.37577543,-0.16730398,-0.07798569,0.1505094,0.005555256,-0.10226171,0.015058527,-0.074300006,-0.1610077,0.078698255,-0.14191987,0.2352334,0.46286404,0.5301852,0.100025535,0.23971449,0.12008361,0.09489927,0.23924154,0.17421475,-0.07581014,-0.10359547,0.095389195,-0.20410277,-0.005876273,0.025427397,-0.36847806,-0.24184859,-0.3460135,-0.30363077,-0.55297256,-0.47893503,-0.40704668,-0.5710066,-0.7997938,0.31228232,0.5123592,-0.025047174,0.033024672,-0.17779882,-0.014443931,0.058748093,-0.014231699,-0.085945286,0.10369429,0.15089256,0.13590923,-0.20352037,-0.18323249,-0.18001807,-0.4448287,-0.5005504,-0.22473636,0.049517628,0.08651267,0.16823807,-0.04624595,-0.10535268,-0.17116432,-0.3255837,-0.66722566,-0.4066907,0.15541208,0.42454758,0.32044053,-0.082436375,-0.28842258,-0.37504303,-0.2579044,-0.6371819,-0.5784107,-0.44502658,-0.67607504,-0.45217073,1.44317e-38,1.6330657e-38,1.200048e-38,-4.228504e-39,5.055806e-39,-1.219423e-38,7.834052e-39,9.13431e-40,1.5595146e-38,0.5606012,0.9276312,0.86386144,0.56868786,0.4101506,0.5502767,-0.07836926,-0.012338137,0.23728085,-0.17961627,-0.32578054,-0.25613156,-0.26935607,-0.14331622,-0.39133036,-0.18933062,0.050453402,-0.18827488,-0.31171784,-0.15013465,0.0016909516,-0.02024305,-0.017179726,0.0077615054,-0.04577847,-0.1461976,-0.14466134,0.36752155,0.24988765,0.25824896,-0.6595252,-0.600948,-0.33877313,0.0016700168,-0.029106876,0.26263884,0.2868486,0.62290245,0.3461946,-0.22528328,-0.022854384,-0.4807946,-0.14592183,-0.33474952,-0.25909406,-0.2585371,0.24220565,-0.039898302,0.5850686,0.79994667,0.68578225,0.34032127,0.55916435,0.108367115,0.57889557,0.82697207,0.45562094,0.015037835,0.016436629,0.08271503,-0.15538713,-0.068023674,-0.05281689,-0.15170722,0.29533726,0.19640537,0.2459608,0.45336008,0.52240175,-0.09681937,-0.14706664,-0.15745103,0.25895,0.31133485,0.45374486,0.62757486,0.50859874,0.4469316,0.37851572,0.12829979,-0.049682308,-0.22311282,0.23855424,0.084757775,0.41173467,0.5624413,0.65447086,0.19857211,0.014970459,-0.0227836,-0.1840744,-0.2899098,-0.03346014,0.11019069,0.11609792,-0.37001145,0.017311705,0.16541867,0.120014146,-0.10824635,-0.2887447,-0.33399767,-0.34035414,-0.40260538,-0.28461528,0.44752118,0.31856203,0.31322533,0.19017275,-0.003328632,0.015490733,-0.0145099005,-0.12761149,-0.1429617,-0.097790115,0.3196763,0.26149216,-0.2476572,-0.13768134,0.049058072,-0.10679939,-0.10185248,-0.07584766,0.21313322,0.2753766,0.2758956,0.039110117,-0.18918325,-0.01129909,-0.28959697,-0.6934859,-0.5228892,-0.1884593,-0.31280547,-0.2915296,-0.2459546,-0.5861928,-0.30335212,-0.3840139,-0.49131203,-0.5012204,-0.101013735,-0.3672072,-0.34617206,-0.07701928,-0.01181111,-0.014846161,0.051838513,0.3132372,0.18778689,0.12795039,0.30293813,0.12475466,-0.5934415,-0.59994864,-0.30714417,-0.15020634,0.015210242,0.3098938,0.21747193,0.1046872,0.20704517,-0.16768399,-0.3806886,-0.52898324,-0.21945752,-0.3825149,-0.05327844,0.008618745,0.14520034,0.16322215,0.106828496,-0.25599217,-0.19860937,0.2260407,0.26430693,0.31649253,-0.6755859,-0.5738155,0.2050928,-0.5973242,-0.92581075,-0.6011494,-0.55754083,-0.3222574,-0.30718452,-0.1856181,0.10888032,0.00022984765,-0.25866765,-0.49237382,-0.48795688,0.2300062,0.23578127,-0.052664455,0.5553857,0.76624554,0.5008104,-0.07874837,0.09877303,-0.03609504,-0.41148633,-0.43202248,-0.28407633,-0.64627075,-0.8269906,-0.76484835,0.41272637,0.51929,0.5652305,-0.12731421,-0.27184805,0.0013792729,0.2665685,0.6361781,0.5551064,0.4973431,0.16935459,0.37079382,0.5213283,0.58073664,-0.15678178,-0.110926196,-0.07904959,-0.16371027,0.09979556,0.038023718,0.04190514,0.077810206,0.046752494,0.10867728,0.025295276,-0.16959457,-0.5595278,-0.25520787,-0.19062556,-0.08648793,-0.19846119,0.1876171,-0.239276,0.097173564,0.24223623,-0.09087718,0.5812263,0.4361392,0.5063874,0.26585066,0.50626516,0.32239133,0.13753285,0.50511616,0.011778971,-0.8988668,-0.96590936,-0.7965302,-0.2197198,-0.4761403,-0.06670322,0.57378304,0.53683317,0.85124683,-0.016731452,-0.20539354,-0.42433482,-0.01698779,0.01615363,0.0986411,-0.027010089,-0.022868922,-0.11975187,-0.3391293,-0.4839581,-0.44323385,-0.043137662,-0.1109121,-0.02426957,-0.17150916,-0.023749432,0.09034782,-0.27388138,-0.07842653,-0.16850135,-0.18404688,-0.20558752,-0.21192932,-0.191399,0.110762216,0.0577575,-0.17016576,-0.11116182,0.04514469,0.13002007,-0.15634757,-0.12203143,0.07973255,0.0025615536,-0.048445374,0.3936796,0.31709802,0.35262114,-0.0461999,-0.4259381,-0.058074083,-0.011598114,-0.015879687,0.37974098,-4.15091e-39,7.902281e-39,-1.597556e-38,-2.477259e-39,-3.375434e-39,-6.877328e-39,-8.764077e-39,-8.405432e-39,9.35364e-40,0.23180982,0.68900084,0.29709426,0.25237054,0.19025299,0.4564498,-0.057298288,-0.20132096,-0.53022003,-0.4447978,-0.7584335,-0.9657506,-0.37539113,-0.37810826,-0.22058909,0.30480132,-0.0015506872,-0.274831,0.08498246,-0.22358274,-0.22518189,-0.36205387,-0.39034653,-0.60321385,-0.72707516,-0.91688085,-0.68199825,-0.11966685,-0.07180942,-0.22761464,-0.13639428,-0.17691745,-0.24645762,-0.16051424,0.052059762,0.10537366,0.048241194,0.059916195,-0.08157748,-0.14655483,-0.119197816,-0.22815995,0.20330131,0.30622214,0.17927964,1.0579452e-38,2.45481e-39,-1.045392e-39,1.1369306e-38,1.0471183e-38,-4.224293e-39,3.079615e-39,8.256088e-39,-4.842722e-39,-0.17960905,0.04215528,0.2196154,0.3226659,0.1100155,0.6003152,0.48277134,0.4837558,0.23182577,3.1258079e-37,1.9951113e-38,8.19187e-39,-2.693885e-37,2.286506e-39,-4.823733e-39,-1.6260718e-38,-2.1049524e-38,-3.956011e-39,0.20808822,0.22910438,0.3733705,0.09155247,-0.01046317,0.09637646,-0.14488837,-0.3376625,-0.18528633,-0.15688093,-0.09315446,-0.006932797,-0.44278985,-0.48037302,-0.22871248,-0.14995168,-0.46895075,-0.29823542,1.464111e-38,-1.1570603e-38,1.0547086e-38,5.830692e-39,8.604432e-39,-1.685188e-39,-3.062696e-39,2.853639e-39,-8.792299e-39,-0.22049217,-0.37531528,-0.3003399,0.325074,0.41217062,0.26046416,-0.08164992,-0.015087502,-0.39191532,0.64773136,0.30676562,0.41030434,0.07975021,0.21155311,0.35137257,0.258724,0.5478669,0.30890426,-0.11121279,0.39557043,0.1666625,-0.09717436,0.24166848,0.013994767,0.0150518995,0.96935767,0.42516586,-1.2439591e-38,4.93977e-40,-5.683902e-39,-5.046838e-39,-1.5879876e-38,1.5065695e-38,-9.671455e-39,1.8750486e-38,-4.373506e-39,-4.25056e-40,3.1520314e-37,-2.4629489e-37,8.690435e-39,-2.805517e-39,-1.295524e-39,4.072187e-39,6.58112e-39,8.339507e-39,-0.5367403,-0.30565438,-0.13765904,-0.31415704,-0.027097348,-0.23654488,0.05021483,-0.15702347,-0.25061035,0.008979472,0.10737632,0.000516564,-0.64057505,-0.5640977,-0.7362716,-0.55681103,-0.63414097,-0.23715454,1.782037e-39,-1.6721703e-38,5.050298e-39,-5.309687e-39,5.631097e-39,-1.488891e-39,1.497207e-38,-8.687947e-39,6.023786e-39,0.6817619,0.67843366,0.27404562,0.5063707,0.4727653,0.21547347,-0.23886664,-0.13926663,-0.0029135633,0.04261523,-0.12815501,-0.019037332,-0.13054295,-0.349174,-0.25415903,-0.10155449,-0.1365527,0.13332891,0.042274863,0.16143785,0.20631582,0.32070062,0.4545015,0.5789662,0.48965853,0.5907152,0.47631848,0.4268421,0.41666964,0.28787908,0.13808157,0.03860414,0.19593433,0.15421094,0.6522968,0.18613873,-0.4629226,-0.7611042,-0.3821176,-0.39547008,-0.66619015,-0.39790863,-0.35005108,-0.336764,-0.13884011,0.40158638,0.7068366,0.21105121,0.7033007,0.48576456,0.44177914,0.26743835,0.39036915,0.14346512,0.69282144,0.7183824,0.90034086,-0.1057606,-0.11643115,-0.37699202,-0.57844645,-0.33257452,-0.28066477,-0.31630373,-0.29037774,-0.16898948,-0.04192362,-0.19412728,-0.20042615,0.11976334,0.067574345,0.20995715,6.630766e-39,1.742749e-39,1.444946e-38,-1.6006426e-38,4.340012e-39,6.572771e-39,-4.622409e-39,2.0452894e-38,-9.341518e-39,-0.07496312,0.034265447,-0.086817905,-0.09646246,-0.0797471,-0.34822682,-0.59721106,-0.4016044,-0.4902056,0.050170265,-0.2943337,-0.24810764,-0.09950258,-0.5059633,-0.2624904,-0.24765964,-0.2436094,-0.34197843,0.28740218,0.26371723,0.1598718,-0.12799598,-0.3069824,-0.13383539,-0.32258162,-0.63250977,-0.29863903,0.104562245,-0.11667789,-0.0053009316,0.6329946,0.45029578,0.32965136,0.15285228,0.21288712,0.088744715,-0.22143789,-0.37101847,0.006720474,-0.15805738,-0.3444334,-0.2155134,0.067273855,0.20340002,0.090599336,-0.21319929,0.15773192,-0.17683257,0.09145658,0.11833731,-0.15306851,-0.29640353,-0.17507501,-0.48646972,0.26241583,0.58062756,0.32483235,0.49987486,0.76417655,0.5622267,-0.012728877,-0.17568865,-0.089932434,0.731821,0.775698,0.81103766,0.4265858,0.48286662,0.13417226,0.103732795,0.025474275,-0.19525945,0.21230483,0.09600875,0.3828629,0.497764,0.40059617,0.08410468,-0.35378045,-0.2016908,-0.5220172,-0.073057085,-0.13243853,0.11615907,-0.087625064,-0.09340283,0.10501206,0.21722667,0.28301698,0.44844294,-0.1769667,0.06203836,0.007128387,0.15661542,-0.17106438,0.12519789,0.1995707,0.39968652,0.21496367,0.15995817,0.30217898,-0.19230425,-0.0912982,0.017948745,0.13889618,-0.1571012,-0.0788787,-0.19861685,0.42534342,0.50776815,0.26725465,0.18714763,0.11263624,0.13854726,-0.4787027,-0.76765263,-0.4215593,0.2088762,0.24297896,0.38165295,-0.393589,-0.31294686,-0.33538145,-0.67722744,-0.60200053,-0.46102944,-0.11361597,0.008900408,0.055371642,0.071421444,0.035636313,-0.035648163,-0.3201256,-0.34371662,-0.40334767,-0.041492023,-0.120997824,0.07234994,-0.19253984,-0.06836245,0.13968882,-0.106927834,-0.2938961,-0.1624864,0.54247093,0.22925323,0.32983813,0.6269065,1.2865528,0.65616,0.56549096,0.77300674,0.3232648,-0.060065445,0.035956204,0.014704886,-0.2662179,-0.20814274,-0.46902454,-0.058299005,0.043248933,0.123081855,-0.2873925,-0.24138838,-0.09630421,0.26810664,0.29853958,0.44304743,-0.049250994,0.24219647,0.12700966,0.019414948,0.25773567,0.15277702,0.19043027,0.27625534,0.18102755,0.03319903,0.025247592,0.094248086,0.03119094,0.37306878,0.122079775,-0.07398648,0.559977,0.14569132,0.12834041,0.31282187,0.030968854,0.13884796,0.2222488,0.41108167,0.44320643,0.3604672,0.17924199,-0.07704007,0.029531445,-0.17823404,-0.3374387,-0.40627426,-0.3790367,-0.54665184,-0.64245385,-0.24474806,-0.14757961,-0.07311347,-0.021256337,-1.0910714e-38,2.400032e-39,3.6759167e-38,-1.385342e-38,-3.349494e-39,7.260115e-39,1.5043466e-38,-2.1604979e-38,-1.1800172e-38,0.03435772,-0.19945063,0.07705706,0.24627864,0.38703516,0.26270166,0.015572522,0.10303236,0.14064412,0.7607307,0.44992247,0.58694756,0.29570478,0.03485419,0.21956871,-0.24866213,-0.1674239,-0.118981756,-0.06677591,-0.3103236,-0.30501235,0.11859581,0.08398588,0.04638382,-0.03493611,-0.19412358,-0.15495315,-0.35960415,-0.4324665,-0.34405735,-0.72657865,-0.60253626,-0.6407157,-0.52073705,-0.3853151,-0.29731688,-0.5080514,-0.44483232,-0.27112144,0.07724218,0.45945942,0.24732035,0.06648693,0.41521886,0.26222903,-0.14963281,0.02532054,-0.14406498,0.18566662,0.22100216,0.3221668,0.2525276,0.33367866,0.14425714,-0.23433492,-0.23881392,0.08105911,0.07472735,0.24325584,0.30306777,-0.33344388,-0.11743807,0.029884977,-2.690857e-39,-2.403661e-39,-1.0925829e-38,3.190916e-39,-1.5997075e-38,1.3354848e-38,-2.0482589e-38,-7.170835e-39,-1.0316987e-38,0.53901166,0.58570445,0.4004772,0.8054796,0.62330544,0.7771645,-0.39454865,-0.066539474,-0.3862451,0.007927656,-0.16448845,-0.11391465,0.28087667,0.23623171,0.23118387,0.5894376,0.57277936,0.45567372,-0.2702207,-0.06698157,-0.23155805,0.4308804,0.6519205,0.39221767,0.5574573,0.5600422,0.34197333,0.025718747,0.01862465,-0.17251669,-0.26552048,-0.34506577,-0.15286592,-0.2743708,-0.15731655,-0.010097948,0.0492069,0.21517251,-0.04454112,0.2706531,0.61671203,0.60644925,0.2063867,0.26328656,0.43233868,-0.18961276,-0.27565023,-0.16717184,-0.026625032,-0.079251684,0.14294653,-0.037720773,0.03015118,0.16975501,-0.3111804,-0.34549364,-0.24157913,0.08756485,0.09062247,0.040018026,0.30230495,0.21944329,-0.011796728,-0.02857688,-0.21502487,0.015627693,-0.4429919,-0.700552,-0.5637423,-0.11293669,-0.52100855,-0.2615364,-0.4017692,-0.632775,-0.292257,-0.07037161,-0.13193248,0.025934875,0.25904205,0.33353937,0.24340624,0.38204262,0.47477505,0.3498383,0.15790157,0.10533804,0.1265935,0.11943326,0.13276987,0.08382061,-0.260202,-0.15965974,-0.39515302,0.08614175,0.30262357,0.09335709,-0.037812144,-0.11879321,-0.21280868,-0.07563745,-0.22086199,-0.22590478,0.030753337,0.014534468,-0.14396496,0.18111543,0.21938659,0.13332044,-0.29439414,-0.39302844,-0.27004272,-0.6857813,-0.40948045,-0.39677778,0.574627,0.755415,0.5478053,-0.09588331,-0.5479848,-0.47226873,0.044951193,-0.124760024,-0.07221018,0.069312334,0.016465025,0.11586447,-0.027440187,-0.14760138,-0.19724362,0.53224427,0.66605407,0.3773226,0.3527168,0.6552198,0.38245726,-0.38953683,-0.61922854,-0.46146286,-0.3330061,-0.3562187,-0.4091575,-0.36425942,-0.07303576,-0.093193665,-0.14306478,-0.28316024,0.08318975,-0.13244416,-0.17577672,-0.19170323,-0.5128891,-0.5314112,-0.44788754,0.23544535,0.07270645,0.13304766,0.32052857,0.25734508,0.49741155,0.13548851,0.18449618,0.16946402,-0.1880281,-0.4067534,-0.43825933,0.19323167,-0.09469695,-0.19080138,-0.29701766,-0.14123856,0.23906301,-1.711815e-39,-1.8661351e-38,1.2211373e-38,-1.152293e-38,-6.173e-39,1.8313441e-38,-9.012915e-39,1.1234204e-38,5.192289e-39,-0.17492288,-0.4534148,-0.31976885,-0.025791679,-0.08990936,-0.25750872,0.13292423,0.12804581,-0.2776349,0.2872958,0.19112293,0.1970448,0.22989471,0.17591609,-0.0027349342,-0.44178617,-0.22747412,-0.15753713,-0.06656591,-0.09846526,0.058434516,-0.08331366,-0.49338278,-0.29875487,0.2587371,0.026312865,0.34282812,-0.10269757,-0.031957075,-0.14493224,-0.2257092,-0.15187049,-0.23934828,0.09634519,0.15673038,0.29118448,0.007892985,-0.07937835,-0.13939579,0.23164907,0.22736135,0.13999964,-0.5700545,-0.5422572,-0.31406283,-0.12293711,-0.12349727,0.117777415,-0.11154226,-0.38735253,-0.05979377,0.04712137,-0.12419729,0.0038819695,0.14129515,0.28688675,0.16511744,0.44198838,0.7153758,0.3908975,0.29851878,0.18038197,0.118417285,-0.07303095,-0.013944521,-0.29539156,-0.014089864,-0.08718068,-0.06958569,-0.21073952,-0.43012747,-0.31687087,-0.3416965,-0.2658454,-0.09664352,-0.17941798,-0.03293146,0.34988502,-0.045893766,-0.102099635,0.17082462,-0.044766154,-0.07979269,0.0052676955,-0.20611888,0.16408923,0.043228645,-0.253746,-0.112183124,-0.083385214,-0.0036163512,-0.009223555,-0.11247085,0.029856548,-0.2965418,-0.28075278,-0.050736684,-0.61802185,-0.2647059,-0.25271285,-0.23027372,-0.19917811,-0.17913689,0.15581858,-0.16339089,0.09778626,0.17056753,-0.09011635,1.6422663e-38,-9.646714e-39,1.8560383e-38,1.0888647e-38,3.249046e-39,-8.623291e-39,5.276271e-39,1.0407156e-38,-5.62258e-39,-0.07436264,0.04066422,0.12486492,-0.15637948,-2.5843461e-05,0.0023076115,0.073695496,0.11744678,0.35208952,0.13821992,0.23618342,0.36962256,0.117625214,0.030747874,0.17076898,0.021617886,-0.37071756,-0.06461317,-0.06251826,0.022813266,-0.09360116,0.049165297,0.090119496,-0.09902854,0.08452333,0.19491364,0.20145424,0.0039577587,-0.07375887,0.03659709,-0.22606464,-0.13139324,-0.14405692,-0.089609995,-0.23200758,-0.15747948,-0.047921844,-0.17733605,-0.026431054,-0.21588075,-0.08556993,-0.08190807,-0.051804606,0.16352989,-0.004084695,0.40442282,0.32342485,0.25873435,0.25941962,0.4719388,0.3170674,0.027363641,-0.13807629,-0.07605811,-0.07435986,0.04538443,0.19128363,0.06795928,-0.0032372463,0.1208572,0.43623424,0.78126687,0.5917193,0.39066616,0.6810973,0.33242077,-0.13184366,-0.14653002,-0.2774926,-0.101366855,-0.020666333,-0.106373504,-0.11443923,0.07376367,-0.044628046,0.30115202,0.76093835,0.4070135,0.27896553,0.53390175,0.28359365,-0.13216782,-0.06375435,0.028315049,0.013977235,0.22461426,-0.120845124,0.18648165,0.04060105,-0.0034796207,0.34586263,0.38572538,0.06487213,0.33202866,0.42620572,0.28463143,-0.3538838,-0.2223348,-0.45019665,-0.15442462,-0.3901236,-0.20273654,0.010601698,0.071530975,0.057700742,0.2720219,0.16616116,0.06013844,0.018967727,0.19953777,0.19895534,0.28721157,1.0156332,0.803237,-0.17219944,0.3507661,0.017036324,-0.17169064,-0.20139384,-0.054816447,-0.038650945,-0.19550724,0.007830316,-0.22547133,-0.113350645,-0.209847,0.23873013,0.14232922,-0.050231468,-0.27406666,-0.13357934,-0.07399396,0.11792207,0.3244868,0.22560245,-0.38225132,-0.5854685,-0.3060102,-0.3244987,-0.23796755,-0.42140645,-0.43998322,-0.2935363,-0.43117574,-0.0024531786,0.041458018,0.0068052365,0.16485903,0.18665797,0.19918646,0.11434255,-0.10014075,0.12573522,0.020759223,0.42232266,0.343493,-0.03022339,0.3133135,0.18886809,-0.099604554,0.15027891,0.03955603,-0.03354796,0.04577647,-0.21797055,-0.14741653,-0.07223694,-0.027717976,-0.20382078,-0.08177224,0.16883928,-0.32392102,-0.25651512,-0.07508236,-0.6854369,-0.62233585,-0.38466308,-0.36795583,-0.18718982,-0.25115302,-0.30231816,-0.7136582,-0.34914213,0.3014592,-0.016628165,0.23905733,-0.24434553,-0.46028233,-0.24279743,-0.22167106,-0.06212198,-0.2816859,-0.14148006,-0.06795939,-0.21119143,0.074430585,-0.06302813,-0.087584086,0.5120055,0.05829638,0.2672007,0.045960125,-0.45197678,-0.20015298,-0.25925794,-0.4416607,-0.43315008,-0.046773545,0.20683277,0.121596135,-0.23639008,-0.2496964,-0.15725042,-0.5091211,-0.7337022,-0.43467402,-0.17077109,-0.018077506,-0.20057112,0.040587384,0.2293332,0.32597938,-0.06709511,-0.09768462,0.12528066,-0.6196678,-0.7393868,-0.34007546,-0.2530483,-0.37647188,-0.13422155,-0.58542687,-0.7188939,-0.2339374,0.37115037,0.055736814,0.10563095,-0.16965923,-0.35592568,-0.038159262,0.25177845,-0.022408998,0.54116976,-0.22215767,-0.2905295,-0.10490039,-0.85017836,-0.8154184,-0.8898771,-0.5691442,-0.66649,-0.7836061,0.023052016,0.01308271,-0.15346992,0.21243218,0.31222394,0.013163448,0.41508812,0.4237678,-0.15897095,-0.092405155,-0.1477268,-0.10576335,-0.42537126,-0.26555765,-0.4598391,-0.060128026,-0.19995455,0.08324631,-0.4366313,-0.3258168,-0.5814938,-0.44733042,-0.35808566,-0.3088267,-0.052194443,-0.10405336,-0.38101143,0.42454678,0.19514365,0.3845434,-0.08009545,-0.052173734,-0.1444806,-0.13965374,-0.26219937,-0.13850084,0.18552376,0.024124233,0.09448394,0.19726567,0.13852428,0.36600372,-0.15140462,-0.17850581,0.029561458,-0.2108577,-0.11156321,-0.14636007,0.16733353,0.2931867,0.34335956,0.34314477,0.002760698,0.23250552,-7.21316e-40,-1.7646986e-38,-7.04011e-39,-3.695843e-39,3.55031e-39,-1.7081935e-38,-7.879004e-39,3.833901e-39,1.710164e-39,-0.050813287,-0.052816793,0.0826796,-0.06889133,-0.17416103,0.08626971,-0.097537525,-0.0718267,-0.05508125,0.1607927,0.27005798,0.5375049,-0.21713847,-0.101256825,0.0911509,-0.18544436,-0.27258894,-0.3420277,0.173517,0.15930966,0.25483975,0.60948694,0.7530692,0.45891392,0.5929063,0.714704,0.20603402,0.51976997,0.2770864,0.37068856,0.19585003,0.18623345,-0.1331165,-0.39133784,-0.37400836,-0.35711807,-0.24380614,-0.3691131,-0.14632094,-0.17283486,0.14366674,0.13138615,0.25768703,0.45670173,0.2538175,-3.668979e-39,-9.637775e-39,1.1165695e-38,-5.661588e-39,-1.555329e-38,7.044058e-39,-1.7091871e-38,-2.459546e-39,9.63994e-39,0.12600872,0.05809176,0.08100317,-0.19388586,-0.6802225,-0.30981106,-0.15510401,0.09640358,0.38504294,2.55166e-39,1.5841653e-38,3.464803e-39,1.6521044e-38,3.708971e-39,-3.231774e-39,-2.0924283e-38,1.7694301e-38,8.409832e-39,0.08673594,0.28419626,0.12717153,-0.09426434,0.06572272,-0.05238238,-0.32585725,-0.37083432,-0.49886152,-0.35761207,-0.25983736,-0.2493593,0.062887944,0.058740187,0.09863593,-0.025093252,-0.21697344,-0.24347807,2.3331364e-37,-2.6949512e-37,1.8520244e-38,7.600832e-39,8.285802e-39,3.217425e-39,-6.643162e-39,2.9730834e-37,-3.311062e-37,-0.32784843,-0.038809203,-0.10022246,-0.3053152,-0.118758,-0.105432846,-0.42580295,-0.18508476,-0.38705295,0.2898728,0.18823712,0.1259126,0.37702093,0.22475275,0.28335363,0.07913318,-0.20713292,0.07080773,-0.08802049,-0.19967753,0.07443984,-0.041106958,0.21380813,0.11103806,0.13313138,0.28863567,0.22741635,-1.401845e-39,9.267539e-39,6.57937e-39,-8.830334e-39,1.4962795e-38,3.949358e-39,1.1154156e-38,9.872836e-39,-5.562554e-39,4.694868e-39,1.1779389e-38,1.0087714e-38,-1.9365998e-38,1.4496448e-38,2.25934e-39,-2.993094e-39,-1.1536121e-38,-1.5879558e-38,-0.02379488,-0.25903323,-0.3060833,0.19827607,0.07218516,0.06539526,0.45527205,0.23118721,0.55663735,-0.099338114,-0.06610337,-0.12742175,-0.018951928,-0.14093247,-0.20580745,-0.18040204,-0.027496235,-0.23425193,-1.2394474e-38,1.7127443e-38,-9.45894e-39,-3.07582e-39,-1.300154e-39,4.856543e-39,-1.6448474e-38,-1.1803843e-38,-8.069132e-39,0.034373347,-0.22057116,0.016926358,0.15589915,0.21028005,0.020402737,0.12839662,0.06408437,0.106550835,-0.048726734,0.4403864,0.22133547,0.15040489,0.6503835,0.31405097,0.021778038,0.5036816,0.27774557,-0.033831775,-0.25244835,-0.10885341,0.24445935,-0.0434759,-0.008861818,0.4016627,0.11639927,0.2748866,-0.4347615,-0.3144633,-0.38470665,0.15502639,0.029524269,0.22704619,-0.07898385,0.15434588,-0.03375721,0.5932208,0.669773,0.8344536,0.26885104,0.25539008,0.38993323,0.14333367,0.083930425,0.19078556,0.008221364,0.07413962,0.0049050986,0.46560898,0.12526777,0.20366393,0.15376338,0.17912082,0.12512945,-0.12863193,-0.31645995,-0.17099117,-0.009671876,0.02086949,0.00525074,0.107649416,0.20759156,0.19758977,-0.52128965,-0.20491873,-0.418076,-0.15520065,-0.054030146,-0.24375938,-0.39885402,-0.14011016,-0.27967808,1.1169005e-38,6.473688e-39,8.114037e-39,-6.486393e-39,1.863926e-39,-1.0916715e-38,2.303592e-39,-8.621654e-39,-2.0342843e-38,0.21164785,0.25941893,0.24571058,-0.049916036,-0.011058549,0.14691485,-0.2557495,-0.42134598,-0.13299479,0.071650065,0.07058942,0.13426794,0.04149576,0.08197768,-0.003041794,0.50204414,0.38039204,0.49328336,-0.1822217,-0.39276943,-0.235226,0.12166392,0.013226058,0.26736748,-0.20851739,-0.31510085,-0.04032588,0.07486935,0.14871012,0.24615613,0.026086533,0.06362414,-0.040699307,0.029184615,0.00069194665,0.14015883,0.1918546,-0.19407964,-0.13749759,0.30817994,0.044473868,-0.06727193,0.16804935,-0.014400815,-0.022597529,0.027738892,-0.15320301,-0.016690113,-0.23943523,-0.6520927,-0.4286056,0.26737964,0.09866669,0.10968247,0.056443058,0.054075498,-0.02411337,0.16478516,0.56487745,0.12906519,-0.012848371,0.14914465,-0.09877604,-0.37753108,-0.27445066,-0.26533744,-0.09862617,-0.35691762,-0.16936204,-0.30777425,-0.5116715,-0.6196569,0.16981542,-0.0058036973,0.18581831,-0.05033503,-0.043275457,-0.047307983,0.03759695,0.016682956,0.21797223,0.36548874,0.11321107,0.13347402,-0.1262261,-0.07603646,0.03870843,0.5396908,0.3220165,0.6557755,0.18728365,0.30300456,0.20872357,0.24632467,0.14941847,0.06697469,0.12077612,-0.044581823,0.042646833,0.09945827,0.10957092,0.054185912,0.11732303,-0.19169505,-0.074602045,0.48077026,0.25562623,0.39003837,-0.24335407,-0.58637863,-0.4539814,-0.31594184,-0.35664013,-0.40122443,0.37868762,0.11307072,0.011089831,-0.32562858,-0.24035093,-0.23759474,-0.4360899,-0.21840969,-0.28167644,-0.10363264,-0.21059506,-0.2537459,0.036269207,-0.09206065,-0.039096154,-0.4504553,-0.5263299,-0.46081036,-0.50051814,-0.68784124,-0.5640666,-0.06466582,0.030875277,0.08550944,-0.23447916,0.08836804,0.14848888,-0.11774162,-0.17341582,-0.0704572,-0.20199959,-0.2173671,0.011813264,-0.06750219,-0.27960375,-0.14427981,0.17819753,0.12369487,0.26490626,0.09660926,0.1098007,0.12320798,0.38156995,0.4598685,0.33610064,-0.012406024,-0.0027258776,0.056954548,0.047758404,0.031253766,-0.010709053,-0.08110951,-0.071839415,-0.048074674,-0.09827935,-0.065019116,0.013810232,-0.24677077,-0.3062121,-0.19669147,-0.2939753,-0.08376562,-0.19869837,0.50389993,0.4574656,0.6109999,0.2999973,0.4521862,0.36718616,0.074203886,0.07090467,0.14294773,-0.20635548,-0.4686568,-0.3093249,-0.26012084,-0.19508387,-0.16479377,0.35572115,0.34782282,0.1200312,0.6616673,0.812645,0.6955527,0.6172565,0.4781839,0.6352612,0.29586035,0.3479848,0.13302892,-0.2678462,-0.35754785,-0.2561727,-3.5160358e-38,2.891614e-39,-6.315708e-39,-4.081477e-39,-4.288098e-39,1.549037e-39,3.59301e-40,-2.9724665e-38,-8.983184e-39,-0.02348966,-0.2596931,-0.29411092,-0.026061488,-0.06075308,0.25293657,-0.036764786,-0.12836376,-0.0035227626,0.4699964,0.7288516,0.37585244,0.40807322,0.4434982,0.33173683,0.056583814,0.44245654,0.2870817,-0.16376066,-0.24803002,-0.27663964,0.18208547,0.21027063,-0.075540915,-0.19566496,-0.365926,-0.6659702,-0.1162453,-0.20180076,-0.1316602,-0.12875292,0.12697582,0.18050528,0.2012811,0.34371004,0.3739571,0.065046355,0.25512525,0.16658998,0.31438774,0.62681353,0.2821031,0.033495344,-0.25679922,-0.27836928,-0.0748604,-0.09055584,0.1322244,0.2619742,0.32858598,0.2205667,-0.17710155,-0.32238126,-0.21058203,0.5606418,0.47992462,0.28628728,0.3072907,0.029626742,-0.06361707,-0.234312,-0.48881444,-0.49531278,-1.2329634e-38,-1.3278413e-38,-1.2957241e-38,-6.909291e-39,-6.292392e-39,-9.418878e-39,9.121978e-39,-1.3083133e-38,-9.870748e-39,0.13080853,0.035645124,0.16443202,0.14081706,0.12577707,0.16300075,0.060836013,0.27070054,0.27925998,0.35525662,0.39580896,0.5279387,-0.07182297,-0.13596407,0.13322839,-0.13094422,-0.200833,-0.025002085,0.182454,0.045175917,0.1124392,-0.23061186,-0.24312311,-0.38896832,-0.1401223,0.21667509,0.23204765,0.35366696,0.4159445,0.09638565,0.8629267,1.0617414,0.8266729,0.3894589,0.7914353,0.49417356,-0.044674575,0.10683927,8.501616e-05,0.035546422,-0.022221696,-0.20718384,0.49292672,0.3579636,0.24395253,0.25210077,0.23657861,0.23405032,0.12183986,0.10796969,0.021319991,0.38051164,-0.15008937,-0.16903827,-0.060245167,-0.24552278,-0.34241426,-0.08074898,-0.41707748,-0.32066774,-0.15253533,-0.29437527,-0.45658308,-0.073380955,0.06931077,0.11336504,-0.20338273,-0.44665962,-0.054519545,0.121726975,-0.011512893,0.12284384,-0.43042627,-0.18972665,-0.24962436,0.107387796,0.28265095,0.07048387,0.29939976,0.43686602,0.20441733,-0.24454497,-0.55270004,-0.48147213,-0.5482919,-0.7439449,-0.29593587,-0.43835044,-0.8474311,-0.4153233,-0.005612757,0.09905935,-0.06702495,0.03491625,-0.08436614,0.012867609,-0.19775367,-0.31580302,-0.36362183,0.3151039,0.33398324,0.26230067,-0.20017754,-0.5264415,-0.27696297,-0.19244602,-0.42943633,-0.075580105,-0.20134972,-0.40151793,-0.25532818,0.17866465,-0.09381676,0.14322682,-0.08978553,0.10264398,-0.15528777,0.31897008,0.26298276,0.105481826,0.5082916,0.38989398,0.5489295,0.41055846,0.95036346,0.6413177,0.27851596,0.06158944,0.014769022,0.26524508,-0.17185432,-0.09107662,-0.19729315,-0.36035645,-0.19393715,0.31597057,0.29503694,0.29888064,0.047482695,-0.2724328,-0.04373825,-0.028087214,-0.40847328,-0.032582533,-0.26995826,-0.12362758,-0.4486029,-0.004451887,0.3526837,0.0878416,-0.23763582,0.20246083,0.1501242,-0.41149417,-0.30632895,-0.259688,-0.65493137,-0.46663833,-0.5736317,-0.46640354,-0.19386256,-0.42449957,-0.09090987,-0.13874196,-0.04015706,0.122468725,-0.08239949,-0.23040213,-0.16262606,-0.016811613,-0.08911062,1.628208e-39,-8.598671e-39,1.66818e-40,-1.310007e-39,-6.79811e-39,-7.844701e-39,4.395824e-39,-6.145933e-39,1.7330817e-38,0.036894955,0.01902265,0.15164721,0.0018458343,0.14597274,0.027637968,-0.6059036,-0.3355209,-0.3379012,-0.2797225,-0.45767665,-0.28569707,0.44675,0.47500774,0.16250102,0.6152422,0.3224208,0.38745812,0.022604177,-0.060912464,0.14289813,0.38150147,0.120607376,0.37761694,0.03345575,-0.102407984,0.18172829,0.07803085,0.1614689,0.115231775,0.42634356,0.8322189,0.5326542,0.4711815,0.63562816,0.44403806,0.4814862,0.5758663,0.44895995,-0.15258032,-0.12283382,-0.084601335,-0.21157354,-0.091442734,-0.27736092,-0.24791257,-0.40322763,-0.27864325,0.61337715,0.28951436,0.446451,0.58751756,0.32568496,0.40523025,-0.28858733,-0.32127735,-0.19637178,-0.058780406,0.17997853,0.07627552,-0.07594188,0.3307167,0.10120022,-0.01869855,0.082756765,0.19061993,-0.2234648,0.21037386,0.08356983,-0.21974409,0.09889354,-0.14943986,-0.11818015,-0.15015921,-0.032032445,-0.10297444,-0.17369948,0.14414689,0.31559047,0.42901963,0.50924754,-0.2674748,-0.22446758,-0.12700062,-0.17012964,-0.11328414,-0.14494228,-0.21185142,0.09803664,0.055699926,0.5018549,0.6586666,0.42373607,0.15318406,0.25182113,0.09798999,-0.0010623038,0.21717985,0.36709726,-0.048823357,0.04991597,0.049455144,0.2677197,0.33280763,0.24294609,-0.2604496,-0.19543253,-0.3028615,1.5490919e-38,-1.163658e-39,-1.5953534e-38,4.01857e-40,-4.712439e-39,7.875543e-39,-1.1183703e-38,1.1116006e-38,-4.871985e-39,0.6014402,0.45031455,0.68688977,0.79985416,0.20825797,0.7887836,-0.07491675,-0.42773846,0.24355513,-0.40825397,-0.4481792,-0.27823287,-0.16330159,-0.23397332,-0.24664335,-0.14366311,0.10551413,-0.18541571,0.2867067,0.5396958,0.32246745,0.1158718,0.08075585,-0.08069439,0.35137546,0.31686673,0.09169368,0.01978854,0.17966852,0.22353125,0.24648927,0.2222104,0.20157948,-0.28373566,-0.08326573,-0.26586,0.13175628,0.39455763,0.13699186,0.18299776,0.46800244,0.13051322,-0.031318244,0.03331779,0.1722051,-0.08967253,-0.10950552,0.01867902,-0.4739921,-0.33436194,-0.23727886,-0.2834465,0.068228155,0.007579228,0.118289866,0.17169477,-0.026763102,0.02012138,0.101222254,0.06435245,-0.39316216,-0.3088245,-0.39376673,-0.42475086,-0.5203975,-0.63945866,-0.419122,-0.32454488,-0.39847898,-0.07451439,0.06874627,-0.049852557,-0.15184772,-0.006039048,-0.025417628,-0.60965043,-0.42982504,-0.4923643,-0.35786498,-0.39509502,-0.26673594,0.7537156,0.7534356,0.42971718,0.626408,0.9210184,0.6849318,0.27791443,0.57112116,0.47156286,0.09111354,-0.108806,0.12589467,0.13355713,0.15691152,0.041714687,0.35501716,0.76929444,0.36465594,0.3749593,0.34445038,-0.09570639,0.3569713,0.6832184,0.025954416,-0.16201133,0.53929174,-0.10965192,-0.30753866,-0.2459028,-0.31821817,-0.0043848646,-0.062090565,-0.3046375,-0.10349742,-0.21772283,-0.22011006,-0.23120293,-0.48793456,-0.37171313,-0.14775105,0.013572179,0.12533568,0.11934751,-0.008634666,0.22867697,-0.30366877,-0.054427955,0.05100006,-0.2891514,-0.34810606,-0.15573835,-0.20051573,-0.48231423,-0.3898973,0.32431993,0.24306461,0.044312418,0.48619547,0.016675876,0.25930074,0.12735489,-0.11782457,0.08050916,0.15065813,0.21007967,0.2191213,-0.19939539,-0.38126034,-0.17487055,-0.094508,-0.31601647,-0.28706613,0.07331976,0.49975964,0.24233751,0.18671162,0.45136395,0.18993321,0.017534524,0.091045655,-0.061051894,-0.21141466,-0.025998984,0.02438729,0.3435147,0.40788382,0.5316791,0.12526238,0.10020675,0.3042644,-0.28516683,-0.36144945,-0.45789635,-0.21366177,-0.018328143,-0.30512774,-0.08988176,0.49887824,0.12987138,0.10917795,0.25306216,0.21843843,-0.3769564,-0.35496938,-0.15226991,-0.41767043,-0.39020532,-0.23487493,0.026452323,0.1114047,0.015527218,-0.044458035,-0.0919315,-0.005712879,-0.07858917,-0.061609507,-0.16357511,-0.42825207,-0.2672778,-0.5015924,-0.13003531,-0.029698972,-0.24762054,-0.09893554,-0.14025739,-0.32310605,0.17473282,0.1616613,0.05294708,0.23377214,0.12989998,0.18979903,0.3141125,0.37946698,0.20903926,0.43925154,0.5811637,0.6065363,1.0657126,1.1441289,0.8667842,0.18557677,0.051822495,0.072163105,0.12922283,-0.1101991,0.22466546,-0.008098324,0.41040245,0.1709864,0.09752743,0.3232701,0.23990948,-0.39964223,-0.57948375,-0.5248266,-0.46795312,-0.46527293,-0.4341149,-0.3693669,-0.22033069,-0.20687555,-0.107941404,0.13578519,0.01800512,0.0091053285,0.038509104,-0.1913035,0.1396979,0.29604658,-0.17860249,-0.065779194,-0.38970113,-0.046983328,0.4724828,0.2912556,0.44990075,0.70014423,0.62190735,0.97773236,0.18437102,0.26463187,0.24528137,-0.003566164,0.06215531,0.025198894,-0.31052348,-0.083198056,-0.42989725,-0.085696824,-0.20811668,0.028005468,-0.27457887,-0.42380765,-0.085335925,-0.052189916,0.04961035,0.1709635,0.1830755,-0.06472274,0.08636491,-0.10232013,-0.1865664,0.07762462,-0.15951212,-0.044373594,0.14389849,0.711149,0.75643504,0.6851774,0.33634904,0.4059161,0.08792033,-0.09310669,-0.08707521,-0.30214885,-0.22751042,-0.42908403,-0.09249561,0.48254684,0.34830618,0.39792725,0.31963947,0.60964215,0.56534564,7.95093e-40,1.674608e-38,6.551171e-39,6.85119e-39,1.0877424e-38,5.889812e-39,5.112524e-39,-6.15614e-40,8.221335e-39,0.17456372,0.28288776,0.1251284,-0.06740553,0.1117576,0.15239334,-0.22632973,-0.19945313,-0.41478145,-0.16900653,-0.02798123,-0.12816907,0.2023508,0.09646419,-0.091296546,-0.17153822,-0.6608531,-0.71769327,-0.29239973,-0.06073176,0.0016545415,0.0054203733,0.07524807,-0.09679108,-0.16123031,-0.10919909,-0.1785072,0.5476565,0.394618,0.246308,0.4906023,0.3759245,0.31524,0.18729357,0.13368131,0.10765848,0.2705007,-0.056773182,0.2367177,0.42018908,0.010198275,0.12971722,0.19430092,0.064315006,0.51449835,1.410364e-38,-4.029281e-39,3.007971e-39,-1.1394915e-38,-7.023597e-39,2.428099e-39,-2.960736e-39,5.965805e-39,1.3216226e-38,-0.33540788,-0.14993256,-0.44813484,0.4808371,0.6307288,0.43172905,0.5745393,0.63008535,0.31308633,-3.3654216e-37,-8.8162e-40,-6.989132e-39,6.019426e-39,1.3211037e-38,2.7239155e-37,3.237353e-37,1.602734e-39,-2.0489096e-37,-0.05582385,-0.1376377,-0.17757885,-0.24613729,-0.15341936,-0.31925783,-0.21368131,-0.0006471996,0.034694463,-0.07956624,-0.34809333,-0.27434495,-0.23828132,-0.590683,-0.34360063,0.11925408,-0.091430426,-0.025431644,-1.3703215e-38,-3.699197e-39,3.4964477e-37,3.6928513e-37,-3.917803e-39,1.4302363e-38,-8.455149e-39,5.864249e-39,-1.7686887e-38,0.52189684,0.54613876,0.37619346,0.99620396,1.099121,1.0717992,0.23733333,-0.11027661,0.48283073,0.13487698,0.1812499,0.08520491,0.43791565,0.49805558,0.05764104,-0.1503828,-0.1703162,-0.26695246,-0.32675716,-0.20417102,-0.40264973,0.10713826,0.33907068,-0.10041888,0.37070096,0.34487915,-0.025778065,-1.4163144e-38,1.428837e-39,1.5153157e-38,-5.486664e-39,1.0886178e-38,-9.673062e-39,-5.827326e-39,-7.381865e-39,-1.1164644e-38,1.1701696e-38,1.7809e-40,9.329418e-39,1.6601362e-38,-1.1569047e-38,3.509946e-39,-7.17725e-40,-5.172906e-39,-5.47091e-39,-0.31740236,-0.5055734,-0.47763157,-0.22553982,-0.22765304,0.107466094,0.21496992,0.14716217,0.28764483,0.20029017,0.47704905,0.3756857,0.18064304,0.49921227,0.3765724,-0.3679879,-0.016073687,-0.31149974,2.8649e-40,3.546012e-39,-1.4394138e-38,1.8528867e-38,-7.767497e-39,3.431e-40,1.0571669e-38,-1.8069573e-38,1.545562e-39,-0.042957913,0.23555537,-0.058027156,-0.17256698,0.029081343,-0.13407229,0.052814797,0.09062587,-0.096816726,0.10018621,-0.12606542,-0.014512923,-0.08438034,-0.032344885,0.120000854,0.118493974,-0.18461306,0.31536156,0.045186058,-0.24522851,-0.29862455,-0.105779804,-0.18876363,-0.041564386,-0.14558429,-0.14262259,-0.18922673,-0.36098468,-0.45833617,-0.46598944,0.28489497,0.27133217,0.18632987,0.59827787,0.6906133,0.8103386,-0.106248684,0.20258732,0.35049552,-0.0065489397,0.18073478,-0.05174509,-0.060950223,0.016230822,-0.22792682,-0.014663077,0.046932746,-0.007649602,-0.07688713,-0.22768952,-0.15307151,-0.29524782,-0.36047626,-0.19026877,0.040906634,-0.024902565,-0.13566959,0.45956093,-0.0810724,0.01741621,-0.35446346,-0.60700566,-0.39691132,-0.5949634,-0.38895854,-0.45566595,0.06605936,0.2895185,-0.038639188,-0.057907604,0.18921457,0.15521859,4.87662e-40,-2.276545e-39,1.0099169e-38,5.409082e-39,-6.221041e-39,-9.955773e-39,2.65023e-40,2.115759e-39,-4.683037e-39,-0.47584572,0.050155725,0.0002109872,-0.056501634,0.11982247,-0.0237105,0.041953325,-0.20843194,0.082392484,-0.13189478,-0.1510982,-0.19502397,0.49893132,0.3366912,0.27875134,0.2843373,0.06526354,0.10444983,-0.11736946,-0.1928207,-0.38735306,0.5002203,0.40058059,0.09920086,0.37181008,0.33510235,0.098204985,0.14103338,0.0817436,0.03163054,0.29927197,0.12406486,0.049614258,0.054286264,-0.16502976,-0.1634821,-0.0052957623,0.26386642,0.058788,-0.16004264,-0.24706464,-0.52192605,-0.24182041,-0.26778266,-0.17240834,-0.07893908,-0.11624158,0.09080742,-0.30356666,-0.60425484,-0.34785533,0.14273052,-0.02038895,0.048980888,0.250936,0.16078894,0.32251504,0.27766585,0.046670374,0.21258381,0.011618455,0.0787341,0.091057375,-0.5452658,-0.38051513,-0.4239785,-0.60123414,-0.82185394,-0.6821983,-0.3255183,-0.27760932,-0.29040712,0.034368,0.4246633,-0.10034275,0.36563146,0.62639654,0.4634223,0.34553114,0.5421106,0.116218075,-0.04058401,-0.047728356,0.13912337,0.12686606,0.23449403,0.263388,-0.01029677,0.11684974,0.0824837,0.23801662,0.22917177,0.16905381,0.0213309,-0.27628058,-0.23131587,0.0055525787,0.04322458,-0.002948557,0.94905967,1.1703842,1.1601558,0.17994052,0.8330229,0.12505537,-0.18948361,-0.008871518,-0.41298977,0.37125123,0.4117452,0.31265473,0.4887625,0.5973113,0.32159346,-0.4198897,-0.41455773,-0.72469634,-0.19813111,-0.22827153,-0.34790078,0.0050609643,-0.19923367,-0.22004935,-0.13640587,-0.30638978,-0.20540796,-0.1621218,-0.22138585,-0.20368172,-0.17474595,-0.14993618,0.009010829,-0.51884437,-0.49328005,-0.42761123,-0.42095616,-0.4547581,-0.5272143,-0.14743344,-0.265321,-0.14721735,-0.16094798,-0.2390473,-0.22899579,-0.17003666,0.09276871,-0.011512465,0.075911894,-8.870483e-05,-0.03301745,0.2950543,-0.021247964,-0.04698562,-0.5029005,-0.43140548,-0.5852457,-0.63508016,-0.6913495,-0.27654016,-0.5812322,-0.44463456,-0.17005675,-0.45658293,-0.5553983,-0.48874593,-0.67339253,-0.90836155,-0.8718105,-0.1330803,-0.21852149,-0.053590786,0.35264206,0.347998,0.26926678,0.35244435,0.67027986,0.3556075,-0.053624388,0.27296603,-0.2007199,-0.09032559,0.13840368,0.16507757,-0.5824081,-0.6791804,-0.43881476,-0.21344768,-0.3623583,-0.19159406,-0.09313339,-0.07549056,-0.14780456,-0.19403641,-0.29421028,-0.23054387,-0.019411735,-0.11894549,-0.20747545,-0.34225813,-0.2691347,-0.20481397,-0.21501558,-0.3205381,-0.12365196,-0.17022575,0.028295623,-0.012821273,1.5146764e-38,2.1382266e-38,1.6898194e-38,-2.95104e-40,-5.11713e-39,-3.710343e-39,1.2878324e-38,-2.213536e-39,3.69549e-39,-0.026252307,-0.19407374,0.050267722,0.035054054,-0.21395932,-0.038451187,-0.22349592,-0.41952834,-0.3856704,-0.3664315,-0.545332,-0.24459527,0.07952347,-0.14946413,0.20732538,0.2108632,0.024843704,0.38010862,-0.2173703,0.38072124,0.053080685,-0.37957376,0.14786589,-0.12294451,-0.55601126,-0.16768575,-0.45809302,0.59931666,0.42038998,0.5050939,0.72950083,0.7825173,0.7137447,0.224729,0.35237327,0.34165743,-0.61316407,-0.57923937,-0.75097394,-0.7434996,-0.777785,-0.7919717,-0.025335005,-0.022364473,0.043055322,-0.5273881,-0.48496503,-0.5342713,0.023795437,0.109249055,-0.06706314,0.8040798,0.87597173,0.75061345,-0.022434138,0.057199694,0.04238841,-0.18791726,-0.2790748,-0.10626025,-0.13893999,-0.2788236,-0.25559536,-1.2359068e-38,-1.034981e-39,1.1874212e-38,-3.965734e-39,2.283049e-39,-8.382263e-39,8.56253e-39,-1.0170933e-38,9.663644e-39,0.016849628,0.057804637,0.18025921,0.46225712,0.30821887,0.43155172,0.11479464,0.113385096,0.05371033,0.108453184,0.16311589,0.21913746,-0.13873598,-0.0005220442,-0.0406747,-0.020039788,0.49874938,0.076818116,0.16244227,0.038242705,-0.09813933,0.2786219,0.26220703,0.07755232,-0.019784916,-0.10511137,-0.31839293,0.13092804,-0.09685427,0.17746453,-0.041702613,0.017111663,0.27412724,0.14240561,0.21751893,0.29312742,-0.05282727,0.06467998,0.16100071,-0.02409139,-0.22412269,0.0057057273,-0.21662061,-0.23524588,-0.2691327,-0.21513307,0.33688104,0.2299188,0.45922804,1.068662,0.6212012,0.41674066,0.7993964,0.6011244,-0.46454135,-0.26179227,-0.2585543,-0.39718595,-0.50272447,-0.42102063,0.014633337,-0.2803098,-0.24823347,0.28419173,0.3828554,0.11488684,0.011086633,0.1525495,0.013295146,0.21151426,0.15166973,0.346538,-0.123519436,-0.13096187,-0.08533948,0.22525881,0.18282713,0.17419517,-0.33516985,-0.13084446,-0.20025772,-0.08768288,-0.24410456,0.059280142,-0.077419594,-0.45500726,0.008808941,0.30880722,0.24177782,0.21355411,-0.11030819,-0.11203518,0.06955218,-0.27729413,-0.25076005,-0.27430865,-0.11679002,-0.048753217,0.15610886,-0.21303107,-0.091833316,-0.14767654,0.22336876,0.23322687,0.0643485,0.5957766,0.38202298,0.048181035,0.5433749,0.4101686,0.485364,0.35570207,0.20667917,-0.059506636,-0.27411,-0.13028622,-0.47513577,0.349487,0.12643498,0.4080597,-0.15730198,-0.5719445,-0.013765535,-0.1708203,-0.2747249,0.017890735,-0.18534382,-0.13699168,-0.18850937,-0.15848616,-0.10625718,-0.14107917,-0.045112573,-0.055014253,-0.1545281,0.2680478,0.27595326,0.067905545,-0.07927976,-0.11968172,-0.49049032,-0.06877491,0.06469095,-0.11236753,-0.38299882,-0.53120327,-0.38767955,-0.20083039,-0.36641347,-0.30281666,-0.039386462,-0.21635358,-0.14415455,0.06741523,0.16445729,0.13828042,0.24776098,0.13340032,0.22308263,0.3488359,0.059479713,-0.041372817,0.24074438,0.191887,-0.07867927,0.8503234,0.9977693,0.64149445,0.67713255,0.69393945,0.35569847,-8.992265e-39,1.1723916e-38,1.5056324e-38,-1.6954972e-38,-7.711394e-39,-8.874482e-39,1.8848332e-38,1.44423e-39,-2.316898e-39,0.014247549,-0.085371494,-0.18769902,-0.009535024,-0.20335963,-0.13373955,-0.20186444,-0.30994025,-0.17420323,-0.12475509,-0.1598043,-0.559712,-0.40421444,-0.12906316,-0.3085406,-0.51696473,-0.9062549,-0.69656265,0.09147094,0.027546309,0.03966153,0.2940385,0.21977888,0.4238394,-0.4437231,-0.39669347,-0.25784844,0.3071197,0.5450226,0.14617142,0.5792469,0.9324674,0.57989097,1.1222185,1.1944991,0.41482553,0.006256424,-0.13701499,-0.23870869,-0.1576204,-0.30146867,-0.39306393,-0.296961,-0.38638592,-0.17843567,0.36699593,0.42377418,0.32136977,0.6919455,0.7497802,0.5041831,0.24792473,0.4360184,0.17656586,0.12796287,0.053119734,0.2428066,0.09367065,0.18324386,0.18104702,-0.27149948,-0.042104412,-0.2613744,-0.2961505,-0.41075033,-0.32204723,-0.33849147,-0.739645,-0.5717193,-0.4180839,-0.6042512,-0.40248752,-0.14938569,0.16638875,0.08997583,-0.08125691,0.03198065,0.16578539,0.12028572,0.32232592,0.36172935,0.08369318,-0.04532258,-0.106579095,-0.24842921,-0.29110727,-0.32866243,0.033235703,-0.1480338,-0.06941897,-0.44195884,-0.5672937,-0.55318344,-0.5475972,-0.69639575,-0.6099745,-0.18083198,-0.10269931,-0.14527343,0.27904263,0.111352734,0.048305377,0.1563018,-0.028188929,0.08789055,0.052212786,-0.00022172128,-0.032171268,1.0716555e-38,9.762196e-39,1.4580162e-38,2.1517207e-38,5.690745e-39,-7.810857e-39,-4.875424e-39,1.203769e-39,-1.6846524e-38,-0.066708915,-0.24669048,-0.21195336,-0.012200507,-0.033616316,-0.28992882,-0.12684342,-0.14591086,-0.15115644,0.16994032,0.2398045,0.14235464,0.1933824,0.22947972,0.014973929,0.28904125,0.12953897,-0.22352679,-0.36212626,-0.39679253,-0.3106417,-0.3215516,-0.35677838,-0.1600187,-0.30724043,-0.18034716,-0.18479958,0.17311172,0.13727972,0.30030733,0.19903529,0.1981667,0.09757197,-0.3630779,-0.22992115,-0.16416523,0.0813445,-0.065005526,-0.11865779,-0.021137845,0.18115446,-0.013671522,-0.33855373,-0.034930803,-0.10762695,-0.39084932,-0.4785094,-0.3595433,-0.36559418,-0.39218,-0.43976805,-0.092444174,-0.15990871,-0.07304099,-0.14945313,-0.18810102,-0.08149931,-0.30483118,-0.4894513,-0.38391936,-0.0800638,-0.15833709,-0.23540112,-0.021090684,-0.12580495,-0.5097031,-0.12559858,-0.32367006,-0.3840008,-0.120707765,-0.21496797,-0.036926854,-0.018005265,-0.027202597,-0.06437111,-0.32899344,-0.22278517,-0.10134883,-0.618501,-0.56653243,-0.5182904,0.2541414,0.26712388,0.56155586,-0.08402861,-0.19643652,0.14665587,-0.047801074,-0.015250286,0.16514616,-0.3561348,-0.43330953,-0.41090634,-0.49357322,-0.5975093,-0.41624504,-0.16079877,-0.37608257,-0.46860817,-0.0882539,-0.26832792,-0.35311833,-0.3411812,-0.4419241,-0.1713003,-0.10387181,-0.3021833,-0.03463621,-0.12764354,-0.17025302,-0.3136622,0.2722947,0.25275823,0.1870504,-0.18448125,-0.2142759,-0.1767282,0.5223755,0.32489666,0.5726232,0.46996096,0.47069892,0.60100895,0.39138028,0.43887627,0.40982145,-0.1481836,0.20317179,0.1584703,-0.2887533,-0.06776194,-0.043451484,-0.23243183,0.042827092,-0.021245101,0.44713345,0.34416768,0.07447346,0.3052224,0.28243798,0.038305983,0.32905164,0.23968402,0.2284039,-0.597998,-0.5468012,-0.61485004,-0.24443755,-0.30244198,-0.12629479,-0.0504621,-0.1816976,-0.102753825,-0.16613965,-0.04944323,0.11022625,0.016611464,0.012028283,-0.24065371,-0.30307284,-0.3584178,-0.4219504,-0.19611776,-0.27036613,-0.020026397,-0.18971346,-0.24095412,-0.032996986,0.21131797,-0.062269483,0.043090496,0.85977536,0.953779,0.37531966,0.35361546,0.5546425,0.3037398,0.74555993,0.68229514,0.430834,-0.17682555,-0.35072795,-0.21332243,-0.013736636,0.07608129,0.25066537,0.50289845,0.50756,0.27857116,-0.043776147,0.04545661,0.11741439,-0.19884239,-0.39258856,-0.33119252,-0.114888966,-0.25703943,-0.4164746,0.16316049,0.31488672,0.057230104,0.5973518,0.49360475,0.15218233,-0.15335406,-0.2541507,-0.28760543,-0.05208401,-0.05259443,-0.020831393,-0.10128187,0.1747237,0.28161308,0.10094644,0.33318266,0.34281304,-0.12663382,-0.07925809,0.13169603,0.12498503,0.05872059,0.15066086,-0.26418635,-0.53335917,-0.42188323,-0.0114357,0.15120451,0.009259527,0.014394845,0.3420957,0.09538031,-0.049502756,0.20001897,-0.2859668,-0.11812032,-0.15160568,-0.28390393,-0.03330064,-0.13499981,-0.16957922,0.39769003,0.12018167,0.099495314,-0.07919057,-0.29206192,-0.29927927,0.1439806,-0.19411755,0.058220066,-0.20640664,-0.53617036,-0.47368923,0.5077599,0.4176665,0.1760448,0.88267404,0.97860664,0.9039113,1.0605,1.1867285,0.958247,0.29830337,0.44613448,0.41056854,-0.09069124,0.18012437,-0.038502596,-0.02762592,0.33996943,0.15418111,0.20865513,-0.39023808,-0.35573363,0.072359964,-0.13909245,-0.02451215,0.21589221,0.062381376,-0.07569396,-0.2323356,-0.25805646,-0.12500064,0.042775583,-0.10827148,-0.024682758,0.123337984,0.0056497124,-0.051100075,0.019326856,0.14452729,0.24161613,-0.12458978,0.20652336,0.18127088,-0.07350106,0.19362089,0.2770321,0.18405162,-0.010764644,0.06795776,-0.34412453,-0.35280406,-0.30360234,-0.3483065,-0.12829772,0.0040263124,2.500882e-39,7.381207e-39,-1.4459995e-38,-1.3761038e-38,8.33743e-39,-1.6179033e-38,-6.399014e-39,2.576126e-39,2.123766e-39,-0.15276606,-0.0790917,-0.1642369,0.17175479,0.43648288,0.36620164,0.42020237,0.7052783,0.37910157,0.17498578,0.07797824,0.11326637,-0.60082287,-0.3979887,-0.4914586,-0.35340765,-0.19692524,-0.36578327,-0.15832062,0.11195905,-0.27554703,0.19169842,0.55370355,0.026798692,0.39269817,0.6402723,0.37533164,0.43815544,0.5236327,0.5236109,-0.116435505,-0.027211957,0.034284696,-0.042915475,-0.18934393,-0.24662678,-0.3042166,-0.13502148,-0.27142802,-0.053617653,0.26314038,0.029190265,-0.18853486,0.12379345,-0.08168018,1.4363821e-38,1.4967532e-38,-7.527449e-39,-1.2709704e-38,-7.509313e-39,-7.771624e-39,8.788276e-39,-6.738619e-39,1.7541045e-38,0.18067198,0.07553677,-0.04478859,0.555056,0.1583212,0.29400608,0.22263084,0.062244285,0.083677195,-1.4261337e-38,-1.1638787e-38,-3.4230195e-37,2.084258e-39,2.895471e-39,2.0481535e-38,-1.6167159e-38,3.0419616e-37,-2.023873e-39,-0.10497094,-0.10163201,0.044790592,-0.40359116,-0.10332077,-0.1642911,0.09537843,0.3264539,0.33183545,-0.29282868,-0.3321343,-0.24934644,-0.07483593,-0.17018339,-0.10310025,0.07659394,0.18992637,0.21661511,2.0059653e-38,3.356223e-39,-1.6627918e-38,3.5483758e-37,4.603854e-39,2.10364e-39,1.5877474e-38,8.400615e-39,1.406319e-38,0.06830012,0.17923965,0.15416756,-0.29049093,-0.31524256,-0.15545216,-0.22730313,-0.06863645,-0.04441712,0.07853107,0.26229122,0.1292175,0.14218327,0.31831592,0.2290296,-0.049034335,0.07766881,0.0067601735,-0.23775786,-0.43492836,-0.18965615,-0.009202299,-0.30194882,-0.22532107,0.2538717,0.098289385,-0.0107110385,1.526486e-39,-6.326903e-39,8.701743e-39,-2.24687e-40,-9.97356e-39,-1.8132963e-38,-9.779544e-39,4.341454e-39,-2.778356e-39,1.0452767e-38,-7.484086e-39,-2.179702e-39,4.440226e-39,1.2859043e-38,6.068462e-39,-2.638115e-39,-1.904107e-39,-1.4892704e-38,0.35908255,0.15410142,0.3225634,0.23265143,0.068830006,0.23812136,-0.029900057,-0.14619271,-0.0045884154,0.15016307,-0.07139093,-0.0074772104,0.3163803,0.1403381,0.08635125,0.22237061,0.23934987,0.34581572,6.500334e-39,-6.080093e-39,6.977624e-39,3.907378e-39,-6.406916e-39,-2.25341e-39,7.798114e-39,3.109665e-39,-8.594274e-39,-0.47884437,-0.21806183,-0.27423427,-0.6055823,-0.43255976,-0.3863374,-0.13473241,0.08487152,0.020018501,0.04394388,0.07326725,0.21126479,-0.28912,-0.48624587,-0.16782734,0.20838188,0.07887953,0.14372553,0.28113684,0.3664295,0.059435613,0.39843297,0.51897717,0.33020714,0.090341076,0.1155804,-0.08445707,0.1375554,0.30634025,-0.08368233,-0.1362117,-0.34331164,-0.27971324,-0.2457786,-0.30432332,-0.25317034,-0.11681639,-0.05263014,-0.0505509,-0.26848638,-0.19503845,-0.21075895,-0.04642582,0.09353021,-0.088993095,0.1769388,-0.05443196,-0.12005286,0.5737695,0.19529633,0.28323147,0.21692158,-0.019859076,-0.010559959,0.051928017,-0.15875655,-0.15543504,-0.36608425,-0.52570707,-0.41615885,-0.0032832436,0.1503408,-0.0028901394,0.09546051,-0.17030632,-0.12730157,-0.026696619,0.12981708,-0.04941143,-0.08423912,-0.054466683,0.052753806,-1.3336564e-38,-2.557842e-39,-6.870943e-39,-7.520505e-39,-1.6457443e-38,-1.3966284e-38,-1.2936479e-38,1.9394028e-38,-8.33516e-40,-0.38786572,0.03520048,-0.030854255,-0.47545788,0.017476706,-0.21642338,-0.37343565,-0.035354365,-0.34789115,0.06764644,-0.027571622,-0.13918166,0.4647606,0.21822645,0.15552057,0.37420803,0.20377345,0.25897542,-0.030232936,0.049951393,-0.0026537979,-0.24964358,-0.32852727,-0.26875612,-0.35924697,-0.38499835,-0.52661496,0.28296018,0.2780793,0.23011956,0.5840408,0.41577592,0.6033418,0.36895922,0.26778224,0.36069822,0.3157081,0.2915889,0.26310158,0.23145989,0.27560788,0.36605257,0.2800591,0.31628984,0.1909008,-0.28613392,-0.18824236,-0.11635913,-0.12131629,-0.22164646,-0.036735583,-0.06381287,-0.035675112,0.05062549,-0.45807233,-0.38876277,-0.25380078,-0.33697575,-0.48497638,-0.39299121,-0.5290972,-0.6235259,-0.6033846,0.11819534,-0.20885128,-0.18617232,-0.11610533,-0.25359178,-0.52513707,-0.093437605,-0.15296504,-0.046617977,-0.006588402,-0.083975814,0.1253506,0.20740113,0.4391316,0.117041565,0.038312506,0.054857455,-0.09423201,0.22248995,0.2361836,0.4560843,0.1158171,0.102812186,0.42070726,0.21248129,-0.01102056,-0.0027537928,0.3657221,0.68637145,0.16740155,0.79023695,1.5836165,0.7525764,0.42210367,1.1428916,0.5956254,-0.13806577,-0.32164383,-0.22770324,-0.4988464,-0.4835674,-0.45411488,-0.3323383,-0.028949425,-0.08488835,0.34938416,0.52151966,0.12808608,0.13962111,0.15193911,0.012476779,-0.12205689,-0.25000355,-0.44605199,0.16493306,0.07606786,0.17460811,0.14909148,-0.17074302,0.32137775,-0.077119656,-0.38190362,0.089346334,0.40766245,0.38852444,0.22822803,0.071676545,0.52584803,0.021631138,-0.07107865,0.40733898,-0.11466655,-0.13762632,-0.1941082,-0.22287591,-0.17687282,-0.29008988,-0.052702695,0.39972264,0.36087927,0.5055829,-0.14144339,0.037542757,-0.15109092,-0.25874877,0.028376564,-0.14473487,-0.40027598,-0.2503304,-0.35449898,0.053020343,0.3289285,0.18139215,0.3514169,0.5807016,0.12597771,0.03543619,0.031353306,0.013214554,-0.09002562,-0.05693745,-0.08119533,-0.46385747,-0.3820224,-0.29924896,-0.09090962,-0.1687846,-0.08927031,-0.19192065,-0.12104903,-0.07353729,-0.36507252,-0.42487368,-0.2406409,-0.3766271,-0.22625314,-0.36117005,-0.32708454,-0.26862952,-0.38190287,0.112295054,0.018746983,-0.0062958864,-0.054811787,-0.122142896,-0.27742875,-0.13613586,-0.17365493,-0.45020032,0.22621949,0.2897517,0.1362502,0.50909567,0.47614864,0.35240617,-0.031638067,-0.11843568,0.15960667,-0.5235684,-0.6041645,-0.27801365,-0.4703608,-0.5317411,-0.29578084,-1.9805438e-38,8.878373e-39,-1.4213956e-38,4.0648e-40,1.7535022e-38,-1.0861787e-38,-6.0981e-39,-1.2400593e-38,-7.482022e-39,-0.23213123,0.027842335,-0.16189855,-0.05138957,0.09279972,-0.14383902,-0.11778597,-0.07784436,-0.07654259,-0.28210515,-0.066106044,0.039572947,0.13654004,0.42442885,0.29249486,0.22805962,0.13580331,0.19038503,-0.023134805,-0.19093524,-0.23048767,0.04686254,-0.09144774,9.441804e-05,0.15836479,0.44481933,0.2788971,-0.111687146,-0.11063675,-0.07805874,-0.45746478,-0.56176776,-0.6195262,0.04232366,-0.27173784,-0.27644822,-0.5780603,-0.40084898,-0.41747728,-0.20997299,-0.2282146,0.015739366,-0.18502988,-0.17510198,-0.04014911,-0.06683098,-0.089744486,-0.11681174,0.46807936,0.2632208,0.17511311,0.7805966,0.48900127,0.29978085,0.15415236,0.47100434,0.24347182,0.2525753,0.38649744,0.3052052,0.11219967,0.24307509,0.044735532,-1.5322079e-38,-9.945183e-39,3.138806e-39,-1.8729315e-38,-1.315018e-39,2.446876e-39,1.5436914e-38,-1.9464676e-38,5.358307e-39,0.03904365,0.25097892,0.22959553,-0.11839394,0.19567922,-0.05418228,-0.09525703,0.21466117,-0.02332571,0.58256006,0.31740087,-0.007333331,0.31274384,0.3409856,0.34692794,0.1477252,0.29133075,0.3796748,-0.035788596,0.09991262,0.13204302,0.038026024,0.47191414,0.022492995,-0.048247926,0.069102935,-0.12855572,0.032919288,0.22135755,-0.14448316,-0.080793805,0.15826651,0.03459602,-0.101185136,-0.09097275,0.08021034,-0.16876175,-0.3307805,-0.093252495,0.08919898,-0.36215177,-0.010679967,-0.12357559,-0.5042255,-0.34007388,0.020016719,-0.075524025,-0.13700448,-0.26686612,-0.16861266,-0.096987456,-0.4029192,-0.46423054,-0.19210349,0.3293362,0.17512077,0.27025923,0.5542251,0.41850346,0.63400096,0.352502,-0.0014728514,0.06984637,-0.06691043,-0.10631881,-0.17266528,0.13388942,0.26145935,0.24498175,0.21819882,0.34507638,0.31345353,-0.30184954,-0.017843192,-0.24119774,-0.19152495,0.13450326,-0.08046342,-0.17411435,-0.10722653,-0.23571861,-0.050342094,-0.29318786,-0.12638016,0.15264815,0.0064136665,0.21316902,-0.035864525,-0.23643893,-0.13374552,0.05423695,0.14798845,0.12170432,-0.13557675,-0.147627,-0.1724598,0.13242614,0.11602513,0.10037447,0.120332204,-0.080939986,-0.03517846,0.28334385,0.17545553,0.025485324,0.035228062,-0.09887062,-0.13075851,0.08309169,0.05453643,0.07084435,0.102431506,-0.03213705,-0.073818184,0.24338797,0.086040154,0.07897343,0.2186213,-0.01318474,-0.10722879,0.24165238,0.095586166,0.04753293,-0.08114438,0.030568363,-0.104824886,0.2300265,0.22010206,0.07322352,-0.14620665,0.15181565,0.17559431,0.0042519746,0.1367847,0.09216505,0.1475664,0.17465799,0.071953334,0.35036144,0.43445322,0.40139455,0.21117836,0.45955974,0.5515627,0.16212173,0.093877725,-0.024831591,0.3796488,0.18045454,0.07028433,0.17436668,-0.053501952,-0.076380685,-0.3845152,-0.018533835,-0.47506505,-0.13926525,0.21993607,-0.40501457,0.3364894,0.49147177,0.092966214,-0.40538117,-0.3782441,-0.22984828,0.30384833,0.015246278,-0.2481471,0.86272144,0.32667878,-0.12001952,-3.892834e-39,-4.80432e-39,6.991978e-39,-1.146843e-38,-2.689923e-39,-7.191978e-39,-8.703689e-39,-1.3467703e-38,-1.5380494e-38,-0.0899186,-0.117547095,-0.23376067,0.04441741,-0.20389913,-0.2946679,0.3858662,0.11468713,0.029231776,0.38478845,0.4106446,0.2846577,0.18932706,0.2398689,0.19427213,0.36174962,0.2089713,0.21990342,0.28752097,0.21166123,0.5577229,0.55397993,0.34649584,0.6185608,0.2827234,0.2217745,0.19557153,0.31715107,0.20133467,0.11654788,0.089107044,0.10873058,-0.047224056,-0.26594788,-0.30759707,-0.040277105,0.17101794,0.18499267,0.28277737,-0.089391686,-0.13583207,0.032535754,-0.06774546,-0.23833807,-0.26686224,-0.17160274,-0.29353133,-0.21989606,-0.10755789,-0.20698097,0.00052158575,-0.4156212,-0.64950025,-0.41974244,-0.06846574,-0.14495538,-0.6855073,0.20181297,0.17030337,-0.3539052,0.0034791771,-0.13802464,-0.38425186,-0.1924682,-0.20265293,-0.14253044,-0.18512218,-0.15204224,-0.15888387,-0.107479095,-0.22262143,-0.19234197,-0.0934261,0.2000714,-0.013079041,0.31594244,0.49429968,0.37153012,0.017221877,0.27715233,0.28452185,-0.34376264,-0.32710025,-0.34823334,-0.3544455,-0.38943487,-0.11613326,-0.3161508,-0.117016174,-0.12760678,-0.38259915,-0.19929744,-0.36358404,-0.3945464,-0.29410017,-0.34843212,-0.24973416,0.06980091,-0.12866136,0.36792946,0.50954854,0.34258828,0.16397074,0.36420482,0.2968612,-0.09430539,0.23585355,0.24539225,9.05795e-40,-4.47457e-39,-1.6261142e-38,1.7197931e-38,-3.360349e-39,6.60673e-40,-1.068344e-38,-1.8582131e-38,-9.400649e-39,-0.39543092,-0.51890785,-0.16392398,-0.29432127,-0.20047331,-0.19465406,-0.05140547,0.09059192,0.1437716,0.2671049,0.39202744,0.19289172,0.15820567,0.35347432,0.3609414,-0.20235485,-0.33779937,-0.04267769,-0.2786254,-0.3413261,-0.16200757,-0.29826373,-0.34258756,0.017761203,-0.10451558,-0.10562265,0.07695532,0.6057095,0.40187663,0.2544424,0.5374202,0.5052764,0.59025687,0.21785626,0.28253335,0.32378113,0.3052706,0.13876079,0.03577919,0.4295019,0.27912956,0.13848814,0.027643975,0.08651535,-0.0012932391,0.2243748,0.23702689,0.049257528,0.16861753,0.34390956,0.2481117,0.015908465,0.08745247,0.12855045,0.1672485,-0.19567707,-0.1793098,0.12398314,-0.100374475,0.020473072,0.062516734,-0.014666048,0.08490038,-0.32578406,-0.29846877,-0.18437912,-0.2872386,-0.1609003,-0.353542,-0.23514543,-0.08928654,-0.21721168,-0.0073666223,0.28732544,0.1520636,-0.14953406,0.08215686,-0.15813442,-0.03720167,0.117259644,-0.15205783,0.21853803,0.122032404,0.36023852,0.017761754,-0.1273155,-0.034076367,-0.21876107,-0.32849857,-0.26398653,-0.41045937,-0.53569347,-0.3445695,-0.7660159,-0.70332927,-0.22941834,-0.63632864,-0.6491282,-0.29329446,0.17482002,0.076172486,-0.013777642,0.2845449,0.17850922,0.15229069,0.07726538,0.14629927,0.058582235,-0.35178316,-0.5116221,-0.32154065,-0.18483879,-0.022302045,-0.26271662,-0.1276902,-0.17798288,-0.35672632,-0.6043208,-0.49482936,-0.5810211,-0.64228535,-0.417513,-0.4170585,-0.529005,-0.26360402,-0.3255476,-0.35881728,-0.36118457,-0.14932503,-0.55041593,-0.52595234,-0.34121782,-0.3383693,-0.29764152,-0.09598449,-0.09358,0.043723967,0.022684019,-0.4175208,-0.24987338,-0.14303267,-0.5517906,-0.6217477,-0.5293309,0.22131722,0.3349035,0.34029496,0.58165526,0.7855958,0.6122818,0.64670295,0.88329446,0.78264487,-0.17131926,-0.48446715,-0.519853,0.062240425,0.061417546,-0.036275774,-0.080776826,0.2082521,-0.057501536,0.22633602,0.52146095,0.5162569,0.05074457,-0.038566936,-0.1679545,0.11357275,-0.012660016,0.028896367,-0.303009,-0.11341126,-0.16397321,0.1305249,0.22618167,0.033049177,0.083318494,0.44603586,0.08809561,0.13301349,0.26763397,0.01660388,0.31443846,0.6096173,0.14899778,0.44631928,0.5006448,0.02591415,-0.028134832,-0.08943816,0.020930538,0.08114045,0.02388208,-0.04606264,0.19423394,0.10195076,0.00037910606,0.2524537,0.35563126,0.08645146,-0.15428598,-0.025039742,-0.067414075,-0.0012810221,-0.12829685,0.006667035,0.35399306,0.27522138,0.08102203,0.39137584,0.4580056,0.18822011,-0.100184925,-0.2097434,-0.1700893,-0.052883983,-0.17742239,0.011056208,0.31010103,0.2878433,0.326044,0.37419072,0.4617649,0.523148,-0.5162965,-0.2146723,-0.2479877,-0.39153278,-0.39429003,-0.29742327,-0.19823124,-0.24495573,-0.055050958,-0.37581617,-0.08690892,-0.14865404,-0.47764534,0.02811962,-0.24772237,-0.5278467,-0.12610006,-0.42772722,-0.012320494,-0.22065316,-0.16609235,0.00234337,-0.26744106,-0.2318547,-0.3187108,-0.5165023,-0.40851253,-0.016075023,0.11103439,0.033146653,0.2980001,0.37334296,0.1913671,0.42407456,0.2891804,0.2559529,-0.19828777,-0.24933867,-0.12528189,-0.4659693,-0.32872385,-0.5284051,0.025749123,0.107401714,-0.030508298,0.38474694,0.44918436,0.11804233,0.35008296,0.51891726,0.412337,0.29573667,0.18692711,0.3571864,0.08349678,0.11555594,0.21103509,0.46027118,0.53272486,0.5104329,0.2916472,0.42446065,0.43022487,0.091311194,-0.2455036,0.04133183,0.1851937,0.01318903,0.061103377,0.46285933,0.1629153,0.24247697,-0.33447677,-0.31616113,-0.22406122,-0.3598343,-0.22274746,-0.30407336,-0.18657511,-0.0015164382,-0.08059477,-1.3850958e-38,-1.2043935e-38,-8.188779e-39,-1.3085157e-38,-7.509033e-39,-5.838886e-39,8.682023e-39,-1.882828e-39,-8.490896e-39,0.55809635,0.2639609,0.36821654,0.40170148,0.21036327,0.3669101,0.38639176,0.32215855,0.36753055,-0.27455762,-0.30399814,-0.18205746,-0.5445959,-0.49957702,-0.4694764,-0.67950356,-0.36984965,-0.037187982,-0.47449243,-0.42490205,-0.507251,-0.48205593,-0.2874717,-0.34636942,-0.17509982,-0.279075,-0.42556328,-0.14581528,-0.5979531,-0.15227741,0.16767178,-0.18832146,0.08715135,0.40603662,0.070939235,0.08082794,-0.0810033,-0.015271978,-0.022702638,-0.14996961,-0.09290306,-0.06270834,-0.017155461,0.16068782,-0.0036541575,1.3461714e-38,8.26581e-40,-1.0231627e-38,5.83667e-40,-8.410324e-39,-1.7804509e-38,6.714355e-39,4.906714e-39,1.2497817e-38,-0.10904424,-0.30591083,-0.21981831,-0.122363135,-0.27559772,-0.109454244,-0.027981438,-0.17550798,-0.07572924,3.0600542e-37,-2.74629e-37,1.3507654e-38,1.4254943e-38,7.316216e-39,-2.193702e-37,1.1030745e-38,7.570843e-39,-2.986983e-39,-0.42891765,-0.48831156,-0.29780388,-0.2870484,-0.7045493,-0.2762597,-0.18140674,-0.5022536,-0.2946939,0.107531704,0.05329245,0.13404131,0.01761308,-0.18402678,-0.14801063,0.07544669,-0.15209754,-0.056883957,-3.786988e-39,-2.625264e-39,1.5082065e-38,1.239558e-38,-1.000459e-38,-3.5588943e-37,7.24417e-39,6.74235e-39,8.193709e-39,-0.3958384,-0.30134666,-0.18129991,-0.2591596,-0.2377236,-0.15576176,-0.11413413,-0.16676493,-0.04934635,-0.18600948,-0.19079006,-0.21108934,-0.5708805,-0.4928614,-0.42507488,-0.34306887,-0.3459817,-0.26392892,0.10549704,0.06345402,0.078638375,0.06768924,-0.065046236,-0.036403365,-0.06433206,-0.045280345,-0.1821209,-7.0684e-40,2.004189e-39,-1.116345e-38,-1.152381e-38,8.17767e-39,-1.0730973e-38,9.195371e-39,-3.830818e-39,-1.3323361e-38,1.9846794e-37,-1.3369017e-38,1.2808706e-38,-1.1035703e-38,6.190885e-39,6.482019e-39,-1.696296e-38,-1.743416e-39,-1.1029068e-38,0.13541654,0.15638489,0.25895342,-0.1401392,-0.12069457,-0.014539044,-0.22646129,-0.1964411,-0.12535107,-0.46527168,-0.20749319,-0.0321717,-0.18922424,-0.06335458,0.09315668,-0.16969897,-0.19425403,0.00047322694,-8.798937e-39,-1.219725e-38,-5.712147e-39,7.10188e-39,-5.738588e-39,-3.839869e-39,1.2188312e-38,-2.7396e-39,-1.83828e-39,-0.29640704,-0.3715729,-0.22761355,-0.6937192,-0.7087033,-0.698686,-0.31700245,-0.29965344,-0.20436835,0.055320073,0.16450278,0.16983391,0.1814205,0.36710912,0.27353564,0.35712767,0.26966858,0.31953683,0.27861172,0.11240333,0.021428525,-0.10297973,0.053757664,0.19245315,0.044033512,0.16860186,0.45739254,0.050044935,0.03530811,0.34557524,-0.57517797,-0.69213986,-0.45717174,-0.4667496,-0.57234997,-0.49553803,-0.15306562,-0.38496485,-0.13545248,0.04983768,-0.15706441,-0.20629413,-0.108768374,-0.16824645,-0.20931707,-0.124048896,-0.07626305,-0.01850957,-0.120135635,0.09070473,0.08421155,0.23515135,0.113198414,0.07291114,0.40220502,-0.04724133,-0.100771934,0.48685527,0.22374547,0.245316,0.25491372,-0.049929377,0.085498944,-0.1424104,-0.37784436,-0.26223877,-0.077454396,-0.113334306,0.048171356,0.02372459,-0.059792433,0.1371469,-1.276996e-39,6.353995e-39,-7.9639e-40,-1.8069458e-38,3.35355e-40,-1.439086e-38,1.0470206e-38,-6.289954e-39,6.720592e-39,0.38284892,0.31536084,0.10070831,-0.08587705,0.019464329,-0.20657037,-0.2886209,-0.35874,-0.60180014,-0.27437538,-0.4163907,-0.38283345,0.060470976,0.017845782,-0.17265509,-0.35185733,-0.0848313,-0.17863005,0.23802966,0.22652215,0.14798357,0.060148418,-0.0026487282,0.015718566,-0.043736618,-0.085021116,-0.060497418,-0.10349672,-0.053513013,-0.047455937,0.15912165,0.16818474,0.29259375,-0.06716377,-0.099119194,-0.08980928,0.0365138,0.116133854,-0.007038631,0.0929401,0.14381783,0.07909962,0.19949107,0.15852903,0.07394217,-0.1189367,-0.026195293,-0.12591918,0.15201251,0.46655828,0.44992307,0.25289,0.20961136,0.24497575,0.3470702,0.45311165,0.31088528,0.15837006,0.16740844,0.14432652,-0.09360867,-0.041589674,-0.18194894,-0.1522053,-0.068850726,-0.029508436,0.13815862,0.15051268,0.12615448,-0.06558479,-0.25699472,-0.11456417,-0.2920413,-0.064172864,-0.0026273113,-0.10211583,0.36025372,0.0013595077,-0.23635988,0.070991166,0.06176879,0.42776662,0.5788342,0.5657841,0.2703531,0.38638756,0.7146887,-0.023637926,0.20643236,0.18032464,0.10416246,0.0324188,0.14749,0.11145319,0.27966845,0.3299226,0.2774327,0.40000716,0.5310148,-0.24824028,-0.23585096,-0.14210144,-0.29762965,-0.47418603,-0.3164257,-0.62004435,-0.6949009,-0.52266866,-0.08267382,-0.15758595,-0.08777558,-0.3716819,-0.44617116,-0.45544037,-0.15778627,-0.26260015,-0.32291368,0.075468525,0.13561764,0.089344114,0.732265,0.76530874,0.76880515,0.8024762,0.56747246,0.51053214,-0.29263416,-0.023080086,0.15988661,-0.115689695,0.0018341998,-0.06617731,0.21406534,0.055506483,0.11713793,-0.15318234,-0.26171783,-0.0038766144,-0.20836413,-0.26843306,0.08619216,0.115239754,-0.1470035,0.19950433,0.085971355,-0.00024123401,0.009130572,0.30648097,0.21490829,0.18641129,0.5082735,0.59775335,0.39619434,0.22201009,0.18559538,-0.07609157,0.35465646,0.1324417,-0.19540974,-0.11288199,-0.45940298,-0.35590973,0.003060499,0.04828339,0.029755581,0.28992623,0.119996235,0.35753506,-0.21152765,-0.20010515,-0.06902365,-0.26978746,-0.04723771,0.048229955,-0.55283844,-0.4855468,-0.30697578,-0.41437477,-0.34150636,-0.3292442,0.101283036,-0.17878789,0.058952574,0.8710593,0.6286466,0.7473724,0.5451203,0.27900302,0.2054464,0.5585305,0.43986803,0.18777262,0.5052585,0.6077105,0.41824886,0.2551906,0.22546698,0.29184744,0.7843424,0.69679743,0.5027903,0.833806,0.920039,0.7169689,-0.1125404,-0.17726263,-0.18160322,-3.088117e-38,7.680426e-39,1.2015854e-38,7.0235e-40,-6.747409e-39,-7.0856e-40,-7.170978e-39,-1.495608e-38,-3.375984e-39,-0.0626619,-0.06749456,-0.014745359,0.10413438,0.12514329,0.12960468,0.00091380894,0.16459958,0.21502998,0.40678287,0.39083233,0.19892843,0.31191158,0.2642808,0.2605317,0.33481172,0.2335027,0.21345593,-0.08186681,0.058145404,-0.006436895,-0.074092075,0.11937338,0.23323703,0.205637,0.42285746,0.38317618,-0.30977756,-0.23733583,-0.19958162,0.19347318,0.19829874,0.2961099,0.26057464,0.3102275,0.4662359,-0.1955599,-0.26814145,-0.49836883,-0.15459546,0.015784014,-0.116607,0.15953065,0.20524518,-0.10890881,0.19149488,0.30803418,-0.0082015265,0.10829745,0.08828339,0.072897434,0.23317337,-0.052151896,0.034456648,-0.0872461,-0.2661747,-0.095399424,0.1387532,0.1813246,0.023594735,-0.13424365,-0.029848456,-0.12855496,-7.646939e-39,3.034115e-39,6.63635e-40,3.996159e-39,-3.671686e-39,1.6394948e-38,3.24244e-39,2.0674498e-38,6.8626e-40,0.21248704,0.5168691,0.30692264,-0.14541686,0.18609373,0.0077690375,-0.3779401,-0.20028348,-0.30315757,0.08106352,-0.06932805,-0.0482328,0.12611988,-0.3911628,-0.11504455,0.3479808,-0.09348191,0.23779544,-0.5993377,-0.49034894,-0.2967943,-0.1706427,-0.16547577,-0.20284636,-0.0888245,-0.027135111,-0.16272277,-0.16731575,-0.07836595,-0.20768341,-0.036780264,-0.19936527,-0.19120052,0.29196498,0.12721609,0.032547943,0.489804,0.4511456,0.20179082,0.54366875,0.7038449,0.65550584,-0.11045668,0.15339848,0.22147734,-0.28192765,0.37097254,-0.114376195,-0.2745769,0.42787603,-0.13175857,-0.38741565,-0.21749169,-0.16799611,-0.010166709,-0.23220916,-0.13086142,0.0943012,-0.050176684,0.040139522,-0.0006556167,-0.06838352,-0.0013835253,0.3614402,0.3199387,0.10271768,0.28494504,0.2232112,0.35789755,0.06804351,0.3128462,0.1633588,-0.116101116,-0.333878,-0.22443835,-0.040956132,-0.05678123,0.018030312,0.08500332,0.08623873,0.2011665,0.31275284,0.3035288,0.30296862,-0.02927806,-0.380877,-0.09199273,-0.061599895,-0.38023785,-0.15853634,-0.10893932,-0.31846827,-0.15688686,-0.51024103,-0.35261574,-0.4951829,-0.5525656,-0.28549224,-0.3096881,-0.573196,-0.14606866,-0.29092604,-0.29638022,0.12586506,-0.11009528,-0.30923575,0.05299153,-0.100366816,0.031409252,0.07318085,0.13681889,0.21198599,0.18815498,0.29062083,0.031510614,0.2471175,0.21272713,0.35654998,0.49915728,0.21264005,0.00014895017,-0.18797618,-0.12798046,-0.28481355,-0.35698843,-0.3196548,0.26896805,0.3232338,0.16102628,-0.022826172,0.18063223,0.27322134,0.03302168,0.09180231,0.08559925,-0.4825709,-0.6750707,-0.36020827,0.05918751,0.22383721,0.29110423,0.38326856,0.33993366,0.3685906,-0.13942087,-0.3574303,-0.3867583,0.40372628,0.133872,0.3549902,0.3040492,0.07947378,-0.0028016288,0.51321805,0.5833575,0.64764,0.8315776,0.94489694,1.0054369,0.58475995,0.17605782,0.60656595,0.089314274,0.24851622,-0.15705228,0.17522594,-0.30886596,-0.30207282,0.0075072525,-0.017058834,0.11769129,-1.720212e-39,-1.2007104e-38,2.32656e-40,-6.723674e-39,-6.355233e-39,3.485277e-39,4.374491e-39,1.6295669e-38,-3.739041e-39,-0.20245604,-0.11672855,-0.37265006,-0.10801629,0.10643338,-0.105509765,-0.04133833,0.16104816,0.1862743,0.12923735,-0.38736114,-0.018929085,-0.12109997,-0.26573652,-0.08720829,0.0777815,0.20414709,0.26389626,0.12195735,0.6562857,0.23315759,-0.04285601,0.17177166,-0.3055678,-0.26792303,-0.15544212,-0.48331627,0.63753384,0.41455027,0.27510995,0.42777532,0.49654278,0.36231995,-0.117834106,-0.0019375824,-0.07316795,0.24268383,0.24605882,0.16898027,0.07958112,0.09992366,0.0017255968,-0.034310687,-0.03750478,-0.20410077,0.5295918,0.43850234,0.5383803,0.08954352,0.3013698,0.28483614,-0.17912938,-0.13904901,-0.10443028,-0.28759253,-0.18109715,-0.07937239,-0.33524662,0.12282466,-0.040170267,0.09335081,0.41407964,0.20317021,0.053296234,0.4107865,0.22689262,0.5453365,0.72694474,0.40785706,0.18310778,0.22493123,0.040294074,0.21465662,-0.18552841,0.030324845,0.15310523,-0.06483734,0.1024181,0.2878428,0.060824085,0.104633816,0.01262522,-0.15964793,-0.062443707,-0.064683095,0.10980825,0.022021433,0.24068968,0.22669436,0.036092233,0.17040928,0.5108421,0.35005155,-0.21125825,-0.011594987,-0.2574898,-0.270896,-0.12450494,-0.015912352,0.023066133,-0.123910695,-0.16043489,-0.11097637,-0.18912004,0.056552302,-0.28766674,-0.26879847,-0.3285335,-8.19761e-40,1.750257e-39,4.640331e-39,1.3305934e-38,-6.180456e-39,-1.8637471e-38,6.466544e-39,-3.055293e-39,-1.173784e-38,0.57539344,0.26343054,0.34047714,0.5059786,0.13535298,0.5117026,0.090218835,-0.29130626,-0.08520753,-0.076907694,-0.10954993,-0.048133343,-0.13505422,-0.12430385,0.055883102,-0.016777594,-0.050208967,-0.13464901,0.05044075,0.7921173,0.2943643,0.3480407,0.8196137,0.31822404,0.017785097,0.41344982,-0.08790402,-0.40569738,-0.5355699,-0.38328415,-0.45058048,-0.751831,-0.517489,-0.059438877,-0.045427352,-0.040812053,0.090033546,-0.076567344,-0.12976825,0.03856289,-0.18321748,-0.13698682,-0.08293031,-0.13719274,-0.22969528,-0.028401647,0.14157642,-0.010960779,0.034769114,0.08698779,0.06893516,-0.021928705,-0.16301268,-0.009986836,0.0598619,0.076793924,-0.06099082,0.19235805,0.28771412,0.16843456,-0.16607967,0.15240616,-0.13183957,-0.20863181,-0.23283826,-0.14392301,-0.17814544,-0.23494633,-0.2668292,0.03186283,-0.16042846,-0.05066709,0.21346863,-0.25594914,-0.11252117,0.42568362,-0.012860879,0.3121098,0.561678,0.14818716,0.50704473,-0.25639534,-0.19707859,-0.03723374,-0.026224153,-0.1221828,0.031552188,-0.020721456,-0.22826625,-0.14491089,0.3386254,0.19701669,0.18774246,0.25815564,0.19560452,0.24080336,0.4760339,0.37173542,0.03879343,0.16748978,-0.09316323,0.07391812,-0.025798008,-0.35889328,-0.12615238,-0.082647555,-0.23916881,-0.19710879,-0.105091,0.0007973296,-0.10653609,0.29048115,0.4450814,0.30575222,0.3294481,0.3836701,0.31612194,-0.09239443,-0.10546889,-0.21312587,0.44660145,0.45771477,0.20151213,-0.07304467,0.28490588,0.004893059,-0.07187786,0.42629445,0.041486274,-0.43582764,-0.008222948,-0.24297284,-0.6759518,-0.8106433,-0.77740467,-0.28890136,-0.13536748,-0.37229344,0.3545808,0.5025977,0.24261245,0.12890418,-0.024243118,0.08313547,0.3493485,0.5246954,0.41551498,0.08315936,0.34643856,0.26549104,-0.05446005,-0.052718084,-0.117905445,-0.4784711,-0.42560717,-0.2600662,-0.12850991,-0.0034596054,0.23123747,0.13319123,0.18456288,0.07081658,-0.7183566,-0.4701339,-0.5798704,-0.5190759,-0.101277806,-0.43428877,-0.3921089,-0.028819365,-0.41108555,-0.07475411,-0.0768401,0.11766338,-0.016582217,0.0641813,0.22854467,0.00037514468,-0.051332206,0.17193745,-0.22951399,0.17756744,-0.050056614,0.2195515,0.62969923,0.51168334,0.14060728,0.29821885,0.008399271,-0.5347657,-0.9253418,-0.72330695,-0.032405652,-0.46740437,-0.35461706,0.19673602,0.1523023,0.01671742,-0.15912187,-0.12401244,0.024790574,-0.011025833,0.047495283,0.12041041,0.2315564,0.5834829,0.2847778,0.05417804,-0.0068680546,0.006928256,-0.16034408,-0.52050763,-0.27239555,-0.09738657,-0.20294409,0.15767443,0.011781173,0.17670766,-0.115682706,-0.1980387,-0.25291157,-0.45472574,-0.5812058,-0.5351939,-0.6714111,0.20182286,0.017810583,0.28773895,0.09927855,0.014079705,0.08503082,-0.28356043,-0.047439054,-0.16985144,-0.0790601,-0.47202417,-0.3220619,0.27216583,-0.25804627,0.19439965,0.1829652,-0.5660265,-0.26243487,