-0.019049361,0.19624215,0.05630523,0.028500095,-0.105884835,0.014163494,0.009227335,-0.07169445,0.14556804,0.19006759,-0.0763824,0.019044876,-0.08245163,0.109534174,-0.12196362,0.023443699,-0.044023477,-0.0041145682,-0.1552765,-0.08825481,0.31641,-0.28418478,-0.18694314,0.06517747,-0.0594787,-0.092548475,-0.16215175,-0.21961488,-0.3037884,-0.15381595,0.9348523,0.41879702,0.013815373,-0.21527936,0.049252182,-0.0497967,-0.115438975,-0.032241613,0.013446242,-0.09116191,-0.3032279,-0.052114546,0.21493074,0.021667063,-0.21309103,-0.17528051,-0.026654243,-0.17790905,0.18765411,0.06316477,-0.02957213,-0.08967239,0.048026383,0.048114836,-0.58805186,-0.025601838,0.14897251,0.011848807,-0.013717927,-0.15995882,0.31032917,0.27192062,-0.1928803,-0.009475261,0.27661532,0.01656431,-0.040257826,-0.13689598,0.14159667,-0.05136597,-0.48298177,-0.37903354,-0.014885083,-0.28885317,0.05016391,-0.22395794,-0.14686048,-0.27055606,0.19440722,-0.31485906,0.3233978,0.28568202,-0.013815433,-0.123616725,0.032077134,-0.10746573,-0.14758289,-0.038978577,0.0012456775,0.094341815,-0.07431368,-0.06273267,-0.44255382,-0.05851844,-0.11343521,0.14055279,0.024728566,-0.16825546,0.00095569436,0.04062164,-0.16761318,-0.07867379,-0.025141641,-0.18254882,-0.23268752,-0.22426201,-1.1372566,-0.052781165,0.12777239,-0.1729694,-0.09696229,0.00732658,-0.06385871,-0.025868818,0.15910119,-0.13388786,0.09376356,-0.24030581,-2.294818e-39,0.041127816,-1.0977836,-0.012945563,0.0013098822,-0.07384304,-0.42150572,-0.30790153,-0.033571675,0.07551996
