7.00101e-40,-3.72553e-40,6.75049e-40,5.23971e-40,-6.20701e-40,3.6914e-40,4.84873e-40,3.83444e-40,-6.33216e-40,5.62369e-40,-7.2814e-40,-3.19336e-40,-2.0934e-41,1.25377e-40,8.64083e-40,-1.72315e-40,2.69472e-40,-7.21129e-40,-2.10013e-40,-1.8185e-40,2.55025e-40,1.85823e-40,6.27102e-40,1.05243e-40,1.45795e-40,2.1845e-40,-7.68485e-40,-3.774e-41,-5.38934e-40,1.38214e-40,8.3276e-40,5.76707e-40,-7.65326e-40,-1.22256e-40,1.57189e-40,5.4002e-40,-5.56834e-40,-5.52253e-40,2.23209e-40,-1.088864e-39,1.80368e-40,1.04838e-40,4.4919e-41,-5.9376e-41,1.009224e-39,0.002467355,0.0032063364,0.0015763933,0.0018517096,0.0022661595,-0.0008978945,-4.6632256e-05,7.756788e-06,0.00044905284,4.0996e-41,-2.3993e-41,1.37825e-40,4.25007e-40,3.12885e-40,-6.72684e-40,-3.09268e-40,-2.82825e-40,-2.58265e-40,8.572e-41,1.10696e-40,-6.6915e-41,-8.9261e-41,9.62e-41,-9.2909e-41,-7.1294e-41,-1.35148e-40,2.95705e-40,-5.36226e-40,-8.03144e-40,-9.50775e-40,4.93261e-40,7.91787e-40,-1.295e-41,6.69653e-40,-3.05751e-40,-2.40897e-40,9.70026e-39,-8.103233e-39,-4.087761e-39,-4.863841e-39,-3.1396e-40,-1.6170868e-38,7.94193e-40,-6.721727e-39,6.733908e-39,-1.176824e-39,-1.262955e-39,1.87807e-39,1.219146e-39,-7.7607e-40,3.2918e-41,-8.94618e-40,2.86071e-40,3.31907e-40,-4.392607e-39,-9.37103e-39,-2.425618e-39,-2.284074e-39,7.27172e-40,-9.846341e-39,1.6860154e-38,-1.1587997e-38,1.0176535e-38,6.9938e-40,6.30622e-40,4.72127e-40,2.82565e-40,-6.1048e-40,-1.173325e-39,-2.927624e-39,-1.22324e-40,-4.276809e-39,-6.04634e-40,3.32856e-40,3.55739e-40,8.94609e-40,-1.6891e-40,7.87817e-40,-5.35003e-40,-1.9458e-41,-3.0225e-41,1.14015e-40,-3.25642e-40,-8.04449e-40,2.71789e-40,4.53785e-40,3.23404e-40,-3.32929e-40,2.1658e-41,-1.9763e-40,-3.313855e-39,9.326367e-39,-1.4830149e-38,1.241996e-38,-3.47809e-40,1.1129157e-38,2.425976e-39,7.020498e-39,-7.28665e-40,0.0033464415,0.0029488602,0.0027435115,0.0041443845,0.0046369317,0.0041653626,0.0071271025,0.0068346066,0.0071399612,-5.18884e-40,-2.06326e-40,-3.39616e-40,2.95186e-40,3.07656e-40,3.24964e-40,6.10897e-40,6.91182e-40,7.16747e-40,6.21182e-40,4.25074e-40,-2.02776e-40,1.36089e-40,2.40787e-40,1.6338e-41,-5.66926e-40,2.92231e-40,1.35651e-40,3.38746e-40,8.3372e-41,4.34377e-40,6.76805e-40,-1.58612e-40,4.62305e-40,5.58388e-40,6.42795e-40,5.38197e-40,-5.78972e-40,-6.71991e-40,-3.01967e-40,-7.9854e-41,1.90774e-40,7.59937e-40,1.04387e-40,7.5096e-40,-1.11825e-40,-6.62785e-40,4.25363e-40,-5.11033e-40,4.66684e-40,2.41455e-40,6.02443e-40,-4.96481e-40,-4.53501e-40,-6.3894e-40,-2.1994e-40,-1.81294e-40,-6.87523e-40,4.19019e-40,8.22082e-40,-8.9016e-41,6.02634e-40,-6.20031e-40,-5.28871e-40,1.2194244e-38,-1.3900278e-38,-6.6288e-41,-6.574234e-39,-6.20959e-40,7.51903e-40,-6.685909e-39,9.488429e-39,-1.5664929e-38,9.54801e-40,7.40079e-40,-2.52441e-40,-2.07864e-40,-1.0176549e-38,6.08297e-40,-3.53805e-40,2.67909e-40,1.388594e-39,-9.31876e-40,2.28674e-40,7.75745e-40,-8.92675e-40,-2.06291e-40,8.82144e-40,5.8944e-41,-1.65652e-40,5.62687e-40,1.3655631e-38,-8.926097e-39,-2.404499e-39,-1.17998e-38,3.84344e-40,3.97334e-40,2.53737e-40,-1.6925865e-38,1.2161913e-38,3.33383e-40,7.53893e-40,4.25904e-40,-2.7354e-40,-1.22937e-40,2.8615e-40,-1.96028e-40,1.333e-40,-6.03316e-40,-1.78761e-40,3.27046e-40,-2.91823e-40,1.81045e-40,-6.6005e-41,2.59003e-40,1.43241e-40,5.65577e-40,-4.48818e-40,-2.3599e-41,2.2185e-40,6.01883e-40,2.1078e-40,-3.54094e-40,-6.4475e-41,6.83986e-40,6.25744e-40,2.02276e-40,-2.87395e-40,-5.39395e-40,-3.98364e-40,-1.77993e-40,5.3949e-41,6.68536e-40,5.3111e-40,8.82895e-40,8.56661e-40,-4.7806e-40,5.9197e-40,-1.7733e-40,3.87476e-40,6.474e-42,-3.85189e-40,5.8553e-40,-5.93982e-40,-7.4201e-40,4.80148e-40,-8.8676e-41,-2.67449e-40,-5.55646e-40,1.94528e-40,-3.64069e-40,6.88906e-40,-8.56165e-40,-6.77064e-40,-9.196551e-39,-1.1212652e-38,-6.626654e-39,-1.141842e-39,9.303e-41,-4.627448e-39,1.9999e-40,1.03838e-39,-1.181704e-39,7.22512e-40,6.30719e-40,-5.01984e-40,6.42776e-40,4.9921e-40,-6.3598e-41,7.73805e-40,5.40656e-40,8.1159e-41,7.48342e-40,1.55418e-40,-6.6529e-40,-6.16978e-40,-2.11235e-40,3.18154e-40,-3.0376e-41,4.87924e-40,-2.96184e-40,-4.63348e-40,-1.58366e-40,-4.99025e-40,2.52804e-40,1.60314e-40,-4.13386e-40,4.83103e-40,1.99811e-40,3.79926e-40,-8.21281e-40,-4.227e-40,1.80085e-40,6.6186e-41,7.59142e-40,-3.54243e-40,3.6396e-41,-4.66826e-40,-6.30133e-40,6.00078e-40,6.58606e-40,-7.78944e-40,7.54086e-40,-5.0514e-41,-4.59929e-40,-4.6033e-41,6.3244e-40,6.62234e-40,-7.5077e-41,1.035883e-39,1.31771e-40,-6.50867e-40,-1.38231e-40,-4.9662e-40,1.15621e-39,-7.80694e-40,1.394838e-39,-2.0902e-41,-2.01797e-40,8.09326e-40,1.929e-41,1.963e-41,1.95215e-40,-1.67223e-40,8.12156e-40,5.20685e-40,-4.23237e-40,4.89601e-40,2.7262e-41,-4.69946e-40,1.5892e-40,-1.61033e-40,-1.25566e-40,-2.02115e-40,4.84575e-40,4.84625e-40,6.80745e-40,3.5336e-40,9.8719e-41,-1.57558e-40,5.15199e-40,-3.42112e-40,1.85044e-40,3.02969e-40,-7.85914e-40,8.36986e-40,2.41856e-40,-7.00625e-40,2.51469e-40,1.84195e-40,-3.17932e-40,-3.1092e-41,4.9926e-40,-4.75343e-40,7.3697e-40,-3.8254e-41,3.20781e-40,2.0787e-41,4.62183e-40,-2.45293e-40,1.09106e-40,2.06432e-40,-5.23604e-40,-4.95714e-40,-5.83988e-40,-7.67934e-40,7.20493e-40,3.21997e-40,-7.61697e-40,-2.85636e-40,3.29853e-40,1.2831029e-38,1.52831e-40,1.2416082e-38,-1.6742552e-38,-4.06284e-40,-2.32408e-40,-6.676824e-39,3.85827e-39,2.96828e-39,-6.42634e-40,9.9537e-41,2.97145e-40,5.61052e-40,8.8604e-40,-5.666e-41,-1.742e-40,-1.75029e-40,7.14807e-40,5.9229e-41,-6.0395e-41,-5.7603e-40,6.5137e-40,-6.137e-40,-5.88191e-40,7.30151e-40,-4.7982e-40,1.59279e-40,-1.164161e-39,3.66526e-40,1.085592e-39,-2.7342e-40,1.08407e-40,5.96555e-40,-6.67359e-40,-1.152735e-39,9.7861e-41,8.3304e-41,-7.91498e-40,4.59037e-40,2.82673e-40,2.7976e-40,2.9423e-41,-1.101297e-39,2.02594e-40,-8.456e-40,-2.40858e-40,-7.99798e-40,1.4922e-40,1.1949e-41,-1.2604e-40,5.5155e-40,5.20322e-40,-4.78245e-40,6.99464e-40,6.27562e-40,2.23618e-40,-1.37357e-40,6.20372e-40,-4.43683e-40,-4.76633e-40,-4.79936e-40,6.8173e-41,-9.84e-43,1.20683e-40,3.18465e-40,7.31293e-40,7.55996e-40,-1.90298e-40,8.5224e-40,-2.23702e-40,3.9029e-40,3.42906e-40,3.54708e-40,7.48121e-40,-5.75646e-40,-1.55993e-40,5.19453e-40,-2.07395e-40,4.74159e-40,1.99312e-40,3.66287e-40,-8.88754e-40,8.6976e-41,1.96709e-40,-4.78045e-40,1.31181e-40,-1.76869e-40,-1.7825e-40,1.04813e-40,-5.13918e-40,-3.601e-41,7.62294e-40,1.5877156e-38,-5.56219e-40,3.17646e-40,-2.25347e-40,8.55755e-40,-3.77521e-40,2.58308e-40,-0.0038577844,-0.0017897869,-0.0032842862,-0.0004356127,-0.00010010345,-0.0035741169,0.0031611272,0.0026131317,-0.0010373292,-7.786e-41,-5.31285e-40,-7.70596e-40,6.85065e-40,6.3961e-40,2.85122e-40,2.37342e-40,-4.23104e-40,7.6501e-40,-6.10258e-40,-3.17817e-40,-1.75373e-40,7.45388e-40,1.63913e-40,-2.84828e-40,7.41395e-40,-8.13454e-40,2.36015e-40,5.4086e-40,1.4991088e-38,1.1194046e-38,-1.403957e-38,1.877e-41,6.4371e-41,-1.51179e-40,-6.3754e-40,-3.27286e-40,-1.426906e-39,8.12397e-40,1.275067e-39,4.29997e-40,4.36901e-40,-1.075022e-39,1.722791e-39,2.382374e-39,-1.683548e-39,-1.89433e-40,8.06719e-40,4.7876e-40,-4.79522e-40,5.9808e-40,-4.14828e-40,-4.09842e-40,2.13081e-40,-4.9117e-40,7.53132e-40,-8.29433e-40,-5.20144e-40,3.58465e-40,-1.71379e-40,5.58653e-40,-2.69454e-40,4.384e-41,-1.20671e-40,-5.66766e-39,-2.550318e-39,-6.171992e-39,5.261525e-39,-5.493917e-39,6.812551e-39,5.822018e-39,3.280173e-39,-3.148081e-39,-1.308587e-39,-2.584272e-39,-5.118105e-39,6.338594e-39,4.0493e-41,6.047294e-39,-5.689178e-39,3.963077e-39,4.49942e-39,-4.20014e-40,5.63224e-40,-3.158374e-39,-3.354189e-39,2.463131e-39,-3.527172e-39,-4.937116e-39,4.417735e-39,-1.565431e-39,7.079842e-39,7.947411e-39,-1.958928e-39,4.93401e-40,-4.574507e-39,6.346991e-39,-4.700489e-39,8.308705e-39,4.440904e-39,-8.00097e-39,-9.961014e-39,-6.03605e-39,-7.07996e-40,-4.775294e-39,-1.276495e-39,-1.3013326e-37,1.503762e-38,1.6108125e-37,-0.025981639,0.019072872,-0.027170928,-0.00542841,-0.050935898,-0.23242633,0.010111273,-0.16928455,-0.41124675,3.236904e-39,1.4074311e-37,-3.227314e-39,7.06453e-40,-3.727196e-39,-3.718479e-39,6.763968e-39,5.793559e-39,5.092652e-39,4.163783e-39,1.16107e-40,1.57081e-39,6.840916e-39,2.35388e-39,7.020665e-39,2.914074e-39,-3.758997e-39,2.318342e-39,2.51655e-39,-1.631197e-39,2.992666e-39,5.235089e-39,3.29143e-39,1.737522e-39,-2.212025e-39,-3.05388e-40,2.242202e-39,-1.674371e-39,-5.03153e-39,1.3646404e-37,2.203263e-39,-2.34832e-40,9.1207e-39,1.572977e-39,5.720135e-39,-2.127782e-39,8.600007e-39,1.5616845e-38,2.48635e-40,6.347097e-39,2.966e-41,-1.7780356e-38,-6.55965e-40,-6.214113e-39,3.914173e-39,-4.75694e-39,4.772608e-39,3.216849e-39,2.945426e-39,-2.86007e-39,-9.368885e-39,6.10263e-39,-3.180041e-39,-1.3705252e-37,-6.793023e-39,-6.010399e-39,6.90316e-39,-5.589386e-39,1.056094e-39,2.021625e-39,2.914945e-39,1.966586e-39,7.88937e-39,5.453625e-39,-6.46189e-40,-1.97775e-40,-3.457275e-39,1.538044e-39,8.53035e-40,-3.701132e-39,-6.91943e-40,2.311083e-39,6.507214e-39,-9.99206e-40,3.162791e-39,2.11816e-40,6.235307e-39,-7.096596e-39,6.447688e-39,-6.441531e-39,8.20211e-40,-1.607321e-37,-4.729983e-39,-5.692371e-39,-8.3012e-41,-6.5539357e-38,7.356333e-39,8.237508e-39,1.4291243e-37,1.4695623e-37,0.03574769,-0.027927529,0.04032232,0.13362508,0.019302892,0.043530263,0.03053065,-0.07124944,-0.14913388,-2.129513e-39,-6.7732e-40,-1.583876e-39,1.836615e-39,5.384136e-39,7.977921e-39,5.834543e-39,-8.01087e-40,5.669844e-39,1.0350594e-38,-1.2680417e-37,-1.0191462e-38,-6.748735e-39,6.294379e-39,8.973655e-39,-5.724604e-39,2.70865e-39,5.845406e-39,6.86223e-40,-2.24984e-39,-6.60267e-39,-8.006665e-39,1.606132e-39,8.553176e-39,2.731006e-39,-6.053629e-39,-1.156294e-39,5.647401e-39,1.62078e-40,6.935323e-39,3.64409e-40,2.88681e-39,-1.789284e-39,4.247062e-39,-1.491769e-39,-4.039198e-39,3.203094e-39,4.400905e-39,-2.56311e-39,1.322265e-39,5.285726e-39,-7.456103e-39,5.037489e-39,-4.35325e-40,6.22061e-39,6.333031e-39,-3.798564e-39,4.03553e-39,-3.471561e-39,-4.615038e-39,6.614356e-39,-1.436945e-39,-4.612569e-39,-2.458067e-39,-9.607087e-38,-5.534895e-39,1.6096079e-37,7.382492e-39,5.287936e-39,1.4279517e-37,-6.851171e-38,1.0681171e-37,1.291004e-39,-1.407881e-38,-1.4209148e-38,2.7855e-40,-5.557103e-39,1.1221811e-37,1.0011515e-38,1.49286e-39,4.203545e-39,8.727423e-38,-1.0914721e-38,-9.47145e-39,-1.769536e-39,1.5381238e-37,-1.1298905e-38,-1.1151753e-38,-8.773835e-39,-5.710486e-39,-9.151964e-39,-3.290263e-39,-5.560057e-39,-7.245372e-39,-1.0901484e-38,-2.786164e-39,-2.0845305e-38,-1.1912784e-38,-2.967158e-39,-6.731193e-39,-6.30622e-39,-2.861489e-39,-4.161838e-39,1.68337e-39,1.392039e-39,-4.726136e-39,-2.517618e-39,-4.8104e-39,-7.478417e-39,-5.170647e-39,7.081785e-39,1.928026e-39,-6.447087e-39,4.897303e-39,4.494016e-39,5.10846e-40,-1.593966e-39,-7.336676e-39,6.377521e-39,7.860756e-39,1.403406e-39,2.53156e-39,-3.340394e-39,8.99594e-40,4.122469e-39,-4.911752e-39,1.344333e-39,6.733047e-39,8.87493e-40,-3.562591e-39,-2.45145e-40,-5.483392e-39,-3.423872e-39,4.010131e-39,-1.638296e-39,3.27708e-39,-5.481392e-39,4.67903e-40,-5.468419e-39,5.456113e-39,-2.035215e-39,7.037688e-39,2.036406e-39,-1.573088e-39,-4.84632e-40,8.94013e-40,1.026305e-39,5.63405e-40,-4.951743e-39,2.171665e-39,2.486464e-39,3.068614e-39,-7.324881e-39,2.089765e-39,1.6194495e-37,1.3533267e-37,1.2721918e-37,6.41177e-40,-9.496049e-39,1.1345652e-38,-7.846872e-39,6.070152e-39,2.505173e-39,-1.03112e-40,8.89314e-40,-4.278524e-39,-6.466142e-39,4.613075e-39,-3.41672e-39,1.255e-40,-6.179376e-39,-3.65701e-39,-2.918786e-39,5.73969e-40,-1.125557e-39,-7.00886e-39,2.016684e-39,-1.568021e-39,-5.601146e-39,-6.27945e-39,4.292549e-39,8.18674e-39,1.69397e-40,-6.9228e-40,5.770296e-39,4.926762e-39,7.286162e-39,3.030968e-39,-2.240989e-39,-2.72194e-39,7.747e-40,1.183601e-39,-6.28288e-39,6.526228e-39,-6.599606e-39,-5.767382e-39,2.813209e-39,-6.745522e-39,-1.758833e-39,-2.402822e-39,-7.784e-39,-6.078494e-39,-9.035662e-39,1.738424e-39,-4.299418e-39,-9.48271e-40,-3.86805e-39,5.450224e-39,1.4533845e-37,-6.80499e-40,-2.714335e-39,-8.449624e-39,-2.7915e-40,3.41946e-40,1.5593701e-37,1.4539841e-37,-1.527018e-37,2.033465e-39,1.996004e-39,6.254965e-39,-7.040229e-39,-4.713681e-39,-6.86925e-40,-2.443486e-39,5.586264e-39,6.428342e-39,-7.167325e-39,-1.874321e-39,-4.031461e-39,2.560049e-39,2.593125e-39,-5.34644e-40,3.31633e-39,-8.290481e-39,5.28101e-39,-4.835357e-39,1.945823e-39,-7.10313e-40,1.35218e-39,9.76014e-40,-6.942686e-39,4.590931e-39,3.702238e-39,-2.489369e-39,1.5409642e-37,-5.133087e-39,1.45245e-39,6.547759e-39,-2.165174e-39,9.173822e-39,-7.694708e-39,-7.196167e-38,-1.1956837e-37,1.056793e-39,2.997121e-39,-2.067132e-39,1.390766e-39,7.848881e-39,3.365835e-39,-6.114064e-39,6.069052e-39,3.374847e-39,6.827255e-39,-7.396377e-39,-7.56139e-39,-1.5389e-41,-3.922796e-39,-5.658632e-39,-7.70159e-40,6.514644e-39,-1.935808e-39,1.4063e-41,-1.5818812e-37,-7.7604957e-38,1.3060794e-37,-2.08299e-40,4.759335e-39,-1.0802451e-37,-1.393092e-39,1.4856769e-37,-7.60876e-40,6.50366e-40,-2.847828e-39,-2.878193e-39,-7.843889e-39,-6.143242e-39,3.474014e-39,-3.404169e-39,-4.36208e-39,-5.818355e-39,-6.893242e-39,9.85266e-40,1.938918e-39,-5.899197e-39,4.327993e-39,3.775036e-39,-4.81825e-39,-5.796891e-39,-1.182685e-39,-2.450254e-39,1.2356915e-38,-1.1894939e-38,-5.002493e-39,1.4056425e-38,-9.964755e-39,-8.26901e-39,8.72678e-39,9.80917e-40,2.812117e-39,4.696289e-39,-1.1253047e-38,-6.878805e-39,6.14585e-39,-7.79857e-39,-6.98574e-39,5.398927e-39,-1.95316e-40,2.868227e-39,4.44434e-39,-7.388856e-39,3.621601e-39,-5.93255e-40,7.978485e-39,7.211289e-39,4.053271e-39,-6.589303e-39,7.65329e-40,3.206789e-39,1.777422e-39,3.010003e-39,5.01769e-40,-2.037862e-39,-3.399645e-39,-3.76664e-39,7.370407e-39,-5.647168e-39,6.485787e-39,-3.78466e-39,3.984057e-39,9.07096e-40,-6.41757e-39,4.333799e-39,4.474863e-39,2.0303e-39,-4.73364e-39,5.897156e-39,-5.19922e-40,3.014835e-39,3.69853e-39,6.33161e-39,7.86665e-40,-1.065375e-39,-5.5097e-40,3.447512e-39,5.247514e-39,-1.096758e-39,-4.094799e-39,5.58231e-40,1.912019e-39,-5.257351e-39,1.397017e-39,-5.23361e-40,-9.214778e-39,-4.939766e-39,-3.835511e-39,8.9558e-40,8.76682e-40,1.349613e-39,6.103403e-39,-2.268844e-39,-0.07422044,-0.1606022,-0.11573888,-0.20414998,-0.33153102,-0.28495616,-0.02818528,-0.1670651,-0.012237439,3.496897e-39,7.18287e-39,5.759922e-39,3.511526e-39,4.878216e-39,2.0742e-39,3.409925e-39,6.301725e-39,6.294309e-39,-4.845787e-39,2.91985e-39,-5.857994e-39,-6.480422e-39,-3.803584e-39,5.535429e-39,7.63858e-39,-2.587198e-39,5.30018e-39,-5.08374e-39,5.442053e-39,-5.94478e-40,9.027666e-39,-2.556235e-39,3.671119e-39,-3.856935e-39,5.05785e-40,-4.654765e-39,-9.860074e-39,-2.801194e-39,4.997811e-39,-7.122027e-39,9.556215e-39,2.2986988e-38,-6.481073e-39,6.132e-40,8.127645e-39,-1.996318e-39,6.878956e-39,5.072681e-39,-7.817267e-39,4.280343e-39,3.022161e-39,5.075212e-39,6.27377e-40,3.014113e-39,1.948864e-39,7.596035e-39,6.007685e-39,-5.698236e-39,5.957838e-39,-2.371056e-39,-8.292671e-39,3.446652e-39,-6.21827e-39,-4.75821e-40,8.422633e-39,6.64112e-40,-6.706022e-39,-6.224884e-39,-8.342295e-39,5.55162e-40,1.1426674e-38,2.93194e-40,8.644916e-39,9.0332e-41,9.317056e-39,9.904176e-39,-1.646991e-39,-1.063438e-38,7.695072e-39,-4.8402e-40,-3.791032e-39,9.938135e-39,8.255363e-39,3.380183e-39,-3.831904e-39,-2.367838e-39,-1.0940374e-38,-5.915645e-39,-2.038151e-39,4.527706e-39,-4.195963e-39,1.1970477e-38,-2.565583e-39,-8.870565e-39,3.755253e-39,-1.0615553e-38,-1.38892e-39,-1.0277965e-38,-9.146236e-39,-2.2260393e-38,-2.171858e-38,-1.3921087e-38,1.107424e-38,1.8565478e-38,-2.109447e-38,-1.4447132e-38,1.9475833e-38,-1.7702725e-38,0.018383382,-0.11845131,-0.5315414,-0.1810212,0.0464052,-0.2890348,0.17363857,-0.22522205,-0.28335544,6.988584e-39,-5.817568e-39,1.7943975e-37,-2.1272715e-37,4.755252e-39,5.146057e-39,2.3364917e-37,1.7758464e-37,6.458764e-39,-1.352995e-38,1.09927e-38,3.954513e-39,-1.0410032e-38,2.913291e-39,5.067726e-39,-5.224971e-39,3.19454e-39,3.845408e-39,8.088606e-39,8.078522e-39,-6.962241e-39,1.1645272e-38,1.2427947e-38,3.69499e-40,1.5950905e-38,2.377884e-39,-1.796706e-39,-1.053119e-38,-1.1428878e-38,1.7090035e-37,5.464425e-39,8.6991e-40,1.5752377e-37,1.2660307e-38,-3.107235e-39,2.5421202e-37,9.795679e-39,-2.778001e-38,-1.905419e-38,-3.2622775e-38,1.2002354e-38,-3.796218e-38,-2.7075743e-38,-2.4540735e-38,3.1819127e-38,1.4115442e-38,-2.1002534e-37,2.5001716e-37,-2.3141507e-37,5.062949e-39,-1.727433e-38,-5.392627e-39,-1.7959728e-37,2.308603e-37,6.151553e-39,3.173675e-39,-5.766614e-39,-6.823459e-39,-7.320578e-39,1.0839858e-38,5.611732e-39,6.663212e-39,8.61092e-40,-3.55112e-39,6.8072e-39,4.11406e-39,-1.357048e-39,-4.074267e-39,5.52162e-40,5.209839e-39,1.176508e-39,-7.64321e-39,2.141421e-39,-7.714667e-39,-1.1763846e-38,-6.81156e-39,8.372325e-39,5.978075e-39,-1.1796027e-38,1.176487e-39,8.43395e-39,1.267128e-38,2.6591179e-37,1.4479672e-38,2.370678e-37,1.891556e-37,-1.3145111e-38,1.30947e-40,-1.1340201e-38,7.097062e-39,-0.036237914,-0.09389122,-0.02276066,-0.11025735,-0.09036601,-0.13143907,-0.120444596,-0.056308646,0.09401345,-1.2049017e-38,-5.358117e-39,3.88273e-39,3.567368e-39,-6.369976e-39,3.403199e-39,1.1760878e-38,-1.1256825e-38,-1.33172e-39,1.6065892e-38,1.1808917e-38,-2.014242e-39,3.36019e-40,-6.497874e-39,1.2376582e-38,-1.6039095e-38,-1.21543e-38,-7.534869e-39,5.041751e-39,-7.368452e-39,-5.164574e-39,7.142882e-39,2.960317e-39,4.138048e-39,-1.0104423e-38,2.089169e-39,-8.52773e-39,-9.30644e-40,-5.336393e-39,-2.638027e-39,5.5734e-40,-1.40979e-39,-4.240021e-39,1.3463831e-38,-1.01247e-40,-1.1809799e-38,1.915899e-39,7.940033e-39,9.206366e-39,1.628421e-39,-3.378256e-39,-5.441355e-39,-4.900338e-39,-6.696414e-39,-9.031671e-39,-7.735629e-39,-4.247013e-39,5.680029e-39,-8.063988e-39,4.22657e-39,1.044835e-39,4.599403e-39,1.879234e-39,7.144425e-39,-1.9397076e-37,-6.586717e-39,-2.3507966e-37,-5.723922e-39,-3.749691e-39,-2.1954966e-37,-1.3064212e-38,6.712726e-39,-2.0587814e-37,-1.3403183e-38,-6.644467e-39,9.061253e-39,3.2110625e-38,-1.4473801e-37,-1.335035e-38,2.7865804e-38,3.2522072e-38,3.28643e-38,-2.294174e-38,-2.1470933e-38,-1.9886901e-38,1.472023e-38,7.66662e-40,5.180561e-39,1.1984211e-38,-5.141873e-39,1.8284187e-38,2.8835937e-38,-2.720923e-38,1.0116508e-38,-1.9366285e-38,2.618864e-39,3.646138e-39,3.6125172e-38,-5.67974e-39,2.3835756e-38,1.274611e-39,8.126964e-39,-9.55054e-40,6.797058e-39,1.479438e-39,-7.771589e-39,9.827071e-39,4.078516e-39,1.541047e-39,-6.329329e-39,1.04973e-39,-4.69376e-39,-2.29952e-40,3.00693e-40,4.286076e-39,4.345934e-39,1.91985e-40,4.905953e-39,3.46108e-40,4.501706e-39,-3.707955e-39,8.142581e-39,9.00053e-40,-1.2002259e-38,7.641875e-39,-7.667802e-39,-5.373335e-39,-5.805804e-39,-4.739228e-39,3.02221e-40,-1.0818219e-38,-5.069807e-39,-1.0217338e-38,1.332041e-38,6.298433e-39,1.110386e-38,-1.1407137e-38,-4.773464e-39,-6.28995e-40,3.012388e-39,-2.107002e-39,-4.577332e-39,1.3679285e-38,2.91974e-39,3.824944e-39,4.1156e-40,-4.076391e-39,4.59253e-40,1.23148e-40,2.408353e-39,-4.740034e-39,1.0807954e-38,2.442909e-39,-4.16236e-40,-1.6658269e-38,2.565062e-37,1.3089732e-38,-3.735354e-39,-1.3592605e-38,-6.284187e-39,5.843905e-39,7.487987e-39,3.229786e-39,9.750121e-39,-6.19424e-40,-7.397516e-39,2.754834e-39,-1.978095e-39,2.461266e-39,-7.227582e-39,-5.980642e-39,4.707878e-39,-8.635804e-39,-1.1389213e-38,-9.128434e-39,-5.07957e-39,1.569583e-39,5.270817e-39,-7.498342e-39,1.1437172e-38,3.464231e-39,-2.157082e-39,-4.07887e-40,1.1304865e-38,8.521208e-39,-1.3203934e-38,3.4567e-40,1.113416e-39,7.696118e-39,-5.907579e-39,5.680958e-39,-4.098313e-39,5.10049e-39,-7.094073e-39,9.33268e-39,-5.514184e-39,-1.092441e-38,-1.1225401e-38,-9.178192e-39,-2.304895e-39,-3.134762e-39,-8.262302e-39,3.442438e-39,3.920672e-39,-5.172634e-39,-5.816549e-39,-5.250064e-39,-9.726138e-39,2.0541457e-37,-2.510095e-37,-2.5349884e-38,-1.0701108e-38,-1.39605e-39,5.756114e-39,-1.339812e-39,2.0054268e-38,-2.4757103e-37,-9.04056e-40,-1.357592e-39,-5.223749e-39,2.7747e-40,-1.13303e-38,3.978869e-39,-6.987313e-39,7.0983e-40,8.841112e-39,-1.3343181e-38,-5.921452e-39,-1.081462e-38,2.890718e-39,2.909187e-39,-1.3902474e-38,1.1400294e-38,1.2015848e-38,-1.0400462e-38,1.618563e-39,6.421453e-39,1.588281e-39,1.291494e-39,3.345882e-39,5.703072e-39,6.396398e-39,-5.486972e-39,-8.553164e-39,-1.0762097e-38,-2.1662994e-37,-2.2488105e-37,-1.4631397e-38,3.983422e-39,-1.2689035e-38,1.713628e-39,1.142014e-38,-4.923883e-39,5.123708e-39,7.007372e-39,6.263845e-39,-1.0293695e-38,4.704718e-39,1.045448e-38,-1.283678e-38,3.711649e-39,7.32157e-39,-1.0887952e-38,9.403154e-39,6.207424e-39,1.705258e-39,1.3473178e-38,-3.85564e-40,-9.546532e-39,1.0678816e-38,-1.652655e-39,1.6383004e-37,1.341284e-37,1.3588316e-37,1.9905243e-37,-9.7009e-40,-1.4351834e-37,2.504022e-39,-1.9714747e-37,1.9987231e-37,-8.910909e-39,-6.400033e-39,8.973676e-39,-9.731899e-39,1.3348476e-38,5.2861e-39,4.790796e-39,-1.0184143e-38,1.1883134e-38,-1.1184092e-38,-3.36244e-39,-8.241794e-39,1.2616025e-38,-7.55474e-39,6.378618e-39,-4.214308e-39,7.531821e-39,-2.353918e-39,-7.517147e-39,7.972284e-39,1.0985324e-38,3.919748e-39,1.8499413e-38,2.1405599e-38,1.8405088e-38,-2.5705884e-38,-1.9513277e-38,5.901105e-39,-3.251707e-39,-9.88781e-39,-1.7040749e-38,7.144009e-39,-3.305422e-39,-1.3236238e-38,-5.684363e-39,-2.0153957e-38,-1.364388e-38,-1.0215096e-38,-8.349138e-39,-4.77284e-40,6.02088e-40,3.536238e-39,1.75419e-39,8.38369e-39,5.749473e-39,-4.285499e-39,3.600527e-39,-2.530978e-39,3.72663e-40,-6.922906e-39,-2.709762e-39,-6.122099e-39,1.396793e-39,-7.176073e-39,-6.698634e-39,-4.005628e-39,-7.606321e-39,6.555763e-39,7.849003e-39,1.1613475e-38,-2.130948e-39,4.545647e-39,1.1920414e-38,-3.47851e-39,6.422735e-39,4.6285e-40,-2.699492e-39,3.734186e-39,-1.1738443e-38,2.826083e-39,-7.026765e-39,-8.463222e-39,-1.0781218e-38,9.634388e-39,8.171993e-39,-4.178647e-39,5.097147e-39,-6.49685e-39,-8.156176e-39,-6.04128e-39,7.123837e-39,4.815889e-39,-1.2730477e-38,5.541988e-39,5.13304e-40,2.244697e-39,4.561351e-39,-4.47815e-39,1.295941e-38,-3.236548e-39,-0.6400217,-0.31683466,-0.22472988,-0.4009439,-0.11488896,-0.2922443,0.21508375,0.33695593,0.25293142,-1.030073e-38,-1.153502e-38,-7.800434e-39,2.778752e-39,5.347031e-39,-3.221309e-39,5.544839e-39,1.2491125e-38,-1.753394e-39,3.193398e-39,-2.36988e-40,-4.57952e-39,-9.386399e-39,6.182384e-39,-6.078425e-39,-9.107633e-39,1.3239392e-38,3.059745e-39,9.624118e-39,1.1966628e-38,6.203922e-39,-2.0619854e-37,-4.766782e-39,8.81312e-40,1.5433994e-38,7.018085e-39,-1.4798407e-38,-6.62753e-39,-1.705019e-39,-3.640118e-39,-1.440506e-38,9.36852e-40,3.3565456e-38,-2.020248e-39,3.487203e-38,-5.638314e-39,-1.0144227e-38,-7.585967e-39,-8.558353e-39,-7.02321e-39,3.196414e-39,1.0162684e-38,1.0026331e-38,1.1046937e-38,-9.11679e-40,3.440981e-39,-7.805937e-39,4.11261e-40,-4.502902e-39,4.425525e-39,-1.715507e-39,-1.3336044e-38,1.1713766e-38,7.578233e-39,-7.6801e-41,-8.9212e-41,5.5432e-40,-5.6527e-41,-2.87495e-40,-1.087054e-39,3.09128e-40,8.31253e-40,-3.50706e-40,-1.054088e-39,6.89184e-40,9.24652e-40,-5.37149e-40,1.378e-41,3.8748e-40,6.52278e-40,-9.07318e-40,-6.17174e-40,1.95669e-40,4.13348e-40,6.8115e-40,-1.014428e-39,-9.40128e-40,3.80838e-40,1.35377e-40,6.20372e-40,5.62648e-40,-2.89451e-40,-7.62396e-40,-9.50208e-40,-1.000124e-39,-1.0818e-39,9.52471e-40,6.95474e-40,3.59939e-40,5.05147e-40,-5.8066e-41,2.77328e-40,-6.36417e-40,1.041588e-39,6.5733e-40,-7.56518e-40,4.33422e-40,5.74434e-40,-1.95096e-40,-0.0013026384,0.00032502526,-0.0039171996,2.1374863e-05,0.0025820099,-9.3122195e-05,-0.00060008967,0.0002838355,-0.0015315631,1.3542e-39,3.89229e-40,4.68708e-40,7.75837e-40,3.05674e-40,1.115188e-39,1.16427e-40,6.712e-42,2.89053e-40,4.77254e-40,-9.9285e-40,-1.6828324e-38,8.1e-44,-6.4884e-40,1.439e-40,2.69146e-40,8.35342e-40,7.36039e-40,-9.86109e-40,1.3610855e-38,1.813657e-38,-1.8675026e-38,1.90351e-40,4.69994e-40,-1.1091879e-38,5.506936e-39,3.29326e-40,-1.0759186e-38,-1.3503275e-38,1.1864744e-38,-1.0434304e-38,-7.63951e-40,1.5021072e-38,-7.42552e-40,1.401262e-39,-1.821512e-38,3.56105e-40,1.6527e-40,7.7434e-41,1.97255e-40,5.88342e-40,2.203106e-39,6.35352e-40,7.31291e-40,9.0752e-40,1.440717e-39,1.0129853e-38,-1.295592e-39,-1.5405902e-38,-1.53905e-40,1.264218e-39,-2.3263449e-38,-1.229415e-39,2.3151452e-38,-7.90929e-40,3.400797e-39,3.354666e-39,-8.73637e-40,-7.34744e-40,3.53269e-40,1.63463e-40,1.09394e-40,6.6395e-40,9.43028e-40,-6.17307e-40,4.24338e-40,1.84524e-40,-1.26606e-40,-1.102711e-39,9.99898e-40,-9.08486e-40,9.19075e-40,6.03354e-40,7.65448e-40,3.9721e-41,1.53238e-40,4.7223e-40,2.95448e-40,-4.23414e-40,7.44038e-40,-2.22284e-40,1.335995e-39,-3.31767e-40,1.7540604e-38,6.5954e-40,2.1379277e-38,6.3965e-41,-4.66946e-40,-1.7268093e-38,1.1801509e-38,-0.0065340116,-0.0057778857,-0.0040905206,-0.007330664,-0.0075927805,-0.0054755947,-0.0047617704,-0.0065466305,-0.0020170044,-1.67699e-40,6.79138e-40,-4.00308e-40,-1.012989e-39,-2.4993e-40,2.5698e-41,8.61262e-40,-7.8436e-41,3.99146e-40,-2.7974e-40,7.1219e-40,-2.56833e-40,2.70291e-40,-4.8179e-40,-1.16037e-39,6.0515e-40,4.05529e-40,5.70013e-40,8.33956e-40,2.951e-40,-5.51188e-40,7.85956e-40,6.233e-41,2.82098e-40,-4.80411e-40,3.8949e-40,7.03375e-40,5.6563e-40,8.83887e-40,-1.60865e-40,-2.9863e-41,7.31425e-40,-7.7286e-41,-7.67113e-40,4.4585e-41,4.66286e-40,-1.097e-39,-7.9119e-41,-7.00903e-40,-7.63884e-40,4.34295e-40,-3.81932e-40,-1.15923e-39,1.137306e-39,-7.48718e-40,5.0153e-40,8.2064e-41,-7.21405e-40,-2.6305e-41,-7.3637e-41,-7.37576e-40,-9.96023e-40,4.79564e-40,9.58918e-40,5.868149e-39,5.674681e-39,7.86325e-40,-2.52888e-40,-5.31986e-40,-4.32488e-40,-8.930744e-39,-1.1644132e-38,-1.4218423e-38,1.27718e-39,-2.016512e-39,6.84408e-40,1.543448e-39,2.760223e-39,-1.146107e-39,1.910096e-39,1.191123e-39,2.157244e-39,-1.256739e-39,-1.194996e-38,-1.20075e-39,-8.17922e-40,-7.03058e-40,-7.50153e-40,-8.10396e-40,-6.45054e-40,-7.64149e-40,-2.1634375e-38,-2.239498e-39,2.863219e-39,1.524716e-39,-9.71056e-40,1.6398067e-38,-1.7674531e-38,-2.112044e-39,-2.1718536e-38,8.76919e-40,-9.1665e-41,4.4687e-41,-4.33321e-40,-2.07438e-40,-4.34424e-40,-5.42061e-40,-7.7675e-41,1.87162e-40,-7.29352e-40,-4.54e-40,5.39318e-40,-8.08174e-40,-1.00842e-40,-1.070208e-39,-4.17762e-40,-6.62e-41,1.04283e-40,-3.06643e-40,8.0652e-41,1.27151e-40,4.03786e-40,-4.26054e-40,-1.62729e-40,-5.20131e-40,-4.62356e-40,1.37409e-40,-6.7703e-40,-1.38595e-40,5.31372e-40,4.6934e-41,-1.12139e-40,-1.55379e-40,-8.93808e-40,2.9429e-40,9.17088e-40,5.07653e-40,1.010548e-39,1.68778e-40,4.45701e-40,-6.617e-41,-1.008164e-39,3.7339e-41,-1.64477e-40,6.84512e-40,2.2086835e-38,7.50199e-40,-1.07995e-40,1.284103e-38,-9.12283e-40,5.09984e-40,2.0715188e-38,5.04753e-40,6.74344e-40,7.971314e-39,4.596399e-39,-1.467426e-39,7.87573e-40,4.97563e-40,-9.264742e-39,-5.46609e-39,-1.090358e-38,-9.591012e-39,1.9512e-40,-4.43765e-40,-2.04385e-40,5.94931e-40,-2.74517e-40,-8.77693e-40,-4.3175e-40,-2.5184e-40,7.91955e-40,8.59995e-40,1.024439e-39,-7.78e-40,6.47834e-40,5.96793e-40,2.6102e-41,-1.077648e-39,-3.1582e-41,-9.71346e-40,4.029e-42,-1.097252e-39,-6.6774e-40,-2.28665e-40,3.50462e-40,8.46991e-40,7.05255e-40,-4.7426e-40,5.94373e-40,-3.79926e-40,1.08106e-40,8.4621e-40,-5.3067e-41,-4.59933e-40,-9.7884e-40,-8.00943e-40,-8.82807e-40,-4.88245e-40,1.6524337e-38,-1.9720923e-38,-1.713713e-38,-4.41244e-40,4.10456e-40,6.81139e-40,-2.3382126e-38,-1.7043004e-38,2.8638e-40,1.2623e-40,1.142591e-39,9.18749e-40,-8.30021e-40,-1.140628e-39,-8.6324e-41,-4.77575e-40,-1.101244e-39,8.74748e-40,-5.91593e-40,2.39743e-40,8.2508e-40,-1.108618e-39,4.2245e-40,-1.91874e-40,-7.10115e-40,1.084971e-39,1.126431e-39,-3.9328e-40,3.58899e-40,8.97792e-40,9.36987e-40,4.62206e-40,-4.83536e-40,1.1388e-40,-8.57278e-40,3.21183e-40,3.28176e-40,-8.75474e-40,-1.58805e-40,3.83233e-40,-5.93632e-40,-2.75327e-40,3.0419e-40,1.98543e-40,-1.91197e-40,5.80083e-40,-3.06318e-40,-3.560247e-39,-6.9188e-41,1.27493e-40,-7.10506e-40,7.27452e-40,-9.84055e-40,-2.50445e-39,-1.04798e-40,-3.87739e-40,-2.82272e-40,-7.6921e-40,-1.98477e-40,-9.15562e-40,-9.60538e-40,7.5169e-40,2.9488e-40,-4.77258e-40,7.36434e-40,-3.3747e-40,9.4862e-40,-4.0923e-40,2.19208e-40,2.16014e-40,9.66645e-40,-3.39364e-40,-1.8955709e-38,-1.168271e-38,-1.7621942e-38,6.3203e-41,-2.50108e-40,-1.4357471e-38,1.2659842e-38,6.114014e-39,2.1177351e-38,3.54624e-40,1.6199522e-38,2.148734e-38,-2.0170659e-38,1.254323e-39,7.969012e-39,1.0119335e-38,2.3412956e-38,1.139613e-39,1.032907e-39,8.65377e-40,-2.34538e-40,-1.28722e-40,2.423e-41,9.7986e-40,-4.85436e-40,3.42166e-40,-3.72922e-40,5.2245e-41,5.44267e-40,2.181345e-39,-1.21012e-40,-1.163235e-39,8.29948e-40,-6.938e-40,7.4454e-41,1.838344e-39,1.038861e-39,6.76007e-40,4.12894e-40,1.104117e-39,-1.72207e-40,-4.33846e-40,-6.38598e-40,-8.81136e-40,1.856498e-39,3.05931e-40,-4.56366e-40,5.91729e-40,-7.71085e-40,-7.3025e-40,-8.48394e-40,-4.863e-42,-3.6856e-40,-2.24176e-40,-3.6217e-41,7.18297e-40,1.05125e-39,3.31886e-40,9.63185e-40,-3.72527e-40,4.45431e-40,-8.65675e-40,-5.4311e-40,6.86624e-40,4.36876e-40,-6.5739e-41,-4.4811e-41,4.51259e-40,-4.65975e-40,-1.041989e-39,-1.11731e-40,-5.527e-40,9.2435e-40,-9.6482e-40,-9.79894e-40,-7.62595e-40,-3.16848e-40,-1.131746e-39,-2.95901e-40,-5.19887e-40,4.85261e-40,-4.59805e-40,3.54219e-40,-5.77165e-40,-9.628e-42,-7.3158e-41,6.6696e-41,-1.7543e-40,-8.62551e-40,-4.15704e-40,1.9736892e-38,-1.8377917e-38,2.1018796e-38,1.1821008e-38,-3.44588e-40,-2.1731236e-38,9.343792e-39,-1.5110081e-38,-8.18245e-40,-0.0025448508,-0.0005659389,0.0034193192,-0.0012945414,0.00054113107,0.0040751873,-0.0003747721,1.2500613e-05,0.0036181344,3.52959e-40,3.50508e-40,2.83078e-40,-1.46657e-40,-7.18217e-40,-6.7177e-40,-6.61836e-40,-6.0348e-41,6.21868e-40,-9.20122e-40,2.9601e-40,-7.24421e-40,6.394e-40,4.06909e-40,1.018076e-39,-1.011632e-39,9.72081e-40,5.87856e-40,1.8546932e-38,5.736086e-39,-9.72788e-40,-1.6684947e-38,-9.59522e-40,9.1765e-40,9.279012e-39,-1.9200833e-38,-1.274748e-38,2.024537e-39,-1.474574e-39,3.01262e-40,1.80242e-40,-7.85729e-40,1.86566e-39,2.132499e-39,2.264676e-39,1.866464e-39,-3.57887e-40,1.136446e-39,6.84994e-40,3.5278e-40,-4.25167e-40,8.032e-40,7.87584e-40,-1.70671e-40,-4.7301e-41,-7.2444e-41,-4.57866e-40,-9.34979e-40,-5.0483e-40,8.39665e-40,-2.33022e-40,-4.10091e-40,-5.06607e-40,7.21372e-40,6.77445e-40,2.85082e-40,-3.03276e-40,-6.01674e-40,2.2331e-41,8.0837e-41,4.3439e-40,-1.92915e-40,-5.43992e-40,-4.31142e-40,-4.69697e-40,8.719e-41,-1.22017e-40,-8.0988e-41,-2.98715e-40,3.36818e-40,-7.8675e-41,6.09646e-40,-2.8439e-40,3.90315e-40,5.83638e-40,6.62589e-40,-3.0767e-41,-2.87359e-40,4.1046e-40,6.3585e-41,-1.32416e-40,-6.05453e-40,-5.79853e-40,-3.92628e-40,2.40913e-40,-4.12057e-40,3.79599e-40,-3.23089e-40,1.69107e-40,1.12691e-40,7.41863e-40,-1.2661e-41,8.47245e-40,5.38047e-40,-6.31771e-40,-4.23998e-40,9.27148e-40,5.5985e-41,6.9458e-40,-0.00051333976,-0.0012191036,0.0018434885,-0.0019600354,6.157262e-05,0.0030397787,-0.00022552277,0.0010374214,0.0021462666,1.0051004e-38,-1.3932689e-38,8.03586e-40,5.0119e-40,-6.34762e-40,-6.99244e-39,1.2457639e-38,7.807749e-39,-1.4698e-41,4.08138e-40,2.64876e-40,-3.05623e-40,4.4026e-41,1.41231e-40,6.6927e-40,2.54778e-40,-3.67555e-40,5.28689e-40,5.533554e-39,5.34797e-40,-1.55477e-40,7.003851e-39,6.67024e-40,-3.58256e-40,-1.2010936e-38,7.345443e-39,5.643165e-39,8.459094e-39,-9.880305e-39,9.318727e-39,3.501109e-39,8.8136e-41,3.049059e-39,-1.0285361e-38,1.01362e-38,9.466724e-39,5.88884e-40,5.48636e-40,-7.63335e-40,4.45963e-40,1.046155e-39,-8.6443e-40,-4.1815e-40,1.27972e-40,1.17575e-39,3.523191e-39,-2.96065e-40,6.840231e-39,-3.386361e-39,-6.29938e-40,-4.381849e-39,-5.510822e-39,-7.474135e-39,-1.78446e-40,-3.735751e-39,-3.93297e-40,-9.43672e-40,3.86175e-40,-7.08234e-40,3.10354e-40,-3.91825e-40,-3.770335e-39,-4.097723e-39,-6.27291e-40,-5.03646e-40,-2.15472e-40,-3.7896e-40,-5.68397e-40,-2.54201e-40,4.63425e-40,-1.09973e-40,5.2622e-40,1.02625e-40,5.22519e-40,4.4194e-41,8.8021e-41,-2.6555e-40,6.3779e-41,3.02878e-40,4.12198e-40,-5.93973e-40,5.414687e-39,6.20365e-40,6.548185e-39,7.502462e-39,9.441714e-39,-3.353488e-39,1.1818066e-38,3.448366e-39,-2.457093e-39,-0.0012501145,-0.0019539318,-0.0009650784,-0.0031458293,-0.0043159043,-0.0030273804,-0.0026191333,-0.0040724683,-0.0032173037,-3.6153e-40,1.2317e-40,1.27852e-40,-3.31856e-40,-8.2786e-41,-1.75301e-40,-3.01814e-40,2.30941e-40,-5.3377e-41,-2.84814e-40,1.24968e-40,1.464004e-39,-5.96622e-40,-1.23264e-40,6.71945e-40,-2.67355e-40,-2.67005e-40,3.201e-41,-5.4065e-41,-1.79875e-40,-2.33665e-40,3.00794e-40,1.5677e-40,-4.11261e-40,-5.29171e-40,-1.46949e-40,-9.284e-42,-3.21838e-40,3.70932e-40,-2.921e-41,-3.22028e-40,-6.12711e-40,-5.73791e-40,-4.8888e-40,-2.61977e-40,-3.73082e-40,3.85796e-40,-5.60086e-40,-5.60591e-40,5.59677e-40,-9.7585e-41,7.04454e-40,-7.142e-41,1.57429e-40,-5.00325e-40,4.72926e-40,3.31378e-40,-5.9876e-41,5.97039e-40,5.7244e-41,-5.45863e-40,5.07578e-40,-4.95679e-40,-4.17427e-40,3.728e-40,-8.10671e-40,-3.046866e-39,-1.5552e-41,-3.50427e-40,4.94793e-40,-6.7631e-40,-3.913538e-39,-4.40797e-40,9.305621e-39,1.1028439e-38,-1.1706084e-38,4.57468e-40,7.110247e-39,-8.509833e-39,1.3891716e-38,8.32203e-40,-1.64208e-40,-5.2345e-40,6.62193e-40,-5.30497e-40,-9.65485e-40,2.25067e-40,2.17168e-40,-5.0116e-40,-6.15508e-40,1.90408e-40,-9.09224e-40,1.8594e-40,4.415409e-39,-9.377653e-39,-1.27817e-40,1.727238e-39,-1.2636813e-38,-1.1239281e-38,-3.41024e-39,3.8007e-40,3.42978e-40,7.11348e-40,4.90163e-40,-3.62317e-40,3.2826e-40,4.99131e-40,4.3569e-41,3.9919e-40,3.4422e-40,-2.5372e-40,5.58293e-40,5.64458e-40,-6.866e-41,-8.1954e-41,-2.0506e-40,-4.94329e-40,7.0684e-41,-6.18972e-40,4.52702e-40,-9.6662e-41,5.46505e-40,-9.3122e-41,1.21603e-40,1.22953e-40,1.41628e-40,9.7491e-41,6.3697e-41,-4.8079e-40,-3.97544e-40,1.87384e-40,2.14603e-40,2.57419e-40,-2.82297e-40,6.05962e-40,6.18903e-40,2.41092e-40,9.9283e-41,-5.79186e-40,-5.41365e-40,5.1349e-40,4.10323e-40,-2.19567e-40,-1.38238e-40,-6.3578e-40,6.46947e-40,1.3961054e-38,4.2336e-40,6.859869e-39,-5.89515e-40,1.30573e-40,4.3777e-40,-4.09625e-40,-2.73923e-40,7.521988e-39,-1.0371098e-38,-9.258137e-39,-7.887896e-39,-7.15137e-40,-5.866327e-39,7.93966e-39,-1.2706806e-38,-6.219258e-39,2.96452e-40,-4.238e-40,4.84289e-40,4.358e-41,1.51119e-40,-6.07959e-40,-5.2753e-40,2.1716e-41,-1.21732e-40,-3.66938e-40,5.67667e-40,-1.09342e-40,2.1333e-41,2.25176e-40,-6.53476e-40,4.40924e-40,5.2902e-41,1.56246e-40,5.76912e-40,6.51022e-40,6.21837e-40,-1.63016e-40,-2.95525e-40,-1.67336e-40,2.16283e-40,3.254e-41,2.63226e-40,-1.76222e-40,3.65285e-40,-7.6944e-41,2.83839e-40,3.01973e-40,4.03378e-40,-4.7072e-40,4.94063e-40,-4.05356e-40,5.78323e-40,-3.6871e-41,-1.2461882e-38,3.65838e-40,1.38947e-40,-7.15401e-40,-1.0834865e-38,1.95094e-40,5.3116e-40,-7.56288e-40,9.53186e-40,1.097232e-39,-1.14279e-40,8.4689e-41,2.60419e-40,-6.09642e-40,-8.742e-41,2.10559e-40,-2.62281e-40,6.60973e-40,-2.26129e-40,-2.79626e-40,-5.6076e-41,6.44837e-40,-2.31506e-40,5.747e-41,-3.47174e-40,-6.397e-42,1.12692e-40,-5.21989e-40,-6.8886e-41,-6.6038e-41,-4.4728e-41,4.51574e-40,4.06951e-40,-3.34567e-40,-4.28825e-40,-5.1063e-40,2.43562e-40,-1.62495e-40,-7.0275e-41,-3.86393e-40,4.852e-40,-5.68323e-40,6.37553e-40,-8.375031e-39,-4.13057e-40,3.734319e-39,1.0251291e-38,-1.87462e-40,1.0455758e-38,-6.44487e-40,1.0533195e-38,-1.3077385e-38,3.69944e-40,7.5398e-41,-2.156e-41,-6.68163e-40,4.751e-41,4.05324e-40,5.83686e-40,3.77927e-40,4.77683e-40,-2.73982e-40,1.69619e-40,5.05202e-40,-3.21451e-40,-2.15909e-40,-4.14892e-40,-4.10723e-40,9.8943e-41,2.49864e-40,1.1368244e-38,6.277056e-39,3.142094e-39,7.436928e-39,-1.94343e-40,-4.268225e-39,7.513509e-39,-3.973e-42,-4.063623e-39,-1.3802582e-38,7.015683e-39,1.6035e-41,-8.397324e-39,2.41454e-40,-1.0386505e-38,8.002006e-39,3.192717e-39,4.647737e-39,-2.30912e-40,2.64665e-40,-2.57166e-40,2.2982e-40,-4.97396e-40,-4.22347e-40,-1.37686e-40,-5.22488e-40,-3.00985e-40,-7.05621e-40,9.33935e-40,1.6689e-40,-7.3279e-40,6.1664e-40,-7.83624e-40,-1.019232e-39,-8.15128e-40,-1.079848e-39,2.70138e-40,-8.39249e-40,-5.73104e-40,-5.91674e-40,7.63227e-40,1.16047e-40,-5.9084e-41,-3.8541e-41,1.82141e-40,-2.60112e-40,-3.89505e-40,-1.1929e-40,-4.8757e-41,6.8082e-41,5.39294e-40,-3.35905e-40,-2.53552e-40,8.1637e-41,1.67612e-40,-1.2102e-41,5.70536e-40,3.8819e-40,-2.78763e-40,-6.8003e-40,1.58158e-40,5.08394e-40,5.3576e-41,-5.27538e-40,-2.65625e-40,-5.96573e-40,-5.51229e-40,1.71076e-40,9.9062e-41,-3.21887e-40,4.41158e-40,3.77979e-40,-3.46954e-40,-3.28338e-40,1.5666e-40,-4.0975e-40,-6.23387e-40,-3.25946e-40,-5.29682e-40,-3.91072e-40,2.8511e-40,-5.085e-42,9.666e-41,-2.85295e-40,-1.93295e-40,-3.3158e-41,5.92494e-40,-6.4695e-41,1.79185e-40,5.31508e-40,-7.42137e-40,-6.36889e-40,-6.69427e-40,-1.1395623e-38,-2.46699e-40,-1.11343e-40,-1.0030336e-38,-4.88631e-40,1.1150933e-38,2.1466998e-05,-0.0019103016,-0.002629762,-0.00034880487,-0.0006878659,-0.00056833203,0.00046459804,0.00053068995,0.0014099182,5.32324e-40,1.54794e-40,-1.8636e-41,9.927e-42,-4.0272e-40,-2.98139e-40,-4.24019e-40,1.6678e-41,-4.69827e-40,1.60044e-40,-3.48555e-40,-3.27825e-40,1.53303e-40,3.80765e-40,-1.0103e-40,3.38575e-40,-6.52289e-40,2.72532e-40,-1.2949022e-38,8.910046e-39,6.854624e-39,9.656755e-39,2.64522e-40,-3.83107e-39,-1.2374668e-38,5.627058e-39,1.731315e-39,-7.57493e-40,-8.7524e-40,-1.9527e-39,1.520288e-39,1.542328e-39,-1.685834e-39,1.079255e-39,1.821224e-39,1.500191e-39,4.81588e-40,-2.1502e-41,4.0544e-41,-1.8468e-41,1.6336e-40,4.28308e-40,-1.9436e-40,-1.92453e-40,-4.76908e-40,6.47383e-40,-5.53433e-40,3.3396e-41,-3.62027e-40,-9.6939e-41,3.62866e-40,1.27552e-40,-4.92527e-40,9.2993e-41,-5.60225e-40,3.44406e-40,-1.248096e-39,1.292105e-39,3.32248e-40,-2.51285e-40,-3.1041e-40,-1.19096e-39,-8.34546e-40,5.75355e-40,1.26233e-40,6.05378e-40,1.1464e-41,-6.1116e-41,-3.0237e-41,7.59326e-40,-8.59586e-40,-4.0663e-41,9.30131e-40,5.529e-41,-2.66367e-40,-1.84662e-40,-2.3271e-40,-2.6535e-40,-5.06544e-40,7.65302e-40,9.6979e-40,4.39394e-40,4.07833e-40,-1.086984e-39,-7.45164e-40,-5.77e-42,-7.27711e-40,8.66856e-40,8.82333e-40,1.77421e-40,-1.34324e-40,-1.73234e-40,-4.69733e-40,4.74087e-40,1.257878e-39,1.239785e-39,9.70363e-40,1.01277e-40,1.16e-41,0.0029026575,0.0011269145,-0.0020491465,0.0047891354,0.002410032,-0.0025134753,0.004176976,0.0037289278,-0.0040072077,1.7467464e-38,1.4236451e-38,2.0113375e-38,-2.68784e-40,3.3837e-40,4.62692e-40,-1.230538e-39,-1.220174e-39,-3.4688e-40,-9.24872e-40,-3.66636e-40,5.93461e-40,7.64847e-40,1.202044e-39,4.74363e-40,-4.77651e-40,5.15765e-40,2.42381e-40,-2.037507e-38,-2.0492456e-38,-2.0786938e-38,-5.669285e-39,4.42208e-40,-1.080117e-39,-9.2846e-40,1.551876e-39,4.449571e-39,3.311839e-39,1.9059645e-38,-3.176524e-39,-1.9293293e-38,1.105903e-39,-1.430967e-38,9.44017e-40,2.5545632e-38,-1.5692341e-38,2.6975e-41,-3.70976e-40,-5.79595e-40,1.522522e-39,3.25126e-40,-2.408002e-39,2.141544e-39,5.60106e-40,5.41739e-40,-2.588637e-38,-2.1982766e-38,2.0988452e-38,-5.860366e-39,-8.12998e-40,1.4694286e-38,7.71886e-39,2.2222743e-38,9.842031e-39,-7.9417e-41,1.040732e-39,5.16187e-40,5.103498e-39,1.65776e-40,3.94021e-40,1.243212e-39,-5.71305e-40,1.43318e-40,-4.1186e-41,3.51796e-40,6.61466e-40,-1.40306e-40,-4.70266e-40,1.79251e-40,4.35613e-40,-8.39758e-40,-1.29064e-40,-1.31285e-40,9.35276e-40,-7.93122e-40,-4.26552e-40,3.90711e-40,4.34908e-40,1.106266e-39,-5.17046e-40,1.216767e-39,-1.498418e-39,-1.5142978e-38,-1.5521589e-38,1.5117106e-38,-1.0981543e-38,1.380216e-38,-1.0896435e-38,1.267997e-39,8.052092e-39,-0.008870355,-0.0052623623,-0.0015784465,-0.0125849,-0.010563214,-0.008975492,-0.010579171,-0.0077182446,-0.0051884595,-1.45863e-40,-5.61307e-40,-4.19749e-40,1.243644e-39,-1.88524e-40,-3.50419e-40,1.078841e-39,2.3634e-41,-3.16923e-40,1.15305e-39,3.72517e-40,-9.38203e-40,-8.9893e-41,-6.59088e-40,-4.39276e-40,5.11536e-40,-1.006707e-39,-1.009805e-39,5.66345e-40,-7.3574e-40,-2.75389e-40,3.5838e-41,1.018e-41,9.7124e-40,-7.6577e-41,-5.60133e-40,6.56909e-40,-5.70233e-40,4.9869e-40,8.29811e-40,-1.00721e-40,3.82061e-40,-1.319562e-39,3.97763e-40,1.278363e-39,-3.42686e-40,-1.265948e-39,-5.49966e-40,-4.16861e-40,-3.7996e-40,-2.52808e-40,-1.191404e-39,1.001144e-39,7.15503e-40,1.255046e-39,-8.1327e-40,-1.00494e-40,4.69882e-40,-6.12601e-40,1.97844e-40,-4.46283e-40,-4.38713e-40,1.146087e-39,-1.3755e-41,-2.78114e-40,-1.97063e-40,-1.25052e-40,-1.050006e-39,-3.8673e-40,6.24762e-40,6.20665e-40,6.29969e-40,1.6130476e-38,1.87658e-40,-7.59711e-40,1.84588e-39,2.430846e-38,1.2082503e-38,-1.9329864e-38,-1.068846e-39,-2.1035518e-38,1.76395e-40,-8.32787e-40,8.95528e-40,-1.479718e-39,-4.56784e-40,-7.99274e-40,1.783784e-39,-1.615502e-39,7.12074e-40,1.88259e-40,9.8507e-40,3.247529e-39,1.320445e-39,-6.708585e-39,1.784607e-39,-1.201675e-39,-3.19277e-39,-9.24539e-40,-2.191391e-39,-7.66133e-40,9.7689e-41,-1.350454e-39,1.190568e-39,-1.23331e-40,-2.65078e-40,5.13e-43,4.1955e-40,-1.99182e-40,9.80203e-40,7.31495e-40,4.84661e-40,5.96233e-40,5.05172e-40,3.90585e-40,1.4592e-40,-4.21554e-40,8.3991e-41,5.32475e-40,3.90078e-40,3.8263e-40,8.13332e-40,5.25324e-40,-6.11806e-40,-4.02934e-40,8.2109e-41,-1.126916e-39,-3.18465e-40,-1.21298e-40,1.26589e-40,-4.95035e-40,5.08565e-40,8.9817e-40,1.120347e-39,5.13661e-40,-1.4877e-40,8.706e-40,-3.89038e-40,-1.2588e-41,-8.06274e-40,-3.58724e-40,2.5671e-40,4.25113e-40,6.81447e-40,-3.26292e-40,5.89189e-40,-1.357977e-39,1.161134e-39,-8.1248e-40,3.34882e-40,-9.949e-41,-1.264243e-39,5.9838e-41,1.024915e-39,2.0728221e-38,1.525795e-38,-1.634217e-39,-2.5840524e-38,1.075414e-39,-5.81721e-40,4.13949e-40,-1.9629476e-38,1.6582523e-38,-5.90118e-40,1.277873e-39,4.57558e-40,-7.64981e-40,-1.10697e-40,3.73457e-40,-9.79637e-40,-9.94127e-40,-8.02287e-40,-2.98069e-40,5.73991e-40,2.35257e-40,9.85292e-40,2.89993e-40,-1.000268e-39,3.86845e-40,-1.183418e-39,2.7384e-40,-1.317097e-39,-1.20739e-39,4.00481e-40,-7.29945e-40,-1.84181e-40,-1.34748e-39,8.98092e-40,7.87677e-40,4.11e-42,-1.078979e-39,6.06496e-40,3.33487e-40,-5.44636e-40,6.88232e-40,8.96621e-40,-7.9783e-40,-9.1407e-41,-5.94909e-40,-7.082e-41,-5.81469e-40,4.64926e-40,-4.87414e-40,1.211701e-39,3.17044e-40,3.78962e-40,4.41017e-40,-3.58676e-40,-1.86192e-40,2.49318e-40,4.04869e-40,-3.19308e-40,1.510736e-39,1.818539e-39,1.031148e-39,-4.63754e-40,1.190975e-39,5.6372e-40,6.7556e-40,7.27427e-40,-5.87433e-40,6.61316e-40,-9.13658e-40,6.56004e-40,9.54789e-40,1.267629e-39,7.45198e-40,3.01241e-40,3.34491e-40,-9.85406e-40,5.3474e-41,1.029589e-39,4.83107e-40,-3.21531e-40,3.02812e-40,3.47252e-40,-3.46837e-40,3.1215e-41,1.162866e-39,-2.49524e-40,-1.17888e-40,-7.9935e-40,-1.001177e-39,-1.160666e-39,5.519611e-39,4.718377e-39,-3.971735e-39,3.538123e-39,5.37841e-40,-8.336148e-39,9.284318e-39,5.179471e-39,-3.62369e-40,-2.69813e-40,-5.77025e-40,5.53789e-40,1.85203e-40,-6.9264e-40,-5.37165e-40,-1.2327e-41,9.21711e-40,-8.48095e-40,4.69675e-40,-6.76645e-40,7.89057e-40,5.11928e-40,-4.12783e-40,-1.068063e-39,9.92827e-40,2.39538e-40,2.32582e-40,-1.232222e-39,-6.65456e-40,3.57218e-40,-6.61466e-40,6.8847e-40,-4.35402e-40,-6.20484e-40,-1.126752e-39,-1.43151e-39,-2.8857e-41,1.2287738e-38,1.4053014e-38,1.093021e-38,3.36833e-40,-6.12833e-39,-6.347413e-39,-7.448448e-39,-1.0541132e-38,2.67491e-40,1.176347e-39,-1.147535e-39,-2.74907e-40,-4.3024e-40,1.147072e-39,-5.25886e-40,-9.31587e-40,-8.53227e-40,2.05957e-40,-7.35753e-40,-1.314012e-39,1.711839e-39,7.52129e-40,3.91243e-40,2.00293e-39,7.05698e-40,1.092018e-39,-1.594766e-39,-9.52642e-40,3.71935e-40,-8.09579e-40,-6.89905e-40,-9.64049e-40,-2.72911e-40,1.263645e-39,6.95272e-40,-9.26445e-40,5.60846e-40,1.001644e-39,-1.005237e-39,1.02174e-40,2.8085e-40,6.6488e-40,-7.95632e-40,-2.55175e-40,6.42037e-40,3.4889e-40,3.11617e-40,1.86859e-40,-5.90004e-40,-8.61133e-40,-3.17718e-40,-6.69469e-40,-3.40895e-40,-9.80979e-40,-1.043268e-39,-2.42842e-40,7.99909e-40,3.31452e-40,5.66238e-40,1.162835e-39,8.60554e-40,-3.93073e-40,-4.8612e-41,-1.037963e-39,-6.67639e-40,1.201735e-39,-4.70979e-40,-5.88746e-40,-8.77395e-40,1.33458e-40,-1.164717e-39,-5.70518e-40,-7.73228e-40,1.195012e-39,3.45727e-40,3.88404e-40,-1.197379e-39,8.62355e-40,9.474e-42,-2.63015e-40,1.5363915e-38,-1.4116719e-38,2.6044771e-38,-1.5926224e-38,-9.65766e-40,3.2447e-40,1.5509206e-38,-1.59115e-40,1.309363e-39,-0.004695691,-0.0016810145,-0.0029986606,-0.005975079,-0.005358159,-0.0046310974,-0.0026157314,-0.0034442628,-0.006240399,-1.25676e-39,2.5355e-41,9.56592e-40,-3.586e-42,5.45404e-40,1.59078e-40,-7.9316e-41,7.98171e-40,-2.1269e-40,-8.91926e-40,-1.183464e-39,-5.99799e-40,8.68944e-40,-1.000858e-39,4.94936e-40,-3.25502e-40,1.000653e-39,-9.05187e-40,-1.3416959e-38,2.5272765e-38,7.202793e-39,2.0732073e-38,-4.26149e-40,-2.5313134e-38,1.4170132e-38,-5.608487e-39,1.9323945e-38,-1.016901e-39,-2.133739e-39,-7.02607e-40,3.022112e-39,-3.00272e-39,1.329797e-39,-3.271153e-39,-2.7181e-41,-1.91827e-39,4.7343e-41,-6.39949e-40,1.97596e-40,8.57072e-40,-2.46805e-40,1.2245e-40,9.94195e-40,-1.088213e-39,4.16767e-40,-6.50934e-40,-1.120453e-39,-4.17615e-40,4.02168e-40,9.07365e-40,8.11704e-40,-5.53633e-40,-1.3322e-41,7.78234e-40,-7.49889e-39,1.150623e-38,-9.877708e-39,6.191158e-39,9.13341e-40,-1.3695684e-38,-3.332254e-39,1.1797392e-38,-4.306469e-39,-6.233958e-39,6.765284e-39,9.894046e-39,-5.734038e-39,1.3902066e-38,-6.54771e-39,-3.135506e-39,-1.4759133e-38,7.045357e-39,8.714758e-39,6.236847e-39,8.588103e-39,-3.807269e-39,2.37684e-40,5.268736e-39,8.971317e-39,6.164957e-39,-4.819381e-39,-1.489181e-39,4.018682e-39,3.806416e-39,1.1544565e-38,-9.5861e-40,-8.450532e-39,4.4146e-39,-1.488242e-38,-1.0492822e-38,-2.387131e-38,-7.548924e-39,-9.308585e-39,-1.9410702e-38,8.944475e-39,-6.780197e-39,-1.005314e-38,1.0660189e-38,8.281618e-39,-0.15373512,-0.323623,-0.3395003,-0.1408973,-0.23187666,-0.32885298,-0.11595648,-0.27311364,-0.29728368,-1.6108377e-37,3.546343e-39,-1.527532e-39,-2.1101575e-37,6.463594e-39,-1.8503701e-37,-2.6846193e-37,-1.2862854e-38,1.7721837e-37,-6.42637e-40,-1.0097394e-38,1.559711e-39,-1.2478403e-38,-2.75897e-40,-9.053328e-39,-5.496937e-39,-1.2037569e-38,-1.2935518e-38,-2.17478e-37,-1.5366447e-38,1.1739275e-37,-6.841278e-39,9.674799e-39,1.2617849e-37,2.39848e-37,1.6342935e-37,-2.2979122e-37,2.312746e-37,-1.6966667e-38,9.073412e-38,2.3514732e-37,-1.289508e-39,-1.2539687e-37,1.1218492e-37,5.898973e-38,-2.8176213e-37,-3.9049275e-38,-2.6327883e-37,1.1135516e-38,1.3458278e-38,-3.389556e-39,-2.551082e-37,3.7474998e-38,2.5140544e-38,1.897552e-38,5.774615e-38,-8.208374e-38,2.291203e-37,2.12711e-37,-1.14246e-40,-1.8305971e-37,1.62166e-37,2.609262e-37,2.610071e-37,-7.135906e-38,-8.0273377e-38,-8.996465e-39,1.1682216e-38,8.465139e-39,8.674895e-39,-1.0886768e-38,-5.067321e-39,-8.788784e-39,1.1803646e-38,-3.185718e-39,-6.677078e-39,-2.053845e-39,-4.105884e-39,-1.096337e-39,-1.178215e-39,2.788155e-39,-5.063467e-39,-1.4837394e-38,8.57366e-40,-4.547729e-39,5.953498e-39,-7.850123e-39,4.05944e-39,3.281372e-39,1.03773e-39,1.0604934e-38,-1.5416996e-37,2.319947e-37,2.0997245e-37,-2.7104617e-37,1.6613833e-37,2.6765397e-37,2.7047426e-37,-7.570354e-38,-2.2812303e-37,-0.06591755,-0.09115604,-0.17813905,0.14190492,0.12931217,0.01716368,-0.12948084,-0.1878771,-0.13693759,-6.400275e-39,-1.89006e-39,5.32076e-39,-4.42345e-39,-5.624769e-39,2.961054e-39,-8.730109e-39,-3.322296e-39,-1.227869e-38,9.993052e-39,-6.17502e-40,-1.2076865e-38,1.47139e-39,9.29565e-39,-2.301093e-39,4.810837e-39,-4.037483e-39,-3.1082535e-38,-8.331577e-39,-9.586887e-39,-5.4396e-39,-6.866781e-39,-5.764139e-39,1.568145e-39,-1.4028832e-38,3.839628e-39,-1.2454243e-38,9.05571e-40,-8.58151e-40,4.034403e-39,1.79031e-39,-8.2115e-40,-3.911132e-39,7.83749e-40,-2.031951e-39,-2.335229e-39,-6.53927e-39,-9.760554e-39,6.134889e-39,-1.0356088e-38,4.20944e-40,-2.53557e-39,1.0912329e-38,4.097468e-39,-1.0341175e-38,-6.817255e-39,-9.560384e-39,-1.1307555e-38,-3.450395e-39,-2.15952e-39,-2.708228e-39,-7.2032e-39,2.302616e-39,-7.21728e-40,1.5353478e-37,6.049071e-38,-9.1651377e-38,8.1030207e-38,-2.393471e-39,-1.8874894e-37,6.6010193e-38,-9.459036e-39,-1.2357104e-37,3.0847683e-38,-1.9440504e-38,2.6672175e-38,4.838839e-39,-1.3702192e-37,-2.2129106e-38,1.8760756e-38,2.355447e-38,-2.1495785e-38,-1.0657407e-38,3.759549e-39,-7.55171e-40,-9.999293e-39,-1.656357e-39,4.238852e-39,1.550182e-38,1.6068774e-38,1.3447369e-37,4.2403594e-38,-1.8215257e-37,3.2803312e-38,-1.9179174e-38,4.797003e-39,1.0316651e-38,-2.3473781e-38,1.6570091e-38,-2.4689637e-37,8.020605e-39,1.985968e-39,-3.542155e-39,-8.612205e-39,7.515417e-39,6.367213e-39,-5.68777e-40,-2.915687e-39,5.330048e-39,1.3476098e-38,8.166916e-39,6.076444e-39,-3.390507e-39,-1.1297934e-38,-9.189104e-39,7.011027e-39,3.304552e-39,-1.1481245e-38,4.071478e-39,-1.2424389e-38,-4.92111e-39,1.3248318e-38,-7.445193e-39,-1.4755734e-38,5.653256e-39,-9.313932e-39,6.71977e-40,-6.22266e-40,6.482557e-39,-2.211243e-39,-3.542166e-39,8.562788e-39,7.01999e-40,3.380949e-39,-5.758815e-39,-1.70578e-39,-3.220164e-39,-3.220377e-39,-1.1830787e-38,-1.0515949e-38,-1.443433e-39,-1.0776732e-38,6.7906e-41,-1.2095528e-38,-8.021719e-39,5.590473e-39,-2.79866e-40,9.812179e-39,-1.979756e-39,2.276939e-39,-3.139112e-39,-3.1242e-40,5.385013e-39,-2.840134e-39,1.3108582e-37,8.491629e-39,-1.8661256e-37,-1.8530889e-38,-3.124257e-39,1.1206976e-38,1.4405013e-37,-2.6005068e-37,-9.254481e-38,-4.0105e-41,8.818304e-39,7.818976e-39,6.909217e-39,7.64216e-40,-3.562818e-39,-4.211974e-39,1.377317e-39,-3.532959e-39,-7.889097e-39,-1.938127e-39,6.400736e-39,-5.112134e-39,-5.264755e-39,-2.249531e-39,-4.221187e-39,-1.1125864e-38,1.2195007e-38,-8.22416e-39,1.324237e-39,5.403163e-39,1.1149822e-38,8.428414e-39,8.967972e-39,1.0966112e-38,1.1788485e-38,7.715495e-39,-3.384485e-39,9.557004e-39,9.969e-42,1.4014548e-38,-1.722665e-39,1.1498454e-38,-6.459861e-39,-8.504776e-39,-7.586519e-39,-7.823494e-39,-6.923704e-39,-5.007504e-39,1.2368044e-38,7.243841e-39,-1.1198847e-38,-9.638069e-39,2.616231e-39,-7.937926e-39,-2.514838e-38,3.014821e-39,-2.8457205e-38,-2.877544e-39,-1.6284756e-38,-1.1819735e-38,-1.6045043e-37,-1.0530495e-37,-1.395097e-37,1.5084071e-38,-7.966464e-39,-1.162558e-39,9.41532e-39,2.76767e-39,-1.1136353e-38,9.451024e-39,5.268725e-39,-5.706422e-39,7.165841e-39,-6.0789e-40,3.455039e-39,-9.579964e-39,-7.934781e-39,4.140803e-39,-1.316276e-39,1.0071878e-38,8.410858e-39,8.85331e-39,3.747457e-39,8.471358e-39,5.672472e-39,9.23178e-40,-1.2108739e-38,1.532978e-39,-1.0757417e-38,-1.1692259e-38,2.1595455e-37,3.3124398e-38,4.626959e-39,-2.3011473e-37,-6.707999e-39,1.4484061e-37,4.025668e-39,8.8730516e-38,-6.5901553e-38,-6.36288e-39,5.356965e-39,-8.640905e-39,4.113771e-39,1.450546e-39,9.087653e-39,1.907523e-39,-7.767051e-39,2.799918e-39,7.01533e-39,-4.37543e-39,3.696917e-39,-2.759997e-39,9.762214e-39,4.876072e-39,-5.630971e-39,5.577672e-39,-3.81635e-40,-8.356081e-38,-7.0412456e-38,1.2372242e-37,2.3266662e-37,-9.80976e-40,1.4328804e-37,-2.7498366e-37,-2.388103e-37,1.1865982e-37,2.5283612e-37,2.6232193e-37,-1.4868578e-37,1.5915844e-37,1.140891e-38,2.066173e-39,-7.263951e-39,2.8767326e-37,-1.4498825e-37,-4.624796e-39,-4.429502e-39,1.0855234e-38,9.208922e-39,2.472003e-39,-3.246355e-39,-4.84677e-39,-1.0096574e-38,1.247534e-39,2.7888348e-38,3.2549862e-38,9.053299e-39,2.7503492e-38,2.0166877e-38,1.7104151e-38,2.1131711e-38,7.37543e-39,-2.3082564e-38,-3.239358e-39,6.027576e-39,1.1416568e-37,-6.062928e-39,7.241372e-39,9.13693e-38,2.766827e-39,1.696347e-38,1.9353093e-37,7.680541e-39,4.63952e-40,-5.266284e-39,1.0522e-38,-7.60791e-39,1.4320912e-38,-2.229e-39,-6.588698e-39,2.996014e-39,-4.126479e-39,-4.63859e-40,6.908156e-39,1.66171e-39,-4.537893e-39,-1.52845e-39,-3.967247e-39,3.4198e-40,-1.7739e-41,4.376163e-39,-5.658264e-39,-9.797959e-39,1.1210431e-38,9.687046e-39,3.02334e-39,8.544813e-39,1.1615649e-38,5.059932e-39,5.26515e-40,1.666643e-39,2.406786e-39,-7.275519e-39,-9.149097e-39,-7.98697e-40,1.544833e-39,9.950113e-39,3.913394e-39,1.2021438e-38,-9.15309e-39,9.441453e-39,7.3116e-41,2.222567e-39,4.542278e-39,2.206414e-39,5.7424e-41,-2.0636e-41,2.2853613e-37,-2.748707e-39,-2.6673358e-37,-1.4357985e-37,-1.0806667e-38,8.449003e-39,1.6608493e-38,1.5265895e-38,-1.3571247e-37,0.23983891,-0.03803891,-0.48455757,0.33798042,0.09486085,-0.1754753,0.18572626,0.051986422,-0.0049237823,5.844436e-39,6.733895e-39,-2.706098e-39,-1.3597469e-38,5.701184e-39,5.51609e-39,1.25925e-39,1.147092e-39,3.154237e-39,9.972774e-39,1.865982e-39,-7.616096e-39,9.701734e-39,4.253176e-39,1.2346532e-38,-5.622836e-39,8.600961e-39,-1.3175562e-38,2.0836252e-37,1.4473109e-37,1.433257e-37,-1.398808e-37,6.214407e-39,-1.9529955e-37,7.955272e-38,4.16145e-40,1.4735446e-38,-1.6666258e-38,9.78005e-40,1.3600463e-38,-3.528062e-39,3.765098e-39,-3.0755191e-38,2.2450201e-38,-9.8769e-41,4.921853e-39,2.062954e-39,-1.4108304e-38,4.6102e-39,-8.142012e-39,4.425902e-39,-8.977727e-39,1.031494e-39,-8.163853e-39,-1.113972e-39,3.502124e-39,-2.466701e-39,1.0431867e-38,5.635574e-39,6.1006e-40,-7.94145e-39,-8.683739e-39,-9.2781e-40,-9.894744e-39,3.811868e-39,2.8977e-41,1.954572e-39,3.94673e-40,2.78571e-39,4.337768e-39,-3.200552e-39,3.32163e-39,2.172946e-39,3.881894e-39,2.206748e-39,-7.08532e-40,1.125508e-39,1.366217e-39,1.147893e-39,-1.92922e-39,-1.80056e-40,-1.897594e-39,4.408213e-39,3.834697e-39,1.327529e-39,7.32087e-40,-1.7342e-39,2.94483e-40,9.05038e-40,4.62592e-40,-2.681958e-39,1.356182e-39,-1.37068e-39,1.086474e-39,-3.512212e-39,-3.509045e-39,9.2313e-41,-3.947568e-39,-3.941397e-39,-1.045164e-39,-6.80916e-40,-3.788256e-39,-6.88192e-40,-3.024218e-39,-4.242266e-39,-6.61554e-40,1.031441e-39,3.155004e-39,-2.191683e-39,-0.012622089,-0.0039170207,-0.023621192,-0.030055247,-0.025389332,-0.025853973,-0.037703253,-0.033212647,-0.041896988,1.3764176e-38,1.29743e-40,1.1073587e-38,1.5543935e-38,4.234997e-39,-2.925645e-39,3.99025e-39,1.506338e-39,-3.526087e-39,4.35563e-40,4.922707e-39,-3.622155e-39,1.69606e-39,-1.092478e-39,-2.788056e-39,-2.610256e-39,-1.47754e-40,6.2522e-41,8.586808e-38,3.0495503e-38,2.4410134e-38,3.9947477e-38,-5.02024e-40,2.0105339e-38,3.2625104e-38,4.887708e-39,5.4147047e-38,-1.0035331e-37,-2.728195e-38,5.491534e-38,5.580541e-38,1.4171e-41,5.97156e-39,7.957599e-38,2.9133996e-38,1.0106417e-37,-2.574387e-39,-6.062159e-39,-9.782284e-39,-4.151019e-39,-6.86444e-39,-2.994139e-39,-5.051071e-39,-7.294718e-39,-2.895126e-39,7.9356547e-38,5.997093e-38,9.1900847e-38,5.220417e-39,-4.01545e-40,1.9333271e-38,9.081668e-38,2.9491554e-38,8.9987e-41,2.60318e-40,-6.767009e-39,-2.5235623e-38,3.118787e-39,4.942266e-39,-6.850332e-39,-1.247209e-39,6.35136e-39,1.485423e-39,2.504321e-39,-1.43375e-39,-2.51675e-40,-2.538706e-39,-3.676682e-39,-2.94475e-39,-4.95258e-40,-3.506595e-39,-4.957797e-39,1.81233e-40,-2.831549e-39,4.73e-41,8.8811e-41,-4.95815e-39,2.77808e-39,3.089298e-39,8.168e-41,-1.414576e-39,-2.09156e-39,-1.083446e-39,-8.867159e-38,3.1612e-41,-7.079344e-38,-7.9915155e-38,7.414426e-38,-4.747469e-39,8.832158e-38,0.0013944438,0.036860164,0.03741664,0.06411484,0.0681279,0.04188921,0.035697993,0.03791974,0.009195897,8.14877e-40,-1.683604e-39,1.13338e-39,2.933928e-39,1.611266e-39,-4.597117e-39,3.005817e-39,-3.695373e-39,3.280068e-39,-2.731302e-39,-4.542065e-39,-1.126214e-39,-1.893597e-39,3.554323e-39,-2.042016e-39,5.241179e-39,4.703716e-39,1.90205e-40,-3.327514e-39,8.3266e-40,-2.811127e-39,-4.329012e-39,-1.282866e-39,3.03057e-40,-2.832254e-39,4.622952e-39,2.18474e-40,1.577671e-39,5.29615e-40,2.521774e-39,-1.842556e-39,-2.07043e-40,-7.93665e-40,-2.762437e-39,3.911014e-39,2.684187e-39,-1.043672e-39,-4.875036e-39,1.493334e-39,-2.678267e-39,-2.296444e-39,-3.563913e-39,-4.73077e-40,4.08154e-39,-4.2825e-40,1.980154e-39,3.216864e-39,2.49618e-39,-3.255735e-39,-4.518713e-39,-8.7269e-41,-4.306768e-39,2.140886e-39,-1.106982e-39,-5.308566e-39,-5.749706e-39,-5.2047706e-38,1.656608e-39,1.89785e-39,-4.82006e-39,4.742158e-39,-1.916552e-39,6.136463e-38,9.97446e-39,-1.0630498e-38,-6.292025e-39,4.439947e-39,-5.2637955e-38,-1.1083866e-38,-9.482864e-39,-1.832074e-39,9.271495e-39,-4.252392e-39,-6.745296e-39,-3.487767e-39,-3.20211e-39,-3.329963e-39,-2.768238e-39,-3.531056e-39,-3.687083e-39,-2.327921e-39,2.437929e-38,7.171143e-39,5.47858e-39,8.874027e-39,5.654849e-39,-7.532541e-39,1.134816e-39,2.304905e-39,7.05823e-39,-9.00116e-40,-2.579505e-39,3.710158e-39,-3.60309e-39,-3.3833e-40,1.403448e-39,-3.003211e-39,3.134574e-39,-4.03536e-39,-2.129298e-39,2.802509e-39,-2.355332e-39,3.059224e-39,3.25274e-40,-3.26559e-39,3.654948e-39,1.194484e-39,-4.567887e-39,-4.219339e-39,-7.19867e-40,3.2225e-39,-9.87746e-40,-4.78092e-39,-5.54043e-40,-1.894712e-39,-3.956402e-39,-3.422788e-39,-2.686396e-39,-1.47681e-39,3.494684e-39,2.49089e-40,-3.004224e-39,1.829014e-39,4.991121e-39,2.512032e-39,-5.201108e-39,3.725118e-39,4.393236e-39,4.420313e-39,-3.142849e-39,-2.145846e-39,3.903569e-39,3.826007e-39,3.086301e-39,1.116011e-39,1.84544e-39,4.81542e-39,-2.6077e-39,9.80993e-40,4.409631e-39,4.157737e-39,3.556048e-39,2.433911e-39,1.604142e-39,3.181043e-39,-1.0123364e-37,-9.992502e-38,-4.746067e-38,7.97937e-40,1.006503e-37,5.063558e-38,-1.010962e-37,6.185385e-38,2.13586e-39,-1.433624e-39,6.9541e-41,-3.745361e-39,-3.790455e-39,-9.14294e-40,-2.316075e-39,-7.02313e-40,2.016069e-39,-2.046591e-39,3.289802e-39,2.703592e-39,1.325825e-39,-6.5696e-40,3.667637e-39,-3.51363e-39,4.47947e-39,-5.21912e-40,-2.890456e-39,-1.54017e-40,3.547117e-39,4.37473e-40,1.162088e-39,4.18372e-39,-5.45142e-40,-3.90889e-39,3.21001e-40,4.935391e-39,-3.031627e-39,-2.048895e-39,-9.06015e-40,-9.46087e-40,-5.202482e-39,2.284463e-39,-4.727755e-39,-3.452718e-39,-4.538877e-39,-7.91675e-40,6.8092534e-38,3.679042e-39,-8.01641e-40,-1.9159e-41,4.834099e-39,-4.597254e-39,9.66497e-40,3.552261e-39,-1.122136e-39,-1.289025e-39,4.190172e-39,5.286904e-39,-6.698914e-39,4.79444e-39,7.878362e-39,4.393326e-39,3.221769e-39,2.59818e-39,4.498074e-39,3.832763e-39,2.81114e-39,6.46663e-40,2.095751e-39,8.94848e-40,7.78165e-40,8.36919e-40,1.499607e-39,3.023838e-39,3.9169e-40,-1.752067e-39,1.678274e-39,-1.525173e-39,-3.837686e-39,-8.6565e-40,-3.273536e-39,-3.700734e-39,-3.107386e-39,-2.274211e-39,-1.499971e-39,1.231457e-39,-2.31483e-40,4.218453e-39,4.140733e-39,-2.8181303e-38,-4.701474e-39,-1.097874e-38,-1.496801e-39,3.36669e-40,-7.92845e-40,3.079788e-39,2.250589e-39,-2.395779e-39,1.304337e-39,-4.886698e-39,5.08542e-39,-2.218997e-39,2.1867e-40,-3.50076e-39,-2.493423e-39,1.016265e-39,3.247853e-39,3.082893e-39,-3.444106e-39,3.877655e-39,-3.618766e-39,-3.03304e-39,-1.672566e-39,2.838211e-39,5.179513e-39,-4.981986e-39,6.4707535e-38,1.4427707e-38,7.2231174e-38,7.8085636e-38,-1.086826e-39,1.9964428e-38,-8.004625e-38,5.861121e-38,7.541453e-38,4.0536185e-38,-3.5282832e-38,7.048753e-38,-3.0092077e-38,1.732305e-39,2.136162e-39,6.182748e-38,8.3059545e-38,2.061311e-39,-2.796143e-39,4.600723e-39,-3.031608e-39,1.6713e-40,-1.446147e-39,-4.989559e-39,-5.099298e-39,2.912113e-39,1.20392e-39,7.2649e-41,4.365228e-39,4.635769e-39,-2.798443e-39,8.63084e-40,2.8379e-41,-4.3584e-39,2.142803e-39,-3.259935e-39,-2.813081e-39,1.121037e-39,-6.59269e-39,5.810743e-39,1.604424e-39,-1.411273e-39,9.81821e-40,5.944436e-39,5.68642e-39,-1.33593e-39,6.05102e-40,3.552572e-39,2.990598e-39,8.38024e-40,-4.356491e-39,2.071552e-39,-2.318287e-39,1.025296e-39,3.222175e-39,1.548662e-39,3.953098e-39,-7.72385e-40,3.944057e-39,3.803162e-39,-6.43493e-40,7.2435e-41,4.341384e-39,-3.930247e-39,4.6312e-40,1.921322e-39,-2.071724e-39,-4.83608e-40,-2.597927e-39,3.321038e-39,4.105929e-39,4.322873e-39,4.377383e-39,3.599077e-39,4.314012e-39,3.95151e-40,-3.1124e-41,8.0593e-41,-1.057501e-39,2.256466e-39,2.473527e-39,4.518893e-39,2.76372e-39,-4.064305e-39,2.047364e-39,2.6174e-40,3.012562e-39,4.640775e-39,2.431186e-39,4.773805e-39,-1.65918e-39,5.4232403e-38,-5.651203e-38,-3.0198186e-38,-2.4927253e-38,-6.251428e-39,5.250835e-39,-6.014185e-39,-9.2054177e-38,0.015381492,0.02838259,0.052228313,-0.01635351,0.010364528,0.0130081,-0.03037765,0.010255093,0.00991005,4.63764e-40,-8.39746e-40,-3.340916e-39,3.592772e-39,-4.78182e-40,-3.484508e-39,1.344906e-39,-3.45983e-39,-4.12101e-39,-7.681e-40,4.082438e-39,2.50072e-40,1.983461e-39,1.150622e-39,1.407492e-39,2.303134e-39,-7.2394e-41,-1.687355e-39,5.6438456e-38,-1.06878e-39,4.2326346e-38,6.1722786e-38,-7.4437e-41,5.8559904e-38,-7.9238176e-38,9.46355e-38,-5.832298e-38,4.668664e-39,-8.1388e-39,-4.266832e-39,-7.1321e-39,6.966087e-39,-1.0179678e-38,5.745286e-39,3.710739e-39,9.921936e-39,-2.579583e-39,2.663695e-39,-2.021232e-39,4.621908e-39,4.001935e-39,-1.053694e-39,3.198509e-39,2.759091e-39,3.89096e-40,-2.504974e-39,1.851946e-39,-5.307711e-39,-2.57192e-39,8.60047e-40,2.349985e-39,-2.74587e-40,2.332594e-39,-9.25811e-40,-2.40522e-40,-1.437881e-39,-2.076651e-39,4.355272e-39,5.31856e-40,2.68751e-40,-1.258449e-39,4.288183e-39,-2.825096e-39,5.220644e-39,-2.877177e-39,1.93096e-39,4.195694e-39,-2.518079e-39,-4.076138e-39,-3.549436e-39,-6.505494e-39,-3.394469e-39,-5.822085e-39,2.325561e-39,1.060618e-39,-8.0842e-41,-4.12409e-40,-2.165854e-39,3.645313e-39,5.911211e-39,-7.54525e-40,2.319471e-39,-3.808432e-39,5.223671e-39,3.305468e-39,2.593541e-39,-2.519913e-39,-3.186337e-39,-3.513813e-39,1.844046e-39,7.1632e-40,-5.17557e-40,-3.094265e-39,-8.789645e-39,-6.80145e-40,-3.17619e-39,-6.468195e-39,-3.51531e-40,-4.02752e-39,-0.051124517,-0.055243194,-0.011003491,-0.014136523,-0.024590299,-0.02492046,0.008279178,-0.025886614,-0.026818775,7.42002e-40,2.467996e-39,-2.200404e-39,1.174728e-38,-2.478544e-39,-2.289716e-39,6.10857e-40,-9.815562e-39,-1.04572e-39,3.407333e-39,9.550562e-38,1.0234814e-37,9.457034e-38,-1.449404e-39,9.148066e-38,-1.0715827e-37,9.54786e-40,2.754024e-39,-1.974836e-39,2.52935e-39,-1.7921381e-38,6.176226e-39,-1.033117e-39,-4.648972e-39,6.453248e-39,1.349934e-39,-2.13047e-39,5.0949015e-38,9.751811e-39,-1.2448037e-38,3.8738033e-38,3.239324e-39,-4.2133516e-38,-4.431085e-39,-2.961339e-38,-4.2176665e-38,-3.313579e-39,-1.477305e-39,-8.71082e-40,1.740466e-39,1.565121e-39,9.605527e-39,3.526831e-39,6.07139e-39,3.181483e-39,-4.833075e-38,-5.3500353e-38,3.189835e-38,-3.165352e-39,7.093633e-39,9.2063644e-38,-1.2642618e-37,1.0427773e-37,-9.986797e-38,-4.515879e-39,-3.301158e-39,5.95389e-39,-7.041707e-39,6.746425e-39,-8.8393e-39,-3.5830355e-38,-6.715944e-39,-6.940217e-39,3.165701e-39,1.378403e-39,2.0242e-40,1.287034e-39,8.24324e-40,-1.200293e-39,-3.75422e-39,3.3818e-39,4.272216e-39,2.105842e-39,1.7657e-40,-2.283377e-39,2.098531e-39,-2.87827e-39,4.28813e-39,5.312339e-39,6.6737e-41,-2.41301e-40,-5.1066315e-38,-3.9862782e-38,-1.2696159e-37,-3.564062e-38,-1.0934055e-37,5.8982177e-38,5.26415e-39,6.77706e-38,1.8666499e-38,-0.02496323,-0.028687064,-0.007920717,-0.010711465,-0.0173992,-0.0027699007,0.016862372,0.026079014,0.031840682,-1.618147e-39,-4.395171e-39,2.154447e-39,7.47916e-40,2.618532e-39,2.709325e-39,-2.388241e-39,3.265136e-39,5.868112e-39,3.130725e-39,-4.680523e-39,3.232524e-39,-2.669673e-39,4.817664e-39,1.22483e-39,6.546882e-39,-5.426715e-39,-2.811544e-39,1.873207e-39,-5.513293e-39,6.653033e-39,6.56553e-40,-2.106391e-39,-1.604941e-39,4.196836e-39,-3.11634e-39,3.250542e-39,-4.447933e-39,-1.402824e-39,-4.295914e-39,-1.47564e-39,-6.266398e-39,4.906208e-39,-1.735039e-39,-3.97864e-39,-1.35873e-40,2.352414e-39,-4.816983e-39,5.46393e-40,1.010318e-39,5.253549e-39,-4.812615e-39,6.366654e-39,1.563346e-39,-4.228882e-39,4.323875e-39,-2.865051e-39,-2.823636e-39,-2.15593e-39,1.971672e-39,5.456688e-39,-3.443608e-39,-1.622161e-39,-3.21779e-40,3.458466e-39,1.471243e-39,-1.22524e-40,8.97534e-40,4.017611e-39,-2.84269e-40,1.7450148e-38,1.213962e-39,-1.16067e-40,-8.4532355e-38,-8.466812e-39,4.678532e-38,5.917669e-38,-8.019534e-38,5.621615e-38,-8.07756e-40,-6.1334105e-38,-3.3889773e-38,-1.53144e-40,7.713112e-39,-6.105593e-39,-1.624216e-39,8.588e-41,2.725692e-39,-2.456238e-39,-2.394856e-39,-4.623796e-39,1.82485e-39,4.656602e-39,-4.039582e-39,-6.676084e-39,1.288734e-39,-1.2888546e-38,4.4901e-40,1.80966e-39,-2.349926e-39,-1.687004e-39,-1.373868e-39,-5.0409e-41,3.75023e-39,6.312334e-39,-1.53471e-39,1.312467e-39,6.18262e-39,-4.43543e-40,1.178939e-39,-1.90227e-39,-2.707683e-39,-5.867305e-39,-2.694969e-39,2.758556e-39,-3.118113e-39,-3.221302e-39,-4.327107e-39,7.40588e-40,2.777212e-39,1.268476e-39,-4.8054e-39,-8.01303e-40,-5.091622e-39,1.41702e-40,2.41907e-39,-3.037306e-39,-7.89003e-40,2.106293e-39,-1.113587e-39,2.05299e-40,-3.763666e-39,-5.99986e-40,-2.991072e-39,2.460268e-39,1.080684e-39,9.10624e-40,-3.36016e-40,3.501591e-39,1.80635e-39,-2.134766e-39,-6.137749e-39,2.844349e-39,5.706638e-39,2.216626e-39,6.810627e-39,1.1528431e-37,-4.392984e-39,-1.25073e-40,3.857852e-39,-2.29984e-39,5.875787e-39,6.0045505e-38,-8.6115284e-38,9.614991e-38,-8.613874e-38,-4.785508e-38,-3.6006571e-38,3.16904e-40,-8.8442e-41,-4.2568704e-38,-7.8650337e-38,-1.1604518e-37,2.960211e-39,-1.120369e-39,-3.101093e-39,6.135427e-39,2.306595e-39,8.15776e-40,-1.60074e-39,2.30493e-39,-2.475149e-39,5.185855e-39,-5.105551e-39,-5.8213e-40,2.999645e-39,6.45044e-40,2.884699e-39,4.964735e-39,4.204953e-39,1.596411e-39,2.834188e-39,2.337524e-39,1.726938e-39,-3.599556e-39,1.280039e-39,-2.263784e-39,4.974265e-39,-4.226322e-39,-3.979852e-39,-1.228084e-39,1.32403e-40,-2.788346e-39,-7.65438e-40,-4.826002e-39,-1.810078e-39,-2.693911e-39,3.200689e-39,-5.724437e-39,-5.97281e-39,6.570683e-39,4.9480796e-38,-6.860766e-38,1.64433e-40,-4.24908e-39,-1.0140881e-37,6.189383e-39,-6.08792e-39,6.935228e-39,-3.163592e-39,2.295798e-39,-6.88617e-39,-8.79183e-40,8.501389e-39,9.466388e-39,-1.0068077e-38,3.976773e-39,-1.240012e-39,4.528163e-39,4.437867e-39,2.766752e-39,-1.364308e-39,-6.055002e-39,-1.984366e-39,-2.130749e-39,1.48767e-40,6.62181e-40,4.19277e-40,-4.230628e-39,2.861566e-39,1.717158e-39,-3.513107e-39,2.483109e-39,5.012784e-39,1.305804e-39,-2.02644e-39,2.694555e-39,5.878065e-39,3.012031e-39,-2.957833e-39,9.07998e-40,-2.95831e-39,2.951045e-39,-1.958749e-39,1.1403377e-37,1.4859973e-38,2.877898e-38,-1.405169e-38,-5.571662e-39,1.6098323e-38,1.4039688e-38,1.2041143e-38,1.2919511e-38,-4.344768e-39,-2.700577e-39,8.66395e-40,-5.86957e-39,1.359856e-39,2.722189e-39,1.399344e-39,-4.199984e-39,4.476403e-39,-5.74806e-39,-5.66053e-39,1.52904e-40,2.19174e-39,-7.0963e-41,-5.821134e-39,-8.56298e-40,-4.67992e-40,1.514933e-39,3.9089795e-38,7.16036e-38,-1.2512907e-37,1.0926169e-37,-4.33057e-40,3.155268e-38,-1.134979e-37,2.7529884e-38,5.0793846e-38,-3.112838e-38,8.025553e-38,-1.0013627e-37,7.308052e-38,-5.834215e-39,6.973636e-38,-8.884954e-38,-2.665676e-39,-2.866118e-39,-3.198053e-39,-2.101732e-39,1.577673e-39,-1.275826e-39,-4.300641e-39,-1.005725e-39,3.704656e-39,3.029166e-39,-1.76376e-40,-5.399504e-39,4.029362e-39,5.23197e-39,-3.26082e-40,-9.962987e-39,1.181398e-39,7.489558e-39,-5.20645e-39,-6.34505e-40,-1.306573e-39,1.30821e-40,3.142402e-39,-1.184131e-39,6.539505e-39,-7.571646e-39,-1.625592e-39,-3.8791e-40,4.70907e-39,3.08876e-39,1.152589e-39,3.421377e-39,2.50715e-39,4.32762e-39,3.214269e-39,2.073445e-39,3.01e-41,-2.705462e-39,-1.737841e-39,1.627163e-39,-1.307095e-39,2.824037e-39,-8.78652e-40,-2.651306e-39,5.70264e-40,-4.9351e-41,-1.191844e-39,1.38287e-39,1.882803e-39,-6.05564e-40,2.568691e-39,-1.3909e-41,-2.94082e-40,3.088882e-39,3.3555e-41,9.91793e-40,-2.920476e-39,1.512491e-39,4.290536e-39,1.012259e-39,-3.39939e-39,2.876727e-39,4.296326e-39,-3.077226e-39,-1.723541e-39,6.63925e-39,-4.951048e-39,-5.195381e-39,3.909621e-39,1.59307e-40,-4.85432e-40,5.068653e-39,-3.842564e-39,-2.873899e-39,1.1851807e-37,-5.6449784e-38,3.6804855e-38,5.4873127e-38,-3.246789e-39,1.142035e-37,-3.628175e-39,9.304497e-38,1.0755901e-37,-0.056352057,-0.05251446,-0.053820197,-0.035670504,-0.010069715,-0.014702737,0.013691059,0.048299156,0.041623227,-3.868731e-39,1.881676e-39,2.436454e-39,2.489473e-39,2.588937e-39,8.64205e-40,-1.35756e-40,-1.646334e-39,4.274773e-39,-3.599578e-39,3.06336e-40,2.639874e-39,6.435755e-39,6.054739e-39,-8.88493e-40,4.161226e-39,4.678004e-39,3.113904e-39,-3.8783345e-38,6.00393e-39,2.344032e-39,-1.1424855e-37,-4.918558e-39,2.9518876e-38,-9.50983e-38,-4.9249677e-38,8.60558e-40,1.7527452e-38,-1.1915958e-38,-9.441953e-39,-9.306907e-39,8.215566e-39,-6.544863e-39,-2.385209e-39,5.289184e-39,5.60546e-39,1.454357e-39,-1.97389e-39,-1.100892e-39,1.201343e-39,-1.152564e-39,5.241174e-39,2.658555e-39,1.95233e-40,-3.48855e-40,2.516002e-39,-2.07712e-39,-3.546126e-39,2.729006e-39,7.8701e-40,8.12069e-40,-4.021092e-39,-1.4054e-39,-1.115078e-39,6.641786e-39,6.078009e-39,6.906768e-39,1.04252e-40,4.765265e-39,6.042814e-39,4.32984e-40,4.707797e-39,-9.88955e-40,-3.745877e-39,-7.02816e-40,2.698684e-39,-5.164836e-39,3.53623e-40,4.717002e-39,-4.80176e-40,-6.146398e-39,5.44268e-39,-2.40974e-39,-6.408547e-39,-3.998605e-39,2.382305e-39,8.023867e-39,1.854397e-39,-2.815018e-39,4.499907e-39,-1.622157e-39,6.825295e-39,1.356313e-39,-2.691042e-39,-8.74297e-40,-1.264791e-39,-3.38749e-39,-3.467824e-39,-3.26954e-40,-2.225174e-39,9.96074e-40,1.446611e-39,-1.0505302e-38,1.33901e-39,1.436262e-39,-5.993987e-39,4.786531e-39,9.4933e-40,-3.86007e-40,0.023256252,0.03783416,0.0060326704,-0.04189699,-0.032238416,-0.04776172,-0.04941199,0.022671,0.007411701,9.803836e-39,9.602314e-39,9.92203e-39,1.679626e-39,5.12863e-39,4.000126e-39,5.782607e-39,5.732294e-39,-2.687782e-39,1.025039e-39,6.476373e-39,-6.830308e-39,-2.08658e-39,-2.74746e-39,4.148826e-39,-2.761972e-39,2.665865e-39,-5.755754e-39,6.401043e-39,-4.616085e-38,4.33242e-39,7.4257406e-38,-1.950624e-39,9.1007564e-38,-1.273957e-39,-8.42431e-38,6.6424434e-38,1.6155821e-37,-2.945492e-39,-8.566357e-38,-6.896705e-39,1.3307e-40,7.712476e-39,-1.2403688e-37,-9.617625e-38,-1.3363055e-37,-1.1769074e-38,7.900577e-39,-1.0594995e-38,-5.425577e-39,5.961838e-39,-3.258246e-39,5.854213e-39,5.53254e-39,-1.528144e-39,8.588623e-38,9.2000435e-38,-4.38482e-40,2.3844077e-38,-8.846998e-39,9.1274e-38,-5.488408e-38,1.3780251e-37,1.6715079e-37,-4.33722e-39,9.50949e-40,-1.106497e-39,1.147155e-39,-5.336742e-39,-6.340668e-39,9.20231e-40,1.8050673e-38,3.702057e-39,3.62676e-40,1.285484e-39,4.345002e-39,5.494112e-39,-3.142479e-39,6.918757e-39,7.961895e-39,-4.423707e-39,2.740909e-39,-4.998888e-39,1.340795e-39,-4.691305e-39,4.690754e-39,-4.754138e-39,6.838362e-39,5.4344e-40,-1.129053e-39,-4.079508e-39,1.5437808e-37,4.9601476e-38,-1.0441735e-37,-6.1728526e-38,2.5240538e-38,-8.853776e-38,1.3764589e-37,-1.6315695e-37,1.1826534e-37,0.043272123,0.02272229,-0.023570431,0.002395666,0.015861705,-0.057197444,0.00050332904,0.009265171,-0.028121078,3.804576e-39,-6.030426e-39,-1.546501e-39,7.77623e-40,-2.50268e-40,6.490264e-39,5.996047e-39,1.107554e-39,-3.303728e-39,3.88902e-40,-9.30077e-40,-2.106114e-39,-1.566953e-39,6.717306e-39,-2.545302e-39,-2.965019e-39,-8.436311e-39,4.409902e-39,-3.74553e-40,1.171557e-39,6.35322e-39,5.657263e-39,6.483532e-39,-1.554109e-39,9.11566e-40,-6.164843e-39,-1.174001e-39,4.37659e-40,-4.0536e-40,2.776676e-39,5.493051e-39,2.142382e-39,2.398369e-39,6.5934e-40,-7.444908e-39,5.561183e-39,-2.051113e-39,3.263984e-39,7.087094e-39,-5.480411e-39,-6.531479e-39,3.771717e-39,1.643241e-39,-2.676288e-39,4.135656e-39,1.51626e-39,2.87877e-40,-6.905764e-39,-5.367912e-39,-4.056033e-39,-4.270865e-39,-6.508506e-39,-4.058665e-39,-7.218645e-39,-6.992652e-39,-6.872569e-39,4.250627e-39,-8.540473e-39,-1.49391e-40,-1.0133044e-38,-6.995494e-39,2.001817e-39,2.886259e-39,3.47119e-39,5.882225e-39,-1.9806516e-38,-9.83454e-39,5.660945e-38,-1.2843588e-38,-8.169192e-39,-1.3743015e-38,1.1654266e-37,3.511196e-39,3.02582e-40,-7.157908e-39,1.263363e-39,-4.789092e-39,-2.141387e-39,-6.110073e-39,6.091363e-39,4.547621e-39,-3.2081013e-38,1.0903506e-38,1.0382649e-38,-4.9493397e-38,-1.720685e-39,-2.1743783e-38,-5.578008e-38,-1.7170692e-38,-1.6617715e-38,-3.704665e-39,-2.320159e-39,-1.741259e-39,7.709311e-39,3.887615e-39,-2.572584e-39,3.167383e-39,1.97667e-40,3.766191e-39,6.186573e-39,7.928419e-39,7.687626e-39,-3.3316e-39,-1.367453e-39,2.25719e-39,1.587489e-39,-8.35713e-40,7.15167e-40,3.510665e-39,2.0121e-41,-5.308553e-39,-6.45313e-40,-5.872696e-39,-6.68015e-39,2.036081e-39,-5.037833e-39,-5.1676e-41,1.02903e-40,-3.555548e-39,-3.489949e-39,4.61295e-40,-5.727412e-39,-4.962626e-39,4.637021e-39,1.203212e-39,5.635147e-39,5.3983e-40,7.017145e-39,-3.27118e-40,5.798377e-39,-8.25379e-40,-1.984227e-39,-4.746105e-39,-7.617147e-39,-6.38856e-39,-5.04765e-40,-4.182278e-39,-4.580546e-39,-1.46989e-39,3.303411e-39,-2.826831e-39,-2.459716e-39,5.692978e-39,-7.4119e-40,9.601557e-38,1.0130074e-37,1.7058011e-37,5.994866e-38,-1.0070248e-38,1.69045e-39,-3.9551702e-38,-5.7182304e-38,-6.213946e-38,6.371155e-39,4.039865e-39,7.02287e-39,-7.261569e-39,6.704364e-39,3.171548e-39,-6.121969e-39,1.880645e-39,8.50657e-39,1.454511e-39,-2.132586e-39,2.949747e-39,1.935438e-39,1.062885e-39,-1.81279e-40,2.575364e-39,4.596123e-39,-7.47635e-40,-5.218803e-39,6.50276e-39,-3.52719e-39,3.222796e-39,1.3817e-39,6.075507e-39,8.12317e-40,2.6634e-39,7.852975e-39,-5.883374e-39,-6.10973e-39,-7.71204e-39,-4.804876e-39,1.391331e-39,6.392117e-39,-2.572029e-39,5.089383e-39,5.828966e-39,1.0395501e-37,-6.170371e-39,6.107153e-39,4.151121e-39,5.337928e-39,-1.89774e-39,1.0278591e-37,9.516864e-38,-1.2989802e-37,8.218118e-39,-3.114134e-39,-1.289172e-39,-5.174341e-39,-1.1329341e-38,-2.140272e-39,7.673925e-39,1.1011883e-38,-6.769767e-39,2.091553e-39,-1.374415e-39,-3.46495e-40,3.023367e-39,5.498405e-39,5.492095e-39,-1.229946e-39,8.25662e-39,4.948369e-39,1.988569e-39,-5.580782e-39,-3.846625e-39,3.526405e-39,-7.83766e-40,-1.492157e-39,6.150303e-39,2.495013e-39,1.96484e-39,5.678126e-39,7.068162e-39,5.920147e-39,2.135322e-39,1.279708e-39,2.50511e-39,5.046301e-39,-6.46338e-40,2.401863e-39,-2.5888672e-38,-4.319608e-38,1.397872e-37,9.46152e-39,1.247753e-39,2.443113e-38,-1.6038326e-37,1.4377857e-37,1.584989e-38,-7.354233e-39,6.750747e-39,7.367161e-39,1.98489e-39,1.630122e-39,4.9948e-39,-4.72977e-39,-2.549262e-39,2.34928e-39,-7.30758e-40,-7.042183e-39,-1.966738e-39,2.617966e-39,-2.618857e-39,9.47054e-40,-5.364975e-39,-2.769476e-39,-3.351864e-39,-3.8078904e-38,2.19888e-39,-2.3471327e-38,-3.6514996e-38,-5.841136e-39,-6.170884e-39,-4.173391e-38,-3.393464e-39,-4.700233e-39,1.0414636e-37,4.6991827e-38,-3.684045e-38,-7.3838805e-38,-3.364282e-39,9.65604e-39,-1.5706491e-37,-7.283685e-38,-1.2655953e-37,7.443952e-39,7.915436e-39,7.564173e-39,-4.3744e-39,2.178289e-39,-3.809063e-39,6.04237e-39,3.910828e-39,5.343822e-39,-2.875707e-39,1.2565631e-38,-6.55481e-39,-9.864401e-39,5.40942e-40,8.712188e-39,1.1958087e-38,1.2698825e-38,1.823316e-39,-5.584354e-39,8.010109e-39,6.5472986e-38,-1.0893989e-38,-4.438121e-39,9.636064e-38,-4.223507e-39,4.9048086e-38,8.58153e-38,2.048872e-39,2.289115e-39,-3.021841e-39,-5.525695e-39,1.53315e-40,-1.411569e-39,-1.042542e-39,-7.231621e-39,-3.788827e-39,-6.035006e-39,-6.939715e-39,3.71985e-39,-7.43491e-40,-7.438772e-39,-1.47162e-39,-6.337402e-39,-1.883017e-39,-1.75146e-39,6.2905e-40,4.34697e-39,-5.184879e-39,7.102606e-39,6.534658e-39,-5.73176e-40,8.312413e-39,2.940576e-39,-4.360963e-39,1.23201e-39,-5.895742e-39,-6.481014e-39,-5.516174e-39,1.70755e-39,1.86605e-39,-4.618233e-39,2.133024e-39,8.007039e-39,1.268314e-39,6.052843e-39,3.344359e-39,-6.073798e-39,5.776899e-39,-6.572531e-39,1.256354e-39,-5.60095e-40,6.342141e-39,-3.366823e-39,6.3037e-40,-1.355745e-39,-1.3421762e-37,3.927981e-39,9.992403e-38,-7.1293e-40,6.440417e-39,8.013251e-39,0.042351086,0.03340826,0.06905299,0.06719752,0.07286463,0.05969105,0.07959461,0.06457324,0.052007474,5.4853e-40,2.473885e-39,6.989276e-39,-3.056757e-39,-4.53999e-39,-5.337004e-39,-5.481278e-39,6.71163e-40,-1.75496e-40,1.0311e-40,7.57532e-39,2.083232e-39,-5.335137e-39,-1.697263e-39,2.631657e-39,-7.099798e-39,-5.762369e-39,-6.187613e-39,1.041628e-37,-1.2306304e-37,1.0803692e-37,-1.3145571e-37,4.25754e-40,-1.2426108e-37,-1.2634228e-37,-5.782e-38,1.5653179e-37,-9.533681e-39,-1.0181511e-38,3.574131e-39,-7.86591e-40,1.4078348e-38,-7.781863e-39,-3.975533e-39,7.34258e-40,-2.726707e-39,-4.4809e-39,-1.630129e-39,-6.07834e-40,-4.20772e-39,-4.481365e-39,-6.994611e-39,-7.286501e-39,-6.508437e-39,1.70193e-40,3.208287e-39,-8.00011e-40,4.178633e-39,5.589546e-39,-7.708257e-39,-7.798582e-39,-3.839285e-39,2.318786e-39,-2.080386e-39,-2.51467e-40,-7.76493e-40,-7.72935e-40,2.12989e-40,-3.80769e-40,-2.7401e-41,-4.22815e-40,5.08618e-40,5.15704e-40,2.26163e-40,2.65758e-40,-2.83355e-40,1.6519e-40,-1.41895e-40,-8.23026e-40,-6.00036e-40,-1.51469e-40,-2.19299e-40,-3.31561e-40,-6.41653e-40,2.94158e-40,4.19189e-40,-2.01466e-40,-1.12856e-40,-1.8474e-40,1.42725e-40,3.67353e-40,-6.37033e-40,1.92672e-40,3.11489e-40,-4.02498e-40,1.26624e-40,7.35862e-40,-4.52495e-40,6.89865e-40,5.02587e-40,-2.38989e-40,5.40946e-40,2.83305e-40,-7.81719e-40,-2.4917e-40,-6.9848e-41,4.40742e-40,-2.84077e-40,2.316e-42,0.0004111734,0.0033620626,-0.00046628775,0.0010653547,0.0034462623,0.0013656281,0.0016725507,0.00076942705,-4.432876e-06,-1.1346385e-38,8.3668e-40,5.70487e-40,-1.0504262e-38,3.87291e-40,-2.98112e-40,-9.369454e-39,-2.90739e-40,-8.18257e-40,1.48599e-40,4.62524e-40,9.0192e-41,2.8506e-40,-2.86413e-40,2.91146e-40,-6.61508e-40,3.80063e-40,-4.8925e-41,7.51926e-40,-5.8983e-41,6.27682e-40,3.82857e-40,-2.67834e-40,1.1290053e-38,-2.95101e-40,9.40829e-39,3.04866e-40,-1.8708e-40,1.5060808e-38,-6.769866e-39,-7.59902e-40,1.15627e-40,5.92236e-40,2.49742e-40,1.128051e-38,9.38746e-39,2.02769e-40,-7.78528e-40,3.34622e-40,1.152314e-39,4.97398e-40,1.191251e-39,1.021332e-39,-4.13757e-40,4.73279e-40,-8.628425e-39,2.808086e-39,-1.4232768e-38,8.72529e-39,-4.34831e-40,-7.96285e-39,-9.757418e-39,-2.49624e-39,9.81591e-40,1.252082e-38,-1.5065053e-38,1.6585449e-38,-8.32366e-40,8.85502e-40,4.1486e-40,-3.94768e-40,1.8279e-41,1.65925e-40,3.93026e-40,-3.10528e-40,-1.03371e-40,-1.60002e-40,1.89755e-40,3.21273e-40,-9.1523e-41,5.08907e-40,4.09332e-40,3.83877e-40,1.9891e-40,-1.7065e-40,7.89517e-40,-1.55582e-40,3.76116e-40,5.678e-41,-1.77208e-40,5.7683e-41,8.36107e-39,-1.664267e-38,1.3833998e-38,-1.96629e-40,-1.34984e-38,4.84771e-39,-8.467275e-39,-1.0884897e-38,1.355346e-38,0.006754986,0.006255227,-0.0017610698,0.009589923,0.007821591,-0.0009735249,0.00674115,0.005147332,-0.0035684735,1.12355e-40,-1.85916e-40,6.15181e-40,-6.97365e-40,2.99369e-40,-2.87046e-40,7.53777e-40,6.5878e-40,-6.01468e-40,-4.897635e-39,-3.93221e-40,-5.349098e-39,-6.660579e-39,-5.3108e-41,-1.061009e-39,-6.461271e-39,7.84356e-40,8.4999e-41,-2.5976e-41,5.9135e-41,8.1622e-40,-2.61735e-40,1.18732e-40,1.09071e-40,3.22893e-40,1.31592e-40,1.60117e-40,4.12946e-40,-5.0218e-41,6.89362e-40,-3.50909e-40,1.8707e-40,2.921e-40,1.42794e-40,1.45815e-40,3.78564e-40,4.39882e-40,5.41399e-40,-1.94251e-40,-5.93237e-40,-3.94167e-40,-8.68532e-40,7.8247e-41,1.44223e-40,-1.02983e-40,-5.2898e-41,7.2153e-41,2.76937e-40,-1.5064e-40,8.05734e-40,-6.89917e-40,5.89365e-40,-4.3786e-40,-8.39501e-40,-4.425829e-39,-6.797646e-39,-1.2449718e-38,7.495837e-39,8.78935e-40,-4.334271e-39,5.66986e-40,3.245367e-39,-4.855313e-39,-1.27178e-40,-1.8575e-40,3.54512e-40,4.66248e-40,6.71003e-39,1.1290591e-38,-1.4913861e-38,8.71047e-40,-6.563064e-39,-3.87142e-40,2.73214e-40,2.61653e-40,6.37861e-40,-1.114809e-39,-2.13743e-40,-4.88246e-40,-3.38237e-40,3.58552e-40,-1.293565e-39,-2.345938e-39,1.1190227e-38,-1.1831794e-38,1.4882e-40,-1.65906e-38,2.95954e-40,2.70434e-40,-1.5913832e-38,-5.47398e-40,-1.81513e-40,-3.81802e-40,-2.16255e-40,-3.07757e-40,-5.71262e-40,-7.44203e-40,6.09299e-40,-6.44288e-40,4.42239e-40,4.888e-41,-3.61007e-40,-6.2272e-41,-6.87546e-40,6.4411e-40,5.20445e-40,-7.3407e-40,-6.40531e-40,-1.6766e-40,5.90965e-40,8.354e-41,-7.69868e-40,-6.774e-41,-7.01533e-40,9.6847e-41,5.60016e-40,1.66425e-40,9.9757e-41,-6.66319e-40,-5.72747e-40,-4.44757e-40,-1.20777e-40,-5.44962e-40,2.165e-42,2.63572e-40,7.91606e-40,-8.66115e-40,-5.27701e-40,-3.37374e-40,-2.10537e-40,-5.36856e-40,-6.27954e-40,6.45378e-40,-9.0113e-41,9.968e-41,-1.9366e-40,1.66984e-40,1.41115e-40,-1.50871e-40,-2.95664e-40,3.36576e-40,2.42231e-40,-7.2559e-41,3.22208e-40,-3.37634e-39,8.665377e-39,-4.430624e-39,7.34309e-39,8.79228e-40,-9.65757e-39,-1.6119658e-38,3.13625e-39,-7.180364e-39,-5.8961e-40,1.5701e-40,1.81006e-40,-1.28551e-40,-2.93356e-40,-4.06043e-40,-3.70377e-40,5.87517e-40,2.22731e-40,1.96555e-40,4.03137e-40,6.69699e-40,2.74573e-40,3.08989e-40,7.86908e-40,-4.69946e-40,6.00654e-40,-1.31707e-40,-1.53872e-40,6.22626e-40,-1.59975e-40,-1.2864e-40,7.2551e-41,7.27493e-40,2.9774e-40,-7.08139e-40,5.54635e-40,3.5786e-41,-3.55872e-40,7.28042e-40,-4.49183e-40,-1.13945e-40,5.53017e-40,-1.3322e-40,-4.26188e-40,-4.50219e-40,-1.33879e-40,6.51288e-40,-4.57542e-40,8.4571e-40,4.9741e-40,-8.09184e-40,4.17014e-40,5.00034e-40,-8.99536e-40,-2.77468e-40,-5.45004e-40,9.12429e-40,-2.08156e-40,1.168775e-39,-1.1067e-40,-1.09959e-39,-6.1916e-40,-6.01069e-40,5.83108e-40,5.73832e-40,-7.34334e-40,-5.43121e-40,-7.59411e-40,-2.23713e-40,-3.142e-42,7.26751e-40,-8.30152e-40,8.5889e-40,-6.9589e-40,-2.56813e-40,5.23786e-40,2.17788e-40,4.29417e-40,-2.10064e-40,5.56451e-40,-3.98399e-40,-4.98246e-40,-4.81755e-40,-1.39148e-40,-5.23674e-40,-5.15661e-40,-2.63446e-40,2.13701e-40,5.27922e-40,5.76187e-40,1.0399294e-38,-2.75247e-40,6.6703e-41,-3.1179e-40,-9.162e-41,-3.04902e-40,1.352695e-38,-4.79349e-40,-1.3420656e-38,-3.1149e-40,-1.53351e-40,-5.84559e-40,6.1768e-41,-1.01894e-40,1.63412e-40,-6.42958e-40,-8.32893e-40,1.98195e-40,2.89227e-40,1.3681e-40,5.72397e-40,-8.1245e-40,-2.99919e-40,1.27316e-40,2.30487e-40,-2.68869e-40,-9.5193e-41,-1.494865e-38,-1.2266887e-38,1.0222439e-38,5.75976e-40,6.79995e-40,-1.6641053e-38,-5.463479e-39,-8.403657e-39,-1.2734607e-38,2.1357e-41,8.821704e-39,-3.94178e-40,-1.5929151e-38,-3.58033e-40,-1.6056432e-38,8.11591e-40,-9.2358e-40,-9.49716e-40,2.09444e-40,8.34129e-40,5.8611e-40,4.1533e-40,-6.85283e-40,-7.27813e-40,-1.67134e-40,7.92024e-40,-6.7155e-40,-1.33395e-40,4.41197e-40,3.35526e-40,1.77148e-40,-1.016236e-39,4.20171e-40,9.97516e-40,-4.79862e-40,6.46429e-40,1.209428e-39,5.66479e-40,-1.07756e-40,6.68054e-40,-8.241e-42,-4.35689e-40,4.59469e-40,4.5368e-41,8.46404e-40,8.6906e-40,-3.72995e-40,-6.34669e-40,6.00661e-40,-3.38655e-40,7.15911e-40,5.06153e-40,4.4083e-41,-5.17e-42,-5.25223e-40,1.21082e-40,2.78362e-40,-6.46078e-40,1.8605e-41,-8.7088e-41,-2.2868e-40,5.24817e-40,-5.95455e-40,1.3382e-40,1.5207e-40,-6.94073e-40,-5.83771e-40,5.12571e-40,4.514e-40,-7.14019e-40,-1.34072e-40,-4.78836e-40,-4.81396e-40,-4.00015e-40,1.71156e-40,-6.495e-42,2.6024e-41,-2.80817e-40,-5.7013e-41,-6.3925e-40,-6.00654e-40,-2.59319e-40,-3.3541e-41,-7.6325e-40,-5.6528e-41,-5.29703e-40,-8.16869e-40,7.08784e-40,8.10945e-40,-1.20219e-40,3.45386e-40,-1.28188e-40,7.10701e-40,4.15652e-40,8.70487e-40,3.978e-42,1.92e-40,-7.57727e-40,-6.11422e-40,0.00013089892,-0.0005096482,0.00079498906,-0.0012104104,-5.5322213e-05,0.0019683344,-0.0030150763,-0.00026619088,0.0028777197,4.5024e-41,-1.93895e-40,-1.73137e-40,-2.2942e-40,-9.9903e-41,4.1571e-40,-4.39894e-40,-8.2394e-40,-1.27049e-40,9.2163e-41,-8.41652e-40,5.58259e-40,9.1257e-41,-2.75542e-40,3.13419e-40,3.28984e-40,1.09783e-40,4.63072e-40,-2.30215e-40,9.76632e-40,-5.23137e-40,6.94579e-40,-4.04133e-40,-4.56907e-40,9.91481e-39,-3.17445e-40,7.69548e-40,1.969236e-39,9.88536e-40,5.45335e-40,5.66657e-40,-5.60648e-40,-7.53494e-40,9.97214e-40,-3.81288e-40,-1.950679e-39,-6.44694e-40,-8.91306e-40,-6.41723e-40,5.06048e-40,3.04834e-40,3.42672e-40,-4.71053e-40,-7.9009e-40,-3.63033e-40,2.48899e-40,-6.84e-43,-3.07651e-40,6.8095e-41,-1.89164e-40,3.48741e-40,3.56863e-40,-7.84294e-40,3.8945e-40,-7.26376e-40,-1.116164e-39,-1.010692e-39,-3.72347e-40,6.97707e-40,-1.364897e-39,-7.20183e-40,-7.53676e-40,1.37499e-39,-3.33471e-40,-2.74706e-40,2.54963e-40,-1.544318e-39,1.882716e-39,1.826185e-39,-2.1944e-41,-1.08332e-40,1.671259e-39,-1.076056e-39,-9.21302e-40,1.146667e-39,-4.60681e-40,6.9746e-40,7.1151e-41,1.758365e-39,3.65335e-40,-2.89155e-40,1.173611e-39,5.1348e-40,1.314126e-39,3.71015e-40,1.036688e-39,-2.8586e-40,-1.352767e-39,-7.48659e-40,-1.080157e-39,9.567584e-39,1.940591e-39,1.368903e-39,1.913619e-39,-1.607749e-39,-7.68883e-40,2.223013e-39,6.91217e-40,-9.999e-40,-0.004658049,-0.00260606,0.0019167364,0.0061348523,0.0012127763,0.0063924487,0.008465937,0.0039290274,0.011021467,6.674e-41,-3.0998e-40,-1.750262e-39,4.38435e-40,2.97811e-40,1.965196e-39,-8.33401e-40,-8.04158e-40,-1.8433e-40,-3.86527e-40,-3.42507e-40,1.22891e-40,-7.09718e-40,-1.855064e-39,1.638887e-39,-1.827362e-39,-1.34364e-39,1.5138e-41,3.1017e-40,2.1032185e-38,1.324069e-39,-2.433905e-38,1.753956e-39,-2.0859707e-38,-2.9773784e-38,-7.118389e-39,-3.0393488e-38,-1.419248e-38,-2.6163307e-38,3.601785e-38,9.281328e-39,-4.14613e-40,-2.7345336e-38,-2.9352074e-38,6.19811e-39,1.4568216e-38,-1.92522e-40,-1.008987e-39,6.062e-42,2.290642e-39,-1.27538e-39,-1.315088e-39,4.304766e-39,1.189112e-39,-3.05803e-40,2.365661e-39,-3.1684098e-38,-3.1090833e-38,-3.299223e-38,-6.96797e-40,-3.327717e-38,3.4100124e-38,7.963738e-39,-1.675778e-39,-1.58372e-40,-1.152525e-39,5.7232e-41,-1.20811e-39,-2.06334e-40,1.856045e-39,1.521335e-39,-1.737271e-39,-6.38297e-40,-1.343003e-39,1.410358e-39,-1.891379e-39,1.029569e-39,-2.34706e-40,-6.84672e-40,5.24236e-40,-9.83916e-40,-7.25924e-40,6.40019e-40,1.543054e-39,-1.157523e-39,-6.44275e-40,-4.12919e-40,-7.24887e-40,-6.77591e-40,-1.053118e-39,3.22114e-40,1.6230985e-38,-1.6133368e-38,1.8605296e-38,-1.497511e-38,-1.940715e-38,1.6072934e-38,3.4149588e-38,8.20495e-40,2.6746797e-38,0.010532903,0.007288133,0.0010432808,0.022244921,0.012514744,0.012391593,0.023697563,0.018155979,0.015630249,1.220898e-39,-6.56988e-40,3.7667e-40,1.097252e-39,7.9814e-40,-2.90289e-40,7.92667e-40,7.55524e-40,5.5805e-40,-1.83905e-40,3.14807e-40,1.52761e-40,1.184973e-39,-1.797455e-39,-9.132e-40,1.602975e-39,-1.346662e-39,-1.875042e-39,-7.43666e-40,-5.79887e-40,-1.91538e-40,9.57556e-40,-9.69438e-40,6.2949e-40,1.16823e-40,-7.089e-40,-1.43888e-40,1.138615e-39,3.32437e-40,1.72327e-40,1.158235e-39,-1.11409e-40,1.11245e-39,2.66646e-40,-1.498784e-39,1.780909e-39,1.434756e-39,5.2292e-40,-9.06126e-40,1.012051e-39,-5.41938e-40,-1.161014e-39,-9.55306e-40,-1.501781e-39,-1.670404e-39,-1.261609e-39,-1.5109e-40,-6.60366e-40,-9.38782e-40,-1.02072e-39,7.93663e-40,-6.80723e-40,6.99161e-40,1.278463e-39,-7.86424e-40,-1.219033e-39,-1.747953e-39,1.578965e-39,9.2298e-40,-1.704825e-39,-8.076e-40,1.072955e-39,9.82974e-40,-3.26582e-39,3.78793e-40,2.676774e-39,3.20768e-40,-2.9118948e-38,-1.359168e-39,-3.865487e-39,3.893272e-39,-2.6994146e-38,1.370858e-39,2.094162e-39,-1.610246e-39,1.516826e-39,1.75053e-39,1.308209e-39,-6.37214e-40,-4.5038e-41,-6.22705e-40,3.049637e-38,2.373215e-38,1.9310547e-38,4.22703e-39,1.36515e-39,2.130634e-39,1.43002e-39,1.507347e-39,2.6728e-39,2.04026e-40,-1.51957e-40,1.905941e-39,8.04575e-40,-1.100109e-39,-1.146622e-39,1.823307e-39,-6.51671e-40,-7.30232e-40,-1.560209e-39,4.74375e-40,-2.13018e-40,1.612872e-39,8.50714e-40,-1.760535e-39,-2.74467e-40,6.04875e-40,-1.71744e-39,-1.686802e-39,-4.29518e-40,-1.1328e-41,-1.660654e-39,-1.462451e-39,3.64838e-40,-1.00746e-39,8.04148e-40,3.57e-41,1.15522e-39,1.821094e-39,1.159497e-39,-1.01935e-39,-6.96628e-40,-9.99314e-40,-1.404796e-39,-3.133e-41,-1.577398e-39,7.8566e-40,-1.444513e-39,7.698e-41,-4.69505e-40,7.4358e-40,1.32115e-39,-7.20583e-40,8.0014e-40,1.449098e-39,-2.0076445e-38,-5.25518e-40,-2.5000193e-38,1.152476e-39,-1.322701e-39,-8.1818e-41,-1.8820318e-38,1.525246e-39,1.383373e-39,-2.5961632e-38,-3.5620368e-38,3.6999237e-38,-3.3895367e-38,9.52739e-40,-2.5261174e-38,-2.965657e-38,-2.701656e-38,9.977246e-39,2.76466e-40,9.20153e-40,9.53507e-40,-5.65207e-40,-1.48683e-40,7.4142e-40,-4.24337e-40,1.438465e-39,5.04801e-40,-3.13263e-40,-3.79372e-40,-1.18763e-39,-1.763729e-39,-1.003872e-39,-1.401802e-39,-1.659748e-39,9.82613e-40,-9.58757e-40,-8.85677e-40,-1.278112e-39,-3.069e-41,-9.69728e-40,-7.53185e-40,8.3069e-40,-1.084765e-39,1.392156e-39,5.15896e-40,-7.86242e-40,3.81609e-40,9.3736e-41,8.94482e-40,3.2795e-40,-8.89425e-40,1.873837e-39,-1.234101e-39,-9.18466e-40,-2.3891604e-38,1.122545e-39,5.2703e-41,2.3322721e-38,4.73863e-40,9.77676e-40,3.058385e-38,2.90715e-40,4.86377e-40,-8.34577e-40,1.153078e-39,2.667821e-39,1.862739e-39,3.1839e-41,7.28003e-40,4.61044e-40,1.141842e-39,-2.23359e-40,-5.69097e-40,-1.463698e-39,5.16161e-40,-1.04992e-39,2.66463e-40,-1.413092e-39,-2.92329e-40,6.78193e-40,1.604546e-39,-1.030843e-39,1.19373e-39,1.560372e-39,-6.89561e-40,6.32388e-40,7.76766e-40,-7.522e-41,8.08283e-40,-1.160754e-39,-1.15276e-39,-7.03481e-40,1.525742e-39,1.022722e-39,5.007e-42,-1.211568e-39,1.8125e-40,-8.05436e-40,-1.45745e-40,-3.741987e-39,4.2496e-41,6.73854e-40,-8.492743e-39,-9.54916e-40,6.4454e-41,-3.719797e-39,1.919639e-39,4.717729e-39,7.96389e-40,-1.27592e-39,-1.1904e-40,-1.090376e-39,8.19037e-40,-1.211194e-39,-1.212108e-39,-1.023147e-39,1.002815e-39,9.00048e-40,1.578379e-39,5.7676e-41,1.84475e-40,-9.77389e-40,1.038415e-39,-9.06747e-40,-2.97143e-40,8.45012e-40,3.2189255e-38,3.0637438e-38,-3.459025e-38,8.58807e-40,-8.45429e-40,1.0720292e-38,5.14673e-40,-3.6254467e-38,-2.072937e-39,1.8754635e-38,3.736896e-38,2.0841675e-38,3.4677678e-38,1.473897e-39,6.194857e-39,2.9535235e-38,-1.4423876e-38,-1.4790411e-38,1.073218e-39,-7.1224e-40,-5.2871e-41,1.383376e-39,-8.59287e-40,5.26629e-40,-1.92688e-40,5.78467e-40,-1.447882e-39,9.95761e-40,-7.942e-41,-1.271739e-39,-2.13637e-39,9.62259e-40,-1.13692e-39,4.49325e-40,2.248829e-39,1.529443e-39,-1.779316e-39,1.049208e-39,-1.637398e-39,1.524311e-39,-2.1696e-41,8.96366e-40,7.95751e-40,4.9313e-41,1.173058e-39,1.379735e-39,-1.125045e-39,-1.41157e-40,-5.3061e-40,-3.0833e-41,-6.38392e-40,-4.72473e-40,1.047127e-39,-2.5235e-41,1.399005e-39,-7.8787e-41,-6.5575e-41,3.47252e-40,-1.096359e-39,6.7703e-40,-8.63341e-40,-1.573672e-39,-5.88578e-40,1.14678e-40,1.04084e-40,-6.0462e-40,1.160907e-39,-7.23063e-40,-8.54763e-40,1.0315e-39,2.21523e-40,1.072756e-39,-5.38167e-40,2.46198e-40,1.06352e-39,1.225651e-39,8.95779e-40,-1.691423e-39,6.08086e-40,2.38931e-40,-5.12326e-40,9.657e-40,3.34909e-40,1.001595e-39,4.98883e-40,5.31675e-40,-1.36917e-40,-1.13644e-39,-1.816377e-39,-9.1519e-40,1.376633e-39,9.68035e-40,-2.7671928e-38,-2.273944e-39,5.41692e-40,-3.5075243e-38,8.40682e-40,9.78827e-40,1.18111e-40,-0.0010816448,0.0011016775,-0.0066685653,-0.014742329,-0.016377654,-0.008910007,-0.0070736185,-0.010334674,-0.008434973,-1.360322e-39,5.83464e-40,4.48776e-40,8.587e-41,-1.58596e-39,-9.86981e-40,1.093129e-39,1.156024e-39,-8.47741e-40,-2.88342e-40,-2.0051e-40,-1.054975e-39,-3.01914e-40,-1.878487e-39,4.002e-40,-1.147008e-39,-1.43033e-40,1.098404e-39,2.0654684e-38,-1.5566297e-38,2.85543e-40,1.1109972e-38,-1.797406e-39,2.1920048e-38,-3.1268257e-38,6.539756e-39,-6.542692e-39,5.48453e-40,-2.301071e-39,-2.02052e-39,1.966993e-39,3.99807e-39,1.98064e-40,-1.274969e-39,-3.56597e-39,-1.30396e-40,1.625886e-39,1.209105e-39,7.09948e-40,-1.34912e-39,-6.31045e-40,-5.33064e-40,-1.131488e-39,1.781034e-39,1.373713e-39,2.1587e-40,2.3978e-40,8.34644e-40,4.62368e-40,8.64898e-40,5.3497e-41,5.03e-42,1.029266e-39,8.28079e-40,2.9043e-41,6.075e-42,5.0877e-41,4.6593e-41,9.267e-42,-2.1513e-41,-2.323e-42,5.714e-41,-4.2608e-41,-6.34e-42,-4.6017e-41,-4.1497e-41,-4.5108e-41,-3.8936e-41,-1.471e-42,4.3681e-41,-4.7512e-41,-2.0565e-41,-1.5735e-41,4.0825e-41,3.6638e-41,-3.4888e-41,-3.0816e-41,-2.6312e-41,-1.5267e-41,-1.2933e-41,-2.7416e-41,-5.1775e-41,5.6065e-41,2.0102e-41,5.216e-41,1.6086e-41,-2.816e-41,4.4326e-41,6.108e-42,-2.8546e-41,-4.8185e-41,4.7165e-41,4.7651e-41,3.1141e-41,-2.8544e-41,-7.686e-42,-3.1179e-41,-4.3423e-41,-2.6741e-41,-1.9696674e-05,-3.3818957e-05,5.8142083e-05,-0.00013148818,-5.4929547e-05,-0.00012124925,-4.4221473e-05,-3.0538864e-05,-6.507969e-05,-6.3308e-41,-6.0459e-41,-7.37414e-40,-5.633e-42,1.8555e-41,-2.0881e-41,-1.9785e-41,-5.54e-43,-2.8844e-41,3.6201e-41,4.2287e-41,-7.899e-42,8.916e-42,-1.5494e-41,2.3142e-41,-4.748e-42,4.6568e-41,2.0919e-41,3.2988e-41,-2.4234e-41,5.2275e-41,1.9768e-41,-1.7253e-41,-2.2191e-41,-3.9832e-41,6.2379e-41,-5.5561e-41,-6.6438e-41,-1.2481e-41,-6.09636e-40,4.5862e-41,2.4086e-41,-1.133353e-39,-6.9046e-41,-4.79278e-40,5.6626e-41,4.194e-41,1.2163e-41,5.517e-42,-2.9059e-41,7.382e-42,-4.0978e-41,-6.3545e-41,-7.0703e-41,-5.3849e-41,-8.72123e-40,1.042928e-39,-5.1025e-41,-3.41517e-40,4.0998e-41,-9.49024e-40,-1.024684e-39,8.95245e-40,5.583e-41,7.7507e-41,1.324e-41,1.130968e-39,1.7586e-41,-5.84e-43,6.9301e-41,-4.8017e-41,-4.0782e-41,-6.677e-42,5.1551e-41,4.8419e-41,2.0179e-41,-3.8258e-41,2.7104e-41,-1.66e-42,2.9942e-41,1.986e-42,4.1558e-41,-7.026e-42,-2.735e-41,-2.6738e-41,2.0678e-41,-4.2637e-41,3.9086e-41,4.42e-42,4.17e-42,2.283e-41,3.30634e-40,-1.047881e-39,3.16326e-40,5.98199e-40,5.81991e-40,-5.1363e-41,9.6523e-40,-9.07496e-40,-3.6184e-41,-9.8881676e-05,-0.00014015555,-5.5562698e-05,-0.00031195077,-0.0003448143,-0.00028896425,-0.00027950163,-0.0003070252,-0.00035596077,-2.304e-41,1.3535e-41,4.4337e-41,-5.7054e-41,-3.97e-42,-1.164e-41,-4.0782e-41,3.9008e-41,-9.925e-42,4.8024e-41,2.0048e-41,5.8291e-41,8.783e-42,-1.7085e-41,-7.47e-43,5.2989e-41,3.895e-41,5.7184e-41,-2.2866e-41,-9.993e-42,-6.746e-42,-5.1251e-41,-7.063e-42,-1.8405e-41,-8.744e-42,-8.743e-42,2.6235e-41,-5.2896e-41,3.4675e-41,-3.3946e-41,3.6975e-41,-3.0851e-41,-1.7808e-41,4.0881e-41,-4.0373e-41,-3.3668e-41,2.099e-41,-6.737e-42,1.9265e-41,-4.4699e-41,2.3526e-41,1.976e-42,-5.0462e-41,9.63e-43,-2.0609e-41,5.828e-42,4.0052e-41,1.7967e-41,-8.816e-42,3.6263e-41,2.4172e-41,-4.5464e-41,1e-42,-9.561e-42,3.10552e-40,-4.50908e-40,-3.7877e-41,4.30838e-40,-5.9013e-41,-5.594e-42,4.55101e-40,-3.2471e-41,6.234e-42,1.9384e-41,1.05965e-40,9.67105e-40,8.12742e-40,9.38825e-40,8.55913e-40,-3.247e-41,6.71555e-40,1.08812e-40,-8.039e-41,1.4035e-41,5.0213e-41,-1.3915e-41,-2.5666e-41,4.706e-42,5.2539e-41,3.6507e-41,6.431e-41,-1.122409e-39,9.55103e-40,5.80292e-40,8.541e-41,-1.2829e-41,-3.99165e-40,4.50547e-40,5.5504e-40,1.65045e-40,-4.9732e-41,-1.9296e-41,-5.7446e-41,-4.9739e-41,-2.5335e-41,3.4712e-41,-4.7992e-41,-3.185e-42,1.7355e-41,3.5981e-41,-4.4816e-41,-3.0571e-41,2.086e-41,1.8068e-41,-2.546e-41,-2.5513e-41,-3.2091e-41,-3.362e-42,5.3223e-41,3.5842e-41,2.8306e-41,-3.7447e-41,2.438e-41,-1.996e-41,1.9952e-41,-5.6136e-41,-4.6659e-41,-7.33e-42,1.9984e-41,-7.17e-43,-2.3271e-41,6.233e-42,1.1576e-41,3.3795e-41,-1.283e-41,3.416e-42,-4.5524e-41,-3.5959e-41,-2.553e-42,5.768e-42,-3.132e-41,2.301e-42,3.6e-44,-1.797e-41,-3.775e-42,3.6344e-41,-3.6033e-41,-3.11e-42,-4.1177e-41,1.9217e-41,4.6516e-41,-3.6654e-41,-4.5897e-41,-2.4123e-41,6.40926e-40,9.03444e-40,-1.065665e-39,7.6805e-41,-4.0974e-41,8.63587e-40,-1.77197e-40,-7.36102e-40,-6.37721e-40,4.3712e-41,4.9267e-41,3.4821e-41,-4.0423e-41,6.576e-42,-4.075e-41,4.0077e-41,-7.437e-42,-2.2248e-41,-7.732e-42,-3.2807e-41,-1.5641e-41,2.9436e-41,-2.1466e-41,-9.683e-42,9.935e-42,-2.0808e-41,-1.4522e-41,-3.5789e-41,-1.4457e-41,-2.468e-41,4.3027e-41,7.112e-42,4.4382e-41,-5.3304e-41,-5.2511e-41,7.853e-42,-5.0245e-41,-1.4076e-41,-3.0443e-41,-3.8866e-41,3.5199e-41,1.5497e-41,1.0527e-41,2.4425e-41,-2.7813e-41,-7.479e-42,1.6291e-41,3.5007e-41,-4.403e-42,2.0598e-41,-1.1097e-41,2.9417e-41,9.243e-42,4.9005e-41,6.2593e-41,-7.8682e-41,4.2207e-41,-3.9214e-41,-1.611e-42,-7.603e-42,4.3423e-41,-4.1104e-41,-3.3272e-41,-5.447e-42,-3.5217e-41,-1.5007e-41,5.059e-42,-5.0227e-41,4.7393e-41,-1.8587e-41,2.8822e-41,5.6231e-41,-3.2105e-41,2.4761e-41,-5.8022e-41,-1.01e-41,-6.477e-42,1.4069e-41,-4.0694e-41,-3.4609e-41,3.465e-42,-5.7399e-41,-4.9982e-41,-3.9741e-41,-1.5774e-41,-4.04e-42,-3.615e-42,-3.8115e-41,4.0577e-41,-1.5767e-41,7.59344e-40,5.1712e-41,-1.124592e-39,8.77825e-40,-8.598e-42,7.96984e-40,-9.42167e-40,5.106e-41,8.216e-40,-1.07e-42,5.3076e-41,-4.3032e-41,3.3998e-41,-5.0912e-41,-1.4234e-41,-1.5665e-41,5.3688e-41,5.3876e-41,2.0484e-41,8.315e-42,1.4096e-41,1.15e-43,4.2873e-41,7.955e-42,2.4897e-41,-3.1873e-41,-1.894e-41,1.087534e-39,4.3325e-41,-3.5676e-41,5.964e-42,1.5735e-41,5.31023e-40,5.7651e-41,5.8552e-41,-4.1544e-41,-6.652e-42,-6.3172e-41,3.6927e-41,-8.07e-42,2.3029e-41,5.8162e-41,-4.4186e-41,-9.505e-42,4.5153e-41,-1.5445e-41,-1.6636e-41,4.714e-41,6.649e-42,3.1285e-41,-2.4188e-41,2.906e-42,2.9545e-41,2.257e-42,1.3267e-41,-3.3809e-41,-4.0342e-41,5.7289e-41,4.0446e-41,-1.0253e-41,-6.4095e-41,-8.977e-42,5.4666e-41,-1.2408e-41,3.2415e-41,-5.301e-42,-5.4178e-41,2.484e-41,-4.1658e-41,-2.5275e-41,-5.043e-42,-7.4869e-41,1.899e-42,3.566e-42,-2.0217e-41,2.3735e-41,1.0828e-41,5.442e-41,3.1297e-41,-8.462e-42,5.2664e-41,5.0808e-41,3.4625e-41,3.9765e-41,4.079e-41,-5.2868e-41,2.2655e-41,5.6761e-41,-2.7167e-41,-3.1765e-41,5.1545e-41,3.613e-41,-1.2965e-41,-3.1816e-41,4.9925e-41,4.0793e-41,-1.9104e-41,-8.226e-42,-2.4497e-41,-1.3502e-41,2.9454e-41,-9.29e-42,5.96e-43,5e-42,-3.264e-41,-2.1737e-41,-4.5595e-41,-4.2985e-41,-1.9e-43,4.994e-42,-4.1708e-41,2.7146e-41,-6.387e-42,3.8576e-41,-4.4008e-41,4.5429e-41,9.697e-42,5.44e-41,-3.9295e-41,3.5103e-41,5.79e-41,4.2e-41,-2.9377e-41,2.175e-41,-2.842e-42,1.1014e-41,-3.698898e-05,0.00011996808,0.00029699312,1.3939547e-05,6.664531e-07,0.00020116557,-6.6147545e-06,-9.107041e-05,-6.0224415e-06,-5.0176e-41,8.709e-42,2.7582e-41,-4.0308e-41,-1.2083e-41,2.4433e-41,-1.8026e-41,1.9698e-41,4.5895e-41,1.2584e-41,-3.893e-41,-4.61e-42,-2.439e-41,4.5443e-41,1.0517e-41,1.166e-42,3.008e-41,5.2815e-41,-8.08607e-40,4.33e-43,-3.2154e-41,-1.132773e-39,-3.1458e-41,-9.683e-42,-3.2425e-41,-1.9599e-41,8.53653e-40,5.261e-41,7.8131e-41,-5.1e-42,-7.0313e-41,-9.467e-41,4.001e-42,4.6069e-41,-1.6947e-41,1.29259e-40,1.3118e-41,1.2942e-41,-4.3636e-41,1.5316e-41,-4.4556e-41,-4.5751e-41,-5.3601e-41,-2.0945e-41,4.5186e-41,4.7154e-41,9.582e-42,-4.143e-41,-2.4617e-41,-1.5054e-41,4.0605e-41,6.459e-42,-1.6566e-41,3.8432e-41,-2.93366e-40,4.2191e-40,1.6939e-40,-7.19704e-40,-9.1159e-41,3.2753e-41,-6.81826e-40,7.26139e-40,5.36425e-40,3.98966e-40,-3.20122e-40,2.10698e-40,3.84113e-40,-2.42845e-40,-4.4362e-41,-2.7192e-40,-5.2426e-40,1.32231e-40,1.13394e-40,5.95283e-40,5.3961e-41,1.55865e-40,7.15039e-40,-3.93944e-40,1.07355e-40,6.53503e-40,2.22631e-40,-4.48493e-40,-1.90991e-40,-2.37348e-40,8.2245e-41,5.59021e-40,-5.862e-40,5.7491e-41,-5.79162e-40,1.57e-43,-8.95773e-40,-2.684e-41,-5.07829e-40,9.19496e-40,-1.39118e-40,-7.83072e-40,-5.63102e-40,-7.26172e-40,-1.82443e-40,-0.003169562,0.0010897359,-0.001576146,-0.0032803975,0.0026152919,0.0033029246,-0.00025672652,0.0041666697,0.003943815,5.773352e-39,3.632952e-39,2.744147e-39,8.881448e-39,4.9362e-40,-3.802428e-39,1.1920409e-38,4.673887e-39,3.37562e-40,3.40786e-40,4.58227e-40,5.35896e-40,3.43325e-40,3.07624e-40,-5.00373e-40,-4.87751e-40,-3.87758e-40,-2.72539e-40,-6.80633e-39,1.2385535e-38,-6.09307e-40,-1.4513954e-38,-2.26573e-40,1.1856718e-38,8.879703e-39,-7.186324e-39,-1.6565e-40,5.529155e-39,-1.0280859e-38,8.637011e-39,1.2842956e-38,-5.9827e-40,4.179025e-39,3.628312e-39,-1.1320457e-38,-1.555769e-39,8.48046e-40,-1.160851e-39,-3.9564e-40,-1.308149e-39,7.55788e-40,1.080837e-39,-5.8929e-41,-4.2582e-40,-5.3612e-40,1.264825e-38,3.6411e-40,5.560592e-39,4.0014e-41,2.64415e-40,1.3165213e-38,9.571381e-39,8.654192e-39,7.693081e-39,-2.14564e-40,-9.53808e-40,-7.29175e-40,-3.51053e-39,5.3525e-40,-9.6721e-40,9.22905e-40,3.30412e-40,-4.20865e-40,-4.06612e-40,2.33723e-40,5.00418e-40,4.82539e-40,2.08417e-40,2.96061e-40,3.28135e-40,-5.97018e-40,1.97848e-40,5.58112e-40,-1.755e-41,-6.22339e-40,3.61817e-40,-7.52179e-40,-5.33976e-40,3.52253e-40,-6.45205e-40,-4.57127e-40,2.10443e-39,-1.3285784e-38,-8.2523e-40,-5.41353e-39,4.957445e-39,8.758544e-39,-8.204371e-39,3.536743e-39,8.516107e-39,-0.00033112522,0.0005121422,0.0010380509,0.0067248675,0.00881813,0.009238178,0.0027490223,0.0019034478,0.0038147029,-1.24662e-40,2.55807e-40,4.3724e-40,-4.5626e-40,2.18708e-40,-4.15133e-40,-4.4388e-41,-7.14434e-40,-2.15888e-40,2.931406e-39,1.867131e-39,1.58064e-39,3.82836e-40,-6.4223e-41,2.23457e-40,3.182211e-39,2.332636e-39,2.591084e-39,3.11488e-40,-1.2245e-41,6.67541e-40,5.6196e-40,1.73002e-40,8.2549e-41,7.3738e-41,-2.85875e-40,-1.36863e-40,5.40024e-40,2.71385e-40,-3.18878e-40,-1.40616e-40,-2.01553e-40,-3.55921e-40,-5.14539e-40,4.48816e-40,-2.7199e-41,-8.4304e-41,5.06733e-40,2.76517e-40,6.76527e-40,2.85663e-40,-4.24715e-40,-3.16363e-40,2.25774e-40,3.61759e-40,1.3282e-41,-1.82721e-40,-4.13152e-40,3.12724e-40,-2.51764e-40,-3.0702e-41,3.09111e-40,-3.96827e-40,3.29782e-40,-3.62499e-40,5.12309e-40,8.6244e-40,-1.4620202e-38,1.4377897e-38,4.84443e-40,1.8087e-41,1.3585657e-38,1.34775e-40,-7.13422e-40,-1.701078e-39,-1.164199e-39,-2.28242e-40,1.0113569e-38,1.2950122e-38,1.110037e-39,1.846456e-39,-1.714727e-39,3.05112e-40,5.15923e-40,2.45355e-40,-1.42031e-40,-1.6913e-40,-1.24595e-40,-8.09268e-40,-4.0677e-41,8.5043e-41,-3.617434e-39,4.58017e-40,8.72507e-40,-1.11568e-39,9.33182e-40,-1.26394e-40,-6.30944e-40,-5.97446e-40,2.37503e-40,-7.8777e-41,-4.87659e-40,3.57796e-40,-5.72953e-40,3.29102e-40,4.48773e-40,4.38396e-40,-1.77491e-40,2.9612e-41,-4.28928e-40,3.90259e-40,-2.06537e-40,-4.87828e-40,-2.70502e-40,3.40209e-40,-1.92649e-40,-5.1093e-40,-2.72838e-40,-4.37696e-40,1.01995e-40,-5.46348e-40,5.90957e-40,1.92415e-40,-4.74e-41,9.9069e-41,3.12505e-40,-4.56472e-40,-6.61156e-40,-2.96721e-40,-4.16e-42,-2.78566e-40,-4.77135e-40,-3.9133e-41,-3.59478e-40,-4.09444e-40,-6.39874e-40,-1.56194e-40,-5.10946e-40,6.12268e-40,-6.98142e-40,3.04742e-40,-5.17484e-40,-2.86566e-40,-5.38557e-40,-1.9725e-41,3.75928e-40,-1.01919e-40,-3.15118e-40,4.49374e-40,-2.32233e-40,3.9936e-41,4.99367e-40,5.23974e-40,2.90402e-40,-1.1465753e-38,-9.843016e-39,-4.652172e-39,7.14675e-40,-3.40182e-40,1.3880391e-38,4.106785e-39,