-0.124365665,0.051596727,0.0047132396,-0.06221196,0.06544763,0.06504138,-0.16660659,-0.040126294,-0.04702271,-0.07530524,0.04767637,0.011092106,-0.009477681,-0.097528525,-0.07314737,-0.095852874,-0.17650157,0.041837253,-0.21374771,-0.09607977,-0.124864034,0.14968152,0.6190329,-0.1086212,0.19497854,0.4273496,-0.31430104,-0.08876879,0.31489387,-0.1805218,-0.17323491,0.18351544,0.010387705,-0.18754065,-0.18869333,0.24926339,0.026339373,-0.038576532,-0.08743773,0.10867357,0.090837315,0.016014101,0.049622893,0.08154554,-0.026090149,0.02924085,-0.0164493,0.19192493,0.07290775,-0.36667055,0.096361585,-0.018035732,-0.23187907,0.20196378,-0.0066757975,-0.07063861,-0.03864945,0.009059096,0.26247975,0.04841006,-0.058137197,-0.011641372,-0.12737764,0.06770749,-0.090305515,-0.042600248,-0.1612981,-0.38123888,-0.07098235,0.02445016,-0.14519593,0.10200901,0.030553782,-0.0062731346,-0.12451128,-0.03248964,-0.035954572,-0.027864555,-0.016641483,-0.10608253,-0.03974004,-0.40637726,-0.25238827,-0.18790658,-0.21092133,-0.006725829,0.03728887,-0.1769361,0.045129914,0.07113465,0.0134824775,-0.011638779,-0.111833595,-0.16777873,-0.24113637,0.270416,-0.06642393,0.11850277,0.22432578,-0.059365172,0.04869363,0.024283648,-0.09674261,0.048622392,0.07253561,-0.07859656,0.06435,-0.032235075,0.16429004,-0.0417946,-0.0344131,0.03545576,-0.26761085,0.004869787,-0.117316425,-0.04283182,0.086085916,0.115997836,0.08465021,0.09308181,-0.01970995,-0.065636955,0.15299879,-0.06228477,-0.0927338,-0.032080393,0.043589998,-0.032180704,-0.081241064,0.005063306,0.25823075,-0.001321836,-0.08407976,-0.09300857,-0.2468913,-0.15982051,-0.2102778,-0.10745296,0.18302317,0.02539968,7.32597e-05,0.14981234,-0.073184565,-0.009337754,-0.05904773,-0.08051406,0.07171626,0.28417787,0.34858307,0.16085546,-0.02652387,0.22289737,0.00048228394,-0.034895275,-0.12157782,0.022524735,0.015169168,0.00026625776,0.050285686,0.041141022,0.17018425,0.0723604,0.04874873,0.038837522,-0.073079236,-0.100298285,-0.023621736,0.0026948738,-0.024463514,-0.013493822,0.05767225,0.12410111,-0.1602299,0.16234541,0.033670582,-0.08181926,0.07980864,0.042073652,0.18551266,-0.05553055,-0.045526862,0.011081309,-0.14156076,-0.049079604,0.20140894,0.24270158,-0.025237136,0.21895206,0.13500957,0.049686763,0.09735027,-0.0007598037,-0.106988266,-0.06338148,0.19782883,-0.08530981,-0.10469952,0.1174791,0.07974464,0.01007502,0.046299946,0.14156081,0.17904463,0.07136561,0.07015624,0.046850216,0.0934346,-0.0679868,0.14645173,0.13624449,-0.1445624,-0.21135922,-0.09437772,0.058942165,0.006167477,0.033658866,0.038264822,0.0017616939,-0.08006034,-0.032630887,-0.041547842,-0.07891131,-0.14689791,-0.0050379634,0.025553148,-0.093640946,-0.098680735,-0.09640564,0.0017839331,0.030714681,-0.009043999,0.053515542,-0.059694026,-0.039813556,0.035240013,0.10928256,-0.052773256,-0.050318442,-0.13044347,-0.01191395,0.015183924,0.058388762,-0.097095564,-0.0014788882,-0.03604362,-0.077767715,0.013227316,0.09499373,-0.08225175,0.019223768,0.11107006,0.021386134,-0.0034771012,-0.099544294,0.0028776387,-0.06459569,0.27457407,-0.04034129,0.013366593,-0.018604867,-0.057650357,-0.020370713,0.10706025,0.096847005,-0.041892618,-0.21881379,0.0027965244,0.061773982,-0.08593775,0.022527508,-0.0828059,-0.09590602,-0.1394372,0.19747956,-0.02647143,-0.020475177,0.056783903,-0.003465686,-0.0021837174,-0.07857406,-0.119649716,-0.003632688,-0.09889716,-0.11919306,-0.0070391353,-0.050141368,-0.06407104,-0.007276031,0.08257843,0.01932807,0.015568396,-0.08482935,-0.07534918,-0.01826766,-0.057070926,0.008544877,0.03966777,0.024044298,-0.07316025,-0.036665834,0.051261935,-0.050015025,-0.03142452,-0.04501341,-0.0016239993,0.03440265,-0.05179953,-0.0058046184,-0.014865228,0.04035591,0.019755676,-0.0025725332,0.019874796,-0.010420534,-0.02420383,0.057830304,-0.028142883,-0.03073383,-0.045790706,-0.010778148,0.07155358,-0.02780919,-0.013780673,0.018808253,-0.0022667658,-0.0074108792,0.0015101106,-0.10238513,-0.06241896,0.07703237,-0.08650327,-0.060470898,0.02215373,-0.1124598,-0.11846806,-0.00794051,-0.035962135,-0.12649176,-0.009289745,-0.08688504,-0.1136925,-0.0772551,-0.01499742,0.013839288,-0.013380192,0.035894632,0.106973425,0.072240256,0.10052568,-0.0666929,-0.016905006,0.021719385,0.002425047,0.0747484,-0.00034603497,-0.09144381,-0.0006916399,0.010855315,-0.0692422,-0.013932776,-0.041447148,0.060191017,-0.033217784,-0.009843578,-0.007962355,-0.011504097,-0.007602867,-0.02212761,-0.00059394416,0.008049587,0.009905971,-0.0045256154,0.011561679,0.005862386,-0.034957625,0.02143352,-0.0018731969,-0.031293947,0.024867564,-0.06352401,0.04401461,0.07710972,-0.17392348,-0.06732805,-0.01782411,0.01661655,0.08234559,0.03511611,0.005725638,-0.038275294,-0.05541934,0.056597304,0.009659556,-0.01764844,0.009962634,0.007821804,-0.0013330664,-0.012507735,-0.04057365,-0.2007809,0.046133425,0.01695067,0.0099717,-0.021230588,-0.070616096,-0.028057406,-0.011983381,-0.022644412,0.086587615,-0.14636287,-0.09818279,0.013996638,-0.014751355,0.03843691,0.026996925,0.018100895,0.01913445,0.110932775,0.02176368,-0.03951252,0.009708222,-0.027389443,-0.0057391594,0.013062503,-0.014979288,0.007151201,-0.031240055,-0.050571952,-0.04159328,0.056076854,0.018161997,0.03955683,-0.062577076,-0.17961219,0.077865325,0.0868258,-0.09494606,-0.015906265,-0.04541555,-0.21085784,-0.055465497,-0.05113499,-0.033571098,-0.01764432,-0.036747217,0.08770926,0.0100703,-0.018676937,0.0442062,-0.061304513,-0.052597515,-0.09427906,-0.10043997,-0.021235222,0.043299012,-0.017731456,-0.009644995,0.10515207,0.0022064238,-0.08545927,-0.102610976,-0.042535167,-0.0088381,0.023560168,-0.052153446,-0.058231287,-0.0349204,-0.07848698,0.016639354,0.053839605,-0.0028053678,0.001225292,0.028950393,-0.037975155,-0.020477338,0.04349734,0.023242984,-0.023094041,-0.0427348,0.0037006382,-0.05438915,-0.09423333,-0.06653028,0.052902605,-0.026006158,0.015159427,-0.08177497,-0.21108717,-0.06848294,-0.13854231,-0.33552107,-0.0028433977,0.02167854,-0.030180918,0.030891666,0.05022256,0.14484864,0.12633571,-0.007391703,-0.05946187,0.037281554,0.043767143,-0.14878903,-0.022637278,-0.20797145,-0.083900005,-0.045987837,-0.062534474,-0.008243738,-0.017679282,-0.047295157,-0.009188745,-0.052597232,-0.023036107,-0.073993176,-0.038831733,0.057811487,0.07438188,0.05936134,0.050603304,0.13718824,0.09671886,-0.14985938,-0.088276364,-0.07384783,-0.02372901,0.14752711,0.028668402,-0.18991217,0.05286223,0.053587556,0.108836114,0.06196507,0.043624155,0.06889041,-0.05341272,0.00651255,-0.03761233,-0.023375196,-0.02560175,0.019725082,0.057371974,-0.034529384,-0.030552717,-0.035483416,0.007462286,-0.13651754,-0.012907989,-0.00794415,0.03977712,-0.0398745,0.0014207589,0.07888537,0.1662658,-0.04658279,-0.035016943,0.18096697,-0.040929634,5.990985e-05,-0.026259452,-0.015124783,0.029633252,0.019374669,0.08468989,0.13334486,0.17165196,0.19853166,-0.0070935544,-0.08066445,-0.036469907,-0.121190935,-0.16464159,-0.07715635,0.09188073,0.083305135,0.018800592,-0.068750046,-0.037814487,0.119750924,-0.41268274,-0.33623907,0.03324173,-0.19682473,-0.100417964,0.105657995,-0.03710542,0.042477462,0.019868918,-0.08014658,0.028064849,0.0926033,0.06378417,-0.088451244,-0.11834388,0.048784647,0.05774261,-0.006276475,0.022184111,0.0039040328,0.10967864,-0.04558217,-0.066972755,0.030357864,0.106461644,-0.09382948,0.10146065,0.03972003,-0.1137864,0.13804744,0.07191965,0.09724639,0.04747423,0.085419334,0.07503445,-0.11476843,0.17939848,0.18115225,-0.038222626,0.027174583,0.11102683,0.05728179,-0.028582156,-0.041789312,0.015007511,-0.07437431,-0.14453487,0.04842258,-0.048516862,-0.056884114,0.035439197,-0.007020159,0.08314471,0.038538393,0.042896546,-0.032102734,0.086397715,-0.11046846,-0.035681456,0.04104047,-0.047745943,-0.06105777,0.054944802,0.037143275,-0.028156944,-0.12958696,3.6221677e-06,-0.076107845,0.014522997,-0.0053864457,-0.08626745,0.040431485,0.22962806,-0.027848037,-0.018003395,0.188439,0.0617492,0.01599985,0.12291124,0.1421642,0.1152129,0.047371127,0.23679847,0.18351921,0.07713889,0.3582749,0.26227868,0.024171673,0.016919732,-0.09275735,-0.24078399,0.11845324,0.028453816,-0.015196792,-0.049681176,-0.015329882,0.059137024,-0.055832833,-0.0031909426,0.13292842,-0.09537447,0.02899374,0.07889911,0.024198871,0.11346943,-0.04329475,-0.10520241,-0.099388406,0.11831732,-0.19201459,-0.0065483768,0.09688369,-0.08427627,-0.048610836,-0.02274133,0.027214402,-0.06826688,0.10658874,0.45712364,0.09012345,0.026832996,-0.18368462,-0.102022395,0.0378165,-0.029080806,0.029533735,-0.0541095,0.0063751256,0.052683316,-0.14483742,-0.25585276,-0.10309738,-0.06426535,0.049576815,0.03988071,-0.17516215,-0.102858,0.017091587,-0.06431247,-0.021092355,0.02771531,-0.047285847,-0.07406092,-0.0033437614,-0.02538069,-0.042354953,0.12671632,-0.014163,-0.006134394,0.056444112,-0.042400345,-0.101241164,-0.09323567,-0.025135284,0.009627011,0.048598062,0.09294929,0.18564188,0.11340319,-0.029376488,0.03413644,0.035871316,0.039400835,-0.03552313,0.035846137,-0.09913193,-0.1965599,-0.036058765,-0.19668727,-0.36211213,-0.23078534,-0.032974683,-0.15123437,-0.0015181488,-0.064654194,0.007831144,-0.12636235,0.008522189,-0.057973754,0.009759764,0.07550408,0.074563876,0.08464428,0.08443481,0.043820146,0.014898587,-0.08367029,-0.12355264,0.057638742,-0.10091394,-0.052327316,0.16024956,-0.028799986,-0.012785283,0.09353034,-0.04705022,0.084245406,0.0049642106,-0.065192744,-0.0483979,0.042457517,-0.026231926,0.061962504,0.052721836,-0.071419924,-0.044125758,-0.101852864,0.014694572,0.081249446,0.018812397,0.0664029,0.12592866,-0.03790076,-0.040302806,-0.07112942,0.006031074,0.0057136267,0.024681218,0.020483013,0.048715614,0.05805425,0.040733553,0.055613656,0.063240014,0.062304497,0.059261903,0.04941394,0.011381942,-0.015112325,-0.028649854,-0.032262348,0.0077982573,0.03560017,0.08426707,0.042159848,0.06417117,-0.012721056,0.031409755,0.04442165,-0.10217702,-0.011791241,0.006051204,0.102955095,-0.042054754,-0.09201228,-0.03279131,-0.02202341,-0.10491625,-0.032440156,0.021972353,0.06361206,-0.0064077824,-0.030436236,0.052475143,0.070899375,-0.057196483,0.061019752,-0.0075388537,0.038843878,0.04206588,0.049773093,-0.043885954,0.018807989,0.042232923,-0.0039888425,0.012467202,0.056169957,0.10806669,0.041585036,-0.02867446,-0.018631957,-0.1276553,-0.18146208,-0.053581648,-0.08399704,-0.10371913,-0.038394626,-0.028537983,0.022487493,-0.12940106,-0.1004783,-0.025324484,0.046355426,0.010064382,0.04138534,0.012722526,-0.124722034,0.072878584,-0.18633953,-0.2393974,-0.15227768,-0.031829625,-0.12723383,-0.0064938,0.0498098,0.046796698,0.017223923,-0.048017945,-0.076841675,0.0123549495,-0.077620156,-0.09590879,-0.054009497,-0.00941826,-0.038508598,0.004683148,-0.0075252773,0.02787902,-0.0020166896,0.030847374,0.019428693,-0.040521998,-0.067330055,0.1517046,-0.088215895,-0.07797568,-0.09048001,-0.05730689,-0.023680108,-0.12325096,0.00063826336,0.04164969,0.009922633,-0.03138149,0.044730227,-0.08160816,-0.20563635,0.06083205,0.010391537,-0.044034578,-0.053285126,-0.07281445,0.005198688,0.16717304,0.05798267,-0.09738732,0.028997248,0.023700649,-0.09625983,-0.010164931,0.037259076,-0.005187925,-0.0091751255,-0.013985116,0.0048843245,0.027670491,0.012075524,-0.00048089807,0.06264701,-0.018059125,-0.0020378416,-0.030407352,0.050822146,0.037487738,-0.023772817,0.03196541,0.03179813,-0.028791577,-0.12236144,-0.0031088472,0.080516145,-0.035406977,0.023105668,0.118954204,0.016877318,0.08308185,-0.05413277,-0.039238535,-0.050056573,-0.039172187,-0.026354758,-0.051578518,-0.057836525,0.0020623787,0.0005507531,0.022159668,0.0059247953,0.014519278,0.06324593,-0.09042091,-0.012151178,0.057513196,-0.10313763,0.024680775,0.020243986,0.057815574,0.07846901,-0.038382497,-0.031075787,0.027721398,-0.028088208,-0.03922911,-0.020890992,0.063845314,-0.007128765,0.010170162,0.08955767,-0.08713037,-0.002116024,0.049003243,0.04592878,0.021075988,0.04412485,0.041981034,0.019458702,-0.045638155,0.016948452,-0.0635818,0.029466687,-0.011187745,-0.058015507,0.0063425,-0.011512362,-0.05937506,-0.044406176,0.07866502,0.03932488,-0.011140922,-0.052393854,-0.09261549,-0.10436795,-0.032068204,-0.034185156,-0.050762627,-0.025026083,-0.023518736,-0.036508985,-0.016344756,-0.030155873,0.062228765,0.01530021,0.018003775,-0.021828774,-0.21094786,-0.14531356,-0.0141873425,-0.011556726,0.15888156,0.01729456,-0.10865964,0.0075052027,-0.01375353,0.06386508,-0.1713753,0.11301205,0.3104351,-0.015985701,0.018733159,0.06023598,0.03265649,0.008885647,0.03798756,0.040180936,-0.08124703,-0.06380754,0.09405731,0.00786553,-0.00034955624,-0.0634718,0.055883233,0.13355663,-0.0060088937,0.023147123,-0.14041588,-0.0905461,0.010652516,0.005637114,-0.042802267,-0.06947251,-0.013022476,-0.027629849,-0.073614776,-0.022791438,-0.12516865,-0.028455943,-0.0008469141,-0.000999724,-0.07010442,-0.07371678,-0.08475764,0.060399704,0.052414935,-0.09827734,0.06445659,0.07137716,-0.03754866,0.021514567,-0.022801464,0.043761056,-0.3604289,-0.5764039,-0.020686556,0.054598395,-0.06116061,0.059169177,-0.062965594,-0.07912548,-0.06549098,0.099985555,0.09483626,-0.045996863,0.028000861,0.10548058,0.017821265,-0.2055636,-0.09919294,-0.088185884,-0.08143562,-0.058121882,0.023356108,-0.011996064,-0.054808393,-0.034028172,-0.0494859,-0.09515661,-0.040466305,-0.03807203,-0.029261395,-0.07107889,-0.032591887,-0.010969612,0.012535001,-0.187579,-0.22965975,-0.027149418,0.20458955,0.4678853,-0.05479453,-0.029959824,0.02048704,0.037956465,-0.017356912,0.16036032,-0.054467946,-0.013653838,-0.05307017,-0.03801513,0.014657191,0.065223746,-0.05493591,-0.027638717,0.06626761,-0.14584152,0.043662637,-0.30144623,0.14706312,-0.008572451,-0.0114468625,0.029169355,0.019669047,-0.30751663,0.26108488,0.050327037,0.35757565,0.02864809,0.0068896296,0.064407215,0.11187763,-0.15313776,-0.118615374,-0.047708508,0.024099004,0.10197052,0.038097683,0.017042864,-0.072176516,0.06982265,-0.0023100723,-0.055002235,0.02527994,-0.30727187,-0.24795029,0.008867206,-0.17138675,-0.31507203,-0.15154476,-0.014422248,-0.06843115,-0.022899348,0.18121122,0.13156807,0.18799384,0.04545213,0.034152046,-0.02667134,-0.06106138,-0.016902555,-0.03867846,-0.029281756,0.0734531,0.112850025,-0.027388437,-0.0297813,-0.016839156,0.05479236,0.036757562,-0.038589653,0.031769387,0.03186332,-0.055491265,-0.008457561,0.09448342,0.026999163,0.024579247,0.035147652,0.0011231416,0.03855431,0.03906411,0.07818408,0.0007574158,0.06825104,0.06177008,0.007085064,0.05991799,0.08852808,0.019035568,-0.0022338056,0.015023727,0.03741226,-0.055770148,0.036230214,0.04377215,-0.022166695,0.009499753,-0.01888146,0.017885346,0.045126103,-0.051883765,-0.0655821,-0.053008154,-0.15087882,-0.29668555,-0.12793472,0.094281204,-0.04809589,-0.03131957,0.0055541443,0.023291295,-0.007834623,-0.027295161,-0.031336293,0.012246995,-0.006455144,-0.035616837,0.013941702,-0.13003285,-0.05555326,-0.08853091,-0.05251676,-0.077774264,-0.027256884,0.017273322,-0.0809879,-0.044403832,0.002036644,0.013782622,0.050366867,0.022275489,0.048115574,0.05938939,0.04969791,0.1144623,0.07524598,0.029515771,-0.12531899,-0.05715863,0.12050026,0.08736555,0.04144003,-0.043823358,-0.019234862,0.037193224,-0.014430814,0.023364678,0.031884722,-0.10196047,-0.020733362,0.056661036,-0.029544337,-0.018530251,0.071516305,0.045323394,0.09192007,-0.023915684,0.04591153,-0.053575594,-0.010021529,0.007954874,0.021867683,-0.020917648,0.03071835,-0.0035346579,0.12275556,0.00027742112,0.092157476,-0.0015978583,-0.008772213,0.03231776,-0.068229064,-0.04571749,-0.07666372,-0.066792235,-0.07978218,-0.065123975,-0.04405464,0.018290564,0.017028326,0.010542373,0.057015937,0.06168499,-0.006972644,-0.023005249,0.075116776,-0.023799973,0.0062320367,0.13026392,0.038459025,0.00601795,-0.03123134,-0.034128603,-0.13768244,-0.3072268,-0.25858358,-0.05312015,-0.23248474,0.060007405,0.026892666,0.087233044,0.023093564,0.060815904,0.060419332,0.02685218,0.012443309,-0.06554062,-0.021254677,0.04652864,-0.0094435075,0.0012269598,0.1056642,0.049514282,0.0666873,-0.03631591,-0.082485795,-0.018086838,0.029227762,-0.018138811,0.023074506,-0.0200624,-0.099969484,0.07439888,0.024774265,0.038781483,-0.06108887,-0.0367854,0.06341557,-0.03873737,0.009811391,0.11523535,-0.05192238,0.0021602106,0.045767255,0.0057285,-0.024792058,-0.08765239,0.009627812,-0.027123637,0.1002171,0.016492467,-3.1460775e-05,0.018914506,-0.02124016,0.022334885,-0.013082901,-0.0023839262,-0.02020968,-0.19696808,0.08609886,0.050855294,-0.071645014,-0.06906068,-0.038198974,-0.046684243,-0.025242142,-0.045943025,0.09536179,-0.010327185,0.045361985,0.045755424,-0.039626107,-0.0028117306,-0.29626858,-0.026657196,0.0939323,-0.18356933,-0.018396761,-0.013653578,-0.0147700915,-0.09921585,0.06565172,0.06401124,0.08385948,0.116972476,0.11409573,0.0019874873,0.09306309,0.121143445,0.04701591,-0.06585063,-0.065968275,0.055758845,0.06357381,0.24439879,-0.11360175,0.029038364,-0.008039228,0.08496492,0.0195928,-0.022055062,-0.0027274517,-0.051492207,-0.18265797,0.19378,-0.0214609,-0.02233911,0.1202706,-0.054721113,-0.055519387,-0.010684833,-0.008300754,-0.3975259,0.37950024,0.041333653,0.080424495,-0.112089686,0.045051925,0.029671783,-0.12529862,-0.050609965,0.0891571,-1.0605488,-0.02032194,0.032024667,-0.21160442,0.043652933,0.047039837,-0.04669025,0.074629135,0.022517199,-0.13219418,-0.029763771,-0.03312744,-0.055113822,-0.16777697,0.0021854702,0.05253904,-0.28147644,-0.111162044,-0.0835877,0.12375452,-0.03804336,0.075141214,-0.018996676,-0.17558134,-0.0751234,-0.006732398,0.3229659,-0.026520744,-0.03984755,-0.059186775,-0.08813011,0.06598751,-0.010827698,-0.033111624,-0.060312103,0.07214559,0.05977469,0.013133318,0.0050830226,0.025442358,-0.026876872,0.022588335,-0.03356142,-0.09100155,0.008271108,-0.027277049,-0.030905023,-0.029412229,0.016863551,0.0051666065,-0.00351713,-0.022014596,0.027659196,0.0828794,0.014531004,-0.035283748,0.112772666,-0.07553191,-0.007388737,-0.04349887,0.13390438,0.00435792,-0.042540904,0.025618989,-0.013727126,0.00965699,0.054109447,0.060942497,0.107788906,0.064145856,0.06400165,0.020458175,0.021748612,0.020683616,-0.044311922,-0.03230563,0.017928954,0.088342756,-0.038834903,-0.05927946,-0.32464525,0.011730003,-0.011465791,0.02443089,0.013884614,-0.026823498,-0.08677461,0.04645238,0.016260551,0.021795543,-0.027577821,0.04443087,0.001374684,0.050881665,-0.1186325,-0.13747634,-0.033151306,-0.0045476397,-0.002494969,-0.07609481,-0.014542542,-0.012427227,0.01508817,-0.106751025,-0.092333235,-0.068447754,-0.09493462,-0.048039373,-0.084649116,-0.11586566,0.084068306,-0.042768188,-0.018742818,-0.19882001,0.022925802,-0.0641987,0.24445836,-0.1106494,-0.027342305,-0.10329194,-0.053827804,-0.0023361004,0.017200837,0.015028304,-0.0113391895,-0.10053767,-0.09193964,0.035029683,0.030756462,-0.016415201,0.026385603,0.19327237,-0.052876268,0.2039859,0.07915168,0.1447396,0.07499314,0.05353037,0.037880234,0.07346183,-0.001238172,0.033207215,-0.04896128,0.06616112,-0.26465738,0.0132391155,-0.047108177,-0.06712264,-0.089782946,-0.045524497,-0.041878052,-0.033603117,-0.11344527,-0.16359901,0.024308799,0.027792273,-0.0151104685,0.014576802,0.05752303,0.07510587,-0.18423145,-0.12739818,-0.023888858,-0.14621322,-0.20295304,-0.036145896,-0.024367934,0.2328076,0.039084826,-0.029958764,0.124509215,-0.10504553,0.06527015,0.3444075,0.29768386,-0.015678719,-0.019488763,-0.07232346,0.057694856,0.0075411275,-0.0946289,0.030547552,-0.03216642,-0.1062013,0.06390453,0.017810922,-0.037932534,0.009793142,-0.114978135,-0.15061095,-0.002483418,-0.13278003,-0.07927383,0.0074852915,-0.0071380786,0.010918847,-0.06640663,-0.12034448,0.071161196,0.0032695015,0.01139602,-0.0033720825,0.026058007,0.06297855,0.06643317,0.06198011,0.15522608,0.13738187,0.05029095,0.09076975,0.002950208,-0.055759512,-0.01447083,0.024619218,-0.049452,-0.076091185,-0.010602137,-0.005453169,0.07155816,-0.0072188107,0.004265514,0.006250482,0.01627106,0.07267584,0.11487762,0.03053602,-0.028518395,-0.06943944,-0.13630646,0.06642912,0.015039841,0.06725254,-0.020799356,0.05138693,-0.071411006,-0.062010657,-0.011953381,-0.18784271,0.09323831,0.07569513,0.13896094,-0.084462,-0.09573053,-0.037924293,-0.043462414,-0.024172915,0.18831278,-0.00097615627,0.018067637,0.0078379875,0.027732687,0.06896073,0.042024147,0.026680944,0.056491517,0.0142312255,0.02509855,0.10534469,0.08448984,0.099082835,0.045780342,-0.07152038,0.08184274,-0.08896841,-0.2022878,0.010087781,0.069811575,0.042794436,0.09336794,0.10313472,-0.027549071,0.06011698,0.03170025,-0.08904763,0.0744389,-0.012424709,-0.18023306,0.040866036,0.028320862,0.11064609,0.002592475,-0.03483161,0.018393902,-0.038199566,-0.08724648,-0.19310555,0.012624238,0.019662332,-0.21031447,-0.11821562,0.010606937,-0.17229588,-0.14049228,-0.17364246,-0.16433701,-0.027936548,-0.058154456,-0.038382012,-0.09468455,-0.082686275,-0.087790586,-0.112414084,0.13544063,-0.03831208,0.10008127,0.46365544,0.14081945,0.022900619,0.2902008,0.07091219,-0.0020756202,0.13642462,0.10057168,-0.13114873,-0.10623361,-0.23466542,0.11569531,0.18846497,0.015422839,-0.022825802,-0.054910712,-0.077318706,0.015843514,-0.104292765,0.04095701,-0.041903645,-0.11304573,0.04180381,0.071730934,0.17983364,-0.11400027,0.085467085,0.20049612,-0.24421301,-0.038581494,-0.10121543,-0.20940046,0.07181291,0.14518319,-0.042670116,-0.011016857,-0.23226836,0.0073349583,-0.12211104,-0.0007177343,0.099473946,0.03609911,-0.05686508,0.060683127,-0.043124344,-0.03170565,0.030257951,-0.072348185,-0.07525265,-0.019697234,-0.10907074,-0.028664133,-0.056359775,-0.05393633,-0.10302583,-0.10049368,-0.09584896,-0.08895651,-0.058685385,0.021231258,-0.010997733,0.041358795,-0.071712635,0.12067417,0.012150353,0.0012758244,0.12505245,0.022923235,-0.10776542,-0.11400326,-0.18310466,-0.19762066,-0.13719244,-0.109323196,-0.11569744,-0.15364267,-0.17297304,0.08577467,0.04064165,0.0053629233,-0.15604447,-0.0975899,-0.047440816,-0.06215205,-0.00058411807,0.11699318,-0.063133396,-0.09042399,-0.11690162,-0.10288864,-0.13256723,-0.069171,-0.117092,-0.08355722,-0.061393227,-0.057603735,0.095313,0.08249892,-0.12380033,-0.13586807,0.032448657,0.043099664,-0.16959475,0.12441462,-0.10501394,0.06866952,-0.10293955,0.0058966023,-0.0400155,-0.1155857,-0.032554936,0.026441367,-0.011236559,-0.029782364,-0.061034717,0.15668623,0.006470143,0.033668634,0.1475497,0.021610107,0.11577425,0.04311492,-0.076505765,0.013800698,-0.049571134,0.04238464,0.15377358,-0.1631931,0.109747276,0.1388793,-0.008409915,0.008070311,0.027693434,-0.058429535,0.07088727,0.042392574,-0.035710923,-0.025316568,-0.20472759,-0.22076397,0.08470823,-0.06496157,-0.047892053,0.16034451,0.048890214,0.038285524,0.009164957,-0.097321115,-0.07135657,-0.012458729,0.072195396,0.03639677,0.0109096,0.04618982,0.0015077774,0.006729213,0.1049909,0.11151504,-0.06030414,-0.07684576,-0.0883231,-0.032130606,-0.10171327,-0.061567947,-0.004566169,0.010403398,0.023004103,0.0008152539,0.050805774,0.013741182,0.021669613,0.037008617,0.021553786,0.0681799,-0.03655194,0.014653301,0.111644335,-0.045425553,-0.06438897,0.06796438,-0.13763426,0.012164446,0.035358585,0.13203138,0.04524749,0.085832484,0.1428594,0.15835524,-0.061399795,0.17496888,0.20062377,-0.018192634,0.13842037,0.15232433,0.04362919,0.011177798,0.014651047,0.01638398,-0.15396945,0.011221495,-0.018767478,-0.1436328,-0.03735527,-0.038232874,-0.071010076,-0.14474988,0.033978622,0.008690732,0.053552628,0.08700512,-0.07472153,-0.10080695,0.06966308,-0.024227625,0.017931426,0.023677576,0.020476736,-0.04288094,0.048514478,0.073182136,-0.0006269657,0.060041916,0.032771513,0.091204554,-0.0039548534,-0.0144525645,-0.017233826,0.05698736,-0.013817019,0.024613934,-0.10560232,-0.10346572,-0.095040314,-0.111134015,-0.05978695,-0.014082676,-0.10593817,-0.024410684,5.379279e-05,-0.07643628,0.04993982,0.011114226,-0.10223392,-0.029839769,-0.053316887,-0.001556891,0.077354215,-0.05205748,0.0007699058,-0.1167458,-0.0871869,-0.059348345,-0.09568127,-0.07532662,-0.06683204,-0.17671195,-0.15154782,0.003673635,0.010326428,-0.07289022,0.020523502,-0.025743008,0.12580729,0.012727702,-0.07696343,-0.054696426,0.069975704,-0.06541873,-0.06061782,-0.0035701266,-0.109380014,-0.069675036,-0.027795464,-0.035262857,-0.054876503,-0.07617911,-0.05873054,-0.054985777,-0.05309505,-0.07165601,-0.089099385,-0.07766834,-0.10707951,-0.123474084,0.06592342,0.015162535,0.020925017,-0.017912336,-0.011539353,0.011905379,0.023860173,0.020728901,0.046620227,0.025944378,0.043785617,-0.0110995965,0.027873171,0.047386367,-0.016620442,-0.058672983,-0.09304436,-0.11240284,-0.035288766,0.033387206,0.001580674,-0.053860646,0.045018196,0.06419498,-0.12944889,-0.049692187,0.06858901,0.03330957,0.13578758,0.16998635,0.12225774,-0.20183343,-0.33821338,0.019777816,-0.3055617,-0.42708862,-0.041852273,0.02529371,-0.06518454,0.09651671,0.036040064,-0.11742442,0.07607666,-0.015053638,-0.016987912,0.024504656,0.08051032,-0.02755197,0.07106727,0.016860262,-0.19577801,0.040866993,-0.029220292,-0.22584905,-0.04856207,-0.20297916,-0.19927165,0.023595203,0.1656937,0.00021679593,-0.058852457,0.21437088,-0.013223843,-0.005874593,0.026065722,-0.026959177,0.07635878,0.026579598,-0.090047345,0.13764463,0.0019950233,-0.103518985,0.05244974,-0.086790234,-0.22793816,-0.16082996,0.17037271,0.17422387,-0.24648347,0.27371547,0.37230512,-0.05066018,-0.07258739,-0.008912624,-0.038042672,0.058218066,0.030747227,-0.1533081,0.0408139,0.0048462893,-0.042929914,0.0486446,0.025749184,0.013048803,-0.019824184,-0.083716944,0.065196685,-0.0651302,-0.13973811,-0.00023579673,0.0086457245,0.0181794,0.08813107,-0.0066952836,-0.15384106,0.19864029,0.04746663,-0.17828134,-0.05870491,0.006631069,-0.11555392,-0.020358887,0.09391353,-0.05478569,0.038621202,0.17516814,0.032763656,0.011198269,-0.045442592,0.040599883,-0.03412275,0.062297728,0.036036275,-0.0054999962,0.054785695,0.047155898,-0.0003116515,0.006934258,-0.0039252364,0.038518533,0.06264157,0.03352621,0.0022380545,0.046921078,-0.0023274943,0.004998615,-0.09420746,-0.057234757,0.0067552575,-0.03292621,0.0278681,0.0038144777,0.049031053,0.10675437,0.03735876,-0.045073364,-0.06859091,-0.041138336,-0.19007714,-0.1579147,0.0005845953,-0.08688463,-0.009193918,0.040234905,0.0124119045,-0.019875806,0.051952537,-0.12384467,-0.018278642,0.035425685,-0.1413238,-0.10788051,0.0065492666,-0.01279454,-0.037115227,0.074358,0.050441924,-0.08609602,-0.028925052,-0.08274242,-0.081000626,-0.044540066,0.014563249,0.0889964,-0.056022864,0.014773597,-0.056928948,-0.078916304,0.057502806,-0.07259248,-0.050279405,0.22272906,0.004774467,-0.03843073,0.0731311,-0.041603763,-0.049953192,-0.28967088,-0.10709743,-0.02502499,0.0605867,-0.017787725,-0.024421593,-0.020453956,-0.061726414,-0.040235467,-0.011956904,-0.05274943,-0.04364284,0.08952943,-0.08466821,0.15365598,0.15164429,-0.18708633,0.02179989,0.1025264,-0.12911868,-0.018615,-0.005380673,-0.025247557,-0.021495257,0.11724692,-0.020097688,0.059407055,-0.0729987,-0.030836144,0.0590067,-0.05663539,-0.06599109,-0.055166934,-0.19835047,-0.14543085,-0.073981754,-0.1606135,-0.07156426,-0.11740011,0.06972388,0.002217398,-0.14121917,0.042119533,0.036066826,-0.14323987,-0.121761255,-0.014504016,0.020053297,0.012052266,-0.0077011124,0.021078924,-0.022869155,-0.012687053,0.0062698014,-0.04476983,-0.05682106,-0.0054745167,-0.0041584577,-0.052166652,-0.032215238,-0.18921627,-0.10847218,-0.016444504,0.020070521,0.05047813,-0.08304777,0.048439965,0.025290208,0.010306256,0.29887173,0.20971411,-0.02124044,0.08235065,0.039089084,0.016591689,-0.0006786657,-0.043932945,0.018302009,0.1349195,-0.029625159,-0.03603563,-0.028987698,0.14050776,-0.048623182,0.019195898,-0.09753158,0.043162435,-0.054865334,0.073370084,-0.019850042,0.021896226,0.043569982,-0.14734557,-0.04843695,-0.032545313,-0.12855522,0.02691148,0.018937534,-0.06503957,-0.07232285,-0.13075073,0.004779173,0.0044660224,0.028189674,0.07296646,0.030013217,0.03119369,0.099356934,0.11434522,0.05520868
