0.21084397,0.10447942,-0.14142258,0.010510606,-0.25320235,-0.17570135,0.002114342,-0.18708095,-0.009276135,-0.0021959567,-0.00049728365,0.022240065,-0.094216935,-0.03776578,0.12800567,-0.13044158,-0.079729274,-0.016667705,0.014021384,0.046555236,-0.010922073,0.12588894,0.16479282,0.036505517,0.077363364,0.08522662,-0.14759745,0.011322197,-0.01656696,0.032813564,0.105075814,-0.22399923,-0.11549952,-0.0110663185,-0.2150915,-0.11450636,-0.028432723,0.013934701,0.14206512,0.0017581856,0.09886037,-0.07041801,-0.07205218,-0.014901924,-0.046075985,0.016451279,-0.011857502,-0.114609435,-0.0686232,-0.13904285,-0.128105,-0.08173446,-0.11795876,-0.18133074,-0.09608727,0.00998275,-0.049739487,-0.16092013,0.06268162,-0.008730912,-0.07976154,0.087360695,-0.01597282,-0.13177566,0.1380694,-0.04457926,0.00096614,0.06455757,0.08876518,-0.03409573,-0.06377944,0.10501165,0.18667495,0.026496261,-0.008338721,0.20874625,0.110020526,0.06490563,0.117831506,0.11778955,0.07932213,-0.17144807,-0.328246,-0.0058275354,0.12691069,0.25659811,0.098651886,0.09094062,0.14795646,-0.2166664,-0.04530641,0.026812436,-0.021311497,-0.12953256,0.3718627,0.12078062,-0.19195719,0.06044233,-0.2481895,0.087083675,-0.04652085,-0.020016842,0.040620066,0.060126424,0.19737238,-0.030462934,-0.06435294,-0.108228356,0.025506765,-0.39940715,-0.0404439,0.08414906,0.31284258,0.26153666,-0.10310136,0.16307017,-0.15582344,0.0465568,-0.010056996,-0.054140326,-0.028454874,0.052341104,-0.00249844,-0.029052632,0.120903835,-0.049997613,-0.012705671,0.13283473,0.022142146,-0.17847931,-0.11878702,-0.09958353,0.011657084,-0.009197988,0.06148052,-0.15264821,-0.089259684,0.11971724,-0.24447711,-0.20096791,-0.06545874,-0.08797444,-0.13204695,0.020130176,-0.029130386,-0.11451432,-0.007176119,0.094982475,0.056434296,0.050260734,0.008472305,0.1197103,0.052895952,0.023904013,0.006950897,-0.00796922,-0.0001182156,-0.1972927,-0.2285213,-0.051589843,-0.0411105,-0.14036769,-0.07988596,-0.053506844,-0.05650017,-0.057801735,0.033522308,0.012071981,-0.092999585,-0.06677496,-0.089810826,-0.042863347,0.13890652,-0.021121098,0.028410686,0.21319641,0.13098247,0.01936811,0.1409145,0.0712463,-0.02823791,0.084645495,-0.019647907,0.012271789,0.28954977,0.06377007,-0.11730041,0.10458949,0.013789571,0.0315639,-0.02022962,-0.049033362,0.16071552,0.1361404,0.05451102,0.16146219,0.09061427,0.032675922,0.0806134,-0.009576465,-0.07322402,0.09820436,-0.00059631414,-0.02103365,0.017462883,-0.028863205,-0.04701425,0.04984793,0.1374897,-0.014365949,0.16596034,0.17651273,0.12917496,0.05180383,0.22463094,0.12061252,0.095199846,0.09359141,0.044581868,0.0824818,0.13701037,0.09030456,0.024070134,0.053056266,-0.017062902,-0.08134013,0.0007768576,0.109401405,0.095026016,0.21638793,0.10777515,0.1544892,0.2861733,0.108985305,0.1422692,-0.117771454,-0.018578447,0.16576767,-0.16654778,-0.032376584,0.09359578,-0.13545279,-0.031157674,0.041319918,0.02090296,-0.0016999828,-0.028571013,-0.1495097,0.034412693,0.058799475,0.007033007,-0.038959812,-0.06516519,0.10934846,0.0082117375,-0.050591383,0.06331034,0.033572596,-0.19099437,-0.19016925,-0.14420463,0.04323754,-0.032013126,-0.05128912,0.056002814,-0.12279514,-0.018569563,0.00457703,0.008347581,0.0246678,-0.021223264,-0.01025074,-0.044082787,0.09001072,-0.069532454,-0.005422323,0.055237733,-0.04135256,0.003379357,-0.16340923,-0.028464628,-0.07062939,-0.13468888,0.038240023,-0.059453413,-0.055407118,0.019343002,-0.01761741,-0.035099823,0.29981974,0.12412825,0.09287894,-0.23898964,-0.14860731,-0.1557373,-0.11245068,-0.06383628,0.058785442,0.0004863538,-0.011800802,-0.0543515,0.023160115,0.011011206,0.021389136,-0.0943246,-0.03378032,-0.069563344,0.015605045,-0.059394524,0.014184542,-0.0956314,-0.12147483,-0.006214109,0.08680748,0.051423587,-0.04521708,0.025724158,-0.36814302,0.046874437,-0.3064128,-0.28766516,-0.04543349,-0.13999502,-0.2006951,-0.11581993,0.0016295795,0.030512013,-0.021153037,-0.4036735,-0.22128877,0.017440576,0.092741735,0.16570269,0.23980075,0.19604646,0.04383618,0.05159697,-0.23823588,-0.049902912,0.13853095,0.32208776,0.06934425,-0.042695824,-0.045009267,-0.14292386,0.118549205,-0.035034493,-0.018737528,-0.02435209,0.041589323,0.17543611,-0.060372643,0.03920448,0.069333345,0.14016163,-0.21570244,-0.13130866,0.011162576,0.19744541,0.2875875,0.06016582,-0.17140742,-0.12011041,0.0017155551,-0.034862507,-0.13541207,-0.013996377,-0.0879265,0.0057672895,0.013035744,-0.12707812,-0.07398394,-0.082574785,0.031749025,0.0065078693,-0.13618919,-0.06849405,0.057684734,-0.037455555,-0.043519642,-0.00085065764,-0.036722187,-0.064591445,-0.0490288,-0.017120324,-0.022456087,0.01849054,-0.04840139,-0.31063324,-0.042606745,-0.036250927,0.45979246,0.20848452,-0.08453728,-0.57422215,-0.22590186,-0.016156808,0.026399603,0.17835903,0.021911465,-0.10769099,-0.15190344,-0.045314733,0.0067676287,0.031884763,0.22794849,0.117799364,-0.0033780236,-0.0845918,0.25452366,0.09224579,0.021857673,-0.31426486,-0.22546466,-0.23674461,-0.71267605,-0.03696029,-0.057866335,-0.5928698,-0.058694907,0.3023615,0.058945347,0.13556804,0.32543275,-0.13475586,-0.1430222,0.117095016,-0.15065755,-0.32998064,0.11546368,0.081581526,-0.18032365,0.028582089,-0.06550978,-0.06601557,0.047872245,-0.040316466,-0.014651225,0.065924965,0.027876614,0.048354544,0.049286615,0.075253546,0.113618106,-0.1167644,-0.05339103,-0.007916158,-0.11776444,-0.040079456,0.023403132,-0.014883236,-0.076482914,-0.11727695,0.013868192,0.017322542,-0.057347275,-0.009130435,-0.04147636,-0.051060446,0.04499694,0.010549945,0.032195725,0.1517171,0.09510466,-0.12713778,0.12027046,0.09036156,-0.040341113,-0.011556834,-0.05102042,0.026151804,0.03097416,0.07608,0.06901894,-0.04130198,-0.045268722,-0.042445563,-0.13117062,-0.18383867,0.0032559484,-0.11971595,-0.06243463,-0.022177437,0.009928533,0.03805675,0.016720848,-0.034157023,-0.018867794,-0.026197817,-0.07398772,-0.03784846,-0.04499166,-0.049576692,0.001017707,-0.012343886,0.012738113,-0.015678652,0.03159108,0.035453055,0.076878764,0.007311433,0.024289314,0.12665404,-0.026084991,-0.012202706,-0.043413248,-0.06663967,-0.041580174,-0.053390905,-0.11370162,-0.006382605,-0.066319555,-0.106812105,0.05095843,0.075737946,0.063463,-0.022602312,-0.024689537,-0.02340341,-0.014638696,0.019727506,-0.042262573,0.008132701,-0.015298849,-0.021330256,0.03863564,0.03302859,-0.02428256,0.043142844,0.061509013,-0.02657985,0.005639355,0.113704376,-0.07373745,0.053874493,0.052389897,-0.005812437,-0.0214343,-0.033425447,-0.015611756,-0.07308595,-0.14809749,-0.14590023,0.062637515,0.022685753,-0.049450736,0.094373144,-0.011485244,-0.034990758,-0.010984909,-0.031909373,-0.04407941,-0.06749141,-0.21220253,-0.027510883,-0.12288496,-0.23552947,-0.044679657,-0.053672794,-0.003568386,0.02205243,-0.081008084,0.08130701,0.04849435,-0.033405215,0.10495331,0.04748113,2.3592534e-06,-0.02184756,-0.057538707,0.025560245,-0.106058404,-0.071669675,0.02594127,-0.066711366,-0.032196663,-0.22134407,0.018487388,-0.15395433,-0.22023544,0.095682554,-0.026230682,-0.150372,-0.007052673,-0.07610011,-0.04209212,-0.029061697,-0.10379136,0.48292556,0.008619759,-0.13383287,-0.2994049,-0.048185416,-0.039945994,0.02603404,-0.026391804,-0.08846358,-0.11771917,0.07922494,-0.036981944,-0.06561389,0.06191332,0.0041218875,0.048083723,0.1282101,0.016207842,-0.30441925,0.06610242,-0.16569743,-0.012290617,0.01578416,0.0021125139,-0.20809072,0.026827397,-0.10788885,-0.20928457,-0.029083427,-0.14065291,-0.08517284,-0.22281294,-0.32228675,0.08948267,-0.12996615,-0.035798565,0.06091641,0.21372718,-0.027419267,-0.022261327,-0.050659664,0.066330075,-0.018054724,-0.07173648,-0.0821163,0.15226229,0.14295822,-0.048654485,0.09156162,-0.0026347432,-0.0836248,0.06474679,0.08521342,0.007181589,-0.3582762,0.22510105,0.08053896,-0.20001128,-0.07783199,-0.044957716,-0.051076677,-0.019790871,-0.02253338,-0.034383368,-0.013214318,0.08530566,0.009257299,-0.1668644,0.07542096,0.027581202,-0.030019201,-0.11347179,0.014149475,-0.05739063,-0.0624339,0.023128834,0.04359697,0.0123241395,-0.0261313,0.02350841,-0.00484096,-0.122107066,0.01441491,-0.023516908,0.027811166,0.026554933,0.014154153,-0.115435496,-0.16474798,0.035475217,-0.104380816,-0.14320384,0.118763305,-0.12045412,-0.054354895,-0.0807659,-0.056119677,0.02666159,0.055192314,-0.2327006,0.00025985186,0.03249518,0.014208566,-0.08665262,0.06986251,0.11064108,-0.041976113,-0.105450325,0.4117978,0.026858745,0.043167435,0.11067254,-0.04853621,-0.071043536,-0.07135301,-0.23242833,-0.017848257,-0.24722525,-0.33431077,0.06340774,-0.1011953,-0.18692967,0.032402124,-0.1405735,-0.15692419,-0.118734375,-0.056790937,-0.058075298,-0.06822955,-0.024433902,-0.14259945,-0.15598169,-0.07977986,0.17986941,0.0516998,-0.15650375,-0.042602558,0.11515071,-0.06755469,0.039335564,0.047237072,-0.21324375,0.0021901976,0.055659655,0.04839258,0.9646188,-0.059628177,0.18082847,0.6340288,-0.22565816,-0.075748965,-0.1167886,0.024668308,-0.003256768,-0.12230032,-0.017803045,-0.1394466,-0.14214206,0.048470993,0.15172802,-0.27974865,-0.048465542,-0.039733604,-0.5212563,-0.0075490065,0.007871184,-0.25165734,0.1206086,-0.07508703,-0.024004003,0.024918575,-0.08532398,-0.11021201,0.17413962,-0.15123147,-0.01797776,-0.06142975,-0.020451332,-0.10660047,0.2654991,-0.020642579,0.07219075,0.23523723,0.092161536,0.28256828,0.08848001,-0.121494636,0.06594953,0.02773102,0.021029063,0.028294256,-0.033631016,0.085335694,0.024751598,0.024208829,-0.065613724,-0.11753043,0.10747231,-0.15016685,-0.20767726,-0.04976922,-0.20214637,-0.112614185,-0.2361205,-0.046670668,0.053968217,-0.06411987,-0.11543589,0.10397045,-0.027948093,-0.18270598,-0.16310629,0.0537963,-0.0044004256,-0.012826635,0.039976727,-0.029150799,-0.009659673,0.010086693,-0.01856465,0.060225785,-0.032823466,-0.07842084,0.22658938,0.020277256,0.14157566,0.13421094,0.100967325,0.15131155,0.081593946,-0.11401083,0.06192207,-0.011247856,0.16528392,0.09169858,-0.023168629,0.011933791,-0.035442162,-0.10709203,0.14748013,-0.07721546,-0.09728433,-0.1294566,0.009895953,-0.1560424,-0.07766893,0.15471841,-0.08670825,-0.05924057,0.025003944,-0.07490959,-0.17380944,0.11422616,0.25446004,-0.07157613,-0.083324604,-0.05150007,-0.17452525,-0.060936287,0.06651756,0.12087726,-0.26322588,0.12915128,0.4437665,-0.0597135,0.14487328,0.030587897,-0.45881993,0.026743438,0.05913797,-0.3298015,0.13292132,0.23535877,-0.2285159,0.085177794,0.071924746,0.002240074,0.17276852,0.10224336,-0.0599729,-0.0067816293,-0.026588088,-0.10162145,-0.21763416,-0.10355714,-0.041705295,0.083862916,-0.0024769022,0.026101608,0.1164706,-0.057125084,0.06419726,0.00844284,-0.052320622,0.25376856,0.07029956,0.13119836,0.13037932,0.08962607,0.06969504,0.15583615,0.048239686,0.054108117,-0.10417456,0.01004679,-0.1152258,-0.25918657,0.185434,-0.35267505,-0.12139403,-0.014397369,-0.07326643,0.04985229,-0.14033777,-0.031568736,0.045788463,-0.07684246,-0.080194294,0.029474424,0.032317135,0.1058938,-0.023232196,0.062217403,0.010149449,0.09259649,0.23545341,-0.06851914,0.1613643,0.112742834,0.013195816,-0.16148844,-0.055476822,0.059447266,-0.058725808,0.011784975,0.058099587,0.037937276,0.04971022,0.12292449,0.007898762,0.0894167,0.06670328,-0.033269122,0.13318431,0.021150764,0.07094872,0.037050575,0.0018287391,-0.089689486,-0.1208164,-0.013600639,-0.05257875,-0.09926102,-0.010987593,0.045295823,-0.113501005,-0.012103363,0.05774241,0.022294596,0.09789479,0.013305743,-0.07071464,0.15844119,-0.100931,-0.09293638,0.0995647,-0.08002981,0.07675246,0.023377836,-0.3427756,0.18717964,0.387728,-0.24401148,-0.07022676,0.09505297,0.020346396,0.013788022,0.034757745,0.09323987,-0.2290446,0.055132013,0.022087302,-0.056696963,0.030224558,0.037181545,-0.30178156,-0.29403982,-0.03256004,0.016158745,0.011030941,-0.033565428,0.25554872,0.27960786,0.0037757666,-0.009998479,0.09374454,-0.12776893,-0.20929751,0.080124415,-0.008335801,0.070834965,0.18210636,0.061454885,0.06979541,0.03547707,-0.07811536,-0.23868448,-0.05478,-0.061003454,-0.15216245,-0.021720085,-0.08079114,0.032454774,0.007759588,-0.050103966,-0.01309382,-0.049448524,-0.07483182,-0.013353744,-0.04698061,0.010533297,-0.104422,-0.010763359,-0.07134181,-0.37270063,0.12970781,0.062154394,0.09534013,0.22775577,0.02776485,0.050724316,-0.02893718,0.08518421,0.46262687,0.020270867,0.102841325,-0.6293145,0.07633416,-0.069654666,-0.012934437,0.060802046,0.011403042,-0.13070357,0.023694027,0.06438822,-0.026770998,-0.0050477698,0.080773555,0.16881898,0.13319102,0.014799477,-0.12612414,-0.11330665,-0.0566745,-0.06953483,0.07560686,-0.08630492,-0.051108826,-0.2594625,0.06784249,-0.07038037,0.14224593,0.0039576916,0.28230113,-0.1432054,-0.054550562,0.080139376,0.07526744,-0.3967665,0.15153337,0.29643935,0.17610918,-0.06257944,-0.18463199,-0.07036485,0.0016868379,0.011717748,0.0014054341,0.037783414,-0.05370044,-0.09641417,-0.09436794,-0.12755853,0.020185983,-0.18976712,0.2369397,0.026786568,-0.15021227,0.06742505,0.15379266,0.29660574,-0.3000306,0.13659371,0.05390202,0.07284922,0.12082751,0.014412396,0.03209755,0.04687855,0.035248205,0.018010937,-0.03917473,-0.057289645,-0.05772121,-0.016231664,0.055078153,-0.008193557,0.051209442,-0.10846934,-0.002276172,0.009537268,-0.017012328,-0.06347054,-0.035121486,0.1361374,-0.03244085,-0.051627275,0.015644157,-0.03421093,-0.08182342,0.045356814,0.092419125,0.14278795,0.106791764,-0.24762253,-0.14442603,-0.3035726,0.19023608,0.027270231,0.03018928,-0.10983925,-0.03760995,-0.10023547,0.028250199,-0.0010087738,0.05290633,-0.057208683,0.046480976,0.06648901,-0.06292172,0.05323947,0.29508516,0.024192786,-0.1087382,-0.40705994,0.09147577,-0.085269645,-0.11797594,-0.1304829,-0.18969998,0.03195647,0.1054268,-0.06818969,0.19609587,0.024330312,-0.21791273,-0.34049165,-0.021600755,-0.05954427,-0.12734878,0.004411193,0.055575114,0.05399631,0.16523573,-0.06407584,-0.15569015,-0.004467126,-0.022364369,-0.12532404,-0.059264656,0.04128607,-0.07464078,0.014824831,-0.05048041,-0.02369697,0.054303627,-0.05405027,-0.13036036,-0.049684126,0.021430189,0.027194716,0.02763851,-0.047427192,-0.07253717,-0.014071985,-0.047444586,-0.048404273,-0.031551328,0.088826254,0.07127135,0.10254414,0.11238913,-0.05460281,-0.104501046,0.021081587,0.0015507712,0.011892662,0.020766838,0.17236815,0.17852476,0.03444614,0.01498428,-0.036347095,-0.07253528,-0.054640777,-0.041805927,0.042235892,0.04610767,0.052114222,-0.12716185,-0.18925771,-0.099717565,-0.036907174,-0.15629046,-0.08489965,0.09709165,0.048633613,0.018020973,-0.022305034,0.000666372,0.0132258795,-0.05688751,-0.038700182,-0.043372042,-0.02744106,-0.009929248,-0.023723276,0.14424896,-0.0041674464,0.029457087,-0.002810557,-0.023060197,0.024607558,0.07162963,0.092384346,0.10919891,-0.009817902,0.009559456,0.06198036,0.009371171,0.016608942,0.079726994,0.015373753,-0.0787522,0.048265796,-0.050048266,0.032708623,0.071214445,-0.006611768,0.012996715,0.039797436,-0.023262192,-0.014455147,-0.04556349,-0.038012087,0.05738531,0.027680071,-0.092391185,-0.035931736,0.046436746,0.08871748,0.103361875,0.117241696,0.046721514,0.10158208,0.03918597,0.012623125,-0.031860378,-0.015916819,-0.015319049,-0.06970246,-0.078041725,-0.00685147,-0.084106356,-0.12279741,0.06965159,0.08359174,0.033643954,-0.0006672905,0.05016689,-0.017845236,-0.123056404,0.04515337,0.05986989,-0.057212807,-0.002679103,0.05765581,-0.035767622,-0.056457482,-0.113260426,-0.12027376,-0.22764231,-0.07928102,0.050694823,-0.042323783,0.061050322,0.106842324,0.12855022,0.0924139,0.02442106,-0.0036637527,-0.031887755,0.03891186,0.052577093,0.018386347,0.03334225,0.0956296,0.08645953,0.016017703,-0.13358319,-0.078509845,0.070876434,0.056325253,0.13092406,-0.28669435,-0.02699834,0.13695936,-0.051780995,-0.19895308,-0.13990566,-0.15392877,-1.3791745,0.1050333,-0.115210466,-0.108875155,-0.048801877,0.09868728,-0.27855888,-0.12725629,0.13568117,0.20272638,-0.013485449,0.05523302,0.06998066,0.068891145,0.07353459,-0.017951407,0.23799764,0.1440511,-0.10694151,-0.50571144,0.014494844,-0.009330165,0.067314036,-0.010646851,-0.17745005,0.00082650135,0.032667104,0.15798825,-0.10401335,-0.055808846,-0.035013165,-0.029750956,0.11859419,-0.09301057,0.083937466,-0.023611948,0.12312832,-0.12369049,0.13079818,-0.06250092,0.12011068,-0.123585,0.062990874,0.026451929,-0.12744182,0.051847037,-0.112658784,-0.0932934,0.1138473,0.071817234,-0.06880908,-0.08233045,-0.0033559157,0.022743518,0.0738114,-0.06326052,0.010813558,-0.03926992,-0.07961683,-0.10888793,0.016476238,-0.35673475,0.029799907,0.058959506,0.07167007,0.059927862,0.067573205,0.034922104,-0.066210434,0.110999174,0.009653208,-0.10086146,-0.09279337,-0.04894284,-0.058231447,-0.14072481,0.041645925,-0.12912747,0.010073107,0.017080994,0.054467723,0.15584068,0.15690525,-0.068778515,0.0498966,-0.020290105,-0.034809187,-0.014710751,-0.04879431,0.025986098,-0.12151582,0.14753392,0.025183639,-0.057135813,-0.06223403,-0.00049399486,-0.16627102,-0.026644738,0.048419196,-0.048663657,0.1365215,0.07931627,-0.01564627,0.0043401285,0.058970388,0.049174633,-0.042743213,-0.05465047,-0.20928861,0.42365324,-0.27452317,-0.13086994,0.11355642,0.052576512,0.14014445,-0.3366682,-0.23636805,-0.2087779,-0.82859653,0.042760797,0.05821312,-0.017223584,-0.13346721,-0.20162202,-0.13124469,-0.13877025,-0.24167268,-0.23686294,0.06591131,-0.1272723,0.021199122,-0.08790587,-0.09896027,0.0026509305,0.07771783,0.11440921,0.028154558,-0.14983344,-0.12794428,-0.20876327,-0.058346633,-0.06713801,0.17295392,0.20729442,-0.26227847,0.3198951,0.13866563,0.039433073,0.17874263,0.1155982,-0.10680044,0.0051645227,-0.12594007,0.17894436,0.08184186,-0.15917456,-0.00042933034,0.093700685,-0.039344184,-0.22010376,0.11361817,-0.24875236,0.14978203,-0.15625069,-0.11649681,-0.16385224,0.11052522,0.20719367,-0.1378834,0.045180757,-0.041301694,0.07660307,-0.25079256,-0.04841701,-0.07725526,0.09918636,-0.09189992,-0.03208936,-0.16333973,0.013821058,0.029106002,-0.09540523,-0.0053499844,0.049658623,-0.055127837,-0.062173046,0.05527228,-0.02449028,0.01746863,0.12410831,-0.1994369,-0.025878277,-0.006570034,-0.1360123,0.02402323,-0.12017494,0.2136998,-0.04150171,0.33742902,-0.05072006,-0.02144651,0.15770645,0.026560828,-0.009568274,0.24825831,-0.0043912446,0.018995909,0.18010214,0.046381406,-0.05169183,0.04361234,-0.105620205,-0.00035366236,-0.041403122,-0.10932088,-0.104453385,-0.031220697,0.02965982,-0.08998202,-0.026129615,-0.032596353,-0.038562827,0.04624872,0.026686713,0.06487603,-0.06220846,-0.031528573,-0.06311978,-0.017255368,0.06914838,0.02535118,0.3408772,-0.05404563,0.18313344,-0.030018838,0.09067067,0.0022109516,0.09973361,-0.08100867,0.02158346,0.20206833,0.2752516,0.04171852,0.11148164,0.05435778,-0.058552004,-0.07271009,-0.03566125,0.0017280447,0.057548415,-0.037488386,0.078800246,0.054053955,0.22792284,0.2168404,0.1886344,-0.0015379406,-0.061799496,0.27881038,-0.107083075,-0.12982243,0.43945268,-0.28338987,0.0509136,0.00023846801,-0.023255115,0.021471754,0.1308026,0.19578323,-0.0663752,0.03248051,0.2868048,-0.22745046,-0.21701494,0.06843592,0.11062563,-0.22577211,-0.15592542,-0.0010299564,-0.11617568,0.12715675,-0.04539301,0.034681328,0.09830198,-0.12805496,0.091472976,-0.1206057,0.059318528,-0.35623264,-0.08544861,0.0645512,-0.1263776,-0.051499445,0.12507316,0.016412172,-0.011838436,0.011768428,0.0149434935,-0.066968836,-0.10570679,-0.12060808,-0.092786804,0.12386796,0.12487475,0.14041452,-0.061068688,0.079010054,0.531038,0.10051264,0.22454582,0.29146668,-0.2878612,-0.31443366,0.098056644,0.008755562,-0.31241426,-0.036015674,-0.06739536,-0.2375847,-0.11186911,0.035903458,0.16057475,-0.08377282,-0.20988433,-0.30388424,0.36978057,0.011833367,0.042784385,0.14391638,0.019863326,-0.051165197,-0.057771917,-0.019092787,-0.045156002,-0.06783285,-0.076508455,-0.10140999,0.055534955,0.08660173,-0.17030618,-0.13640502,0.017854568,0.20510505,0.22541721,-0.12775387,-0.18496566,0.1535685,-0.10759242,0.13178745,0.028358486,-0.07695556,0.09905685,0.0041176644,-0.20023318,0.09392268,0.025964439,0.10996727,-0.09028766,0.00495572,0.10526994,0.15811388,0.112031326,0.06560994,-0.06690457,-0.022803305,0.14122435,-0.16555998,0.3237754,0.26828787,-0.1912319,-0.332983,0.022465814,0.1719748,0.069341145,-0.11012149,-0.148451,-0.13931866,-0.14376865,0.1524961,-0.08842728,-0.096882254,0.07136942,0.09465184,0.04443071,-0.06376144,0.5380272,-0.051486317,-0.11836896,-0.1442483,0.09501756,-0.005537671,-0.047858756,-0.123192914,-0.015604153,-0.1788042,0.023712983,0.22707003,0.013355529,-0.11448175,-0.13630761,-0.2457022,-0.09292709,0.12766667,0.015885323,0.22151692,0.34784558,-0.22693019,-0.0030902696,-0.005291344,0.07597643,-0.23143257,0.20010526,0.35726517,-0.066666946,0.3436367,0.29218137,-0.19427581,0.13783291,0.0062258067,-0.043914605,0.29091376,0.21072753,-0.080450624,0.2825147,0.13978416,0.009946659,0.2848077,0.2222493,-0.07134737,-0.018273475,-0.016573736,-0.17108941,-0.16355479,-0.04839072,0.03628884,-0.14158672,0.116265185,0.13774608,0.13961688,-0.06007053,0.029171195,0.03480244,-0.058750227,0.01071261,0.0111765945,-0.09094563,0.004062938,0.19772343,0.036963407,0.112247266,0.040059898,-0.099757135,0.107247904,-0.02145053,-0.22196434,-0.12916654,-0.051838763,-0.05227914,0.21375576,0.14479233,0.18610686,-0.1478923,-0.21741916,-0.21257146,0.037139084,0.15032437,0.0037989097,0.030002786,0.31466505,-0.19318834,-0.016743252,-0.10992754,-0.28457046,-0.07687126,-0.053164493,0.004415157,-0.041624058,0.04381985,-0.020602282,0.07625221,0.08985118,0.014930864,-0.024995403,0.081755854,-0.032995988,-0.012885052,0.21392442,-0.01420475,-0.04226908,-0.20890549,-0.12101668,0.06158178,-0.027661432,-0.028254446,0.039422177,0.044156365,0.012026798,0.044152047,0.009196819,0.07085324,0.023321085,-0.015038017,0.0035181835,-0.108177304,-0.12624377,-0.011962771,0.021272292,0.14115195,0.13636385,-0.0061613554,0.06714684,0.06850075,-0.0453059,0.025065202,0.027815297,0.011564214,-0.13262975,-0.16290332,0.013438375,-0.1744271,-0.094218455,-0.08270157,0.08284906,0.04698509,0.08406723,0.31252232,0.14054504,-0.011420401,0.02610199,0.11290468,0.10387252,-0.050310194,0.06705189,0.10511948,0.053760502,-0.053722262,-0.08000751,0.0077662827,-0.040005647,-0.1773944,0.10951069,0.124666,0.15409034,0.41036674,0.23940143,0.032846548,-0.0074741286,0.07221317,0.028114842,0.044811793,-0.118630774,-0.35187978,-0.42191565,-0.24047975,0.29621175,0.01647781,-0.02277152,0.36521524,0.004011851,-0.007464528,-0.0032510427,-0.26001716,-0.20268044,-0.051336803,-0.32301912,-0.22315365,-0.0890164,-0.14743812,0.09773458,0.076971196,0.062276434,0.14564669,-0.09150132,-0.04070321,-0.04013248,-0.20528191,-0.035836004,-0.11663305,-0.07483942,-0.0006560538,-0.076014414,-0.04569582,-0.08534956,-0.0746384,0.059438847,0.17150535,0.099209644,0.027757715,0.122750424,0.06750173,0.1599547,-0.07860046,0.0004310462,0.10916572,-0.11229146,-0.033697337,0.092809595,0.024651757,-0.029529318,-0.021008927,-0.1060952,0.10878337,0.041381434,-0.005631377,0.11114901,0.056929294,0.044558633,-0.0026154858,-0.1306349,-0.040484827,-0.027502703,0.018004134,0.120825484,0.2432867,0.13308686,0.17400277,0.16110285,0.11922871,0.16731746,0.12043474,0.23659536,0.30046764,0.2738924,0.17908332,0.2191247,0.23931602,-0.1075128,-0.08322835,0.0006678226,-0.09043118,0.045531727,0.12767786,0.025743293,0.06757006,0.031865057,0.09896044,0.07147919,-0.0538171,0.11469703,0.23075393,-0.03779052,0.13313164,0.2031794,0.12034232,-0.08642298,-0.11546989,-0.12096128,-0.009026027,0.047836456,-0.011643644,-0.09163337,0.04027273,-0.025266802,-0.08897664,-0.016782323,0.11409493,0.08802067,-0.035763003,-0.060639404,0.008526986,-0.08064813,-0.103835374,0.08954128,0.15724355,0.00025548786,0.17320397,-0.18703154,-0.05402621,0.016898071,-0.18740986,-0.1579353,-0.12439618,0.02013116,0.13060002,0.028133322,0.14523815,0.19425443,0.121712714,0.0015243237,-0.1437898,0.059031386,0.020331888,0.14048958,-0.011223768,-0.07796723,0.105196126,-0.024813496,-0.18003495,-0.018719371,-0.11317571,-0.10742923,0.060597483,-0.24841854,-0.24439354,-0.034003876,0.058013223,0.12221353,0.03290653,-0.1412428,-0.11928514,-0.14107104,-0.16521823,-0.12678121,-0.11903553,0.018613886,0.09057647,0.08095741,-0.037539557,0.0053988,0.022951031,-0.05762002,0.06422356,0.15747294,-0.08050828,0.095472105,0.16685654,-0.036313694,-0.020085253,0.014909171,-0.050087363,-0.01089692,-0.015567362,-0.034011096,0.00066968607,-0.010907426,-0.015408855,-0.020101888,-0.055115398,-0.039881185,-0.008215803,-0.041184306,0.0065046125,0.033881165,-0.016509935,0.0057796584,0.013276672,0.057823867,0.016946074,0.06750933,0.044512533,-0.017164245,0.016214674,-0.003116991,-0.044011872,-0.17902668,-0.19093122,0.053207815,-0.17239474,-0.22772834,0.05431227,-0.00917345,-0.09495352,0.034646906,0.0020729513,-0.032404788,0.011187017,0.007915647,-0.066072255,-0.08949138,-0.075649366,-0.004968604,-0.08311804,0.017651018,-0.03986304,-0.0534775,0.08997853,0.031574078,-0.048448656,-0.0073618833,-0.045408033,0.0060442295,0.03264354,0.005836204,0.029049033,0.07498574,0.0036155966,0.019195527,0.01756863,0.015357069,-0.02491633,-0.0865278,-0.016481517,-0.04159992,-0.095462106,-0.0085764425,0.0103210425,-0.0045220805,0.03738893,0.008738311,0.24901496,0.06011246,-0.01944723,0.036905106,-0.088331394,-0.17004447,-0.35535002,-0.43342754,-0.015348166,-0.05366184,0.0039399723,-0.00916817,0.043666873,0.08638246,-0.068247005,-0.10816168,-0.058647603,0.03896531,-0.024981128,-0.040555645,0.10566652,0.064237915,-0.016655928,0.08617507,0.036149465,0.022150492,-0.037983526,-0.07011638,-0.02150399,-0.08946976,0.0061832387,0.08004053,-0.061609782,0.05331244,0.056133937,-0.06528146,-0.109934025,-0.073960826,-0.04139095,0.010266481,0.06737742,-0.054472435,0.05330649,0.06964088,-0.008359037,-0.018968672,0.019938843,0.043473568,0.0026148586,0.06860495,-0.015153989,0.037197858,0.070429474,-0.03511211,-0.03830614,-0.056444336,-0.0025526101,-0.0034312534,-0.009906504,0.0128672905,0.036672715,0.064089395,0.08759175,0.119027786,-0.048324294,0.042646393,-0.0644127,-0.09618556,0.0024921682,-0.134874,-0.15530649,-0.03734363,-0.00811502,0.03805263,0.03629772,0.16336,0.07961088,-0.029394198,-0.003234192,0.008817056,0.04343027,0.05586976,0.10736845,-0.014560686,-0.12934501,0.017314382,0.010524209,-0.07378739,-0.033456247,0.0030355144,-0.047711406,0.04378631,0.0402241,0.06747111,0.12347385,0.0042874315,0.07498009,0.015703414,0.0007883208,-0.02336194,-0.10072882,0.03598065,-0.037812855,-0.04842383,0.056161415,0.08792,0.050613426,0.092878215,0.011446486,-0.042447247,0.044578895,-0.029794037,-0.08674549,0.02060044,-0.03532381,-0.025074404,-0.20911989,-0.16127357,-0.04082469,-0.17105201,-0.10338006,0.04448045,-0.08603785,-0.00328687,0.060327467,-0.008346003,0.00026449678,0.052826725,-0.03758876,-0.106531054,-0.123819396,0.050201837,0.032965004,-0.05717301,0.025015058,-0.11737127,0.02102313,0.0029608356,-0.06407236,0.020262351,0.006695684,-0.031471726,-0.006053442,0.049313758,-0.023071222,-0.018879548,-0.017065378,-0.049237896,0.006698974,-0.03476197,-0.10064868,-0.024813736,-0.11007152,0.061613925,0.14818268,-0.1615574,0.11378557,0.29106674,-0.14665166,-0.09235004,0.07641683,-0.011937964,0.016926175,-0.010787076,-0.027382482,0.093691505,0.036512375,-0.05257745,-0.038192507,-0.06953418,-0.024471747,-0.23447493,-0.22034168,0.07073621,0.026435383,0.10655507,0.014280072,0.13873145,0.24606702,0.009487615,0.052604698,0.060040694,-0.047088347,0.11607061,0.07312969,-0.055156197,0.027103502,0.06784171,-0.06356788,-0.09581978,0.03768191,-0.14679451,-0.211553,-0.022138115,0.061866164,0.06429667,0.07487303,-0.07474296,-0.11637713,-0.08706375,-0.030033771,-0.0566589,-0.11748897,0.051227555,0.06402341,0.017360967
