0.014137055,-0.047444962,-0.011266938,-0.023182914,-0.058263633,0.014245559,-0.05682362,-0.024558023,-0.017957514,0.012755161,0.01124968,0.034616973,-0.041056708,-0.009635224,0.0029920752,0.011893641,0.011359076,0.012966877,0.018431088,0.052992065,0.044372417,0.052454155,0.006724231,0.008446288,-0.0031808936,-0.0031291614,0.031886764,-0.0045571066,0.0075003994,0.018489718,-0.028932907,-0.0120758945,0.03718377,0.0024506105,-0.036004633,-0.04051348,0.025950955,0.075911984,0.037649777,-0.016913673,0.053296227,-0.0059580565,0.02194166,-0.049160786,-0.024622783,0.05726922,0.037090946,-0.032173507,0.0070660184,-0.018275136,-0.028364068,-0.082839854,-0.13322864,-0.054826457,0.03917199,0.05910435,0.00068002916,-0.055134423,-0.051037617,-0.05954368,-0.019767929,0.048954323,0.064885564,-0.015845716,-0.06387251,-0.027782358,-0.020907478,-0.16342895,-0.028233228,-0.04560583,0.005773751,-0.012483642,-0.03015202,-0.03908323,0.0066477614,-0.10362711,-0.122450285,-0.06345102,-0.028860709,-0.06686625,-0.025927603,-0.028472265,0.03393269,-0.046989713,0.01644422,0.049204864,-0.0013911588,0.019622564,0.009580683,0.07007975,-0.0017324887,0.088076696,0.0011748554,0.01660876,0.10018486,0.0286874,0.020636968,-0.15004084,-0.025000136,-0.04229908,-0.04724758,-0.072577104,0.029437719,-0.0038555954,-0.0110545475,0.004947064,-0.06060408,-0.038748637,-0.03508992,-0.06585779,-0.030945864,-0.047124986,-0.087231256,-0.028948374,-0.091244094,-0.04658549,0.01928374,0.028350297,0.06621084,0.008947043,-0.012079913,0.0166698,0.02077801,-0.015532515,0.0076654362,0.007079158,0.020420732,0.0026074462,-0.040333353,0.016731326,-0.02098511,-0.048669413,-0.022895735,-0.0010264537,0.04661153,0.0030333686,-0.021545898,0.020083893,-0.03111275,-0.062344003,0.009351646,0.0069535384,0.012254308,-0.0059170034,0.04401914,0.025234057,-0.029176928,0.0434154,-0.024232125,-0.03753445,0.0110167535,-0.030628575,0.027231963,-0.018253392,9.717656e-05,0.022941455,-0.027416918,0.030242931,-0.18633172,0.044274576,-0.0894374,-0.020129155,-0.037310686,-0.043468557,-0.048682205,-0.013152447,-0.10131296,-0.24147542,-0.031800546,-0.039819915,-0.007835243,0.06548823,0.00054324913,-0.033364307,-0.030425996,-0.020697806,0.15970129,0.00515475,0.028368218,0.06386802,0.013634028,-0.03297957,0.018556202,-0.013657442,-0.054343067,0.3335269,-0.020355212,-0.081583865,0.06739467,-0.0048572966,-0.055246055,0.017756598,-0.016860534,-0.047380913,-0.019161494,0.044660002,-0.03531562,-0.019158453,-0.025369402,-0.041212976,0.019551054,-0.007964251,-0.16380042,0.23348223,-0.011866728,-0.037084624,0.0029880493,-0.0037666115,-0.059994943,0.022993907,0.022860106,0.0923315,-0.14010075,-0.037470877,-0.011014443,0.0017332099,0.03142764,0.021689778,-0.035534058,0.018197782,-0.020550102,-0.03483314,-0.002293236,0.10283939,-0.033530317,-0.010220144,0.0013741838,-0.010760856,0.087165564,-0.5622168,0.012899812,-0.0154482685,-0.09004472,0.012043584,0.057474356,0.039155707,-0.043216206,-0.047190376,-0.37809235,0.1991172,-0.015763072,0.018523825,0.0003554065,-0.13169426,-0.04642884,-0.07329796,-0.17235705,-0.1237851,-0.08927516,0.00081331085,0.06839624,0.058797367,-0.030182142,0.013960404,0.0076550124,0.003976694,-0.052718986,0.037437674,-0.00948693,-0.01826088,-0.033455573,0.0042926515,-0.008477057,0.03766968,0.015381326,-0.039032947,-0.039317336,0.042033035,0.0050375094,0.015610855,-0.039507918,-0.029684344,0.0151553145,0.022941543,0.01098906,-0.013143509,0.036877032,-0.029785683,0.044194885,0.053268947,0.0010985832,-0.008846709,0.007414974,0.02951945,-0.055133216,0.014663981,-0.004007175,0.012954628,-0.0024024702,0.008016853,0.04214651,0.007819934,0.003699435,0.01570188,0.0057312213,0.038523585,0.011235782,-0.02769374,0.013209734,0.016283777,-0.019014314,0.018205583,0.014584961,0.022806121,0.057959475,-0.0011111225,0.0056537567,0.0106974365,0.037092425,0.020861082,-0.011678079,0.03604602,-0.011427667,-0.02029515,0.081668906,-0.0020505728,0.00030644645,0.018038053,-0.01648316,-0.025329834,0.0052140635,-0.009182434,-0.0051564467,0.02542314,0.008346752,-0.007697562,0.022377102,-0.009703552,-0.025210856,-0.003677682,0.021534115,-0.021315843,-0.040378816,-0.018527774,-0.01652551,0.007343599,0.017287679,0.037721556,0.0341264,0.08908384,0.04890732,-0.0005714361,-0.04295659,-0.047063835,-0.056609508,-0.09245871,-0.0803668,-0.07470802,-0.07363259,-0.04133724,-0.027948184,0.041518454,0.0077700675,-0.025944052,0.0056002093,0.07266278,-0.024689259,-0.036412816,-0.030378992,0.06824626,0.0055418895,-0.0297143,-0.043880384,0.014091551,-0.030504754,-0.041298177,-0.006485603,-0.002896157,-0.008947949,0.019705383,0.029670876,-0.012457901,-0.002611592,-0.036726244,-0.00583461,-0.010878336,0.033065535,-0.027631845,0.0016688376,0.0004046191,0.061009273,0.028912302,-0.0007872655,0.052788567,0.03728832,0.064622566,-0.030929046,0.028120494,-0.016144989,-0.014681372,0.008286799,-0.018229216,-0.013996482,0.0074780956,-0.007745068,0.026855376,0.019046567,-0.03693602,-0.021939706,-0.0018726186,-0.057265934,-0.019932088,-0.03262987,-0.038476378,-0.014480196,-0.027321238,-0.024547976,0.010031467,0.029414106,0.039307136,0.038388703,0.04808156,0.020493532,0.010758678,0.0415057,0.0056070583,0.025860023,0.027809104,-0.030795055,0.020645462,0.046427812,-0.018395947,-0.01148278,0.0053010923,-0.050686117,-0.0710968,-0.11145047,-0.12788472,-0.15533537,-0.058787882,-0.05782703,-0.08748792,0.0669981,0.05935288,-0.07309439,0.3832938,0.099202774,-0.034931477,-0.08997794,0.19149736,0.039774463,-0.2101669,-0.009731686,0.010148073,-0.032503705,0.39762107,0.029474054,0.09073936,0.1489764,0.002176004,-0.096020326,0.11340956,0.09219368,-0.16277666,0.32469416,0.090102434,-0.22612485,-0.041363243,0.15057385,0.2505586,-0.18299407,0.025981802,-0.15341596,-0.096019275,0.18723446,0.0751213,-0.3217338,-0.08474552,-0.22214201,-0.085869215,-0.14724141,0.085507624,-0.045188297,-0.20399432,-0.100335315,-0.11520407,-0.069404334,-0.16317971,-0.16270162,0.06354108,0.15917015,-0.17662624,0.021927563,0.011332594,0.06033099,0.014871796,-0.015248712,0.004514075,0.06139275,0.045363117,-0.86021024,0.28212944,-0.04120356,-0.008322351,0.031301524,0.06831742,0.13842407,-0.15480962,0.004167754,0.3083478,-0.13643782,-0.15603614,-0.18340161,-0.065636665,-0.008059369,0.012159738,0.076303035,0.06688972,-0.12140913,0.069165826,0.19141562,-0.072526366,0.012380432,-0.030466946,0.045513947,-0.08792648,-0.0252783,-0.106737696,0.0365932,-0.15487061,-0.077998504,-0.012532941,-0.2840868,0.14018923,0.11226655,0.39456967,0.16302969,0.1836423,-0.3267838,0.2049398,0.04828425,0.05210539,-0.1531921,-0.12613246,0.35353485,-0.22122641,-0.17746174,-0.2506348,-0.26596522,-0.05319481,-0.10438134,0.24505012,0.06476364,-0.06042203,0.07841548,0.02772554,-0.054016735,0.051752422,0.17103167,0.0035762433,-0.08624865,0.048768416,0.22934832,-0.14280437,0.032380275,-0.10344984,0.11821481,-0.054428875,0.13896126,0.17372224,-0.009231806,-0.044144005,0.11474001,0.042153765,0.0049064774,0.026314266,-0.06852729,0.042806644,0.042559877,-0.017352661,0.099537335,-0.014092115,0.28031686,-0.060062967,0.16141684,0.08741681,-0.040028352,0.030367278,-0.0095036095,-0.014287111,0.027346944,0.024348801,-0.012301427,-0.02060841,-0.015777899,-0.009005796,-0.004768494,0.006213414,0.029287992,-0.084930085,-0.057365242,0.08612109,0.048163343,-0.020224988,-0.015429721,0.023206763,0.0045486824,0.010280454,0.0298452,-0.01059549,0.04122963,0.09552585,-0.004980175,0.042435616,0.044970725,0.0008899281,0.018200641,0.07344384,-0.030692488,0.023146829,0.02497547,-0.039706916,-0.011095782,-0.018181594,-0.0072345845,0.0143416,0.093601346,-0.027040003,0.021588165,0.028839674,-0.0073544434,-0.04002223,0.01866592,0.03421423,-0.04665409,0.013938262,0.007933038,0.0046589267,0.059430618,0.0550294,0.022374528,-0.032678775,-0.024851806,-0.04857118,0.053324223,-0.012316077,0.012036029,-0.042533882,0.07803418,0.068112954,-0.046361696,-0.07225163,0.008526127,-0.13578746,-0.09916812,0.04104993,0.12307259,0.01992343,-0.003348906,-0.013173622,0.011139155,0.017408708,0.08610695,0.081695884,-0.015731977,-0.0020669603,0.07579884,-0.0064480826,-0.03899643,0.016752655,0.046728887,0.105700664,-0.055541225,0.03496856,0.044729043,0.010219221,0.003595995,-0.12390985,0.024478385,0.035622697,0.1850462,-0.04691847,0.07943864,-0.024042325,0.060699042,-0.06821838,-0.002548706,-0.00030862156,-0.075564675,-0.015611142,-0.022351246,-0.08387581,0.00921108,0.009138021,0.009307438,0.014966088,-0.03113704,0.0019995093,0.059167005,-0.04766792,0.004633794,0.0862588,0.04693422,-0.05092685,-0.05173866,-0.0723484,-0.03473405,-0.036036644,-0.038636517,0.021853901,0.0009725654,-0.037095897,-0.050999682,-0.028832518,0.035856776,-0.13707349,-0.10587994,0.063788265,-0.005041135,-0.0167392,0.049908362,0.07500917,0.02704176,-0.02750181,-0.013372908,-0.051482078,-0.022638382,0.01633193,-0.007698368,0.008241407,-0.00011255385,0.04684591,0.012985288,-0.043552756,-0.03451035,-0.012975552,0.028934207,-0.0069903038,0.045892477,-0.043112908,0.011600564,-0.11344714,-0.0824499,-0.057318445,0.01111069,-0.029357221,-0.00316468,0.04723927,-0.09726627,-0.07265332,-0.03297218,-0.07263529,-0.14826398,-0.034687124,-0.008652334,-0.09680111,-0.065818146,-0.007251822,-0.009955394,-0.036896564,0.005880508,0.061411727,0.07033261,0.015636696,-0.044215865,-0.08312739,-0.045671206,-0.15418941,0.047141295,0.04688665,0.13777184,0.1831449,-0.034139752,-0.011153975,-0.04002927,-0.064262815,-0.040489033,-0.03990967,-0.00784877,-0.04475791,-0.01634595,0.008812009,0.025140557,0.03725104,0.0150455,-0.057903636,-0.07267253,-0.06217426,0.05224068,0.17651428,-0.013678775,0.023393856,-0.047784917,0.0029396957,0.04714855,0.11713768,-0.05109996,-0.113867946,-0.30154967,-0.031241884,-0.016166788,-0.035419706,0.026730962,0.01267611,-0.015765065,0.0053789383,0.011459066,0.047715236,0.02553707,-0.035341855,-0.10225906,0.03220838,0.014097836,0.0067460327,-0.07253053,0.038257193,-0.027256696,0.0087682465,-0.023589427,0.04201176,0.019766292,-0.0587955,-0.034725394,0.020832406,0.15577346,0.18968897,0.026332397,-0.022453167,-0.19708513,-0.002311566,-0.110467836,0.0016294573,0.034495912,-0.031503044,0.07729268,-0.023309138,-0.15438296,-0.051799573,0.022897834,-0.010317568,0.09156952,-0.039687354,-0.016402088,0.023159953,0.0064563234,-0.07097324,-0.04148419,0.025210414,-0.019058423,-0.04184246,0.034308195,-0.020480579,0.008357285,0.07891821,0.088980235,0.05034183,-0.048149146,-0.036814835,0.04976648,-0.003415444,-0.016604599,0.004803185,0.041693658,0.01459228,0.04628655,-0.017100956,0.050136153,-0.031266008,0.0010329619,0.047109112,0.01967154,-0.020067252,0.09516699,-0.014561114,-0.0146946935,0.0005110501,0.02950275,0.010027968,0.009345356,0.048983738,0.010655505,0.019345956,0.06757866,-0.018354217,0.00588722,0.008702189,-0.021788023,-0.013052766,-0.005399096,-0.023630545,-0.03224443,0.012810517,0.02684102,0.029118657,0.057292983,0.02790732,0.011715815,0.016855208,0.03756903,0.0032023108,0.027298652,0.027202936,0.0056136837,-0.01751157,0.03694188,0.038982585,0.023669595,0.022139918,0.0384331,0.02283113,0.011103726,0.011225978,-0.016080394,0.024296848,0.061255403,0.055929694,-0.0005227902,0.044912625,0.03476853,0.027413882,0.028891217,0.01825069,0.01759887,0.07642738,0.08942251,-0.016672729,0.03311377,0.02409593,0.010185363,0.027860202,0.00870633,0.043226253,0.014990314,-0.03036506,0.03240703,-0.002592851,-0.00048622125,0.0008385815,0.003519422,0.031940684,0.0016557866,0.02235449,0.08141239,-0.030096158,0.007465881,0.024446817,0.0130716255,0.0061357687,0.0052233296,0.024297345,0.01095738,0.007474549,0.0098854,0.002854267,4.5716566e-05,-0.014513993,-0.032926075,0.0040352414,-0.03807754,-0.0822372,-0.022308217,-0.066170335,-0.047804214,-0.009512183,-0.012347596,-0.016301217,-0.030490082,0.023860715,-0.005197391,0.0065523577,-0.025197562,0.0052521466,0.016679147,-0.0012847396,-0.0045610033,-0.022531182,-0.038394302,-0.03221746,-0.062113993,0.017385421,0.02721803,-0.0042054434,0.0132997455,0.012964527,-0.01314894,0.017749446,0.009636974,-0.03159552,0.021065107,0.017502727,-0.0066172197,-0.055123843,-0.0394889,-0.03431635,-0.041784033,0.001649143,0.0016454434,-0.023137042,0.016041486,0.013654435,0.036953446,-0.0014300345,-0.0005025117,0.050328102,-0.01279611,-0.0089085,0.061107133,0.0073298365,0.02446554,0.016283216,0.029607784,-0.0011800373,0.015837349,0.009995737,-0.02298104,0.009823293,0.01750054,0.0052412213,-0.015085262,0.01423331,-0.0017879785,-0.031396974,-0.08477273,-0.06691596,-0.016107537,-0.018464763,0.002553431,-0.04522133,-0.10185541,-0.07993198,-0.05228125,-0.111992516,-0.11781427,-0.04175844,-0.08738153,-0.029834878,-0.019662185,-0.008897681,-0.04022938,-0.03801908,-0.057659704,0.060419153,0.00058111345,0.035988364,0.07180754,-0.0034445242,0.045401145,-0.013256983,0.010272244,0.1055304,0.035575815,-0.011446192,-0.028147765,-0.013776514,-0.046886094,-0.042171758,-0.006178228,0.031704284,0.121376865,-0.06180328,0.030170701,0.022833074,0.04263164,-0.030327642,0.025198417,-0.052185822,0.0065502436,0.053676486,0.006167539,-0.025894238,0.005735486,0.006312742,-0.01695537,-0.10385118,-0.039413832,-0.021916775,-0.031588424,-0.03471679,0.03129168,0.058859695,-0.023545781,-0.010563521,0.06280683,-0.024970446,-0.03207971,-0.27307057,-0.054633904,-0.0050114724,-0.07928887,-0.057560164,0.006054148,0.08011935,0.015793802,0.010417088,0.12337386,0.061433744,0.0027950634,0.00071641855,0.016086318,0.025452351,0.0014857685,0.014475726,-0.06374039,0.18775247,0.05403025,-0.019096242,0.035071857,0.00986989,0.029293174,-0.093606964,-0.060755625,0.04063927,0.22584406,0.0027235602,-0.056253664,-0.12849788,0.0497686,-0.04147695,-0.027001407,-0.041532796,-0.041873448,-0.009080063,0.00031772372,-0.01487133,0.038261436,-0.013551752,0.070479095,-0.024345897,0.05620805,-0.008174766,-0.012069631,-0.00987812,-0.007334453,-0.025848445,-0.031183576,0.030355107,0.04462245,-0.0120263705,-0.033898063,0.0008467629,0.014334964,0.015320747,0.0015699917,0.017782623,-0.04025896,-0.013122767,0.016147222,0.00820004,0.008634982,0.032684103,0.042437475,0.036724657,-0.009313837,-0.009563906,0.03441325,-0.019050168,-0.014590155,0.010890088,0.010050564,0.015994726,0.098560594,0.005129669,0.08655478,0.013643535,0.00413255,0.007659894,0.052957136,0.032555584,0.04331935,0.031588174,0.038043957,-0.026523942,0.032416675,0.06258413,0.03938449,-0.16659002,-0.010588399,0.01080053,-0.05553019,0.066397905,0.00767174,-0.014219684,0.08672366,-0.048559383,-0.09042108,-0.036530294,-0.037520826,-0.03409666,-0.0029802283,-0.004551522,-0.0722146,-0.04979118,0.050782174,-0.104855135,-0.11678383,0.023500513,0.034387503,-0.021908678,-0.0011841431,-0.022337183,0.046966635,-0.00938757,-0.03531018,0.022084888,0.0033053434,-0.02967005,-0.042135656,0.0015134837,2.3234117e-05,0.04403109,0.050276764,-0.037185036,0.01107028,0.021074979,-0.03181687,-0.01766124,-0.011641854,-0.08241652,0.0064798337,-0.031197654,0.08967757,0.025736611,-0.108030885,-0.0012836661,-0.053243898,-0.024066338,0.00072571565,0.007686515,0.061141416,-0.012304648,0.062994994,-0.08771862,0.02106614,-0.036400966,-0.0079024555,-0.076406896,-0.08744872,0.020757942,-0.039367452,-0.08140109,0.0746753,0.023864726,-0.08148511,0.055888418,0.048826832,0.031730626,0.009968963,-0.016307296,-0.010992203,0.19627966,-0.062405057,-0.010154757,0.04116123,0.017365633,0.0022096103,-0.08199735,-0.0689717,-0.08780997,0.12568928,-0.20016824,-0.09536364,0.043976773,-0.0012269,-0.0018811808,0.021631246,-0.018665606,0.06389853,0.014855147,-0.010569026,0.025915567,0.024403319,-0.049704004,-0.031975918,-0.025762748,0.0930362,0.0366883,-0.17665939,0.012618414,0.00027968772,-0.03447465,0.026662001,0.022653928,-0.012364854,0.03133258,0.050178297,0.024517361,0.035495818,0.07535387,-0.029660797,0.06410333,-0.047784347,0.050237563,0.2449082,0.058556326,0.00796729,0.17914772,-0.029716188,0.039730582,-0.017930884,-0.11114944,0.06754336,0.061105274,-0.06573888,0.031165978,0.1888152,0.0056340666,-0.016972449,0.20532046,0.117469795,-0.053855024,0.113732256,-0.0051951935,-0.060465068,-0.03188203,-0.085032165,-0.028478082,0.012288838,0.040308155,-0.060520746,-0.06589675,-0.093201436,-0.015586859,-0.09825136,-0.076603,-0.054100886,0.051735763,-0.019948896,-0.01698947,0.101333566,-0.024102628,-0.015843755,0.115229405,0.04806401,0.042903446,0.06463904,0.05741416,0.008753048,-0.04792177,-0.08426797,-0.115049616,-0.174321,-0.18247391,0.034858868,0.07753288,0.043254238,-0.0065293685,0.06507527,0.022456393,-0.010829009,0.03539915,0.056539003,-0.07648748,-0.07906625,-0.07735749,-0.054691285,-0.010166363,-0.041095495,0.060220025,0.108616464,0.048050977,-0.048084926,0.0057228794,0.012940723,-0.09639942,-0.026791219,-0.0890087,-0.015064462,0.06511361,0.018203087,0.046312757,0.0001136112,0.023887787,-0.00417669,0.013319023,0.016972667,-0.009053204,-0.009468445,0.07000688,-0.069170974,0.017522784,0.028177178,-0.08500832,-0.027634306,0.006142985,-0.046851262,-0.052167267,-0.061824866,0.01106621,0.018173158,-0.0194969,0.007338557,-0.0025105642,0.023936223,-0.009065969,0.060736768,-0.01583007,0.046852678,0.054257035,0.08773533,0.012109111,-0.05293517,0.0769707,-0.015903175,0.015477909,-0.032417472,-0.09791839,-0.012825493,-0.025253156,-0.0068855644,0.08186743,0.022982543,-0.0009815322,0.034341343,-0.02357219,-0.022770772,0.10717354,0.10244653,-0.041824527,0.095516466,0.12688138,-0.020774694,0.021361252,0.057252944,-0.008842881,-0.0074521243,-0.018512635,0.02515183,0.04346214,0.0067402204,0.01988216,0.017293334,-0.0057223644,0.05507268,-0.13317585,0.15080403,-0.027841471,-0.14777906,-0.020167073,0.22776882,0.13443644,0.06192414,0.055943225,0.0052258307,-0.06122303,0.07825705,0.04742583,-0.044851318,0.053662553,0.05458707,0.03312489,-0.06464958,-0.10731132,-0.08630125,-0.033676397,-0.005972884,-0.085433975,-0.031811673,-0.03133136,-0.012674563,-0.039012186,-0.03621104,-0.08351032,-0.05633487,-0.16539526,-0.0018630939,-0.0083241435,-0.07835436,-0.05175138,-0.02773466,0.059137594,0.068080105,0.10913159,0.15338746,0.12268557,0.0593728,0.14410655,0.26362455,0.038251378,0.023091348,0.03378034,0.027659556,0.031794414,0.052402478,0.004672932,0.020273192,0.0047947657,-0.007981273,-0.1311802,-0.02567431,-0.011041783,0.028147023,0.015581142,0.033411108,-0.018615408,0.013264229,-0.05475684,-0.1365005,0.008564795,-0.27797705,-0.16847092,0.094916254,-0.085430846,0.02037707,0.06636852,-0.124527454,-0.058353763,-0.1035506,0.23332039,0.30633792,-0.21507783,-0.117470935,0.102720626,-0.13996917,0.038800586,-0.089464664,-0.07718653,0.19160053,0.08519177,0.05546275,0.013140509,-0.04692365,-0.019438095,-0.027443726,0.07919877,-0.009363195,-0.03606591,0.02351452,-0.0949699,-0.0042515285,0.09497751,-0.10477302,0.0015731205,-0.067441225,0.068826474,0.058473,-0.096447125,-0.008886506,-0.052560743,-0.052493993,-0.05305468,-0.013966626,-0.084875554,-0.09724763,-0.040424813,0.013835613,0.12034289,-0.068777315,-0.10660029,0.027560035,0.018313395,0.011309203,-0.0384072,-0.24256699,-0.1744731,-0.16797721,0.008728597,0.033356436,0.017193303,0.02419285,0.01563906,0.038747195,-0.012424985,0.09503671,0.006900416,0.03193867,0.07834188,0.0073836274,-0.0123601975,0.09691913,0.13223211,-0.2326141,-0.062170845,0.14239328,-0.11459997,-0.026913045,0.15265769,-0.03363134,0.0055011716,0.02493961,-0.029534673,0.008922799,-0.018191108,-0.014373294,0.024924787,-0.011365597,-0.03889173,-0.072641335,-0.11906136,0.23163025,0.04203758,-0.12813923,0.03415185,-0.02913994,-0.08593941,0.037578747,-0.06493849,0.006261482,0.0385735,-0.012077355,-0.061636474,0.031890824,-0.00035450075,0.029070454,-0.059312068,-0.054586787,-0.05623631,-0.14681481,0.045321666,-0.02996231,0.024227437,-0.09614583,-0.0016729013,0.024939308,0.06155385,0.069030866,-0.05361852,0.09805858,-0.009272174,0.008038359,0.025014289,-0.00497975,-0.018262573,-0.04638365,0.01839775,0.037676323,-0.033275332,0.012571698,-0.045449752,0.07327897,0.010149715,-0.076147094,0.06125803,0.11753565,-0.03537976,-0.06611432,-0.033764064,0.0012329837,0.048468236,0.029786428,-0.015905844,0.027507639,0.014052167,-0.05483709,-0.0110500725,0.011030414,-0.043744285,0.0026798039,-0.037248958,-0.06554252,0.16602476,0.073451094,0.035163216,-0.2086461,-0.030069219,0.016950311,-0.014121187,0.0040356424,-0.116488054,-0.31163403,-0.11132156,-0.07076177,0.037086338,0.06975684,-0.03799603,0.034775134,-0.041113842,0.0022086832,-0.0770346,0.009643991,0.093642905,0.063029274,0.058975566,0.0046589933,0.07754213,0.017042447,0.0042057,0.087660715,-0.00722032,0.07399726,-0.012346997,0.022658745,0.012315945,-0.008703923,-0.022194408,-0.016923852,0.073408306,-0.0020932937,-0.0750627,-0.25886074,-0.056261305,0.026725655,0.1258658,0.02441791,-0.032095592,-0.046942882,0.041457206,-0.058005508,0.002942619,0.08522824,-0.03275821,-0.045353062,0.013802713,0.051364,-0.020849211,-0.07247634,0.057742205,0.0017065615,0.010499988,0.046565283,-0.019137494,0.0025510758,0.05132842,-0.021032274,0.0431762,0.03248932,0.008198864,-0.0023740786,-0.018521953,-0.0495434,-0.034461234,0.016501585,0.018842466,-0.03622163,-0.019283049,0.056878556,0.006091446,0.04943034,0.013338332,0.016849501,0.03352261,-0.035963032,0.046790548,0.009022946,-0.0013303673,-0.024332253,0.018428195,-0.042089414,-0.019778963,-0.010415236,0.03233626,0.025380068,-0.059576515,-0.04138384,-0.07750875,0.016914826,-0.10062473,-0.062229697,-0.0066181114,-0.011452387,-0.013315646,-0.0674062,-0.06454279,-0.078950815,-0.013963231,-0.04822185,-0.07037972,-0.12447489,0.035306685,-0.066443495,0.06415994,0.050702997,-0.0773537,-0.00029915656,0.025868017,-0.06892171,0.03443049,0.08159716,0.060849708,-0.09341456,-0.0134402625,-0.038150854,0.0009813502,0.11221314,0.12622166,-0.007190975,-0.047088597,-0.03616169,-0.009478026,0.008503028,-0.017181233,-0.054759577,-0.008484426,-0.08154426,0.029937588,-0.06582561,0.12265238,-0.03685743,-0.032657072,-0.011354706,0.31585845,0.29985654,0.04686613,-0.06527446,0.22606051,-0.08256633,0.22809024,0.37550262,-0.027946377,-0.18644838,-0.19528279,0.028486429,0.0899551,-0.039443426,-0.020641396,0.008905327,-0.038013484,-0.009420947,0.013955534,0.11703204,-0.07749306,-0.120992064,0.0114011625,-0.05134156,-0.17178796,-0.09199638,-0.013306268,-0.20216745,-0.18566519,-0.08035887,0.06518491,0.010943439,-0.007944628,0.055460412,0.012418211,0.014223352,0.072149545,0.002675809,0.029314397,-0.018091654,-0.06982466,0.08468866,-0.1500396,-0.0002751731,-0.03815936,0.08879272,0.17081489,-0.049058225,-0.002228068,0.0857444,0.089377746,-0.060766365,0.013681598,0.03901575,-0.11983433,-0.03501135,0.047363658,-0.041939795,0.0036379327,-0.013586515,-0.05071454,0.049902376,0.057866264,-0.0009389981,-0.08651999,0.0034586156,-0.14136875,-0.11700321,-0.015691662,-0.007136145,-0.0028516592,0.052447606,0.19285679,0.17686583,0.0939692,0.025353966,0.05101683,-0.039799184,-0.04986767,-0.113185756,-0.025452254,-0.042413484,-0.03657964,0.039055925,0.08888659,0.102051936,-0.09890686,0.12540425,0.10208494,0.0010020407,-0.12422306,-0.12630135,0.041069888,0.00021775886,-0.010648004,-0.010471207,-0.001243886,0.0023707284,-0.0066745016,-0.0079294825,-0.006494131,-0.00029689624,0.0076264446,0.013937409,0.08202532,0.018972708,0.13524418,0.116517626,0.01867013,0.009922892,0.07083502,0.04374547,0.036426105,0.01204025,-0.022469312,0.005897007,-0.03496651,-0.014334921,0.039025705,0.041454364,0.024156911,0.09366784,0.06687769,0.002195915,0.023035293,0.027236126,0.03211463,0.06794244,-0.0013028928,0.000716066,0.05219172,0.010089909,0.008549605,-0.017903093,0.040451936,0.005804432,0.0041308864,-0.020861778,-0.03016903,-0.006389253,-0.00015820416,-0.0051374873,-0.0029419372,0.009613943,0.04701949,0.034138743,0.033107687,-0.009931171,0.1530909,0.001045613,0.017052539,-0.067379184,0.021744676,-0.01839254,-0.023895845,-0.04933117,0.056302447,-0.16056435,0.008831984,-0.03198088,-0.04600228,-0.04299918,0.025360493,-0.05743859,0.015431392,-0.0458204,-0.02993272,0.030591955,-0.054280076,-0.095272236,-0.06593574,-0.039558664,-0.011372015,-0.031449493,0.020929506,-0.089434154,-0.029412406,0.030096725,-0.14823481,-0.014631482,0.027840514,0.010192679,0.047767486,-0.01732077,-0.008090595,-0.008464573,-0.06507943,-0.20223552,-0.02655563,0.017832374,0.008581012,-0.09165332,-0.013701398,0.018258102,0.06195705,-0.090815835,-0.071493834,0.030597096,-0.039190486,-0.0621572,-0.022893967,-0.04872747,-0.027022013,-0.019388005,0.0120743485,0.011320484,0.033452444,-0.0029769074,0.0010591843,0.009798055,-0.108248234,-0.05380398,0.02230984,-0.056205057,0.013716118,0.045111936,-0.051592007,-0.021270066,0.02215756,0.036362592,0.01788365,0.012641751,-0.025894603,-0.056834005,-0.032795638,0.018292762,-0.026272323,0.032098822,0.011358189,0.0421134,0.0007903629,0.004237624,0.005573625,-0.07549914,-0.025524026,-0.01888134,-0.031714033,-0.077729106,-0.030340174,-0.052543532,0.058086734,0.10012165,0.30101877,0.12610804,0.01662938,-0.049997013,-0.068650156,-0.1730765,-0.14695008,0.0035795916,0.40205446,0.08889424,-0.020490246,-0.019051028,-0.11804821,-0.10753575,-0.08561151,-0.042099815,-0.3307285,0.10313684,-0.051303387,-0.32901856,-0.0023001246,-0.040596087,-0.11104162,0.25590977,0.2421662,-0.08855252,-0.17201835,-0.17461577,-0.047774002,0.16596614,0.044421367,0.016294809,-0.030894818,-0.105166785,0.10278938,0.051583853,-0.4517212,-0.009418889,0.12176891,-0.14762148,0.044942237,0.1272377,-0.07537012,-0.03623284,-0.1305303,-0.15972857,0.07356287,0.080600224,0.06674226,0.03214827,-0.13130589,-0.17585695,-0.021692075,-0.06705845,0.00064491783,0.012429625,0.040213678,-0.06262401,0.033626806,0.14150093,-0.031040419,0.17491245,-0.11823762,-0.020203508,0.030595014,0.06577874,-0.1740436,-0.13583592,-0.01824092,0.0065215034,-0.106454365,0.058009796,0.15697636,-0.15354075,-0.19766264,-0.07402667,0.074762546,-0.07876046,0.059159722,0.2441862,-0.3414995,-0.08514236,0.067612074,-0.1959229,0.079685226,-0.21662399,0.04610524,0.066693164,0.17986465,0.11964737,0.029036742,-0.0736829,0.09518916,0.057129987,-0.18292214,-0.18886934,-0.07587808,0.30741936,0.4607958,0.41865185,0.08815696,-0.01055526,0.033839718,-0.04953944,-0.045006663,-0.23688993,-0.04884896,0.30468875,0.31067654,-0.33723825,0.036224034,0.11380927,0.054294176,-0.071390875,-0.009035157,0.07313503,0.07430751,0.26329008,-0.22757073,-0.25756308,-0.06881244,0.028950186,0.028358977,0.065398,-0.11854493,-0.0820106,-0.06162383,0.04754158,0.07085049,0.09534647,-0.07771486,0.14677054,0.00026271984,-0.1003249,0.16771758,-5.2875388e-05,-0.057102483,-0.034999344,0.014878948,0.00043623525,0.034721367,0.08175343,-0.05830185,-0.062399752,0.14120233,-0.09113966,-0.18772505,0.01738647,-0.014701898,0.022059355,-0.0011960781,0.058718186,-0.000694692,0.0059103295,-0.010185119,-0.10633341,-0.06396665,-0.06057697,-0.021006497,0.008360703,0.09819599,-0.00053637306,0.038026202,0.06325872,-0.067043655,-0.056066994,0.0830755,0.05444808,0.0060589504,-0.0640402,-0.05799007,-0.17359553,-0.13614883,-0.07443255,-0.26226944,-0.04683178,-0.0543149,-0.0010591579,-0.012446633,-0.11569499,-0.110247694,-0.03764183,-0.09478256,0.011399255,-0.073995076,-0.07699626,-0.027580773,-0.04220839,-0.009390725,0.00014573016,-0.036920384,0.030632969,0.10154176,-0.06987069,0.0688459,0.0015764654,-0.16862294,-0.022538694,-0.13990279,-0.012866996,0.08149464,0.016746417,0.048449744,0.0037637136,0.19224113,-0.122058384,-0.140042,0.028654058,-0.16327658,-0.14741094,-0.03981221,0.07135689,0.03738904,-0.018222542,-0.0073959995,0.019362895,-0.07110081,0.15906474,0.23580399,0.09140931,-0.13186915,-0.10998696,-0.035518087,-0.25770423,-0.08349523,0.055863153,-0.22590812,-0.02028024,0.057538982,0.21504574,0.11097517,0.08522616,0.08919094,-0.027950242,-0.064142056,0.08714934,-0.048628137,-0.1316322,0.0011869908,0.12902324,0.064267665,-0.057349876,0.22681536,0.030856865,0.052782577,0.29903266,0.11905034,-0.086904496,-0.07235851,-0.13383608,0.020190267,0.040792707,-0.074362,0.010986411,0.072201096,-0.0564218,-0.033857662,-0.021183996,-0.14184593,-0.037682332,0.04683886,-0.105510406,0.051350817,0.08099067,-0.03919012,-0.06034599,-0.013685103,0.0149326455,-0.033646557,-0.00462034,0.009968645,-0.022135789,-0.03234599,-0.08226253,0.015408041,0.016993618,-0.00031606044,0.08188909,0.13422905,0.054902855,-0.10552469,-0.029988032,-0.13326666
