0.5396831,0.41720733,-0.5257056,0.19318323,-0.37016723,-0.083260685,0.09386644,0.3113019,0.37427557,0.2166605,0.24278326,-0.024374392,-0.14996907,0.80674237,-0.06794253,0.5006716,-0.53871244,0.13309312,0.12861988,0.17538002,-0.11338725,-0.5668814,0.65992665,0.9628704,0.0907886,0.25659728,-0.2633566,1.0343441,0.34581417,-0.81560826,1.5419956,-1.0637946,0.112135455,0.45495844,0.7643417,0.20868486,-0.22461027,-0.58313704,0.9099121,0.7990026,0.123313636,-0.60320276,-0.044640232,0.30846527,0.5378413,-0.8537611,0.38750428,-0.06483434,0.37298876,0.013492346,0.83274937,0.2573543,-0.20504542,0.26655102,0.15592492,-0.092870325,-0.2588908,0.6107759,-0.15228151,-0.30334654,0.04820814,-0.44871587,0.1649917,-0.6456145,-0.33104646,-0.14772245,-0.060600966,-0.7201482,0.14996877,0.6563073,0.65900433,-0.20370206,-0.16612971,-0.39411795,0.27639946,-0.35247034,-0.0034330226,0.2100034,-0.6349349,-0.50409,-0.8720007,0.22506365,-0.58488125,0.06707145,0.045960836,0.4001621,-0.13538362,-0.042210117,-0.8585532,-0.496159,-0.0068066837,-0.32610238,-0.09157243,-0.13047683,-0.16069654,0.68878925,-0.19073536,-0.66027,-0.012353152,0.29325056,0.23249455,0.5332767,0.6151657,-0.18848668,0.23104241,0.0151141435,0.5845675,-0.60909,-0.01999235,-0.3485693,0.10117838,0.49225366,0.12920952,-0.15428177,0.26756293,-0.22908118,-0.2715556,0.057564475,-6.84843e-40,-0.49167,0.10196329,0.12809065,-0.018340336,0.5281693,0.2121822,0.3762627,0.06448454,0.2951
