-0.010137222,-0.009116203,0.060259975,-0.14070219,-0.14178696,-0.032088324,-0.0066027273,-0.18083863,-0.110933706,0.09623815,0.016339397,0.06861426,-0.24504821,-0.0687453,-0.020642739,-0.03497129,0.009004484,0.010770344,0.028840926,0.050561737,0.113228865,0.063454665,0.16311875,0.17880698,-0.017699143,-0.08629288,-0.13608055,-0.016810251,-0.09130861,-0.030050877,-0.1997819,-0.028306318,-0.030449802,-0.15367253,-0.034192022,-0.056193735,-0.09004377,-0.07585793,0.05886727,-0.18151526,-0.09831784,-0.07888877,-0.08215062,-0.090541594,-0.08384286,-0.076900825,0.13454916,0.10789635,-0.09291254,0.0029428126,-0.008188485,0.033329617,0.062432338,0.0071186204,0.16085504,0.061760884,-0.07538039,0.32029217,0.1742933,-0.15458566,0.088777676,0.008086572,-0.005692575,-0.046616282,0.10049255,-0.059674192,-0.09185741,0.054591324,-0.0917048,-0.05397982,-0.03707973,-0.20319302,-0.024497861,0.08897634,0.019913405,-0.10212697,0.063534155,0.19353077,0.016197897,0.09747449,0.08393949,0.0369706,0.03364444,0.08241509,-0.22054715,-0.1176014,0.19654448,-0.027860189,0.23499121,0.31020194,-0.09350222,-0.10520299,0.013735417,-0.03369487,-0.005251587,0.05700207,-0.07239011,-0.018434165,-0.033663467,0.07585439,-0.041680176,0.07152583,-0.018788325,-0.08909739,0.100233495,-0.022425724,-0.118473135,-0.014400018,-0.052463356,-0.043934133,-0.02773421,0.04513753,-0.013454601,-0.0588845,-0.021517627,-0.086091995,-0.13158198,-0.1821878,-0.068203874,-0.034697056,-0.1340819,0.07629506,0.074176885,-0.057473335,0.09836021,-0.09978088,-0.010344084,0.040626444,0.09923744,-0.014727409,0.03260209,0.07955026,-0.104959056,-0.069577836,-0.006921943,0.08996227,-0.012989126,-0.03800998,-0.061868943,-0.07602159,-0.18384543,0.011429175,-0.039183713,-0.15176806,0.089615665,-0.11651907,-0.03942882,-0.038974177,0.003615784,-0.08284573,-0.020383583,0.064513214,0.027170848,0.0892168,0.107852615,0.08611546,-0.052976772,0.011167903,0.031905986,-0.12680157,-0.054097544,0.053384304,0.08582106,-0.1940048,0.0061649317,0.07709997,0.033243444,0.046931796,0.055893723,-0.021822328,0.05424142,-0.005046044,0.08733033,0.06584677,-0.002547406,0.06521839,-0.018522648,0.037378237,0.042300135,0.029145988,0.0075116423,0.067619726,-0.031909417,0.051584538,0.13322912,0.15110835,0.022421475,0.0849341,0.16766267,0.015144547,0.017458199,-0.14337999,0.034908514,-0.03080427,-0.1517345,-0.117219955,0.0454635,-0.12070504,-0.08290373,-0.020548241,0.13595706,-0.019456564,-0.09610767,-0.02752655,-0.03607108,-0.10415953,-0.021892762,-0.02995784,0.0136029115,-0.039363053,0.069195785,0.054674894,0.0069340146,0.15684067,0.117358245,0.050936807,0.049384993,0.10837891,0.18451922,-0.010178633,-0.12370773,0.009581882,-0.00025344893,-0.09239094,-0.08706352,0.07412225,0.06875906,0.030346844,-0.0026798185,0.10593011,-0.022404367,-0.040767,-0.044137634,-0.26063064,0.04178891,-0.003467256,0.061453205,0.040953908,0.08128157,0.0953337,-0.0023650408,-0.07087819,0.013948477,-0.25384814,0.002112301,0.119678944,-0.22515893,0.18961848,0.14410196,-0.12620512,0.06283227,0.17013639,0.010572473,0.00435785,-0.0020037165,-0.009805408,-0.09080157,-0.10304922,-0.0059749237,-0.09938055,-0.12954573,0.018990573,0.061423637,-0.12249009,0.005686567,0.008378899,-0.20419902,-0.08729625,-0.07687897,-0.11884171,-0.077118486,0.18041633,0.12824526,0.057691734,0.34519988,0.3100406,-0.15680547,0.11749831,0.08456444,0.0018738509,-0.05129534,0.014590504,-0.18325128,-0.35210752,-0.13881645,-0.07546903,-0.14559147,0.04339222,0.06307793,0.236417,0.38754436,0.15312417,0.0063849143,-0.2231004,-0.038985457,-0.3759846,-0.24414378,-0.07198111,-0.3636353,-0.2956584,0.18537255,0.1573932,0.31516957,0.10411226,0.04479793,-0.024465011,0.012795574,0.0701198,0.13975887,-0.03571918,0.3820193,0.3484414,-0.04352337,-0.12866876,-0.18658166,-0.0024369315,0.1253883,-0.051806957,-0.11166624,0.039925367,-0.038040847,-0.12277909,0.12384282,0.059441146,-0.024137674,-0.28542244,-0.047452286,0.13502541,0.09035054,0.20378509,0.056744564,0.15116444,0.18599609,0.0076293955,0.014647412,0.053480025,0.1806518,0.5246883,0.3730187,-0.060236007,-0.40246305,-0.5875705,0.18602724,0.13417406,-0.051235512,-0.21763538,-0.6051205,-0.17031333,0.05591167,0.17833371,0.012177904,0.19354194,-0.029546453,-0.01107022,-0.04876365,0.11908732,0.18922006,-0.019978356,0.1827311,0.17019963,-0.034157638,0.017388333,-0.19176409,-0.18203019,-0.10118756,-0.15358327,0.1432945,0.032700293,-0.01820367,-0.09058002,-0.10299494,0.16493022,0.014129155,0.23500927,0.027597284,-0.10006934,-0.1372058,-0.12812017,-0.144971,-0.09652418,0.028494623,0.04001452,0.08090643,-0.09490436,-0.09810852,-0.09736735,0.09373419,-0.18915786,-0.1026035,0.05891571,0.12497377,0.06667007,-0.09373869,-0.034913912,-0.09799458,0.07600825,-0.11876331,-0.35009998,-0.6495407,0.04257362,0.279307,0.28557044,-0.04977749,0.3220578,0.25463638,-0.24517433,-0.13879196,0.07673017,0.20022725,-0.087300114,0.025912419,0.057414096,-0.08651344,0.060613215,0.027556902,-0.051546056,0.020827994,0.12849705,-0.006462196,0.1688164,-0.37802815,-0.33314282,-0.25594497,0.08178712,0.27648094,0.04880469,-0.057790913,0.061059084,0.005010033,0.10086364,0.07229177,0.018272894,-0.0768303,-0.13377975,-0.057838634,-0.0937663,-0.16555469,-0.025567595,-0.006591779,-0.077616796,0.013298876,-0.03634029,-0.0047244644,-0.09049682,0.08185494,0.17998117,0.03894603,0.009206535,0.15023626,0.09004094,0.012360475,-0.046955682,-0.09111133,-0.011829741,-0.04664583,-0.012875264,-0.0035731,-0.008524914,0.00634911,0.11075552,0.046449933,0.008378915,0.1327485,0.025196167,0.14373524,0.14436536,0.16551964,0.23714565,-0.0006759887,-0.02313784,0.09632687,-0.17463496,-0.16459544,-0.06415903,-0.17111138,-0.25976273,-0.16211934,0.035277434,-0.014543623,-0.0041155894,-0.088789254,-0.16209301,0.032025058,-0.120737135,-0.18601857,-0.010162883,0.07782183,0.013103051,0.094881006,-0.024091199,0.03283527,0.10360836,-0.065236874,-0.09850413,-0.12331499,-0.0774259,-0.09395673,-0.0881833,-0.04394381,-0.048113126,-0.11227656,-0.0063689523,-0.03749612,-0.032242633,0.023290502,-0.07972211,-0.02112157,-0.019380664,0.060237974,-0.062071085,-0.10578012,0.011909037,-0.035935186,0.04560132,0.100281335,0.0046404004,-0.010446612,-0.07576743,-0.020494917,0.068523,-0.016263088,0.011209081,0.019884408,0.037952602,0.058036063,-0.01065976,-0.1574638,0.016476115,0.077110074,-0.06780664,0.04694555,0.031826455,0.036243647,0.03413681,0.0055695996,-0.042731896,0.13252197,-0.0027487935,0.07830577,0.057397023,0.1371271,0.12984882,0.13339612,0.06830993,0.12315349,0.27535504,-0.061324876,0.0049083657,0.10045073,0.025384758,0.01820822,0.075691834,-0.007689924,-0.06275478,-0.0057222997,-0.0034981028,-0.11232064,-0.048907746,0.023569759,-0.054920286,0.019914206,-0.08474265,-0.15861231,-0.037430745,-0.13254039,-0.20089947,-0.016717404,-0.14889416,-0.1699143,-0.012888667,-0.027839903,-0.04775892,-0.05165555,0.10217215,0.099087015,0.075220175,0.20336896,-0.19805603,-0.12773454,-0.29089114,0.08612096,-0.015407424,-0.20496657,0.2821315,0.13453092,-0.26704195,0.024074841,-0.06800538,-0.183175,-0.050011765,0.1130427,0.059873734,-0.17509201,-0.048057888,-0.06366984,-0.03691309,0.07149486,0.14831747,-0.15824749,-0.024173487,-0.021754485,0.00075246,0.024718154,-0.25245115,-0.08029182,-0.079331845,-0.30791998,-0.43555936,-0.11865265,-0.25687185,-0.18872817,0.045641236,-0.14682893,-0.23010142,-0.021405462,0.10982252,-0.53733504,-0.2472046,0.16896135,-0.14526203,-0.21302176,-0.051898494,-0.22325869,0.025963683,0.24434555,0.05885458,-0.09197298,0.1424289,0.042197302,-0.13084857,-0.29803726,-0.09360443,-0.0009302742,0.21974972,0.09178926,-0.029398069,-0.28746292,0.0636111,-0.23786695,0.17323415,0.024167547,-0.15238094,0.15772948,0.03525723,-0.027385017,0.23164378,-0.15492715,-0.09794988,-0.63570637,0.12392047,-0.094365396,-0.22689348,0.16527653,-0.116271734,0.021907458,0.13655123,0.05145236,-0.20037214,0.1544823,0.06625248,-0.040835988,0.28305566,0.14973143,-0.23880108,0.045673423,0.25282422,-0.3847276,0.12465102,-0.28652075,-0.6197642,0.0880678,-0.08039664,-0.27931014,-0.016447676,-0.12506932,-0.032329306,0.1678472,-0.03541049,-0.47633123,0.091903545,-0.08520432,0.044855654,-0.10215208,-0.10781231,-0.08669653,-0.061092384,0.124636225,0.013502539,-0.38865662,0.1187542,0.07058322,-0.14228895,0.047777276,-0.16160432,0.2179346,-0.10659174,-0.17689064,0.3281488,-0.1616999,0.17022067,0.162544,-0.017197177,0.11822585,-0.14758648,-0.14850906,0.0013361747,-0.29689747,-0.33260208,0.1930558,-0.046885293,-0.09324557,0.1534189,-0.03677641,0.04108722,0.048379783,-0.017072316,0.1622259,0.10307165,-0.18138869,0.020988775,0.07672094,0.121689186,-0.31868705,0.32595807,-0.22289832,-0.40503162,0.049881004,-0.17511573,0.06790261,-0.19242622,0.05603066,0.29671997,-0.16612752,0.24987122,0.22866964,-0.07419946,-0.03851236,-0.1518442,-0.13578191,-0.0015227897,0.08461717,-0.026036046,-0.072667964,-0.12782507,0.13121387,-0.10495188,-0.011518077,0.035846286,0.15597229,0.1501763,0.060862426,0.43539435,0.2991695,0.003959425,0.24847944,0.27164018,0.030671407,0.006970611,-0.1927992,0.18214111,0.14972833,-0.21492332,0.17199333,0.016996318,-0.05744764,-0.0666114,0.028689465,-0.07668156,0.078766935,-0.08476653,-0.2343983,0.18755604,-0.39961153,-0.2631453,0.088992134,0.016792431,-0.23834603,0.008269381,-0.017715968,-0.17601286,0.06939252,-0.08208663,-0.025067925,0.01851051,-0.001901835,0.022456756,-0.17064212,-0.10227148,-0.108271524,-0.15803285,0.04250559,-0.027955081,0.03460755,-0.19985509,-0.017938111,0.010264906,0.07626454,0.39490953,-0.14294419,0.1423037,0.2398808,0.034549426,-0.04970124,-0.07167428,0.12935865,-0.038805757,-0.12375035,-0.14157477,-0.15724294,0.1871728,-0.070920914,-0.047440115,0.00791298,-0.07787911,-0.07668364,0.12677805,-0.15141618,0.03958836,0.18892783,0.21000738,-0.11653487,-0.0050273514,0.23457171,-0.48247036,0.10108766,-0.16988267,-0.3172571,0.2483547,-0.18453142,0.18314411,0.15566528,0.020994658,0.2812738,0.25786793,-0.04833157,0.22383106,0.080385424,-0.020622509,0.004702275,-0.13735518,-0.07693785,-0.10308977,-0.07088183,-0.06838994,-0.20028405,-0.05748749,-0.098292336,-0.106534414,-0.38376865,0.03765726,0.04591429,-0.22352067,0.13809685,0.105302446,0.04907438,0.16835386,-0.023373978,0.040843528,0.069530405,0.028100044,0.029532846,-0.07018709,0.027830524,0.011208173,0.085689716,0.0078674,0.10243223,0.071171395,0.118744135,0.0642483,0.026014602,0.04433497,0.0030113074,-0.036355264,0.07296339,0.019701574,-0.08331593,-0.052355923,0.12850311,0.093499534,-0.027505783,-0.04019771,-0.082095385,0.0041521564,-0.007434341,0.113102995,0.07467782,0.17851214,-0.020755095,0.0044778,0.03647846,0.073761836,-0.054369196,0.007925448,-0.09404808,-0.09427062,0.018668445,-0.0963211,-0.02206746,-0.006479512,0.085527584,-0.015900487,-0.0041524475,0.07681816,-0.15848142,-0.11920885,0.1429011,-0.06391318,-0.069830164,0.042192563,-0.009226756,0.010856513,-0.009199045,-0.204001,-0.16732036,0.10103763,0.010405791,-0.11042698,-0.007201645,0.02517548,-0.058709603,0.25839278,0.1773159,-0.08603626,-0.022820337,0.0014157408,0.056062873,0.053902354,-0.023238858,0.023502067,-0.02692966,-0.13889262,-0.092765175,0.019125093,-0.12075974,-0.14134029,-0.019601095,0.12142756,-0.057403237,-0.029005328,0.0145388525,-0.07206483,0.031971674,-0.027567757,0.0016608004,0.01331471,0.08041958,0.0074435244,-0.09643512,-0.20195854,-0.14994037,-0.2617931,-0.22819518,-0.25069404,-0.13031395,-0.09936296,-0.058989976,-0.09478395,-0.055947114,-0.060942523,-0.008809157,0.040004414,-0.002876552,0.087774165,0.035781316,0.024851993,-0.10542457,0.02569143,0.016898712,-0.18286707,-0.015986957,0.049563278,0.018680958,0.097652376,0.0413423,0.002368928,-0.20009087,-0.11235772,0.13674127,-0.092089854,-0.16562973,0.011450648,-0.10076338,-0.017381318,-0.09212185,-0.16881287,-0.0515567,-0.010837756,-0.053209763,-0.039486747,0.1044066,0.096173376,0.12899181,0.085214525,0.10565933,0.16897403,0.036392137,0.08646617,0.19556023,-0.096520245,0.04641154,-0.14036809,0.14745674,0.5240423,0.17374909,0.0008409952,0.13823228,0.0021468538,0.026237885,0.2102445,-0.011490573,0.3256466,-1.3578224,0.8032355,0.06038061,0.08365615,0.19978522,0.032721564,-0.10534175,0.36363935,-0.06973952,0.6519329,-1.2466155,-0.0099203205,0.093692236,0.19537678,-0.1579664,0.11973253,-0.15462244,-0.102379836,0.11344532,0.1444279,-0.04966652,0.060460117,-0.05481553,-0.064754464,-0.10171378,0.092800744,-0.094225876,-0.09305532,0.055731703,-0.041349832,-0.2573799,-0.116504505,-0.14849557,-0.0040016905,-0.096530564,-0.018056463,0.3814897,-0.3575389,0.13187985,-0.14548922,0.14902796,-0.13134986,-0.121935315,-0.07116363,0.008530906,0.3354474,-0.24660961,-0.042724844,-0.8908401,0.5093084,0.13714978,0.0034007134,0.09659693,-0.010002615,0.04581765,0.20040874,0.028479226,-0.104267396,-0.010636498,0.060363032,-0.044234548,-0.033611383,-0.23826179,-0.32215953,-0.319133,-0.14141923,-0.04512788,-0.03754485,0.16657518,-0.67342776,0.16412105,-0.19531646,0.2820357,0.049236365,-0.04965631,-0.12393091,-0.18859175,-0.10581849,-0.020149577,0.027638525,0.043267757,-0.16689412,0.30259806,-0.08118402,0.30146286,-0.2275645,0.12060899,-0.15673696,-0.12381795,0.1845619,-0.06388835,0.12301764,-0.3466993,0.056926858,-0.27735758,0.21818024,0.11292458,0.0013865858,0.27285123,-0.897308,0.07437845,-0.17596947,0.8124378,-0.1568374,0.091568455,-0.124685146,-0.005021408,0.05654735,0.5341875,-0.5969218,-0.035939652,0.0654866,-0.22853954,-0.10126401,0.07510709,-0.02023766,0.05696395,-0.020856217,-0.13353999,-0.08552116,0.045793228,0.0013752668,-0.13932088,-0.35945806,-0.20661525,0.1641862,-0.013174361,0.05467058,0.22732483,0.083470255,0.10647202,0.00044544062,-0.08734887,0.027988967,-0.07135325,-0.37981936,-0.086161554,0.15243055,0.14714621,0.026610153,-0.10361852,-0.14154212,-0.016399262,-0.05572215,-0.0129662035,-0.04667114,-0.0116916,0.057370953,0.0649497,0.085262515,0.012138898,-0.0072825137,-0.026746504,-0.13650219,-0.11274176,-0.051690396,-0.07904746,-0.042048734,-0.0066205403,0.02322831,0.1226963,0.020148931,0.017530423,0.04949895,0.14043142,0.11452487,0.12956914,-0.009998369,0.010713135,-0.006534725,-0.053575635,-0.1021304,-0.0019327953,0.046886873,0.06373512,0.016782237,0.015199461,0.08286277,0.079956196,0.022729898,0.15162815,0.042454317,-0.06520245,-0.016468903,0.014596938,-0.041339166,0.07524753,-0.020768581,-0.05815648,-0.11160941,-0.082462765,0.022940299,-0.061967537,-0.06407893,-0.0003254136,-0.033887766,0.026469342,-0.09367061,-0.07654109,-0.08435986,0.12487985,0.0907661,0.055049427,-0.024578115,0.05247419,0.04148605,0.035153147,0.04093814,0.06642751,0.116592824,0.15576942,0.12708107,0.009734307,0.09170691,0.09743071,0.023309696,0.025136001,0.028644096,0.018267574,0.037096426,0.06182364,0.0050113853,0.013790954,-0.06917465,0.003569749,-0.019646538,-0.08236293,0.03258026,0.043730356,-0.0043370696,0.0754484,0.137019,0.05700935,-0.005579946,0.011887891,-0.04829798,-0.010598384,0.027132263,0.0033754688,0.06195304,0.018125173,0.00014208745,0.035233714,0.03025159,-0.013952991,-0.111801535,-0.22288547,-0.08767183,0.030909348,0.11974648,0.123104244,-0.007836754,0.028377727,0.15847895,0.011221789,-0.053206302,0.029024249,-0.014498752,0.105351865,0.005636349,0.06453833,0.05913518,0.048984356,0.04089966,-0.040687688,-0.08804806,-0.09125049,0.15343533,0.09622778,0.016406158,0.23168287,0.16537407,-0.021831553,0.17181991,0.10503559,-0.06691055,-0.04350515,0.008755244,-0.05594508,-0.011853473,0.029323822,-0.093414225,0.041445386,0.0147852395,-0.009625889,-0.27644974,0.059671313,0.23335849,-0.039531466,-0.1541742,-0.02557419,0.15287112,0.051512603,0.13391358,-0.08086651,-0.62217057,-0.018857168,-0.011805691,0.08382673,-0.15309858,-0.09507919,0.2482765,0.08937894,0.11705155,0.10070109,0.015348287,-0.10818553,-0.05390891,0.027750252,0.09691387,0.04763289,0.04181377,-0.14680721,-0.14991754,-0.031789213,-0.39473698,-0.21787027,0.0346099,-0.071667254,-0.13358451,-0.12539838,-0.118567675,-0.11059512,-0.15951866,-0.25225163,-0.060454056,-0.24045038,-0.0749936,-0.009876518,0.00045565845,-0.17852373,-0.021400416,-0.047775127,-0.19939369,-0.18214536,-0.088996105,-0.24744971,-0.39617628,-0.30920157,-0.077412635,0.13085133,0.010233593,0.17857558,0.16075642,-0.20265713,-0.17490447,-0.06898107,0.11443913,0.03617162,-0.05867023,0.08895836,-0.011041869,0.054593313,0.1086548,-0.036240473,0.16009678,-0.13963616,0.32159373,-0.3135853,-0.014299814,0.5941152,-0.029114515,-0.09752529,0.02003167,0.09360007,0.0046843705,-0.11411494,0.05688098,0.013049065,-0.068272285,0.3927708,0.18031278,-0.21534716,0.09052945,-0.20556104,0.14625677,-0.4622911,-0.20109454,0.22697611,-0.26676804,-0.20543236,-0.14081131,-0.31700996,-0.038111527,0.19030192,-0.037443023,0.013526579,0.4451832,0.16816644,-0.08402308,0.07303767,-0.019089881,-0.06291484,0.21385899,-0.010562721,-0.03376046,-0.15426858,0.046852656,0.04233372,-0.09521077,0.16651742,-0.16973853,-0.34603736,0.018137434,-0.2076441,-0.21622856,0.30448613,-0.029771201,-0.040151507,0.079660706,0.009663985,-0.16540968,-0.18550915,-0.1322908,-0.3332753,-0.2983609,0.14830346,0.024537656,0.08013907,0.03237549,0.08147988,0.09362386,0.26923567,0.14758758,-0.23749366,-0.08063168,0.020592488,-0.04791751,0.26962164,-0.454057,-0.30163124,0.41261116,0.2014688,-0.0085133305,0.026472477,-0.053836774,-0.03134059,-0.04053991,0.28431416,0.107752904,-0.024647588,0.27010435,0.02278811,-0.0933353,0.09381229,-0.109403014,-0.044829126,-0.10950249,-0.025397412,-0.060913876,-0.19784306,-0.23141447,-0.15634777,-0.19169413,-0.16378394,0.17794333,-0.1827756,-0.022897122,-0.024465084,-0.034602832,0.09662954,-0.08584396,0.04906074,0.07527529,0.19249375,0.2602252,0.2690592,-0.042855483,-0.089055344,0.12605391,0.2163107,0.09000789,0.21203573,-0.05995169,0.12114491,0.14500426,0.028327368,-0.29019597,-0.17530973,0.24090613,-0.20931406,0.0030735482,-0.07956313,-0.08158104,0.05689718,-0.005131671,0.15303634,0.085851215,-0.29421154,0.034865312,0.094562106,-0.016073603,-0.020105872,-0.19783947,0.046297994,0.18552302,0.079211056,0.088443056,0.17138088,0.16861303,-0.045177836,0.6281541,0.14415343,-0.08002267,0.43455103,0.2193013,-0.058706567,0.14212993,0.07365933,-0.09878074,0.07203878,-0.1557628,-0.14741726,-0.14881842,-0.005190044,-0.069800645,-0.08728136,-0.12905735,0.025152164,0.16381232,0.04181456,0.0086188745,0.1294947,0.119110234,0.06373025,0.26366764,0.15102606,0.23841637,0.17861134,0.0059658214,-0.19919235,0.32183602,0.20010555,-0.25028127,0.071497776,0.012310521,-0.123799935,0.10202936,0.18854612,-0.24074261,-0.05673491,-0.040134713,-0.052413303,0.09697751,-0.08346007,0.15769814,0.1534622,0.071052566,0.2596715,0.38424507,0.2212393,-0.0223715,0.15977345,0.10055696,0.18027064,0.07122563,-0.020286942,0.14433953,0.11810249,-0.11480229,0.07435254,-0.01894283,-0.22227679,0.10149304,-0.1988785,0.05067692,0.2582101,-0.1322727,-0.07011594,0.06958329,-0.13411602,-0.020130837,-0.0012051107,0.103518024,0.047268234,-0.08185992,-0.6284668,-0.07612919,-0.018688349,0.19188492,0.15933824,0.10945278,-0.10701162,0.12556764,0.12309243,0.25421965,-0.16966645,-0.14433682,-0.08854806,0.1649058,0.098589174,0.0881814,-0.089378394,0.1400118,0.11732079,0.15440392,0.26403803,0.26077902,0.21713309,-0.1445485,-0.051765632,-0.10250242,0.12276081,-0.24964324,-0.29835016,-0.036566954,0.0037544132,-0.013167641,-0.18887936,-0.15250772,-0.045296233,0.017357962,-0.031417876,-0.011638159,-0.17559104,-0.16318704,-0.2646561,-0.02942047,-0.12889637,0.10930939,-0.053291943,0.29357377,0.2714738,-0.22628021,-0.46733478,0.055611834,0.3384956,0.09235725,-0.22164056,-0.30486512,-0.14930609,-0.02262092,0.10191366,0.34549522,-0.058965396,-0.032913942,0.010373947,0.036208767,-0.15987313,0.0017359602,0.04745448,-0.014940726,0.12730744,0.06578603,-0.0702272,-0.038522903,0.27897683,0.0042633633,-0.057483405,0.05666853,-0.031221991,-0.019194309,-0.078245915,0.09466795,0.13862754,0.11925101,-0.03904495,-0.028889459,-0.09303265,-0.04034072,-0.023007352,-0.23605312,-0.036021903,-0.22936541,0.09301768,0.15135565,0.027061587,0.20148893,-0.158011,-0.10178683,-0.0829203,-0.16210145,-0.11331905,0.012836346,0.036224794,-0.3494211,-0.029324934,-0.005767308,0.121731244,0.27539253,0.12905942,-0.042645823,0.094665825,0.2763299,0.24987549,-0.14822331,0.034052223,0.0038542184,-0.06572836,0.06545281,-0.03699244,0.021973787,-0.039535265,0.09359465,0.09594611,-0.058594793,-0.13960423,0.026588794,-0.54775393,-0.20693895,-0.41421926,-0.118245766,0.22968927,0.21749364,-0.41374388,0.029299075,-0.0026466504,0.032967113,-0.06865732,-0.013381833,-0.08158031,-0.29153273,-0.14285839,0.11604688,-0.11118322,-0.12706503,-0.04160094,-0.10645001,0.1493087,-0.28752476,0.107799724,0.24067575,-0.046773814,0.19944063,0.13925336,-0.00072257064,-0.15736572,-0.19493048,0.06363622,-0.30165684,-0.11775994,0.024598327,0.040046215,-0.0612214,-0.026732108,-0.04313046,0.015460809,0.06617654,0.23969407,0.2498399,-0.08545667,0.18723732,0.17173377,0.006900037,0.12377571,0.13859968,0.1574634,0.35018978,0.3896563,0.06401502,0.4056717,0.31770205,0.13045216,-0.14822732,-0.0043946393,-0.11590555,-0.40839344,0.004031342,-0.06335685,-0.07244571,0.060023006,0.1062683,-0.102821864,-0.16672409,0.010852223,-0.07470219,0.020126475,0.007342383,0.27968967,-0.018324465,-0.08468905,0.012221072,-0.029645462,0.13275315,0.20942141,0.2173654,-0.16815728,-0.09569664,0.018048199,-0.025764497,0.17412442,0.10445361,0.038843505,0.17937309,0.05308721,-0.11675767,0.026409652,0.049090836,-0.14886318,0.024808874,0.25180364,-0.061648436,0.06217418,0.08285413,0.013769943,0.018775737,-0.04258178,0.10995253,0.17338619,0.13856415,0.041978657,0.15702136,0.05090468,0.067379415,0.024445802,-0.03641294,-0.14014746,-0.0977084,-0.03522647,-0.025074875,0.046358064,-0.20692407,-0.04568883,0.019058056,-0.13571778,-0.12704574,-0.09543986,-0.029708574,-0.098386176,0.36340055,0.13151789,0.1273522,0.36986288,-0.025671104,0.009567839,-0.05109797,-0.1484046,0.002292632,-0.42880157,-0.0037674364,-0.076389916,-0.017872356,0.17872828,-0.15187532,-0.10696617,-0.09408592,-0.074672796,-0.077118225,-0.061583225,-0.05135724,-0.08566491,0.012882378,0.2359837,-0.05515397,0.028772946,0.09715556,-0.2987724,-0.24572386,0.054925915,-0.20974775,-0.13157722,0.00701722,-0.007303765,0.019617107,0.03366607,0.011504333,0.09856781,0.08864986,0.0142928725,0.1713698,0.07023348,-0.012057406,-0.16416107,0.112419486,-0.07767521,-0.07188185,-0.009525861,0.0057594925,0.04271156,-0.118754126,0.04478506,0.02354796,-0.0062991837,0.11082318,0.0995738,0.052532353,-0.017990177,0.018090703,0.065932296,0.18645245,0.17001438,0.12680604,0.21848124,0.24120796,-0.00665882,0.054630276,0.08138985,0.015338008,0.0145511255,-0.024293626,0.04803443,-0.06307653,-0.18191816,-0.0095282225,-0.07299481,-0.12620418,0.052732624,-0.011356225,-0.011794256,-0.06544901,-0.1816735,-0.15969762,-0.1368728,-0.22500284,-0.11403151,-0.017567957,0.004511883,-0.014654795,0.005259429,-0.21043092,-0.16905853,-0.0069959015,-0.31019232,-0.26055875,0.0800652,-0.07780417,-0.06293249,0.00070930435,-0.14736557,-0.12544215,-0.036873285,-0.10000745,-0.12234955,-0.12476097,-0.024929086,0.043523785,-0.11352071,0.008896635,0.13368173,0.010945793,0.096588805,0.2145206,-0.09182609,-0.05770055,-0.10917476,-0.08394888,-0.110309795,-0.07067384,-0.06253123,0.0097520705,0.06795316,0.034244563,0.026041294,0.100124836,-0.016122147,0.06511423,0.18363982,0.037166584,0.0045463787,0.08859775,-0.0023657174,-0.21752615,-0.113809615,-0.14132035,-0.33358207,-0.17747898,-0.1394817,-0.234983,-0.16766624,0.20480953,0.028635705,-0.027440129,-0.11169373,-0.14467487,-0.12599625,-0.15850028,-0.10639427,-0.077140704,0.04208835,0.17630917,0.13798271,0.08077419,0.17932592,0.110831484,0.055435088,0.048014186,0.17599064,-0.102972195,-0.13137099,-0.17979538,-0.20112933,-0.27711946,-0.13021727,-0.09208896,-0.1507783,-0.03223151,-0.10850602,-0.06332688,-0.09134367,-0.0153129585,0.038188007,-0.005286648,0.055881426,0.08957863,0.10032543,0.0887896,-0.0073730443,0.019096462,0.054817833,-0.05137905,0.0070633637,-0.06569962,0.034412537,-0.08236629,-0.01869504,-0.026869392,-3.0145424e-05,-0.025669327,-0.03321302,-0.014938333,0.009111445,0.0050354083,-0.021018492,-0.007386029,-0.0039142533,0.0021107406,-0.0103501,0.0026119258,0.0120240515,0.004518939,-0.0075458866,0.017159982,-0.03002226,-0.0071802423,-0.0047110287,-0.01263752,-0.015965993,-0.007596198,-0.013081711,-0.019515859,-0.026110388,0.008546798,0.023012409,0.0253364,0.014709055,0.019898072,0.017258689,0.031421646,0.03699364,0.023886072,-0.01265205,-0.014152019,-0.007764701,0.0020191513,0.005709552,0.006002203,-0.006709112,-0.011007165,-0.0050671496,0.026145006,0.007925493,-0.005903484,-0.0005050646,-0.012079068,0.009460309,-0.0052542104,-0.012069008,-0.014846698,0.028733106,-0.026120998,-0.009109016,0.025687631,0.00039257022,-0.0143447295,0.014257612,-0.010470672,-0.018431451,0.002553061,0.0034530081,-0.004661322,0.00033074617,-0.012178513,-0.009546296,-0.006694858,-0.013701184,-0.022661276,0.022789812,0.007863514,9.006651e-05,0.00788008,0.002094066,-0.0054428955,-0.008116344,-0.004819593,-0.001928537,0.07124314,0.04595025,0.04653811,0.032164257,0.049082596,0.040452845,0.042092897,0.052656766,0.052254055,-0.019047985,0.005602581,0.0068903947,-0.0038816961,0.016575936,0.000786105,0.0151081225,0.03312333,0.0015967939,-0.011046193,-0.012580991,-0.0030310221,-0.03040405,-0.015082192,0.00018200597,-0.042190626,-0.003778693,0.007199515,-0.004862724,0.00957414,0.003914258,-0.0033333953,-0.009818612,-0.01818178,0.014947145,-0.032343987,-0.026562652,0.030382833,0.03899489,0.007556438,0.005548011,0.05076612,0.01839871,0.0017613317,0.024586031,0.0038822757,-0.024650753,-0.024050051,-0.005255819,-0.019506669,-0.015050167,0.008572456,-0.013809924,-0.0109257195,0.022746192,0.0019322389,0.044816587,0.0019177838,0.027274936,0.054300584,0.013705858,0.00087998976,0.036172662,-0.006837891,-0.019270226,0.009145898,-0.014336491,-0.010614833,-0.06929011,-0.054704584,0.010068729,-0.063432395,-0.08953221,-0.027698608,-0.028144913,-0.029498652,-0.0022314643,0.021912273,-0.015113192,-0.02628835,-0.0148835415,0.0018257415,-0.044025566,-0.0013744007,-0.036396768,0.018321246,0.092613876,0.08247935,-0.014696927,-0.04882511,-0.038561516,0.0056709046,0.046640363,0.06345814,0.043305706,0.086498365,0.035702433,0.041288666,-0.012046006,-0.0054512513,0.018834082,0.011348374,0.021168316,0.015724136,-0.01836285,0.034995947,-0.0027065102,-0.008461524,0.07882895,-0.016794004,0.0056900424,0.004368821,0.025883427,0.036284417,0.041134123,0.022954,-0.017685512,-0.013142013,0.0021704992,-0.02165952,-0.031604476,-0.0016869782,0.020320535,0.037109677,-0.107213564,-0.111272566,-0.030183934,0.028278502,0.022900742,0.033178702,0.03720527,0.03873716,0.021332404,0.016698904,0.049495865,0.0071204593,0.011837112,0.026593095,-0.02389928,-0.010410664,0.03451824,-0.019315477,0.020556632,0.00068195583,0.008162753,-0.023282055,-0.0504388,-0.029625556,-0.019250417,-0.04899389,-0.04197839,-7.666109e-05,-0.016057199,-0.0014574497,-0.020485293,-0.013210681,0.018601462,0.018981924,0.078976065,0.04485771,-0.010433642,0.01898628,0.047293115,0.0045308312,-0.021663925,-0.0992118,0.04128059,0.047392346,-0.051656324,0.046358697,0.08785309,-0.038401797,0.023085315,0.04377116,-0.025539644,0.03280689,0.11076097,0.01871564,0.050205342,0.12118732,0.0809891,0.012804224,0.04438022,0.047935396,0.03035002,0.055040468,0.055903766,0.037255272,0.028121604,0.00869595,-0.07194006,-0.09098965,-0.109935455,-0.065516815,-0.08480539,-0.09842035,-0.06463666,-0.0643929,-0.07991447,-0.003764876,0.05311654,0.054422732,0.01811565,0.06545621,0.057571046,-0.019144695,0.004499349,-0.008288578
