-0.016414793,-0.0010224177,0.041123446,0.03503622,0.034346055,-0.012321222,-0.008089368,0.0165666,0.0064121624,-0.0040757065,-0.04744147,0.009446319,0.0055554537,-0.0053534047,-0.0021827784,-0.0032853924,-0.053860925,-0.07068655,-0.00590435,0.067685746,-0.103849016,-0.13554265,-0.100106925,-0.022793218,0.03042257,0.123534456,-0.18804479,0.03484992,0.07310704,-0.021875622,0.051628362,0.09550161,-0.021881476,-0.0032081583,-0.099666774,0.0112544,-0.032134365,0.085338704,0.03558178,0.08249567,0.12355391,-0.118474886,0.036910087,-0.04723464,0.10752815,0.030468674,-0.015959531,0.021106713,-0.059164174,0.049990464,0.009793105,-0.05441621,0.11998822,-0.06100054,-0.036503065,0.025193578,0.0001437411,-0.016911514,0.10404575,-0.04913553,0.02443035,-0.18410361,0.060445547,-0.09983713,-0.19671795,-0.06834884,-0.17188688,-0.5015625,-0.11835935,-0.07540998,-0.1483963,-0.09483287,-0.10491499,-0.12357919,-0.033607803,-0.010504649,-0.008598959,0.00086078193,-0.00094935746,0.018791234,0.06883435,-0.033648442,0.08249783,0.0030934426,-0.053988412,0.065188326,0.025708413,0.039479125,-0.06405268,0.011069957,-0.022449344,0.083605036,-0.03338808,-0.07143235,0.1157584,-0.14008474,0.031226499,-0.1410827,0.124212466,-0.12962674,-0.04978932,-0.02922264,-0.018891612,0.104892716,0.11433206,-0.28894147,0.0014897696,-0.021683104,0.019438468,0.029581722,-0.076363996,0.10916022,0.15725146,-0.022859205,-0.038561236,-0.03411117,-0.0611773,0.023813536,0.058036,-0.051158775,0.023437947,0.01201057,-0.015418823,-0.006605772,-0.06680792,0.061003014,-0.013321318,0.016448004,0.021205792,0.012283975,0.028144918,-0.009131308,0.004536046,0.015517494,-0.04608954,0.054779682,0.055953216,-0.01037811,-0.019346746,-0.10461685,-0.010190357,0.03438422,0.12774408,-0.030344121,0.02680232,-0.008099488,0.025264613,0.0032759241,-0.065342754,-0.0016343107,-0.033602245,-0.013527937,-0.003932235,-0.0060288445,-0.085478924,0.035929903,-0.09857188,-0.004077354,0.051491566,-0.036342848,0.019054294,0.057095733,-0.049110644,-0.07894182,-0.03914162,-0.0071205636,0.1500198,-0.07102621,0.03199323,-0.08677389,-0.01636974,-0.018960541,0.025889263,0.010020071,0.052987605,0.017575385,-0.04994348,0.05115338,0.17340423,-0.031881746,0.0072858585,-0.08197284,0.018106721,0.0012595393,-0.03759743,0.032112405,0.04990216,0.14549614,0.015856978,-0.025179964,-0.017732223,-0.020901272,0.0909028,0.01262897,0.036081653,-0.078826174,-0.044733983,-0.029046653,-0.031541537,-0.05223195,0.018201474,0.008416683,-0.07036291,-0.021575883,0.0041294484,0.16111204,0.033800885,-0.028424717,-0.07482088,-0.03267257,-0.25441837,-0.038103886,-0.061781265,-0.051154982,-0.020998526,0.0058074393,-0.037777584,0.035231397,-0.008861397,0.013033489,0.00066331634,-0.041710787,0.011018765,0.11197474,-0.028715897,-0.014477198,-0.005637506,-0.013305938,0.006400903,0.07768188,-0.015220872,-0.14761974,0.17874159,0.05738587,0.011377565,-0.035880227,0.035804376,-0.0032484566,-0.10522551,0.017644616,-0.12662314,0.06982832,0.0184224,0.035770386,-0.10565528,0.029361142,0.022042157,-0.15659946,-0.033226736,0.02836242,-0.061616562,0.019761022,-0.02290604,0.0132202,0.063030235,-0.009305187,-0.12449836,0.0028977732,0.0050068176,-0.0076259323,-0.023004951,-0.0022510623,0.0077984803,-0.023249347,0.003676791,0.025748238,-0.0027360455,0.02761095,0.09449586,0.0042974837,-0.018236909,0.040686,0.024037784,0.0004364125,-0.025852067,-0.020783963,0.041067485,0.020475216,-0.027200803,0.11274917,0.033112187,0.03657093,-0.023246482,-0.032011997,-0.020347167,0.0010804874,-0.030459307,0.0018887883,0.016253922,0.022354577,0.0048532337,-0.04074387,-0.027239552,-0.01664467,0.022489348,0.072822735,0.028598368,0.0017892359,0.06829135,0.031998917,-0.03945014,-0.04088517,-0.018694961,0.006579403,0.07462022,0.05778429,-0.040458165,-0.052917384,0.0020004928,-0.048864674,-0.059818268,0.012207448,-0.02052861,0.048732128,-0.04236925,-0.01667579,0.011040045,-0.011086008,0.008604774,0.009883673,0.014878294,-0.01733721,-0.042277932,-0.05492156,0.046552435,0.0042297905,0.02335818,0.00618259,0.011437468,-0.06708822,0.0033452825,0.0033979984,0.03683057,-0.010128039,-0.005233776,0.002545432,-0.0535061,-0.01789086,-0.024703134,-0.031376965,0.05249613,0.017464919,-0.063080415,-0.029538762,-0.037472315,-0.06281272,0.059553623,-0.013606047,0.08439759,0.03349981,0.043060616,-0.05946864,0.0045846216,-0.007132194,-0.005422317,-0.041911636,-0.04597607,-0.03694275,0.041314628,0.016470904,-0.09491692,-0.059195697,-0.0073667103,-0.0010239409,-0.020639312,-0.014407661,-0.011252885,-0.0039861207,-0.064962976,-0.008685743,-0.016588934,-0.016209036,0.028104583,-0.0064131613,-0.011387704,0.011347434,0.018974857,0.033785038,0.00055101333,0.026142154,0.008743472,0.08038339,0.06282303,0.007008092,-0.022035865,-0.12131955,-0.007171865,-0.035345666,-0.05068029,-0.04029649,-0.023062471,-0.035409566,-0.019440606,0.010376128,0.0038217665,-0.0104002785,0.018617434,-0.0019896734,-0.06229742,-0.0146234995,0.0503339,0.020502934,-0.01874743,0.0016252343,-0.024354625,0.036524545,0.05716907,-0.045178745,-0.054776393,-0.075539164,-0.073265664,-0.025741693,-0.0034700423,-0.0087038055,-0.045805372,-0.027982721,-0.0013229323,-0.014062402,-0.0029189188,0.015514452,0.06196203,0.060929313,0.036530282,-0.049962968,-0.048761,-0.0022197145,-0.05767556,-0.035418116,-0.017899131,0.083927095,0.14028016,0.054829016,0.034350853,0.005701175,-0.013721081,-0.018605854,-0.06206525,-0.016182402,-0.018754061,-0.013405276,0.05070795,0.038788486,-0.0522123,-0.02753322,-0.026576996,-0.072102845,0.033556778,-0.09732989,0.009270713,0.035795655,0.0428034,-0.0036245575,-0.022570027,-0.07312492,-0.15392914,0.006196684,-0.05241552,0.0665642,0.07656852,0.005737045,-0.0695143,0.030427316,0.05780511,-0.050009932,0.027067406,0.037319858,-0.087826684,0.012968461,-0.0059251557,0.070697665,0.08359911,-0.02648081,0.10946137,-0.012615807,0.050730355,0.0325804,-0.03425628,-0.049422845,-0.007929349,-0.038357276,-0.0338583,-0.046005193,-0.050855096,0.0039570243,-0.0380685,-0.0035149546,-0.017581265,0.07263804,-0.021800209,0.034767408,0.15378025,-0.10441721,0.054327913,-0.02767159,-0.1571545,-0.025147408,0.007975724,0.017150488,0.033430148,0.06904161,-0.048994243,0.017314633,-0.07305458,-0.0846719,0.050622642,-0.026578596,0.05006593,0.012806081,-0.0067739235,-0.026574302,-0.0011265405,-0.047573827,-0.034944776,-0.030990811,0.003848817,5.6692295e-07,-0.06356802,0.14490911,-0.028721305,0.004822001,0.11143577,-0.06498176,-0.08390506,-0.018343741,0.057597805,-0.062450465,0.14723994,0.015959702,0.06271148,0.052292474,-0.077391416,0.108140565,0.009534604,-0.04371652,-0.021692857,-0.029426083,-0.005787045,0.039163526,-0.05202425,-0.020977812,-0.09712317,-0.014683894,-0.04054981,-0.09316633,0.13333957,0.027787583,-0.014153244,0.022088433,-0.055010118,0.00013494876,-0.027867593,0.0077334223,0.05335575,-0.034170587,-0.027296692,0.018666053,-0.047912654,0.011977445,0.005846594,0.02718119,0.016294925,0.019307818,0.0010698608,-0.03721109,0.0009753328,-0.033335723,0.015931718,-0.03412871,-0.03191459,0.05704953,0.028631177,-0.052785616,-0.012643582,-0.009480557,0.023492802,0.046326187,0.040010523,0.0065386333,0.0018029938,0.007686597,-0.025122985,-0.0033514972,0.035343833,-0.010781109,0.014603905,0.03805693,0.011591158,-0.03675496,-0.016054953,-0.00074227003,-0.0655691,-0.03911332,-0.072645806,-0.042521443,0.012936129,-0.03516282,-0.013309391,0.015615017,0.06752385,-0.07521671,-0.017097162,-0.012844301,-0.018396165,-0.028118337,-0.004766522,-0.0157114,-0.010547069,0.006735838,-0.032787535,0.014259035,0.029363945,-0.019013781,-0.005841036,0.016302323,0.0015536818,-0.030279154,-0.05222132,0.033824172,-0.008630811,0.00038255143,0.03490978,-0.049807087,0.026335252,-0.020667717,-0.07763491,0.037236687,-0.015249955,-0.014709713,0.0746779,-0.037662994,-0.042966083,-0.047588408,0.03018084,-0.03931362,-0.14594567,0.051520344,-0.011471687,-0.0430044,0.024370795,0.038246468,0.04953619,0.0013951982,-0.061870202,0.03579792,0.032463938,0.00957891,0.0031828207,-0.005994509,-0.06264366,-0.08676005,-0.08649469,0.038093425,0.03032399,-0.041563198,-0.00187218,0.023891794,-0.044057854,0.061881997,-0.03190285,0.003979709,0.068201035,-0.067687124,-0.093132384,0.08370785,0.041190125,-0.052360773,-0.008896373,-0.021551983,-0.008501781,0.044943146,-0.097628854,-0.051405575,0.0008769538,-0.023000747,-0.07033291,-0.023904458,-0.033100817,0.010455691,-0.015504634,-0.012629416,0.027781695,-0.00094996754,0.008633274,-0.015289625,0.010965239,0.057174888,-0.019527124,0.02582914,-0.02824931,-0.03153615,-0.01447021,-0.056102965,-0.039515063,-0.027882572,-0.0073298607,-0.019442797,0.010894935,0.021775283,0.0055807573,0.0073710848,0.045671687,0.014425654,0.018498639,-0.003760821,0.026349869,-0.020278497,-0.03469276,-0.019919954,0.027092448,0.013742566,0.015374401,-0.009043428,0.0054082614,-0.015113683,-0.060749765,0.050616365,-0.0028289943,-0.038132075,-0.014744701,0.015935982,-0.028913135,-0.039976887,-0.022259085,0.013011655,-0.0008140123,0.02622143,-0.010655024,-0.047842175,0.02805389,0.019943517,-0.08754474,-0.0017205891,0.011830979,-0.083657384,-0.027749432,0.04516841,0.004325659,0.040519472,-0.045195512,-0.1894992,-0.069376945,-0.049111445,-0.016108634,-0.07297296,-0.060454633,-0.048483565,0.016953532,0.01350931,0.043072198,0.018297205,0.037013233,-0.0016488322,-0.024605995,0.040772352,0.008857582,-0.045877174,0.010097681,0.11968119,-0.03829411,-0.0604347,0.01654371,0.06105063,0.021516502,-0.0046582134,-0.0061133797,-0.006406544,0.095114164,0.03371506,-0.054963253,0.0461766,0.020454763,0.04996237,0.048914745,0.030981194,0.05407474,0.122981444,0.041760128,-0.025186853,-0.07043614,0.027317347,-0.050026476,-0.04876362,-0.004351296,0.009559817,-0.2012779,0.004938013,0.034046724,-0.0033255955,0.009780108,0.031159598,0.017813891,-0.0070478413,-0.069143176,-0.067821965,-0.026072387,0.028972372,-0.055170104,-0.0018016513,0.002842406,0.006138352,-0.022675209,-0.0062448583,0.052046996,0.019364135,-0.028837647,0.01923334,-0.010969654,0.05101501,0.014352193,0.035391092,-0.045233093,0.095187634,0.03863455,0.023476766,-0.13024233,0.057821333,-0.019867284,-0.033323023,-0.016374025,-0.04764909,0.014721121,0.063975565,-0.24718015,-0.14879349,-0.042085472,0.014541515,0.024765559,0.0030646198,0.057427876,0.047966637,0.016570257,-0.0045838063,-0.049484514,-0.02085626,-0.009979966,-0.065544546,-0.034352373,-0.012536189,0.043114036,-0.010635537,-0.02013397,-0.021966798,0.02698698,-0.025231995,-0.001549979,0.008674563,-0.011730267,0.0042837556,-0.024497489,-0.016979393,-0.009416221,-0.019360993,-0.020011052,0.020387052,-0.0013897106,-0.042858694,-0.05036491,-0.052934416,0.01502184,0.017172262,0.009016762,0.03536199,0.053633682,0.008138191,-0.01794873,-0.008020514,-0.021569744,-0.03293222,-0.021770405,0.043744195,-0.04435698,0.015589188,0.042390857,-0.034393225,-0.04102867,-0.06176933,0.056258697,-0.008682362,-0.018006619,0.04185467,-0.030512048,-0.013462605,-0.039314985,0.12745595,0.034485877,-0.038798064,-0.16147718,-0.097832724,-0.029986292,-0.008334234,-0.005045598,0.030209329,0.018726101,0.016687872,0.009929297,0.0027036504,-0.011206591,0.05251263,-0.03532575,-0.08476136,-0.011025596,0.018974442,0.017641926,-0.003924263,-0.036611166,-0.032627545,0.04297605,-0.01576338,0.07270023,0.05617693,0.016109737,0.035216883,0.051621787,-0.078914195,0.02535268,0.046238344,-0.045246426,0.055732906,0.019256739,0.0024132158,-0.08659831,-0.04290574,0.021823859,-0.0063179825,-0.05057243,0.061022226,0.028727554,-0.03746943,-0.063386425,0.040405408,-0.028722718,-0.03861499,-0.040160764,0.022739818,-0.06857573,-0.04331466,-0.0013320165,-0.003455459,-0.014927188,-0.0017884633,-0.011175964,0.004468365,-0.046513375,-0.025318298,0.013366169,-0.09149911,0.024586283,0.017513264,0.027191103,-0.027070781,0.0153791895,0.11091088,0.075448655,0.046303634,-0.02757904,-0.038745657,-0.05181738,0.0047149207,0.0069347615,0.08482452,0.07240437,-0.055624448,0.022867216,0.048157416,0.011188181,0.04473283,0.016310697,-0.06855167,0.026011677,-0.041458298,-0.14058998,-0.019521704,0.008542914,-0.044623394,-0.052285455,-0.03308164,-0.0054949033,-0.04936556,-0.03444746,-0.010324541,-0.02389255,-0.049793,-0.0038385985,-0.013359918,0.033694457,0.004547694,-0.012635464,0.041765835,-0.045508698,-0.04836397,-0.00022009999,-0.022468433,-0.049360603,-0.03388425,0.048682142,0.036109015,-0.020559734,0.045203723,0.0013441682,0.01629039,-0.01943555,-0.025365552,-0.00671644,0.005752043,-0.019293986,0.0070581567,0.104890265,0.07607009,-0.009221299,0.027547257,0.0026003849,-0.019958325,-0.026940124,-0.03180053,-0.0277678,-0.037920702,-0.040844437,-0.06398089,-0.011436293,0.0002786423,-0.019791119,0.011697124,0.072237484,-0.024005039,0.0033672329,-0.024790047,0.031096801,0.009108402,-0.03760956,-0.019984497,-0.034765493,0.02716893,-0.023861136,-0.05936032,-0.060715556,-0.021036634,-0.018927228,-0.025746303,0.009779432,-0.02417192,-0.019461673,0.05966939,0.01112965,-0.01939936,0.003278527,-0.026918,-0.08133728,-0.019951986,-0.059839025,-0.14808147,-0.0054518795,0.017349869,0.043240946,-0.097617686,-0.12640737,0.051175255,-0.021007217,-0.04832853,0.04657871,0.032667123,-0.0063776053,0.10189885,0.0058254004,-0.06881009,-0.01555014,-0.023590079,-0.037100643,-0.033730995,-0.0077226586,-0.024765812,-0.022634864,-0.046932254,-0.0047879554,0.1090309,0.043243274,0.05208244,0.10403235,0.00048827622,0.01455868,0.014583079,-0.063235745,-0.03181077,-0.028894119,-0.0014982357,0.046971988,0.06348499,0.0032497728,-0.0046350737,-0.0039634937,-0.070672035,-0.0680868,0.049462896,-0.04511277,0.013680745,0.10087603,0.037521936,0.01137338,0.041191597,-0.07071116,-0.073694095,-0.10407788,-0.04001212,0.060202762,0.0017180498,0.011688199,0.033318702,0.017663589,-0.024749486,0.010323419,0.013024139,-0.020482462,-0.005581321,-0.0072713257,0.0046094046,-0.011125437,-0.039519746,0.0127379075,0.032779127,0.04982645,-0.067887366,0.0082103675,0.039640125,-0.04686299,-0.008402649,-0.022159252,-0.009690585,-0.012489856,-0.00643531,0.043915898,0.0660486,0.054917477,0.043543678,0.024896989,0.005823921,0.005919551,0.01305348,-0.02951283,-0.019601319,-0.008025941,-0.016387546,-0.02400933,-0.011344191,-0.023925815,0.048607763,0.059145037,0.021612762,0.021769408,0.020462051,0.023407495,-0.028357241,-0.03763911,-0.049336422,0.006127347,0.0027703876,-0.016902508,-0.039343935,0.054037433,-0.0013514765,-0.029110422,0.025625052,0.010159931,-0.0014551465,0.014285416,-0.012032215,0.019522225,0.028099524,-0.041922048,0.013342862,-0.035502173,-0.010517687,0.0027706306,-0.007883214,-0.022219408,-0.039913125,0.010786491,0.057806328,-0.07304432,-0.01998089,-0.008145878,0.03464653,-0.036630586,0.009834101,-0.034219302,-0.09730837,0.056381356,-0.02607185,-0.033180926,-0.009107509,0.01692468,-0.00040428067,0.026117504,-0.048883423,-0.05186866,0.08000029,-0.03567972,-0.02439814,0.18132608,0.00092906645,-0.02045921,0.06613487,0.0026776579,0.032733988,0.028553212,-0.021336516,0.025596851,0.04967441,-0.009035528,-0.05741241,-0.055899084,-0.015797403,-0.07174727,0.03510198,-0.063534506,-0.07445217,-0.011475826,-0.08144113,0.065332085,0.023085615,-0.08056221,-0.05913089,0.0442005,-0.06549729,0.16786149,0.03695409,-0.023475273,0.03204864,-0.015453409,0.025136786,0.017201172,0.026576882,0.016918248,-0.022953,-0.056521907,-0.007729355,0.03572051,0.076866426,-0.020315632,-0.10618981,0.06728577,-0.086770564,-0.049394257,0.089235686,0.015145789,0.027167676,0.024543094,-0.059269395,-0.070371784,0.0074458253,-0.078241855,-0.07379328,0.15995999,-0.076283075,-0.027087526,-0.011825452,0.14461932,-0.032412715,-0.020991234,0.018080527,0.011169984,-0.04986203,-0.07815418,-0.11131886,-0.0054367078,0.02112035,-0.04765784,0.025916968,0.026705854,0.09723755,0.03977113,0.030128816,0.020426689,-0.040297948,0.011006011,0.046259165,-0.032253776,0.039481938,0.044964146,-0.03432979,0.024903411,0.030729214,-0.03135706,0.0093722455,-0.044695385,0.020863855,0.023355966,-0.039431315,0.040093947,0.0004983081,0.03371875,-0.009334649,0.004784657,0.014364028,-0.021116937,0.063540265,-0.013870382,0.049593292,0.009003835,-0.010755702,-0.041477002,-0.014049421,-0.03168377,-0.06589257,-0.029182289,-0.054542188,-0.027373968,0.02390588,-0.043977965,0.01265653,0.025200762,0.010101272,0.10938299,0.053690195,-0.006906203,-0.035735667,-0.036886387,-0.058101866,-0.09871542,-0.0014770421,0.043847617,0.026471607,0.03396869,0.07524989,-0.008351256,0.028178845,-0.015197024,-0.07296735,0.06411409,0.023706289,-0.008631097,0.025836542,0.025336873,-0.013164068,0.008984132,0.004680792,0.04181566,0.02147086,0.08855513,0.021166753,-0.008592701,-0.039191417,-0.021610623,0.013616831,0.03725284,-0.033130888,0.010026065,0.08204524,0.0044714096,-0.0018381956,0.03489323,0.027707221,0.034314048,-0.009488438,-0.0045060655,-0.04123985,-0.12026137,-0.124085195,-0.007926257,-0.11196844,0.016031025,-0.009230041,-0.014148151,0.031933926,-0.028836347,-0.010505447,0.05015686,0.003959818,0.023235586,0.040147044,-0.0022303385,0.026274998,0.03410638,-0.050473433,0.007104191,-0.01847365,-0.010667854,0.00207293,0.01502975,-0.020499734,0.045834325,-0.015680524,0.024397308,0.05289727,-0.019780781,0.01747409,-0.01707415,-0.049772244,-0.023935119,-0.01993269,-0.039998684,0.003585443,0.09995967,0.0068704495,0.046753753,-0.027286254,-0.03204937,0.0024861402,-0.047814332,-0.016910497,-0.117157824,-0.16223611,-0.071262375,-0.040161684,-0.07209517,0.005302891,0.043167286,0.032743406,-0.017953746,-0.00089432026,-0.035416555,-0.10059221,-0.045145124,-0.12749054,-0.10262189,-0.013046433,0.00011237077,-0.07446432,0.03237704,0.057676084,-0.02973175,-0.050457425,-0.0842269,-0.10308303,-0.020538796,0.08278393,-0.03290875,0.08608128,0.1482835,-0.004393256,-0.02052074,-0.0035163683,-0.0518574,-0.0026760423,-0.026568487,0.060857836,-0.042671666,-0.16777252,-0.009291991,-0.023102913,-0.06263931,0.068562925,0.031366657,0.0024358765,-0.03839193,0.012826962,-0.010991359,-0.04923078,0.027309341,0.027442975,-0.047315177,0.016257746,0.050705615,-0.020959917,-0.00660114,0.018295214,-0.008374053,-0.022885611,0.06297579,-0.029685324,0.029410413,0.0021686128,-0.0054566134,-0.018853188,-0.047019396,0.0118033,0.018401943,-0.02324545,0.03169558,0.013979243,-0.014015871,-0.00671467,0.041657466,0.022180947,0.042414777,0.03167298,-0.008487448,0.06427794,0.043227527,-0.027561458,0.03652432,0.012773127,0.054504905,-0.036169864,-0.0009818765,0.0037872083,4.7042642e-05,0.0415892,-0.03404304,0.037011676,0.059808593,-5.7696532e-05,0.005527172,0.04770723,0.022750659,0.01643781,0.050288703,-0.0060550217,-0.0022071595,0.02581938,0.07401343,-0.10249913,0.047329247,0.01799065,-0.032448918,-0.067617126,0.015537168,-0.059794202,-0.072096236,-0.01715005,-0.0088861305,-0.006483999,-0.029480355,0.00016126627,-0.025909808,-0.032696415,-0.027150396,-0.024821214,-0.005635891,-0.0074358378,-0.038806852,-0.07347744,0.013310122,0.040522274,-0.049862932,0.03405946,-0.12446193,0.121781945,0.008155403,-0.024262633,0.04253246,0.052082356,-0.009870367,0.019459667,0.0049983957,-0.08142355,0.13805892,-0.121250965,-0.04455321,-0.010119046,-0.016366871,0.02098313,0.020804007,-0.04338279,-0.020653315,-0.02670872,-0.12803139,0.053975556,0.0012868742,-0.035299037,0.003179206,0.0073752254,0.014739182,-0.01924694,-0.010474094,-0.042998925,-0.021645753,0.026624106,-0.013146893,0.06627129,-0.021888101,0.02969953,0.085611895,-0.024532992,0.025359707,0.05184679,-0.03290056,0.0071448134,-0.013881707,-0.0142868655,0.020707157,-0.015340366,-0.013854781,0.03550713,-0.010323568,-0.014219763,0.0026835292,-0.05526754,0.03144962,0.029884266,-0.048301674,0.009640036,0.07765588,-0.018721106,-0.019817015,0.04232799,0.0028757758,0.014963092,-0.0009869706,0.020464528,-0.0073157777,0.02226243,0.038673174,0.008850094,-0.037990168,-0.039028984,-0.050708637,0.12590627,0.0066364137,0.041814093,0.10996236,-0.0010287017,-0.024919437,0.012402153,-0.06735545,-0.03330146,0.024248803,-0.012023424,-0.025793875,0.24742863,0.029459098,0.03922101,0.034596868,0.006388242,-0.08168648,0.12194512,0.10313773,0.048969366,0.06850008,-0.05540383,-0.054567426,-0.01417178,0.028273378,-0.048546452,-0.014902026,0.01709317,0.05727693,-0.2852555,0.029860832,-0.034526743,0.022956962,-0.10635593,0.0024999967,-0.13553792,-0.15808713,-0.03196766,-0.10474016,-0.035617422,-0.050834667,-0.08797306,-0.030905714,-0.009948024,-0.0087418035,0.035416655,0.13589701,-0.10572879,-0.0035885947,-0.05862776,-0.009527836,-0.0025138687,-0.19087833,-0.00356253,-0.05663633,-0.1864702,-0.043419987,-0.015567712,-0.08759538,-0.05808409,-0.055343535,-0.026505707,-0.05702212,0.023255534,-0.048698846,-0.016609328,0.056372914,0.013513497,0.03770068,-0.031765275,-0.09645826,-0.07988285,0.021048864,0.4664618,-0.02967479,-0.023141693,0.017919801,-0.052921593,-0.10950449,0.02071517,0.019907873,-0.022108132,0.09175175,-0.089823075,-0.02078459,-0.08918542,-0.049758565,-0.035621464,0.02675478,-0.21080743,-0.05991751,-0.029242503,-0.20992446,0.0056551793,0.083082065,-0.054134086,0.015926639,0.07303142,-0.0129918745,-0.014258045,-0.06812369,-0.06851337,-0.08306644,0.015296611,-0.023707962,0.0720454,0.06496821,0.041212283,0.11105104,0.046591625,0.058729086,0.02459061,0.017392594,-0.021479959,0.015305106,-0.044120815,0.07309725,-0.01665478,-0.05611031,0.08162915,0.03197945,-0.07997104,0.053349737,0.04811078,-0.050822437,0.07021376,-0.049852338,-0.10299705,0.12368418,0.023724627,-0.013235582,0.06967768,0.044548444,-0.0017707454,0.018047307,-0.039401297,-0.03428397,0.011177368,-0.005563991,-0.06252672,-0.026123755,0.06613727,-0.039318096,0.025505831,-0.011054421,-0.085142955,-0.07280555,0.014367855,-0.055657893,0.015430497,-0.035699684,-0.046517886,-0.061393663,-0.004519539,0.07496428,-0.12223702,-0.13110834,-0.13874389,-0.091609344,-0.018846855,0.0743532,-0.05591615,-0.017320056,0.022273168,-0.08596389,0.037793834,0.12446544,-0.06875826,0.011025913,0.0037486558,0.007898404,0.062314752,0.0017343124,0.08396293,0.013488519,0.059942264,0.08093999,-0.018075805,-0.019541329,-0.053194173,-0.038197026,-0.021004494,0.045768794,-0.03864172,-0.056106497,0.06444879,-0.052045163,-0.077337116,-0.028621437,-0.05717776,0.009732156,0.045044918,0.008045846,0.13244757,0.032200236,-0.030232325,0.022444034,-0.011625544,-0.021211173,0.09548541,0.001756575,-0.041336846,-0.015647886,-0.019679362,-0.048974957,-0.018966746,-0.06404597,0.046667486,0.10203232,0.0061295754,0.06720529,0.14924498,0.037634403,0.04345838,0.040538758,0.03454453,-0.06855956,0.006288639,0.06407376,0.018291024,-0.029679788,-0.02358909,0.02720227,0.0462449,0.011457624,-0.04818029,-0.05592064,0.048866127,-0.03494618,-0.027688526,0.012616832,-0.1950944,-0.13635066,-0.017229805,-0.1159996,-0.06375428,0.028827671,-0.1240143,-0.055343326,-0.019937558,0.035782892,-0.03777953,-0.041064996,-0.13101837,-0.23559827,-0.09632854,-0.08766728,-0.06834559,0.018248536,-0.0015624532,0.005976469,-0.09869441,-0.03612401,0.066876,-0.027789893,-0.05291457,0.09479845,-0.019091109,-0.018968832,-0.017261064,-0.03570362,-0.00013233209,0.028298417,-0.034194387,0.0015522017,0.0018978836,-0.031231327,0.07270206,0.04534898,-0.0055893674,0.0018144002,0.041010436,-0.034615986,0.037081692,-0.10042656,-0.050695322,-0.007267029,-0.0095361415,0.025948783,-0.033131734,-0.019536829,-0.039131735,-0.02221794,-0.012610119,-0.025366569,-0.026009994,-0.040572014,0.0971397,-0.0100695165,-0.12266866,0.0931112,0.071303144,-0.1435944,0.05446536,-0.02449361,0.0444573,0.019274129,0.00057354436,0.07127598,0.0316507,-0.075537935,-0.034184538,0.014271561,-0.026145931,0.055622682,0.06873968,-0.040461946,0.01578925,0.023982355,-0.043709844,0.04179836,0.04465609,0.015813537,0.027987987,-0.0144775,-0.04061548,0.018246107,-0.011605814,0.0021228236,-0.034826897,-0.032234114,0.04213234,0.041532546,-0.025063224,0.018001353,-0.038563505,-0.0444196,0.024966706,0.044255167,-0.021732237,0.0342973,-0.0749815,-0.09630246,0.17297871,0.041747194,-0.21668448,0.0039043943,0.16262507,-0.09691842,0.0007454129,0.005278214,-0.0038589356,-0.02066571,0.0069534513,0.00026118534,-0.017080259,-0.021740055,-0.008420546,-0.025728373,0.000822212,-0.052491877,-0.0016493158,0.029141258,-0.039428767,-0.031347297,0.050289188,-0.028735064,-0.044188514,0.00037432308,-0.049793582,0.13895912,0.13086879,-0.060036518,0.005830807,0.044526428,-0.082828544,-0.002839898,0.005672024,0.025788043,-0.053623483,-0.07227098,0.0012245768,0.020446597,-0.0410279,0.015048877,0.020500628,0.022666523,-0.09104878,-0.022111293,0.011614303,-0.06669411,0.019952998,0.02680454,-0.046812844,0.026051112,-0.0005194295,0.046539824,-0.054162048,-0.09035226,0.039181568,0.023275523,-0.03068355,0.04149322,-0.033689957,0.055691987,0.033147782,-0.0425066,0.029249355,0.032642007,-0.027917957,0.0026521375,-0.0057243826,0.03917197,-0.09546595,-0.04785139,0.08376253,0.0067528975,-0.08900812,0.012764767,0.08312842,-0.020155868,0.005735674,-0.026499815,0.035080187,0.004871023,0.023564056,0.004146321,-0.024576847,0.024893431,-0.027237386,-0.052124664,0.006644405,0.04019121,-0.17575862,-0.150155,-0.09236355,-0.14634846,-0.11935612,-0.055082995,0.07440597,-0.041616846,0.021422256,-0.0500264,-0.14025618,-0.05745665,-0.12592968,-0.1936335,-0.03762292,0.023794679,0.0019061867,-0.07684376,0.015800951,-0.057867162,-0.2119482,0.16352078,0.11727348,0.041386507,0.035091605,0.011520522,0.006654639,0.038222075,-0.0019560237,-0.029783972,0.019138878,-0.01765651,-0.08591377,-0.09828724,-0.11070949,-0.076423846,-0.106431134,-0.06811896,-0.0068121445,-0.01123396,-0.08255468,-0.011394855,0.016349478,0.0036803132,-0.004919883,0.01049242,-0.009483906,-0.02972565,-0.004990003,-0.088859245,-0.13280277,-0.00034671868,0.012178034,0.04060617,0.0015743439,-0.023797499,0.033975374,-0.013409884,-0.061679345,0.009039077,-0.06658717,-0.07695166,-0.13398355,-0.10203462,-0.09936897,-0.067144774,-0.093770884,-0.11925476,-0.10935455,-0.03808892,-0.036226228,-0.042463608,0.09609569,0.10298768,0.07562024,0.06035525,0.13615634,0.09493983,-0.08331122,-0.04160858,-0.004753295,-0.04287521,-0.059475977,0.06988296,-0.0501827,0.0035629577,0.13416488,-0.07187507,-0.03642975,-0.05838516,-0.014432269,-0.049389254,-0.053582985,-0.079638384,-0.055076707,-0.077669375,0.085386604,0.017417321,0.09986654,-0.05241205,-0.0337309,0.07907988,-0.045532178,-0.0046416908,0.17250681,0.042426568,0.08670512,0.0104022985,0.0072484016,0.015844183,-0.03569196,-0.01694597,0.023153806,-0.056889005,-0.10171332,-0.009181307,0.036026243,-0.06369546,0.055047147,0.06328154,-0.04913116,0.040538352,0.04373728,-0.03918367,-0.014021518,-0.08309512,-0.028458975,0.03708056,-0.047793012,-0.051071778,0.014240829,-0.058206428,0.0081066415,-0.038132403,-0.02725033,-0.0031442775,-0.029258339,-0.037399013,0.015837444,-0.03440196,-0.02807402,-0.04595,-0.0773806,-0.0554458,0.04143283,0.036895994,0.020785829,-0.04251707,-0.02339416,-0.08424458,-0.06826876,0.07419273,-0.02781015,0.01574327,0.1527095,0.062240265,-0.092612095,-0.009753744,-0.13140456,-0.019009806,-0.028463155,-0.038239136,-0.03337336,-0.036220934,-0.04318286,0.0021469123,-0.019990213,-0.115519114,-0.05156419,-0.0076757334,-0.048704855,-0.019003417,0.022680158,-0.009468623,0.090190515,0.09963818,0.06397711,-0.094670825,-0.0025509223,-0.0132841,0.034947276,0.0042314357,0.06637424,-0.012697259,0.05957199,0.01664252,-0.04914403,-0.07611487,-0.06366077,-0.026429882,-0.050415784,-0.047648024,-0.08958986,0.0168058,-0.046770666,0.0919174,0.035477508,0.06523386,-0.015401782,-0.17606987,-0.060490813,0.099253096,0.01657616,0.11496405,0.01095146,-0.04962648,-0.08437337,-0.01022719,0.1855337,0.10670682,-0.10546435,0.084260814,0.035852823,0.010394531,0.05165273,0.00037313363,0.040747993,-0.011845645,0.04000799,-0.009973173,-0.02998874,-0.009769255,-0.078795984,-0.07346171,-0.008203001,0.093002714,-0.06652691,0.044939872,0.033255126,-0.08062641,-0.05121099,-0.025424542,0.043360144,-0.03145563,0.06453807,0.07373815,-0.0078506395,-0.038714387,-0.0065592686,-0.060419742,0.031588174,0.083588846,-0.02096104,0.017344167,0.12587029,0.04021535,-0.0046264394,-0.014223198,0.028254036,0.001684716,-0.067454875,-0.044254225,-0.0019781296,-0.012161565,-0.018197766,-0.015444442,0.059794575,0.037172433,0.02766447,0.0131533975,0.03800135,-0.032587267,-0.083607845,-0.07534529,0.012109879,-0.03912962,-0.04522926,0.060925193,0.01699911,0.07327714,-0.0106512755,-0.033126876,0.005130944,0.0061309864,-5.6719982e-05,0.022121403,0.0012250125,-0.015690764,0.089411825,-0.007981807,0.050778747,0.068278566,0.06761306,0.04262539,0.10057969
