0.6548806,1.5514863,1.1009128,-0.2509834,0.9073007,-2.4901006,0.69499743,0.17141879,1.297413,-0.109859884,1.2935565,-0.6376675,-1.4245368,-1.1089609,0.9053524,0.45498177,0.7813282,-1.0015386,-0.013859868,-0.39305806,0.0647295,-1.0058422,1.4803033,1.0009725,-0.7374383,-0.29870683,1.5325196,-0.68848336,-0.2731384,0.21023256,0.16013815,-0.4917377,-0.38597605,-0.8813775,1.3774922,2.3716009,-0.34961486,0.65634614,0.3931605,0.5950325,-0.7831351,-0.27110243,0.47137326,0.054658283,-0.0923288,-0.084398925,0.27770036,-0.25692195,0.3287573,-0.21238753,0.69103414,-0.47620654,-0.4697203,0.4666708,0.31364772,1.3606418,-1.4487587,0.8774432,-1.1649938,-0.3452292,1.6369166,0.38375974,-0.3118299,0.09907547,0.65502995,0.63364434,0.40600136,-0.036952883,1.0348815,0.8441022,0.30105042,1.1951703,-1.4571561,0.08382897,-0.49284834,0.1669294,-0.30830246,0.7447245,1.5104975,0.005911678,0.2806694,0.34584653,0.73383826,0.88092524,-0.6256051,0.22018784,-1.9418328,0.5142832,1.4656614,-1.2306826,0.01347526,-0.7363808,0.5551907,1.1432339,-0.089692384,0.098505765,-0.17224605,0.33529997,1.0496013,0.9731406,-0.11606076,-0.061078526,0.5242339,0.24341986,-0.8993915,0.15736336,-0.17783506,0.6985321,-0.3663419,0.15416926,-0.24746014,1.2145703,-0.5921445,-0.19603917,0.110412404,-0.23894566,-0.7383297,-1.1249942,-6.84843e-40,-0.15947033,-0.13767074,1.5630143,1.5477488,-1.619747,1.9320514,0.601898,0.7557351,0.63604015
