1.846118e-39,-3.326136e-38,4.5132707e-38,2.257642e-39,6.00588e-40,1.779135e-39,3.2716272e-38,-1.221808e-39,-5.43345e-40,0.028016716,-0.04413671,-0.002398661,0.0017935381,-0.07238004,-0.073594384,-0.022881575,-0.021759568,-0.06849733,-9.7851e-40,-8.42923e-40,-8.48223e-40,1.593083e-39,6.77152e-40,1.406029e-39,-1.285078e-39,-1.347468e-39,1.37629e-40,-1.611668e-39,-1.27836e-40,1.717877e-39,-1.66215e-39,-1.465867e-39,-2.00757e-40,1.150956e-39,7.66037e-40,1.12832e-39,0.09272959,0.012334544,-0.08118765,-0.047919177,-0.028268734,-0.007022105,-0.035864007,-0.08161756,-0.04781931,-0.06321698,0.011283262,-0.07882164,-0.13770704,-0.13931115,-0.12471486,-0.04061156,-0.16650006,-0.0969316,-0.032208756,-0.15570356,-0.03759666,-0.023390304,-0.15288486,-0.090230994,0.3540659,0.24419364,0.15771864,-1.668305e-39,-1.553195e-39,-4.40977e-40,-4.55e-42,-1.555325e-39,1.707458e-39,4.81656e-40,1.387818e-39,1.34878e-40,1.706448e-39,-2.455927e-39,2.307741e-39,-1.079716e-39,9.36381e-40,1.722618e-39,-1.823173e-39,6.39173e-40,-4.058256e-38,0.12476984,0.21279821,0.1687705,-0.015380229,-0.09479632,-0.048643596,-0.064171925,-0.10890825,-0.096745424,-0.10456219,-0.055054706,-0.14280854,-0.06046414,-0.02492385,-0.100700006,-0.21190491,-0.19798218,-0.051434916,-0.082462005,-0.07737219,-0.06754942,-0.17168602,-0.19761904,-0.13328308,-0.009910095,-0.027090175,-0.047566462,0.03631652,-0.05215104,-0.092098795,0.06580899,-0.13588431,-0.06700177,0.035933003,0.06974342,-0.0005550506,-1.547185e-39,5.7784e-41,-2.188946e-39,2.9406935e-38,6.2287e-40,2.002264e-39,5.38621e-40,1.9773938e-38,1.428472e-39,-0.123307034,-0.046735257,-0.09523299,-0.069242895,-0.14456055,-0.08189347,-0.09741223,-0.1625621,-0.0705889,0.06536086,0.106037915,0.01212397,0.04940054,0.100916736,-0.0061706435,-0.06031283,-0.17919585,-0.053067036,-0.025739627,-0.03337743,0.019712586,-0.22546478,-0.026555581,0.09432813,-0.14981227,-0.03698978,0.061751157,1.817379e-39,1.591725e-39,-9.70762e-40,-2.204873e-39,-1.123567e-39,-9.80766e-40,-7.41357e-40,1.361223e-39,-3.2067e-41,4.36743e-40,-2.37136e-39,5.42193e-40,2.35368e-39,1.492942e-39,3.03055e-40,4.9076e-40,-2.12428e-40,6.33398e-40,-1.385703e-39,3.28851e-40,1.645368e-39,-1.295918e-39,6.7757e-41,1.014606e-39,-1.97313e-40,6.83032e-40,1.650085e-39,9.11193e-40,5.49895e-40,-1.316563e-39,-1.219912e-39,-7.17227e-40,1.03251e-39,2.76098e-40,-6.49164e-40,2.084731e-39,-7.87513e-40,-1.170726e-39,1.346326e-39,-6.81428e-40,-2.013712e-39,-1.608197e-39,-2.38285e-40,1.747053e-39,8.32815e-40,0.027827157,-0.03827915,-0.0609984,-0.10057235,-0.17590262,-0.2069635,0.021163873,0.056745317,0.010542118,-1.926495e-39,-1.305416e-39,-1.028912e-39,1.23685e-39,-1.5077e-40,1.42072e-40,4.55299e-40,-3.32591e-40,-6.3745e-41,0.07591177,-0.0047964873,-0.009125239,0.12834051,-0.028387055,0.097769275,-0.085613646,0.0071037384,0.05936023,-0.027121348,0.04851073,0.01360107,-0.0024207684,-0.036271054,-0.049943596,-0.056543805,-0.07725218,-0.1827562,-1.943255e-39,-2.068469e-39,-2.85485e-40,1.960795e-39,1.681714e-39,8.07839e-40,-9.03802e-40,9.18355e-40,-4.10194e-40,-0.017005684,0.018770166,-0.016984772,-0.10560091,-0.0035804845,-0.067051016,-0.07583093,-0.15042575,-0.060445923,4.8695615e-38,3.8694e-40,-2.050072e-39,-6.17901e-40,-1.670231e-39,1.950195e-39,1.75054e-40,1.737122e-39,1.49065e-40,-0.023620874,0.073553875,0.027753927,-0.033242166,-0.060820602,0.022796666,-0.020883474,0.14763564,0.110172555,1.518713e-39,1.692924e-39,-7.77749e-40,1.507828e-39,9.29659e-40,3.73394e-40,1.13418e-39,8.33239e-40,-1.740507e-39,0.1885831,0.13502258,0.12404424,0.102521,0.136439,0.057058007,-0.079116344,-0.013717036,0.030511944,0.16123131,0.17138506,0.123816565,0.0439866,-0.050608475,-0.108649954,-0.08405836,-0.14427018,-0.05777801,-0.000909519,-0.01858505,-0.09680709,-0.050670143,-0.10980012,-0.019569337,-0.12244655,-0.10875642,0.14541213,-0.05853167,-0.13437846,0.0232535,-0.058989625,-0.09947759,0.021528656,0.1547568,0.0150452135,0.123355635,-0.012682587,0.0993716,-0.0056320434,-0.056026544,0.044166233,0.08373897,-0.055435434,0.023432778,0.11224744,-1.961927e-39,1.113109e-39,2.37118e-40,1.294444e-39,2.159812e-39,6.46636e-40,8.74577e-40,-8.99266e-40,-1.18666e-40,-4.190873e-38,-1.741696e-39,5.83676e-40,1.86437e-40,-1.499164e-39,-2.32656e-40,-4.2763358e-38,-1.11848e-39,-2.5004e-39,2.25322e-40,2.012665e-39,-8.35241e-40,8.96671e-40,6.56145e-40,8.44273e-40,-2.20559e-40,1.47152e-40,-7.6022e-40,0.048969317,0.07329393,-0.0104670385,-0.088434115,-0.013913767,0.049735777,0.0008895658,-0.014281338,-0.04085438,-0.005903737,0.089394264,0.07777686,0.1402618,0.18625017,0.00657168,0.118744224,0.060816523,-0.07895154,-2.48435e-40,1.9175e-41,-8.09599e-40,-1.688982e-39,-1.384902e-39,5.7145e-41,9.1436e-41,7.84597e-40,1.595752e-39,0.025482435,0.07425525,-0.16003393,-0.07751661,-0.040855795,-0.028419409,-0.049088206,-0.07876347,0.13601252,-0.034560204,0.123229176,-0.0013243539,0.17743088,0.14863645,0.036406863,0.232243,-0.015767686,0.011429148,-2.163819e-39,4.7010618e-38,-1.395756e-39,-1.57005e-39,-8.76313e-40,-2.067491e-39,2.2047e-40,6.04383e-40,1.04792e-40,0.053058114,0.102785274,0.050762787,0.0009918945,0.07131582,0.07477284,0.096417986,0.0387691,-0.12924948,3.56148e-40,-6.47846e-40,-1.292774e-39,-8.88343e-40,1.906095e-39,-1.933194e-39,-1.231065e-39,3.98035e-40,9.1312e-40,-3.43095e-40,-1.870136e-39,-7.52524e-40,-7.57622e-40,7.16103e-40,2.339451e-39,-9.59131e-40,1.596726e-39,-9.71618e-40,1.21808e-39,5.16987e-40,1.331641e-39,7.1263e-40,-1.394885e-39,3.0771e-40,-1.959556e-39,1.19441e-39,2.221031e-39,-0.004014548,0.048209004,0.032280605,-0.02901157,-0.06795665,0.031578023,0.018921636,-0.024760136,-0.0010417374,0.034077685,0.045866366,-0.1277665,-0.07994753,-0.019091794,0.007529574,-0.00044165968,0.022383137,0.24350318,-3.86538e-38,-3.5473759e-38,-2.218452e-39,2.4589e-39,1.037547e-39,-4.849446e-38,-4.848965e-38,2.2513836e-38,9.81876e-40,-4.8405983e-38,2.017964e-39,-2.027323e-39,-1.512459e-39,-6.88045e-40,-1.310972e-39,-2.112442e-39,-3.13941e-40,-8.81394e-40,0.012566131,0.07707632,0.024222875,-0.15528567,-0.069504835,-0.027305882,0.039741192,0.0125578875,0.104757614,8.0911e-40,1.40938e-40,-1.280424e-39,1.969894e-39,-2.83617e-40,3.57568e-40,-4.93956e-40,2.221558e-39,1.367006e-39,-0.071940675,-0.13538168,-0.06877882,-0.01489259,-0.08881671,0.022858491,0.013115423,0.028396485,0.04270088,-2.747676e-38,-4.6405285e-38,-1.980667e-39,1.153552e-39,-1.212324e-39,1.92298e-39,2.6739782e-38,-2.254964e-38,3.4657867e-38,-1.691747e-39,-2.47104e-40,1.13218e-39,1.610865e-39,2.68487e-40,-2.168966e-39,7.29083e-40,6.8274e-41,-5.9527e-41,3.51357e-40,-4.5623e-40,-1.610643e-39,2.211793e-39,-1.746032e-39,-2.323571e-39,9.78646e-40,-2.021397e-39,-9.20802e-40,-0.0076019973,0.07768793,0.039001465,0.07075357,-0.01978789,0.09066789,-0.093307965,-0.033510223,-0.18301171,0.01308418,-0.045048684,-0.0473151,-0.011384203,-0.09225795,0.0033425172,-0.15100786,-0.015491107,-0.018763008,-8.71637e-40,3.3177148e-38,2.76433e-40,-1.313695e-39,6.40548e-40,1.998847e-39,7.24244e-40,1.490543e-39,5.51083e-40,-1.329885e-39,-1.07067e-39,-1.758714e-39,-2.433492e-39,-1.347584e-39,-1.591575e-39,-1.185343e-39,-1.839875e-39,-1.584552e-39,0.056994393,-0.05026855,-0.15385242,0.012122198,0.031932108,-0.097078264,0.07169425,-0.08169922,-0.09727104,-0.0,0.0,-0.0,-0.0,-0.0,-0.0,0.0,-0.0,-0.0,0.0,0.0,0.0,-0.0,-0.0,-0.0,0.0,0.0,0.0,-0.0,0.0,-0.0,-0.0,-0.0,0.0,0.0,0.0,0.0,-0.0,0.0,0.0,-0.0,0.0,-0.0,-0.0,-0.0,0.0,0.0,0.0,-0.0,0.0,-0.0,-0.0,-0.0,0.0,0.0,-0.0,0.0,0.0,0.0,0.0,-0.0,0.0,-0.0,0.0,0.0,0.0,0.0,-0.0,0.0,0.0,-0.0,0.0,-0.0,0.0,0.0,0.0,0.0,0.0,-0.0,-0.0,-0.0,-0.0,-0.0,-0.0,0.0,-0.0,0.0,0.0,0.0,0.0,0.0,-0.0,0.0,0.0,0.0,-0.0,-0.0,0.0,-0.0,-0.0,-0.0,-0.0,-0.0,0.0,-0.0,0.0,-0.0,0.0,-0.0,0.0,0.0,-0.0,0.0,0.0,0.0,-0.0,-0.0,-0.0,-0.0,-0.0,-0.0,-0.0,0.0,-0.0,0.0,-0.0,0.0,-0.0,0.0,0.0,-0.0,0.0,-0.0,-0.0,0.0,0.0,0.0,0.0,0.0,-0.0,0.0,0.0,0.0,0.0,0.0,0.0,0.0,0.0,-0.0,0.0,0.0,-0.0,-0.0,0.0,-0.0,-0.0,0.0,-0.0,-0.0,0.0,-0.0,-0.0,-0.0,0.0,0.0,-0.0,-0.0,0.0,0.0,-0.0,-0.0,0.0,0.0,-0.0,-0.0,-0.0,0.0,0.0,-0.0,-0.0,0.0,-0.0,-0.0,0.0,0.0,-0.0,0.0,0.0,-0.0,-0.0,-0.0,-0.0,-0.0,0.0,0.0,-0.0,-0.0,0.0,0.0,-0.0,-0.0,-0.0,-0.0,0.0,0.0,0.0,0.0,-0.0,-0.0,-0.0,0.0,0.0,0.0,0.0,-0.0,0.0,-0.0,-0.0,-0.0,-0.0,-0.0,-0.0,-0.0,0.0,0.0,-0.0,0.0,0.0,-0.0,0.0,-0.0,-0.0,-0.0,0.0,0.0,-0.0,0.0,-0.0,0.0,-0.0,-0.0,0.0,-0.0,0.0,0.0,-0.0,-0.0,0.0,-0.0,0.0,-0.0,-0.0,-0.0,0.0,-0.0,-0.0,0.0,-0.0,-0.0,-0.0,-0.0,0.0,-0.0,-0.0,0.0,-0.0,0.0,-0.0,0.0,-0.0,0.0,0.0,-0.0,-0.0,0.0,-0.0,0.0,0.0,-0.0,-0.0,-0.0,-0.0,-0.0,-0.0,-0.0,-0.0,0.0,0.0,0.0,0.0,0.0,0.0,-0.0,-0.0,-0.0,0.0,-0.0,0.0,0.0,0.0,0.0,-0.0,0.0,-0.0,-0.0,-0.0,-0.0,0.0,0.0,-0.0,-0.0,0.0,-0.0,0.0,0.0,0.0,0.0,-0.0,-0.0,-0.0,-0.0,0.0,-0.0,0.0,0.0,-0.0,0.0,-0.0,0.0,-0.0,-0.0,-0.0,-0.0,0.0,-0.0,0.0,-0.0,0.0,-0.0,0.0,-0.0,-0.0,0.0,-0.0,0.0,-0.0,0.0,0.0,0.0,0.0,-0.0,-0.0,0.0,-0.0,0.0,0.0,-0.0,0.0,-0.0,-0.0,0.0,0.0,0.0,0.0,-0.0,0.0,-0.0,0.0,-0.0,0.0,0.0,-0.0,0.0,0.0,0.0,-0.0,0.0,-0.0,0.0,0.0,0.0,0.0,-0.0,0.0,0.0,-0.0,-0.0,-0.0,-0.0,0.0,0.0,-0.0,-0.0,0.0,-0.0,0.0,0.0,-0.0,0.0,-0.0,-0.0,0.0,0.0,0.0,-0.0,-0.0,0.0,-0.0,0.0,-0.0,-0.0,-0.0,0.0,-0.0,0.0,0.0,-0.0,0.0,0.0,0.0,-0.0,-0.0,0.0,-0.0,-0.0,0.0,0.0,-0.0,0.0,-0.0,-0.0,0.0,-0.0,0.0,-0.0,0.0,0.0,0.0,0.0,-0.0,0.0,0.0,-0.0,-0.0,-0.0,-0.0,0.0,-0.0,-0.0,0.0,0.0,-0.0,-0.0,-0.0,0.0,-0.0,0.0,-0.0,-0.0,-0.0,0.0,-0.0,0.0,-0.0,-0.0,0.0,0.0,0.0,-0.0,0.0,0.0,0.0,-0.0,0.0,-0.0,-0.0,-0.0,-0.0,-0.0,-0.0,-0.0,-0.0,0.0,-0.0,-0.0,0.0,-0.0,-0.0,-0.0,-0.0,-0.0,-0.0,0.0,0.0,-0.0,-0.0,-0.0,0.0,-0.0,-0.0,-0.0,-0.0,-0.0,0.0,-0.0,0.0,0.0,-0.0,-0.0,0.0,-0.0,0.0,-0.0,-0.0,-0.0,0.0,-0.0,0.0,-0.0,-0.0,-0.0,0.0,0.0,0.0,-0.0,-0.0,-0.0,-0.0,0.0,-0.0,-0.0,0.0,0.0,0.0,0.0,0.0,0.0,0.0,0.0,-0.0,-0.0,0.0,0.0,-0.0,0.0,0.0,0.0,0.0,-0.0,0.0,-0.0,-0.0,-0.0,0.0,0.0,-0.0,-0.0,-0.0,0.0,0.0,-0.0,-0.0,0.0,0.0,0.0,-0.0,-0.0,0.0,-0.0,0.0,0.0,0.0,0.0,-0.0,-0.0,0.0,0.0,0.0,0.0,0.0,0.0,-0.0,-0.0,0.0,0.0,0.0,3.06415e-40,8.25534e-40,-1.26512e-40,-4.87171e-40,1.000115e-39,-7.17585e-40,-2.17114e-40,-3.30502e-40,3.43244e-40,0.01872249,0.07893353,-0.047283202,0.041359212,0.047700346,-0.040448908,0.012426322,-0.018969195,-0.022521822,-3.99542e-40,4.03561e-40,-3.22587e-40,6.91088e-40,-3.19758e-40,3.2106e-40,4.73412e-40,-8.5e-44,9.2467e-41,-6.94432e-40,-3.3288e-41,6.10449e-40,-4.7078e-41,-1.38762e-40,7.2105e-40,3.60907e-40,-8.6215e-40,4.01604e-40,-0.02336046,0.046738844,0.088152125,0.06525103,0.06406659,0.031118602,0.042185314,-0.07317007,-0.028133025,-0.016617492,-0.018423032,-0.031599425,0.041735403,0.0710735,0.03032619,-0.031062867,0.07302737,0.06924333,-0.009166914,-0.052761964,-0.038044278,0.084943466,0.118358694,0.065692045,0.015430409,0.042576037,0.01719849,-3.1619e-41,-5.79712e-40,8.99063e-40,-1.82047e-40,-4.30417e-40,-7.8592e-41,-4.27183e-40,4.75625e-40,-2.53006e-40,2.03502e-40,7.05656e-40,-6.84812e-40,1.9187e-40,8.54652e-40,6.19821e-40,4.80193e-40,1.31735e-40,-2.09013e-40,-0.079340085,-0.07492587,0.024664452,-0.03666797,-0.05184762,-0.015185576,0.04060074,0.03545467,0.010375702,-0.060891658,-0.08078909,-0.0025798557,-0.0039725746,-0.023659721,0.0015236932,-0.011879054,-0.034505762,-0.027440406,-0.021343283,-0.009214305,0.0003919451,0.009959383,0.021019302,0.0034535907,0.027906151,0.0034271758,0.017858325,0.06158811,-0.0063898587,-0.015247028,0.041378852,0.039134994,0.0037117521,0.008854231,-0.0025941217,-0.0139863435,-2.05321e-40,1.00497e-39,7.29725e-40,9.92649e-40,-5.41703e-40,1.54722e-40,-1.5698e-40,-3.1503e-40,5.13772e-40,-0.03196332,0.0019972608,0.042599406,-0.04772625,-0.05755717,0.008748492,0.021344192,0.046454277,-0.036839526,-0.035553094,-0.015547733,-0.013372286,-0.012462392,-0.021778882,-0.0420867,-0.03767624,-0.0035863696,0.022875385,0.018247327,0.023969604,0.057891533,-0.00025629406,-0.014790957,0.010002524,-0.084986545,-0.07882849,-0.037859477,-1.065892e-39,-6.73991e-40,-9.36093e-40,4.01768e-40,-1.84359e-40,-5.1463e-41,-1.066462e-39,5.87447e-40,-4.42901e-40,1.25832e-40,1.068672e-39,1.060151e-39,4.22302e-40,8.50162e-40,8.80008e-40,4.05356e-40,1.001284e-39,9.00438e-40,3.562e-41,2.45844e-40,5.17005e-40,2.10013e-40,2.24964e-40,4.93582e-40,1.032278e-39,3.04805e-40,-8.88785e-40,6.50146e-40,9.74726e-40,-3.62118e-40,1.153138e-39,1.62461e-40,7.0522e-40,3.39319e-40,-6.0183e-40,-2.66481e-40,2.20508e-40,-8.89785e-40,5.06461e-40,1.17063e-40,-2.3246e-40,-1.04643e-40,1.46626e-40,6.49621e-40,9.51997e-40,0.060848255,0.070782326,0.05663217,0.053669017,0.057086565,0.037712265,0.09112879,0.05150236,0.044784077,-6.04964e-40,1.00822e-40,5.33596e-40,-6.8495e-40,1.46164e-40,-3.36392e-40,-6.22347e-40,-9.4995e-40,3.50535e-40,-0.06342129,-0.00023024804,0.014537749,-0.0539951,-0.058216173,-0.01350736,0.00021040575,-0.04108542,-0.019526394,-0.061258156,-0.015552886,-0.02136623,0.026479471,0.018655475,0.00575888,-0.005980422,-0.008947314,-0.011760403,-2.75565e-40,2.1315e-40,-6.41415e-40,2.6724e-40,7.2322e-41,-2.7114e-41,-4.69277e-40,2.22558e-40,-6.46709e-40,-0.075633295,-0.057924774,-0.009539196,0.010933414,0.037483662,0.04035283,0.052398074,0.042647123,0.05389192,1.184972e-39,-9.73786e-40,1.014045e-39,-2.70032e-40,8.53567e-40,-6.1467e-40,-4.17035e-40,-7.496e-42,-5.83206e-40,0.06098679,0.010736865,0.02196008,0.00065994053,0.040933117,0.043415893,0.0020027556,0.056471284,0.06650197,-3.60998e-40,8.12826e-40,-1.14373e-40,1.99965e-40,-8.34356e-40,2.92912e-40,2.81238e-40,5.75359e-40,6.07613e-40,0.022689966,-0.0052596573,-0.050955717,-0.00048162806,-0.0064863544,-0.0025714533,0.017787931,0.015418914,0.04274462,-0.06540274,-0.044224404,-0.03165131,0.05370974,0.040106043,-0.04188261,0.086021245,0.053112436,0.035742138,-0.022196129,-0.042170558,-0.06075847,0.002301259,-0.07017489,-0.025957739,0.08761874,0.009922061,0.032034535,0.018586168,0.009535951,-0.0118761575,0.009087845,0.033388957,0.02843531,0.0013127638,0.02954506,0.020166203,0.013623464,0.054766078,0.023196261,-0.024749741,0.03364589,0.034461077,-0.040812757,-0.036677424,-0.0117552895,-4.84891e-40,-2.1063e-41,-3.21588e-40,-8.1725e-40,7.93164e-40,-3.09475e-40,3.58878e-40,-2.62448e-40,-2.0552926e-38,2.53784e-40,2.0156643e-38,-1.8210698e-38,-9.88029e-40,8.208757e-39,-1.5559214e-38,1.4530212e-38,-5.7944e-41,-2.4172595e-38,4.06208e-40,-6.61138e-40,-5.0741e-41,2.7145e-41,2.81329e-40,4.52156e-40,-7.35165e-40,-6.75814e-40,-9.441e-40,-0.03299908,-0.015398883,-0.037788413,0.03368131,0.014317032,-0.0034435433,-0.04465726,-0.023799395,0.0020589144,0.007487844,-0.02247435,0.016408132,0.08689276,0.032143623,0.004229417,0.062290426,0.059473094,-0.07978647,9.56568e-40,-5.8038e-41,9.9702e-41,-3.53189e-40,-1.24276e-40,-3.59932e-40,7.493e-41,-8.76865e-40,5.03275e-40,-0.05286481,-0.023085129,0.03843965,-0.005965988,0.026615947,0.021937663,0.0033997372,0.00046615725,-0.019072564,0.109101176,0.047567688,-0.027981652,0.13555826,0.05224901,0.07219808,-0.046763733,-0.07423013,0.013661988,-9.78402e-40,8.43713e-40,-2.43335e-40,-2.55153e-40,-3.32178e-40,-6.0154e-41,9.73184e-40,1.030313e-39,3.13965e-40,0.0867224,0.044479504,-0.007733687,0.027078986,0.019182341,-0.006410807,0.004512469,-0.024475574,0.0068508186,4.72931e-40,-4.9572e-41,6.502e-40,-5.2833e-40,-1.06074e-40,-1.47177e-40,5.97623e-40,3.81422e-40,3.36428e-40,-3.4455e-40,-8.08804e-40,3.99185e-40,6.30101e-40,-9.9735e-41,5.2711e-40,-4.83717e-40,7.26542e-40,-5.21432e-40,6.48664e-40,9.619e-40,2.20186e-40,4.21635e-40,1.95131e-40,-5.62295e-40,6.43468e-40,-2.60384e-40,7.49354e-40,0.051068183,0.019572686,0.01943156,0.0124586215,-0.019083979,-0.013138172,-0.043642607,-0.03439713,-3.5021221e-06,-0.01436632,-0.0391042,-0.014203379,0.04136172,0.03909662,0.0259054,-0.036214143,0.040551186,0.062873036,7.29253e-40,-2.25952e-40,-7.37146e-40,5.26867e-40,3.00586e-40,-2.3698087e-38,2.98761e-40,-1.094438e-39,-1.21709e-39,6.82507e-40,3.66718e-40,2.83383e-40,-4.35748e-40,-3.50407e-40,-2.3842547e-38,-1.253265e-39,-1.061538e-39,1.16476e-40,-0.07617631,-0.05271402,0.021076696,-0.03782061,-0.020919029,-0.002872901,-0.022683155,-0.07288146,-0.0074590747,-7.76604e-40,9.5416e-41,5.58758e-40,6.31242e-40,4.33335e-40,-1.33151e-40,-1.178734e-39,-1.6712e-41,7.03448e-40,-0.06961987,-0.069175504,-0.058838043,-0.05310451,0.00045056047,-0.007659287,-0.070736825,-0.013322525,0.020047482,1.013412e-39,-2.341e-41,-9.61299e-40,-2.64642e-40,-1.93355e-40,-9.82101e-40,-1.123509e-39,1.095165e-39,1.30305e-40,-7.77897e-40,-4.8082e-40,-8.53975e-40,-8.09628e-40,3.05571e-40,4.80351e-40,-9.2528e-40,-8.32301e-40,3.95332e-40,-8.672e-41,6.18295e-40,4.38419e-40,-2.4178e-40,6.48702e-40,8.841e-40,2.85422e-40,-4.28867e-40,-6.58593e-40,0.055182833,0.01750993,0.022684861,-0.0145036625,-0.012349311,-0.008704121,-0.032768272,-0.023850553,-0.036668155,-0.023204507,-0.041524228,-0.04151215,0.031699926,0.018278683,-0.0065442757,-0.047421113,0.0033727875,0.0035426242,-9.02635e-40,-2.04299e-38,9.17537e-40,6.48934e-40,-3.9893e-40,4.32467e-40,-6.13065e-40,-4.23237e-40,-1.9918e-38,-1.126086e-39,-9.43313e-40,-7.72136e-40,-3.97803e-40,5.60109e-40,-4.97408e-40,-2.84195e-40,-3.24675e-40,-7.22249e-40,-0.00680967,0.054255616,0.050338246,-0.010562472,0.01712032,-0.042806555,0.05846687,0.04716692,-0.00056604465,4.927586e-38,3.8301013e-38,6.044331e-38,5.565112e-38,6.30373e-40,-2.209529e-38,7.6568e-41,-1.629492e-39,-6.228925e-38,-0.090558164,-0.037147623,0.1979161,-0.04680079,-0.009223858,-0.16893007,0.018129654,-0.12981243,-0.10209904,3.078305e-39,7.88669e-40,-2.502004e-39,-2.337331e-39,-4.012e-40,1.08479e-40,2.393097e-39,3.24151e-40,-1.195386e-39,2.282508e-39,6.39595e-40,-5.43091e-40,4.00162e-40,-1.19242e-39,5.874233e-38,4.84189e-40,2.740637e-39,-2.428554e-39,-0.17105791,-0.10951628,-0.07052615,-0.12319143,-0.054270655,-0.1831997,0.4826487,0.3159404,-0.055470437,-0.12841764,0.017224561,0.16524352,0.017573789,0.08342372,0.0039660996,0.0014417381,0.12306279,-0.02576248,0.031398058,-0.050636146,-0.04613119,-0.22043438,-0.31749836,-0.2245212,-0.1883894,-0.101779096,-0.04475439,2.591552e-39,-2.986449e-39,-6.62961e-40,-2.352843e-39,1.79603e-40,2.72502e-40,1.357637e-39,-7.60426e-40,-2.468464e-39,2.5871933e-38,3.7140157e-38,6.8579396e-38,5.78431e-40,-1.980319e-39,-1.9777304e-38,4.9714e-38,-5.449307e-38,-2.3239156e-38,0.08488834,0.00642934,0.008622737,0.016567292,-0.036330402,-0.16222683,-0.006423672,-0.18284668,-0.1897262,-0.28399456,-0.27258405,0.017792322,-0.18559223,-0.044782046,0.039573066,0.008495671,0.04493003,-0.23277144,0.07927209,-0.107807614,-0.07403944,0.031452972,0.02131511,0.11225599,-0.07213905,-0.047568467,-0.017624158,0.13076647,0.053235874,0.0824544,-0.04053855,0.02693683,-0.03653823,-0.02853215,0.061750248,-0.053607546,-6.2417247e-38,-6.297013e-38,5.393907e-38,-5.325208e-38,2.775071e-39,-1.2683716e-38,3.7485292e-38,4.6099065e-38,4.2061145e-38,0.049173877,-0.051475257,-0.03745281,-0.06581892,-0.1830937,-0.06609816,-0.24697983,-0.10713367,0.06477409,-0.16717263,-0.22743863,-0.060004026,-0.10981807,-0.24670625,-0.0897074,-0.07381004,-0.11070753,-0.15942481,0.2143258,0.08635417,0.07456035,0.032706674,-0.058960903,-0.10580171,-0.02352526,-0.032848787,-0.06788621,-3.298549e-39,-3.9259677e-38,2.658961e-38,-3.4467492e-38,1.799005e-39,-2.514333e-39,-4.082618e-38,-4.926531e-38,4.9683676e-38,-6.1008393e-38,4.155345e-38,1.371868e-39,3.2770107e-38,-2.922597e-39,1.927445e-39,2.33388e-39,-5.870973e-38,-1.10215e-39,1.386787e-39,-8.1513e-40,-2.457223e-39,2.078704e-39,2.81962e-40,-1.624587e-39,1.04679e-39,-1.017319e-39,4.96958e-40,2.057393e-39,-1.729115e-39,-2.691705e-39,2.068693e-39,-1.4873e-41,-6.82763e-40,2.802766e-39,-8.03146e-40,6.41891e-40,-6.3511e-40,1.05137e-40,6.1818e-41,3.051119e-39,3.32939e-40,1.886012e-39,-1.523793e-39,-1.61581e-40,-2.27726e-39,-0.054542087,-0.030940471,-0.04037895,0.06149421,-0.0011399391,0.11953313,0.02163551,0.0016397465,0.08063411,-1.917967e-39,-1.63241e-39,1.168969e-39,1.429916e-39,5.212e-41,-1.374755e-39,1.618347e-39,-6.0621e-40,1.216354e-39,-0.10847064,-0.09638595,-0.05649356,-0.16064219,-0.010566135,-0.103555344,-0.060489535,-0.010257515,-0.1723547,0.09212267,0.18943387,-0.09842649,0.017012544,0.08537581,-0.23003057,-0.03298844,-0.112733744,-0.14048693,-1.9710374e-38,1.451974e-39,-5.495008e-38,-1.06245e-39,-1.821897e-39,-2.6144575e-38,-3.6757104e-38,-3.7645642e-38,-1.455796e-39,0.18752998,-0.094979614,-0.012788764,0.19264811,-0.09698242,0.017446922,0.32442355,0.15507913,0.08991073,5.762413e-38,-2.196527e-39,-2.355534e-39,3.371579e-39,-6.24124e-40,-3.390243e-39,3.253416e-39,4.3534e-41,3.7017247e-38,-0.14643481,-0.10345325,-0.125383,0.13449034,-0.089609794,-0.03630053,0.044961706,-0.11662113,0.018690927,1.640077e-39,1.592773e-39,1.106412e-39,9.92325e-40,-2.583917e-39,2.372649e-39,-1.490327e-39,-1.24856e-40,-1.949681e-39,-0.03136268,0.23652734,-0.01814522,0.057947554,0.05693617,0.035634205,-0.044873368,-0.19508466,0.011003591,-0.17367828,0.03017261,-0.052511834,-0.005038452,0.028525423,0.03930445,-0.044206485,-0.08529344,-0.084695965,0.14739291,-0.02958698,0.06409089,0.12623817,-0.06232639,0.08240976,0.043936823,-0.16091725,0.013009273,0.11418086,0.004563407,-0.12374419,-0.04485891,-0.012772279,-0.15052582,0.0415794,-0.042248823,-0.12858169,0.13552496,0.15136087,0.15916371,-0.06392434,-0.07394047,-0.014034896,-0.0121722305,-0.054396164,-0.07457243,-6.8654163e-38,1.925755e-39,-1.778221e-39,-2.404297e-39,-3.074051e-39,-5.57163e-40,2.636344e-39,1.881123e-39,1.91995e-40,-1.176237e-39,-6.068995e-38,1.946745e-39,-3.062584e-39,-7.06686e-40,4.297972e-38,-6.870054e-38,2.590538e-39,-6.6483344e-38,6.3779724e-38,-6.0597e-40,-2.3278e-41,1.026741e-39,1.251912e-39,-2.957677e-39,6.868319e-38,-5.181931e-38,1.878928e-39,0.014007684,0.07546144,0.01591397,0.05945005,-0.24701431,-0.042400617,-0.1156766,-0.16961984,0.112977706,-0.36822924,-0.20044087,-0.17412597,-0.20235378,-0.14752623,-0.3385178,-0.06973071,0.019832196,-0.17202263,-1.849553e-39,3.030664e-39,-1.348238e-39,8.9177e-40,3.03863e-40,-3.2642e-41,1.00412e-39,7.46099e-40,1.349627e-39,-0.1361334,-0.004818444,-0.098005205,0.011241199,0.07614379,-0.14792712,0.0806228,0.041844252,-0.14921063,-0.13198507,-0.0040207286,0.042287886,0.10228033,-0.02147169,-0.0004791326,-0.04371949,-0.09747892,-0.30282637,-3.7829812e-38,1.770385e-39,5.776944e-38,-2.300868e-39,-2.363165e-39,-6.7370725e-38,-5.17415e-40,-6.8211286e-38,4.150942e-38,0.21418926,0.14409748,0.14162226,0.14887491,0.40974817,0.43757352,-0.11774784,-0.011668039,0.2340604,-3.018107e-39,3.7601328e-38,2.58261e-39,6.0102543e-38,3.394262e-39,-1.574935e-39,-2.925792e-39,-2.093711e-39,-4.9906555e-38,-6.3355837e-38,-2.819178e-39,-6.7936867e-38,-4.8391656e-38,-1.7217e-40,-4.626892e-38,6.350361e-38,-5.9775e-41,-6.063504e-38,3.97648e-40,4.567912e-38,4.5652082e-38,-1.08906e-40,-2.51024e-40,-1.715157e-39,-2.606531e-39,1.334527e-39,4.7769586e-38,0.067975976,-0.18807903,-0.13614811,0.026976857,-0.045901716,0.0091801025,-0.07737276,0.07371327,0.15750787,0.034423016,-0.0049420283,-0.012449494,0.12050025,-0.13715574,-0.031218555,-0.08532719,-0.041090116,-0.06849765,2.7723034e-38,5.181355e-38,-5.424742e-38,-1.358036e-39,-2.995605e-39,1.2927952e-38,-1.994406e-39,-2.6063064e-38,5.306798e-38,5.0504e-40,-3.4442663e-38,-1.567959e-39,2.441976e-39,-1.357205e-39,5.23997e-40,-1.942851e-39,-2.93503e-40,-9.08861e-40,0.15271771,0.17471702,0.17848438,-0.019829342,0.10766234,-0.008989633,-0.14704213,-0.08213491,0.005714878,-3.462428e-39,-3.785499e-38,5.3981677e-38,5.1438006e-38,1.334664e-39,-1.409315e-39,-1.51157e-39,-5.5428613e-38,3.328615e-39,0.2865329,0.23594548,0.056683015,0.2862489,0.1959399,0.32954183,0.048877273,-0.15186653,-0.10956391,-6.029207e-38,3.7527022e-38,-6.066103e-38,1.239114e-39,1.46e-42,-1.220469e-38,2.195105e-39,-3.6489691e-38,-4.7912356e-38,1.345076e-39,3.8257444e-38,-4.510027e-38,-3.8853875e-38,-2.603094e-39,-1.45763e-40,-2.0936363e-38,-5.0928186e-38,4.1005205e-38,-5.84987e-40,5.16041e-40,2.503966e-39,-9.2079e-40,-1.367133e-39,3.004653e-39,1.924899e-39,-2.078135e-39,-1.596047e-39,-0.02756208,0.090931885,-0.19049162,-0.1032957,0.022897262,-0.022604344,-0.002260489,0.03921228,-0.023768034,-0.042812295,-0.005705467,-0.013652502,0.12285631,-0.047940485,-0.030096939,-0.009676609,0.024453377,0.023274835,-6.6885377e-38,3.157606e-38,2.7799508e-38,-5.710415e-38,-1.231484e-39,1.087671e-39,5.666262e-38,-4.5806104e-38,3.7175756e-38,1.362972e-39,2.202098e-39,6.97962e-40,-1.576635e-39,-1.936362e-39,3.16562e-39,-4.82886e-40,2.968556e-39,-6.4659e-40,-0.16164882,-0.03733867,-0.011215844,-0.15737471,-0.12353038,-0.020962812,0.016207289,-0.0735225,0.079050995,-0.0,-0.0,0.0,-0.0,0.0,-0.0,0.0,-0.0,0.0,0.0,0.0,-0.0,0.0,0.0,0.0,0.0,-0.0,0.0,0.0,-0.0,0.0,0.0,0.0,-0.0,0.0,0.0,0.0,-0.0,0.0,0.0,-0.0,-0.0,-0.0,-0.0,0.0,-0.0,-0.0,0.0,0.0,-0.0,-0.0,-0.0,0.0,0.0,0.0,0.0,0.0,0.0,0.0,0.0,0.0,-0.0,-0.0,-0.0,-0.0,-0.0,-0.0,0.0,0.0,0.0,0.0,0.0,0.0,-0.0,-0.0,0.0,0.0,0.0,0.0,0.0,0.0,0.0,0.0,0.0,0.0,-0.0,-0.0,0.0,0.0,0.0,0.0,0.0,0.0,-0.0,0.0,0.0,0.0,0.0,0.0,0.0,0.0,-0.0,0.0,-0.0,-0.0,-0.0,-0.0,-0.0,-0.0,0.0,0.0,0.0,0.0,-0.0,0.0,0.0,-0.0,-0.0,-0.0,-0.0,-0.0,-0.0,-0.0,-0.0,-0.0,0.0,-0.0,0.0,-0.0,-0.0,-0.0,-0.0,0.0,-0.0,-0.0,-0.0,-0.0,-0.0,-0.0,-0.0,-0.0,-0.0,-0.0,-0.0,0.0,-0.0,0.0,0.0,-0.0,-0.0,-0.0,0.0,-0.0,0.0,0.0,-0.0,0.0,-0.0,-0.0,0.0,0.0,-0.0,0.0,-0.0,-0.0,0.0,-0.0,-0.0,0.0,0.0,0.0,-0.0,-0.0,0.0,0.0,0.0,-0.0,-0.0,-0.0,0.0,0.0,0.0,0.0,-0.0,0.0,0.0,0.0,-0.0,-0.0,-0.0,-0.0,-0.0,0.0,-0.0,-0.0,0.0,-0.0,0.0,-0.0,-0.0,-0.0,-0.0,-0.0,-0.0,-0.0,0.0,-0.0,0.0,-0.0,0.0,0.0,0.0,0.0,0.0,0.0,0.0,0.0,0.0,0.0,-0.0,0.0,-0.0,-0.0,-0.0,-0.0,-0.0,-0.0,-0.0,-0.0,-0.0,0.0,-0.0,0.0,-0.0,0.0,0.0,0.0,0.0,0.0,0.0,0.0,-0.0,-0.0,-0.0,0.0,0.0,0.0,-0.0,0.0,-0.0,0.0,-0.0,-0.0,-0.0,0.0,-0.0,-0.0,-0.0,-0.0,0.0,0.0,0.0,0.0,0.0,0.0,0.0,0.0,0.0,-0.0,-0.0,0.0,-0.0,-0.0,0.0,-0.0,0.0,0.0,0.0,0.0,0.0,-0.0,-0.0,0.0,0.0,0.0,0.0,0.0,0.0,-0.0,0.0,-0.0,0.0,0.0,-0.0,-0.0,-0.0,0.0,-0.0,-0.0,-0.0,-0.0,0.0,0.0,0.0,0.0,0.0,-0.0,0.0,0.0,-0.0,0.0,-0.0,-0.0,-0.0,-0.0,-0.0,-0.0,-0.0,-0.0,0.0,0.0,0.0,0.0,0.0,0.0,-0.0,0.0,-0.0,-0.0,-0.0,-0.0,0.0,0.0,-0.0,-0.0,0.0,0.0,0.0,0.0,0.0,0.0,-0.0,-0.0,-0.0,-0.0,0.0,-0.0,0.0,0.0,-0.0,-0.0,-0.0,0.0,0.0,-0.0,0.0,0.0,0.0,0.0,0.0,0.0,-0.0,0.0,-0.0,0.0,0.0,-0.0,-0.0,0.0,0.0,-0.0,0.0,-0.0,-0.0,-0.0,0.0,0.0,0.0,0.0,-0.0,0.0,0.0,0.0,0.0,-0.0,0.0,0.0,-0.0,0.0,0.0,0.0,0.0,-0.0,0.0,0.0,0.0,0.0,-0.0,-0.0,0.0,0.0,0.0,0.0,0.0,0.0,0.0,-0.0,0.0,-0.0,-0.0,-0.0,-0.0,0.0,0.0,0.0,-0.0,-0.0,-0.0,0.0,0.0,0.0,0.0,0.0,0.0,0.0,0.0,0.0,0.0,0.0,0.0,0.0,-0.0,-0.0,-0.0,0.0,-0.0,-0.0,0.0,-0.0,-0.0,0.0,0.0,-0.0,-0.0,0.0,0.0,-0.0,0.0,-0.0,0.0,-0.0,-0.0,0.0,0.0,0.0,0.0,-0.0,0.0,0.0,-0.0,0.0,0.0,0.0,0.0,0.0,-0.0,0.0,0.0,0.0,0.0,-0.0,-0.0,0.0,0.0,-0.0,0.0,-0.0,0.0,0.0,0.0,0.0,-0.0,-0.0,-0.0,0.0,0.0,-0.0,0.0,0.0,-0.0,-0.0,0.0,0.0,-0.0,-0.0,-0.0,0.0,-0.0,-0.0,-0.0,-0.0,-0.0,-0.0,-0.0,-0.0,0.0,0.0,-0.0,0.0,-0.0,-0.0,-0.0,0.0,0.0,-0.0,-0.0,-0.0,-0.0,-0.0,-0.0,-0.0,0.0,-0.0,0.0,-0.0,0.0,0.0,-0.0,0.0,-0.0,0.0,-0.0,0.0,0.0,0.0,0.0,-0.0,-0.0,-0.0,-0.0,-0.0,-0.0,-0.0,-0.0,-0.0,-0.0,-0.0,-0.0,-0.0,-0.0,0.0,0.0,0.0,0.0,0.0,0.0,-0.0,0.0,-0.0,0.0,0.0,0.0,-0.0,0.0,0.0,-0.0,-0.0,-0.0,-0.0,-0.0,0.0,-0.0,-0.0,0.0,0.0,-0.0,0.0,-0.0,-0.0,-0.0,-0.0,-0.0,-0.0,-0.0,-0.0,0.0,0.0,0.0,0.0,0.0,0.0,0.0,0.0,-0.0,-0.0,-0.0,-0.0,-0.0,0.0,-0.0,-0.0,0.0,-0.0,-0.0,0.0,0.0,0.0,0.0,0.0,0.0,0.0,0.0,0.0,-0.0,0.0,0.0,0.0,0.0,0.0,-0.0,0.0,0.0,-0.0,-0.0,-0.0,-0.0,-0.0,-0.0,0.0,0.0,0.0,0.0,0.0,0.0,0.0,0.0,0.0,0.0,0.0,0.0,0.0,0.0,0.0,0.0,0.0,0.0,0.0,0.0,0.0,-0.0,-0.0,-0.0,-0.0,0.0,0.0,0.0,0.0,0.0,0.0,-0.0,-0.0,0.0,0.0,0.0,-0.0,-0.0,-0.0,0.0,-0.0,0.0,-0.0,-0.0,-0.0,-0.0,0.0,0.0,0.0,0.0,0.0,0.0,0.0,0.0,0.0,0.0,0.0,0.0,0.0,0.0,0.0,0.0,0.0,-0.0,0.0,0.0,-0.0,0.0,0.0,-0.0,0.0,0.0,0.0,0.0,0.0,-0.0,-0.0,-0.0,0.0,0.0,0.0,-0.0,-0.0,-0.0,0.0,0.0,0.0,0.0,0.0,-0.0,0.0,0.0,0.0,0.0,0.0,0.0,0.0,0.0,0.0,-0.0,-0.0,-0.0,-0.0,-0.0,-0.0,0.0,0.0,0.0,0.0,0.0,0.0,0.0,0.0,0.0,0.0,0.0,0.0,0.0,0.0,0.0,-0.0,0.0,-0.0,-0.0,-0.0,-0.0,0.0,-0.0,-0.0,0.0,-0.0,-0.0,-0.0,-0.0,-0.0,-0.0,0.0,0.0,-0.0,-0.0,0.0,-0.0,0.0,0.0,0.0,-0.0,-0.0,-0.0,-0.0,0.0,0.0,-0.0,0.0,-0.0,-0.0,-0.0,0.0,0.0,0.0,0.0,0.0,0.0,0.0,0.0,0.0,-0.0,0.0,0.0,-0.0,-0.0,-0.0,0.0,-0.0,0.0,0.0,0.0,0.0,0.0,0.0,0.0,-0.0,-0.0,0.0,-0.0,-0.0,-0.0,0.0,-0.0,-0.0,-0.0,-0.0,-0.0,0.0,0.0,0.0,0.0,0.0,-0.0,0.0,0.0,0.0,0.0,-0.0,-0.0,0.0,0.0,0.0,0.0,0.0,0.0,-0.0,0.0,-0.0,-0.0,-0.0,-0.0,0.0,0.0,0.0,-0.0,-0.0,-0.0,0.0,0.0,0.0,0.0,0.0,0.0,-0.0,0.0,-0.0,-0.0,-0.0,-0.0,-0.0,-0.0,-0.0,0.0,0.0,0.0,0.0,0.0,0.0,0.0,0.0,0.0,-0.0,0.0,0.0,-0.0,0.0,0.0,-0.0,-0.0,-0.0,0.0,0.0,0.0,-0.0,0.0,0.0,0.0,0.0,0.0,0.0,0.0,0.0,0.0,0.0,0.0,0.0,0.0,0.0,0.0,0.0,-0.0,0.0,-0.0,0.0,-0.0,-0.0,-0.0,-0.0,-0.0,0.0,0.0,0.0,-0.0,0.0,0.0,-0.0,0.0,0.0,0.0,0.0,0.0,-0.0,-0.0,-0.0,-0.0,-0.0,-0.0,0.0,-0.0,-0.0,-0.0,-0.0,0.0,-0.0,0.0,-0.0,0.0,0.0,-0.0,-0.0,-0.0,-0.0,-0.0,-0.0,0.0,0.0,0.0,-0.0,-0.0,0.0,0.0,0.0,-0.0,-0.0,-0.0,0.0,0.0,-0.0,-0.0,0.0,0.0,-0.0,-0.0,-0.0,0.0,0.0,0.0,0.0,0.0,0.0,0.0,0.0,0.0,0.0,0.0,0.0,0.0,0.0,0.0,-0.0,0.0,-0.0,-0.0,-0.0,-0.0,0.0,0.0,0.0,-0.0,-0.0,-0.0,-0.0,-0.0,-0.0,-0.0,-0.0,-0.0,0.0,0.0,0.0,0.0,0.0,-0.0,0.0,0.0,0.0,0.0,-0.0,-0.0,0.0,-0.0,-0.0,-0.0,-0.0,-0.0,-0.0,-0.0,-0.0,-0.0,-0.0,-0.0,-0.0,-0.0,-0.0,-0.0,-0.0,-0.0,-0.0,-0.0,-0.0,-0.0,-0.0,-0.0,-0.0,-0.0,-0.0,-0.0,-0.0,-0.0,0.0,-0.0,-0.0,0.0,0.0,-0.0,-0.0,0.0,-0.0,0.0,-0.0,-0.0,0.0,0.0,0.0,0.0,0.0,0.0,0.0,-0.0,-0.0,0.0,0.0,0.0,0.0,0.0,0.0,0.0,0.0,0.0,0.0,-0.0,-0.0,-0.0,-0.0,-0.0,-0.0,-0.0,-0.0,0.0,-0.0,-0.0,0.0,0.0,-0.0,0.0,-0.0,-0.0,0.0,0.0,0.0,0.0,0.0,0.0,-0.0,-0.0,-0.0,-0.0,-0.0,0.0,-0.0,-0.0,-0.0,0.0,0.0,0.0,0.0,0.0,0.0,0.0,0.0,0.0,0.0,0.0,0.0,-0.0,-0.0,-0.0,-0.0,-0.0,-0.0,-0.0,-0.0,-0.0,0.0,0.0,0.0,0.0,0.0,0.0,0.0,0.0,0.0,0.0,0.0,0.0,-0.0,0.0,0.0,0.0,0.0,0.0,-0.0,-0.0,0.0,-0.0,-0.0,-0.0,-0.0,0.0,-0.0,0.0,0.0,-0.0,0.0,0.0,0.0,0.0,0.0,0.0,0.0,-0.0,0.0,-0.0,0.0,0.0,-0.0,0.0,-0.0,0.0,0.0,0.0,0.0,-0.0,-0.0,0.0,0.0,-0.0,0.0,0.0,-0.0,-0.0,-0.0,0.0,0.0,0.0,0.0,0.0,0.0,0.0,0.0,-0.0,-0.0,-0.0,-0.0,0.0,-0.0,-0.0,-0.0,0.0,0.0,-0.0,0.0,0.0,0.0,-0.0,-0.0,-0.0,-0.0,-0.0,-0.0,-0.0,-0.0,-0.0,-0.0,-0.0,-0.0,-0.0,-0.0,-0.0,-0.0,-0.0,-0.0,-0.0,0.0,-0.0,0.0,0.0,-0.0,0.0,-0.0,0.0,-0.0,0.0,0.0,0.0,0.0,-0.0,-0.0,0.0,-0.0,0.0,-0.0,-0.0,-0.0,0.0,-0.0,-0.0,-0.0,0.0,-0.0,0.0,0.0,-0.0,0.0,0.0,-0.0,0.0,0.0,0.0,0.0,-0.0,0.0,0.0,0.0,-0.0,-0.0,-0.0,-0.0,-0.0,-0.0,-0.0,-0.0,-0.0,-0.0,-0.0,-0.0,0.0,0.0,0.0,0.0,-0.0,-0.0,0.0,0.0,-0.0,0.0,0.0,0.0,0.0,0.0,0.0,0.0,0.0,0.0,0.0,-0.0,-0.0,0.0,0.0,0.0,0.0,0.0,-0.0,-0.0,-0.0,-0.0,-0.0,-0.0,-0.0,-0.0,-0.0,-0.0,-0.0,0.0,0.0,-0.0,-0.0,0.0,0.0,0.0,0.0,-0.0,0.0,-0.0,-0.0,0.0,0.0,0.0,-0.0,-0.0,-0.0,0.0,0.0,0.0,0.0,-0.0,0.0,-0.0,-0.0,-0.0,0.0,0.0,-0.0,-0.0,-0.0,0.0,-0.0,0.0,-0.0,-0.0,0.0,0.0,0.0,-0.0,-0.0,0.0,0.0,-0.0,0.0,0.0,0.0,0.0,0.0,-0.0,-0.0,0.0,0.0,-0.0,-0.0,0.0,0.0,0.0,-0.0,-0.0,-0.0,0.0,0.0,0.0,-0.0,-0.0,0.0,-0.0,0.0,0.0,0.0,0.0,-0.0,0.0,0.0,-0.0,0.0,0.0,-0.0,-0.0,0.0,0.0,-0.0,0.0,0.0,-0.0,0.0,0.0,-0.0,-0.0,-0.0,0.0,0.0,-0.0,-0.0,0.0,0.0,-0.0,0.0,0.0,0.0,0.0,0.0,-0.0,0.0,-0.0,0.0,0.0,0.0,0.0,0.0,0.0,0.0,0.0,0.0,0.0,0.0,0.0,0.0,0.0,0.0,0.0,-0.0,-0.0,-0.0,-0.0,0.0,-0.0,-0.0,0.0,-0.0,0.0,0.0,0.0,0.0,0.0,0.0,0.0,-0.0,0.0,-0.0,-0.0,0.0,-0.0,0.0,0.0,0.0,0.0,0.0,0.0,0.0,-0.0,-0.0,-0.0,0.0,0.0,-0.0,0.0,-0.0,-0.0,0.0,0.0,0.0,0.0,0.0,0.0,0.0,0.0,-0.0,-0.0,0.0,0.0,0.0,-0.0,-0.0,-0.0,0.0,-0.0,0.0,0.0,-0.0,-0.0,-0.0,-0.0,0.0,0.0,-0.0,-0.0,0.0,-0.0,-0.0,-0.0,-0.0,-0.0,-0.0,0.0,-0.0,0.0,0.0,-0.0,0.0,0.0,-0.0,0.0,0.0,0.0,-0.0,0.0,-0.0,-0.0,-0.0,0.0,0.0,-0.0,0.0,0.0,-0.0,-0.0,0.0,-0.0,-0.0,0.0,-0.0,0.0,0.0,0.0,0.0,0.0,0.0,0.0,0.0,0.0,-0.0,-0.0,-0.0,-0.0,-0.0,-0.0,-0.0,-0.0,-0.0,-0.0,-0.0,0.0,-0.0,0.0,-0.0,0.0,-0.0,0.0,0.0,-0.0,-0.0,0.0,0.0,-0.0,-0.0,-0.0,0.0,-0.0,-0.0,0.0,0.0,0.0,-0.0,0.0,-0.0,0.0,-0.0,-0.0,-0.0,-0.0,0.0,0.0,0.0,-0.0,-0.0,-0.0,0.0,-0.0,0.0,-0.0,0.0,0.0,0.0,0.0,0.0,-0.0,0.0,0.0,-0.0,0.0,0.0,-0.0,0.0,-0.0,0.0,0.0,-0.0,0.0,0.0,0.0,0.0,-0.0,-0.0,-0.0,-0.0,-0.0,-0.0,-0.0,0.0,-0.0,0.0,0.0,-0.0,-0.0,0.0,0.0,0.0,0.0,-0.0,0.0,-0.0,-0.0,0.0,-0.0,-0.0,-0.0,0.0,0.0,0.0,0.0,-0.0,-0.0,0.0,0.0,-0.0,0.0,-0.0,0.0,0.0,-0.0,-0.0,0.0,-0.0,-0.0,0.0,-0.0,0.0,-0.0,-0.0,0.0,-0.0,0.0,0.0,-0.0,-0.0,0.0,0.0,0.0,-0.0,-0.0,-0.0,-0.0,-0.0,-0.0,0.0,0.0,-0.0,0.0,-0.0,-0.0,0.0,-0.0,0.0,-0.0,0.0,0.0,0.0,-0.0,-0.0,-0.0,-0.0,-0.0,0.0,0.0,0.0,0.0,0.0,-0.0,0.0,0.0,0.0,0.0,-0.0,0.0,-0.0,-0.0,0.0,-0.0,0.0,0.0,0.0,0.0,-0.0,-0.0,-0.0,0.0,0.0,0.0,0.0,0.0,0.0,-0.0,0.0,0.0,0.0,0.0,0.0,0.0,0.0,2.04148e-40,-2.55942e-40,-2.41895e-40,1.3122e-40,2.7209e-41,5.0102e-40,7.46964e-40,7.86885e-40,6.93964e-40,0.0022443081,-0.0026819918,-0.0063778316,0.013181225,0.009384047,0.031741414,0.02962298,0.022408709,0.01882173,2.67431e-40,8.42375e-40,4.7386e-41,2.72547e-40,-2.2381e-40,-7.94825e-40,-3.94519e-40,-7.77952e-40,1.3598e-41,-1.87855e-40,-6.20868e-40,-2.16792e-40,6.4351e-40,1.3492e-41,-3.5261e-40,7.18719e-40,2.7555e-41,6.37599e-40,0.0012234406,0.03208383,0.016844047,0.0044868626,0.00725033,-0.025206925,-0.0056388257,-0.011920681,-0.023105413,-0.0057010837,0.010401827,-0.011693825,-0.046875283,-0.019125592,-0.032785337,-0.06648038,-0.01677189,0.0006433098,0.045554876,0.022652293,0.00773903,-0.010058351,-0.029488368,-0.025689006,0.0022897935,0.0021748948,-0.024330271,5.96681e-40,2.03659e-40,2.11438e-40,-2.79237e-40,-1.48185e-40,-8.39337e-40,-8.1973e-41,-9.652e-42,-6.39644e-40,-5.614e-40,-7.372e-40,5.00565e-40,-1.70922e-40,5.69982e-40,4.62871e-40,4.3102e-40,3.10179e-40,7.63867e-40,0.037558433,0.040851373,0.038704548,0.028011842,0.045770444,0.048315044,-0.008648485,-0.0038760274,-0.002792849,-0.024291487,-0.019804217,-0.034709424,0.03773807,0.031462006,0.03114605,-0.031799685,-0.055457775,-0.03136485,-0.013277651,-0.03766188,-0.001424338,-0.0026936047,0.0013969357,0.03911515,-0.023769364,0.007310217,-0.0068309954,0.06625865,0.055499937,0.050942115,0.065056734,0.05924472,0.048065785,0.029374747,0.037637558,0.041336615,-5.20407e-40,5.19733e-40,-2.91935e-40,3.4993e-40,5.85607e-40,7.39108e-40,3.87396e-40,4.38838e-40,-3.82114e-40,-0.010058491,-0.00025892357,0.011935785,-0.037767954,-0.020950725,-0.042762138,-0.044226687,-0.01846874,-0.025208866,0.005510096,0.018914595,0.016965749,-0.020477716,-0.0031285794,-0.024998868,-0.014495483,0.00013346574,-0.017625779,0.02880196,0.012773925,0.010866193,-0.00022064123,-0.019746667,0.0015362807,0.014052889,-0.0108814975,0.006091361,1.0452e-40,-2.44176e-40,-4.26695e-40,-8.507e-40,-1.98253e-40,1.03269e-40,5.91621e-40,-5.83122e-40,-6.34624e-40,-9.1002e-41,-5.9807e-40,-5.8562e-41,-7.3977e-40,-5.93199e-40,-1.89e-41,-3.1688e-40,-3.844e-40,-2.59907e-40,8.3484e-40,3.1674e-40,-5.88587e-40,4.34768e-40,3.0122e-41,-8.04288e-40,2.93631e-40,5.60863e-40,-4.52468e-40,3.10123e-40,-1.81059e-40,-6.59595e-40,-9.656e-41,-6.4556e-41,6.09729e-40,-3.47743e-40,-4.609e-41,-4.75765e-40,6.97e-41,-2.04875e-40,-2.12162e-40,-5.27604e-40,-1.76334e-40,4.64815e-40,3.39181e-40,8.1051e-41,5.76866e-40,-0.012444326,-0.024666624,-0.05055623,-0.032926004,-0.021760283,-0.0018980554,-0.007884522,0.0008704177,0.0021096622,-6.21126e-40,-6.9391e-41,-1.32203e-40,-8.8366e-41,-3.80308e-40,6.78304e-40,2.82276e-40,8.695e-41,5.57724e-40,-0.04064314,-0.027281864,-0.020076107,-0.02554917,-0.029503675,-0.0152215175,-0.014040576,-0.011846991,-0.021164792,-0.025850877,0.010391278,0.025486598,-0.045847796,-0.031677775,-0.0043422203,-0.025545806,0.0063399514,0.010952903,5.7691e-41,-2.09274e-40,-1.8227e-41,7.56595e-40,1.00823e-40,-2.39514e-40,2.492e-42,6.17648e-40,-4.94857e-40,-0.036786485,-0.026393898,0.006272825,-0.009524566,-0.012248692,0.00914513,0.003455027,-0.0298911,-0.035491,1.014015e-39,2.5506e-40,-7.26894e-40,1.04079e-40,-2.3577e-40,1.15499e-40,-1.034827e-39,-2.55069e-40,3.44324e-40,0.04000393,0.019742046,0.003454904,0.020970766,0.01964565,0.022400182,-0.026305746,-0.016174097,-0.00304793,4.42911e-40,8.84511e-40,-9.41985e-40,-4.45979e-40,-6.71896e-40,1.00731e-40,7.44714e-40,-3.59517e-40,-6.59747e-40,-0.057344444,-0.036155503,-0.050974082,-0.03685398,-0.03273113,-0.054217283,-0.042297263,-0.04423824,-0.030334998,0.0073911697,0.027279723,0.023076357,-0.02290998,-0.0073561715,0.027717836,-0.000920854,0.019097438,0.054498542,-0.00802477,-0.00061583554,0.04350045,0.011384204,-0.020570233,0.012707162,-0.016558947,-0.026899165,0.01811241,-0.027117383,-0.057777,-0.033533797,-0.0016609546,-0.010858005,0.010096682,-0.0048694755,0.017999567,0.03167984,0.0013876319,0.00790071,0.00751497,-0.0038728504,-0.0005714588,-0.009661431,-0.01567202,-0.017660024,-0.0368145,6.33572e-40,5.6e-44,9.07613e-40,2.88052e-40,-7.16759e-40,-9.85207e-40,5.71538e-40,1.030292e-39,-9.58708e-40,-1.9569e-41,4.5268e-41,3.10547e-40,-5.25296e-40,-1.3501595e-38,-7.93798e-40,-3.96338e-40,-1.951556e-38,6.35898e-40,-4.19721e-40,-4.35019e-40,5.93139e-40,3.9648e-40,2.8922e-40,7.50729e-40,-8.02227e-40,-1.03563e-40,-7.58311e-40,-0.007249074,0.019610405,0.00739119,-0.015853284,0.03239836,0.01180441,0.035047933,0.065037504,0.03478309,-0.024511635,-0.016107084,0.014407658,-0.039780665,-0.03183517,0.009737176,-0.0045959284,0.015804674,0.037504237,-3.29616e-40,6.85532e-40,4.85246e-40,2.61694e-40,6.3341e-40,-5.19024e-40,-9.53511e-40,-1.89701e-40,-1.54894e-40,0.020279434,0.041561194,0.015702836,-0.0028234748,0.008667584,0.0038500547,0.033263303,0.02670038,0.0018211354,0.06767101,0.058593407,0.07684203,0.03850117,0.02449954,0.047965948,0.04353187,0.00042119625,0.017098052,-1.47771e-40,-3.35577e-40,1.4145e-41,-1.47319e-40,-5.75688e-40,-3.75575e-40,-2.8753e-41,-4.5479e-40,1.64654e-40,-0.004376803,0.02763017,0.03879471,0.030650342,0.03230322,0.053941596,0.014351224,0.0010894436,0.031703476,3.76187e-40,3.30964e-40,6.2457e-41,-6.90483e-40,4.41359e-40,1.42027e-40,-4.61614e-40,-7.50425e-40,7.00536e-40,-1.97325e-40,1.60743e-40,-6.3204e-41,4.29816e-40,5.054e-42,-4.45351e-40,5.43288e-40,5.8612e-41,-3.0409e-40,3.1697e-40,3.3443e-41,2.38759e-40,5.42185e-40,-9.18037e-40,9.312e-41,-8.5944e-41,-2.53545e-40,-3.1546e-40,0.007701087,-0.023576919,0.010241946,0.0020229134,-0.017332852,0.008992285,-0.045312922,-0.04073978,-0.038406998,-0.0046250573,-0.014595962,-0.014526406,-0.015938262,-0.02874609,-0.041572917,-0.019579528,-0.016548285,-0.05865502,-1.2980889e-38,-1.7165061e-38,5.57019e-40,-2.59033e-40,6.44225e-40,4.45104e-40,6.33968e-40,1.84956e-40,-4.97347e-40,8.29004e-40,-6.44083e-40,6.97271e-40,-1.1916815e-38,3.72326e-40,-1.5671054e-38,9.73314e-40,-1.9470243e-38,-7.40729e-40,-0.02308229,-0.016820727,-0.0019522108,-0.013863419,-0.00937293,-0.0030006024,-0.022252463,0.0073145083,-0.017163431,-8.93217e-40,-4.11645e-40,4.64125e-40,-3.80876e-40,3.06314e-40,-6.06687e-40,-2.81874e-40,6.4522e-40,5.84776e-40,-0.029082445,-0.009700777,-0.021149036,0.009110567,0.012413152,-0.0038410625,-0.009652137,-0.021640563,-0.04159609,-8.56003e-40,5.68445e-40,5.62355e-40,9.6411e-40,5.8266e-41,4.89461e-40,8.62704e-40,8.572e-40,1.68754e-40,-4.56511e-40,4.92973e-40,1.55411e-40,6.30596e-40,-5.27325e-40,2.58285e-40,1.61413e-40,-7.68587e-40,-2.17645e-40,2.72295e-40,9.5033e-41,4.79215e-40,-6.90458e-40,8.33958e-40,-4.03636e-40,6.05609e-40,9.42033e-40,8.70247e-40,-0.009626934,0.028845409,-0.015706567,-0.013992468,0.004165647,-0.004251121,-0.019575477,-0.020910228,-0.019587137,0.014630772,0.0053077117,-0.01378232,0.032366905,0.022957295,0.02570708,0.03624522,0.014467664,-0.02032186,5.16531e-40,-2.17584e-40,1.5287893e-38,-2.10073e-40,-3.42489e-40,9.35145e-40,-7.37475e-40,-6.99146e-40,8.40038e-40,-5.49055e-40,-8.53122e-40,2.92223e-40,5.80293e-40,-3.46523e-40,1.26858e-40,6.38177e-40,9.2186e-40,-3.42037e-40,0.0097219255,0.007336631,-0.0037598133,0.03710443,0.0487409,0.05684398,0.011902987,0.036890842,0.049369074,4.711046e-38,3.2022705e-38,9.8633e-40,-7.50925e-40,-4.31896e-40,-6.62129e-40,-1.654234e-39,-9.97635e-40,-5.1205e-41,0.022973366,-0.0059267385,-0.058606602,-0.052264407,-0.05551541,-0.08725155,-0.0057046153,-0.060833607,0.022183206,1.382464e-39,-1.86682e-40,1.10004e-39,1.25659e-39,4.22392e-40,7.64927e-40,7.1533e-40,2.033108e-39,1.712163e-39,-7.46392e-40,4.68908e-40,-1.61004e-40,6.80187e-40,1.5501e-40,-5.07753e-40,2.1107e-39,-6.91325e-40,-1.422705e-39,-0.025638092,-0.012627573,-0.049419723,0.002247587,-0.000110600246,-0.0064373612,-0.04530344,-0.11231578,-0.049572166,-3.256957e-05,-0.1416767,-0.023546152,0.0739097,-0.113120526,-0.07580611,0.15282206,0.005988479,0.068461865,0.12434994,0.07480472,-0.057977915,0.05830753,0.059582647,0.01587966,0.032465756,-0.061819565,-0.017881772,5.59631e-40,8.34116e-40,1.54299e-39,-1.0718e-40,1.19119e-40,1.984134e-39,-5.48718e-40,3.17055e-40,1.883952e-39,1.448699e-39,-2.91703e-40,2.312255e-39,-2.219507e-39,-1.039955e-39,-1.30886e-39,-2.28431e-39,1.019117e-39,-1.106447e-39,0.092674,0.08391785,-0.010938829,0.12395614,0.005978255,-0.11837263,0.11289837,0.026638713,-0.10232521,-0.040455636,0.007809303,-0.054360833,-0.113662705,-0.08374508,-0.18470892,-0.04407927,0.008371119,0.037995964,0.15191801,0.09169012,-0.020401541,0.055294104,-0.016338658,0.024251483,-0.024308737,-0.049787957,-0.03486012,0.10316968,0.16723698,-0.011649332,0.03153447,0.060057033,0.028961807,-0.025168356,-0.07474689,-0.033148658,1.49869e-39,5.78974e-40,-1.69849e-40,3.9745743e-38,3.9107592e-38,3.7147032e-38,1.08003e-39,-3.779344e-38,4.7019152e-38,-0.044407643,0.041987725,-0.067737974,0.16538723,0.1381225,0.01673632,0.16289175,0.064265296,0.19554944,-0.10603231,-0.08793811,-0.07085615,-0.04931817,0.108727224,0.1317131,0.047272943,0.11013242,0.11975356,-0.056824863,0.0046453523,0.027465265,0.014114575,0.11762235,0.18574923,-0.14912817,-0.20035113,-0.04956571,1.245984e-39,1.54251e-40,2.55559e-40,4.24008e-40,-8.27423e-40,-1.891452e-39,-1.14078e-39,-6.87401e-40,-3.54719e-40,2.338193e-39,-4.68063e-40,-2.137545e-39,-1.1054e-39,-1.263189e-39,-2.6993e-40,-5.848e-40,-1.62338e-39,1.937587e-39,1.793784e-39,-1.308661e-39,-7.8085e-41,-1.04998e-40,3.0242e-40,-7.3439e-41,1.106994e-39,4.49165e-40,2.222014e-39,-1.364182e-39,6.17611e-40,-2.169008e-39,-1.657316e-39,-9.3301e-41,1.32277e-40,-2.82458e-40,6.387e-40,-4.40148e-40,-8.6592e-40,8.29361e-40,5.34094e-40,-6.55205e-40,-4.5607e-40,-1.904224e-39,-3.9735e-41,-9.47672e-40,-8.03635e-40,0.11022686,0.1010135,-0.042600594,-0.07005496,-0.0025566735,-0.0066689556,-0.06654782,-0.07211465,-0.06610274,7.29077e-40,5.86672e-40,-1.617258e-39,-1.167817e-39,-2.22986e-40,1.440578e-39,1.08536e-39,4.07324e-40,5.15679e-40,-0.03961228,0.097156934,-0.025984868,-0.031785242,0.09706505,0.06285184,-0.042949844,-0.08640714,0.008066137,-0.048510935,-0.052904855,-0.031614196,-0.085487716,-0.13025053,-0.09587498,-0.13389033,-0.17336051,-0.15641265,-4.71255e-40,-9.38562e-40,-2.215124e-39,1.400264e-39,-2.62777e-40,-7.5602e-40,1.61406e-40,-2.59512e-40,1.594592e-39,-0.11019074,-0.11049705,0.019463258,0.0033334987,-0.06596597,0.10757334,0.12121563,-0.09886001,-0.10537174,3.9764363e-38,-3.4911922e-38,7.7196e-41,-4.4348756e-38,-1.731366e-39,1.053014e-39,-8.07465e-40,-4.6688518e-38,1.505817e-39,0.032346357,-0.04512951,0.0104216905,-0.0016629478,0.050921485,-0.04605845,0.12641275,0.045031916,0.01682878,-7.19578e-40,-2.008491e-39,-2.33147e-40,-7.0184e-41,-1.390527e-39,3.88441e-40,7.56672e-40,1.40549e-39,1.225632e-39,-0.17110443,-0.055174597,-0.045517698,0.1296037,0.19985665,-0.040272735,0.07775565,0.15825392,0.17760526,0.12321829,0.041032467,0.0017305043,0.09674075,0.18410513,0.18857196,-0.06805568,-0.040588792,0.007433765,0.06138176,-0.024246471,0.08467285,0.070813954,-0.07954429,-0.05209748,0.07543115,-0.10849905,0.035574373,-0.07442029,-0.12015592,-0.12648039,-0.13085273,-0.14911462,-0.007581879,-0.040261965,-0.097738795,0.077528976,-0.110148676,-0.029050225,-0.07513452,0.01901637,-0.044892527,-0.028328815,0.08500349,0.06364279,0.029065482,3.1107576e-38,5.70916e-40,-1.460245e-39,-4.73545e-40,4.10087e-40,1.653667e-39,2.042984e-39,5.60603e-40,1.851879e-39,3.88453e-40,-2.2014566e-38,-2.433037e-39,-1.722192e-39,4.90958e-40,-2.34675e-39,3.8209443e-38,-3.407112e-38,5.59684e-40,-3.133982e-38,-4.7251235e-38,8.53458e-40,-1.057298e-39,-3.1641e-41,-2.5505e-40,-4.1171158e-38,-4.78029e-40,8.74598e-40,-0.0063702455,0.0016912115,-0.05833109,-0.14060982,0.056561023,-0.05026851,-0.11945176,0.068827555,-0.042446382,-0.1330465,-0.1252438,0.040792122,0.09767713,0.107108735,-0.014688854,0.01130968,0.13517536,0.13694248,-4.5891e-41,1.144735e-39,-1.160394e-39,7.43294e-40,1.136635e-39,-7.1756e-41,-2.007879e-39,-7.04274e-40,-6.03416e-40,0.06484649,-0.023623839,0.026838148,0.08503348,-0.008133598,-0.009864146,-0.05378746,-0.035914913,-0.015240889,0.07228843,-0.040231284,0.034113143,0.019306779,0.0027362243,-0.09167617,-0.07369249,-0.03773695,0.0077573755,-1.008198e-39,4.3449703e-38,-8.7927e-41,1.741936e-39,8.96074e-40,-1.068954e-39,2.163032e-39,2.36602e-39,-1.61787e-40,-0.012683063,0.04713448,0.03919818,-0.019240495,-0.012250446,-0.018620346,-0.03385675,0.086181626,-0.034707334,-2.05655e-39,-2.87265e-40,-2.024261e-39,-9.29777e-40,8.01223e-40,-5.25862e-40,2.85967e-40,1.671479e-39,2.275395e-39,8.47297e-40,-6.44772e-40,-4.36797e-40,-1.078899e-39,1.43834e-39,7.6481e-40,-1.78091e-40,3.15177e-40,-1.653992e-39,1.008386e-39,1.584245e-39,-8.10707e-40,-1.500948e-39,-2.49313e-40,2.203406e-39,7.90138e-40,-2.312382e-39,-9.89008e-40,0.021464542,0.034206368,-0.065852,0.10239221,0.16178201,0.047625065,0.013953017,-0.043448523,0.110932074,-0.05409231,0.003959052,-0.13318063,-0.04702832,-0.060066216,-0.05710998,0.061253935,-0.08921162,-0.007158633,-1.662247e-39,-9.31611e-40,-3.714182e-38,3.4135998e-38,-1.470766e-39,-4.4937257e-38,1.86064e-40,-4.0139987e-38,-8.02477e-40,-1.033822e-39,1.715548e-39,-4.2008338e-38,-1.353499e-39,-2.17114e-40,1.81938e-39,1.730225e-39,4.170087e-38,-7.4428e-40,0.07139856,-0.074155495,-0.011342766,0.038725927,-0.052925136,0.061027072,-0.08321991,0.030007927,0.01704168,1.935593e-39,-1.203383e-39,-1.35446e-39,1.618323e-39,-5.96209e-40,-3.36212e-40,1.4031e-40,-1.354725e-39,1.7015e-40,-0.10471344,-0.03291281,-0.01511452,-0.1408875,-0.03419837,-0.007187291,0.018441705,0.02770592,-0.055172596,7.90596e-40,3.4462834e-38,2.6957426e-38,3.3061956e-38,6.21343e-40,-3.460665e-38,1.5555e-39,1.981781e-39,4.1854111e-38,2.286024e-39,1.680528e-39,-7.78916e-40,2.339063e-39,-4.64755e-40,-1.42656e-39,-1.8633e-41,6.65844e-40,-3.34986e-40,-1.768551e-39,-4.69163e-40,1.613448e-39,-5.40173e-40,-4.84359e-40,-1.056976e-39,3.04519e-40,8.662e-40,-7.92665e-40,0.079615556,0.056038775,-0.12984405,-0.0024473167,0.036037948,-0.08167281,0.014521337,-0.035821155,-0.019361647,0.04799635,0.079551026,0.10382091,0.060013007,0.19208804,0.15736139,-0.15596732,0.05095873,0.09156537,-1.83712e-39,-9.3111e-40,-4.2075217e-38,5.00809e-40,-5.2452e-40,2.062648e-39,2.160868e-39,1.86214e-39,-1.685426e-39,5.2414e-40,9.80421e-40,1.319621e-39,-9.31374e-40,1.528989e-39,-2.031838e-39,2.9109e-40,1.778464e-39,1.874185e-39,0.013556811,-0.103506066,-0.057755295,0.078187525,-0.013724412,-0.024047751,0.049396046,0.10957367,0.039709177,-0.0,0.0,0.0,0.0,-0.0,0.0,0.0,0.0,0.0,0.0,0.0,0.0,0.0,0.0,0.0,0.0,0.0,0.0,0.0,0.0,0.0,0.0,-0.0,-0.0,0.0,0.0,0.0,0.0,0.0,0.0,0.0,0.0,0.0,0.0,0.0,0.0,-0.0,-0.0,-0.0,0.0,0.0,-0.0,0.0,0.0,0.0,0.0,0.0,0.0,0.0,0.0,0.0,0.0,0.0,0.0,0.0,0.0,0.0,-0.0,-0.0,0.0,-0.0,-0.0,-0.0,-0.0,-0.0,-0.0,-0.0,0.0,0.0,-0.0,-0.0,0.0,0.0,0.0,-0.0,0.0,0.0,-0.0,0.0,0.0,0.0,0.0,-0.0,-0.0,0.0,-0.0,-0.0,-0.0,0.0,-0.0,0.0,-0.0,-0.0,0.0,-0.0,-0.0,-0.0,-0.0,-0.0,-0.0,-0.0,-0.0,-0.0,-0.0,-0.0,-0.0,-0.0,-0.0,-0.0,-0.0,-0.0,0.0,-0.0,0.0,-0.0,-0.0,0.0,0.0,-0.0,0.0,0.0,-0.0,-0.0,-0.0,-0.0,0.0,-0.0,-0.0,-0.0,-0.0,-0.0,-0.0,0.0,0.0,-0.0,-0.0,-0.0,-0.0,-0.0,0.0,-0.0,0.0,0.0,0.0,0.0,0.0,-0.0,0.0,-0.0,-0.0,0.0,-0.0,-0.0,-0.0,0.0,0.0,-0.0,-0.0,-0.0,0.0,0.0,0.0,0.0,-0.0,-0.0,-0.0,-0.0,-0.0,0.0,-0.0,-0.0,0.0,0.0,0.0,0.0,0.0,0.0,0.0,0.0,0.0,-0.0,0.0,-0.0,-0.0,-0.0,-0.0,-0.0,-0.0,-0.0,-0.0,0.0,-0.0,-0.0,-0.0,-0.0,-0.0,-0.0,0.0,0.0,-0.0,-0.0,0.0,-0.0,-0.0,0.0,-0.0,-0.0,0.0,0.0,-0.0,0.0,0.0,0.0,-0.0,-0.0,-0.0,0.0,0.0,0.0,0.0,0.0,-0.0,-0.0,-0.0,-0.0,-0.0,-0.0,-0.0,-0.0,-0.0,-0.0,-0.0,-0.0,-0.0,0.0,0.0,0.0,0.0,0.0,0.0,0.0,0.0,0.0,0.0,0.0,0.0,0.0,0.0,0.0,0.0,0.0,0.0,0.0,-0.0,-0.0,0.0,-0.0,-0.0,-0.0,-0.0,-0.0,-0.0,-0.0,0.0,-0.0,-0.0,-0.0,0.0,-0.0,0.0,-0.0,-0.0,0.0,0.0,-0.0,-0.0,0.0,0.0,0.0,0.0,0.0,0.0,0.0,0.0,0.0,0.0,-0.0,0.0,-0.0,-0.0,-0.0,-0.0,-0.0,-0.0,-0.0,0.0,0.0,-0.0,-0.0,-0.0,0.0,-0.0,-0.0,-0.0,-0.0,-0.0,0.0,0.0,-0.0,0.0,0.0,-0.0,0.0,-0.0,0.0,-0.0,-0.0,-0.0,0.0,-0.0,-0.0,-0.0,0.0,0.0,0.0,0.0,0.0,0.0,0.0,0.0,0.0,0.0,0.0,-0.0,0.0,-0.0,-0.0,-0.0,-0.0,-0.0,-0.0,-0.0,-0.0,0.0,-0.0,-0.0,-0.0,0.0,-0.0,-0.0,-0.0,0.0,0.0,0.0,0.0,0.0,0.0,0.0,0.0,0.0,0.0,0.0,-0.0,0.0,0.0,0.0,-0.0,0.0,-0.0,-0.0,0.0,-0.0,0.0,0.0,0.0,0.0,0.0,0.0,0.0,0.0,0.0,0.0,0.0,0.0,0.0,0.0,0.0,0.0,-0.0,-0.0,0.0,0.0,-0.0,-0.0,-0.0,-0.0,0.0,0.0,0.0,0.0,-0.0,-0.0,0.0,-0.0,-0.0,0.0,0.0,0.0,0.0,0.0,0.0,0.0,0.0,0.0,-0.0,-0.0,-0.0,0.0,0.0,0.0,0.0,0.0,0.0,0.0,-0.0,-0.0,-0.0,-0.0,-0.0,0.0,0.0,0.0,0.0,0.0,-0.0,0.0,0.0,0.0,-0.0,0.0,-0.0,0.0,0.0,0.0,0.0,0.0,0.0,0.0,0.0,0.0,0.0,0.0,-0.0,0.0,-0.0,0.0,-0.0,-0.0,-0.0,-0.0,-0.0,-0.0,-0.0,0.0,-0.0,0.0,0.0,0.0,0.0,-0.0,-0.0,0.0,-0.0,-0.0,0.0,-0.0,-0.0,0.0,0.0,0.0,0.0,0.0,0.0,0.0,0.0,0.0,0.0,-0.0,0.0,0.0,0.0,0.0,0.0,0.0,-0.0,0.0,0.0,-0.0,-0.0,-0.0,0.0,0.0,0.0,0.0,0.0,0.0,0.0,0.0,0.0,0.0,0.0,0.0,0.0,-0.0,-0.0,-0.0,0.0,-0.0,-0.0,-0.0,0.0,0.0,-0.0,0.0,0.0,0.0,0.0,0.0,0.0,0.0,0.0,0.0,-0.0,-0.0,0.0,-0.0,0.0,0.0,0.0,-0.0,0.0,0.0,0.0,0.0,0.0,0.0,0.0,0.0,0.0,0.0,0.0,0.0,0.0,0.0,0.0,0.0,0.0,0.0,0.0,-0.0,-0.0,0.0,-0.0,-0.0,0.0,0.0,0.0,0.0,-0.0,-0.0,0.0,-0.0,-0.0,-0.0,-0.0,-0.0,-2.91989e-40,-9.1126e-41,-6.52679e-40,-1.3908e-40,4.29508e-40,1.79445e-40,8.5702e-41,4.94151e-40,6.80567e-40,-0.02499234,-0.028003315,0.000695842,-0.01686801,-0.03287201,-0.031580478,-0.014399329,-0.021062545,-0.013241959,6.64141e-40,1.81013e-40,-2.70029e-40,-8.53947e-40,-5.20266e-40,-3.5527e-40,4.63615e-40,4.04794e-40,-6.06315e-40,-5.36811e-40,5.9814e-41,5.3475e-40,-2.17596e-40,-6.82348e-40,-3.23642e-40,-7.29363e-40,3.21018e-40,-5.08886e-40,0.0007348305,-0.025824998,-0.024208656,-0.01823598,-0.0055574556,-0.013770614,0.0028925803,-0.025157735,-0.048816502,-0.025150876,-0.021767858,-0.031116132,0.0032504427,0.0057539227,0.020879226,0.0006553027,0.000121753306,0.01650395,0.0150977895,0.034718562,0.032533996,0.009903851,0.018309029,0.05287568,0.013403348,0.022583047,0.06914347,3.41764e-40,3.67257e-40,2.96836e-40,-3.77604e-40,-1.60985e-40,5.95699e-40,2.94039e-40,2.63392e-40,-5.4908e-41,2.37285e-40,-1.0081e-41,-4.70311e-40,3.87182e-40,3.58263e-40,-7.24383e-40,-2.438e-41,-2.4463e-40,1.41093e-40,-0.01609231,0.0057257772,-0.022413062,0.04489967,0.06385741,0.055301055,0.0011696971,0.0042778407,0.012032124,0.026236778,-0.025748821,-0.028512305,0.03857125,-0.0070750075,0.02756205,-0.016506895,-0.06628981,-0.004247607,0.04266647,0.008589497,0.021752886,0.016182438,-0.0027704153,-0.0247845,0.0034274207,0.008231432,-0.04013677,-0.013136872,-0.024638457,-0.012465475,-0.004321714,-0.019473571,-0.017099276,-0.02877523,-0.05152882,-0.054021176,-1.26614e-40,-5.97263e-40,-5.41778e-40,-1.4734708e-38,-3.29857e-40,1.4165718e-38,-1.97095e-40,-2.49238e-40,1.38437e-40,-0.0047525447,-0.001868618,0.0020023838,0.048586402,0.04303432,0.0005271105,0.039817505,0.05756403,0.019661464,0.021483812,-0.015301782,-0.009607735,-0.016011339,-0.021827774,-0.00052313646,-0.0137676215,-0.024235087,-0.018679317,-0.029878778,-0.009979837,-0.026468389,-0.054536987,-0.04211678,-0.045382034,-0.030302562,-0.046131186,-0.054536987,-1.44062e-40,-4.19085e-40,6.03199e-40,4.11089e-40,-3.40514e-40,-2.90093e-40,-5.21129e-40,7.3847e-41,-6.37694e-40,3.37078e-40,2.69966e-40,-6.04047e-40,4.49408e-40,7.38187e-40,-3.71996e-40,-3.47564e-40,-7.17081e-40,5.6046e-41,7.4695e-41,3.6375e-40,-5.90887e-40,-2.10132e-40,5.809e-41,-3.02766e-40,2.095e-41,3.9018e-41,-4.85993e-40,-3.4e-42,-7.53372e-40,6.6169e-40,-4.14099e-40,1.22773e-40,-4.1416e-40,-3.84006e-40,1.6116e-40,-4.0582e-41,5.36341e-40,3.7502e-40,3.86402e-40,1.60338e-40,-1.23588e-40,3.8757e-40,2.06259e-40,4.46393e-40,6.91188e-40,0.013921745,0.014141192,-0.011375703,0.011450868,0.023602849,-0.0022765766,-0.012292986,-0.012778964,-0.021479348,-7.8625e-41,-5.60664e-40,2.04367e-40,-6.64601e-40,-1.85612e-40,5.45994e-40,5.253e-40,7.4248e-40,2.1669e-40,0.0070192716,0.021593116,-0.017804133,0.0076946844,0.011948281,-0.026114404,0.021061074,0.015550029,-0.00289669,0.019617708,0.023199428,-0.024362028,0.019560918,0.0042189443,-0.032928314,0.02165487,0.0004952939,-0.026100399,-9.1112e-41,1.09206e-40,7.925e-41,5.4496e-41,3.20795e-40,-5.88618e-40,-8.36317e-40,2.94088e-40,4.51766e-40,0.012061409,-0.016578244,0.0049021835,0.02391294,-0.012707074,-0.0005694023,-0.024914168,-0.037717205,-0.021215137,3.22697e-40,1.82144e-40,4.6275e-40,7.6429e-40,-6.55484e-40,-4.16581e-40,1.44478e-40,-5.4306e-41,8.80008e-40,0.024531987,-0.0038580368,-0.008624147,-0.009284842,-0.026833339,-0.02793889,-0.047459427,-0.052686807,-0.06884091,3.4127e-40,1.36397e-40,-7.8852e-40,-3.31633e-40,6.95361e-40,-5.93174e-40,4.28385e-40,-4.64186e-40,-3.11321e-40,0.007250373,0.0013544314,-0.0025946465,-0.0058279797,-0.0059104008,0.0017920183,-0.0426596,-0.04782286,-0.055423666,0.007873617,0.012791822,-0.010287983,-0.031991795,0.0032194078,0.0032573647,-0.053289086,-0.041526813,-0.02434434,-0.012805825,0.0025496318,-0.0023372606,0.029752154,0.018324245,0.019725243,0.04078891,0.032022268,0.0010117557,-0.0033098587,-0.0030674802,-0.023189362,0.019613966,0.0029936086,-0.03507254,-0.015231037,-0.01695106,-0.05084318,-0.014233677,-0.00025106658,-0.01623103,0.003075873,0.019620288,0.018497253,-0.024621442,-0.0073545966,-0.00784434,-5.34272e-40,9.0553e-40,-3.49056e-40,-5.14771e-40,-4.44057e-40,3.64343e-40,-2.032e-41,-4.1756e-41,-4.2801e-41,8.62579e-40,1.94988e-40,3.13295e-40,-6.91654e-40,-4.26241e-40,-1.58204e-40,6.36417e-40,1.59154e-40,-9.9272e-41,2.63144e-40,-6.54406e-40,-2.95193e-40,-3.31945e-40,2.40788e-40,2.69196e-40,-8.21717e-40,-4.28357e-40,4.23352e-40,0.014780329,0.010638292,0.012102587,0.00026892303,-0.0026312163,-0.008184757,-0.03660383,-0.03865639,-0.055836502,-0.030049004,-0.004760341,0.009009926,-0.005610532,0.003728179,-0.0070741633,0.012290949,0.0021262695,-0.0152611835,1.32965e-40,4.34843e-40,-5.9432e-40,4.45682e-40,-1.95076e-40,8.886e-41,3.82602e-40,4.34823e-40,7.21569e-40,0.022377465,0.016696682,-0.0026272628,0.024126856,0.017833129,0.012178049,0.009281176,0.016638217,-0.013083336,0.0070030335,-0.0031545758,-0.018285181,-0.030571869,-0.017427329,-0.04313568,-0.009548395,0.014158723,-0.019308819,3.29333e-40,6.05474e-40,-1.50924e-40,-1.4414e-41,-1.61609e-40,-8.78606e-40,8.23196e-40,2.09467e-40,6.49202e-40,0.019659316,-0.011057738,-0.035554882,0.012111787,-0.022119284,-0.037620656,-0.022579191,-0.04776383,-0.06401245,7.43536e-40,-2.6235e-41,2.24649e-40,-7.8237e-41,-3.7091e-41,-2.38802e-40,-5.07349e-40,7.40733e-40,-2.51092e-40,-4.8793e-40,6.2525e-41,7.23549e-40,3.00888e-40,3.72378e-40,4.9609e-40,-8.39071e-40,6.73741e-40,3.81177e-40,4.63404e-40,6.15931e-40,3.22432e-40,-7.22773e-40,-2.0142e-41,-5.53133e-40,7.9269e-41,4.2202e-40,-6.99981e-40,-0.02290617,-0.04570037,-0.04449034,-0.012618324,-0.011064572,-0.027245007,-0.04248066,-0.02489345,-0.033411566,0.024284044,0.025204912,0.04730467,-0.0090104975,0.015687298,0.054856334,-0.006258019,0.020517776,0.038949333,-8.378e-41,1.3916e-41,-6.27003e-40,7.28113e-40,-2.64153e-40,-1.4940363e-38,-3.80277e-40,-1.58488e-40,2.09036e-40,-8.28806e-40,-1.731572e-38,1.7356432e-38,-5.2783e-40,-3.2883e-41,1.2736979e-38,5.89168e-40,-8.22386e-40,-2.5002e-41,-0.015055623,0.0057587842,0.02526666,0.026258204,0.0068119024,0.009756172,-8.553109e-05,-0.031046212,-0.024929032,-1.57426e-40,3.3364e-41,8.77573e-40,-2.1008e-40,-1.14598e-40,-1.43979e-40,2.32108e-40,-8.0802e-40,1.21138e-40,-0.046690173,-0.038856905,-0.07003538,-0.023606883,-0.0069402526,-0.029540118,-0.027350124,-0.00036962554,-0.009660937,-1.6136e-40,1.34449e-40,8.29664e-40,-7.12962e-40,-1.2907e-40,2.682e-40,4.55757e-40,8.83692e-40,-7.68371e-40,-3.59464e-40,4.06267e-40,-3.17191e-40,5.60683e-40,-7.74852e-40,1.75499e-40,-5.686e-41,2.4955e-40,-6.62659e-40,-4.3603e-41,-3.33927e-40,-7.14119e-40,6.31128e-40,5.9353e-41,-3.74127e-40,-2.9737e-40,1.02896e-40,-1.36426e-40,-0.025434388,-0.010065425,-0.027148956,-0.012755098,-0.0032636968,-0.013266375,0.0027975484,0.0013038338,-0.016392425,-0.026846284,-0.03799158,0.004745527,-0.010901542,-0.052173894,-0.015994677,0.045230117,-0.002927798,0.0040009255,6.75878e-40,3.36721e-40,-1.68139e-40,1.49374e-40,1.30129e-40,8.01309e-40,-3.48314e-40,-6.58853e-40,2.44517e-40,-6.87144e-40,5.41432e-40,-4.9276e-40,-5.52428e-40,8.2581e-41,-5.07347e-40,-1.37814e-40,7.32298e-40,6.1375e-41,-0.0031119755,-0.0065745586,-0.026960205,-0.019019086,-0.01691429,-0.040061753,-0.02100424,-0.017993275,-0.033304363,-0.0,0.0,-0.0,0.0,0.0,-0.0,-0.0,-0.0,0.0,0.0,-0.0,-0.0,0.0,0.0,-0.0,0.0,-0.0,-0.0,-0.0,-0.0,-0.0,-0.0,-0.0,-0.0,-0.0,0.0,-0.0,0.0,0.0,0.0,-0.0,0.0,0.0,-0.0,0.0,0.0,-0.0,-0.0,-0.0,-0.0,-0.0,-0.0,0.0,0.0,0.0,0.0,0.0,0.0,0.0,0.0,0.0,0.0,0.0,0.0,-0.0,-0.0,0.0,-0.0,-0.0,-0.0,-0.0,-0.0,-0.0,-0.0,-0.0,-0.0,-0.0,0.0,-0.0,0.0,0.0,0.0,-0.0,-0.0,-0.0,0.0,-0.0,-0.0,-0.0,-0.0,-0.0,-0.0,-0.0,-0.0,0.0,0.0,0.0,0.0,0.0,0.0,0.0,0.0,0.0,-0.0,0.0,-0.0,-0.0,-0.0,-0.0,-0.0,-0.0,-0.0,0.0,-0.0,0.0,0.0,0.0,-0.0,0.0,0.0,0.0,-0.0,-0.0,-0.0,-0.0,-0.0,-0.0,-0.0,0.0,-0.0,0.0,0.0,0.0,-0.0,0.0,0.0,0.0,-0.0,-0.0,0.0,0.0,0.0,0.0,0.0,0.0,0.0,-0.0,-0.0,0.0,0.0,0.0,-0.0,-0.0,-0.0,-0.0,-0.0,-0.0,0.0,-0.0,-0.0,0.0,0.0,0.0,-0.0,-0.0,-0.0,0.0,0.0,0.0,-0.0,-0.0,-0.0,-0.0,-0.0,-0.0,-0.0,0.0,0.0,-0.0,-0.0,0.0,-0.0,-0.0,-0.0,0.0,-0.0,-0.0,0.0,-0.0,0.0,-0.0,-0.0,-0.0,0.0,0.0,0.0,0.0,0.0,0.0,0.0,0.0,0.0,-0.0,0.0,-0.0,0.0,0.0,0.0,0.0,-0.0,-0.0,-0.0,0.0,-0.0,-0.0,-0.0,-0.0,-0.0,-0.0,-0.0,-0.0,0.0,0.0,-0.0,0.0,0.0,0.0,0.0,0.0,-0.0,-0.0,-0.0,-0.0,-0.0,0.0,0.0,0.0,-0.0,0.0,0.0,0.0,0.0,0.0,0.0,-0.0,-0.0,-0.0,-0.0,-0.0,-0.0,-0.0,-0.0,-0.0,0.0,0.0,-0.0,0.0,0.0,0.0,0.0,-0.0,-0.0,0.0,0.0,0.0,-0.0,-0.0,-0.0,0.0,-0.0,-0.0,-0.0,-0.0,-0.0,-0.0,-0.0,-0.0,-0.0,-0.0,-0.0,0.0,0.0,-0.0,0.0,-0.0,-0.0,0.0,0.0,0.0,0.0,0.0,0.0,0.0,0.0,0.0,0.0,0.0,0.0,0.0,-0.0,-0.0,0.0,0.0,-0.0,0.0,0.0,0.0,0.0,0.0,0.0,-0.0,-0.0,-0.0,-0.0,-0.0,-0.0,0.0,0.0,0.0,0.0,0.0,0.0,0.0,0.0,0.0,0.0,0.0,0.0,-0.0,-0.0,-0.0,-0.0,-0.0,-0.0,-0.0,-0.0,-0.0,-0.0,-0.0,-0.0,-0.0,-0.0,-0.0,0.0,0.0,0.0,-0.0,0.0,0.0,0.0,-0.0,0.0,0.0,0.0,-0.0,0.0,0.0,0.0,0.0,-0.0,-0.0,-0.0,0.0,0.0,0.0,-0.0,0.0,-0.0,0.0,0.0,0.0,0.0,0.0,-0.0,0.0,0.0,0.0,-0.0,-0.0,-0.0,-0.0,-0.0,0.0,0.0,0.0,-0.0,-0.0,-0.0,0.0,-0.0,-0.0,0.0,0.0,-0.0,0.0,-0.0,-0.0,-0.0,-0.0,-0.0,0.0,0.0,0.0,-0.0,0.0,0.0,0.0,0.0,0.0,0.0,0.0,0.0,0.0,-0.0,-0.0,-0.0,-0.0,-0.0,-0.0,-0.0,-0.0,-0.0,-0.0,-0.0,-0.0,-0.0,-0.0,0.0,-0.0,-0.0,-0.0,0.0,0.0,0.0,-0.0,-0.0,0.0,0.0,-0.0,-0.0,-0.0,-0.0,0.0,-0.0,-0.0,0.0,0.0,0.0,-0.0,0.0,0.0,0.0,-0.0,-0.0,-0.0,-0.0,-0.0,-0.0,-0.0,-0.0,-0.0,-0.0,0.0,0.0,-0.0,-0.0,0.0,0.0,0.0,0.0,0.0,-0.0,0.0,0.0,0.0,-0.0,0.0,0.0,0.0,0.0,-0.0,0.0,-0.0,-0.0,-0.0,-0.0,-0.0,-0.0,-0.0,0.0,-0.0,-0.0,0.0,-0.0,0.0,0.0,0.0,0.0,0.0,-0.0,-0.0,-0.0,-0.0,-0.0,-0.0,0.0,0.0,0.0,0.0,0.0,0.0,-0.0,-0.0,-0.0,0.0,-0.0,-0.0,-0.0,0.0,-0.0,0.0,0.0,0.0,0.0,-0.0,0.0,-0.0,-0.0,-0.0,0.0,0.0,0.0,-0.0,-0.0,-0.0,-0.0,-0.0,-0.0,-0.0,-0.0,-0.0,-0.0,-0.0,0.0,-0.0,-0.0,-0.0,-0.0,0.0,0.0,0.0,0.0,0.0,0.0,0.0,0.0,0.0,0.0,-0.0,-0.0,-0.0,0.0,-0.0,-0.0,-0.0,0.0,-0.0,-0.0,-0.0,0.0,0.0,0.0,-0.0,0.0,-0.0,-0.0,-0.0,-0.0,-0.0,-0.0,0.0,0.0,0.0,0.0,0.0,0.0,0.0,-0.0,-0.0,0.0,-0.0,-0.0,0.0,0.0,0.0,-0.0,-0.0,0.0,-0.0,-0.0,-0.0,0.0,0.0,0.0,-0.0,-0.0,-0.0,-0.0,-0.0,0.0,-0.0,-0.0,0.0,0.0,-0.0,0.0,0.0,0.0,-0.0,-0.0,0.0,-0.0,-0.0,-0.0,-0.0,0.0,-0.0,-0.0,-0.0,-0.0,-0.0,0.0,-0.0,0.0,0.0,-0.0,-0.0,-0.0,-0.0,-0.0,0.0,-0.0,-0.0,0.0,0.0,0.0,0.0,0.0,0.0,0.0,0.0,-0.0,0.0,-0.0,0.0,-0.0,0.0,0.0,-0.0,-0.0,0.0,0.0,-0.0,-0.0,0.0,-0.0,-0.0,0.0,-0.0,-0.0,-0.0,-0.0,-0.0,-0.0,-0.0,-0.0,0.0,-0.0,0.0,0.0,-0.0,0.0,0.0,-0.0,0.0,-0.0,0.0,0.0,0.0,0.0,0.0,0.0,0.0,0.0,-0.0,-0.0,-0.0,-0.0,0.0,0.0,-0.0,0.0,0.0,-0.0,-0.0,-0.0,0.0,0.0,-0.0,-0.0,-0.0,0.0,0.0,-0.0,-0.0,-0.0,-0.0,-0.0,-0.0,-0.0,-0.0,-0.0,-0.0,0.0,0.0,-0.0,-0.0,0.0,-0.0,-0.0,-0.0,0.0,-0.0,-0.0,0.0,-0.0,0.0,0.0,-0.0,-0.0,0.0,-0.0,-0.0,-0.0,-0.0,-0.0,-0.0,0.0,-0.0,-0.0,-0.0,-0.0,-0.0,-0.0,0.0,-0.0,-0.0,0.0,0.0,0.0,0.0,-0.0,0.0,0.0,-0.0,-0.0,-0.0,0.0,0.0,0.0,0.0,-0.0,0.0,-0.0,-0.0,-0.0,0.0,0.0,-0.0,-0.0,-0.0,0.0,-0.0,-0.0,-0.0,-0.0,0.0,-0.0,-0.0,-0.0,-0.0,-0.0,-0.0,0.0,0.0,-0.0,0.0,-0.0,-0.0,-0.0,-0.0,0.0,0.0,0.0,-0.0,0.0,0.0,0.0,-0.0,-0.0,-0.0,0.0,0.0,0.0,0.0,0.0,0.0,0.0,0.0,0.0,-0.0,0.0,0.0,-0.0,0.0,-0.0,0.0,-0.0,-0.0,0.0,0.0,0.0,-0.0,-0.0,-0.0,0.0,-0.0,-0.0,-0.0,0.0,-0.0,0.0,0.0,0.0,0.0,0.0,0.0,0.0,-0.0,-0.0,0.0,-0.0,-0.0,0.0,0.0,0.0,-0.0,0.0,-0.0,-0.0,-0.0,0.0,0.0,0.0,-0.0,-0.0,-0.0,0.0,-0.0,-0.0,-0.0,0.0,0.0,-0.0,-0.0,0.0,0.0,-0.0,-0.0,-0.0,-0.0,-0.0,-0.0,-0.0,-0.0,0.0,0.0,-0.0,-0.0,-0.0,0.0,0.0,0.0,0.0,0.0,0.0,0.0,0.0,0.0,0.0,0.0,0.0,0.0,0.0,0.0,0.0,0.0,-0.0,0.0,0.0,0.0,0.0,-0.0,0.0,0.0,0.0,-0.0,-0.0,0.0,0.0,0.0,0.0,-0.0,0.0,0.0,-0.0,-0.0,-0.0,0.0,0.0,0.0,0.0,0.0,-0.0,0.0,-0.0,0.0,-0.0,-0.0,0.0,0.0,-0.0,-0.0,-0.0,-0.0,-0.0,0.0,0.0,0.0,0.0,0.0,0.0,-0.0,-0.0,0.0,-0.0,-0.0,-0.0,0.0,-0.0,-0.0,-0.0,-0.0,0.0,-0.0,-0.0,-0.0,-0.0,0.0,0.0,-0.0,0.0,-0.0,-0.0,-0.0,-0.0,-0.0,-0.0,-0.0,-0.0,-0.0,-0.0,-0.0,-0.0,0.0,0.0,-0.0,-0.0,-0.0,-0.0,0.0,0.0,0.0,-0.0,0.0,0.0,0.0,0.0,0.0,0.0,0.0,0.0,-0.0,-0.0,0.0,-0.0,-0.0,-0.0,-0.0,-0.0,0.0,0.0,0.0,0.0,0.0,0.0,-0.0,0.0,0.0,-0.0,0.0,-0.0,0.0,-0.0,-0.0,-0.0,0.0,0.0,0.0,0.0,0.0,0.0,0.0,0.0,0.0,0.0,0.0,-0.0,0.0,-0.0,-0.0,0.0,-0.0,-0.0,0.0,-0.0,0.0,0.0,-0.0,0.0,-0.0,0.0,-0.0,0.0,0.0,-0.0,-0.0,0.0,-0.0,0.0,-0.0,0.0,0.0,0.0,-0.0,-0.0,0.0,-0.0,-0.0,0.0,0.0,-0.0,0.0,-0.0,0.0,-0.0,0.0,0.0,-0.0,0.0,0.0,0.0,0.0,0.0,0.0,0.0,0.0,0.0,0.0,0.0,-0.0,0.0,0.0,0.0,0.0,0.0,-0.0,0.0,-0.0,-0.0,-0.0,-0.0,-0.0,-0.0,0.0,0.0,0.0,0.0,-0.0,-0.0,0.0,0.0,-0.0,-0.0,-0.0,-0.0,-0.0,-0.0,-0.0,-0.0,-0.0,-0.0,-0.0,0.0,-0.0,-0.0,-0.0,-0.0,-0.0,-0.0,-0.0,-0.0,-0.0,-0.0,0.0,0.0,-0.0,0.0,-0.0,-0.0,0.0,0.0,0.0,-0.0,-0.0,-0.0,-0.0,-0.0,-0.0,-0.0,0.0,-0.0,-0.0,-0.0,-0.0,-0.0,0.0,-0.0,-0.0,0.0,-0.0,-0.0,-3.00081e-40,-3.7865007e-38,-4.53422e-40,-5.3308404e-38,5.14997e-40,-2.10957e-39,7.4227e-41,2.727455e-39,-4.7839085e-38,-0.044040505,0.02707265,-0.0055727665,0.17367984,0.08586426,-0.007659238,-0.13791053,-0.06950085,0.005204462,2.544779e-39,2.01318e-40,-4.60802e-40,4.907815e-38,2.368664e-39,5.22738e-40,9.98588e-40,-4.7328435e-38,1.176916e-39,1.776966e-39,-2.565671e-39,1.23598e-39,-2.404041e-39,-7.4523e-40,1.125194e-39,1.878309e-39,5.97484e-40,-2.029168e-39,-0.03042649,0.12062369,0.093566425,-0.053467993,0.03887547,-0.10772458,-0.109298296,-0.053010073,-0.06862641,0.062872365,0.22353211,0.099707566,0.11899436,0.24940671,0.0079695005,0.007604384,-0.15039222,-0.08560572,0.09292195,-0.11065444,-0.2216337,-0.03454352,-0.04555042,-0.06498436,0.0043482166,0.05107987,0.014602253,7.15859e-40,-1.159167e-39,2.729197e-39,1.106824e-39,4.30948e-40,-2.9636e-40,2.438907e-39,2.158581e-39,6.78891e-40,2.086406e-39,1.329876e-39,2.358779e-39,-2.730569e-39,-7.12256e-40,7.10816e-40,2.389674e-39,1.226939e-39,-3.6445413e-38,0.053677656,-0.17261039,-0.18123102,-0.094011776,-0.14094888,-0.14024954,0.095677674,0.07522166,0.10960762,0.05649417,-0.049005356,0.019169364,-0.0050483393,-0.09401941,-0.0824327,-0.11622535,-0.032905597,-0.049682688,-0.11294279,0.0055627963,-0.050179742,0.05213942,0.15214892,-0.053048335,0.032763965,-0.011124841,-0.121536136,-0.046605285,0.09302152,-0.04243358,-0.038788583,0.015497907,0.0025896977,-0.009033515,-0.026279364,0.008747018,2.24337e-40,3.2163e-41,-2.436215e-39,-4.74562e-40,2.315539e-39,3.0043632e-38,-1.369022e-39,-4.1646128e-38,-1.9109998e-38,0.06814279,0.04321943,-0.09542665,-0.076072104,-0.038020108,-0.019345611,-0.12003819,0.0016350872,0.1464124,-0.06158531,-0.036450595,-0.020005725,-0.09281104,-0.074347965,0.035469107,-0.010470852,0.06915307,0.061945923,0.001988632,-0.032613497,0.06240939,-0.01865617,-0.018264059,-0.012030107,-0.014536526,0.08247442,0.06254374,3.58292e-40,-3.091543e-38,-2.2710846e-38,-2.00295e-40,5.61757e-40,-1.891215e-39,5.2741136e-38,8.79948e-40,-1.706829e-39,-4.398403e-38,4.4229993e-38,-2.065103e-39,-2.8623278e-38,2.11677e-40,-2.769532e-39,-2.86752e-40,-3.790696e-38,3.61818e-40,1.764144e-39,4.1422739e-38,-4.932457e-38,2.458133e-39,2.20709e-40,-2.035369e-39,-1.340265e-39,1.14234e-39,4.784704e-38,-2.8175174e-38,-3.00869e-40,-2.430265e-39,-5.505152e-38,2.31855e-39,-3.5113398e-38,2.815466e-39,-3.92854e-40,-4.957583e-38,-4.21312e-40,-2.394095e-39,1.482519e-39,6.42417e-40,1.80194e-40,-2.572956e-39,1.030963e-39,5.6651554e-38,1.007508e-39,-0.057836037,0.09386928,0.089682065,0.06911412,0.07463679,0.007945364,-0.040181432,-0.05793227,-0.107406676,-8.05209e-40,-1.675465e-39,-1.38828e-39,1.029779e-39,-7.35575e-40,2.05886e-39,1.591062e-39,1.083868e-39,1.01573e-40,-0.054929636,-0.083952755,-0.10329602,-0.081084594,-0.06132571,-0.045117736,0.029222328,-0.0064920727,-0.074458845,0.14559655,0.13375704,-0.0063812924,0.12230561,0.07409033,-0.108599365,-0.07644585,0.02277818,-0.10715389,1.722346e-39,-3.7288589e-38,1.711336e-39,1.458553e-39,-3.01014e-40,3.3680733e-38,-3.4295578e-38,-2.307737e-39,8.26587e-40,-0.070305556,-0.041248523,-0.09236621,0.0962751,-0.05794132,-0.051529985,-0.006210673,-0.04870782,-0.036371313,4.7916493e-38,-3.791691e-38,-2.8015e-40,-2.160036e-39,7.18821e-40,-4.904119e-38,2.422217e-39,3.795151e-38,5.52362e-40,0.03146854,0.07998097,-0.008096619,-0.04839795,-0.02611143,-0.13394123,-0.12744871,-0.07264253,-0.10765628,4.67236e-40,5.2101247e-38,7.16973e-40,-2.648762e-39,1.160026e-39,1.820376e-39,5.529914e-38,-1.404038e-39,2.603322e-39,0.12713642,0.056621894,0.124632336,0.08005998,0.12155319,0.067330286,-0.01370693,-0.09581331,-0.08460298,0.0022659402,-0.08089311,-0.009191676,0.13423945,0.07385004,0.031810325,-0.00019651953,0.01699933,0.005159661,-0.076507136,-0.022341987,0.0052983277,0.054955244,0.03366666,0.01710618,0.08604741,-0.016790072,-0.037278794,-0.11009931,0.08786237,-0.07592678,-0.010905281,0.09457362,-0.16832092,0.11100824,0.113948956,0.1066118,-0.053070806,-0.07924088,-0.1420386,0.024851335,-0.081336856,0.008372425,0.07998677,0.03740605,0.1332897,5.6546513e-38,3.3600074e-38,-1.409824e-39,2.288005e-39,5.8773e-40,2.6858578e-38,-1.664764e-39,-2.862039e-39,4.6804848e-38,-3.462623e-38,-3.3639722e-38,2.1181121e-38,-3.0957312e-38,2.5892232e-38,2.645433e-39,2.7184036e-38,-3.8126498e-38,4.0761399e-38,1.669983e-38,-3.6486606e-38,-4.9998183e-38,3.3842515e-38,-4.85093e-40,-2.555879e-39,-3.7963588e-38,-3.4829823e-38,3.2213556e-38,0.16656548,0.2041442,-0.06552441,0.07280252,-0.017192684,-0.0363822,0.009816052,-0.083599396,-0.14695334,0.06034525,0.047073282,-0.06205581,0.004292958,0.045373593,0.055339586,0.099809974,0.009817553,0.000941128,-1.330583e-39,-2.531891e-39,-3.6530884e-38,-7.48031e-40,-7.43752e-40,-1.149247e-39,5.29806e-40,-1.1668e-40,1.776577e-39,-0.015738234,-0.0732733,0.0073386584,-0.02894486,-0.075263806,-0.012116305,-0.11070504,0.03593756,0.03751993,-0.22797449,-0.15729806,-0.028734906,0.05308226,0.057558414,0.01838864,0.03439634,0.003289873,-0.017050732,4.078185e-38,-5.5792525e-38,3.0624988e-38,9.01468e-40,-8.0697e-41,4.9801116e-38,4.6935287e-38,-1.357655e-39,-9.25326e-40,-0.016619757,0.0071765254,-0.13291542,-0.07840595,0.009696711,0.04325834,-0.036814805,0.12613794,0.023377916,2.293466e-39,5.194912e-38,-1.007113e-39,-1.019054e-39,-8.38167e-40,7.13582e-40,-1.853458e-39,1.042961e-39,-1.235323e-39,2.42094e-40,-3.8081547e-38,-1.886757e-39,-9.5351e-40,-4.02854e-40,-1.737586e-39,2.303632e-39,2.672681e-39,1.179593e-39,-1.889246e-39,-1.872105e-39,2.898147e-39,-1.364052e-39,8.06404e-40,1.087695e-39,1.995635e-39,-2.227497e-39,-3.94191e-40,0.04825741,0.0041177836,-0.08494979,-0.057561733,-0.016547624,-0.103741705,-0.16796198,-0.06800267,-0.11639262,-0.031907193,-0.07669528,-0.061399363,0.1613622,-0.00090839906,-0.06868559,0.10880318,-0.030913979,-0.05852125,1.548029e-38,4.089416e-38,-5.6112693e-38,-4.0789548e-38,1.762155e-39,-2.808671e-38,3.3524505e-38,2.6794032e-38,5.3740996e-38,-2.39457e-40,3.253864e-39,5.29182e-40,-4.142034e-38,1.681099e-39,1.8900956e-38,-5.047473e-38,-4.6804523e-38,4.5164648e-38,-0.18465477,-0.0049714507,-0.06561583,-0.1372031,-0.01610116,-0.0050046714,-0.10357723,-0.1847836,0.0034574124,-2.690135e-38,4.7171e-40,-3.287813e-38,-5.1310914e-38,-1.75012e-40,-3.558644e-38,3.83007e-40,-5.1932177e-38,4.1343064e-38,-0.16395375,0.0038417268,-0.05865665,-0.21208017,-0.10250586,-0.07494381,-0.031500302,-0.051871244,-0.06445699,1.7420088e-38,3.7905034e-38,1.838592e-39,-4.5492266e-38,4.2443e-40,-1.162977e-39,-3.4077202e-38,-3.2780292e-38,-2.3097744e-38,-6.48228e-40,-1.326337e-39,9.36158e-40,4.989576e-38,1.817677e-39,2.4121573e-38,4.54664e-40,-3.9876577e-38,-6.0619e-41,1.535274e-39,-1.985986e-39,1.763217e-39,1.77987e-40,-1.46738e-40,5.202508e-38,1.580208e-39,-1.408469e-39,2.266401e-39,0.0840676,0.14906953,0.09122591,0.11235805,0.09028937,-0.021123255,-0.064454116,0.014223662,-0.023358492,-0.174437,-0.07388763,-0.009166478,-0.065595806,-0.10495497,-0.06335373,-0.021047818,0.0015899645,-0.048857447,-1.2969571e-38,1.834102e-39,1.97336e-39,-1.3509e-41,-3.13511e-40,1.860871e-39,-1.741028e-38,5.01742e-38,-5.734073e-38,4.87007e-40,-3.22998e-40,2.462587e-39,7.48532e-40,8.48053e-40,3.8019525e-38,-1.566729e-39,9.08764e-40,-2.377599e-39,-0.15425271,-0.2180162,-0.11733834,-0.18709148,-0.21000472,-0.122708924,-0.055684652,-0.03943811,-0.18971215,-0.0,-0.0,0.0,0.0,0.0,-0.0,0.0,0.0,-0.0,-0.0,-0.0,-0.0,-0.0,-0.0,-0.0,-0.0,-0.0,-0.0,0.0,0.0,0.0,-0.0,0.0,0.0,-0.0,-0.0,0.0,0.0,0.0,0.0,0.0,-0.0,0.0,0.0,0.0,0.0,-0.0,-0.0,-0.0,-0.0,0.0,0.0,-0.0,0.0,0.0,0.0,0.0,-0.0,-0.0,-0.0,0.0,-0.0,-0.0,-0.0,0.0,0.0,0.0,0.0,0.0,0.0,0.0,0.0,0.0,0.0,0.0,0.0,0.0,0.0,0.0,-0.0,-0.0,-0.0,-0.0,-0.0,-0.0,-0.0,-0.0,-0.0,0.0,-0.0,0.0,0.0,0.0,-0.0,0.0,0.0,-0.0,0.0,-0.0,-0.0,0.0,0.0,0.0,-0.0,0.0,0.0,-0.0,-0.0,0.0,0.0,0.0,0.0,0.0,0.0,0.0,-0.0,-0.0,0.0,0.0,0.0,0.0,-0.0,-0.0,-0.0,0.0,0.0,0.0,-0.0,0.0,0.0,-0.0,0.0,0.0,-0.0,0.0,0.0,-0.0,0.0,-0.0,-0.0,-0.0,-0.0,-0.0,-0.0,-0.0,0.0,0.0,0.0,0.0,0.0,0.0,0.0,0.0,0.0,0.0,0.0,0.0,0.0,0.0,0.0,-0.0,-0.0,-0.0,-0.0,0.0,0.0,-0.0,-0.0,-0.0,-0.0,-0.0,-0.0,-0.0,-0.0,-0.0,0.0,-0.0,0.0,0.0,0.0,0.0,0.0,0.0,-0.0,0.0,-0.0,0.0,-0.0,-0.0,0.0,0.0,-0.0,0.0,0.0,0.0,0.0,-0.0,-0.0,-0.0,-0.0,-0.0,-0.0,0.0,-0.0,-0.0,0.0,0.0,0.0,-0.0,0.0,0.0,-0.0,-0.0,-0.0,-0.0,-0.0,0.0,-0.0,0.0,0.0,0.0,0.0,0.0,0.0,0.0,0.0,-0.0,-0.0,-0.0,-0.0,-0.0,0.0,-0.0,-0.0,-0.0,0.0,0.0,0.0,0.0,0.0,0.0,0.0,0.0,-0.0,0.0,0.0,-0.0,0.0,0.0,0.0,-0.0,0.0,0.0,0.0,0.0,0.0,0.0,-0.0,0.0,0.0,-0.0,0.0,-0.0,-0.0,-0.0,-0.0,-0.0,-0.0,0.0,0.0,-0.0,0.0,0.0,-0.0,0.0,-0.0,-0.0,0.0,0.0,-0.0,-0.0,-0.0,-0.0,0.0,-0.0,-0.0,0.0,0.0,0.0,0.0,-0.0,-0.0,-0.0,-0.0,-0.0,0.0,-0.0,0.0,0.0,0.0,0.0,0.0,-0.0,-0.0,-0.0,-0.0,-0.0,-0.0,-0.0,0.0,-0.0,-0.0,-0.0,0.0,-0.0,-0.0,-0.0,0.0,-0.0,-0.0,-0.0,0.0,-0.0,-0.0,-0.0,0.0,-0.0,-0.0,-0.0,0.0,0.0,-0.0,0.0,0.0,0.0,0.0,-0.0,0.0,-0.0,-0.0,-0.0,-0.0,-0.0,-0.0,-0.0,-0.0,-0.0,0.0,0.0,-0.0,-0.0,-0.0,0.0,-0.0,-0.0,0.0,-0.0,0.0,-0.0,-0.0,-0.0,0.0,0.0,0.0,0.0,0.0,0.0,0.0,0.0,0.0,0.0,0.0,0.0,-0.0,-0.0,-0.0,0.0,-0.0,0.0,0.0,0.0,0.0,-0.0,0.0,-0.0,-0.0,0.0,-0.0,0.0,-0.0,0.0,-0.0,0.0,-0.0,0.0,0.0,-0.0,0.0,0.0,0.0,-0.0,-0.0,0.0,0.0,0.0,0.0,-0.0,-0.0,-0.0,0.0,-0.0,-0.0,0.0,0.0,0.0,-0.0,-0.0,0.0,-0.0,-0.0,0.0,-0.0,0.0,0.0,-0.0,-0.0,0.0,-0.0,-0.0,-0.0,-0.0,-0.0,0.0,-0.0,-0.0,-0.0,-0.0,0.0,0.0,-0.0,-0.0,-0.0,-0.0,-0.0,0.0,-0.0,0.0,-0.0,-0.0,-0.0,-0.0,-0.0,-0.0,0.0,-0.0,-0.0,0.0,-0.0,-0.0,-0.0,-0.0,0.0,0.0,0.0,0.0,0.0,-0.0,-0.0,-0.0,0.0,-0.0,-0.0,-0.0,0.0,0.0,0.0,0.0,0.0,-0.0,-0.0,0.0,-0.0,-0.0,0.0,0.0,-0.0,-0.0,-0.0,-0.0,-0.0,-0.0,-0.0,-0.0,0.0,-0.0,-0.0,0.0,-0.0,-0.0,0.0,0.0,0.0,-0.0,-0.0,0.0,-0.0,-0.0,-0.0,-0.0,-0.0,-0.0,0.0,-0.0,0.0,-0.0,0.0,0.0,0.0,-0.0,0.0,0.0,-0.0,0.0,-0.0,-0.0,-0.0,0.0,0.0,-0.0,0.0,-0.0,0.0,-0.0,-0.0,-0.0,-0.0,-0.0,-0.0,0.0,-0.0,-0.0,-0.0,-0.0,0.0,0.0,0.0,-0.0,0.0,0.0,-0.0,-0.0,0.0,0.0,-0.0,0.0,-0.0,0.0,0.0,0.0,-0.0,0.0,0.0,-0.0,0.0,0.0,0.0,0.0,0.0,-0.0,-0.0,0.0,-0.0,-0.0,-0.0,-0.0,-0.0,-0.0,0.0,0.0,0.0,0.0,-0.0,-0.0,-0.0,-0.0,-0.0,-2.136659e-39,-2.861942e-38,-1.152609e-39,4.59616e-38,-9.14001e-40,-1.33178e-40,-1.070146e-39,1.181096e-39,-3.9027e-40,-0.059602898,0.03438124,0.10302076,0.0151618095,-0.081396304,0.063075006,0.14163673,-0.051242586,-0.13650766,4.69862e-40,1.318857e-39,2.81047e-40,1.047957e-39,5.44348e-40,2.289947e-39,-7.13328e-40,4.81368e-40,-1.877865e-39,1.21795e-40,2.09479e-40,9.61951e-40,1.167873e-39,-7.45824e-40,1.575729e-39,-4.0535e-41,-2.166811e-39,-8.05629e-40,-0.08792099,-0.05157892,-0.027040362,-0.03393735,-0.0060347896,-0.017658534,0.06344763,-0.0643083,-0.053253178,-0.049778804,0.07285667,0.043358795,0.05508585,0.11578292,0.04978612,0.02910973,-0.007466397,-0.009268373,0.061335694,0.03856356,0.06719889,-0.041302238,-0.029159646,-0.0046824235,0.08531603,0.056604035,-0.07518959,-2.351131e-39,-1.999504e-39,-1.395043e-39,1.167251e-39,-3.53793e-40,2.226142e-39,-7.59039e-40,8.64562e-40,-7.62823e-40,-1.089716e-39,-1.365703e-39,1.768042e-39,-4.89852e-40,-7.98737e-40,2.404482e-39,6.37927e-40,1.136845e-39,-2.369875e-39,0.04634952,0.07517537,0.10886197,-0.10234249,0.011545949,0.007541673,-0.026438667,-0.0002557866,-0.018314673,-0.15230401,-0.15965077,-0.04740641,-0.050115988,-0.0955942,-0.060870126,-0.0069150063,-0.09360766,0.023999793,0.13040893,0.18193896,-0.029006531,0.09676545,0.1453255,-0.03356749,-0.15953206,-0.09969901,-0.075616166,-0.045359824,0.045547843,0.08543529,-0.07228591,0.0056363316,0.018457023,0.048998743,0.09759191,0.06323013,-1.053105e-39,-5.31075e-40,-1.095601e-39,-9.60903e-40,-1.345514e-39,-1.087382e-39,-2.218178e-39,-1.978991e-39,7.23377e-40,0.087842934,0.06154436,0.12636901,0.13488609,0.104440406,0.08946353,0.022992823,0.027590243,0.088377215,-0.046753112,-0.017010264,-0.048082113,-0.047579657,-0.012164004,-0.03007782,-0.07879019,-0.050422277,0.010303593,0.030159585,0.053782254,0.09359466,-0.06532359,0.041756112,0.07086445,0.02589026,-0.028618565,0.003163528,7.80558e-40,8.62449e-40,-8.0666e-40,6.01643e-40,1.21801e-40,-6.01126e-40,-1.124102e-39,-8.20467e-40,-2.144449e-39,5.06899e-40,-2.4410482e-38,-4.992e-41,2.095042e-39,-2.441889e-39,-1.166494e-39,1.154591e-39,-9.6792e-40,4.674637e-38,1.693153e-39,-5.49392e-40,1.5606e-41,3.4398e-40,-7.13531e-40,-3.60159e-40,-1.74033e-40,1.012064e-39,7.6008e-41,1.499141e-39,1.909231e-39,1.62449e-39,5.42312e-40,1.311344e-39,-4.6784e-41,-1.395158e-39,-8.20006e-40,-2.367438e-39,3.44145e-40,1.352019e-39,-5.9143e-41,1.745197e-39,-1.55398e-40,9.78465e-40,-4.5707e-40,1.200219e-39,1.7744e-40,-0.13684826,-0.11612185,-0.14184299,-0.108560584,-0.07782512,-0.03950172,0.037618224,0.01341165,0.01996939,-4.31178e-40,-4.25367e-40,-1.773888e-39,-1.403877e-39,-1.704132e-39,1.81344e-39,5.38376e-40,-1.12616e-39,7.81564e-40,-0.06414163,0.03847058,-0.13125086,-0.01265389,0.08527124,-0.029615229,0.0106402375,0.018026004,-0.1096334,0.016618494,0.014543084,-0.021567686,-0.06939905,0.005361954,-0.02166001,-0.06747673,0.021661041,-0.028250985,-1.410962e-39,2.184505e-39,-3.5229e-40,-1.131462e-39,8.3365e-40,7.577e-41,2.41347e-39,-2.46406e-40,2.17173e-40,-0.03413176,0.019687036,-0.0035077836,0.046593525,-0.015838891,-0.061859682,0.14217001,-0.05751846,-0.027714461,1.727402e-39,-2.318506e-39,-1.407701e-39,1.27732e-39,1.19363e-39,5.42807e-40,-8.1283e-40,-1.160411e-39,-2.49875e-39,-0.068465635,-0.03588388,0.14969209,-0.15871774,0.07299197,0.23846176,0.038901664,0.15281852,0.13780469,5.86365e-40,7.37379e-40,1.735773e-39,-1.305015e-39,-1.985749e-39,-1.770293e-39,2.9219e-40,-6.95019e-40,-3.40455e-40,0.020379232,-0.026941046,0.071255684,-0.033969183,0.020643914,0.044387825,0.018465523,-0.005480021,-0.003245146,-0.0016852149,0.01637043,0.07113765,-0.056440696,-0.018518914,-0.10012985,-0.13013472,-0.22361831,-0.2116018,-0.019369684,0.051196594,0.12827343,-0.044221245,-0.06070423,-0.0025996172,0.06933224,0.010263843,-0.041779593,-0.10086193,-0.08751952,-0.05280291,-0.07044084,-0.08315207,0.025281439,-0.095924534,-0.091762036,0.108660035,-0.18372783,-0.06879004,-0.0013981968,-0.15495409,0.07542857,0.00089852343,0.10315074,0.13356592,0.06346544,-9.58995e-40,-1.763505e-39,1.679179e-39,1.877339e-39,6.1382e-40,1.180202e-39,1.911883e-39,-6.84576e-40,-2.6015e-39,7.59088e-40,-1.176206e-39,1.138419e-39,-2.854014e-38,4.18467e-38,2.3256737e-38,-4.4942685e-38,-1.508505e-39,-1.214787e-39,-3.7181838e-38,1.024114e-39,1.46534e-39,-9.12481e-40,9.88431e-40,-1.811903e-39,-4.794528e-38,3.242481e-38,5.66457e-40,0.10246585,0.1265155,0.0057951794,0.10755548,0.093381636,-0.009545679,0.05252073,-0.08622035,0.01583391,0.060885742,-0.014194095,-0.0030341742,0.030693574,-0.024525668,-0.02222599,-0.06060731,-0.1609021,-0.113453574,-1.549437e-39,9.40645e-40,-1.559211e-39,-1.712629e-39,-1.285618e-39,-3.08682e-40,5.96449e-40,-4.20674e-40,-5.2947e-40,-0.008910609,-0.037465937,-0.07570246,-0.10293324,-0.13900422,-0.18068817,0.013996491,0.027154958,-0.038817156,-0.010901595,0.05913364,0.0073366156,0.05930049,0.08937307,-0.019197859,-0.026393695,-0.006799125,-0.08474569,-1.33807e-40,-2.079888e-39,-4.20582e-40,3.6553e-40,-4.73842e-40,-2.084765e-39,-5.2357e-41,2.077875e-39,1.702866e-39,-0.0025104869,-0.054557487,-0.06242569,0.050045412,0.1286263,0.033901285,0.05678649,0.124619,0.11385531,2.323897e-39,-9.77872e-40,-3.52827e-40,6.65091e-40,2.00257e-40,-2.095653e-39,-7.99843e-40,9.68671e-40,5.37916e-40,-2.1704e-39,4.71826e-40,2.489091e-39,-8.5217e-41,2.13296e-39,9.11633e-40,2.5334e-41,6.3269e-41,7.44294e-40,5.63001e-40,-5.43345e-40,-1.202527e-39,8.59418e-40,-9.34578e-40,-7.30172e-40,-2.317488e-39,6.9623e-40,-1.610068e-39,0.098989,0.1593998,0.15623939,0.12633757,0.09789984,0.121458,0.14335069,-0.025186477,0.101982355,-0.1593704,-0.14988583,0.016278427,-0.175919,-0.19308154,0.00043614948,-0.003626787,0.0026291998,0.12231737,-4.1075578e-38,-1.045946e-39,-3.679279e-38,4.32965e-40,1.19989e-40,-3.48573e-40,1.223381e-39,1.732303e-39,-3.734512e-38,7.85604e-40,7.0268e-40,-3.99345e-38,-3.067703e-38,7.09609e-40,1.518296e-39,4.3204798e-38,-3.2422246e-38,1.898615e-39,0.11091241,0.14536874,-0.043236785,-0.037609737,-0.05403623,-0.05237885,-0.13863893,-0.079367146,-0.014081588,-1.300158e-39,-1.684948e-39,-3.5956e-41,1.0691e-40,-7.91968e-40,-2.018653e-39,-1.139051e-39,-1.514825e-39,1.461655e-39,-0.13223453,0.032962788,0.05634987,-0.14360052,-0.03838488,-0.1658416,-0.013079021,0.04657517,-0.041367244,-1.305324e-39,-5.37734e-40,1.158525e-39,7.41557e-40,8.4117e-40,-7.20922e-40,-4.890757e-38,-2.9150452e-38,3.265405e-38,3.00919e-40,7.92312e-40,-5.12372e-40,2.41382e-40,1.937943e-39,6.4008e-40,-2.424727e-39,-1.814488e-39,7.2535e-41,-1.778874e-39,1.81444e-40,-2.401622e-39,1.689841e-39,1.24927e-39,-2.460342e-39,-1.356632e-39,-5.22653e-40,-1.832278e-39,0.05590138,0.13987038,0.12001442,-0.004022578,-0.023753526,-0.0021597412,0.095933534,0.08949756,0.1900188,-0.09642067,-0.014910931,0.1045756,-0.040295504,0.054847494,0.034335125,0.0278013,0.04090172,0.16955988,-1.039937e-39,-1.7876e-39,-2.8976285e-38,1.401838e-39,2.053543e-39,2.209775e-39,4.2983e-40,4.1656573e-38,-3.5437922e-38,-1.00778e-39,-1.339573e-39,-1.47186e-39,-1.537627e-39,4.16689e-40,-2.209444e-39,1.665e-40,-1.541245e-39,1.742e-40,0.038324144,0.02159067,-0.061661355,-0.02135203,-0.05764498,-0.10881164,-0.06509405,0.053550344,-0.008974957,-0.0,0.0,0.0,0.0,0.0,0.0,0.0,0.0,0.0,-0.0,-0.0,-0.0,0.0,0.0,0.0,0.0,0.0,0.0,-0.0,-0.0,0.0,-0.0,0.0,-0.0,0.0,0.0,-0.0,0.0,0.0,0.0,0.0,0.0,-0.0,-0.0,0.0,-0.0,0.0,0.0,0.0,0.0,0.0,0.0,0.0,-0.0,-0.0,-0.0,0.0,0.0,0.0,0.0,0.0,0.0,0.0,0.0,0.0,0.0,-0.0,0.0,-0.0,-0.0,-0.0,0.0,-0.0,0.0,0.0,0.0,0.0,0.0,0.0,0.0,0.0,0.0,0.0,0.0,0.0,0.0,0.0,0.0,0.0,0.0,0.0,-0.0,-0.0,-0.0,0.0,0.0,0.0,0.0,0.0,0.0,0.0,0.0,0.0,0.0,0.0,0.0,0.0,0.0,-0.0,0.0,0.0,0.0,-0.0,-0.0,-0.0,0.0,0.0,-0.0,0.0,0.0,-0.0,-0.0,-0.0,0.0,0.0,-0.0,0.0,0.0,0.0,0.0,0.0,0.0,0.0,0.0,0.0,0.0,0.0,0.0,0.0,-0.0,-0.0,0.0,0.0,0.0,-0.0,-0.0,0.0,-0.0,0.0,0.0,0.0,0.0,0.0,-0.0,-0.0,0.0,-0.0,0.0,0.0,-0.0,0.0,0.0,-0.0,-0.0,0.0,0.0,0.0,0.0,0.0,0.0,0.0,0.0,0.0,0.0,0.0,-0.0,0.0,-0.0,-0.0,-0.0,0.0,0.0,0.0,-0.0,-0.0,0.0,-0.0,-0.0,-0.0,-0.0,0.0,0.0,0.0,-0.0,0.0,0.0,-0.0,0.0,0.0,0.0,0.0,0.0,0.0,0.0,-0.0,0.0,0.0,-0.0,0.0,-0.0,-0.0,0.0,0.0,0.0,0.0,0.0,-0.0,0.0,0.0,0.0,0.0,0.0,0.0,0.0,0.0,0.0,0.0,0.0,0.0,-0.0,-0.0,0.0,0.0,0.0,-0.0,-0.0,-0.0,-0.0,-0.0,-0.0,-0.0,-0.0,-0.0,-0.0,-0.0,-0.0,-0.0,-0.0,-0.0,-0.0,0.0,0.0,-0.0,0.0,-0.0,-0.0,-0.0,0.0,-0.0,0.0,-0.0,-0.0,0.0,-0.0,-0.0,0.0,0.0,0.0,0.0,-0.0,0.0,0.0,0.0,-0.0,0.0,0.0,0.0,-0.0,-0.0,-0.0,0.0,0.0,0.0,0.0,0.0,0.0,0.0,0.0,0.0,-0.0,-0.0,-0.0,-0.0,-0.0,-0.0,-0.0,-0.0,-0.0,0.0,-0.0,-0.0,-0.0,0.0,0.0,-0.0,-0.0,0.0,-0.0,-0.0,0.0,-0.0,-0.0,-0.0,0.0,0.0,0.0,-0.0,0.0,-0.0,0.0,0.0,-0.0,0.0,0.0,0.0,0.0,-0.0,0.0,0.0,-0.0,0.0,0.0,0.0,0.0,0.0,-0.0,-0.0,-0.0,-0.0,0.0,0.0,0.0,0.0,0.0,0.0,0.0,0.0,0.0,-0.0,-0.0,0.0,0.0,-0.0,0.0,-0.0,0.0,-0.0,0.0,0.0,-0.0,-0.0,-0.0,-0.0,-0.0,-0.0,-0.0,-0.0,0.0,0.0,-0.0,-0.0,0.0,0.0,0.0,-0.0,-0.0,-0.0,-0.0,-0.0,-0.0,0.0,0.0,0.0,0.0,-0.0,0.0,0.0,-0.0,-0.0,-0.0,-0.0,0.0,0.0,0.0,-0.0,-0.0,0.0,0.0,0.0,0.0,0.0,0.0,0.0,-0.0,-0.0,-0.0,0.0,0.0,0.0,-0.0,0.0,0.0,0.0,0.0,0.0,-0.0,-0.0,-0.0,-0.0,-0.0,-0.0,0.0,0.0,0.0,0.0,0.0,0.0,0.0,-0.0,-0.0,-0.0,0.0,-0.0,0.0,-0.0,-0.0,0.0,-0.0,0.0,0.0,0.0,-0.0,0.0,0.0,-0.0,0.0,-0.0,-0.0,0.0,0.0,-0.0,-0.0,-0.0,0.0,-0.0,-0.0,-0.0,-0.0,-0.0,-0.0,0.0,0.0,0.0,0.0,0.0,0.0,0.0,0.0,0.0,-0.0,-0.0,0.0,-0.0,-0.0,0.0,-0.0,0.0,0.0,-0.0,-0.0,0.0,0.0,-0.0,-0.0,0.0,-0.0,-0.0,-0.0,-0.0,-0.0,-0.0,-0.0,-0.0,0.0,0.0,0.0,-0.0,-0.0,-0.0,0.0,-0.0,0.0,0.0,-0.0,-0.0,-0.0,-0.0,0.0,-0.0,-0.0,-0.0,0.0,0.0,0.0,-0.0,-0.0,-0.0,0.0,-0.0,-0.0,0.0,-0.0,-0.0,0.0,0.0,0.0,-0.0,-0.0,0.0,-0.0,-0.0,0.0,-0.0,0.0,0.0,0.0,0.0,0.0,0.0,0.0,-0.0,0.0,0.0,0.0,-0.0,-0.0,-0.0,-0.0,-0.0,0.0,-0.0,0.0,0.0,0.0,0.0,0.0,0.0,-0.0,0.0,-0.0,0.0,0.0,-0.0,-0.0,0.0,-0.0,-0.0,-0.0,-0.0,0.0,-0.0,-0.0,-0.0,-0.0,0.0,0.0,0.0,0.0,-0.0,0.0,0.0,0.0,0.0,0.0,0.0,0.0,0.0,-0.0,0.0,-0.0,-0.0,-0.0,-0.0,0.0,0.0,0.0,0.0,0.0,0.0,-0.0,-0.0,0.0,0.0,-0.0,0.0,0.0,-0.0,-0.0,-0.0,-0.0,-0.0,-0.0,-0.0,0.0,-0.0,0.0,0.0,-0.0,-0.0,0.0,-0.0,-0.0,-0.0,-0.0,-0.0,-0.0,-0.0,-0.0,-0.0,-0.0,-0.0,0.0,0.0,0.0,0.0,0.0,-0.0,0.0,-0.0,-0.0,-0.0,-0.0,0.0,-0.0,0.0,0.0,0.0,0.0,0.0,-0.0,-0.0,-0.0,0.0,-0.0,-0.0,0.0,0.0,0.0,-0.0,0.0,0.0,0.0,-0.0,0.0,-0.0,-0.0,-0.0,0.0,0.0,-0.0,-0.0,-0.0,0.0,-0.0,-0.0,-0.0,-0.0,0.0,-0.0,-0.0,-0.0,-0.0,-0.0,-0.0,-0.0,0.0,0.0,0.0,0.0,0.0,0.0,0.0,0.0,0.0,0.0,0.0,-0.0,0.0,0.0,0.0,0.0,-0.0,-0.0,0.0,-0.0,-0.0,-0.0,-0.0,-0.0,-0.0,-0.0,-0.0,0.0,0.0,-0.0,0.0,0.0,0.0,-0.0,0.0,0.0,0.0,-0.0,-0.0,0.0,0.0,-0.0,-0.0,-0.0,-0.0,0.0,-0.0,-0.0,-0.0,-0.0,-0.0,-0.0,-0.0,-0.0,-0.0,-0.0,-0.0,0.0,-0.0,0.0,0.0,0.0,0.0,-0.0,0.0,0.0,-0.0,0.0,0.0,-0.0,-0.0,-0.0,0.0,0.0,0.0,0.0,-0.0,-0.0,0.0,0.0,0.0,0.0,0.0,0.0,0.0,0.0,-0.0,0.0,0.0,0.0,0.0,0.0,0.0,-0.0,-0.0,0.0,0.0,0.0,0.0,-0.0,-0.0,-0.0,0.0,-0.0,-0.0,-0.0,-0.0,-0.0,0.0,0.0,0.0,-0.0,-0.0,0.0,0.0,-0.0,-0.0,0.0,0.0,0.0,0.0,0.0,0.0,-0.0,-0.0,0.0,0.0,0.0,0.0,0.0,0.0,0.0,0.0,0.0,0.0,-0.0,0.0,-0.0,-0.0,0.0,-0.0,-0.0,0.0,-0.0,0.0,0.0,0.0,0.0,0.0,0.0,-0.0,-0.0,-0.0,-0.0,-0.0,0.0,-0.0,-0.0,-0.0,0.0,0.0,-0.0,0.0,0.0,0.0,0.0,0.0,0.0,0.0,0.0,0.0,-0.0,-0.0,-0.0,-0.0,-0.0,0.0,-0.0,-0.0,0.0,0.0,-0.0,-0.0,0.0,-0.0,0.0,0.0,-0.0,-0.0,0.0,-0.0,0.0,0.0,-0.0,-0.0,-0.0,-0.0,0.0,0.0,0.0,0.0,0.0,0.0,0.0,0.0,0.0,0.0,0.0,0.0,0.0,0.0,0.0,0.0,0.0,0.0,0.0,-0.0,-0.0,0.0,-0.0,-0.0,0.0,0.0,0.0,0.0,0.0,0.0,0.0,0.0,0.0,0.0,-0.0,-0.0,-0.0,0.0,-0.0,-0.0,-0.0,-0.0,0.0,-0.0,-0.0,0.0,-0.0,-0.0,-0.0,0.0,0.0,0.0,-0.0,0.0,0.0,-0.0,0.0,0.0,-0.0,0.0,0.0,0.0,0.0,0.0,0.0,0.0,-0.0,-0.0,0.0,0.0,0.0,-0.0,0.0,-0.0,-0.0,-0.0,-0.0,-0.0,-0.0,-0.0,-0.0,-0.0,-0.0,-0.0,0.0,-0.0,-0.0,0.0,-0.0,0.0,-0.0,-0.0,-0.0,-0.0,0.0,-0.0,-0.0,-0.0,-0.0,0.0,0.0,0.0,0.0,-0.0,-0.0,0.0,-0.0,-0.0,-0.0,0.0,0.0,0.0,0.0,0.0,0.0,-0.0,-0.0,-0.0,0.0,0.0,-0.0,-0.0,-0.0,0.0,-0.0,-0.0,0.0,-0.0,-0.0,-0.0,-0.0,-0.0,0.0,-0.0,0.0,0.0,0.0,0.0,0.0,0.0,0.0,0.0,-0.0,-0.0,-0.0,-0.0,-0.0,0.0,-0.0,0.0,0.0,-0.0,-0.0,0.0,-0.0,-0.0,-0.0,-0.0,-0.0,-0.0,-0.0,-0.0,0.0,0.0,-0.0,-0.0,0.0,0.0,0.0,-0.0,-0.0,-0.0,-0.0,0.0,-0.0,0.0,-0.0,-0.0,-0.0,-0.0,0.0,0.0,0.0,0.0,0.0,0.0,0.0,0.0,0.0,0.0,-0.0,-0.0,0.0,-0.0,0.0,0.0,0.0,-0.0,-0.0,0.0,0.0,0.0,-0.0,-0.0,0.0,-0.0,-0.0,-0.0,-0.0,-0.0,-0.0,-0.0,-0.0,-0.0,-0.0,-0.0,-0.0,0.0,0.0,0.0,0.0,0.0,0.0,-0.0,-0.0,-0.0,-0.0,-0.0,-0.0,-0.0,-0.0,-0.0,-0.0,-0.0,-0.0,-0.0,0.0,0.0,0.0,0.0,0.0,0.0,0.0,0.0,0.0,0.0,-0.0,0.0,0.0,-0.0,0.0,-0.0,-0.0,-0.0,-0.0,-0.0,-0.0,0.0,-0.0,-0.0,-0.0,-0.0,0.0,0.0,0.0,0.0,0.0,0.0,-0.0,-0.0,-0.0,0.0,0.0,0.0,-0.0,-0.0,-0.0,-0.0,-0.0,-0.0,0.0,0.0,0.0,-0.0,-0.0,0.0,0.0,-0.0,-0.0,-0.0,-0.0,-0.0,0.0,-0.0,0.0,0.0,0.0,0.0,-0.0,-0.0,0.0,0.0,0.0,0.0,0.0,-0.0,0.0,0.0,0.0,0.0,0.0,-0.0,0.0,0.0,0.0,-0.0,0.0,0.0,0.0,0.0,0.0,-0.0,-0.0,-0.0,0.0,0.0,0.0,-0.0,-0.0,-0.0,-0.0,0.0,0.0,0.0,-0.0,0.0,0.0,0.0,-0.0,0.0,0.0,0.0,-0.0,-0.0,0.0,-0.0,-0.0,0.0,0.0,-0.0,0.0,-0.0,0.0,-0.0,-0.0,0.0,0.0,0.0,0.0,0.0,0.0,-0.0,-0.0,0.0,-0.0,-0.0,-0.0,-0.0,0.0,-0.0,0.0,-0.0,-0.0,0.0,-0.0,-0.0,0.0,-0.0,0.0,0.0,0.0,0.0,-0.0,-0.0,-0.0,0.0,-0.0,0.0,-0.0,0.0,-0.0,-0.0,-0.0,-0.0,0.0,0.0,-0.0,-0.0,-0.0,-0.0,0.0,-0.0,0.0,0.0,0.0,0.0,0.0,0.0,0.0,0.0,0.0,0.0,0.0,-0.0,-0.0,0.0,0.0,0.0,0.0,0.0,0.0,0.0,-0.0,0.0,-0.0,0.0,-0.0,-0.0,-0.0,0.0,-0.0,0.0,-0.0,0.0,0.0,-0.0,-0.0,-0.0,0.0,-0.0,0.0,-0.0,-0.0,-0.0,-0.0,0.0,0.0,-0.0,-0.0,-0.0,-0.0,0.0,-0.0,-0.0,-0.0,0.0,0.0,-0.0,0.0,-0.0,-0.0,0.0,0.0,0.0,0.0,-0.0,0.0,-0.0,0.0,0.0,0.0,0.0,0.0,0.0,0.0,0.0,0.0,-0.0,0.0,-0.0,-0.0,0.0,0.0,0.0,-0.0,-0.0,-0.0,0.0,-0.0,-0.0,-0.0,0.0,0.0,-0.0,-0.0,0.0,-0.0,-0.0,-0.0,0.0,-0.0,-0.0,-0.0,0.0,0.0,0.0,0.0,0.0,0.0,0.0,-0.0,-0.0,0.0,-0.0,0.0,0.0,0.0,0.0,-0.0,0.0,-0.0,-0.0,-0.0,0.0,0.0,0.0,0.0,0.0,-0.0,-0.0,0.0,0.0,0.0,0.0,-0.0,-0.0,-0.0,0.0,0.0,0.0,0.0,-0.0,0.0,0.0,-0.0,0.0,0.0,-0.0,-0.0,-0.0,-0.0,0.0,0.0,0.0,0.0,-0.0,0.0,0.0,0.0,0.0,0.0,0.0,0.0,0.0,-0.0,0.0,-0.0,-0.0,-0.0,0.0,-0.0,-0.0,0.0,0.0,-0.0,-0.0,0.0,-0.0,0.0,-0.0,-0.0,-0.0,0.0,-0.0,0.0,-0.0,-0.0,-0.0,0.0,0.0,-0.0,-0.0,0.0,0.0,-0.0,0.0,-0.0,0.0,-0.0,-0.0,-0.0,0.0,0.0,-0.0,-0.0,-0.0,-0.0,0.0,0.0,-0.0,0.0,0.0,0.0,-0.0,-0.0,-0.0,-0.0,-0.0,-0.0,-0.0,-0.0,-0.0,-0.0,-0.0,-0.0,0.0,0.0,0.0,0.0,0.0,-0.0,-0.0,0.0,0.0,-0.0,-0.0,-0.0,-0.0,0.0,0.0,-0.0,-0.0,0.0,-0.0,0.0,0.0,0.0,0.0,-0.0,-0.0,0.0,0.0,0.0,0.0,-0.0,0.0,0.0,-0.0,-0.0,0.0,0.0,0.0,0.0,-0.0,0.0,-0.0,0.0,0.0,0.0,0.0,0.0,0.0,0.0,-0.0,-0.0,-0.0,-0.0,0.0,-0.0,-0.0,0.0,-0.0,0.0,0.0,-0.0,0.0,0.0,0.0,-0.0,0.0,-0.0,0.0,-0.0,0.0,0.0,0.0,0.0,-0.0,0.0,-0.0,0.0,-0.0,0.0,0.0,0.0,-0.0,-0.0,0.0,-0.0,-0.0,-0.0,-0.0,-0.0,0.0,0.0,-0.0,0.0,0.0,-0.0,0.0,-0.0,0.0,-0.0,-0.0,0.0,-0.0,-0.0,0.0,-0.0,-0.0,-0.0,-0.0,0.0,-0.0,-0.0,0.0,0.0,0.0,0.0,0.0,0.0,0.0,-0.0,0.0,0.0,-0.0,0.0,-0.0,0.0,0.0,0.0,0.0,0.0,-0.0,0.0,0.0,-0.0,-0.0,-0.0,0.0,-0.0,-0.0,-0.0,0.0,-0.0,-0.0,-0.0,0.0,0.0,-0.0,-0.0,0.0,0.0,-0.0,-0.0,0.0,-0.0,0.0,0.0,0.0,0.0,0.0,0.0,-0.0,0.0,0.0,0.0,-0.0,-0.0,0.0,0.0,-0.0,-0.0,-0.0,-0.0,-0.0,0.0,0.0,-0.0,0.0,0.0,-0.0,0.0,-0.0,-0.0,-0.0,-0.0,0.0,0.0,-0.0,-0.0,-0.0,0.0,0.0,0.0,0.0,0.0,-0.0,0.0,-0.0,-0.0,0.0,-0.0,-0.0,0.0,-0.0,-0.0,-0.0,-0.0,-0.0,0.0,-0.0,-0.0,-0.0,0.0,0.0,-0.0,-0.0,0.0,-0.0,0.0,-0.0,0.0,-0.0,0.0,0.0,0.0,0.0,-0.0,-0.0,0.0,-0.0,-0.0,0.0,-0.0,-0.0,-1.380513e-39,3.00731e-40,-2.48213e-40,-2.385698e-39,-5.7e-40,9.53753e-40,-2.087216e-39,-1.446127e-39,2.647468e-39,0.03293033,-0.015855515,-0.07134854,-0.056735724,-0.07217509,-0.03929178,-0.03853607,-0.18260108,-0.05932454,-7.54958e-40,2.628074e-39,4.77466e-40,-6.3974e-40,8.81156e-40,2.209495e-39,1.891226e-39,-1.428583e-39,1.539245e-39,-4.42879e-40,-2.170098e-39,-1.176166e-39,2.82126e-40,2.231066e-39,-1.615931e-39,-4.13328e-40,-1.998623e-39,7.3593e-40,0.060506497,0.025315946,-0.057126697,-0.014548502,0.014994192,-0.036697898,0.031984113,0.02286893,-0.118881956,-0.065478094,-0.15119474,-0.028693462,-0.18768865,-0.19594638,-0.06360933,-0.004803926,0.07945167,0.17553987,0.044984337,0.011696582,-0.03696798,0.10947701,-0.050638337,-0.012460644,-0.12713662,-0.26267108,0.013194489,1.465234e-39,-1.34637e-40,-1.52013e-40,2.091599e-39,-2.57784e-40,7.55816e-40,-3.6674e-40,-1.624176e-39,-1.416009e-39,-4.607897e-38,2.482043e-39,7.41068e-40,1.228869e-39,-1.081479e-39,-1.429797e-39,-1.921368e-39,1.40367e-40,1.738536e-39,-0.12808841,0.1359613,0.086652115,-0.08378019,0.08923928,-0.104859084,0.14635211,0.19274345,0.028812535,-0.30246666,-0.1443954,-0.25369897,-0.13349566,-0.016877767,-0.06220374,-0.18167093,-0.051861104,-0.05486931,0.14545512,0.16393238,-0.05212985,0.3018731,0.21684037,0.03728393,0.12767647,0.11606621,0.04585159,-0.043093238,0.01491053,-0.0508244,-0.022416163,-0.066546984,-0.098464824,0.14871655,0.108864136,0.01519278,2.430067e-39,-1.84668e-39,-2.008872e-39,-1.81676e-40,8.98322e-40,1.117138e-39,4.956052e-38,2.194732e-39,2.608444e-39,-0.02399259,-0.113528095,-0.020345788,-0.12786996,-0.27219397,-0.17253411,0.03458438,-0.13885912,-0.12847944,-0.0048541394,-0.054012842,-0.07219133,-0.17599562,-0.08468454,0.031351402,-0.09303203,-0.11104599,0.05040803,-0.031425133,-0.08252112,0.024245303,0.089272834,-0.11662225,-0.026556144,-0.09868714,-0.09432293,0.020134544,-9.2264e-40,1.397715e-39,-1.066497e-39,-7.33891e-40,1.062421e-39,9.10156e-40,-5.9666e-40,5.0116e-40,-2.061736e-39,5.75446e-40,-2.111947e-39,2.347195e-39,-5.51529e-40,8.2763e-41,-1.542025e-39,3.3265e-41,1.407915e-39,1.571922e-39,1.614451e-39,-8.44061e-40,-1.47395e-39,7.7433e-40,9.18701e-40,-1.096332e-39,-2.374217e-39,9.5517e-41,-1.718055e-39,9.48857e-40,1.869884e-39,-1.106409e-39,1.451661e-39,1.25056e-39,-2.1033e-40,-1.364719e-39,-1.450158e-39,-1.375473e-39,-1.556949e-39,1.16326e-39,-1.313133e-39,-3.04585e-40,8.59582e-40,3.61011e-40,-1.640216e-39,1.794405e-39,7.52398e-40,0.118740305,-0.105017334,0.19684565,0.23981027,0.05262457,0.22626773,-0.10743623,-0.20276126,-0.09237506,-1.807623e-39,-2.93622e-40,-1.625795e-39,-1.269034e-39,6.02553e-40,7.82987e-40,-2.001278e-39,-1.794591e-39,1.806335e-39,0.2398341,0.2068775,-0.01830832,0.11430063,0.1355312,-0.008371885,0.17259103,0.105656505,0.0004979025,0.009226132,0.12963255,-0.014729373,-0.030293435,0.034624174,-0.014427794,-0.17032133,-0.02787575,-0.008429139,1.154035e-39,-2.62549e-40,3.96436e-40,9.39164e-40,-6.10958e-40,2.34507e-39,-2.25682e-39,-1.431775e-39,-3.8667e-41,0.11067261,-0.1308718,-0.086772226,-0.046665598,-0.11052483,-0.13769272,-0.079485126,-0.038255088,-0.07687244,1.596142e-39,1.738396e-39,-3.22643e-40,2.328972e-39,-5.81727e-40,-6.58645e-40,9.78e-43,9.34021e-40,1.67326e-40,-0.110915735,-0.04755576,0.03681595,-0.17057876,0.01908567,0.19254081,-0.031537544,0.060789254,0.19243446,-1.955579e-39,-1.800524e-39,-2.46819e-40,-1.89435e-40,-2.598424e-39,-5.96537e-40,2.07264e-39,2.103947e-39,1.787735e-39,0.23975107,0.12845433,0.025527077,0.09611668,0.23184474,-0.06282094,-0.16715375,0.00037670528,-0.12012303,0.00796746,-0.032213192,-0.16002275,-0.016336605,-0.06282333,-0.15190832,-0.07713559,0.05130929,-0.046231363,-0.048969213,-0.14469865,-0.030223474,0.086776614,-0.067735106,0.09488228,0.25978222,0.0014628461,0.11694146,-0.078807496,-0.021551283,-0.036993083,0.10855574,0.14568259,-0.0011006221,0.25248042,0.037153713,-0.029701328,0.06617282,0.014059725,0.024761388,0.09776208,0.08480954,0.013200898,0.1507572,0.14352849,0.03241592,-1.018357e-39,4.780194e-38,1.885734e-39,6.60243e-40,9.452e-41,8.48712e-40,-1.599431e-39,-1.962661e-39,-8.43137e-40,-1.949798e-39,-3.5267045e-38,-2.45971e-39,-2.46986e-40,4.314275e-38,3.90061e-40,1.08343e-40,-5.11024e-40,2.7635e-40,-5.221984e-38,1.970918e-39,-4.011002e-38,-8.75014e-40,3.68474e-40,1.750935e-39,-1.163053e-39,-2.023269e-39,-2.584013e-39,-0.061459675,-0.1349914,-0.06645656,0.044724528,-0.0994667,-0.02874568,0.08842889,-0.041471142,0.040112972,0.1534336,-0.02101794,-0.07557286,0.052489966,-0.12788436,-0.041915134,0.104181476,0.0562187,-0.07223092,-1.530432e-39,2.262483e-39,8.60665e-40,-2.094972e-39,2.58355e-40,-2.466019e-39,1.148614e-39,-1.58341e-40,-1.580704e-39,0.060394306,-0.1410705,0.0044391835,-0.053425036,-0.11723275,-0.08781479,-0.048188798,-0.019988798,-0.032114323,-0.12602976,0.008333075,-0.036206387,-0.06072325,0.041505396,-0.15876049,-0.057292722,0.014130203,-0.14265138,1.36817e-39,2.207534e-39,-2.46984e-39,-7.25214e-40,2.261589e-39,-1.754962e-39,5.66028e-40,7.28954e-40,1.410862e-39,0.114960946,0.06412733,-0.03368591,0.00857011,0.02621979,-0.061216865,-0.21033101,-0.046184074,-0.11291823,-1.456622e-39,-4.91641e-40,3.51123e-40,3.99114e-40,-1.690333e-39,-5.8415e-41,7.40115e-40,1.88002e-40,6.88288e-40,-2.15242e-40,-5.32364e-40,8.89519e-40,-1.813418e-39,1.284123e-39,4.86115e-40,1.720329e-39,1.335684e-39,-5.97975e-40,1.169803e-39,-3.37524e-40,1.117013e-39,5.73798e-40,-2.202223e-39,-6.04646e-40,-1.42452e-40,-1.028413e-39,-7.93439e-40,0.06756736,0.10655915,0.12505853,-0.15257724,-0.041245695,0.006674991,-0.037189227,-0.028025623,0.0034157091,0.053947493,-0.008472197,-0.026950398,-0.058744363,-0.15430328,-0.03496108,0.021197649,-0.040893562,-0.14558852,-4.4446054e-38,4.6021486e-38,2.93304e-40,3.5139106e-38,3.95423e-40,3.8683556e-38,4.66832e-38,2.08226e-40,-2.293825e-39,-4.39152e-40,2.474835e-39,3.73669e-40,-2.616376e-39,5.48419e-40,-9.32e-43,1.471816e-39,-2.018908e-39,4.4292318e-38,0.1144613,0.1856241,-0.015193661,0.03626153,0.09912082,-0.14239833,-0.04038358,-0.031405866,-0.16805358,-6.47365e-40,1.314653e-39,2.53566e-40,-8.89009e-40,1.196628e-39,7.61425e-40,1.194115e-39,-1.138914e-39,-1.85995e-39,0.007524298,0.03498971,0.040380325,-0.10840114,-0.00027586543,-0.064552836,0.06377781,0.07605094,-0.088429146,2.416504e-39,4.4874e-41,-9.50268e-40,8.84648e-40,2.45428e-40,1.540121e-39,2.259094e-39,-1.367419e-39,2.325924e-39,1.918357e-39,1.019649e-39,1.625901e-39,8.12183e-40,-5.91055e-40,-1.54588e-40,4.27716e-40,3.24321e-40,5.8653e-40,2.25843e-40,1.032416e-39,-2.332765e-39,-1.69998e-39,4.40588e-40,5.65495e-40,1.263378e-39,2.072547e-39,1.794213e-39,0.290807,0.17983742,0.33604926,0.12243736,-0.014860129,0.07958039,0.025929501,-0.0922691,-0.17703407,0.028359571,-0.0071359337,-0.025152832,0.030676488,-0.021871751,0.015199599,0.0882512,0.03946043,-0.12553903,-3.4963593e-38,-4.791982e-38,2.109296e-39,4.1151932e-38,-1.129046e-39,-2.496612e-39,-3.1390478e-38,-2.638496e-39,4.757729e-38,-1.401472e-39,-2.13905e-40,-2.366307e-39,5.57222e-40,1.530232e-39,6.5145e-41,-1.38977e-39,-1.380547e-39,-2.43694e-39,-0.1467917,0.01496635,-0.0690729,-0.07171084,0.016548136,-0.062747404,0.020779654,0.022957986,0.008713557,-0.0,-0.0,0.0,-0.0,-0.0,-0.0,-0.0,-0.0,-0.0,-0.0,0.0,0.0,-0.0,-0.0,0.0,-0.0,0.0,0.0,0.0,-0.0,0.0,0.0,0.0,0.0,0.0,-0.0,-0.0,-0.0,-0.0,-0.0,0.0,-0.0,0.0,0.0,-0.0,0.0,-0.0,-0.0,-0.0,0.0,-0.0,-0.0,-0.0,-0.0,-0.0,-0.0,-0.0,-0.0,-0.0,-0.0,-0.0,-0.0,-0.0,-0.0,-0.0,-0.0,-0.0,0.0,0.0,-0.0,0.0,0.0,-0.0,-0.0,-0.0,-0.0,-0.0,0.0,-0.0,0.0,0.0,0.0,0.0,0.0,0.0,0.0,0.0,-0.0,-0.0,-0.0,0.0,0.0,0.0,0.0,-0.0,0.0,0.0,-0.0,-0.0,-0.0,-0.0,-0.0,-0.0,0.0,0.0,0.0,0.0,0.0,0.0,-0.0,-0.0,-0.0,0.0,0.0,0.0,-0.0,-0.0,-0.0,0.0,0.0,-0.0,0.0,0.0,0.0,-0.0,-0.0,-0.0,-0.0,-0.0,0.0,-0.0,0.0,-0.0,-0.0,-0.0,0.0,0.0,0.0,0.0,0.0,0.0,0.0,0.0,0.0,0.0,-0.0,-0.0,0.0,-0.0,-0.0,-0.0,-0.0,-0.0,-0.0,-0.0,-0.0,-0.0,-0.0,0.0,-0.0,0.0,0.0,-0.0,0.0,0.0,0.0,-0.0,-0.0,0.0,0.0,-0.0,0.0,0.0,0.0,0.0,0.0,0.0,0.0,-0.0,-0.0,-0.0,-0.0,-0.0,-0.0,0.0,-0.0,0.0,0.0,-0.0,-0.0,-0.0,0.0,0.0,0.0,-0.0,-0.0,-0.0,0.0,-0.0,-0.0,-0.0,-0.0,-0.0,-0.0,-0.0,0.0,0.0,0.0,0.0,0.0,0.0,0.0,0.0,0.0,-0.0,-0.0,-0.0,0.0,-0.0,-0.0,0.0,-0.0,-0.0,-0.0,0.0,-0.0,-0.0,-0.0,-0.0,0.0,0.0,0.0,0.0,0.0,0.0,-0.0,0.0,0.0,0.0,0.0,0.0,0.0,0.0,0.0,-0.0,0.0,0.0,0.0,-0.0,-0.0,0.0,0.0,-0.0,0.0,-0.0,0.0,0.0,-0.0,-0.0,0.0,-0.0,-0.0,0.0,0.0,0.0,-0.0,-0.0,0.0,0.0,-0.0,-0.0,-0.0,-0.0,-0.0,0.0,-0.0,-0.0,-0.0,0.0,-0.0,0.0,0.0,0.0,-0.0,-0.0,0.0,0.0,0.0,-0.0,-0.0,-0.0,0.0,-0.0,-0.0,0.0,-0.0,0.0,0.0,-0.0,-0.0,-0.0,0.0,0.0,0.0,-0.0,-0.0,-0.0,0.0,0.0,0.0,-0.0,-0.0,0.0,-0.0,0.0,-0.0,-0.0,-0.0,-0.0,0.0,0.0,0.0,0.0,0.0,0.0,0.0,0.0,0.0,-0.0,-0.0,-0.0,0.0,-0.0,-0.0,0.0,-0.0,-0.0,-0.0,0.0,-0.0,-0.0,-0.0,0.0,0.0,0.0,0.0,-0.0,0.0,-0.0,0.0,-0.0,0.0,0.0,-0.0,-0.0,-0.0,0.0,-0.0,0.0,-0.0,0.0,0.0,-0.0,-0.0,0.0,-0.0,0.0,0.0,0.0,0.0,-0.0,0.0,-0.0,0.0,-0.0,-0.0,0.0,0.0,0.0,0.0,0.0,0.0,0.0,0.0,-0.0,-0.0,0.0,-0.0,0.0,-0.0,-0.0,-0.0,0.0,-0.0,-0.0,-0.0,0.0,-0.0,-0.0,-0.0,0.0,-0.0,-0.0,0.0,0.0,0.0,-0.0,-0.0,-0.0,0.0,0.0,0.0,0.0,0.0,-0.0,0.0,0.0,0.0,0.0,0.0,0.0,0.0,0.0,-0.0,-0.0,-0.0,-0.0,-0.0,-0.0,0.0,-0.0,0.0,0.0,0.0,-0.0,-0.0,-0.0,-0.0,-0.0,-0.0,-0.0,-0.0,0.0,0.0,0.0,-0.0,-0.0,0.0,0.0,0.0,0.0,-0.0,0.0,-0.0,-0.0,0.0,0.0,-0.0,0.0,0.0,-0.0,0.0,-0.0,-0.0,0.0,-0.0,0.0,-0.0,0.0,-0.0,-0.0,0.0,-0.0,-0.0,-0.0,-0.0,-0.0,0.0,0.0,0.0,0.0,0.0,-0.0,0.0,-0.0,0.0,0.0,-0.0,-0.0,-0.0,0.0,-0.0,-0.0,0.0,0.0,0.0,-0.0,-0.0,0.0,0.0,0.0,-0.0,-0.0,0.0,-0.0,0.0,0.0,-0.0,0.0,0.0,0.0,0.0,0.0,0.0,0.0,-0.0,0.0,0.0,0.0,0.0,0.0,0.0,0.0,0.0,0.0,0.0,-0.0,-0.0,0.0,-0.0,-0.0,0.0,0.0,-0.0,-0.0,-0.0,0.0,-0.0,-0.0,-0.0,-0.0,0.0,0.0,0.0,0.0,0.0,0.0,-0.0,0.0,0.0,0.0,0.0,0.0,-0.0,-0.0,0.0,-0.0,-0.0,-0.0,0.0,-0.0,0.0,0.0,0.0,-0.0,-0.0,0.0,-0.0,0.0,0.0,0.0,-0.0,0.0,0.0,-0.0,-0.0,-0.0,0.0,0.0,-0.0,-0.0,0.0,0.0,-0.0,-0.0,-0.0,-3.84728e-40,3.3956105e-38,4.724091e-38,9.1581e-40,6.53629e-40,-5.616089e-38,2.95946e-40,-1.112662e-39,-2.197806e-39,-0.026294779,-0.22850487,-0.07103533,-0.13147782,-0.1256024,-0.069035605,0.0011849529,0.012713683,-0.047388148,2.588428e-39,-2.295829e-39,1.7064e-40,-1.176362e-39,-1.091204e-39,-2.013327e-39,-1.559024e-39,-1.822665e-39,-2.176264e-39,-2.146031e-39,1.080463e-39,1.18446e-39,-9.54925e-40,-6.79473e-40,-1.695409e-39,4.96643e-40,-2.188168e-39,-1.903962e-39,-0.17792816,0.043868065,0.20468414,-0.120140925,0.23218788,0.3675595,0.0074690674,-0.005545257,0.33996132,0.01674016,0.042857032,0.0042716963,0.13538797,0.13880676,-0.03730482,0.28728154,0.22610115,0.05202875,0.020221854,0.012166298,0.08634655,0.057143982,-0.039000258,-0.09492623,-0.14483702,-0.078343816,-0.18406692,-6.87847e-40,9.5325e-41,-1.114746e-39,5.33407e-40,-4.62095e-40,2.398205e-39,-2.5902e-40,1.567017e-39,2.256774e-39,-9.91214e-40,5.5996273e-38,2.53489e-39,1.626902e-39,2.47876e-40,2.557108e-39,6.50067e-40,-2.224844e-39,-1.939136e-39,-0.008919412,0.026836611,0.11852031,-0.015141479,-0.046797786,-0.043119974,-0.14690252,-0.13148643,-0.12920924,-0.23928955,-0.1604132,-0.11258652,-0.24782668,-0.30134743,-0.15276504,0.015857697,0.003047441,-0.1861271,0.07124346,-0.050535243,-0.1773883,-0.07519423,-0.019568373,-0.050041027,-0.0077061728,-0.13574106,-0.08141736,-0.1278567,-0.059298854,0.05050511,-0.072281644,-0.096285105,-0.15292926,-0.0808077,-0.043663852,-0.010560545,-3.14292e-40,-1.10997e-39,1.047143e-39,-1.528035e-39,3.58878e-40,4.0528982e-38,1.305211e-39,-3.67255e-40,-8.54576e-40,-0.17435145,-0.17439367,-0.19096862,-0.106932946,-0.0056626266,0.062148374,-0.10561727,0.09644928,-0.032767564,-0.03954877,-0.116413966,-0.074363664,-0.06345215,-0.061028484,-0.09138871,-0.093334004,-0.090943575,-0.14158669,-0.1533694,-0.042352177,-0.017808886,-0.123678155,-0.0019448308,-0.013092025,0.0073870015,-0.0020871127,0.029730847,-5.10941e-40,2.23307e-40,-1.158472e-39,-7.6191e-40,4.0405e-40,1.347651e-39,7.3154e-40,8.38372e-40,2.6168e-40,-1.317634e-39,9.81757e-40,-7.03776e-40,-2.46109e-40,-1.552559e-39,-2.497103e-39,-1.782062e-39,3.0974343e-38,2.126944e-39,-9.86423e-40,2.54862e-39,1.23439e-39,2.044636e-39,2.012524e-39,1.832373e-39,1.564309e-39,-8.08752e-40,-2.4275e-41,-1.253827e-39,-1.856397e-39,-9.38916e-40,3.20295e-40,-2.12994e-39,-1.395968e-39,7.70242e-40,-7.221e-42,-5.95534e-40,-1.15937e-39,1.880038e-39,-1.144213e-39,5.69422e-40,-2.190253e-39,1.346749e-39,1.706584e-39,-1.163282e-39,1.031064e-39,0.02688074,0.0132597,-0.19667618,-0.03915574,0.06758171,-0.1415384,-0.1528613,0.0055356734,-0.018018331,-2.410495e-39,-1.069289e-39,-3.00569e-40,-2.585365e-39,-1.350997e-39,4.75996e-40,6.98546e-40,-2.252161e-39,1.569705e-39,-0.032282643,-0.08177588,-0.013507269,0.0068882843,-0.014397159,0.041499376,-0.004616417,0.10045587,-0.0017748531,-0.044965167,-0.02798849,-0.06907944,-0.02506409,0.09542051,0.161098,0.1683388,0.07169085,0.15659054,-7.83495e-40,-2.348021e-39,1.21095e-40,1.00331e-39,1.399056e-39,-3.84462e-40,-2.720781e-39,2.121382e-39,-7.52206e-40,0.03847151,0.079285905,-0.026607003,-0.07759662,0.02544832,0.108276375,-0.03919949,-0.014495718,-0.06075741,9.1594e-40,2.356439e-39,2.300133e-39,-5.0532403e-38,1.19106e-40,2.23902e-39,1.835885e-39,1.3777e-40,-1.803302e-39,-0.013137137,-0.046709616,0.01945322,-0.045907013,-0.011779691,0.11136715,-0.21568497,-0.055083875,0.046732686,-2.86867e-40,-2.386575e-39,-8.59833e-40,-1.884931e-39,1.588677e-39,-1.685001e-39,1.538118e-39,1.505493e-39,1.443908e-39,-0.09196482,-0.07623467,-0.105721176,-0.045847178,-0.010560016,-0.053133804,0.086122274,-0.12844557,-0.0482827,-0.12012492,-0.04669735,-0.0355763,-0.2210935,-0.19429961,-0.10254439,0.09565929,0.2156446,0.10777832,0.03432629,-0.10265356,-0.0734687,-0.15285373,-0.2737827,-0.17225958,-0.0535069,0.0016843992,-0.09459768,-0.1481124,-0.09129536,-0.02240192,-0.17324275,-0.077642284,-0.016960157,-0.20651852,-0.071091436,-0.07573027,-0.21223614,-0.20632347,-0.09132395,-0.03643156,-0.016843878,-0.11165729,0.017845998,-0.10165077,-0.12267352,2.239796e-39,-1.948403e-39,2.031513e-39,-4.822e-42,-1.76834e-39,-2.077803e-39,1.661852e-39,4.920549e-38,-2.293296e-39,1.076396e-39,1.018572e-39,4.02545e-40,1.786878e-39,4.038037e-38,3.7745028e-38,1.211672e-39,1.751037e-39,2.320221e-39,1.481304e-39,1.42793e-39,9.19423e-40,1.455331e-39,-5.46743e-40,