-0.027026432,0.06743185,0.017939124,-0.0030343651,0.05760294,-0.06359636,0.06267393,0.066889934,-0.073769644,0.007490557,-0.08569814,-0.029208302,0.04487773,-0.042054478,0.022464799,0.079132035,0.051313,0.027342023,-0.05579334,0.075421065,-0.040194564,-0.0690191,0.050159067,-0.057318177,-0.09633328,0.028118383,-0.008198834,-0.07057767,0.1894455,-0.040220592,-0.12108734,0.14012083,-0.20837301,-0.05099062,0.11103351,-0.08020817,0.10642127,-0.0053197904,-0.02788149,0.0975807,0.06282033,0.032146685,-0.025794057,-0.07752387,-0.048408005,0.12265636,-0.280249,0.13204424,0.23967128,-0.47490406,0.32640302,0.06304861,-0.23393497,0.13904111,0.08684751,0.06432162,0.12465811,-0.0107895965,-0.035991453,0.035192672,-0.02134957,-0.072279334,-0.018631192,-0.022325534,-0.061470732,-0.051286902,-0.0326771,-0.026391877,-0.048672535,-0.005488039,0.04422721,-0.039767776,0.0117588835,0.032283034,0.007850421,0.0017048733,-0.0629504,0.045689512,0.11816286,-0.1370705,0.013237005,0.028312266,-0.015278132,0.08398181,-0.07807817,0.029214082,0.07739017,-0.025011446,0.0044246716,0.016455796,-0.0077052345,-0.053248152,-0.026913896,-0.031526662,-0.07641421,-0.03747069,-0.0010220091,-0.038421154,-0.02475577,-0.041003693,-0.031829633,-0.00863121,0.02576113,-0.004310562,-0.0014753271,0.06787049,0.0058838306,0.034430742,-0.022961812,0.013532276,-0.009043108,0.0067440607,-0.044031505,-0.06936341,0.022412987,-0.058282517,0.03764433,0.07826096,-0.2483065,-0.0061805975,0.046173546,-0.14884178,-0.0021698736,0.118006095,-0.13198066,0.017278744,-0.09656709,-0.10355366,0.033276066,-0.02470293,-0.043167435,0.04857776,0.025421923,-0.06791023,-0.038714156,0.044375274,-0.059110027,0.039354656,-0.024534505,-0.06482047,-0.036944725,-0.0104180155,-0.043375418,-0.03082765,-0.054125562,-0.038055703,0.37648755,-0.15203781,0.04697701,-0.05938053,-0.15906996,0.035526004,-0.081296414,0.19140866,0.124658346,0.16227864,0.1611355,0.057417322,0.05276849,0.033210073,-0.021500783,-0.02595495,-0.08847266,-0.052054074,0.051931854,-0.06586665,0.000731909,0.072259024,0.0168218,0.12370315,0.063616656,0.06602534,-0.23302107,-0.15284573,-0.029570766,-0.19714402,-0.013041992,-0.13588,-0.010470987,0.14441131,0.29202935,0.28880018,-0.1802563,0.110984996,0.034375697,-0.21181734,-0.06942597,-0.15947221,-0.22003478,-0.040058374,0.03090616,0.13519695,0.00281768,0.08286902,-0.3044916,0.1903156,-0.05703817,-0.07697799,0.0506377,0.021163162,0.004265701,0.0045810915,-0.009083003,0.0006293887,0.020772833,0.0012043372,0.009870084,0.07421053,-0.100950256,-0.13656585,0.07153845,-0.16130318,-0.120060384,0.09400652,0.08764785,-0.058487333,0.114415854,-0.02504291,-0.01765322,0.1531517,-0.051817697,0.03474649,0.17996708,0.11340232,-0.17817524,-0.20663017,0.23549731,-0.020265697,0.26046744,0.18875886,-0.15539585,0.36054832,-0.15940152,-0.28499553,0.15013112,0.16917196,0.13794264,0.08326334,0.09321825,0.038996864,0.04995521,0.050196372,-0.054643385,-0.07982705,0.013592303,0.07125703,-0.102730006,0.0119563,0.11250001,-0.11072723,-0.03205676,0.058313765,0.10977478,0.05935494,0.06382837,-0.047904436,-0.13472015,-0.021773791,0.014349695,-0.16615014,-0.059245847,-0.27531287,-0.20459585,0.047551725,0.07082173,-0.13480432,-0.13187473,0.14371997,0.020607982,-0.13188326,0.23798275,0.18098526,-0.07264723,0.13638796,0.0876802,-0.17314881,0.14194396,-0.14586596,0.08953821,-0.061098814,-0.07896636,0.03157528,-0.16282365,-0.15690957,-0.15252665,-0.026287362,-0.011655596,0.12734815,0.044711545,-0.16705835,-0.1960233,0.17297198,0.07592927,-0.25163132,0.007154779,0.07923351,0.08212133,0.1974515,0.08646641,-0.04553919,0.07013492,0.10843692,-0.04158934,-0.08004494,-0.0064099203,0.011455395,-0.1384766,-0.15993302,-0.032192566,0.105020225,-0.062245917,-0.20657654,0.10938157,0.10403293,-0.09770768,-0.1407247,0.05375027,0.20056997,-0.09460435,-0.19419017,0.0966407,-0.002310468,-0.096691266,-0.13309167,-0.10934585,-0.120777905,-0.013150903,-0.013388588,0.06756787,0.015863976,-0.054673776,0.06034601,0.05125924,-0.08956082,-0.114132285,-0.0017181614,0.19100292,0.09879607,-0.03930102,-0.10828468,0.120316006,-0.055963024,-0.061572712,0.035590317,0.08043238,-0.07394259,-0.035312373,0.02762476,-0.008978386,-0.014091804,0.025591927,0.12320332,0.04094301,0.05368567,-0.026620016,-0.05546498,-0.006046007,-0.06407427,-0.055219233,-0.06441476,0.10642469,0.23868836,0.0678706,-0.3268371,-0.042046085,0.21523169,-0.01481323,-0.050772127,-0.1240766,0.031201573,-0.07361069,-0.05901766,0.11576531,-0.033874303,-0.08333928,-0.002490596,-0.0208876,0.038264375,-0.05726594,-0.0063840616,0.021316638,-0.14601173,-0.11893787,-0.05248883,-0.036079936,-0.06284736,-0.042180132,-0.16024923,-0.13410707,-0.024259523,0.076598525,0.055486742,0.09136558,0.12125978,0.06784595,0.074943304,0.12065146,-0.013322827,-0.038729012,0.019161316,0.007762286,-0.10425595,0.14617276,0.07928614,0.042797763,0.12674955,0.093202405,-0.015385146,-0.0054704007,0.14736092,0.09900019,-0.108012885,0.09646183,0.04543876,-0.17683636,-0.06595307,0.09422903,-0.2542613,-0.19561,-0.111281775,0.15180579,0.06921661,-0.17069024,-0.17795,-0.14831217,-0.042551085,-0.09250198,-0.20407516,-0.19819032,0.037337795,-0.14786524,-0.16333143,-0.16205625,0.06155131,-0.007357689,-0.10898865,-0.0864459,0.055203833,0.089476116,-0.12403107,-0.08328414,-0.23386967,-0.3066742,-0.07313935,-0.20330621,-0.3673759,-0.20049496,0.3671549,0.16344692,0.10610559,-0.010521229,0.06944726,0.27970755,-0.2249185,-0.2162359,0.10217172,0.033787128,0.02800438,0.14169006,-0.49209288,-0.4290451,-0.2519017,0.092411235,-0.026918814,-0.20978995,0.52802896,0.47490638,0.23447163,0.019840743,0.22472651,-0.01655623,-0.17692094,-0.027714835,0.19387646,-0.03743732,-0.09336712,0.12166025,-0.039258547,-0.09132209,-0.042466328,-0.11564819,-0.10117287,-0.06630668,0.21042898,0.28890657,0.015496728,-0.082998745,-0.067427725,-0.34963435,0.1358798,0.2580165,0.0116555905,0.021274954,0.21658666,0.11608372,0.093175694,0.020814877,0.17058575,-0.0003614114,-0.22047573,-0.063898295,-0.058267962,-0.022303613,0.061534982,-0.0457195,0.0402595,0.02568504,0.14298472,0.052274093,-0.11550786,-0.14274931,0.15277968,0.06695935,0.17233698,-0.051189985,-0.034055613,0.06194019,-0.074785054,-0.024973197,-0.0030903642,0.011575277,-0.2508968,0.08062637,-0.0024170883,-0.09696437,0.072294734,-0.005580847,-0.15100363,-0.07225927,-0.07524614,-0.14830159,-0.084573485,-0.040808655,0.05908588,-0.064957246,-0.1451103,-0.14998636,0.033572216,-0.21049882,-0.18046044,0.14450148,0.12773944,0.023105517,-0.02692424,0.1612899,0.090463534,-0.1186336,-0.088728935,0.0040749623,0.0038504167,0.203973,-0.06495014,-0.15396838,0.017309219,0.15367725,0.0021032586,-0.11145215,-0.06174137,0.2869308,0.02912574,0.11120522,-0.03525424,-0.035280194,-0.1351768,-0.16667189,-0.15656574,-0.068444565,0.010230631,-0.11025333,-0.10386081,-0.009553923,0.060142033,0.025408925,0.2197502,0.19121045,0.10426632,0.2989777,-0.43685558,-0.009043975,-0.09780757,-0.1319372,0.26371917,-0.17997777,0.12152947,-0.12109253,-0.0017265761,-0.068890855,0.10176139,-0.11218219,-0.083456375,0.030297793,-0.071678214,0.008224499,0.013127651,-0.08419677,-0.10167403,0.016584113,-0.12240415,-0.14782566,0.045635026,-0.0415658,0.062630005,-0.03866527,-0.13275652,0.0938089,-0.10482291,0.12959749,-0.08176261,0.041767873,0.12906,-0.041084427,-0.025506202,-0.051576715,-0.03471545,0.09397103,0.08641327,0.11623216,0.097391844,0.020708947,-0.036002714,-0.074834205,0.33883193,-0.50396675,0.25760153,-0.651191,0.41382903,-0.03433314,0.24353306,0.10388244,-0.2380448,-0.017520934,-0.05840842,-0.00041360472,-0.01836536,-0.04804564,0.023198523,0.003494625,0.008960584,0.08785268,-0.0726056,0.009636622,0.09370826,0.14265287,0.003603905,-0.020902742,-0.07360122,-0.0009080436,0.08976909,0.04833283,0.028288972,0.018406732,0.04370186,-0.14758615,0.029055834,-0.113353506,-0.053556502,0.052708454,0.0686393,0.052430276,-0.045299016,0.104031585,-0.06628577,-0.08852046,-0.13280413,-0.04697392,0.12054715,0.071300544,-0.023803815,-0.052545022,-0.015043682,-0.08842096,-0.06430926,-0.022396035,-0.07538214,0.003512942,-0.07941847,-0.08473912,-0.047057156,-0.04534566,-0.022972714,0.050956316,0.009825483,0.04228293,0.062762074,-0.124344505,0.08434783,-0.019717818,-0.055513944,8.138413e-05,-0.12499217,0.07050961,-0.045953613,-0.09535073,0.021141475,-0.013580626,-0.11395073,-0.14811718,-0.04216497,0.041398425,-0.06733367,-0.020538481,0.03904837,0.06565494,-0.17702462,0.0033332985,-0.064962305,-0.057311345,-0.029408816,-0.0726692,0.040349815,0.018485457,-0.06433641,0.017544152,-0.07675165,-0.05989258,-0.069324546,-0.09591591,-0.046025675,-0.06687473,-0.0071900417,-0.032676615,-0.03013497,-0.060133085,0.017803444,0.05059199,0.036184933,0.009227411,0.026089882,-0.051487297,0.033554513,0.042550977,0.02229535,-0.035478897,-0.02603665,-0.021671362,-0.049717974,-0.074956544,-0.07069639,-0.052893985,-0.03267035,-0.07112247,-0.010669981,-0.017255325,-0.0745566,0.025900867,-0.026061893,-0.12038524,0.032070134,0.027134916,-0.03075881,-0.044465482,-0.037529107,-0.08845025,-0.018625913,0.016694177,-0.1190701,0.008804346,0.021279588,-0.023675479,0.01889483,-0.041702114,-0.13968739,0.049571007,-0.062824644,-0.21892636,-0.033123113,-0.08129728,0.051472098,-0.04185987,-0.03159349,-0.026535977,0.075762615,0.054004103,-0.007981926,0.018061507,0.009888056,-0.06088947,0.075110726,0.09325396,0.035019252,0.01053838,0.04835162,0.013880088,0.0500544,-0.05873797,-0.11023204,0.04863692,-0.082187995,-0.12305929,-0.0070264777,-0.07114945,-0.14044549,-0.10993005,0.00526152,0.050723955,0.025884546,-0.064924695,-0.13138345,0.10093185,0.0034464027,-0.034494266,0.113453776,-0.060909163,-0.26058865,0.10142966,-0.055030957,-0.24289307,-0.01800112,-0.17169386,-0.3338225,-0.033091746,-0.09689927,-0.13339414,0.06401375,0.040162526,0.0027771266,0.054677546,0.06822834,0.046593025,0.07699583,-0.00031802923,-0.07109258,-0.01310013,-0.09203393,-0.14612275,-0.08804932,-0.12154688,-0.15236574,0.083339036,0.045838427,-0.043210294,0.059354104,-0.029943774,-0.08484407,-0.021923084,-0.0655029,-0.015661296,-0.030290656,0.08159677,0.06664417,0.03351856,0.042610522,0.0060377875,0.049202863,-0.07662702,-0.0804048,0.029913153,-0.011827136,0.032376353,0.06272844,0.058473904,0.02227008,0.05023376,-0.012640626,-0.109895885,0.10557206,-0.001980625,0.001090901,0.009909424,-0.11857992,-0.07902133,0.0006486335,-0.11707435,-0.03732604,0.023420995,-0.09158372,-0.26033795,-0.22621812,-0.102922395,0.18772423,-0.049745202,0.16635258,0.153589,-0.089630336,-0.050309386,0.1286342,-0.1120081,-0.0034133047,0.14548644,-0.04249329,0.08473059,0.042889982,-0.06173946,-0.14750077,-0.18833739,-0.066119395,-0.053796973,0.040192656,-0.045493454,0.058291525,0.04323408,0.008199846,0.07730039,0.024016136,0.080068134,0.017143117,-0.12043111,-0.06285306,-0.11189426,-0.08194828,0.02697709,-0.08985522,-0.08281441,0.00499353,-0.09294996,-0.03633926,-0.040530067,-0.06737055,0.025603965,0.0707776,-0.07498874,-0.115514785,-0.02823537,-0.13746303,0.11223687,-0.037756126,0.15150243,0.032358643,0.009688235,-0.018394811,-0.0739416,0.056262515,0.03346107,-0.017816225,0.049082983,0.047876664,0.007213716,0.020151403,0.072509006,-0.006431978,0.005869157,-0.009048996,-0.072761215,0.06050185,0.03419529,0.018916804,0.09870895,0.09410235,0.04092315,0.026230723,-0.092815705,-0.2179671,-0.118810974,-0.08250483,0.12537044,0.008994512,0.033692747,0.06800362,0.005935622,0.086961806,0.08549546,-0.074706,0.02472101,-0.012651225,0.13533187,0.051764138,-0.060857944,0.07044162,-0.05003932,-0.16610081,-0.048923023,-0.15114594,-0.22288094,-0.04989724,-0.04931532,-0.058325086,-0.029946368,0.0006858088,0.03318775,-0.013693567,-0.00057352625,0.07210525,0.017238822,0.16016206,0.17775147,0.038062625,0.1636755,0.053548135,0.121200174,0.080493644,-0.13724059,-0.003649974,-0.20334773,-0.10841696,-0.044187423,-0.17473917,-0.056934357,0.044021845,0.012678986,0.16735692,-0.047092617,-0.01966021,0.054396294,0.041008443,-0.016567642,-0.040911563,-0.026540224,-0.039488528,0.04199563,-0.01651065,-0.03977096,-0.14261827,0.013313223,-0.010887864,-0.001194085,-0.112659626,-0.17058504,-0.11226991,-0.03895009,-0.2520003,0.05609547,-0.07040305,0.0012997935,0.07279728,0.057188954,0.12861395,-0.14068262,-0.07608375,0.048772983,0.0668162,0.02981547,0.09055755,0.05827246,-0.014194712,0.009392147,-0.04276545,0.15265419,0.17305796,0.11260626,0.13798124,0.17570631,0.075240485,-0.00787275,0.081582226,-0.03624131,-0.0965398,-0.19008647,-0.1822202,8.6059445e-05,-0.1509148,-0.032816928,0.1683992,0.1623093,0.18283205,-0.069063246,-0.12653966,-0.010493929,-0.053752135,-0.035812933,0.0057138195,0.0242942,0.028412785,-0.08303088,-0.10311549,-0.01863512,0.15940893,-0.09163727,0.026617289,-0.037802394,0.2367292,-0.030936582,-0.078380175,0.00062961853,-0.017738918,-0.04127985,-0.051209223,-0.055808745,-0.05925048,0.015826648,0.014307376,0.037828658,0.08112012,0.009618363,0.0706194,0.0746209,0.091032386,0.0008975156,-0.07425917,-0.025255783,-0.08641351,0.10457094,0.050140243,0.0037342769,0.05138354,0.02121678,-0.024238434,0.0069496795,-0.109456025,-0.05936594,0.04985314,0.018816626,-0.104658335,0.05420836,-0.06503698,-0.053747393,-0.10042027,-0.09605639,0.0638786,-0.03621742,-0.06317074,-0.06273613,-0.10109214,-0.09869148,-0.039771795,-0.09380863,-0.06513937,0.012299695,-0.01360708,-0.021158343,0.04731751,0.00051660964,0.03936783,0.12369779,-0.0096655125,-0.03136083,0.03136279,0.08727952,0.076295085,0.12828426,-0.00791829,0.0030926599,0.01666091,-0.082029164,-0.08680516,-0.13233179,0.04480185,0.09145957,0.057112582,0.0487799,-0.0049422476,-0.003607465,0.04128231,-0.04138441,0.016433867,-0.032779995,-0.020829333,0.08902432,-0.0026860707,-0.0141968345,0.0031190736,0.07275883,-0.06281135,-0.096536264,-0.042126928,-0.073647775,-0.032052826,-0.05904146,0.05293206,0.07838578,0.009037694,0.099293485,0.03972341,0.01850465,0.14167579,0.10677127,-0.25128284,-0.007148697,0.32264134,-0.06021545,-0.12266991,-0.018394955,-0.08929658,0.00055268983,-0.07874472,-0.0580602,-0.07898271,-0.16831571,0.050213132,0.08790579,0.07837034,-0.22789589,-0.023196233,0.00936709,-0.16797052,-0.08034986,-0.05923467,0.15604323,0.30009288,0.136272,-0.5294133,-0.35039103,0.22233456,-0.4342266,-0.4577778,-0.017573582,0.32149193,0.15461484,0.25512648,-0.106300995,-0.14325613,0.0346205,-0.022422781,-0.21396902,-0.12617554,0.040244196,-0.13678296,-0.15966363,-0.06671235,0.12113888,-0.021072207,0.041109286,-0.045312554,0.058592893,-0.054838005,-0.14161478,0.08070093,-0.08504264,-0.27238676,-0.12781034,-0.107901745,-0.3232869,-0.18989879,0.09239239,-0.13522662,-0.069940776,0.16568933,-0.001167392,0.0034438914,0.0904427,0.016049689,0.19479191,-0.21426213,-0.29319075,-0.05045054,0.29349086,-0.061492193,-0.30189598,0.40952277,0.21934897,-0.41149974,-0.050213844,0.056240696,-0.093466915,-0.09461326,-0.06488227,0.108789526,-0.10364301,-0.104653575,-0.006763136,-0.14853932,-0.12752736,-0.1105889,0.009644358,0.24185668,0.17295802,0.13090368,0.28405026,0.18164442,-0.17094116,-0.14995721,-0.18598062,-0.24163862,-0.084172435,-0.06623468,-0.21460289,0.025832769,0.029735705,-0.13457179,-0.04231943,-0.077022105,-0.021628356,-0.16296473,-0.066933565,0.23141979,0.07817538,-0.07467523,0.084565125,0.12325452,-0.104933426,-0.0025512981,-0.01609605,0.08769786,-0.039703414,-0.20758553,-0.001038363,-0.18255618,-0.24945454,0.10172648,-0.020246526,0.013275607,0.08238353,-0.23583674,-0.16865744,0.16109116,0.22580129,-0.15599616,-0.14202514,0.096037135,0.06082715,-0.030075,-0.046765707,-0.0065699597,0.041927163,-0.006900724,0.020649038,-0.107113,0.07663733,-0.0116967335,-0.09529491,-0.119115144,0.14139812,0.28551182,0.026811678,-0.2209714,-0.29488394,-0.009613918,0.052072287,0.15054154,-0.108108945,-0.026919033,0.045724705,-0.024609573,-0.092774004,-0.033746745,0.024088578,0.023576954,0.056159925,-0.07892262,-0.050669305,-0.10415735,0.054463994,-0.0011725002,0.0019035608,0.07108354,0.021501437,0.059668627,-0.05393201,-0.15669163,-0.062842116,-0.03195705,-3.7735233e-05,0.07907851,0.0072901263,-0.06670033,-0.07738587,-0.019087374,-0.098645166,-0.025452098,0.11114112,0.047360167,0.09151719,0.06167931,-0.06658964,-0.09459474,-0.09543924,-0.036214087,0.07396623,0.037557855,0.041151088,0.04585865,0.0688544,0.0327795,-0.017240286,0.02641711,-0.023993075,-0.088158585,0.076472834,0.014461178,-0.06693937,0.05740382,0.052038528,-0.036314562,-0.03944375,0.037720945,0.07080986,0.0026287665,0.12259905,-0.07699754,0.22680572,0.16030528,0.03399462,-0.20552763,-0.3569299,-0.24484615,-0.03150202,0.21426924,0.1774864,-0.015581646,0.009302091,0.009031268,-0.06438419,0.006967006,-0.026720233,0.04797794,0.03564026,-0.010085629,0.07795015,0.028242333,0.004591325,0.025947126,-0.025472492,-0.041839488,-0.035235137,-0.03398999,-0.044515252,-0.025568357,-0.067997254,-0.076866254,0.05916559,0.08606214,0.059580836,-0.0119732795,-0.019864367,-0.044205483,0.10984749,0.07090359,0.08002381,-0.12681718,-0.06342542,-0.088095516,-0.09413839,-0.14471783,-0.22844921,0.05869578,0.076623134,0.0595008,0.0016478945,-0.13504136,-0.1427563,-0.005601456,-0.013660602,0.038986746,0.039261274,0.0123217665,-0.045358546,-0.059379566,-0.18320629,-0.13042018,0.07198431,0.10184236,0.23166145,-0.1257226,-0.13791585,-0.25267106,-0.044168003,0.06667019,0.044118125,-0.042484846,0.050179306,0.07239838,-0.04269682,0.29217097,0.17740455,0.069485895,-0.21069053,-0.2545735,-0.15644711,0.07919904,0.15754278,-0.002545295,0.03752243,-0.027351832,-0.0082321,0.07704431,0.03440004,-0.17110136,-0.04975799,-0.03370417,-0.054426696,-0.20458807,-0.21072125,-0.008438643,-0.090741314,-0.0031544706,-0.17549875,-0.11823157,-0.19233434,0.030346256,-0.012427637,-0.07791533,-0.013168475,0.0045810924,-0.020019403,0.09001541,0.010935794,-0.07547499,0.016451899,-0.07350555,-0.09559264,-0.022793312,-0.042703018,-0.094722144,-0.015554373,-0.03046265,0.0045870366,0.09677101,0.19175455,0.022476474,-0.0702813,-0.29909265,0.015711667,-0.004237427,0.10648037,-0.01463351,-0.061879102,-0.11245327,-0.20918292,0.11445563,0.050362453,-0.058889106,0.18719117,0.13174915,0.049333725,-0.078663796,-0.049304206,-0.04403275,0.022815922,0.17758378,0.1135186,0.0775405,0.03150292,0.051063657,-0.087414525,-0.24996193,-0.054159444,0.058874104,0.1034996,-0.024539728,-0.011530583,0.06396895,-0.050226178,-0.105689175,-0.07374098,-0.031241471,0.24931684,0.27020037,0.14415355,-0.11740842,-0.15248644,-0.17817666,-0.19088104,-0.17552766,-0.166465,0.0053456407,0.06581738,0.04553285,0.107572995,0.13395658,0.08323091,-0.06714592,-0.0383251,-0.056775574,-0.04919328,-0.0046478603,0.028667947,0.07330303,0.07350495,0.025464352,-0.1984789,-0.11065261,-0.0023705212,0.05523596,0.04129336,-0.056779325,0.19591053,0.28676605,0.045158796,0.021776801,-0.09646649,-0.05132073,0.08445784,-0.024819847,0.093593225,-0.04224069,-3.1817508e-05,0.09351002,0.19224466,0.06049029,0.026361207,0.052132886,0.001439238,0.107990265,-0.19285668,-0.24519894,-0.09232338,0.09677011,0.12959348,-0.056736592,0.26552805,0.17110015,-0.038882393,0.08124616,-0.0053349934,-0.104379654,-0.026869914,0.023503922,-0.16510084,0.030602647,-0.03406357,-0.09386091,0.08427295,-0.019505851,-0.022848817,-0.025894225,-0.012313549,-0.034839507,-0.116127826,-0.071266815,-0.039966747,-0.04346036,-0.03602977,-0.021702943,0.008816654,0.12746869,0.16399962,-0.22161669,-0.1632798,-0.05536542,-0.14687787,-0.17469876,-0.042759743,-0.014489441,0.059415534,0.011460861,-0.08515961,0.013521031,0.0005140764,-0.053328305,-0.068570726,-0.027233496,-0.129494,-0.07194882,-0.016188476,-0.0787945,-0.15330398,-0.11869056,0.040311355,-0.11632189,-0.16889621,0.07013787,-0.025167933,0.039411493,-0.09999606,0.12574627,0.12009554,-0.0124125965,-0.12769051,-0.03123231,-0.09501421,-0.12812665,-0.082255565,-0.17588519,-0.2459802,-0.203422,-0.046618424,-0.1349623,-0.109097734,0.16715594,0.14494684,-0.016766937,0.014188787,0.034149315,-0.06013705,-0.12938103,-0.10881653,-0.08416295,0.054744247,0.08403553,-0.026034297,-0.13900627,0.00021924192,0.0026666834,-0.10541492,0.023095852,0.03340904,-0.14243062,-0.08853457,-0.07102573,0.002902633,-0.09266534,0.009315659,0.0004436551,-0.12782888,0.06626286,-0.08767461,-0.024394419,0.09729364,-0.19649845,-0.1650312,-0.013935531,-0.13612473,-0.17249452,-0.042750183,0.07409385,0.031469155,-0.0046598245,-0.024524067,-0.04809751,-0.054679092,-0.011084639,-0.05966839,-0.081223466,0.17711367,0.010141731,-0.08539325,0.09184048,-0.046229094,-0.13992947,0.1390804,0.048369896,0.0074680997,-0.1591138,-0.095093004,-0.17691629,-0.0009962153,-0.007874628,0.0110229235,0.00038423785,0.028413935,0.05186801,-0.1643025,-0.11388184,-0.06730761,-0.0612072,-0.11977438,-0.029286258,0.08273134,-0.044787742,0.022561787,0.032851893,0.18838923,0.06525377,-0.0046994877,0.13915263,0.03685804,-0.015045501,0.11750557,-0.029595342,-0.11451441,0.10974127,0.030827453,0.18765862,0.13824987,-0.25235164,0.167351,-0.1505839,-0.13898966,0.072576985,0.03417301,-0.051578123,0.09329579,-0.04755732,-0.022075467,-0.09344273,-0.1277523,-0.013424859,-0.106265284,0.016882507,0.0042388337,0.031476296,-0.05760702,-0.18343718,0.03388404,-0.13782564,-0.018969905,-0.1687697,-0.24088539,-0.012164964,-0.2774217,-0.082779735,0.1340139,-0.08115564,0.20389777,0.23070866,-0.07298956,-0.021701666,0.07138221,-0.0008714819,0.04611268,0.066366814,-0.03045317,-0.026512967,0.022679742,-0.08317893,0.05763023,0.047611926,0.1670136,0.14386974,-0.1454283,0.029359696,-0.14723024,-0.062360268,0.013667383,-0.038900394,-0.008249893,-0.06700413,-0.07584018,-0.017902292,-0.017489746,-0.0016862536,0.066295825,0.047150273,0.02983401,0.03140097,0.05532974,-0.026001666,-0.031962257,0.068791404,-0.066329256,-0.1367834,0.06684543,-0.0572483,0.0051631117,-0.043410935,-0.16256715,0.046675537,0.012600069,0.03800512,0.133394,0.090261124,-0.009019672,-0.04209365,0.03852073,-0.09467527,-0.02661935,0.09353894,0.05432805,0.0022099705,-0.1582594,-0.118085645,0.021080015,-0.1463881,-0.08766986,0.04506959,2.4022558e-05,0.029360613,0.10274432,-0.023719134,0.0614741,-0.023518626,-0.062144563,-0.0058442815,-0.08466538,-0.04116971,0.008432611,-0.0437318,0.15875141,-0.037449893,-0.19027025,-0.19176075,-0.19836798,-0.090827905,-0.28340852,-0.12373666,0.05139807,-0.0280121,-0.042658165,0.051048625,0.12429277,0.0302023,0.125174,0.07471881,-0.06697884,0.045896936,0.029224228,-0.09991365,0.037088633,-0.008147478,-0.11559106,-0.1488872,-0.14448896,-0.17239226,-0.27052167,-0.005984452,0.032050334,0.09840116,-0.03423246,-0.06677485,-0.031332616,0.062402535,-0.0009727079,0.004501021,-0.06835181,0.07593609,0.006595145,0.078774996,-0.14031139,0.019280573,0.00090706325,-0.021215957,0.05645697,0.036812067,0.059410278,0.14725994,-0.06341037,-0.07063309,-0.009315043,-0.04149654,-0.00035879388,-0.020579237,-0.011840829,0.0058809016,-0.07419726,-0.108243875,0.021421563,0.069448054,0.009741004,-0.033186477,-0.036167905,0.044710282,0.0061678393,-0.053900745,-0.047575593,0.063777715,-0.15937604,0.1298895,-0.118636385,0.11707482,0.053897463,-0.021303585,-0.16027823,0.065914795,0.09144776,0.009852331,-0.06527044,0.03463914,0.09186954,-0.38829404,0.44919646,-0.11064743,0.034928475,-0.5601851,0.4448879,0.44728974,-0.064863116,-0.26765576,0.02433973,0.04148175,0.09331489,-0.0053362544,0.024899015,0.01980537,-0.038557533,0.046699986,0.017260414,0.06495988,-0.027492458,0.006066341,-0.012892755,-0.081541024,-0.0442493,-0.18411821,0.0018745522,-0.2103876,-0.023411466,-0.17384219,0.14206491,0.04456816,0.046930112,-0.067461334,-0.06411157,0.17581622,-0.10802077,-0.06565661,-0.01349773,0.02413924,0.064866304,-0.14414632,-0.08053635,0.16532168,-0.026091568,-0.10165788,0.029668434,-0.018528868,0.011302161,-0.018738545,-0.08279871,-0.043149155,0.04915792,0.00063247315,0.032959905,0.018931536,0.054241717,-0.02157009,0.06447103,0.054015342,-0.00971871,0.09646338,0.049763452,0.007655377,0.06778832,-0.02654644,0.058324244,-0.027633857,-0.048047934,-0.04215218,-0.004044018,-0.042587053,-0.06749352,-0.103671506,-0.17872128,0.10115829,0.11189577,-0.10765419,-0.02801945,0.029817168,0.07764132,-0.030246727,0.0773513,0.00068693,0.075913765,-0.06366934,0.010399215,0.033621795,-0.14600429,-0.20044155,0.11147899,0.03168416,-0.00063332374,0.07802756,-0.083374314,-0.027713109,-0.06823116,-0.14348224,0.09448315,0.038619146,-0.11312183,-0.028172754,0.113341056,-0.15028633,-0.0838855,0.19402231,0.28397167,-0.13631475,-0.16314852,-0.102635875,0.23692484,0.16548203,-0.118303,-0.032118805,0.11711327,0.032621995,-0.2230478,-0.26220295,0.0026768057,-0.07984788,-0.20563394,-0.14069542,0.069272056,0.05845956,-0.07437882,-0.107213326,0.21895482,0.03191174,-0.15831383,0.029510878,0.12850286,-0.030206174,-0.032729235,0.029953754,0.06417672,-0.08751434,-0.09676533,-0.0140917385,-0.02134359,0.08642074,0.06529017,0.061862104,0.15303023,0.012303323,-0.014892609,0.27161068,0.08923678,-0.1524506,-0.14630012,0.15298387,-0.013668087,-0.15348747,-0.117708,0.019420318,-0.10625555,-0.002872609,0.13253182,-0.12821439,-0.08169091,0.085019454,-0.0089105,-0.03440904,0.094222315,0.047888502,-0.114691086,0.1244462,0.036179032,-0.09893882,0.06833024,0.03778409,-0.1444721,0.03867024,-0.11505184,-0.01814189,0.06979818,-0.002987617,-0.08139548,-0.14997561,0.17518854,-0.010693828,-0.0116207395,0.09022819,0.10645444,0.002918789,-0.13966066,-0.091647655,-0.045321967,0.005609438,-0.09365442,-0.04600354,0.009110265,-0.13059753,-0.15781762,0.0038710472,-0.13846804,-0.12854107,0.15814744,0.027584411,0.0018973653,0.018802129,0.09584951,-0.022446522,-0.16148911,0.011987258,0.013194057,-0.0921025,0.012061284,-0.023362797,-0.039492168,-0.039372418,-0.028971717,-0.16089521,-0.20083012,0.10829272,-0.16691011,-0.23209792,-0.0628656,-0.21339904,0.04397233,0.21219198,-0.26666522,-0.08222313,-0.103278555,-0.17412211,-0.15112224,-0.13784458,-0.13743827,-0.2675472,-0.017575718,0.4367558,0.081750445,-0.1269605,0.2447456,0.27024576,0.09267406,-0.006437529,-0.066632286,-0.09327071,-0.124761105,-0.10765084,-0.08794461,-0.17651811,-0.032092158,0.17779113,0.01329275,-0.060286865,-0.0084368875,0.042808272,-0.08403636,0.0119838035,-0.022765234,0.050899062,6.6224156e-06,-0.08563214,-0.0060411124,-0.02610717,-0.10318558,0.04810112,0.058542155,-0.12572376,0.030155042,0.086367905,0.057998322,-0.23482001,0.04964191,0.0068953224,-0.12091438,0.12049152,0.0047489954,-0.023455555,0.112258315,0.1551359,-0.14801867,-0.07606114,0.2410686,-0.19506441,-0.17572933,0.24364145,-0.029144924,-0.07102825,-0.039449748,0.011725577,0.020422196,0.100484736,0.13935736,0.059837904,0.04208745,0.10274012,-0.025219884,0.04958441,-0.033073615,-0.01505612,-0.16385317,0.09230262,0.037333943,-0.12946339,0.1268615,0.057631936,0.08813958,0.021151168,0.11758024,-0.047614504,-0.09541995,0.037765633,-0.1310908,-0.1802457,-0.045684677,-0.038163975,-0.09568715,0.08159531,-0.049347688,-0.19354388,0.015139125,-0.016770216,-0.13201839,0.05612198,0.055770468,-0.12972814,0.062454533,-0.055549946,-0.17461239,0.10770424,0.041055124,-0.047394894,0.14778821,0.051896907,-0.0014527915,-0.067346975,0.024665771,-0.04976397,-0.01923051,0.025372487,-0.00090647757,0.06578312,0.05028139,-0.06562044,-0.049698725,0.023547234,-0.08358632,-0.04442125,0.056559153,-0.03199719,0.017795872,-0.045178033,0.05659837,-0.03846578,-0.023212027,0.033841178,-0.084022604,-0.04397094,0.034041338,-0.05358419,0.067510664,-0.0021604078,-0.055280577,0.1930628,-0.023015985,-0.19635645,0.1995725,0.07185489,-0.17391999,-0.22608966,0.034612875,0.09338878,-0.37513292,-0.021484694,0.17984001,-0.30499485,-0.037781347,0.14698818,-0.051566407,0.09975471,-0.04202178,0.20886932,0.059321783,-0.26179072,0.17572305,-0.07933761,-0.2557714,0.0325005,-0.0020228552,0.0837536,-0.06135758,-0.14371084,0.016449044,-0.0026124301,-0.0732074,0.011809285
