0.43863973,0.37937716,0.025189826,-0.65450305,-0.4184373,0.338122,-0.26078695,0.23013285,-0.0331864,0.27267563,-0.2805566,-0.3576263,-0.28473288,-0.51356053,-0.076912574,0.47204164,0.73579526,0.034507014,0.1932515,0.070435986,0.12882476,-0.16343702,-0.22795413,0.14391737,-0.111249596,0.08645347,-0.14433265,0.1243388,0.22430724,0.074869275,-0.019913988,-0.004706082,0.14433539,-0.08591734,-0.15502173,0.12814985,-0.002287054,-0.041121494,-0.07708016,-0.18759936,-0.2965708,-0.1057456,0.034432143,-0.17778122,0.038493276,0.037753206,0.047139473,-0.023927331,-0.007696906,-0.070092216,-0.0339634,0.14063813,-0.030332828,-0.037643168,0.13448082,-0.21508597,0.10712795,-0.020802056,-0.38146028,-0.18693699,0.22469364,-0.041689202,0.019876765,0.16982679,-0.14783736,0.14445199,-0.025271906,-0.266169,-0.06694192,0.104031056,-0.018353418,0.1016994,0.09761167,-0.14943916,0.11684245,-0.15528007,-0.2342059,-0.08204276,0.024487056,0.04725463,0.14909084,-0.15287594,-0.12010914,0.004740649,0.11867382,0.32042238,-0.040006664,0.123799816,0.30906552,0.057536583,0.12259453,-0.024254218,0.011101594,-0.12250381,-0.15008496,-0.43364352,-0.039536893,-0.1752156,-0.2645077,-0.09671452,0.17391373,-0.01623243,0.004319969,0.48015994,0.1110104,-0.24566957,0.14327161,-0.0057573444,-0.3604186,0.09191653,0.38827845,-0.4969294,-0.002922157,0.40720713,-0.3409851,-0.028316056,0.28707957,0.03442478,0.019996503,-0.048983224,0.012362538,0.008270878,-0.07995096,0.07800233,0.04524694,-0.051418137,0.27086368,-0.04442338,-0.35894233,0.3685856,0.14368553,-0.3762223,0.25475332,0.11674541,-0.32529566,-0.22412021,0.18234876,-0.4431619,0.7695134,-1.3784828,0.76406354,0.08951776,0.5953794,-0.19451189,0.046461865,-0.2394231,0.20052335,0.5612641,-1.666683,0.8077944,-0.008911389,0.27231553,-0.1515945,-0.09595435,0.6232065,-0.08416138,0.32675728,-0.83772767,0.57567185,-0.32086554,0.020486174,-0.1407768,-0.006351229,-0.020047504,-0.002433299,-0.03730395,-0.06665837,-0.057843696,0.0016152078,-0.04770582,-0.040720955,-0.016711812,-0.011983105,-0.003434489,-0.02739278,-0.009044943,0.009506638,-0.019867077,-0.0018727711,0.02807659,0.020567514,0.04483566,0.0073548006,0.02236378,0.0821998,0.06262348,-0.01398379,0.045704838,0.057185005,-0.0092772795,-0.5359099,-0.2804855,-0.34411946,-0.14723623,0.24941462,0.20980471,0.27207533,0.49865103,0.17937641,-0.21243846,-0.13123451,-0.10130989,-0.018012581,0.23609433,0.06409765,-0.045144826,0.1004108,0.52127546,0.36238593,0.11291313,0.020634446,0.06099824,-0.051147833,-0.105238125,-0.40532124,-0.5789294,0.074547395,-0.2187833,-0.48827013,0.22334662,0.28530324,-0.059142813,0.20405819,-0.091642395,-0.055315442,-0.19263658,0.06260768,0.27440983,-0.2140284,0.45342457,0.63074476,-0.40339112,-0.41796765,-0.045253024,0.108650595,-0.07964011,-0.2032051,0.054101117,0.2641556,0.038020127,0.018044958,-0.12867369,-0.128761,0.57829565,0.5518778,0.008296756,0.51909226,0.03454424,-0.51053905,0.016754318,-0.5781356,-0.61404824,-0.36956185,-0.28511485,0.026914269,-0.26018074,-0.1590084,0.1867028,0.20762569,0.19935921,0.38901174,-0.38377613,-0.22201866,0.0012335837,-0.40951508,0.22863701,0.34434155,-0.1300308,0.363598,0.25180334,0.0010247909,-0.059379514,-0.03411246,-0.04224174,-0.11304692,-0.100245684,-0.0019102689,-0.0551603,-0.03028769,0.026126152,0.07008352,0.022221308,0.13107787,0.19265456,0.07651595,0.05581293,0.10143793,0.011446196,-0.061436173,-0.012151745,-0.010533365,-0.016430262,0.07263021,0.049717147,-0.14070246,-0.04222791,-0.017786724,0.007414777,-0.00040701663,0.02604431,0.03608573,0.0233846,-0.008843747,0.014348318,0.026819088,0.027200615,0.06653168,0.05276644,0.01772455,0.07520281,0.056947365,-0.03299573,0.008790361,0.026753398,-0.021045467,0.09083491,0.07720677,-0.0014088864,0.043705177,0.021264065,-0.07004644,-0.07033747,-0.07118772,-0.095841065,0.029783273,0.1051083,0.121133044,-0.02263347,-0.046699356,-0.02064795,-0.014294792,-0.11750393,-0.07128765,0.11928911,0.12606768,0.098274454,0.021047816,-0.037834276,-0.057897035,0.0048293807,-0.1044559,-0.0943256,0.08865269,0.033599257,-0.038352504,0.048354626,-0.03129044,-0.12321467,0.07448769,-0.0061566043,-0.06817926,0.09590661,0.06547183,0.07135763,-0.056512203,0.02656307,0.17983891,-0.11074226,-0.17636217,-0.009496665,-0.040140558,-0.09442506,-0.005945448,-0.09806612,-0.04711865,0.16572985,-0.041449565,-0.07848065,0.1090381,-0.049304698,-0.049014155,0.005850015,-0.078498,0.012481669,0.18764997,-0.054522045,-0.039752536,0.12176752,0.17088379,-0.08166855,-0.069185175,0.25587043,0.11274849,-0.04702649,-0.12573947,-0.11081798,-0.081815965,0.036734026,-0.21796368,-0.19324647,0.23302127,0.11678984,-0.08415828,-0.016742362,0.061088163,0.04867945,0.057256874,-0.09176103,-0.11987834,0.13401872,0.04479254,-0.12271021,-0.036675785,0.03669551,0.073211335,-0.07208639,-0.19519375,-0.07390495,0.008777478,-0.059350632,0.064405695,0.084988974,0.062627696,0.18643223,-0.05068202,-0.123473056,-0.02673663,0.0067863753,-0.024266675,0.07700905,0.017254664,0.009374062,0.10479,0.030015571,-0.07111182,-0.04772609,0.059299104,-0.02572685,0.011292613,0.05618257,-0.017033586,0.0153941875
