0.042190284,0.08544201,0.02267726,-0.17705643,-0.06546134,-0.28274024,-0.13808586,-0.10054882,-0.06534215,-0.22509255,-0.24703452,0.02483463,-0.06323911,-0.17829402,0.08132357,0.118875176,-0.13896108,-0.16779476,-0.066465005,-0.0212722,-0.11304231,0.15199566,0.058488213,-0.2031218,-0.074294925,0.0808019,-0.13135022,-0.10893161,-0.36426824,-0.053554956,0.60470456,-0.39367074,-0.64421034,0.31587502,0.30718315,-0.39041337,0.14406848,-0.105753124,-0.054248028,-0.14699142,-0.05615891,0.017011968,0.16134176,0.15812133,0.049334645,0.11171614,-0.35904106,-0.21751073,0.15584563,0.3677607,0.014784671,-0.15340817,0.26933008,0.15764625,-0.33430043,0.11995778,0.20845558,-0.18026541,0.057663426,0.09713312,-0.03657501,0.04013029,0.08521177,-0.109497085,0.07244662,0.21820383,-0.052781515,-0.26470584,-0.07108378,-0.047927212,-0.11498485,-0.21894719,0.051872216,-0.1972271,-0.0171602,0.4349565,-0.15978527,-0.40888795,0.41700512,0.06597566,-0.37696275,-0.118679,-0.1030549,0.03894248,-0.03197627,-0.16529056,0.084148385,0.044293415,0.05516371,0.15009345,0.11314003,-0.27863076,0.016854519,0.21723408,-0.1078371,0.03474332,0.06888147,0.041819267,0.041664153,-0.4424945,0.41363895,0.3776391,-1.0290197,-0.30792183,0.91442573,0.120411895,-0.46839732,-0.06828207,0.08685839,0.1601959,0.008021185,0.029645268,-0.022495152,-0.09194201,-0.11981346,0.01636823,0.011149281,0.04505289,0.13144432,-0.037467092,0.07196926,0.16967657,-0.05688698,-0.04471635,0.0028885219,-0.065337725,-0.1533295,0.10761034,0.34520903,-0.07249961,0.13026325,0.09372436,-0.04440787,-0.0066366214,-0.09171285,0.047745988,0.25397453,0.17523833,0.0354273,0.24381712,0.027729837,-0.1805568,-0.12805328,0.024996223,-0.32812923,-0.10192436,-0.04502957,0.16897604,0.1122647,-0.07175698,0.08648705,-0.04375338,0.013547298,0.18098502,0.024987094,-0.029541703,0.009381227,-0.18955371,-0.08125778,0.049872104,0.01559459,-0.020230707,-0.16330269,-0.047699306,0.27560586,0.15867247,-0.030331561,0.068691805,0.10633663,0.25503147,0.24169275,-0.13506268,-0.27492988,-0.018733187,-0.116582066,-0.29148728,-0.16922337,0.21489199,-0.04038961,-0.072566524,0.27424744,-0.122599356,-0.066934034,0.20350432,-0.46502855,-0.21554334,0.1927946,-0.16415147,-0.04165951,0.0019045202,0.075034745,-0.04630434,0.15184203,0.17329681,-0.144144,-0.12433161,-0.08363462,-0.24656767,0.15468663,-0.08614673,0.11131582,-0.06961118,-0.0771998,0.17300908,0.08677807,0.17280556,0.030487819,-0.19922535,-0.23954773,-0.26296496,-0.059007857,-0.028322829,-0.07134055,-0.06301949,0.10239091,0.023441691,0.027516572,-0.078838326,-0.06688646,0.023700804,-0.1128542,-0.10331042,-0.30903935,-0.28526232,-0.20647666,0.09931212,-0.14484714,0.10327463,-0.5393803,-0.61693865,-0.052348,0.09326959,0.08840844,0.051771358,0.23674522,-0.108563825,-0.07992443,-0.04159053,-0.723798,-0.16975944,-3.7691734e-05,-0.19917513,-0.17625509,-0.18415305,-0.059863556,0.16513826,-0.18131015,0.282133,0.026937207,0.04594558,0.07527183,-0.15367633,0.2714461,0.021167714,-0.22821052,0.31694588,-0.005624131,-0.1582779,-0.019684391,-0.037727896,0.052292056,-0.37654474,-0.277046,0.28301525,-0.28750613,-0.444512,0.19929339,-0.09728086,-0.006474179,0.17603554,-0.20856018,-0.23259036,0.35633674,-0.19246414,-0.2742137,0.25586984,-0.06251845,0.0049222154,0.31727436,-0.14423461,0.07082214,-0.0971335,0.37616536,0.49679533,0.23721035,-0.03984271,0.03777669,-0.0033419263,-0.033334956,-0.112189986,-0.17693697,-0.082042225,-0.09598959,-0.10777354,0.07934234,-0.08867756,-0.2432977,-0.13175017,0.025609273,0.06857473,-0.118102804,-0.07227629,-0.0475655,-0.11299059,-0.048769586,-0.09078947,-0.23680742,-0.04515841,-0.18531716,-0.094181366,0.038875327,-0.08175934,-0.10277496,-0.1686802,0.06091291,0.29819155,0.0659266,-0.0355649,0.10856853,0.11440705,0.048168585,-0.09007342,-0.034469176,0.1547199,0.18518208,0.1631217,0.11149065,0.100156516,-0.018700032,0.075578734,0.032077193,0.014794763,0.016551094,-0.13792714,-0.21883695,-0.02133317,0.06647751,-0.014256881,0.16714558,0.0625317,0.09463803,0.12749422,-0.15046059,-0.13122179,-0.04435049,0.0025876448,-0.2498033,-0.030524291,-0.06644619,0.005242456,0.13486114,0.0664027,0.09173337,0.053580604,-0.042164076,0.11769535,-0.046863437,-0.016957628,0.012532941,-0.1645573,-0.117308944,-0.06578532,-0.090477966,-0.13488926,-0.14063852,-0.21072456,-0.14976281,-0.10701022,-0.16419402,0.02737926,0.041571613,-0.081153765,0.019499686,-0.058413398,-0.24392669,-0.056111753,-0.12521683,-0.03425807,0.08539831,0.121243894,0.1666776,0.11816642,0.2626285,0.10632354,0.13619764,0.03304795,-0.074157804,-0.09751234,-0.1657559,-0.26775125,-0.1415981,-0.31308815,-0.08319562,-0.18622059,-0.17107292,0.062468596,-0.11363713,0.017225614,0.17475273,0.07143337,0.08433525,0.0019713743,0.21688966,0.10407369,-0.06986764,0.061906412,0.21869719,0.11960335,0.03172667,0.010899702,0.0943453,-0.0010747,-0.04816015,-0.021881076,0.22274321,-0.14571354,0.047529586,0.041283313,0.060075942,-0.02656373,0.20434295,0.08830916,0.038622875,0.000977765,0.13803886,-0.09348442,0.3032828,0.13583586,-0.086313054,0.023386048,0.07832383,0.08575307,-0.014004484,0.35544434,0.32509586,-0.030520486,-0.7713627,-0.1414464,0.53787977,0.19360167,0.138152,0.01137923,-0.05494429,0.020674778,0.16473193,-0.09317621,0.055894922,0.043455794,0.07623264,-0.0045102816,-0.12313686,0.27255917,0.30614546,0.28314924,0.081315294,0.20398155,0.046087116,0.028531708,0.24536188,-0.12844986,0.11206728,-0.071589954,0.14024389,0.15814193,0.102293074,0.017024588,0.10470883,-0.024019167,0.108523294,0.006304256,0.15569174,0.123572625,-0.48374027,-0.24503946,0.15540674,-0.031400625,0.07944015,-0.044714868,-0.060334228,-0.055708826,-0.05898419,0.19120471,0.009235207,-0.11852284,0.08489874,-0.08819915,0.0108758,-0.06735385,-0.13974717,-0.26807353,-0.20956698,-0.273039,0.00028987566,-0.13456465,-0.121264,-0.09534315,0.08873474,0.026732279,-0.27667448,-0.13552183,0.06436581,-0.23440877,-0.24097586,0.1389601,0.24412876,-0.03645446,-0.13212632,0.012845454,0.20473754,-0.1305756,-0.21603063,-0.14132261,0.07904051,0.05726773,-0.056385443,-0.0021754378,0.015533891,0.13841724,0.23226672,-0.11172766,0.036161087,-0.025443679,-0.13535714,0.15576656,-0.012608469,-0.12500055,0.059821036,0.055942476,-0.1666991,0.077685356,0.2645435,0.19449441,0.17083551,-0.10400223,-0.13353747,0.47633973,0.07937145,-0.37094513,-0.023884065,-0.23845094,-0.06656354,-0.12826619,0.014035751,-0.3319374,-0.8603109,-0.20813859,0.1613654,-0.12975873,0.03491089,-0.09390171,-0.12072157,0.06416873,0.20416938,-0.46943608,-0.4901142,-0.02325622,-0.01943321,-0.20413868,-0.026546907,0.21096915,-0.01710905,0.17001888,-0.026917491,0.0626374,0.03644676,0.28343785,0.066025324,-0.44892126,-0.39311722,0.15355861,-0.18416347,-1.1928387,-0.66957355,0.042076673,-0.16162896,-0.021112768,0.015165752,-0.09782924,-0.011964404,-0.026753765,-0.05156055,0.04881086,-0.0697367,-0.023919703,0.041501213,0.08874219,-0.05158413,0.042604648,-0.064854346,-0.24406607,-0.05451972,0.12928997,-0.08826313,-0.030682184,0.120345116,0.04405186,0.09834771,0.12926348,0.19988094,-0.01641436,-0.033799224,0.21534212,0.05934049,-0.07253412,-0.028437246,0.058820352,-0.17901947,-0.34472266,-0.08561825,-0.050138865,-0.22085771,-0.13184033,0.16883928,0.054625753,0.0007505487,0.12944122,0.14164035,0.0761965,0.014135902,0.0772414,0.1609498,-0.088290945,0.05095281,-0.15420829,0.10186096,0.3510488,0.060485594,-0.15352844,0.13498235,-0.008709529,0.06544105,-0.16222273,-0.08076146,-0.075602084,-0.12240682,-0.10070148,0.053730495,0.09844102,0.0097326925,-0.20092188,-0.18290074,-0.025030013,-0.19364546,-0.15558867,-0.29317367,-0.022053557,-0.00060770125,-0.29520103,0.03538466,-0.049811598,0.034968477,0.004939174,-0.0127787115,-0.022302853,-0.04180677,-0.21059701,-0.1730972,-0.13914853,-0.082006134,0.1440847,-0.12590565,-0.10390425,0.018231934,0.022847597,0.073585965,0.04987659,0.06791853,-0.14811072,0.058352794,0.08252221,-0.11598581,0.018703042,0.10828511,0.17181817,-0.042408038,-0.033285104,0.3170824,0.068391725,-0.04529163,0.21159747,0.05999801,-0.19409859,-0.05953471,0.019711029,0.1858062,0.011205179,-0.01838989,0.08038845,0.0655896,0.09345199,-0.068449356,0.14803973,0.20002776,0.07786009,-0.14558066,-0.02459435,0.16395901,0.12876505,-0.12386161,0.13723245,0.20695214,0.059405394,-0.05245664,-0.04263002,0.26086378,-0.1700609,-0.18274339,-0.0120607605,-0.021713076,-0.113270216,-0.12185945,0.081538826,-0.10432403,0.023190605,-0.06802649,-0.18674736,0.0057184133,-0.044058044,0.047861543,0.09557862,-0.19464184,-0.14749034,-0.07954707,0.007299028,-0.11811542,-0.071985416,0.1983427,0.16175263,0.08219722,-0.049355883,-0.01569238,-0.106605306,-0.11381492,-0.09671491,-0.013739689,0.08312738,-0.06818401,-0.023556273,-0.2359855,0.091040514,0.006935123,0.14728229,0.32286155,0.027397001,0.04455352,-0.07275946,-0.11908606,0.21283479,0.14985253,-0.118502915,0.13911462,0.39099246,0.103061885,-0.043478627,-0.049588613,0.14732373,-0.146221,-0.19792147,-0.20756109,-0.21426377,-0.1763422,-0.085221276,0.03847769,-0.0025347888,0.11644022,-0.21677262,0.15983625,-0.04418233,0.0630429,0.383665,0.15989463,-0.08074137,0.19093211,-0.06254447,-0.04854588,-0.09631562,0.03553558,-0.037950903,-0.573916,-0.17106685,0.0041901376,-0.09335239,0.123635955,0.038357757,-0.033405364,-0.00057101063,0.0036002223,-0.14635399,-0.081986785,0.02774084,-0.10845564,-0.15456498,-0.117245495,0.18401226,0.1944834,-0.2645371,-0.09775407,0.29154715,-0.027229719,-0.3347564,0.03268006,0.13928874,0.042157035,0.026248448,0.00732909,-0.23316517,-0.048735995,0.07587317,-0.033340145,-0.10513615,-0.0009358013,0.016720258,0.0047142035,0.15783997,-0.21328719,0.01123886,0.00839648,-0.21975029,-0.2562577,0.12990572,0.083117165,0.05521018,0.14349267,-0.055697817,-0.011552899,-0.048240826,-0.16590174,-0.09023754,0.099150345,-0.06718772,-0.018161876,-0.1562076,-0.29344442,0.02059552,0.088027105,0.078871116,0.18345208,-0.006539501,0.08436267,0.005188755,0.08465712,0.42829552,0.3270996,-0.06655881,-0.06852386,0.09585025,-0.09500793,0.042885724,0.010871521,-0.16984144,0.23802091,0.24715154,-0.14985,-0.27763027,-0.09655866,-0.06001322,-0.2127842,-0.097781636,0.2335834,0.19124198,0.092794895,0.05869551,0.19670671,0.081241705,-0.1508129,-0.101584055,-0.11589517,0.126311,0.11050591,-0.03895717,0.2117396,0.075554535,0.12363234,0.070250064,-0.0150996195,-0.14045277,0.037182316,0.14569014,-0.056207538,-0.11432837,0.026019689,0.031040387,-0.046335354,0.020958416,-0.01383498,-0.22783856,-0.19322203,0.21536802,-0.1231098,-0.17930302,-0.11677801,0.036844593,-0.0029973057,0.0071833916,0.031723157,0.05477301,-0.0010446615,0.03813212,0.116484225,-0.016576689,0.0055634244,0.18542105,0.036867432,-0.03338678,0.12191685,0.00026606288,-0.30498534,-0.019645436,-0.02760861,-0.14256239,-0.1558185,-0.11878641,0.09827038,0.19735293,0.16947946,-0.01915406,0.05974739,-0.007237225,0.13008316,0.14369768,0.10687081,-0.06532105,0.15027912,-0.034558076,-0.32956934,-0.21557005,-0.010803812,0.031348083,-0.007805356,0.041131265,-0.26653355,-0.2966841,0.010550864,-0.3088543,-0.30827105,-0.05782932,-0.0053065284,-0.034716308,0.016429888,-0.03402711,-0.10735987,0.0076403166,-0.11778954,-0.111381635,-0.007624801,-0.10511504,0.04489935,-0.009786586,-0.2540747,0.004123097,0.1532246,-0.323682,-0.0010542228,0.1221456,-0.13590974,0.003158338,-0.02805382,-0.40989333,-0.1087637,0.14373809,-0.3702238,-0.28774735,0.07151224,0.0038472645,0.12541112,0.10579785,0.09770176,0.072074965,0.017924502,-0.13801517,-0.06994905,-0.022613192,0.17491892,0.05898158,-0.043321244,0.19586743,0.18421791,-0.035177965,0.016154222,0.05972949,0.011229598,-0.21356797,0.0102590555,0.08154665,-0.32406715,-0.096843444,0.06800082,-0.28978932,0.035479896,-0.0054136436,-0.07775508,0.09638752,0.14805506,-0.28345284,0.05319222,0.114391506,-0.04345631,-0.046028234,0.01649436,0.04810352,-0.005663522,-0.050364934,0.059045672,0.090113275,0.051713917,0.29228938,0.096677884,-0.058677122,-0.03310917,-0.01729933,-0.039277233,-0.023333233,0.03817215,0.0020441927,-0.014190012,-0.005353611,0.023286454,0.056101996,0.11213343,0.011644676,0.00069367647,0.08603694,-0.07341331,-0.0054396056,0.037259873,-0.012556725,-0.2504988,0.27455175,0.1438106,0.022644132,-0.10411958,-0.030928114,0.057335526,-0.055060692,-0.119542964,-0.09109823,-0.057714522,-0.2282026,-0.11349899,-0.08333983,-0.17182112,-0.11942806,-0.107128,0.0552974,0.05164402,0.049545083,-0.06557658,0.008605873,0.25673255,0.1596534,-0.10984049,0.047295395,0.07330839,0.0616443,0.060306467,-0.04021742,-0.02504534,0.02883644,-0.05978306,0.08028493,-0.09266166,-0.07692098,0.14958952,-0.11416956,-0.035988104,-0.10160904,0.08277953,0.09890257,-0.10111345,0.027588613,0.069927864,-0.013797089,-0.016815564,-0.064854026,-0.009884968,0.20348066,0.09712307,0.098159954,0.120576106,0.10102392,0.097813025,0.15915018,-0.18030721,0.16305129,0.19399172,-0.27925456,-0.022631215,0.108022556,-0.01530045,-0.10769706,-0.06092452,0.0057178894,0.13086063,-0.028611967,0.02744773,-0.0062421067,0.06607946,-0.11127751,-0.12928909,0.0102704,0.019879598,-0.06316205,0.020940276,0.13224466,-0.0026098005,0.019530287,0.075996086,-0.15225539,-0.0383132,0.115421325,0.096394494,0.16907997,0.047539122,0.08182791,0.15332799,-0.07982431,0.17870791,0.16559191,-0.13114432,0.11322837,0.15436707,0.22598074,-0.100524455,0.0014886719,0.04948968,-0.12912168,0.014736602,0.02018505,-0.016685516,0.023871,-0.070458025,0.079205304,-0.081155255,-0.12677604,-0.14952727,0.013786451,0.1449744,0.045387127,0.108373344,0.25484738,0.09813574,0.044791635,0.06692046,-0.024521125,0.3616415,0.07487266,-0.002958196,0.0698782,-0.03554762,0.018822312,-0.096696,-0.09466821,-0.34647936,-0.36734793,0.005796807,0.14741102,0.114975676,-0.0015592374,0.058798764,-0.03233272,0.04570624,0.18353626,0.060016032,0.12772004,0.0036825016,-0.12213739,0.089089856,-0.18215334,-0.022279575,-0.13872275,-0.30671865,0.18346164,0.24859641,-0.3093837,0.32318598,0.061132457,0.14907478,-0.31416425,-0.2065352,0.019431083,0.20873897,0.0015066299,-0.10157737,-0.02763482,-0.011523266,0.08074391,0.0053179464,0.12034862,0.17949788,-0.050235994,-0.16262403,0.3331864,0.24535324,-0.050779026,0.15045193,0.05690651,0.06123055,-0.08416549,-0.020704787,0.021198351,-0.12966186,0.4335322,0.09836691,0.25825247,0.10989072,-0.13515013,0.13177806,0.3098129,-0.19601227,0.33576214,0.16376409,-0.45819828,0.007760427,-0.16957295,-0.012894774,-0.22747901,0.14029253,-0.038975615,0.05308384,0.33955377,-0.39206102,0.062139045,-0.28042027,-0.06112505,0.24960649,0.22945146,0.28320855,-0.11552212,-0.26794,-0.0027804105,-0.21342929,-0.5037164,-0.18506946,-0.095176324,0.29336637,-0.1359274,-0.016819246,0.05871806,-0.2333901,-0.09319344,-0.07199962,-0.16318065,-0.07499392,0.17398673,-0.31477857,-0.07349013,-0.057158425,-0.51069564,-0.15243325,-0.2845519,-0.3945146,-0.028097032,0.073271416,0.048721764,-0.0972668,-0.06147337,-0.19034153,-0.009002261,0.23735084,-0.101070866,0.14613904,-0.19950633,-0.1414271,0.12686327,0.14737053,0.03582478,0.102512375,0.11800732,0.307499,-0.3879585,-0.13043693,0.10326087,-0.21602762,0.26828343,0.26910713,0.1490176,0.06773451,-0.039460123,-0.22152095,-0.23411082,0.18969318,-0.083393395,0.31852546,0.2387475,0.21427843,0.25736266,-0.07597698,-0.2510365,-0.27665645,-0.21054922,0.026398651,-0.04683525,0.071620055,0.040224917,-0.08921899,0.17083248,-0.18370365,0.097958416,-0.0670002,0.08101464,0.057121202,-0.30352464,-0.059925206,-0.23506816,-0.28823733,-0.08326182,0.07881886,0.09322014,-0.08277149,0.3099229,-0.05470853,-0.20876013,0.014155067,-0.23576617,0.053028956,0.20023078,0.03850769,-0.023111036,0.01492034,-0.009408009,0.02674528,0.0442688,-0.0429575,-0.09555486,-0.21760643,-0.060953345,-0.3047556,-0.031388506,0.3237399,-0.19314036,0.35352847,0.4291557,0.18952979,0.11521753,0.048704144,0.09792913,0.20155779,0.021955999,-0.039537076,-0.11417582,-0.107417285,-0.25776044,-0.34593678,0.30516732,-0.3931356,0.03453106,0.28982225,0.053431626,0.15764596,-0.27815768,-0.13519163,-0.16163193,-0.025558263,-0.071863614,0.248627,-0.045223497,-0.04013693,0.03858992,-0.13259685,0.20356381,-0.067048736,0.042087138,-0.15427525,-0.2528197,-0.004103637,-0.16336532,-0.2695693,0.060001403,-0.116732076,-0.28124392,-0.027427599,-0.1605508,-0.11938734,0.28903487,-0.055894606,0.13160409,0.20990393,-0.06574542,0.023361245,-0.09660496,-0.09698354,-0.031259675,-0.12599549,-0.0724011,0.0229287,-0.059162,0.099995926,0.060909633,0.060152512,-0.14608267,0.19422698,0.076925896,-0.013119658,-0.10583979,0.07491535,0.17969215,-0.034864035,-0.08424025,0.21592508,-0.38887566,-0.10244203,-0.083192214,-0.17343967,0.32001382,0.08438867,0.17791647,-0.15812203,0.25318834,0.34303024,-0.37964052,0.11492791,-0.21297638,-0.29865617,-0.017272066,-0.032829832,-0.056893196,0.0028537433,-0.13336891,-0.022044372,0.043346547,0.067178786,-0.010240116,-0.19338825,-0.041409068,0.0898434,-0.1674535,-0.1427804,-0.014149769,0.122658126,0.09616048,-0.090062276,-0.08326635,0.20466979,-0.027326655,0.1984245,0.13395883,-0.08818072,0.12805386,0.047686208,-0.015535776,0.09748182,0.097926565,0.020854045,-0.035270102,-0.046865523,-0.06620341,0.061319325,0.00034640537,-0.015492099,0.04447606,-0.16847914,-0.16991864,-0.08596438,0.08188441,0.053865448,-0.09604862,-0.04225165,-0.04591347,0.081992365,-0.14101057,0.00094028004,-0.024137804,-0.12281127,0.21014158,-0.20759489,-0.10988576,0.17884469,-0.1805282,0.06254602,0.045726564,-0.14323984,-0.022527777,-0.01347087,0.111018255,0.01476785,0.17849235,-0.14560193,0.07374901,0.043913923,-0.10888632,0.1801551,0.0014022148,0.2545591,0.37559095,-0.06144202,0.40690652,0.27153376,-0.0867099,0.4804449,-0.2335718,-0.12009064,-0.11704746,-0.5057617,0.019565346,0.0629789,-0.026369393,0.14816256,0.017852403,0.13426666,-0.038845748,-0.0054477677,0.035111405,-0.2625401,-0.068430714,-0.43931186,-0.087487064,0.07612984,0.22959617,0.21699005,0.022431683,0.3020177,0.045512334,0.040717408,0.015272939,0.026801703,0.055961486,-0.023791667,-0.069048375,0.0944969,-0.21018161,-0.11105826,-0.09049401,-0.2317968,0.40330765,-0.36145914,0.10774885,0.3172269,0.02325952,0.25250134,0.17976166,-0.23659505,-0.37134185,0.042723447,-0.55417573,-0.39852723,0.24458027,-0.25163972,0.102897026,0.09502248,0.036270943,0.06416306,0.09809421,-0.02966064,-0.321836,-0.024162188,-0.1447238,-0.18245338,0.21689355,-0.0091496315,0.026542213,0.06962736,-0.14989768,0.048915066,-0.11507331,-0.042948842,0.1600138,-0.14658278,0.057051633,-0.087626554,-0.11393756,0.06756736,-0.1997867,-0.06334009,-0.026112875,-0.1378101,-0.11423346,0.15492792,0.01941348,-0.18150465,0.23777111,-0.07496251,-0.10902786,0.17387679,-0.00025735836,-0.085295185,-0.077606946,0.12436927,-0.05127951,0.07149874,0.058042247,-0.12004473,0.1384702,0.058081433,-0.18024826,-0.13941924,-0.08132819,0.06837069,-0.080318205,-0.10409889,-0.06909999,-0.018407563,0.08862735,-0.10739884,-0.08410015,0.055784468,0.039630037,-0.075440705,-0.11196457,-0.07485878,-0.035926215,-0.12472568,0.03726906,0.07829314,0.26310602,0.22038499,-0.13126053,0.24395634,0.11706952,-0.17785698,0.046177443,-0.043331668,-0.13680664,-0.12536208,0.40548706,0.06862815,-0.293319,-0.25722575,-0.12790985,-0.12285032,-0.14563087,-0.04245413,-0.21224472,-0.15841706,-0.044541378,-0.30576205,-0.49986577,0.31735054,-0.008368259,-0.07150892,-0.16395952,-0.24803305,-0.06711304,0.037537176,0.088330045,0.17484045,0.0035933873,0.17909017,0.07043035,-0.13237177,-0.15409157,-0.0118179135,-0.060591903,-0.26710355,0.024403488,0.15781842,-0.1792144,-0.05408665,0.10920146,-0.16767673,-0.33087453,0.1924647,-0.13408922,-0.06671061,0.09127483,0.10942448,0.18912451,0.00228451,0.14006224,-0.10700875,-0.008044056,0.045670833,-0.21091224,0.15609592,0.04827527,-0.17769915,-0.056067746,-0.22931051,-0.07639467,0.14692064,-0.45918295,-0.16868928,0.36185384,-0.25027364,-0.44566864,-0.20290223,-0.16129664,0.17555289,0.028275646,-0.2814942,-0.3778737,0.36664632,-0.095511556,-0.44210196,0.15204252,-0.0032276646,-0.3486347,0.25254104,0.17925794,-0.18165872,0.23578481,0.009738408,-0.15192093,0.0032537342,0.042143844,0.13046303,0.06248345,0.13585249,0.03411407,0.12635602,-0.019846927,-0.0018947205,0.010283603,-0.07700243,0.17273632,-0.015307259,-0.085977085,-0.090480305,0.02144131,-0.0378774,-0.14776625,-0.035514828,0.094751425,0.14375213,-0.0064000404,0.32591614,0.20196778,0.015146831,0.12177637,-0.09564591,-0.09836934,-0.1016179,-0.08165457,0.060820494,0.027877817,-0.043173555,-0.024923915,0.13013725,0.20141268,0.0776681,-0.08967002,0.03616759,-0.02163384,-0.035227213,0.11693873,-0.10043871,0.15729932,-0.061622806,0.05943126,-0.08678143,-0.20381026,0.102222756,-0.11003149,0.007323456,-0.20938407,-0.2598674,-0.022309864,-0.049743723,-0.17446944,-0.22838734,-0.18763472,-0.439972,-0.18228137,-0.0029476508,0.08525401,0.04676744,-0.097203046,0.09845082,0.022029294,0.11210875,0.008618525,0.09872013,0.02927372,-0.27399433,0.01757123,-0.02788323,-0.04532119,0.05684271,-0.083375916,-0.09920892,0.0821353,-0.054776117,0.20773162,0.141168,0.18061458,0.41460487,-0.004801809,-0.10625962,-0.1036698,-0.0006157452,-0.36549154,-0.17705049,0.06114167,-0.15648277,-0.23721749,-0.110761136,-0.3207102,-0.3451218,-0.034967296,-0.037029356,0.08565816,-0.059160568,-0.07068297,0.003326896,0.07943578,-0.08006408,-0.12925953,-0.1392128,-0.040734775,-0.108641855,-0.023274932,0.052502215,0.16902569,0.17509365,0.07388891,-0.12615801,0.07956434,0.21525048,-0.20254277,-0.08962821,-0.11636277,-0.09522221,-0.13173474,-0.073069245,0.0014528112,0.023740763,0.09995934,-0.04685827,0.08162683,-0.095767744,-0.1964373,-0.18156421,-0.023203276,0.03929761,0.085455954,0.15474749,0.22831133,0.10898175,0.115927465,0.17600708,0.21584447,-0.118141495,-0.13938393,0.054794915,-0.07002458,-0.10100128,-0.12433356,0.015887666,-0.07288151,0.178919,0.23298544,0.44702274,0.2699791,0.15995014,0.10914851,-0.18930781,0.1515423,-0.113582775,-0.15412435,0.100663535,-0.030245269,-0.1759873,0.012451609,0.09228056,0.02083828,0.078983545,0.03195117,-0.12486687,0.1990442,0.2210965,0.31854022,-0.01727996,-0.051879544,0.17767017,-0.062290903,-0.18119828,0.048683066,-0.17782617,-0.15697046,-0.08803745,-0.066042274,-0.06613142,-0.19857804,0.14958267,-0.06703231,-0.086640894,-0.18159012,0.31711054,0.11445593,-0.23639229,-0.04866067,-0.012300417,-0.19837758,0.20980334,-0.15579544,0.09919471,0.18930377,-0.04468539,0.029898614,-0.29660952,-0.21733488,0.14058805,-0.25569725,0.17831767,0.033699263,-0.2804785,-0.097582884,-0.24914646,0.086240396,-0.14467235,0.06719552,-0.07280563,0.084033996,0.25062197,0.08471951,-0.13647594,0.0021501144,-0.0006785401,-0.1098622,-0.21565634,0.1744725,0.29379374,-0.33495608,0.090219386,0.21764517,-0.32062912,-0.07516112,0.07184277,0.067902245,-0.009392003,-0.01598765,-0.3688771,-0.11003552,0.3092265,0.015078968,0.24064232,0.10589585,-0.1987256,0.27851254,-0.0737981,0.1736293,0.108452775,-0.26358804,0.17472519,-0.042233948,0.06646849,-0.16148454,-0.2846411,-0.3477325,0.3083175,0.057558272,-0.113351546,0.40410984,-0.067353055,-0.0037803336,0.35153595,0.05318137,-0.017910896,0.4954497,0.1293787,-0.6228978,0.015235796,-0.38256717,-0.25358906,0.38972172,0.010920911,-0.022509875,0.3477669,-0.22680053,-0.15773669,0.10068587,-0.21328527,0.110724516,0.23076765,-0.102803916,-0.12482026,0.4167333,-0.09293411,-0.6190638,0.09976373,-0.04089237,-0.12868674,-0.024124565,-0.2025992,0.084750354,0.23176292,-0.112017326,0.04460992,0.20382576,-0.1764241,-0.054303214,-0.32911932,-0.062451564,0.14963914,-0.42947248,0.46044418,0.24401309,-0.39591408,0.17093809,0.25560132,-0.04738368,-0.016556682,0.22117817,-0.18331645,-0.24288413,0.13688485,-0.041991,0.21676947,0.23053996,-0.057770155,0.09432286,0.08477041,-0.012528637,-0.12513846,-0.0016718616,-0.17413472,0.1273053,-0.09556933,-0.01875483,-0.042332113,-0.00077539665,-0.4505452,-0.048175264,0.17431223,-0.3037231,0.034772076,0.21076134,0.018998908,0.010945819,-0.05454754,-0.09903659,-0.1101969,-0.13669261,0.0082215965,-0.13303457,-0.10414635,-0.083756045,-0.05936398,-0.033014104,-0.118850194,-0.09831372,0.025310343,0.023637442,0.016759317,0.23605913,-0.3008964,-0.03818429,0.1253843,-0.32756868,-0.19101715,0.05047535,-0.13364741,-0.21109861,-0.16300233,-0.039727975,-0.0134426765,0.09388632,-0.042426236,0.016857412,0.042376615,-0.14893001,0.05978712,0.05526814,-0.012478886,0.04638406,0.13684215,0.031346925,-0.031063436,-0.045261618,0.14543107,-0.05101781,0.030069053,0.0040296847,-0.08271229,0.12775704,0.14855339,-0.016170114,-0.16061907,0.15722218,-0.0893693,-0.28790963,-0.0016681491,0.12641205,0.06443515,0.13156734,0.3368653,0.21570867,0.18910359,0.22476307,0.0599983,-0.1328932,-0.102674544,0.09136838,-0.31684417,-0.060437936,0.1722131,-0.19510539,-0.009469585,0.11004595,0.019527253,0.062763594,-0.030155921,0.039290328,-0.075494744,-0.0042495383,0.074085385,0.0043910965,-0.13133891,-0.017686164,0.07623714,-0.057425536,-0.08067309,0.07172198,0.07701969,-0.08420339,0.020297443,0.034040608,-0.062240012,-0.02167168,-0.04838135,0.15717262,0.009951593,-0.12554136,-0.112022325,0.039073065,0.033581804,0.016078522,0.10104116,-0.10388142,-0.23328468,-0.046696637,0.27303836,0.2179362,-0.120520726,-0.13920844,-0.011065953,-0.122996785,-0.13277549,-0.19519517,-0.4420717,-0.46591318,-0.009825762,-0.2421062,-0.15144625,-0.048814405,-0.02929576,-0.025414087,-0.013306406,0.11711896,-0.11839921,-0.06869916,-0.016336335,-0.042438373,-0.04100123,0.059375256,-0.010968434,0.28561682,0.33516175,0.20057677,0.025486095,0.21128516,0.1717111,-0.012552812,0.042081293,0.031931262,0.17550586,0.22278164,0.024905732,0.09936655,0.017749254,-0.0665015,-0.18196921,-0.076085106,-0.052394483,-0.8894454,-0.7926446,-0.440905,-0.59956527,-0.548124,-0.41042447,-0.106109284,-0.09102387,0.17080332,0.044811755,-0.011963106,-0.07571273,0.21886969,0.06769316,-0.060170703,0.07829647,-0.0031610802,-0.07600787,0.14220265,-0.099135734,-0.030204557,-0.0043981206,0.01981663,-0.06956149,0.049007095,-0.101454265,-0.049864326,0.09179912,-0.024360074,0.084739216,0.08347267,-0.061538946,0.09765498,0.15736738,0.097645044,0.06940247,-0.2323866,-0.14503692,-0.017567163,0.029183986,-0.11838394,-0.10081324,0.23095846,-0.14338793,-0.16967869,-0.0030476013,0.088862754,0.08444822,-0.15622655,0.055321995,0.067951106,-0.10579199,0.18599008,0.15865135,0.033504866,0.07018318,-0.014462815,0.05250004,0.14280505,0.018301332,0.01511829,0.0977709,0.0030441328,-0.00793504,0.078245394,-0.025537852,-0.08780234,-0.004129899,0.027123896,0.1738836,0.08548137,0.02097146,0.019755451,-0.10204393,0.025852041,-0.16376656,-0.24479562,0.048872493,-0.023402406,-0.048689213,-0.00852939,-0.014134742,-0.090954594,0.02767076,-0.008514536,-0.073659055,-0.13843247,-0.06959182,-0.017192196,0.032034304,0.026415832,-0.031035522,0.043593824,-0.055315044,-0.104736075,0.055652887,0.07278576,-0.118637994,-0.060917787,-0.048114352,-0.08050522,0.09674578,0.008516631,0.05703861,0.05066886,0.033724427,0.0329036,0.08822054,0.016558608,0.30898833,-0.0103338435,0.19882526,0.32987022,0.03934593,0.21278195,0.15007833,-0.07660803,-0.15354227,-0.2524496,-0.07703576,0.020000158,-0.054254122,0.0903725,0.022510383,0.23755315,0.01860626,0.17637675,0.103034906,0.18698065,0.05511664,0.022981899,0.18267965,-0.08343629,-0.008651946,0.16633311,-0.22649185,-0.18084621,-0.093896404,-0.04837424,0.02756027,0.0088064885,-0.14167288,0.28350225,0.06918381,-0.5338808,-0.25720537,-0.04197997,-0.05349464,-0.04453778,-0.06384334,-0.18400231,-0.08678759,0.025784763,-0.09678094,-0.120660156,0.059098635,0.04752815,-0.05142508,0.10662398,-0.014951907,0.11750722,-0.15843967,0.21375413,0.38974372,0.110042684,0.07972368,0.045397338,0.005622696,0.064656086,0.08928154,-0.17817868,0.038580347,0.30205405,-0.023211196,-0.006041757,0.040710494,0.049467377,0.12799971,0.1366577,0.19565195,-0.09042112,-0.16026993,0.041269764,0.0808347,0.062968716,0.1343539,0.2184777,0.013348173,-0.15051426,0.51181597,0.34189832,0.047765918,-0.17806174,-0.19734767,-0.2478235,0.077235155,-0.10546595,-0.090134576,-0.2058798,-0.36916146,-0.035445064,-0.079557925,-0.037395947,-0.018218255,-0.18915643,-0.034756303,0.100559525,-0.24482787,-0.2761268,-0.07958858,0.062049534,-0.04663403,-0.07782662,-0.18733971,0.052581854,0.11635331,-0.01862478,0.24169333,-0.051241025,-0.026086064,0.061083674,-0.13043788,0.006604158,-0.020460736,0.102128334,-0.006108311,0.029468918,-0.0647106,0.06369822,0.23457424,0.002731339,0.09522838,-0.039069332,-0.008093951,0.12710373,-0.04977497,-0.03216282,0.13497438,-0.0070013334,-0.11095222,0.043734945,-0.011293526,-0.10574339,0.21560863,0.07319679,-0.116721965,0.14842623,0.13855608,0.1281103,-0.12457775,-0.22026269,0.094386406,-0.4576077,-0.41280755,0.16028392,-0.060517423,-0.046867136,0.06583217,0.040414255,0.16460957,0.014761856,0.15015936,0.13586485,0.23100072,0.04124189,-0.026606882,0.031887937,0.08646706,-0.027652973,-0.060652684,0.037324436,0.11071706,0.11444177,0.2015882,-0.0850787,-0.010990334,-0.3928432,-0.03853076,0.029309941,-0.51947653,-0.39847928,-0.040091466,-0.052514195,0.06357737,0.052175004,0.1444641,0.239721,0.06821837,-0.015473081,0.09533777,-0.048701342,0.049261104,0.18325165,-0.038802143,0.17713305,-0.08857268,-0.16632931,0.19086607,0.10173913,0.040745076,0.11252036,0.08445672,-0.25089702,-0.1355667,-0.026238535,0.16508974,0.106731415,-0.022967445,-0.15645462,0.041321605,0.02010689,-0.24726579,-0.029086104,0.0442295,0.09263353,-0.029821323,-0.05661531,0.15217029,0.01424802,-0.012023727,0.03268311,0.016824314,-0.20245469,-0.10633158,-0.14741375,-0.3650058,-0.21071598,-0.3331684,-0.41952482,-0.22351094,-0.24980941,0.22156894,0.13513897,-0.5589835,-0.059327383,-0.08455675,-0.44919214,0.11877034,0.1669333,-0.10738139,-0.28801742,-0.023333272,-0.13597101,-0.054367527,0.14347985,-0.08154709,-0.061801396,-0.07193205,-0.14392446,-0.014504484,-0.20691338,0.29852122,0.26017624,0.20726004,0.14740442,0.16769557,0.07673706,-0.13726538,-0.11538228,-0.076083966,0.0843059,0.07116385,0.10014398,-0.015569655,0.010506769,0.045871027,-0.22702467,0.04806062,0.14403628,0.19820824,0.18997687,0.2733955,0.098854885,0.16461164,0.1532399,-0.20822038,-0.09765715,0.062379945,-0.07563143,0.045205,0.014660473,-0.1829166,-0.11281634,-0.1218191,-0.074480735,0.048773527,0.21801402,-0.16193487,-0.13228415,0.14534603,-0.20033623,-0.20887601,0.15801042,0.003061476,-0.012462025,-0.08785337,-0.09473447,-0.106036834,-0.36640075,-0.058057602,0.20856783,-0.16475278,-0.19701482,0.09188543,0.0955166,-0.11572728,-0.0638185,-0.10998356,-0.08127342,-0.221527,-0.20899649,-0.23699456,-0.10354324,-0.029045986,-0.28951532,-0.32636705,-0.3130294,-0.16267575,-0.29223025,-0.40835714,0.12174484,0.29609874,0.16126089,-0.078649424,0.06621595,0.016203502,0.06809243,0.26459706,-0.095517434,-0.41391248,-0.64147645,-0.015086855,-0.15209104,-0.28800815,-0.18165088,0.19481164,0.4255922,0.059017032,0.008519504,-0.23197602,0.0020754226,0.2112043,-0.035168547,-0.086903095,-0.012509814,-0.023660809,-0.13718495,-0.09089948,-0.0034582496,0.08134676,-0.36069962,0.081093274,0.2952259,0.05598792,-0.16122012,0.02094192,-0.060882356,-0.01837099,0.03118412,-0.01526289,-0.13531028,0.0665822,-0.13274725,-0.047736134,-0.09602832,-0.03623181,-0.43588042,0.009066819,-0.11922228,-0.008583694,-0.00836468,0.05351371,0.22337635,0.077832736,0.20185657,0.31202972,-0.11620416,-0.12924068,-0.08183375,-0.14798796,-0.019044664,0.19725312,-0.0304938,0.33443883,0.030942036,0.090503015,0.28771162,-0.07905358,0.00076426775,-0.17461546,-0.13452083,0.033090077,-0.14189978,-0.25317603,-0.28853816,0.13265374,-0.06428993,-0.23073067,0.23219073,-0.013421265,0.07153393,-0.13416548,-0.055453304,0.1149088,-0.32377616,-0.15093568,0.1144398,0.07754336,0.30794176,0.14955226,0.09715921,-0.0016230533,0.04687807,0.07019273,0.24679382,-0.08982565,-0.27427918,-0.07533764,0.066471115,0.16149978,-0.016850183,-0.16677977,0.10027951,0.30725455,-0.1340976,-0.08971573,0.03517155,-0.023656098,0.05712692,0.10277417,-0.24966934,-0.09393093,-0.2146456,-0.038256295,-0.10333835,-0.016487274,-0.008130636,-0.062183905,-0.25793254,0.2372138,0.16835451,0.0476152,0.19193988,0.10231978,0.2399598,-0.034224294,-0.21114235,-0.3904252,-0.08666109,-0.25065506,0.06432058,0.17199184,0.083274476,0.13761216,-0.017438324,0.020179875,0.038051177,-0.22537984,-0.045394674,0.1742048,0.15478222,-0.03526813,0.11801702,0.112475105,-0.23731752,-0.38264877,-0.122797385,0.015310485,0.09424094,0.09226323,0.18550697,0.36458737,0.22890133,0.03466037,0.09266086,0.045605678,0.01966276,0.055584155,-0.042542573,-0.0853517,-0.08614264,-0.0073888865,0.056889553,-0.031798214,0.045556497,0.060978256,0.028495297,0.15825523,-0.09512016,0.0872435,0.02119752,0.09865664,-0.01909693,-0.029341955,0.19550094,-0.28226462,-0.30911303,0.026728114,-0.12283157,-0.24297898,0.20835748,0.067845814,-0.0307589,0.19746247,-0.13471259,-0.24819,-0.08215,-0.076551996,-0.08014176,0.0074205576,0.060891353,0.0721007,-0.08922217,0.22454782,0.10844801,0.03440517,0.34324196,0.15864444,0.108085796,-0.008173847,-0.12084739,-0.003687052,0.12230704,0.13060176,-0.16841729,-0.053203963,0.03534232,0.07055893,-0.0025822993,0.052114144,0.002071804,0.18121919,-0.08084168,0.10150768,0.19451216,0.040415518,-0.10251995,-0.07884168,-0.11629249,-0.033624623,0.018982816,-0.03335587,0.021136938,0.06281914,-0.051247317,0.013243081,-0.10062934,-0.014768164,-0.1295747,-0.06177307,-0.041180078,-0.13030909,0.01136647,0.24724728,-0.17690796,-0.50894046,-0.35550338,-0.15738136,-0.6374038,-0.3914484,-0.06942845,-0.16827095,-0.25029045,0.0021216641,-0.2061834,-0.09370255,0.12815431,-0.27460918,-0.25065598,-0.056927685,-0.04357317,-0.102128185,-0.20112154,0.14962251,0.087002486,-0.192264,0.071332835,0.043101553,0.122055806,0.15449792,-0.051986538,0.042019498,-0.12316375,-0.046405077,-0.16196103,-0.010712638,0.121068984,-0.062080428,0.23371682,0.24189475,0.14833595,0.011484395,0.051146206,0.25185698,-0.17664643,0.05931788,0.18708806,-0.091213,-0.03753232,0.13203157,0.15848559,0.11801335,0.21184497,-0.110174626,0.019775633,0.0092879385,-0.23857944,-0.09407195,-0.22953422,0.056893513,0.011399804,-0.110016435,-0.13682573,0.036090218,0.05968233,0.024949217,0.07211139,-0.054855168,0.008375965,-0.030485744,0.046164762,-0.06188117,0.033095147,0.011085832,0.13491783,0.24132095,-0.15495947,-0.10107212,0.009990206,-0.048269223,-0.054988936,-0.1195496,0.046203837,-0.1882376,-0.13813844,0.32025436,0.117288165,-0.2439918,0.13304472,0.44474402,0.2047707,-0.112104826,-0.048303843,0.092468634,0.15189412,-0.1461998,-0.17054242,0.09414954,0.18397442,-0.013716983,0.010250096,0.20820683,0.05780247,0.20559062,0.12025351,0.21335804,-0.052370973,-0.021645013,0.045070395,0.05995714,-0.107634954,-0.10586301,-0.067510284,-0.16900827,-0.0399878,0.21328656,0.029110288,0.047672946,0.16580856,0.016163096,0.180878,0.16313396,0.32149515,0.22672665,0.13265057,0.28284472,0.20775683,-0.16683362,-0.14663826,0.012638115,-0.20261489,-0.120393425,-0.22702357,0.13726921,-0.007340005,-0.20235366,0.027411172,0.06211462,-0.002392851,-0.058949422,0.12403976,0.19503984,-0.12379659,-0.11377902,0.015065111,-0.06712248,0.019097291,0.08524634,0.09358811,-0.0028992877,-0.23921594,-0.015656415,0.18658254,-0.01163009,-0.048892993,-0.013330138,-0.05871542,0.012611735,0.21096683,-0.106815904,-0.11410861,0.21764499,0.17056645,-0.17454894,-0.064327285,0.02887038,-0.14723691,-0.18210727,0.052322544,-0.16281061,-0.31651756,-0.14868416,-0.076082066,0.005684326,-0.12336449,-0.12582825,-0.07103954,0.06247005,-0.093165755,-0.10232611,-0.04199225,-0.001962852,0.030555464,0.14545412,0.18480995,-0.022578312,-0.024971059,-0.11951782,0.10798096,0.020853173,-0.1333685,-0.13143596,-0.098360896,-0.09106412,-0.17351186,-0.11816521,0.0018407345,-0.08530132,-0.074329734,-0.009952934,-0.09106853,0.07546128,0.015075249,-0.119458005,0.023251181,0.079679035,-0.008812495,0.026332913,-0.15172312,-0.095681205,0.106875375,0.059385873,0.049231444,-0.019588163,0.12006156,0.09134329,-0.008349029,-0.12427612,-0.011155976,-0.094736144,-0.24888088,-0.024501635,-0.070148736,-0.23935589,0.060685635,0.12944245,-0.06442908,0.101098314,0.17946978,0.20181538,-0.07542004,0.039009377,0.16390608,-0.053130284,-0.049603187,0.040493205,0.11154184,-0.028007101,-0.047792144,-0.038378663,0.070968464,0.06955516,0.30069065,0.038651127,0.059992246,0.13887861,-0.091963306,0.107295334,-0.048605103,-0.06702777,0.019445278,0.17786257,-0.0012340724,0.01452149,0.16801654,0.23024666,0.028690055,0.21077985,0.17420982,-0.31169355,-0.009920398,0.1798141,-0.20675635,-0.349613,-0.17962655,0.046594772,0.09223326,0.10493175,-0.1470674,-0.19719425,-0.09636314,0.01867047,0.015644586,0.0031749627,0.016461711,-0.15073901,0.011446899,-0.17134039,-0.20505759,-0.07546253,-0.20305902,-0.17927493,0.09664416,-0.123865664,0.24334763,-0.19841488,-0.36656934,0.59753764,0.28609627,-0.3601504,-0.07749634,0.23235774,0.10176682,0.1340621,0.00017532402,0.120189495,0.11092411,-0.0023586766,0.06729416,0.11790244,-0.011231013,0.035608675,-0.08316054,0.010336812,-0.06437919,-0.12546526,-0.18882893,-0.05446961,0.06238075,0.011445036,0.046088073,-0.121426545,-0.13488573,0.053940002,-0.25816217,-0.144145,0.038890976,0.072147086,-0.1038444,0.07057364,-0.01537831,-0.04035913,0.21181378,0.101361796,-0.0637409,0.036752973,0.051779907,0.0012259589,-0.024132112,-0.03063113,-0.13232088,0.10069602,0.01836754,-0.0987659,0.1710079,0.10685788,-0.21240503,-0.007027716,0.10565803,-0.009904187,-0.08589352,0.14104444,0.04814529,0.05552176,0.08679674,0.109577104,-0.020639494,0.060145516,-0.015233387,0.1812449,0.18673131,0.054114737,0.004509176,0.021351026,-0.1211972,-0.09009527,-0.12525389,0.013897218,-0.124732085,0.009661631,0.028149597,0.12658674,0.26667047,0.087107204,-0.048726004,-0.03460205,0.18670669,-0.08562651,-0.034032922,0.024814807,-0.16561118,-0.10687093,-0.11481307,0.19348536,-0.0265686,0.09207067,-0.0014276725,-0.0042325608,0.055468243,-0.09894998,0.038974788,0.0973853,-0.027982185,0.03595624,0.07832086,-0.054897126,-0.053757142,-0.058932785,0.13004306,0.101565644,-0.12091973,-0.020202935,-0.049510133,0.08697186,0.12668873,0.14995185,0.19265011,0.15838435,0.10837802,-0.027247917,0.06775157,-0.07071458,-0.24094848,0.15188414,0.048064124,-0.032590203,-0.034032915,0.059193924,0.1258068,0.14979325,0.20081268,0.006311786,0.19913785,0.14106016,0.036006205,-0.08182041,-0.0016490021,0.12978439,-0.21407805,-0.2358976,-0.24675703,-0.00262606,-0.07578389,-0.12973568,0.16372377,0.034028742,0.0850145,0.058562413,-0.03485478,-0.030139659,0.16571245,0.057442527,-0.15480278,0.1597617,-0.1282428,0.023093075,-0.032826405,0.006351739,0.08544745,-0.22086623,-0.29945025,-0.11035409,-0.18547873,-0.066232145,-0.1287956,0.061732624,0.09282182,-0.07089953,-0.059903238,-0.06435165,-0.009748577,-0.15073629,-0.19919054,-0.038587607,0.046232097,-0.10995044,-0.1772652,0.14611521,-0.039803475,-0.034986075,-0.1234652,-0.11477821,0.099510685,0.0005813987,-0.11056065,-0.09332995,0.0978281,-0.010404467,0.0048866007,-0.014566643,0.14196666,-0.18966058,0.05435911,0.04971253,0.015888501,-0.13420895,-0.059798643,0.00062936975,-0.20204552,-0.010677045,0.15298556,-0.16754785,-0.1454389,-0.004197009,-0.48376858,-0.49594495,-0.381905,-0.18487078,-0.141893,-0.09908309,0.035404243,-0.26968664,-0.108623676,-0.09485873,0.00086651143,0.22029522,0.085426845,0.31073734,0.035273865,0.13981605,0.120373085,-0.019711506,-0.009223401,-0.04279894,-0.031054866,-0.019401226,-0.046832785,0.011229965,0.1459789,0.11369994,0.014235038,0.004107557,-0.06220121,0.0924471,-0.16538654,0.009142876,0.03658949,-0.08975725,0.14708985,-0.10057224,-0.13463528,0.22219832,-0.0822863,0.043712825,0.18860097,-0.10352631,-0.17130594,0.00064876827,0.13207272,-0.17182302,0.112325706,0.050082836,0.016387517,0.0869624,0.12618746,0.2652546,-0.048730407,0.0039385096,0.19741137,-0.08269621,0.30008826,0.028990133,-0.1100188,0.16581826,-0.10276065,0.19480962,-0.048456598,0.15025328,0.0822028,-0.1777514,0.11934903,-0.08055733,-0.11624576,0.039282996,-0.2574716,0.0112939635,-0.31382665,-0.4424363,0.017130172,-0.21493277,-0.17135178,0.048611004,-0.07888445,-0.2329195,-0.0007508496,-0.040039316,-0.16140625,0.16959411,-0.15241852,0.03413847,0.12728123,0.14424162,0.08176388,-0.16341127,-0.11040122,0.06380863,0.027716534,-0.11995012,0.18217033,0.2535374,-0.48149696,-0.07590871,0.05564971,-0.5681486,-0.40962434,0.015857022,-0.24230084,-0.09936902,-0.09135623,-0.11859892,-0.13872868,0.15073298,-0.32167754,-0.62964857,-0.01651654,-0.0026434974,-0.20044175,0.059234954,-0.05154481,-0.043759298,0.023287794,0.040852036,-0.15468939,-0.1511371,-0.025708575,0.0036114887,0.13020316,0.22877426,-0.1618073,-0.05905011,0.20979123,-0.13260058,0.022819968,-0.050330993,-0.15934405,0.027944278,0.0065452685,0.18509816,0.049225222,0.0010208078,0.3302864,0.014943325,0.032351356,0.15300328,0.0039942246,-0.098452315,0.09899752,-0.12875609,0.009711298,0.21810019,-0.12676273,0.09296983,0.3241244,0.031135619,0.21262106,-0.11637772,-0.0998303,0.048521068,-0.034620617,-0.00067888503,0.073411085,0.025176326,-0.15755467,0.09115524,-0.04568037,0.0153608285,0.02163169,0.02101862,0.15532754,-0.0047094887,0.044167574,-0.07210709,-0.08258038,-0.10404491,0.055374622,-0.17546934,-0.21289127,-0.060995087,-0.13118134,-0.15629947,-0.113248155,0.049682558,-0.40269133,-0.19842103,0.38112333,-0.021369632,-0.29791448,0.08530553,0.20209427,-0.245524,-0.0137760835,0.14349008,-0.103962675,0.08950486,0.24526753,-0.19680685,0.031326756,0.0709916,0.08314267,-0.3125784,-0.64558786,-0.048566714,-0.29841232,-0.31783676,0.3042945,-0.06821219,0.14004207,0.004745548,0.021475052,0.26033008,-0.15693918,-0.100139916,0.123310916,0.087748736,-0.1291365,-0.038700517,-0.022607207,-0.15540726,-0.20375699,0.04180137,-0.21361701,0.08301434,0.13531338,0.06451827,0.21827859,-0.046229765,-0.051072326,-0.10585941,0.19329055,-0.1793385,-0.16061911,0.12883109,0.11760754,-0.19761007,0.012566432,-0.010667776,-0.081549175,-0.07963819,-0.035427675,0.13734643,0.09499101,0.08155757,-0.07001701,-0.04482007,0.07013865,-0.071752444,0.14043008,0.079199366,0.064956576,-0.14131387,0.005400588,-0.050232954,-0.087664805,0.13034531,-0.08022634,-0.020196121,0.16250937,0.122983456,-0.028878061,0.13069886,0.09673095,-0.14043795,0.063456364,0.2025598,-0.0068398453,0.021818403,-0.009895621,-0.24476232,0.079858005,0.28759342,-0.16032977,-0.054334685,-0.33847728,0.066098735,-0.2279882,-0.17351633,0.18682078,0.11776357,0.24487016,-0.117406875,-0.09829414,-0.5910624,-0.27487266,0.2141634,-0.106330134,-0.26455548,-0.040333264,0.15615748,-0.10282937,0.03783696,-0.25518227,-0.28362152,0.015914813,0.16159153,-0.29899016,-0.16074196,0.24839777,0.09281272,0.18531203,0.20665051,0.18772817,0.1716024,-0.0629863,0.029301448,0.15066475,0.11935349,0.003536195,-0.04385232,-0.08398803,-0.026235912,0.18165216,0.26134178,0.027045118,-0.4435855,-0.4420135,-0.16708687,0.24267006,0.18718414,0.082610324,-0.3039723,0.038455326,-0.12033895,-0.21702594,-0.08826646,0.16512536,-0.18053845,0.24634945,0.1885287,-0.02959236,0.19173926,-0.043687336,-0.11744868,-0.32876116,0.10198286,0.16559857,0.17971903,-0.09703084,0.049119268,0.28462765,-0.16333027,0.38202894,-0.20078664,0.07722264,0.103733525,0.011934106,0.041678976,0.01473909,0.23702277,-0.009117271,-0.2194462,-0.0035586425,-0.05953141,-0.18284135,0.15627663,0.1793897,-0.094133355,0.18127802,0.20688841,-0.01850246,-0.17400058,0.07069954,0.19365522,0.07838319,-0.27460724,0.18580431,0.15010066,-0.11960312,-0.3040263,0.0088743,0.02791863,-0.11710488,-0.038319282,-0.23765467,-0.116400115,0.22735196,-0.11184273,-0.10420158,0.1443705,-0.09238899,-0.18096487,-0.38256073,0.09555921,-0.13170415,-0.24179277,-0.094106786,0.046733372,-0.104938,0.0717042,-0.058911942,-0.041250642,0.0129957115,0.2152548,-0.025906274,-0.06552313,0.12949415,0.23015071,-0.15272525,0.023363346,-0.18792509,0.04921188,0.02036447,0.16406612,-0.20351273,0.00056040223,0.24598378,-0.096465565,-0.06934259,0.16605642,0.06381389,-0.2911176,-0.57974344,0.31269696,0.02959586,0.32369515,-0.11991667,0.23259509,-0.22784786,-0.20352942,0.075368434,0.55821836,0.30255485,-0.13932909,0.24577162,0.27173162,-0.35983536,0.13688104,-0.06666799,0.11476891,-0.18202336,0.07214855,0.07377029,-0.27846733,-0.1293934,-0.16655943,-0.025864717,0.120811515,0.45350024,0.16771074,-0.1947363,0.2949277,0.097384624,0.00408038,0.02001971,0.03191242,-0.0068848985,0.115300916,0.24157545,-0.1367808,-0.39917165,-0.37096313,0.028274149,-0.14742765,-0.1537761,0.08690777,0.36082476,-0.0396452,0.323312,-0.005536544,-0.17008498,-0.16649918,-0.077193044,0.13769455,-0.030875131,-0.14810163,-0.049208853,-0.26426595,-0.026201466,-0.060768478,0.014851962,0.050706804,0.10985898,0.18698625,0.032049537,-0.17356482,0.060531143,0.12615798,0.023090553,0.12140269,0.061381076,-0.041826934,-0.0032174662,0.27962208,-0.12086026,-0.033862296,0.2278524,0.05896333,0.16927819,0.18542543,0.18953809,-0.14093845,0.3059007,-0.13580833,-0.64871573,0.19422011,-0.3165059,-0.8525995,0.06460759,0.084868126,-0.11071519,-0.09926435,0.42202842,0.2299915,-0.29852617,0.14594248,0.11479207,-0.023222644,-0.009287398,-0.006622549,0.1814721,-0.19267565,-0.2227815,-0.06454371,-0.2140537,0.026605634,-0.22539108,-0.14037697,-0.06992767,0.13318975,-0.031096956,-0.25530916,0.081688985,-0.1459599,-0.09202998,-0.26996025,0.058976017,0.029689819,-0.30534014,0.25504038,0.06265655,-0.26034293,-0.008379872,0.13677199,-0.17867893,0.38583913,0.09763132,-0.027164001,0.058871616,-0.010482496,0.120901935,-0.017061418,0.12324903,-0.13543193,0.039012797,0.1204222,-0.072836645,0.05146517,-0.023329593,-0.019018,-0.09797073,-0.025599038,0.0677193,-0.1349512,0.14998227,-0.33095524,0.07539594,0.40722737,0.15283047,0.108907595,0.2712678,0.024616173,0.29710358,-0.011987076,0.29683748,0.019292276,-0.26479623,-0.15386362,-0.2569229,-0.12264507,0.17449316,-0.12952049,-0.20339578,0.33580065,-0.22460002,-0.6022024,0.33353028,0.2243882,-0.3119738,0.018439185,-0.13903475,-0.18840533,0.2319453,-0.27327555,-0.32879665,0.034228478,-0.028902058,-0.10839023,0.10543773,0.005605727,0.12646723,0.094292976,-0.11055569,-0.11035215,-0.016079342,0.020588875,-0.23871227,-0.13232541,0.013176098,0.02020394,-0.03489872,-0.06398756,0.060380377,-0.07169972,-0.16940384,0.03338063,-0.00040324221,-0.053623803,-0.073215775,-0.12140448,-0.03263827,0.046795014,-0.05347298,0.03273545,-0.030005652,-0.002646923,0.12728918,0.057934947,0.0004057496,0.22632834,0.43086174,-0.08242513,0.15475583,0.23184581,-0.011791799,-0.035323095,0.05946136,-0.14938495,0.06594107,0.15465178,0.018201346,-0.09247035,-0.047846776,0.061825167,0.012898732,0.03466729,-0.11020653,-0.13119489,0.0036076477,0.013783706,-0.045249183,-0.00722843,0.091623515,0.012103146,-0.1075715,0.37246153,-0.0895823,-0.14285389,0.20014684,-0.15912032,-0.041687965,-0.035075698,-0.023056436,-0.059123933,-0.300011,-0.14973335,0.022571107,-0.11972476,-0.15116966,-0.06751133,-0.098773785,0.0519388,0.093940385,-0.18196867,0.0060570487,0.1529796,-0.049453065,-0.13526894,0.038456433,0.040971,-0.05717551,-0.17902908,0.1572949,0.036479995,-0.1536765,0.061683033,0.072079346,-0.14835669,-0.021275593,-0.0054351743,0.037528876,-0.2198564,0.0072783493,0.25457358,-0.08592916,0.03862233,0.14798278,-0.06292498,0.008577307,0.00075188786,-0.31894067,-0.031843808,0.39242384,-0.18285468,0.053420864,0.16345914,0.10004293,0.109414026,-0.2492252,0.40176094,0.035789985,-0.44907796,-0.080784604,-0.06026205,-0.008910941,0.068021454,0.19662306,0.14498606,0.10980478,0.22453019,0.25863993,0.10713959,-0.024116194,0.07117443,-0.032733507,0.00092582766,0.086317845,-0.07491016,0.009915088,0.15202491,-0.043729007,-0.0050220904,0.08422172,-0.17437,-0.19163771,-0.12001967,-0.08344355,-0.10354703,-0.111390315,-0.045661975,-0.043458633,-0.016623601,-0.0709321,-0.06291964,-0.055900913,0.037003577,-0.019127084,0.083937995,0.053726465,-0.12028069,-0.1363758,0.32795718,0.43498123,0.01150019,0.2672565,-0.24523939,-0.26002336,-0.47895524,-0.93154955,0.16454983,-0.05501641,-0.019163568,-0.011952235,-0.10309918,-0.08223659,0.1172591,0.028294273,-0.07608375,-0.0048008896,-0.039152846,0.071298026,-0.064963445,0.13511766,-0.19073181,-0.288643,-0.17251033,-0.26113966,-0.06714699,0.11872061,0.046815254,0.09226398,-0.020766186,0.006932902,-0.047235876,0.040449895,-0.030084481,-0.043208815,-0.0053986777,0.29496893,0.050307207,0.030559199,0.07236906,0.02415471,-0.3963758,-0.5290907,-0.16262619,-0.15428957,-0.3948505,0.051273126,0.15179475,0.11495382,-0.04343359,-0.019168343,0.39701065,-0.18081434,0.009746631,-0.024971513,0.049344186,0.10881014,0.1780971,0.18204707,0.37328267,0.18465787,0.14025399,-0.20380494,0.06162441,-0.023783378,-0.17612463,-0.1179926,-0.1143356,-0.13518396,-0.16014531,0.06174408,-0.048998844,-0.11836783,-0.1714538,-0.2206712,0.108584896,0.22620541,0.03790176,0.041991107,0.2924087,-0.032084305,-0.0074314945,-0.036131717,-0.08268051,0.1414704,0.014392117,0.12571675,0.023148388,0.003957878,-0.21414523,-0.092137575,0.12026729,-0.23149318,0.041016266,0.14311631,-0.03750488,-0.02175864,0.017113695,0.13094299,-0.14835885,0.023040436,-0.28025693,-0.03330343,0.015364476,-0.0021213999,0.26092207,-0.034617696,0.04058563,0.13385789,-0.02224939,-0.038757972,-0.06504476,0.09382053,-0.06868066,-0.16350496,0.29097736,-0.057049353,0.15952224,0.14936355,0.066338874,-0.14323612,-0.072865956,-0.21463275,-0.49507365,-0.14569308,0.09531701,0.009287744,0.025858562,0.42932862,0.016324498,-0.30458,0.14557874,-0.1927091,-0.24540341,0.29848784,0.47154608,0.18319602,-0.08506822,-0.66245043,-0.25448692,-0.69859225,-0.8258002,0.07242651,0.036015954,0.06811086,-0.04054924,0.21072909,0.01807174,0.15592912,0.044420537,0.0049893674,0.03263634,-0.14577307,-0.11045022,-0.08101019,0.0012094867,-0.11596181,-0.16755903,0.06132967,0.01959782,-0.12540992,0.11041906,0.028105358,-0.18526387,-0.26238197,-0.12947907,0.095288135,-0.19140902,-0.16686639,-0.039698463,-0.031341955,0.10993605,0.12624359,-0.14870891,-0.16505495,-0.10063098,-0.13885614,-0.06483358,-0.15708643,0.076646514,0.078388125,0.031754266,0.009316986,0.10392251,0.21532694,-0.006098892,-0.10032628,-0.081091836,-0.4238242,-0.073227,-0.02584229,0.014074735,0.124865964,0.061804105,0.2867482,0.052818336,0.21318279,0.038259286,0.029909538,-0.0911682,-0.3185427,-0.20998052,-0.36842647,-0.22681507,-0.13838279,-0.26209298,-0.02016983,0.007847174,0.07267155,-0.008136286,-0.028032849,-0.022935582,-0.05670307,0.0974461,-0.05393868,-0.2864031,-0.26717588,-0.29163387,0.20334826,0.2427525,-0.17109954,0.14729244,0.25427455,-0.20507728,0.36752123,-0.1085913,-0.17106798,0.1680697,0.026351217,0.07027197,0.10176733,0.18596968,0.092967704,0.176835,0.07204688,-0.24225518,0.08700686,-0.039328516,-0.1292415,0.056149837,0.011536151,0.012385629,0.13938403,-0.07582443,-0.08915823,0.14916678,0.11152489,-0.08156882,0.058929864,0.02995958,0.01842224,0.26669392,0.064828545,0.1263141,0.22523034,-0.006600664,0.005081466,-0.36637175,-0.25274944,-0.03797649,0.22134386,0.07369824,0.048119962,-0.11433703,-0.07805575,0.12158038,-0.18340549,-0.27504936,0.040438227,0.21353817,0.35117176,-0.018163824,0.053924188,0.08771954,0.082732126,-0.03042772,-0.17867015,-0.082128376,-0.04816825,-0.17125316,-0.088172965,0.21102336,0.09222952,0.05369555,-0.011452707,-0.018015806,0.091263995,-0.033193737,0.13825332,0.04481156,0.19169286,0.16602084,0.08379954,-0.07338715,-0.16316013,-0.023141164,-0.14995198,0.0050497144,-0.04887065,-0.013430721,0.069652446,-0.024318187,-0.045812804,0.18467857,0.15499939,0.22843978,0.03851409,-0.1448504,0.015137516,-0.45739892,-0.3026014,-0.07104591,-0.26310968,0.09704204,-0.05242762,-0.16523011,-0.13363248,-0.028336626,-0.047044665,0.0014857111,-0.097319774,0.2384025,-0.041641705,-0.04563956,-0.04004244,-0.18516414,0.22584555,0.11165409,-0.10417232,0.1484558,0.13619743,0.14175211,-0.1983647,0.082759075,0.09043037,0.06633857,0.2998029,-0.053089302,0.013089837,-0.058275808,-0.20749627,0.17956126,-0.14038181,-0.14001754,0.008226338,-0.1479448,-0.17500454,0.024496842,0.0003507423,0.32877642,0.24955842,-0.18880805,0.03482844,-0.01380332,-0.42042276,-0.16538118,-0.076303475,-0.221637,0.05388709,-0.09195114,0.12087212,0.26196533,-0.086726986,0.13617721,-0.05563572,-0.06409194,0.03197177,-0.020847484,0.26926327,-0.23033786,-0.08892271,-0.121369764,-0.39774683,0.08869205,0.060549233,0.011758935,0.12027053,0.39278224,-0.02157867,-0.28966403,0.15776573,-0.34448048,-0.26621786,-0.049400713,-0.070716314,0.30649397,-0.14749064,-0.016273357,0.06312907,0.1002746,-0.02487322,-0.20644486,-0.15363294,-0.31071624,0.1503165,-0.090854965,0.040420458,-0.07234145,0.25260726,0.48402482,0.122408226,-0.13852927,0.06380071,0.21013236,-0.015497719,-0.22469105,-0.2242405,-0.25778878,-0.6222006,-0.4091819,0.031597663,-0.3156188,-0.09831568,0.20870958,-0.06499681,-0.023302795,0.1789058,-0.30930346,-0.15137732,-0.07215964,-0.124096036,0.049919453,0.014213393,0.36421937,0.18972279,-0.13454117,0.2025996,0.09517954,-0.02856233,-0.14054054,-0.06505012,0.1391921,-0.11640637,0.036010817,-0.108565815,-0.41375554,-0.10287575,0.0009529422,-0.18042797,0.07057581,-0.07301788,0.040042028,-0.10131705,0.08891143,-0.05799658,-0.024849014,0.0036803521,-0.06655865,-0.07901535,-0.043758556,0.07687857,0.11109204,-0.45674995,-0.42855948,-0.028480101,-0.12557848,-0.3358222,-0.06386317,-0.077320196,0.0013103122,0.06998532,-0.14513995,0.018594973,0.20490971,-0.09128805,0.103420414,-0.053507198,-0.043462317,0.079674914,-0.030967025,0.1310649,0.21348244,0.08110614,0.21000382,0.18622237,0.03830578,-0.044370167,-0.005985873,-0.0416072,0.060912274,0.22034313,-0.022704815,0.01726183,0.0975525,-0.08812683,-0.13666767,-0.07984683,-0.17771152,0.31760615,0.37443927,0.035177514,0.21713921,0.17652787,0.019884937,0.13997796,0.051042657,-0.041361056,0.08686961,-0.06996484,-0.095207915,-0.1989809,-0.22621636,0.114560544,0.08984454,0.044576645,-0.09905019,0.122111395,0.09203557,-0.054368053,-0.1179152,-0.044580426,-0.08567698,-0.07715676,-0.00050729484,0.04169103,0.09149141,0.08533367,0.12570257,0.13357322,0.14947678,0.02523509,-0.14045459,0.0216656,0.069520295,0.051762775,0.1499564,-0.0128364265,-0.048170023,0.20133919,0.08699138,-0.12071391,0.0403752,0.07884566,-0.06910341,0.26405925,0.039379757,-0.036255095,0.05141128,-0.085972376,0.059181314,0.00050657976,0.09326722,0.22084865,0.06002934,0.24581888,-0.07344793,-0.23744772,0.16425219,-0.018646812,0.13960707,0.102557614,-0.056698117,-0.27957413,0.046080403,0.11454894,0.0017992185,0.023532879,-0.10771152,-0.06016664,0.051004123,-0.21734056,-0.6842319,-0.33427054,-0.03783379,-0.20454857,-0.06816841,0.028090231,-0.14814684,-0.07467362,-0.17562373,-0.45776603,-0.027058797,0.06978922,-0.17277071,-0.004696837
